-0.02755163,-0.044300735,0.012643236,0.029410403,-0.068417296,0.07663294,0.0184204,-0.014852859,0.0075917193,-0.0070072366,-0.022608817,-0.0045925668,0.011503243,-0.048667718,-0.0043886052,0.058604553,0.010212212,-0.025791246,0.06120179,-7.622739e-06,0.034571707,0.02705869,-0.035653483,0.02089616,0.039409496,0.044374555,0.037782535,-0.0033991216,0.033381674,0.043045875,0.01765868,-0.051134847,-0.006338732,-0.04606007,0.0069772536,0.049750485,0.06370585,-0.039746515,0.009349592,-0.012137566,0.05691934,0.048926733,0.0051833354,-0.021131951,0.0066732108,-0.019660968,0.0069501316,-0.0028940612,-0.087415226,-0.028049491,0.013527571,-0.021476857,0.015523504,0.072926216,-0.1241817,0.020855498,-0.06295989,0.019794244,-0.023158971,-0.06799964,-0.07164424,-0.054798145,-0.033770815,-0.04461506,0.024069518,-0.0043161074,-0.025608711,-0.030349135,-0.024352664,-0.014172937,-0.008450426,0.042810883,-0.010872829,0.0046764435,-0.02468468,-0.022670362,-0.034549836,0.03896544,0.056029722,-0.0069400654,-0.02052798,-0.04589902,-0.04809933,0.016720738,-0.015931489,-0.009672357,-0.026754621,0.014396443,-0.00866613,-0.028047971,-0.054057866,0.0107220765,-0.043449577,0.0430459,-0.041795973,0.012061334,-0.008832311,-0.06307594,0.050848734,-0.0062665395,-0.01214073,-0.036612377,-0.08212919,-0.009464839,0.023426935,0.020668456,-0.042174146,-0.017305546,-0.0022407458,0.0077674347,-0.022527838,-0.022105968,0.037324157,-0.022223478,-0.018658817,-0.021053478,0.025944795,0.040768135,0.03275812,0.027826382,0.037526034,-0.047598816,-0.015908808,-0.044908356,-0.050520472,0.000601214,-0.022429839,0.031021738,0.043291252,-0.041473117,-0.033796962,-0.015751908,-0.01892776,-0.031580407,0.026833024,0.041055284,-0.016964413,-0.01507324,0.03647554,-0.006163352,0.03605439,0.025330996,-0.027038889,-0.06441794,-0.02136636,-0.03634131,-0.04690769,0.010619957,-0.012016799,0.029670434,-0.039002813,-0.011972314,-0.03327586,0.0023579532,-0.016123975,-0.0018049639,-0.0463279,-0.0469305,-0.025536789,0.069415554,-0.016019868,-0.0021575815,0.00041252302,-0.004376072,-0.01933635,-0.024543285,0.0588221,-0.04084274,-0.0031904073,-0.07368422,-0.0047789593,-0.0011595767,-0.041003335,-0.018261371,-0.09438143,0.015356035,-0.012297983,-0.019219812,-0.029676601,-0.020234903,-0.03631767,-0.010004482,0.0066166543,0.043738175,0.079101205,0.019712728,-0.023739655,0.010340186,0.031393472,-0.015170595,-0.00058050064,-0.08451274,0.03675876,-0.031038355,-0.0124582015,-0.0007528599,0.03441573,-0.024314556,0.023363004,-0.0013581131,-0.013756227,0.02058031,-0.016445355,-0.015411625,-0.0077695237,-0.041389592,0.027012447,0.011868564,0.04066009,-0.0011764066,0.03700462,0.003276813,-0.036324233,0.010260134,0.03705065,0.022430198,-0.03203569,0.010060399,-0.023829624,-0.045861743,-0.039133973,-0.027984701,0.01726488,0.051976394,-0.01699852,-0.037561048,0.021515494,-0.012513433,-0.030297806,-0.0072706915,0.0027842692,-0.04392587,-0.055771533,-0.010625799,0.03936952,-0.04350678,-0.016523201,-0.08430538,-0.034453545,0.016574096,0.018127097,-0.035470705,-0.013498803,-0.009333152,-0.03196887,0.07258002,-0.033564985,0.009763799,-0.024884554,-0.00042346772,0.0073929764,0.013289741,0.0062489198,-0.00054966245,0.0064703543,-0.008145567,0.0014215453,0.019473538,-0.06343092,0.025741214,0.031389482,-0.020968454,0.003321504,-0.013311034,-0.0078328345,-0.01703112,0.004608414,0.01259995,0.029481065,0.033324666,-0.047572184,0.031866852,0.017254919,-0.022202067,-0.033235706,0.004401655,-0.003866081,-0.06014595,0.060522243,0.008175718,-0.016507167,0.07542017,-0.015957732,-0.052046068,0.030503469,-0.0073278253,0.022129549,0.024712093,0.036803845,-0.03131255,0.010526589,-0.011945589,-0.03016621,-0.0357324,-0.016999193,-0.006519417,0.050090075,-0.0036022293,-0.0026558435,-0.044677723,0.009580933,-0.04710937,-0.019991858,0.047136452,0.059175942,-0.03333927,-0.042733178,0.009257365,-0.008258945,0.018766318,0.034468096,0.011973013,-0.028705273,-0.007999132,-0.0049264506,0.048537675,0.008285411,0.013185934,0.011597185,-0.054795787,0.038739596,-0.05411414,-0.056205872,-0.04188465,-0.03216416,0.023026539,0.011801281,-0.009938414,-0.01777799,0.030287119,0.00972823,0.03849886,-0.0076234485,-0.021868967,0.06787659,-0.033496648,0.013989735,0.002264982,0.005508096,0.012174727,-0.06898743,-0.029999722,0.0401957,-0.013515639,0.030715372,-0.022138672,0.019965747,-0.033344083,0.0035066938,-0.021387478,-0.03978112,0.0007094501,0.037900746,0.009402575,-0.01715192,0.079492815,0.029414073,-0.018640766,-0.02487577,-0.045356132,-0.017665353,-0.016398842,-0.039328367,-0.04917682,-0.029208118,-0.04193431,0.023777634,0.0075579016,0.026168713,-0.04808178,0.029851785,0.04239798,0.0042621065,-0.0020849023,0.014820222,0.0052715275,-0.027993836,0.037028182,-0.074344605,-0.019288449,-0.022137947,-0.017158167,-0.019091591,-0.05568994,0.012423808,0.034431115,0.013570989,0.016820123,-0.0069266106,0.0055537694,0.03543194,0.03403704,-0.008744804,-0.0064322213,0.00168642,-0.025662415,-0.012454868,0.043168712,-0.019081563,-0.050791558,-0.019651098,0.06566828,-0.010494951,0.008421801,0.030096754,-0.021339085,-0.0027443254,0.040490657,0.006285007,-0.012432199,0.051426116,-0.03987348,-0.03559181,-0.031379554,0.021062138,-0.026511578,-0.048114147,-0.06435364,0.0066475067,-0.008661192,0.0014811781,-0.01322319,-0.027445743,-0.03128291,-0.029507576,-0.058985647,-0.0029037588,0.01097408,0.023615126,0.047050864,0.0038654383,-0.021810705,-0.029441604,0.046922814,-0.0453351,0.022190386,0.0060872184,-0.012712687,0.018769601,-0.026075322,0.022387752,-0.009043618,0.0041218,0.016294472,0.005599453,0.01875592,-0.03874825,0.02637037,0.03654914,-0.00896592,-0.009460638,-0.022631936,0.003985675,-0.03247469,-0.029435433,0.017054781,0.024201348,-0.08045167,-0.013336878,-0.016183844,-0.014621218,-0.078965314,0.03606405,-0.0022946387,-0.0078446455,-0.04937047,0.01861555,-0.051997866,-0.016975924,0.027898459,-0.03225583,-0.0037873809,0.046461724,-0.010176277,0.05871341,-0.08348305,-0.013273057,0.0016126217,0.032049775,-0.002082538,-0.014466133,-0.0044716187,-0.009279652,-0.0056603155,0.018760294,0.0469868,0.024061864,-0.012179876,-0.058473032,0.0050852336,0.04346237,2.608997e-05,0.011138604,-0.080676936,-0.0022004165,-0.034317203,-0.014773927,0.031273745,-0.020131242,-0.012685769,0.01662889,0.010404633,0.0076402547,-0.0008903341,-0.027127191,0.005130061,-0.015872484,0.013727223,0.026063237,-0.024852099,0.016391482,-0.028012414,0.03691288,-0.050145872,0.029193016,-0.0038276785,-0.00035541275,0.010144923,-0.03147982,-0.03419099,-0.024730647,0.023482293,0.01959118,-0.032389104,0.026543027,-0.012995212,-0.029214025,0.03985679,0.053135183,-0.09556165,-0.028550163,0.002215176,-0.021796722,0.032121245,0.0034951791,0.030296462,0.03409835,-0.031143542,0.009624563,0.059104156,-0.059913915,-0.021148715,0.0017453992,-0.05057914,-0.018272065,0.0018604979,0.04571522,0.030472046,0.020102449,-0.022216482,0.020584602,0.028041312,0.028949002,-0.03527817,0.017935691,0.0307968,-0.025676597,-0.009453424,0.029175114,-0.007927824,-0.06900802,0.01894683,-0.004498899,-0.010428787,0.018769646,0.010805779,0.019880647,-0.05446966,0.021196347,-0.07665468,0.028679168,0.07221777,-0.01032521,-0.002758238,-0.055745527,0.036978487,-0.0390903,0.046759516,0.11259819,-0.007896931,0.017158126,0.027008282,0.03501671,-0.07768372,-0.037799887,-0.053838015,-0.038509693,0.019766785,0.013146419,-0.052764583,0.00048011605,-0.011004462,-0.03404529,0.02618166,-0.017117783,-0.04724701,0.027190369,-0.03971507,-0.0075856713,0.0060985293,0.07798096,0.074379265,-0.036092654,0.017630452,0.11244844,0.009892513,-0.003044029,-0.006287581,0.025778817,-0.037572958,-0.020618927,-0.0026200411,-0.025256192,-0.02217614,0.02823152,-0.0024201528,0.034433175,0.028346937,0.030796872,-4.3495776e-05,0.013913036,-0.010629151,-0.08717362,0.0051049436,-0.061033525,0.035449848,0.03982881,0.01304245,0.054394513,-0.019842176,0.01624684,0.027522407,-0.042753667,0.04012949,-0.013364089,0.017724806,0.05181966,-0.03771496,-0.024377408,-0.012847616,-0.07391722,-0.0074729654,0.024872238,0.025061496,0.0015899066,0.022717368,0.05168631,0.04396808,-0.008715656,-0.068891875,-0.022629283,-0.030988432,0.06250645,0.016006803,-0.004188326,-0.051452547,0.0029179412,0.009798882,9.2935225e-05,0.040371835,0.0371887,0.04349019,-0.004811777,-0.042974044,-0.0598836,0.01747064,-0.0374468,-0.03954471,-0.00684079,0.021508547,-0.023756837,0.040517535,-0.07176138,0.0075119366,0.053586453,0.004150038,-0.026567535,0.006616645,0.048656225,-0.028113721,-0.0020802226,0.0032682568,-0.016113743,-0.010133992,0.01762228,0.017399115,-0.0050269966,0.011591271,0.002175226,0.00152437,0.010974992,-0.015580055,0.05889061,0.004906655,-0.064249985,0.046842657,-0.019624999,0.08813238,0.047945596,-0.060246866,0.0459132,-0.06950814,-0.015931452,-0.037140153,0.03916245,-0.04648043,0.028992895,-0.051621966,0.010190831,0.03068125,-0.027544731,-0.009988896,-0.06135346,-0.012369988,0.06672861,-0.027124591,0.02628405,-0.03034898,0.006398106,-0.018763002,0.039574858,-0.023876505,0.040185556,-0.0038766013,-0.089876145,0.038207356,0.003908984,-0.019434374,-0.014794857,-0.016713891,-0.09519937,0.02189645,-0.04417661,0.01931265,0.011867854,-0.0153647745,0.030772833,0.010926598,0.008035157,0.053529114,0.02328205,0.058447957,0.04862629,0.020003304,-0.043992683,-0.011471678,-0.039968323,0.032344118,0.012331934,-0.0015640827,0.009296054,-0.028298276,0.020218726,0.069925345,-0.087821335,0.03680955,-0.023502398,-0.011057752,0.009637468,-0.034709875,0.013954255,0.0020643587,0.030423356,0.025710743,0.011475978,-0.051063348,0.027510243,0.033961374
-0.0023468202,0.048359632,-0.18313956,0.064670995,-0.038593132,-0.05087265,0.082312755,0.09492525,0.03124608,0.10652076,-0.06728022,-0.14532769,0.13133822,0.09683219,-0.023563564,-0.0037742273,0.02515147,0.08920226,0.05156373,0.069235645,-0.1118147,-0.051381316,0.091370545,0.030839581,0.0021353264,0.03208128,-0.062025268,0.08861346,-0.05798954,0.094550125,-0.13782217,-0.06785528,-0.014218531,-0.011939291,-0.07843889,0.021818712,0.091987304,0.027488101,-0.06579282,-0.032684796,0.02507177,0.21351957,-0.07088654,0.13186742,0.06410521,-0.016274234,-0.06935771,0.1603484,-0.05835528,-0.008427864,0.08862889,-0.036085207,-0.031999487,-0.121982425,-0.024248002,0.094155334,0.01303555,-0.07030269,-0.10328742,-0.07150285,-0.03691894,0.065210424,0.115859434,-0.0033121067,0.026840106,0.08228528,0.07078809,0.09877111,0.11580062,-0.086242445,-0.088103004,0.011804684,-0.060041994,-0.079335086,-0.005615082,-0.21375859,-0.043973967,-0.014085536,-0.021337124,-0.0008397634,0.09427927,-0.10670889,0.023832953,-0.06904528,-0.034964852,0.12732904,-0.09761656,0.007952319,-0.019108152,0.12764885,0.115856744,0.08000013,-0.04845825,0.011932304,0.07096618,0.026126102,0.07441552,0.012741741,0.05668425,-0.012434089,-0.012794551,-0.15258434,-0.11240744,-0.016928287,-0.02013077,0.08502784,-0.024323057,-0.0028809996,0.004701293,0.016065406,0.0056018494,0.102758884,-0.04422695,0.092679344,0.019753402,0.000549802,0.108139016,-0.12038715,-0.03571475,0.036975082,0.0029526644,0.01948796,0.062410306,0.015759392,0.032367915,0.09267687,-0.0010971767,0.06284741,-0.06603576,0.027840614,-0.008607288,0.13414203,0.016260117,-0.11356229,0.077443175,-0.23228808,0.034576222,0.01893852,0.025058504,0.014884979,0.07849426,-0.059846435,-0.031974766,-0.11465183,-0.119040586,-0.12664942,0.021385511,0.048236493,0.010643394,-0.04141237,-0.02987838,-0.0036112,0.008544915,0.113396615,-0.071755886,0.027387926,0.034238953,-0.15060078,-0.12217883,0.04268257,-0.021017067,0.19079654,-0.005388744,0.05917785,0.046002727,-0.0138637675,0.09541215,0.16992128,-0.026428664,-0.11756297,0.04811228,-0.0061425776,0.071726,-0.055598497,-0.04869663,-0.042600732,-0.011801766,-0.039944053,-0.06545217,0.05462344,0.052814245,-0.08627963,-0.09815345,0.0016116938,-0.101020396,0.048842095,-0.09682613,-0.02254684,0.12829289,-0.0014522659,-0.08398849,-0.011762888,-0.081908256,0.004987244,-0.10743198,0.012108168,0.032138813,-0.09466977,0.09645426,0.10321479,0.076336674,-0.009728125,0.055126496,0.13564003,0.13954173,-0.00053685636,0.033094127,-0.020629568,0.026770024,0.061849188,0.02784147,0.037151866,0.0066236793,-0.043532424,0.06835947,0.11525947,0.017141804,0.026934184,-0.023765907,0.06376638,0.0020373545,0.06002722,-0.036054194,0.009369567,0.090005234,0.022393532,0.035158668,-0.06479767,0.0024602273,0.06746821,-0.047613956,-0.26616818,-0.04015198,-0.12137894,-0.0040409896,0.0016662109,-0.050407607,0.16370869,-0.07106457,0.035597708,0.0430929,-0.0066818474,0.0925197,-0.013744041,-0.07681815,-0.043539662,0.09377371,-0.05827262,0.0022855606,-0.055394214,0.014175346,-0.006277532,-0.06417319,-0.014843661,-0.060618438,-0.0086537665,0.12025024,0.016117783,-0.18204874,0.086187065,-0.1284704,0.06622259,0.0009575415,0.0839805,-0.008759573,0.046254165,0.03222546,-0.0076092966,-0.012200453,0.081821725,0.045955066,-0.05934363,0.039221395,0.020186355,0.09503541,0.034102682,0.06558881,0.035605967,0.024280723,0.0030431168,0.06226148,-0.0886319,0.013906964,0.10972314,0.08265675,0.020823885,0.006504972,0.023428902,-0.038196802,-0.019235244,0.030642804,-0.096652515,-0.074996896,0.081890605,-0.004899019,0.047414817,0.042324696,0.10188386,-0.1334315,0.050490204,0.033144083,-0.06342031,-0.020635245,-0.023045473,-0.04766196,-0.015863122,0.042865314,0.10321473,0.088423744,0.0150471,0.055597387,-0.090367086,0.064418264,0.12220704,-0.14569636,0.009032645,0.071484104,0.1027918,0.06696903,-0.035169717,0.028624596,-0.03814617,0.022949424,-0.036600374,0.028046206,0.10464606,-0.039427564,-0.03953496,-0.00041797035,-0.088507436,0.0358575,0.066318594,-0.07093745,0.08005709,-0.011847333,-0.13778348,-0.100766666,0.005582266,0.028274698,0.13273904,0.019549033,0.0536973,0.033796433,-0.12285494,-0.051717736,0.0059380764,0.020862151,0.04801797,0.08166203,-0.046798024,0.039118037,-0.008042971,0.056350734,0.01958974,0.13322586,-0.024594128,0.022724831,0.12761004,0.09103096,0.06359407,0.06603374,-0.04069071,-0.065084085,0.009415107,0.0113021005,-0.080889285,-0.029550914,0.018446289,0.11443754,0.000962676,0.023637498,-0.09428625,0.013912235,-0.06743913,-0.0023567472,-0.11222909,0.018418996,0.07324572,0.060356587,-0.07388633,-0.014321732,0.037437107,-0.020607315,0.018439408,0.06188147,0.09357039,-0.027327882,0.038041364,0.05099517,0.05374215,0.015883142,0.079298824,0.025994588,0.093346626,-0.0038526428,-0.02813274,-0.07198182,0.043948486,0.0042399424,-0.08515401,0.0966786,0.06664421,0.111199066,-0.02951978,-0.049930565,0.034079973,0.06077824,-0.08031878,-0.045510728,0.111956194,-0.08208687,0.032754064,0.093124904,0.13501528,-0.04625686,-0.009084859,0.082076564,0.032153025,-0.073497005,0.032445695,-0.08824668,-0.06630908,-0.09646562,0.100724824,0.05666974,-0.011907268,0.09878168,-0.009239025,0.06700601,0.009062794,0.1308514,0.016282406,0.040602982,-0.062898874,0.013001593,0.10917931,-0.10876847,0.07987177,-0.10342371,0.019282937,-0.0909373,-0.058106378,0.14155225,-0.07837114,0.019245828,-0.05949942,0.12830696,0.06378918,0.10110445,0.016744366,0.07712292,-0.08700952,0.014605038,0.03515473,-0.008406843,-0.019750537,0.046698343,0.1211226,-0.0658733,-0.07294904,0.17002882,-0.12095187,0.122508466,-0.00040353276,-0.009556362,-0.009629567,-0.002648057,0.092028245,0.00061184325,0.04068003,-0.10578964,0.115473874,-0.012683154,0.079652585,-0.012383793,-0.082506,-0.010857923,-0.07633234,0.04929753,0.071445875,0.0026157235,0.052939814,-0.050629716,0.040397506,-0.1059376,0.051188976,0.099114455,0.029518267,-0.061135754,0.021799091,0.07446981,0.006140462,0.003830759,-0.025300382,-0.014708269,-0.0005768703,0.04979645,0.025279254,-0.042209584,-0.08270892,-0.001372508,-0.028517406,-0.05505385,0.07180811,-0.0025848178,-0.10928852,-0.008010088,0.08866903,0.11828341,-0.035846084,0.09972085,0.06921727,0.034823403,0.07002579,0.07073628,-0.012542692,0.024406089,0.13585094,0.025203982,-0.025818447,0.04152385,-0.02803503,0.039081585,0.16035846,-0.065739125,-0.090943135,-0.015998168,0.016413884,0.06879828,0.031531915,0.044003487,0.032026634,-0.014801021,0.05550548,-0.02482956,-0.0021257855,-0.05655065,-0.10291717,-0.065725155,0.023146346,-0.10246677,0.04675811,-0.05094683,0.019479396,-0.017808506,-0.0939298,0.046556503,0.046465784,0.0011949023,0.037176274,-0.01179484,0.04681211,0.10585186,-0.01718604,-0.10238429,0.04048616,0.074515484,0.01393694,-0.0227638,0.07337498,0.020520993,0.010586765,-0.10805766,0.06691327,-0.13320477,0.051433817,0.14487019,0.07892634,-0.103499405,0.082693376,-0.0667405,-0.022580383,-0.013747319,-0.08848332,0.030831048,0.029796176,-0.0014996228,-0.024810402,-0.064965956,-0.110825635,0.026815038,0.025047056,0.051333446,0.03776847,-0.07032993,-0.107998654,-0.014451082,0.029459096,-0.09104665,0.07077222,0.108547874,0.12897807,-0.09567463,-0.058785085,0.071096495,-0.018998777,0.116621755,0.057579614,0.0065198517,0.081547655,-0.0071575684,-0.11443966,0.059856102,0.021786824,-0.18825571,0.009065216,-0.038526725,0.066883884,0.0091650225,-0.074942954,0.085864864,0.0020892178,-0.005254122,0.093085036,-0.045357864,0.08025956,0.07162357,-0.043682516,0.12101845,0.037976872,0.14907351,0.049260173,-0.059209075,0.08177927,0.113600686,-0.1670927,0.10167812,0.12538217,-0.16543151,-0.0045812484,0.095907785,0.051640853,-0.043571483,-0.1577025,0.22080854,0.097794674,-0.11839593,-0.0035850664,-0.049130358,-0.030569408,0.009462982,-0.060409196,-0.00080097816,-0.0018070127,-0.017530791,0.07705994,-0.028337056,-0.03677733,0.029433096,-0.043928515,-0.032937046,0.0064806486,-0.06202439,0.08130601,-0.005338751,-0.014123166,-0.031443913,0.025297925,-0.2107579,0.09985632,-0.0032761316,0.03525355,0.05295589,-0.04852359,-0.068387784,0.0026379295,-0.009210575,-0.17612585,0.079975255,0.06395388,0.06342621,-0.015673503,-0.017498009,0.17145364,0.05237222,-0.035614856,0.0008030792,-0.04169535,0.08742402,0.01150903,0.04305001,-0.055939745,-0.14483196,0.016988168,0.066600434,-0.0033425882,-0.12126548,-0.032003626,-0.1399016,-0.03223154,0.07496308,0.11571784,-0.035183374,0.009861826,-0.016547099,-0.03358092,0.03083929,-0.10095909,-0.14194192,-0.047584534,-0.17486295,0.0585478,-0.26497155,-0.16101465,-0.011446676,-0.006386458,-0.04222858,-0.025112983,-0.108404845,-0.097219534,-0.06608606,-0.0042804666,-0.055745095,-0.030972298,0.10603862,0.009291807,-0.01679875,0.08063302,0.0673458,-0.0007990471,0.033604953,-0.02391024,-0.05838522,8.624203e-05,0.084762745,0.044305682,0.005067412,0.30510834,-0.24141912,-0.03945354,-0.049243636,0.004650389,-0.008691033,0.097389124,-0.2176908,0.08064175,-0.12853718,-0.0048317737,-0.074430145,0.024224883,0.04133799,0.039281458,0.021370128,-0.06346322,0.04404872,0.057103988,-0.13841176,0.12930475,0.07729349,0.04608245,0.059812367,-0.058883302,0.0312275,-0.12178159,0.086253546,0.019472722,-0.051662654,0.07441619,-0.009175394,-0.05434076,0.08812956,0.06358787,0.10543915,0.028718604,-0.07554225,0.024838049,0.03576476,0.03087615
0.023172973,0.035859052,0.005981061,-0.020025289,-0.012248354,0.012945803,-0.0045329113,-0.006681951,0.0076259305,0.03537081,-0.010768345,-0.009005324,-0.030005533,-0.026919773,-0.023947395,0.0033832162,-0.035765093,-0.01605155,-0.02171736,-0.017155139,0.0018828455,-0.02871961,0.037951432,-0.029712392,0.019138556,0.011177594,-0.026505237,-0.00426264,-0.011036494,-0.039728116,0.015488146,0.015911419,0.03884385,-0.028444054,0.016936887,-0.020004515,0.016168637,-0.013911719,-0.008349319,-0.011604289,-0.011148205,0.013771301,0.018192213,0.01584363,0.0051283985,-0.006591348,0.021269651,-0.02920192,-0.03253897,-0.017530333,0.0017785052,-0.009093066,0.022442074,0.022473788,0.019323666,0.0022290968,0.03159058,-0.020838417,-0.02515354,0.0191781,-0.007832354,-0.042367324,-0.029946666,0.029117938,-0.015690599,0.015332209,-0.02293134,0.03388861,-0.024601355,-0.005274193,9.417773e-05,0.0047979844,0.026442915,-0.008436593,0.011924899,-0.000632634,0.014530723,-0.018659435,0.010518464,-0.015781296,0.010333216,-0.018588232,-0.010289698,0.02397895,0.017183952,-0.0061831963,-0.016588522,-0.03276497,-0.024340732,-0.036929924,0.0016833835,0.008869172,0.0037049912,0.011457763,-0.04268045,0.019410035,-0.02058376,-0.026442848,-0.033747505,0.02610652,0.02845107,-0.02752822,0.010454076,0.02786482,0.02666554,-0.021058084,-0.032629516,-0.010957687,0.00431476,-0.020570092,-0.024748987,0.027770285,-0.008814556,-0.011600631,-0.024659771,0.024754737,0.018683279,0.00062195404,0.0021876656,0.022610975,0.013386427,0.0027739154,-0.022764444,-0.007796921,0.0025053257,-0.006751085,-0.020438593,-0.025326679,0.0042140963,0.03302482,-0.006649812,0.0038587218,-0.02008068,-0.017715566,0.028265176,0.024602769,0.012415947,0.01481272,0.006926858,-0.027972005,-0.030117577,0.007364037,-0.002093125,-0.022740828,0.027573543,-0.015589361,-0.0318024,0.01928088,-0.021603502,-0.004149007,-0.024545668,-0.02975341,0.02143582,-0.012665165,0.002157091,-0.02239726,-0.02790248,-0.008013341,0.014916367,-0.00045269323,0.034766827,-0.01216838,0.021486374,0.041443262,0.0068419455,-0.005416663,0.029115982,-0.009910696,-0.022007272,-0.018702803,0.020141097,-0.012627642,0.01762694,-0.0046137716,0.030345445,-0.0097493315,-0.02647934,0.024020713,0.019264758,0.0010437813,-0.013654944,0.031324144,-0.0150576215,-0.023017848,0.0071198707,-0.00574495,-0.029510092,0.03501827,-0.024027526,-0.026886292,0.0057592615,0.0050500208,0.04623378,-0.017961243,-0.027794434,-0.026967341,-0.019112816,-0.035226014,-0.008779622,0.037983786,0.012694661,-0.036613557,0.03454289,-0.015472251,-0.029371465,0.024497295,0.01339463,-0.018384473,-0.024822881,-0.014501181,-0.026866723,-0.034886934,0.00011750396,0.008700493,-0.015498535,0.023438385,-0.0037030985,0.011224958,-0.024372516,-0.03011572,-0.024516162,0.029345702,-0.018086266,-0.0002461038,0.0008074166,-0.023127703,-0.015254055,-0.027286561,0.00033628786,-0.011163356,0.035675626,0.01122259,-0.010041837,-0.013334961,0.0035616823,0.015560839,0.023575788,-0.0110955285,-0.02502023,-0.005417048,-0.019296356,-0.010609974,0.031184215,-0.013831542,-0.007733963,0.036224484,0.020947348,0.035031658,-0.041625474,0.030995453,0.042488698,0.02953624,-0.026632665,-0.033521168,0.015946884,-0.0067849364,0.02521779,-0.008543644,0.0024559794,0.026942607,0.027828068,-0.01699327,-0.011575813,-0.03547577,-0.028402718,-0.022374727,-0.018843409,0.019598749,0.005313246,-0.0064446614,-0.027039353,0.019948509,-0.029994301,-0.03497054,-0.008881333,-0.02065405,-0.03148038,0.04316566,0.035743296,0.028099593,-0.008328043,-0.025479354,-0.02110395,-0.020448314,0.009726689,0.02077118,-0.029718516,0.026633123,-0.01851922,0.0011295741,0.020066034,0.0022063574,-0.0044319746,0.03736888,-0.027579362,-0.02678848,-0.01634295,-0.013246038,0.03955482,0.024359467,0.017826458,0.03313494,0.025418574,-0.027626501,0.02205695,0.006671709,-0.011745468,-0.03930263,-0.016167171,0.037180837,-0.024425581,0.006273108,-0.0032859452,-0.01225231,0.022144288,-0.036276102,-0.014483094,0.017061982,-0.014814305,-0.016210396,0.025577432,0.02441374,0.024928039,0.027229385,0.018566307,0.010943222,0.01501174,-0.019429633,-0.0017663339,-0.029610667,-0.019635303,0.024897771,0.027035372,0.021757338,-0.023912596,-0.020726146,0.0010193967,0.0023511671,0.0039668195,-0.019281996,0.023291614,-0.01977112,0.019757634,0.00091327605,0.0196299,-0.018759927,-0.044773217,0.009157362,0.0060287616,-0.014061753,0.02106156,-0.0037239643,-0.023626173,-0.010857767,0.016151676,-0.009831239,0.03707109,0.009315632,-0.029185865,0.006829327,0.0043237116,0.02417212,0.0005255525,0.023798158,0.024317242,0.030544966,0.02993135,0.02789709,0.029312149,0.023625094,-0.023699664,0.019515226,0.006482971,0.010721517,-0.029992452,0.010857342,-0.022989217,-0.0011746315,-0.03915061,0.046314143,0.011899895,-0.013264494,0.01670723,-0.035494108,0.0053532547,-0.01391797,-0.0017751043,0.02365971,-0.03604442,0.022218496,-0.029841071,-0.013695313,-0.011354207,0.0071090627,0.020978224,-0.008662825,-0.018373135,0.002033655,0.002481333,-0.028714523,0.030291261,0.008504949,-0.020976283,-0.010180176,0.02453897,0.018072246,0.02505005,0.012668416,0.004272417,0.022465348,-0.009759711,0.018335663,-0.00828783,0.020581035,0.01674648,-0.02776969,0.011534403,0.03308681,-0.0026046596,0.030109778,-0.034994315,0.0008971854,-0.033860445,-0.029758448,-0.017099483,0.01216125,-0.011418344,0.035537027,-0.01812617,0.027297812,0.013930623,-0.016901217,-0.03178521,0.013035184,0.025120823,0.007283888,-0.017033614,-0.02192914,-0.025167372,-0.027060173,0.0049470025,-0.025040077,0.013604436,0.017161721,0.027659178,0.006042103,0.04072298,0.03758675,-0.02368539,0.015100479,-0.003964442,0.015918728,0.036258966,0.025439363,-0.03733454,0.013531366,-0.0031902886,0.023876391,0.029932855,0.008162263,0.014570968,-0.018344706,-0.0026417559,0.026472306,0.03107585,0.025866056,0.015697619,0.008718491,0.024537532,0.03149197,-0.025983596,0.016617855,-0.021753067,0.023512175,-0.018926727,-0.0011335417,-0.025973586,-0.011808866,0.005465317,0.006458804,0.03110761,-0.023642303,-0.0107619865,0.012165511,-0.025558382,-3.586355e-05,0.035139922,-0.011335352,0.006394698,-0.005278421,0.0031330353,-0.011013153,0.0026870898,-0.02209674,0.026205601,0.022086034,-0.013208882,-0.010200568,0.01992614,-0.031967364,0.0013609447,-0.011910814,0.021712251,0.025686283,-0.0061501563,0.021537239,0.018914906,0.00085896207,-0.0030407836,0.029998576,0.012717893,-0.012182121,-0.020264108,0.02860174,-0.015515694,0.03167341,0.00946586,0.019164443,-0.024825847,0.016144916,-0.0031112216,0.0018533517,-0.01814743,-0.009657735,-0.032913912,-0.0066850856,0.02085831,-0.034694362,0.021195132,0.01733646,-0.01414,0.043519516,-0.015916701,0.023186654,-0.033987135,0.03351855,-0.03925863,0.0038348169,0.02037762,-0.0026764255,-0.009041843,0.021761274,0.02116439,0.0018477716,0.023630373,-0.024064789,-0.018357396,-0.026364697,-0.0026702674,0.03200411,-0.02904142,-0.0053596967,0.019904004,-0.005167257,0.03208125,-0.0022729933,0.012709381,0.014204017,-0.005533533,-0.030036705,0.010817398,-0.01293596,0.007748847,-0.016820788,0.02724369,-0.025556082,-0.0036504357,0.016722502,-0.006844105,-0.010052183,-0.013096239,0.03235494,-0.0052124043,0.024273962,0.010254468,-0.018083384,0.029328955,-0.017086731,0.0010162585,-0.017090924,-0.029268013,-0.019577608,-0.0016769507,-0.004505284,-0.033134293,-0.035849243,-0.030876588,0.02353245,0.0025271315,0.03269447,0.010192966,0.017093474,0.014983957,0.021309521,0.017360946,-0.014102883,0.02092196,-0.014732786,-0.000121828394,-0.01090039,0.0029367171,-0.0034850745,-0.007869586,0.0050290935,-0.006905885,0.013195042,-0.03516819,-0.024854627,-0.011808037,0.008588261,-0.03560519,-0.0011894226,-0.03562188,-0.02840229,-0.012329642,-0.012163896,0.004957962,-0.008256328,0.017854983,-0.022584671,0.025262851,0.022324318,0.034049734,-0.033701163,0.017190382,0.009914821,-0.01491738,0.029111352,0.02219169,-0.0010235035,0.021492751,0.025340676,-0.014766483,0.019022863,-0.01993021,0.0054664644,-0.012235694,-0.008485481,-0.007029914,0.025545394,-0.015847936,-0.009554472,-0.028340273,0.002983986,-0.0063080755,-0.015080752,0.00941338,0.004820349,-0.03195156,-0.0017225137,-0.021908842,-0.013000485,-0.033236384,-0.019887326,0.026225533,0.015830256,0.033148307,0.030051861,0.03164185,0.004759344,0.025300385,0.02054066,-0.039169233,-0.02009894,-0.02473465,0.02624645,-0.0043247016,0.006951156,0.025055949,0.018312454,0.038837265,-0.009822972,-0.011760411,-0.012399434,-0.030758064,0.0034398488,0.0003173041,0.034036305,0.018115396,-0.027122078,-0.0034079421,0.026472623,0.030544573,0.026951449,0.017979113,0.024443438,-0.00421147,0.009071211,-0.037748657,-0.02875506,0.031428806,-0.009088832,-0.031078866,0.02798369,0.012865978,-0.014745724,-0.020977458,-0.013604104,0.029568681,-0.006834117,-0.016837683,0.006169516,0.017113814,-0.009400727,0.017860213,-0.03255723,-0.0062820567,-0.029214045,0.010491066,0.024311472,0.020637974,0.026041275,0.0097294245,0.008395018,0.010850277,0.01937613,0.015698327,-0.010609196,-0.025557352,-0.017112313,0.023792768,-0.025975706,-0.035580426,0.028953133,-0.03472575,0.017834293,0.000746182,-0.013545217,0.025120625,-0.014123467,-0.0033134997,0.00066051254,-0.04257094,-0.031048575,-0.019927755,0.010962788,0.007904814,-0.021214413,-0.024222264,-0.0036588307,-0.03720824,-0.008904526,0.0039981385,0.022291206,-0.0339867,-0.032370623,0.0005476764,0.024494229,0.020802578,0.023221863,0.02224017,0.011226364,0.011144013,-0.0014674431,0.00024495393,0.03506553,0.011100236,-0.0012355441,-0.015750887,0.0015491579,-0.0023970322,0.022690224,0.037160102,0.012519159,0.019846763,-0.023590146,0.0066546197,0.014206285
-0.01719527,0.03247785,0.038231116,0.02377024,0.017539466,0.021253534,0.021732466,-0.035588365,-0.02464735,0.073872596,-0.03087186,0.048099708,0.04722387,-0.06617817,-0.032163303,-0.050918557,0.010195517,-0.027195774,0.019119963,0.05354074,-0.052744176,-0.03573803,0.011697952,0.016159361,-0.019227097,0.026368823,0.07751576,0.033034913,-0.05880381,0.03919914,-0.06385239,-0.064207844,-0.0033462052,-0.015822347,0.008235895,-0.004839697,0.011473924,-0.08011833,0.012198353,-0.021850988,0.052753873,-0.048881155,-0.008236256,0.06914759,0.053125456,0.015723845,-0.050544567,0.060766403,0.042758215,-0.011252944,0.013357531,0.015948417,0.053372245,0.060392298,-0.021197865,0.030588562,-0.012390621,0.022636153,-0.036559038,-0.02229668,0.020989591,0.049574926,-0.005522175,-0.050672054,0.010970509,0.032156013,0.04644593,-0.005122263,0.00017600133,0.043802287,-0.06567866,0.03930712,0.03827331,-0.0355189,-0.00030509356,-0.013727063,0.07765075,-0.044719648,-0.008123206,-0.06798896,0.019589234,-0.047979936,0.0061117113,-0.012459027,-0.018804844,0.006609662,0.0040421607,0.03920004,0.024659015,0.020006724,-0.060186226,-0.00042058903,0.014209961,-0.0011437398,0.032499414,0.027223473,-0.055796385,0.032006554,0.022218985,0.038330577,0.054987326,0.048274912,-0.020561859,-0.015510178,0.044657804,0.025711214,-0.0103338305,0.040279325,-0.03602466,0.034340452,0.0205149,-0.009400507,-0.0872839,-0.03178467,0.017486067,-0.011278427,0.03216205,-0.06056069,0.0022841988,-0.017617522,-0.0040897033,0.01500771,0.0050626337,-0.034053437,-0.017360838,0.029546576,-0.04629805,-0.04841501,-0.01412869,-0.098278426,-0.023306683,-0.0015590328,0.0501866,-0.06460267,0.07621593,0.034495115,0.011699859,0.028671714,-0.00683059,-0.03416106,0.0006987404,-0.029452557,-0.03737745,0.04550036,0.043658815,0.038540978,0.02155679,0.026993625,0.030726926,0.013544808,-0.010890042,2.2016073e-05,-0.009666881,0.047831457,0.041499324,-0.022683794,0.02001874,-0.080424264,-0.026530543,0.011224196,0.0017950402,-0.0073924377,0.0030858968,0.05003764,-0.03191874,0.01059628,0.0047120294,-0.09301524,-0.05061315,0.05177068,0.015673587,0.04177512,-0.04822938,-0.021360911,0.035803366,0.028611014,0.017533459,-0.062286478,-0.0048828702,0.02368745,0.029077483,-0.046789125,0.03616602,-0.010434065,-0.036165595,-0.0037876654,-0.017770812,0.027133629,0.003351515,0.013359991,0.032647435,-0.06654716,0.0686364,0.00774502,0.031872798,-0.034058057,0.04267368,-0.057834458,-0.07054452,0.015143205,0.02634364,-0.0211828,0.0119935665,0.059026726,0.057238035,0.018275466,0.030985352,0.020410292,-0.016862074,0.03227916,0.023611935,0.0135410335,-0.0066717435,0.0007977601,-0.000998908,0.062571846,-0.011214229,0.026178004,-0.017839488,0.03541185,-0.0013229753,0.021291316,-0.0036893187,-0.001836444,0.018189339,-0.013402365,0.03288384,-0.003049489,-0.02496075,0.042273454,-0.00558744,0.08052448,0.03681791,-0.022674786,-0.031309593,0.029340634,-0.05233088,0.0180987,0.06414528,0.06470449,-0.07008286,-0.03744929,0.06244343,0.096353166,-0.0204102,0.03711025,0.008690298,0.05768761,-0.055548497,0.015795037,0.040335335,0.044444732,-0.02802351,-0.0028057257,0.0054892306,0.031001398,0.0066156266,-0.01304683,-0.032903407,0.013756912,-0.12361334,-0.062069546,-0.0225218,0.0016356412,-0.027957568,-0.032278318,-0.023443298,-0.005094792,0.004197601,0.016960133,-0.009629074,-0.0050797076,0.018852277,-0.021402173,0.02958238,0.06275018,0.07087472,-0.029529369,0.045862027,0.010923845,-0.001600863,0.078145534,0.022674816,-0.025630292,-0.0061885403,-0.024830636,0.045212667,0.042231534,-0.0070633623,0.03591983,0.009546723,-0.027803624,0.0018430356,0.032719146,0.03934678,-0.02663508,-0.05708387,0.03308669,-0.0037978352,-0.0031299535,0.0017097059,-0.013062618,0.007032057,0.024583671,-0.05445703,-0.051249284,0.06411615,0.08968625,-0.011489484,0.020530239,0.019988026,0.012911611,-0.010070519,0.037371904,0.043434136,-0.018537367,0.00438275,0.024233278,0.0093508065,-0.021171076,0.00020327582,0.01749842,0.04786195,0.024117116,0.07224441,0.028317044,-0.058187015,0.034038026,0.04153577,0.047716375,-0.002108182,0.03041489,0.014606745,-0.04692121,-0.030265087,0.017616734,0.019826487,-0.018007034,-0.008348004,0.02063408,0.0037475016,-0.030206744,0.044312797,0.06966471,-0.05613784,0.010247466,0.016386403,0.04522887,-0.019395122,-0.014615011,0.0058433297,-0.015036615,0.04330945,-0.057285696,-0.016139073,0.023737244,0.03548257,0.007104276,0.06496317,0.03895528,0.07586288,-0.0069106636,-0.0497795,0.03754065,0.01664964,-0.010599144,-0.015597959,-0.01072729,0.09622937,0.0412008,0.046316344,-0.025687972,-0.023400718,0.026068669,0.03491496,-0.003229605,0.04470933,0.03152365,0.012615301,-0.02490223,0.030094786,-0.01522031,0.0031218838,0.048005648,0.04424883,-0.026443075,0.008583425,0.0005817259,-0.02032526,0.016786652,-0.013645526,0.005290444,0.006349473,0.012569536,0.04422525,-0.045287464,0.031362724,-0.06305618,0.0109965075,0.015113857,0.06217499,-0.008079854,0.07792854,0.00229069,-0.018469859,0.0056810607,0.04225028,0.004433621,-0.037396744,-0.005836801,0.047187716,-0.0028134158,-0.02696021,0.0060113072,-0.029324543,0.02780649,0.02734719,0.04162691,-0.0019918098,0.03356608,-0.026833924,-0.02553991,-0.020037083,-0.031305518,0.039317757,0.0066200783,0.0009042674,-0.006528651,0.009853973,-0.004854417,0.0046349936,-0.046161518,0.032025557,0.03908642,0.042655196,0.05845763,-0.0011413641,-0.043448288,-0.035630636,0.007039432,-0.015725857,0.063039154,-0.031170249,0.028581128,0.007886568,-0.07004175,-0.07541127,0.04200479,0.015468431,0.0476355,-0.008155092,-0.035564344,0.010941624,-0.03049516,-0.025654957,-0.0064492933,0.01707383,-0.018749282,0.027439525,-0.031313285,0.00863878,-0.024292294,0.044017933,0.05835862,-0.024534147,0.04425548,-0.0021794473,0.040370163,0.051667113,-0.0019550475,0.01655335,0.026330706,-0.02170985,0.0337456,0.02691856,0.018243764,0.037131295,-0.025032839,-0.06659123,0.029999867,-0.036180075,0.026458472,-0.008890667,-0.04734656,0.04573279,-0.013706912,0.052086387,0.023132894,-0.01237984,-0.010409034,0.019781034,-0.028620234,0.00627615,-9.4519775e-05,-0.026585445,0.061025925,0.023241172,0.026689958,0.05606659,-0.043994673,0.011269624,0.032976795,0.06446473,-0.003398725,-0.023016384,-0.03715933,0.005382152,0.013408224,0.015596397,0.06886381,0.03584645,0.07282875,-0.013223881,0.022227585,-0.07048817,-0.029277641,0.012626649,-0.032458194,-0.0016178361,0.008373152,0.041291557,0.028211715,0.0246571,0.052403275,-0.021383319,0.009229932,-0.007936842,-0.034717686,0.08731212,0.037339892,-0.034803357,-0.02487886,-0.0109450575,0.09101927,0.040165197,0.008458681,0.009490908,-0.04709141,-0.023292463,0.08121953,-0.07193796,-0.00064247445,-0.0031341482,0.008643926,0.050784376,-0.003285708,-0.003062948,0.04342604,0.031144174,0.0038406274,-0.025644936,0.001684639,0.059023656,0.0071634273,0.0026801855,0.05000771,0.04911622,0.008884099,0.039933644,-0.035643283,-0.031047968,0.08157696,0.064340904,0.040185314,0.026540512,0.0062079458,-0.030261293,-0.008221595,0.007423231,0.00017048973,0.06484742,0.041668,0.049077503,0.019779453,-0.034036953,-0.069504395,0.037678514,0.029049883,0.050992504,0.01688939,0.032915395,0.016001012,-0.021614715,0.036248118,-0.095036425,-0.02560928,-0.08935315,0.037320357,0.0025233387,-0.0053392155,0.061214365,0.027909962,-0.046953592,-0.005574618,0.029473718,-0.03985482,0.051325656,0.034381665,0.009096469,0.019805724,0.027226517,0.0017468104,0.021345846,0.022983726,-0.05500826,0.008496793,-0.021015938,-0.003398213,0.04297109,-0.045123998,0.0394636,0.051041488,-0.008047555,0.011650173,0.009702082,0.03875784,0.028222086,-0.009054294,0.004970167,-0.02857664,0.007010982,-0.026942952,0.02546346,0.01997913,0.04951651,-0.078164294,0.0018623305,0.022617877,0.005285938,0.013605522,0.022087572,0.031712756,-0.006486239,0.043585397,0.055103034,-0.009908203,0.03555666,-0.077043794,-0.062605776,-0.045646213,-0.01495612,-0.008433132,-0.03874354,0.004317867,0.018738167,0.006008433,0.037352324,0.030273879,0.075104676,-0.08478711,0.015256737,0.030936714,0.0341734,0.03049983,-0.03283839,0.05403907,-0.014097434,0.0033388357,0.019108206,0.01823142,0.012784081,-0.0093173385,0.051303096,-0.08435837,0.019117724,0.0385219,-0.0066836057,-0.040831275,0.008206135,0.006111616,0.0073168324,0.041714992,-0.073961884,0.049160812,0.082517736,-0.016098121,0.013022171,0.011191845,-0.0099086305,0.032284576,0.0045450265,-0.018627949,-0.008198193,-0.03570691,-0.027414098,0.00758099,0.010847398,-0.015389919,0.015881766,0.029603692,0.03332119,-0.007548653,0.004714302,0.0058993283,-0.06006091,0.015824797,-0.020651214,0.018828614,0.004235064,-0.004726489,0.032730717,0.051646546,0.008706067,0.014918448,0.038289733,0.011140994,-0.021964183,0.04606213,-0.053877853,-0.014689771,0.046566613,-0.0375345,0.002496632,-0.016515294,0.032181215,-0.089172184,0.012876113,0.040338725,0.0007677392,-0.058250617,-0.012461963,0.01649384,-0.040063206,-0.015172368,0.021831298,-0.024550581,0.08093091,0.030914782,-0.016021654,0.016245011,0.07099894,-0.0045421068,-0.0165737,0.0036648032,-0.012879553,-0.020587258,0.022465598,-0.008472046,0.0007555814,-0.0015378025,0.02368925,-0.031675663,0.043884847,-0.024705695,-0.0044495882,-0.009868787,-0.052414004,-0.0036472704,0.035962213,-0.027708651,0.042461492,0.022834182,-0.014074142,-0.04948853,0.032788437,0.024752073,-0.017791577,-0.016633788,-0.00015862819,-0.009949776,-0.00052182336,-0.05572151,-0.03714462,0.0016620432,-0.012183389,-0.050661042,-0.037011854,0.040940758
-0.061404914,0.05367387,-0.06501041,0.04595158,-0.003978651,-0.072826855,0.0200544,-0.0028749846,0.0457461,-0.031370353,-0.01981328,0.030729292,-0.043780193,0.027912362,0.044610895,0.062079992,0.009429139,-0.018918943,-0.05639505,-0.046414036,-0.011556405,0.06728746,-0.02278516,0.042028613,-0.011563711,-0.005986114,0.009052012,0.088116795,0.03456621,-0.024312807,-0.1828829,-0.021003693,0.03147515,0.05342735,0.04310876,-0.067171365,0.029018221,0.004541962,-0.03936686,-0.027991315,-0.09829229,0.052427866,0.111927606,-0.025369348,-0.03444348,0.030969925,0.007841932,0.00096200866,0.102916926,0.031967808,0.030604962,0.010985377,-0.04509723,-0.011321869,0.101929165,0.041828185,-0.014899558,-0.06425627,-0.11202435,0.031761546,-0.028710892,0.0055775833,0.029191663,-0.03161313,0.025582002,0.02332822,0.007012475,0.11741363,0.038979676,-0.104878046,-0.078189984,-0.033559296,-0.004110644,-0.008023925,-0.046336684,-0.07980835,0.10797089,-0.0057368013,0.02304953,-0.018766709,-0.01834644,-0.056799185,-0.09454125,0.01602599,-0.05800094,0.08620391,-0.06458611,-0.01961033,0.07543406,0.025944514,0.0060197124,-0.038450003,-0.015100124,-0.015147407,0.006556829,0.028135205,-0.011741155,0.010286256,-0.04032866,0.005790804,-0.004104354,-0.0030096155,0.04223763,0.04838776,0.09040362,0.04523168,0.061527446,0.025247857,0.018638106,0.008863455,0.062213402,0.07534823,-0.081736736,-0.019341858,0.06481032,0.032914985,-0.031987894,0.012254988,0.034810822,0.004230995,0.013052162,0.05365076,0.011648351,-0.073841296,0.0020406286,0.017992971,-0.027078697,0.06280151,0.011787355,-0.042574115,0.096830815,-0.014221426,0.008486958,0.03606949,0.042143267,0.050610285,0.042220615,0.1492254,0.08711444,0.119332455,0.030093387,0.020350752,-0.032964703,-0.0151561815,-0.065979145,-0.07091571,-0.011411512,-0.016855812,0.059767533,-0.017106766,0.017194021,0.030429304,-0.08909731,0.030934813,0.11045392,-0.092575654,0.017034043,-0.10945634,0.08838454,0.06411794,0.025292728,0.032603554,-0.00093322544,0.08142329,0.029521838,-0.050615914,0.034403127,0.0649079,0.0027799513,-0.01852156,0.037931208,0.04789217,0.0077109137,0.016747152,-0.052098367,-0.045443635,-0.057610214,0.024651967,-0.08962171,0.0665151,0.0012373201,-0.041550867,0.065062046,-0.10921337,-0.023262387,0.041320153,-0.09089028,0.12959152,0.006123138,-0.01418103,0.027991947,0.025852134,0.012635818,0.051460847,0.040316127,0.06867631,-0.07552988,-0.015524998,0.028747965,-0.05167157,0.0043689553,0.021066472,-0.004174863,0.024655344,0.08211339,0.043414716,0.027982218,-0.013753702,0.10323895,0.048667975,-0.0005351192,0.015285646,0.03389205,0.028753258,0.12620981,0.074924015,-0.04067587,0.06573615,-0.05559457,0.020968,0.017496329,-0.003979687,-0.1021271,0.0826309,3.1813357e-05,-0.005531274,0.0128965555,0.029571274,-0.016478257,-0.0123980865,0.06597432,0.044961847,-0.099841535,-0.077369906,0.022623295,-0.0036158275,0.027742561,0.029580345,0.05438463,-2.3376453e-05,0.05500165,-0.02282658,0.022316866,-0.010238834,-0.0035632588,0.008396312,0.017674599,0.02243059,-0.06298225,0.06807381,-0.06896992,0.032348968,0.025509788,0.07392939,-0.018527865,0.06999193,0.067868546,0.02772907,-0.13201077,0.08945003,0.034947306,0.09326245,0.007331246,0.024534553,0.05204075,-0.038398683,0.0030667612,0.009843023,0.031060535,-0.00051437,0.06539265,-0.008517511,0.074474946,-0.0068399603,0.04080613,0.02474377,0.0063345074,-0.064148955,0.046782393,-0.0024444337,0.051759616,0.06129953,0.08710891,0.020160826,0.06575979,0.0071860757,0.02957391,0.030280115,0.114817314,0.0854654,-0.089514986,0.0205543,-0.04427814,0.004885459,-0.016964445,-0.045405064,0.043712158,0.045398552,0.07193668,-0.026710322,0.05922428,0.0068614404,-0.011368625,-0.011910285,0.0042639542,0.01853531,0.034068864,-0.06411081,0.050234176,0.048568524,-0.09593095,-0.057094418,0.056153975,0.008207862,0.016110271,-0.08568617,-0.057894766,0.031080406,0.021161616,0.053660188,0.04085093,-0.069540426,-0.026727416,0.015386732,0.03204887,0.00019157551,0.0130381845,0.08374592,0.006642442,0.10181724,-0.0025940672,-0.072887324,0.07176741,-0.047728628,-0.10942985,-0.022656843,-0.10179779,0.019564005,-0.013382707,-0.004998411,0.08942626,0.028262794,0.04599257,-0.117292196,0.0035984917,-0.06736628,-0.019648906,0.029547138,-0.010796743,-0.0783614,-0.031137628,-0.085456245,-0.018422434,0.012371021,0.06354965,-0.10477207,0.11298952,-0.028782332,-0.015484578,-0.0061485586,-0.053326465,0.03735869,0.006587398,0.11726952,-0.04483465,0.0039818557,0.009875682,0.043003544,-0.04695812,0.021915661,0.0037198965,0.07104575,0.022469986,-0.029545384,0.07702568,0.13308299,0.06801625,0.05982677,-0.0013426583,0.04761803,0.14153872,-0.003615165,-0.013989108,-0.0042002043,0.003923198,-0.0018951416,0.03742864,0.07122726,0.06578855,0.11841222,0.039458856,-0.045341283,-0.02463089,0.026065156,0.044187974,-0.010076968,-0.028983677,0.007901304,0.034512397,0.01657588,0.016774012,0.022791794,0.029216427,0.063072726,0.036562458,0.027120987,-0.016394764,-0.007942709,-0.08119824,0.030115798,-0.06203191,-0.005629325,-0.034167603,0.013312749,0.04477403,0.013829407,0.057229895,0.03258844,0.07252331,-0.0028281715,0.025700305,-0.023065016,0.060043566,0.07839848,-0.029747454,0.08896627,0.09106716,0.013455362,0.026938992,0.0251653,0.11882612,0.07262911,0.013806301,-0.074861236,0.022303244,-0.04039387,0.08208938,0.002358317,0.14524272,-0.042540498,-0.053715747,0.025356438,0.044129577,-0.037686326,-0.047152948,0.0025843377,-0.06317359,0.026283352,0.04331465,0.046194438,-0.015757652,0.029697925,-0.013679352,0.038295526,-0.0238059,-0.019702917,0.071006455,-0.014466854,0.0039035645,0.007083448,-0.036292005,-0.08459955,-0.0691087,0.037251417,0.035257507,0.027527653,0.031731926,0.0504205,0.09940709,0.02101913,-0.053717133,-0.04889006,-0.018510351,0.123893574,0.052068904,-0.031918544,0.16495568,-0.023344127,0.10378122,0.017551536,-0.12580633,-0.005347876,-0.02254466,-0.023669994,0.11141585,0.016672371,-0.027329428,0.044111673,-0.04437087,-0.061627664,0.022727087,0.008464491,-0.03296523,0.04733784,0.10887352,0.06657631,-0.008018653,0.08281136,0.16432668,0.0115943095,-0.07918795,-0.03458363,0.023711858,0.043574102,-0.010702462,0.08027408,0.03350388,0.048768885,-0.026349168,0.07114076,0.052096263,-5.600074e-05,0.015439198,0.008042821,-0.06481843,0.023227714,0.11456792,-0.05715745,-0.04405543,0.06778821,0.009771894,-0.03992312,-0.006558945,0.005919359,-0.019945772,0.030507492,-0.040335122,-0.08212324,0.07150563,-0.06298025,0.027239274,-0.10567316,0.0359159,0.0065302174,-0.0046123085,-0.06390559,-0.013873313,0.07045346,0.008943661,0.019661324,-0.04726085,0.02210912,-0.09113031,0.014819921,0.040136043,-0.048604652,-0.07990931,0.0073966864,0.008198621,0.03774941,0.049391538,-0.011980626,0.031077683,0.04773318,-0.09432698,-0.04625434,0.017258292,0.048880424,0.022061396,-0.04551706,0.07288468,0.04557283,-0.14180587,-0.006114524,-0.066551164,-0.055334873,0.13703354,-0.007587662,-0.055588845,0.016828533,0.014654296,-0.031785145,-0.0038831106,0.052827366,-0.056112517,-0.024794701,0.03498192,0.0005550057,-0.10515688,0.06957347,-0.063444175,0.056176517,0.05685108,0.069286324,0.04665147,-0.028737644,-0.036922913,0.06718583,-0.08713993,0.045243673,0.07112253,0.010116434,-0.092383,-0.0007792188,0.042810634,-0.08864695,0.033413313,0.0588846,0.025221534,0.033259507,-0.0049333563,0.010181629,-0.03256461,0.008226119,-0.058521852,0.02466657,0.05257805,0.004908376,0.076325946,-0.037415106,0.028347313,0.0032710533,0.095430486,-0.012327384,-0.006128788,-0.06834036,-0.0029668414,0.027971879,0.074952126,0.07689519,0.022574557,-0.11887363,-0.04318952,-0.06509682,0.031562276,-0.13345525,-0.0462697,-0.02177749,-0.02609123,0.055339508,0.014443623,0.060028438,-0.043909032,-0.0035260245,0.07541906,0.04599988,0.054568473,0.011843477,0.031656154,-0.034700867,-0.011057013,0.01868958,-0.046034563,0.02466735,0.038302712,0.03411968,-0.02841087,0.025328893,0.01784501,-0.0017277882,0.0014223544,0.028262189,0.060102306,0.06466126,0.10102673,-0.014893481,-0.013971661,-0.052857127,0.061954923,0.071620464,0.06164638,0.09182725,-0.04848403,0.011849835,0.031572532,-0.003901435,0.008577476,-0.1259352,0.06420935,-0.060184825,-0.051077757,-0.017373791,-0.09528627,0.054494992,0.047651682,0.008139256,0.02646566,0.048766807,-0.010503989,0.075043134,-0.004143082,0.025126083,0.025250195,0.04264911,0.033849612,0.034879908,0.03105442,-0.028118998,-8.236827e-05,0.024646409,0.1046541,0.01180872,0.074809305,-0.041283607,0.07769546,0.031562254,0.06642304,-0.019559458,-0.10842337,0.07722968,0.044693038,0.14374535,-0.05819985,0.011764549,0.05881071,0.09560746,-0.04656647,0.0048129684,0.0712313,-0.08198303,0.013089445,-0.013252044,-0.099952206,-0.019519709,0.06639982,-0.010133998,-0.0149004795,-0.029512001,0.05881492,-0.046279196,0.00715933,0.091594845,-0.007150555,0.011761154,-0.0056982087,0.023495922,0.0012428468,-0.007901721,-0.09539722,0.051337868,0.019122275,0.057427965,0.006574559,0.01176632,-0.017247753,-0.014136409,0.111560225,0.07902066,-0.041603833,-0.011222082,-0.011036544,0.052073196,-0.047527026,-0.050896816,0.048694894,0.036806293,0.024981046,0.052162975,0.012425439,0.0030120045,0.07732968,0.022240916,-0.0008784985,-0.08008087,0.13085677,-0.007835145,-0.025067331,0.07032779,0.029009065,-0.025149666,0.04409415,-0.057953812,0.024514781,0.044234555,-0.03182343,-0.016820207,0.071582705,-0.019947482
-0.0026535823,-0.024768688,0.066799134,0.0222228,0.009609899,-0.13062535,0.007255524,-0.040039968,0.076242946,0.06894589,-0.05813156,0.010532205,0.08169901,0.07442926,-0.023959875,-0.124922276,-0.005193568,0.008202262,-0.047256596,-0.11189898,0.042433638,0.0086126635,0.016330725,-0.08692564,0.018497067,-0.062425856,0.013703365,0.014742232,0.01814744,-0.015255794,-0.07342029,0.05835956,-0.013540944,-0.07898116,-0.14408712,-0.019593531,-0.009377198,0.058730908,0.020016517,0.013444483,-0.077034585,-0.08787893,-0.017221117,0.10900293,0.11051634,-0.05056548,0.048367057,0.0037107358,-0.03219319,0.021418361,0.0016373624,-0.05138398,0.05443412,0.04947219,0.019411264,-0.007787246,0.0009465349,-0.010273821,0.025549749,-0.11289184,0.04954197,0.072914824,0.041835032,-0.012625749,-0.034398135,0.026311615,-0.074653104,0.07536835,-0.019342197,-0.035953622,0.043539967,-0.065812916,-0.038837276,0.089038774,0.079356715,-0.022980185,0.004058669,-0.029981427,-0.047018807,0.007689751,-0.121421315,0.03201239,-0.016444402,0.055190273,0.0018201498,0.06969766,0.033192366,-0.03451876,0.0444397,0.037589893,0.016016765,0.070193194,0.04716031,0.026304988,0.07281125,-0.042873994,0.13345726,-0.072290644,0.025824796,-0.058068503,0.12240478,0.045733914,-0.14875501,-0.0717206,-0.023053339,-0.024211606,-0.049929306,-0.074597456,0.039515518,-0.07668185,-0.01871425,0.05638141,-0.025164865,-0.07742613,0.018013922,0.054845117,-0.07838032,0.01297339,0.012037464,0.0053325216,-0.05428927,0.04790009,-0.05917126,0.072142854,0.044157807,-0.061606668,0.07952422,-0.03476609,-0.00036295044,0.0011234138,-0.12259815,-0.08876273,0.016757723,-0.014164771,-0.041267525,-0.028702457,0.039927527,-0.018420098,-0.03359862,0.095199585,-0.016339183,-0.04925984,-0.058693253,0.00608871,-0.070797615,-0.028454438,-0.033902172,0.009443984,0.017233655,0.015459896,-0.041906744,0.020885533,-0.06699334,-0.06362946,0.0110229505,0.0048689772,-0.037218954,-0.035305288,0.020185677,-0.0067573804,0.02675275,0.010919034,-0.017907294,0.07749395,0.034220725,0.075620584,-0.009107921,0.04092143,0.031882357,-0.0114490725,0.078308694,0.06621926,0.055588473,0.006345746,-0.03318486,0.019486666,-0.068036065,-0.0035661745,0.029998507,0.031944636,-0.018836565,0.030715294,-0.049972057,-0.019971112,-0.036690377,-0.010344547,0.024465907,-0.041653633,-0.037246346,-0.068897456,0.04963064,-0.005592825,-0.071196675,0.013845242,-0.010501481,0.015225689,-0.033412624,-0.074864306,0.017829107,0.037282977,-0.06844481,0.037160218,-0.02943542,0.012405724,0.054136842,-0.022355987,-0.04453511,-0.030685483,-0.021739602,-0.05549475,0.14612757,-0.02509756,0.05119512,0.037497047,-0.00802302,-0.0077990103,-0.07948821,0.04776667,0.02986296,-0.02662835,0.0052470323,0.057841834,0.032262217,-0.056515485,0.0048629423,-0.040082164,0.08481929,-0.028090475,-0.065956034,0.04870148,-0.007840463,0.027228495,0.0065765237,-0.0029716962,-0.013932173,-0.006509279,-0.09457992,-0.06537315,0.0067618587,-0.083921455,0.048586804,0.01578703,0.066011034,-0.018476758,0.009385693,0.020299524,0.021035274,-0.10641563,-0.0018917542,-0.10001151,-0.026287908,0.014239915,-0.018834952,0.088657565,-0.015560722,0.048233315,0.06564158,0.04939465,0.037844602,-0.049313072,0.026292857,-0.0023362902,-0.03397879,-0.020815061,0.02777564,-0.0668953,0.032421228,0.04215497,0.006622689,-0.1274329,0.11953102,-0.004844934,0.011808209,-0.02354786,-0.05064672,0.02281337,0.043121703,-0.10199061,0.007483657,-0.14822932,-0.056808155,-0.007390353,-0.03727097,0.021729913,-0.04491622,-0.051715348,0.04937566,-0.02834097,0.091154255,0.021625062,-0.048729435,0.10266435,-0.045669045,0.025636144,-0.026666703,0.054641254,0.033077948,-0.025879186,-0.035352543,-0.06939768,0.011852501,0.011186414,0.010481508,0.063898906,0.035371114,0.024128256,-0.02805637,0.012816574,-0.045980457,0.015045824,-0.04079943,0.0055973246,-0.003821509,-0.0338517,-0.025424,-0.062596776,0.009026201,-0.051588334,-0.051884513,0.0043817214,-0.12738937,-0.010737635,0.06502753,-0.046488136,0.03052141,0.008490399,-0.00041420257,0.10788351,-0.02762198,0.010333773,0.05186963,-0.005016846,0.03594457,0.008203194,-0.018019682,-0.059188403,-0.0004409716,0.038532704,-0.018574579,0.009202494,-0.004036746,-0.089229725,-0.03236112,0.06321295,0.07434146,-0.15512422,0.071095675,-0.030677045,-0.06365011,-0.010194397,-0.010806304,-0.05020077,-0.024922589,-0.031669144,-0.026784893,-0.048647333,0.035499137,-0.050216276,0.034787815,-0.06434652,0.05925267,-0.09506058,0.03582275,-0.045813784,-0.002001324,-0.05759056,-0.08528451,-0.0038476775,0.0006818967,-0.044996586,0.01066217,-0.015367247,0.076395534,-0.073778085,0.046492517,0.12285998,-0.026595846,-0.0016968434,-0.052441455,0.0073876944,0.001255474,0.034645412,0.059499443,-0.03614942,-0.030109977,-0.0018574661,-0.038876098,0.08860487,0.04149164,-0.018773234,-0.024826774,-0.06290149,0.013509761,0.10666152,-0.09262509,0.11598092,-0.112190254,-0.0028844448,-0.009971649,-0.005161223,-0.026852146,0.008051299,-0.12050392,-0.0036327478,0.03426663,0.10245049,-0.0017637564,0.0059769675,-0.06114558,-0.08515209,0.038423453,0.032771707,-0.0004016488,-0.0569364,0.032988686,-0.0018790954,0.063342765,-0.08954543,-0.012763384,0.067032866,-0.03160333,-0.0055802283,-0.039601546,-0.018779743,-0.031497207,0.08473816,-0.16796874,0.03148779,0.018456219,-0.046167113,0.032737583,-0.019554913,-0.028211653,0.023644952,-0.0085295625,-0.013589764,-0.026790159,-0.05787929,-0.00097360305,-0.050923757,0.030008173,0.10422544,0.028227387,0.10380003,-0.096465684,-0.03628826,-0.03201287,-0.0075218906,-0.01505509,0.011451902,-0.08036702,-0.039443463,-0.03295497,-0.061617695,0.00035393905,0.05281093,0.005884934,-0.008989999,0.05292762,0.0592355,0.019045394,-0.035445735,0.026830425,-0.026323564,-0.045170676,-0.06268521,0.020993337,-0.016069671,0.049179155,-0.0487722,0.012497071,0.051913217,0.060424585,0.027336128,0.03813882,0.021693386,-0.04672124,0.08218304,-0.017920002,-0.0371376,0.002269499,-0.053205017,-0.027314486,-0.023578474,0.0037046198,0.0067550843,0.107022695,0.0008835898,0.016458036,0.0025706657,-0.026905866,-0.03701103,0.0374216,-0.03846135,-0.045798928,0.038343064,-0.14129573,0.008410889,-0.0719319,0.027426213,-0.045666326,0.0032007017,-0.0665438,-0.03845353,-0.01933988,0.04949464,-0.06470235,0.020741457,0.019408632,-0.04461812,0.024932785,-0.18925352,-0.0033549122,-0.02434473,0.010530251,0.026710575,-0.042389013,0.031730656,0.021641558,-0.0745994,-0.08447535,-0.10851717,-0.055271205,-0.023448408,-0.021463148,0.07863934,0.023902673,0.04774544,-0.06664089,0.018626094,-0.042607326,0.01861104,0.001016473,-0.03828416,-0.016023772,0.168221,0.048942905,0.024480727,-0.046677783,-0.21916209,-0.021930542,-0.03573734,0.08514566,-0.010875094,-0.0029522448,0.014961052,-0.03413815,-0.024754876,0.056118995,0.026992407,0.02635459,-0.02862396,-0.1029136,0.02156423,-0.07335172,-0.040431555,0.053969793,-0.058526862,0.089314945,-0.014594294,-0.09090694,-0.00050178217,0.052666347,-0.020435449,0.079003684,-0.022027407,0.0090492545,-0.06039537,0.054057203,0.016693769,0.010760556,-0.105923094,-0.07253959,0.05344502,0.03913402,0.09434707,0.031021947,0.06050696,0.02890233,-0.048287734,-0.01099597,0.10280798,0.016651915,0.0057560443,-0.0117266355,0.0850076,0.04179855,-0.05196117,0.00079853006,0.032274894,0.09089669,-0.035238463,0.02308313,0.05858544,0.06781037,0.09610063,-0.08805776,-0.026969934,0.06715356,0.023792777,-0.11156766,-0.07020365,0.035621542,-0.14593221,-0.08232558,0.044975013,0.023080446,0.011381049,-0.031008497,0.039481666,0.07774062,-0.124590024,-0.09042885,0.05553122,-0.025793089,0.05110659,0.07862604,0.03438947,0.00048616412,-0.008610186,-0.011851137,-0.03640985,0.039424576,0.011622391,-0.100980096,-0.02905341,0.021471612,0.031042974,0.019927382,-0.023487778,-0.019667754,-0.08520813,-0.03376922,0.07969475,0.024984973,-0.042787228,-0.02634928,-0.0608659,0.030566694,-0.048125666,0.072170265,0.0038076977,-0.03020224,0.058016315,-0.0045636646,0.024481144,-0.010686907,0.022751054,0.0075350744,-0.043506976,-0.072606504,0.019229507,-0.05385108,-0.008429724,-0.064003654,0.084766865,0.010253858,-0.0003175748,-0.079561666,0.031466383,-0.0013643213,0.07018818,0.009096576,-0.003650198,-0.0061117634,-0.037621748,0.09230419,0.03699055,0.08781657,-0.08433287,-0.019692052,0.030798404,0.025762785,0.015793901,0.026233472,-0.1026872,-0.030625483,-0.021852119,0.06997448,-0.07926587,-0.007719868,-0.021697354,0.045091666,-0.11814053,0.05686391,-0.023241444,-0.07858478,-0.05273265,-0.011555933,0.09171372,0.0062712235,0.026652116,-0.011451817,0.013003636,-0.0069586006,0.005859524,-0.091623105,-0.0525809,-0.011198312,0.041215543,0.015019738,0.0044573974,-0.041521944,0.02109078,-0.011603626,0.12400138,0.002201414,-0.041407876,-0.04285136,0.0672234,-0.10319642,-0.027157212,0.033580974,0.037170343,0.11416546,-0.030952245,0.07288276,-0.07590427,0.032463033,0.080717884,-0.061997246,-0.025176516,0.01621414,0.04162032,0.0460406,-0.0051578605,-0.12596184,0.0261912,0.015150228,-0.048777953,0.077689245,0.096510395,-0.0076778894,0.05767877,-0.018632311,-0.005288476,-0.015310108,-0.1096514,-0.04597867,-0.040071912,-0.014709759,-0.03230844,-0.008203342,-0.030316697,-0.11203609,-0.02082356,0.08488375,-0.055026233,-0.027544709,-0.0058741956,-0.05675347,-0.022853425,0.023993758,-0.05693036,-0.038227938,-0.116452724,-0.0653407,0.0469265,0.09804687,0.10057179,-0.02807511,0.04394788,-0.08214842,0.06210324,-0.11186019,0.058379456,-0.015398341,-0.084246695
0.045373384,-0.058067955,-0.0009380654,0.024669135,-0.0148829585,-0.042685606,-0.04395439,-0.14256506,0.00011250523,-0.011097035,-0.0037166064,-0.017405773,0.030895436,-0.02618616,0.0051645883,0.082825206,-0.013797703,0.07184381,-0.01811458,0.008155571,0.010391131,-0.0056552496,-0.04822162,0.0021504427,0.036392625,-0.04139381,-0.051152267,-0.08550572,0.0047597685,-0.020227065,0.035815075,-0.028211769,0.06224516,-0.016880393,-0.0020122456,0.07612722,0.018263798,-0.02559777,-0.0007591889,-0.0150614055,0.021583136,-0.075757675,0.0046174796,-0.049317095,-0.0072273198,0.04089376,0.052327465,0.079357006,0.08664822,-0.05129315,0.054199856,-0.043025684,-0.027818186,-0.05330077,-0.023999147,-0.03325992,-0.04995529,0.015778754,0.010329719,-0.007320416,0.014068202,0.02669636,0.009652499,0.012688004,0.056601617,-0.061794177,0.021109559,0.045654517,0.026392562,-0.0188445,-0.021482455,-0.05894601,-0.011205368,-0.031389035,0.046737544,0.033796173,0.0052747168,-0.0848065,0.07422888,-0.033673674,-0.009716248,0.0682929,0.011090302,0.0052520484,0.009431301,0.03385723,0.0044824383,-4.01036e-05,0.016047576,-0.020635094,0.009027372,0.039567947,0.013455415,0.005068501,0.04480378,0.04375964,-0.013351165,0.03638296,0.059215873,-0.017768642,0.014956009,-0.018992169,0.072335646,-0.019745216,-0.06685608,0.06734965,0.07584405,-0.010304023,0.06263587,0.0037267085,0.023596024,0.07203609,-0.02672571,0.027513014,-0.041010614,0.005040671,0.007046685,0.038057737,0.024728527,0.0041237003,-0.0035098568,-0.056230374,0.036204472,0.07331383,-0.06593017,0.01119739,-0.056709513,0.016432434,0.032783728,0.01971542,-0.0070414213,-0.028383492,0.019331183,-0.032650862,-0.003231766,-0.0072566974,0.059515454,-0.0010910637,0.043171797,-0.046485692,-0.0064448584,0.081914,-0.024060482,-0.018592676,-0.013091441,0.028095031,-0.06308854,-0.010297321,0.03968599,0.11359795,0.009500942,-0.06853538,0.023250503,-0.009073391,-0.012197269,0.011155563,-0.05152587,0.082575634,0.050163027,0.01812944,0.027774272,0.02574298,-0.04103251,-0.023958571,-0.033660788,-0.012662977,0.06159012,-0.016979821,-0.05130064,0.062353827,-0.069625065,0.05612522,0.0069281473,-0.04015847,-0.044187523,0.042111997,-0.009803153,-0.12935576,-0.013377276,0.091184005,0.01989934,-0.011329876,0.05215638,0.020498844,-0.04954305,-0.03884749,0.056564495,-0.023951724,-0.013589012,-0.03937424,-0.056914058,0.05875311,-0.09211517,0.044870768,0.09314758,0.004010026,-0.0014000713,0.010408445,0.036256585,-0.1335707,-0.03850521,0.02342101,0.038018674,0.003148748,0.014577891,-0.041615795,-0.038029764,0.023139242,-0.097899675,-0.036876135,-0.06609773,-0.024075393,-0.062351335,0.049446195,-0.07871284,-0.022687824,0.039135233,-0.077598795,0.010397802,-0.043558083,-0.06007661,-0.04940138,0.021516856,-0.01283488,0.03212586,-0.012943962,-0.08121094,0.02821678,-0.059902806,-0.026306743,0.015330462,-0.12363174,0.036126092,0.028585356,0.12321171,0.09842265,-0.039710086,-0.023132175,-0.07606117,-0.019364258,-0.008380784,-0.04376152,0.002731343,0.035621192,-0.027463272,0.017169667,0.07348674,0.07085193,0.058553755,-0.07843812,-0.057017494,0.03233019,0.019769693,-0.06659759,-0.09909205,0.023598457,0.012324374,0.01194585,0.031008493,-0.030711006,-0.039173666,0.014341452,0.010385505,-0.031809177,-0.036082756,-0.0693736,0.0066466844,-0.1096983,0.010984125,-0.09157428,-0.0065918085,0.0613891,0.063402764,-0.0833411,-0.0018895823,-0.012575982,-0.061381735,0.03894657,-0.004760617,0.08271049,0.0057721254,-0.045261927,-0.07401816,-0.04925732,-0.031899717,0.023259679,0.02397144,0.00037974768,-0.011855692,-0.05131045,-0.0048810733,0.05835459,-0.023676788,-0.06352685,-0.035780825,0.053812478,0.00307136,-0.044586338,0.030107457,-0.004707738,-0.045169417,-0.037128575,-0.057480637,-0.08900424,0.12525599,-0.061253764,0.041953098,-0.04163386,-0.005077661,-0.03448862,0.039959516,0.07824943,-0.055343617,-0.08177259,-0.05147334,0.014159102,0.059048075,-0.041071124,-0.04186148,0.0074204137,0.025025317,-0.0016576685,-0.0056691314,-0.00087579497,-0.01152696,0.004592954,-0.0034879078,0.038491968,0.037522767,0.04874372,-0.0032062484,0.022140574,-0.0147464005,0.02763347,0.058324642,-0.044046964,-0.052114114,0.030008491,-0.04428868,0.0066410517,-0.0063052964,0.0055248463,-0.032155532,-0.037506588,0.040317636,0.07877486,0.06119124,-0.0051391195,-0.028847547,-0.001449293,-0.035731506,-0.043897133,-0.0379764,0.031981923,0.06164927,-0.041069612,0.073040046,0.039041217,0.06565653,-0.0009228702,0.13063474,0.02003512,-0.002924732,-0.10699273,-0.06740154,0.035621412,0.13566452,-0.012539076,-0.010692889,-0.02360914,-0.05225757,0.03734283,-0.09806316,-0.04337639,0.11229947,0.02693882,0.05253654,-0.03711,0.07844892,0.046175167,-0.0076071257,-0.014498794,0.04118645,-0.0014280513,0.058119297,-0.023234958,0.032143943,0.04876391,0.0641345,0.022679366,-0.016496366,0.087502964,0.025632814,-0.0056837345,0.11795976,0.012385019,0.04524909,0.016001133,-0.020478996,-0.019782238,-0.008172565,0.09961237,-0.009123588,0.05963586,0.04345879,0.07274127,0.00506473,0.042175602,0.020827437,0.07146532,-0.05405757,0.040564377,-0.021083435,-0.037377894,0.011256894,-0.021679781,0.003630736,-0.071143195,-0.08819559,0.0048279874,-0.0031533397,0.022221057,-0.0637412,-0.02238987,-0.027182361,0.04335846,0.06334988,-0.038783718,-0.0038945193,0.0025830087,-0.14274158,0.12134208,-0.05053164,0.0038841544,0.011202011,-0.007510476,-0.053500276,-0.024558477,0.019482248,-0.017817933,-0.048621975,0.030039778,-0.07022678,0.014006737,-0.023570875,-0.013432496,-0.04839476,0.01705913,-0.036414564,-0.026943564,0.061261807,-0.021595873,0.053210698,0.02508761,-0.016001126,-0.061438605,-0.017265351,0.018287601,0.03591923,0.043993063,0.042237908,0.04377812,-0.09008715,-0.07684581,-0.028866086,-0.07107953,-0.01919649,-0.0669349,0.0127744535,-0.09386668,0.01863566,-0.057772838,-0.0472174,0.03429426,-0.009752167,-0.04927267,0.03626349,-0.036480956,-0.033300884,-0.028954815,0.02264055,0.008498142,-0.05089978,0.005510659,0.010728271,-0.020982174,0.04644946,-0.014283863,0.001328639,-0.03992505,-0.041245468,-0.013405919,0.03385624,-0.027855637,0.019541433,0.015164392,-0.02485303,0.044366304,-0.08033067,0.02811032,0.017786559,-0.0039467188,-0.017801363,-0.024701763,0.06773989,0.037770376,-0.09406718,0.009565487,0.05796278,-0.040183537,-0.0017084911,0.008802109,-0.02582306,-0.026872475,0.019742293,-0.008587706,0.019112526,0.0990536,-0.0680693,-0.04185376,-0.008130409,-0.03705571,0.01971661,-0.0019006687,-0.003001748,0.005950395,0.03989775,-0.0030457755,-0.042933162,-0.059868433,-0.10539545,0.008421863,0.08103616,0.007541935,-0.019616624,0.038409624,-0.017679809,0.0036500304,-0.0828073,-0.033697646,0.05630836,0.057679374,0.027546031,-0.010876978,-0.05669757,0.003847881,0.042487618,-0.02003749,0.049845785,-0.0044592633,-0.027653368,-0.0101384185,-0.035711985,-0.0008995246,-0.055045143,0.0040058605,-0.039873272,0.005726416,-0.018462785,-0.01629257,0.10692385,-0.0479313,0.008277674,-0.015435015,0.04299568,-0.052808635,-0.062371805,0.031579744,-0.0019637765,-0.016918661,-0.015079545,0.08844353,0.03881668,0.011961689,-0.07873283,-0.033493172,-0.074790165,-0.07976697,0.010947478,-0.06171972,0.05979315,-0.03133201,-0.021530416,-0.0032150906,0.0037280682,-0.021554971,0.013309934,-0.013801078,-0.0053560897,-0.009809036,-0.0141905155,0.082378596,-0.025274327,-0.009862611,0.017908981,0.008256942,0.0012180632,0.012483388,-0.05107728,-0.022027532,0.004660832,-0.050207373,-0.041381355,-0.010992144,0.03262209,0.0031059557,-0.0799717,0.0292241,-0.031790573,-0.004178082,-0.016222129,0.038731974,0.015809825,0.06292164,0.08055885,0.023632355,0.060871486,-0.025062911,-0.016505728,-0.09911158,0.026462564,0.010136721,-0.053389642,0.023052532,-0.09159742,-0.10714446,0.034916077,0.037419755,-0.024288818,0.04063465,-0.023656646,-0.010396098,0.029628512,0.056011017,-0.008170568,-0.014400601,0.04960741,0.05111972,-0.003967319,0.019797739,-0.107820496,0.022890393,0.008386442,0.042913903,0.011169901,-0.018937685,0.021441326,0.018000182,0.09721988,-0.07949139,-0.05059145,-0.0063961353,-0.056494664,-0.05085478,0.02075627,0.08090817,0.07661353,-0.03348753,-0.053165242,0.01607425,0.04041301,0.04179055,0.005847609,-0.03865025,0.040871374,-0.027725585,0.04177246,0.06638425,0.15425439,-0.0060231965,-0.007835463,0.037737492,-0.028931165,0.110195905,0.018579334,0.08808909,-0.008404972,-0.003938235,0.0003841867,-0.021579694,-0.04997969,0.0032059818,-0.010116938,0.04059601,-0.027457882,-0.0026170362,-0.043304376,-0.011408421,-0.03006012,0.063929655,0.037837148,-0.039410714,0.023143282,-0.0059649344,-0.008717072,0.03112955,-0.018496418,0.05218615,0.040891305,-0.063014165,0.015976906,-0.06625861,0.03435952,0.0028767958,-0.014851391,-0.0055961534,-0.013861914,-0.0126023395,-0.025223928,0.01779857,0.08891162,0.005077054,0.07540103,0.032508194,-0.0085581215,-0.0011980181,-0.043796025,0.09090113,-0.021166358,-0.008321211,0.034214236,0.07179674,-0.01994166,-0.043351583,0.11224277,0.0026463785,0.036360044,-0.06202207,0.01222058,0.04252765,-0.04282599,-0.01255706,-0.016949762,-0.041410614,-0.042364027,0.061595254,0.014836971,0.02749563,0.011024434,0.027445761,-0.0041705365,-0.020695861,-0.009784934,-0.06774742,0.016602388,-0.0057470053,-0.06735187,0.012953591,0.0077566924,-0.058298785,-0.0066736215,0.031752873,0.027317492,0.086388774,0.07513783,-0.06230913,-0.007289084,-0.03567143,-0.092618845,-0.0201565,0.065721184,-0.0015540486,-0.02247332,0.0445691,-0.07708608,0.104997516,0.07972499,0.024444947
0.021971414,0.011514905,0.042723414,0.019620195,-0.10010751,-0.0037980305,0.01443283,-0.00034394182,-0.048884988,0.03771065,0.012380714,-0.042740267,0.0030016336,-0.017354596,-0.021688288,-0.03021147,0.042670067,0.010883071,-0.031077115,0.044110596,-0.022069056,-0.022034638,0.057345193,0.017507024,-0.020718591,0.04123795,-0.0021203596,0.04954546,0.008197078,0.0410142,-0.00089234114,-0.051826578,0.0009897833,0.04017188,-0.022234349,0.030288864,0.0095745735,-0.018442152,-0.007531565,-0.06511456,-0.021913275,0.04630281,-0.06893056,0.02949284,0.050729685,0.040501237,-0.06542845,0.033905633,-0.014313198,0.0027416572,0.016083315,-0.0070030373,-0.00091696007,0.036658145,-0.015175543,0.04798034,0.013028491,0.040910978,-0.022402585,0.023681376,-0.07331069,0.037005953,0.002142627,0.009791695,0.050582718,0.060329214,0.022476077,0.008210357,-0.010528854,-0.004520101,-0.018468106,-0.016464248,-0.0029704722,-0.045687824,-0.029254626,-0.031961802,0.03860221,-0.002591149,-0.032940224,-0.05067054,0.00646151,-0.05984794,0.026710173,-0.038129013,-0.09301562,0.07870355,-0.032576256,-0.020446543,0.060160104,0.06645852,-0.06939455,-0.009880935,0.023022197,0.043790884,-0.07798415,-0.0075942846,0.053774204,0.011094409,0.05151775,0.07239315,-0.05950853,0.013324893,0.022358865,0.014506042,0.011115208,0.00160078,-0.01066812,0.008202003,-0.049055774,0.051827315,-0.001425858,0.014066234,-0.01482112,0.01574709,0.05297266,0.014323258,0.026530907,-0.010371895,0.022038076,-0.012839054,0.042413674,0.047261253,0.056416433,-0.01176139,-0.04897071,0.00012069796,-0.020997515,0.029016148,-0.029866097,-0.026469188,-0.0034176249,-0.052190807,0.0068744808,-0.040077787,0.05517108,-0.019259665,0.04777225,0.0049470845,0.04040546,0.060557786,0.009149631,-0.016819172,0.0018596592,-0.018795474,-0.030623574,-0.07863525,0.0060855723,-0.011721516,0.003302718,-0.0036351236,-0.018823268,0.060742825,0.0027372078,0.029229918,0.03978059,0.007221127,0.013855536,-0.061023746,-0.00018786608,0.07910491,-0.10223204,0.0297358,0.05664983,0.036713112,0.003628068,-0.023251805,0.04160907,-0.07440655,0.027048064,-0.06521422,0.019351147,-0.06269827,0.031260356,0.01710029,-0.082753316,0.009878791,0.04154709,0.011272737,0.0074139717,0.049155306,0.023788456,0.020805467,0.02311668,0.015631566,0.041809294,0.034401137,0.006708276,0.047480512,0.024986813,-0.02910121,-0.030593961,-0.014762212,0.050486352,0.03353197,0.019181544,0.028327284,0.03012837,-0.055185128,-0.025068741,0.06437152,0.048967473,0.04114393,0.069205396,0.038735338,0.011739735,0.0150701655,-0.0075275674,-0.008376889,0.016632628,0.034260266,0.035888616,0.004382551,0.064468965,2.874136e-05,-0.03880033,0.010776022,0.025677484,-0.029313765,0.014323355,-0.024385016,-0.014126096,-0.008156297,-0.046922307,0.033437517,-0.012840213,-0.022817468,0.052193113,-0.03969036,0.011978803,0.050090928,-0.026667058,-0.031166175,0.034215335,0.048037805,0.009379645,0.0054016914,0.0028630754,0.014136252,0.02570435,0.009708981,-0.018474087,-0.049853966,0.04939198,-0.04521588,0.024873968,0.03729017,0.073071204,0.048333004,-0.056217216,0.03278253,-0.034797877,0.015844718,0.013887246,0.025248244,0.033349007,-0.008200712,0.01736735,0.014789866,-0.040340263,0.04048805,-0.010476643,0.024945304,-0.027329758,0.04831597,0.00240578,-0.038460866,-0.047553692,0.010892467,-0.04211031,0.003530221,-0.011861483,0.030382123,0.026229296,0.028177423,3.995045e-06,0.049142517,0.040146768,0.025903467,0.022020457,0.014168969,0.023263888,-0.013598352,0.063021004,-0.014242295,-0.010264476,0.011886389,0.06454111,0.048336033,0.030862236,0.002965363,0.025427103,0.03187721,-0.049356192,0.024486715,-0.03097183,0.06202588,-0.043188397,0.0452391,-0.05653151,0.044218756,0.066887684,-0.03655197,0.03830932,0.0055840905,-0.016755497,-0.020071384,-0.0014808476,-0.00043873145,-0.021824032,-0.032286678,-0.023586549,-0.088271126,0.024766928,-0.017609013,-0.0011007582,0.021753386,-0.010689657,0.03953598,-0.006542484,0.006760236,-0.013442791,0.019861862,0.039724752,-0.052769676,-0.002886913,0.018342713,-0.008081598,-0.020721858,0.08513915,-0.009977163,-0.048086442,0.018829038,-0.018306853,0.047030486,-0.012818,0.009018051,-0.04462303,0.013020079,0.022031896,0.053802434,-0.06227146,-0.0072142635,0.030090762,0.01572113,-0.052755978,0.039661728,-0.02518423,0.023210188,0.026717704,-0.009020193,0.036159974,0.0030844163,0.022059286,-0.048358854,-0.045495387,0.00089914096,0.031536136,-0.0033843438,0.023869028,0.005883297,-0.015041844,0.0011604335,-0.067923255,-0.0009045632,0.03784221,-0.027781934,0.036090553,0.038533483,0.01683942,0.01252996,-0.0041450225,-0.027589994,-0.05778804,-0.06609027,0.051042456,-0.044395156,0.036624044,0.07350669,0.06946927,0.041441,-0.06620186,-0.0016741959,0.021009421,0.010231467,0.049265858,0.017522385,-0.0043750666,0.049831647,0.036348637,-0.0064431797,0.033976052,-0.04366518,0.044065684,-0.021675631,0.0011871652,0.057184108,0.025262462,-0.070999555,0.02525885,0.036496144,0.01978367,-0.054357093,0.026710713,0.037419047,-0.03933038,0.012816508,-0.015237439,-0.06564171,-0.090523735,0.019938791,0.018511914,0.038012307,0.062232446,0.060735293,-0.04392426,0.019642984,0.061394766,0.042655077,0.012779306,0.06342712,0.051319662,-0.07421191,-0.032578018,0.023747042,-0.022679742,-0.015448119,-0.013528868,0.045370907,0.017013108,0.046355706,-0.006475902,-0.016521156,0.015582078,0.031166578,-0.012503006,0.07058212,0.081427105,-0.005322398,0.010329143,-0.032262307,-0.017365284,0.012967262,0.038677573,0.05724506,0.05015869,-0.012202318,-0.028252719,0.063104026,-0.010356085,0.05055207,0.021319175,0.03299968,0.0025753402,0.042793334,-0.08344656,-0.046050772,0.030708853,-0.0865044,0.0024305691,-0.019832468,0.052191388,0.00801831,0.050249197,-0.0029078608,0.044794798,0.008604844,-0.040501032,0.016113227,0.0047048386,0.057959832,-0.004226239,0.04569285,0.025198156,0.0073383893,0.06498635,0.016812984,0.030439962,0.02829819,0.02412358,0.020955196,0.03338186,0.041287377,-0.039174963,-0.0060180817,0.09148243,-0.008026157,0.04476557,0.011194866,-0.0699754,-0.027993746,0.042728994,0.02927712,-0.035487417,-0.010316257,0.00045563758,0.016049836,0.041961044,-0.09604247,-0.0037663796,-0.03667914,0.041377757,0.019241516,0.04919821,0.03490235,-0.025274068,-0.0443232,-0.010744066,-0.048389327,0.05535472,0.08787286,0.037447058,-0.025711773,0.038982112,0.0190717,0.054372195,-0.012669778,-0.056970377,0.02356541,0.012266318,-0.04079408,0.05661367,-0.030652694,0.012564273,-0.0317619,-0.055397447,0.011810614,-0.00090140844,-0.041298386,-0.037843857,-0.03397291,0.025059486,-0.052459475,-0.008195375,0.02744827,0.040033836,0.037893977,0.04179762,-0.006357118,0.027410183,0.039622232,-0.0713469,0.009104677,-0.079450004,0.0039122812,0.02741101,-0.05562672,0.025045332,0.022729652,0.012416591,-0.030716814,-0.016828839,-0.018280955,0.0023368772,0.016073875,-0.05538976,-0.060126178,0.022762498,0.07121976,0.04466451,0.01808294,0.03411778,0.013863481,-0.098171666,0.012182452,-0.027266389,-0.05353655,-0.015823277,0.0074426588,-0.049987677,-0.003773797,-0.024692116,0.036219772,0.016711976,-0.021110568,0.035463966,-0.012651761,0.008725408,-0.015819581,-0.03349934,0.013789292,0.062089227,0.043304194,0.03165433,-0.0003165466,-0.09961329,-0.008641276,-0.004091612,0.060557015,-0.051785585,0.032471564,0.0359334,0.04202996,-0.08371624,-0.007260831,0.009565195,-0.016283516,0.0027213304,0.03536129,0.03646891,0.006510168,0.06338452,0.029720794,0.05674947,0.034375854,0.05570516,0.013031325,0.0294442,-0.009277441,0.0520768,-0.0344078,0.033806317,0.083429255,0.028150238,0.07168804,-0.03637976,-0.09131154,-0.013628563,0.0015961484,0.0005338337,-0.006635869,0.013826351,0.002513775,0.002691162,-0.048150852,-0.007135983,0.0012476136,-0.053739496,-0.028514136,-0.11948168,0.06605631,0.07406545,0.028045634,-0.015464083,0.022942478,0.026726797,0.0069372957,0.01998917,-0.011267047,-0.048310522,0.03948263,-0.052939646,-0.011205729,-0.013081257,0.034439106,-0.04563809,0.016758887,0.04141608,-0.02641804,0.021182824,0.039769616,0.03336911,0.012296037,0.008502359,0.03166503,0.026396686,0.056860786,0.033785015,0.008650063,-0.012762649,0.06439065,0.03614655,0.020771869,-0.022056198,0.003176246,0.013710063,0.028326236,0.007724282,-0.035594575,0.010216191,0.03250018,-0.0033071665,-0.04006718,-0.04948835,0.060684703,0.056612033,0.046523355,0.030322002,-0.020556264,0.034707036,0.022960719,0.0021140315,0.0021661983,0.0076107383,0.052564565,0.05792295,-0.0057124114,-0.008322111,0.00017580256,0.028496427,0.023441888,0.045517024,0.047313612,-0.010895758,0.03446721,-0.005535746,-0.07420896,0.05201115,0.031998288,-0.03032328,-0.0011342412,-0.018858127,0.011081958,-0.00096729636,-0.024619365,0.04788959,0.0076162484,-0.049009766,0.058017768,-0.016297054,-0.08291566,0.0050138244,0.04723051,-0.0067605586,0.008869913,0.01685303,0.0073299976,0.035676863,0.0602187,0.04418506,-0.063977785,-0.014590833,0.03418482,0.008852025,0.043556307,0.015702171,0.0022268463,0.051070817,-0.03083603,-0.038931392,0.051220804,-0.04139295,0.035375837,-0.04730823,0.065839164,-0.04167699,0.030149756,0.036280774,0.026924005,0.004067651,0.07503244,0.029454308,-0.0052378834,0.0019015423,0.036751866,-0.0058692633,-0.0031407967,-0.023956664,0.012942135,0.05665251,0.025736446,0.039362337,0.008507174,-0.058690786,0.039848857,0.02067684,-0.03549973,-0.06711848,0.045465868,0.039882686,0.01369308,0.08072199,0.0127403075,0.005373553,0.014222039,0.024524761,0.005314455,0.024423594,-0.029993635
-0.010623171,0.034226734,0.054736268,0.0019556838,-0.0051200413,0.007571172,8.3533e-05,0.026109256,-0.0043075923,0.04303975,-0.015171465,-0.027041478,-0.017403886,0.0124184415,-0.030701,0.038550477,0.038024265,0.035558403,0.024999466,0.023847403,0.020478167,0.004953433,-0.006981374,0.015150125,0.022628492,-0.020859566,0.012409402,0.018732453,-0.020610549,-0.0122697195,-0.014975565,0.0075022825,-0.04342135,0.0056177676,-0.007993805,0.06791628,0.027075512,-0.057358135,0.012166298,0.041460734,0.0046740253,0.0010988114,-0.05169253,-0.02993439,0.033740096,0.037846472,-0.025675138,-0.026197582,0.023102917,-0.022325896,0.010522606,-0.004033672,0.0031674562,-0.018922426,0.013124551,-0.006187983,-0.03239173,-0.024104783,0.027771164,-0.06356818,-0.0058948593,0.033984937,-0.0067018094,0.0004603006,0.02124312,-0.03097967,0.003705959,-0.032476544,-0.019303164,-0.015294772,-0.015134927,-0.06195745,-0.00053037825,0.0112502845,0.025299279,0.024951985,0.031379066,-0.047511812,0.027246822,0.018062627,-0.03817679,0.0464605,-0.0030161766,0.0060988255,0.0066345697,-0.01697537,0.04870595,0.010128752,0.005495087,0.058535498,0.015407622,0.010729505,-0.022575982,-0.037624072,-0.008837553,-0.023550516,-0.017170802,-0.020307036,0.02222853,0.0346959,-0.04695446,-0.0025489263,0.03634412,-0.061440594,0.02225029,-0.010012512,0.016472336,-0.0137267085,-0.011934582,0.010880994,0.020448808,0.028909931,-0.015927857,-0.028203433,-0.05157085,-0.037884537,0.012285007,0.031485975,-0.029143061,0.004768207,-0.006226055,-0.01895377,-0.015030117,0.009596162,0.0045962636,0.015481305,-0.018780345,0.05683959,0.03007908,-0.0058501945,0.018541016,-0.028008772,-0.04482861,0.038840536,-0.045221508,0.018560583,0.01949945,0.028328639,0.043553367,0.012130215,0.010839797,-0.0059082834,0.008854661,0.006991209,0.009961603,0.014477385,0.012059113,0.011739121,0.0019656634,0.07358886,-0.06401427,-0.058288082,-0.020532416,-0.014948476,-0.020200089,0.027568767,-0.03300328,0.015712459,-0.008976212,0.00035951394,0.03514929,0.013835784,-0.06445851,-0.014738516,-0.0020031086,0.06696101,0.035114124,0.050821304,0.009318878,0.00155989,0.009721908,-0.026483402,-0.026998524,0.012830623,0.025982345,0.007013047,0.028864563,0.0031592748,0.024478095,0.035806812,0.047300365,0.031438857,-0.031812176,0.035189312,-0.015871637,0.047833502,0.049593884,0.014498737,0.03002798,0.032610726,0.025697272,-0.025855057,-0.021621661,0.002275391,-0.032426216,-0.03871189,0.009679998,0.010590723,-0.052787922,-0.044246547,-0.00057216076,-0.06712662,-0.047763217,0.015329713,-0.028125267,0.008759524,0.050906785,0.04795129,-0.07084523,0.011733017,-0.008831694,0.0378777,-0.06252072,0.030275116,-0.018468328,-0.00039803985,-0.018992674,0.028108679,-0.02022604,-0.030102747,0.0024738216,0.0063126646,0.03227029,-0.024446746,0.013474718,0.021241765,-0.02881458,0.019279342,-0.013668229,-0.041598786,-0.029975427,0.011725881,-0.01770821,0.040654536,0.023960795,-0.015048082,0.046063088,-0.01928353,-0.062383913,0.04174083,-0.002360749,0.018776668,-0.03009537,-0.030710706,-0.013581487,0.030470964,-0.031633332,-0.0023919302,0.0048580123,0.0076717613,0.02178819,0.013790328,0.051139757,-0.050998006,-0.033355437,0.029920572,0.050187133,0.043309283,-0.006949337,-0.015345133,0.0024383247,-0.04064064,-0.025708465,0.030571073,-0.06296559,-0.03326692,0.012256334,-0.042719964,0.03200907,-0.005387819,0.022079613,-0.021276886,0.016254982,-0.059670556,0.014715372,0.039749395,0.011263036,0.03268621,0.0122824535,0.040474005,-0.018580392,0.041066535,-0.038341723,0.023263827,-0.022880368,-0.02133367,0.036608927,-0.03341467,-0.03079789,-0.05633549,-0.08510745,-0.009244494,0.032189213,0.008267915,0.02245631,0.050784193,0.031685445,0.0013941545,-0.026873898,0.014560272,0.00080955506,-0.009952063,0.03176504,-0.019901507,-0.03894448,0.019437209,-0.035149936,0.012565927,0.0064969654,0.035072256,0.0083054,0.04402534,-0.03957344,0.015109766,0.006227276,-0.06476365,0.0023469012,0.009204035,0.0033970943,-0.023608986,-0.031330105,0.030271582,0.0220063,0.051304743,-0.039938886,0.005357216,-0.012000283,0.07708678,0.015044475,0.029256716,0.015779875,0.006024255,0.021744119,-0.0333181,0.00510027,-0.01280233,0.02542757,-0.0020381222,-0.034353886,0.02333442,-0.005567266,-0.027902579,-0.050768495,-0.016044019,0.015800783,0.037775144,0.011599534,-0.05808864,-0.003066156,-0.030111924,-0.053254575,-0.025099536,0.014383054,-0.035910092,0.0086119035,0.03709355,0.015251599,-0.048446167,0.03357186,-0.006742816,-0.036829166,0.05352787,-0.014014112,-0.020486508,-0.051794358,0.036755636,-0.053987708,-0.038065005,-0.03316772,0.018546257,0.011229787,0.010322299,-0.058470096,0.029056147,-0.0027031875,0.06603225,-8.3658066e-05,-0.02404921,0.03277572,-0.03444832,-0.022934113,-0.044280887,-0.006870961,0.0041400227,0.021920174,-0.057208885,0.015668122,0.024199074,-0.0022786749,-0.018396452,-0.0495802,0.023199977,-0.0020255914,-0.005362569,-0.012469464,-0.016350534,-0.026901087,0.04959159,-0.036553364,-0.047198832,0.03373379,-0.0095580015,-0.037465096,0.0121668745,0.018384185,-0.024264589,0.0104582785,-0.0044618016,-0.020652017,0.010035821,0.01945957,-0.017445121,-0.060093112,-0.000547263,0.010277689,0.016554138,0.061743047,-0.0141203515,-0.007059332,-0.039611436,-0.0010768058,0.02307744,-0.022137197,-0.002981274,0.0019780414,0.014418449,0.036866818,0.034148064,-0.035178363,0.010718541,0.028604437,-0.04916958,0.030503731,-0.0036712866,-0.012658241,-0.03541506,-0.013074966,-0.041997068,-0.043819804,0.017630544,0.01634662,0.0078121256,-0.032616075,0.010652019,0.0025382622,-0.043630492,0.0015067835,-0.004139976,-0.06102779,-0.0038468444,-0.018434433,0.017633386,-0.014962408,-0.016659595,-0.009767005,0.030034577,-0.00486543,0.035077017,-0.0079700295,-0.018479137,-0.04202357,-0.04591399,-0.015752774,-0.02556465,-0.025606878,-0.03457491,0.017611701,0.0045002587,0.01360074,-0.023938604,0.006606658,0.0021214474,-0.016796254,-0.0067569683,-0.0059909453,-0.048867676,-0.023504237,0.026051186,0.008431346,-0.0010720225,-0.032899786,-0.0057345238,-0.0022714392,-0.015091325,0.0017057316,-0.037646953,0.012692545,-0.06265953,-0.029334811,-0.01960761,-0.03745827,-0.0006515666,0.00030191572,-0.019830387,0.035085965,0.020741709,-0.00290395,-0.021505805,0.020932212,0.022498144,-0.0077993595,0.017310634,-0.023963468,0.05793299,-0.00302293,-0.03264193,-0.05015456,0.044250846,-0.031556252,-0.010568826,0.0115860505,0.052301336,0.020269193,0.030445404,0.00975938,-0.037834305,-0.00816498,-0.014201006,-0.011200081,-0.02509796,0.022905912,-0.06346028,-0.072922975,-0.010765987,0.04555745,0.017339244,0.015187234,0.012229366,0.009302614,-0.02550494,-0.010934152,-0.0324654,0.03360828,-2.7780561e-05,-0.004187019,0.010839221,-0.023606526,0.025111252,0.004358787,-0.010764169,0.017753929,-0.033536572,-0.016768293,-0.03779557,0.036867514,-0.018546121,-0.09050944,0.007054245,0.0076742494,-0.0022865804,0.05488857,0.010461772,-0.004367815,-0.0019118264,0.0040141563,0.0222629,-0.020913446,0.041045226,0.030146377,0.04532024,-0.011813114,0.057261534,0.02897538,-0.032401748,0.016939044,0.035320226,0.030810077,-0.005744731,-0.0028573181,-0.039648317,0.021752935,-0.02499889,-0.00020222117,-0.040898636,0.03844498,-0.022670984,-0.043413047,-0.06369944,-0.012934873,0.013597216,0.009339665,-0.03596796,-0.037199594,0.004717127,0.0077791945,0.033042796,-0.020166462,0.01654644,0.039665844,0.02967299,-0.04897696,0.025487732,-0.037867412,0.0068480526,0.016990721,0.035739288,0.024576118,-0.027502807,-0.025987057,-0.022329312,-0.03621544,0.018963037,0.037867766,0.047516014,0.010873058,-0.007549574,0.019052198,0.022012314,-0.031942975,-0.0023817392,-0.0029116983,0.0027295954,0.02131815,-0.0226109,0.009132531,0.007264365,-0.03502502,0.0026918047,-0.025162762,0.05666936,-0.013707645,-0.031282213,0.043222956,-0.0046401,0.018297201,-0.01748341,0.011254855,0.0010100967,-0.07624167,0.002443669,0.011324521,-0.013166886,0.03989122,-0.034870036,0.02163854,0.023826044,-0.022919577,-0.0064602494,-0.004238454,-0.012390282,-0.0012478553,0.012577712,0.014058801,-0.030704552,0.003345518,0.0035060514,0.027663799,0.00080741325,0.06259713,0.017567335,-0.050690968,-0.023441695,-0.015405369,-0.028131256,0.0045328755,0.025994977,0.031346757,-0.020186458,0.009969127,-0.027449118,0.02738481,-0.002770194,0.0152442185,-0.0008842128,0.0056352303,-0.028816093,0.010995436,-0.027950399,0.0245872,-0.0019825737,0.0035323447,0.004629629,-0.018573513,-0.02172746,0.0613291,-0.07476318,0.07725018,0.02384532,0.05389663,-0.041499134,-0.04744263,-0.04018239,-0.023771917,0.01744121,-0.0504735,0.006929013,-0.0009967958,-0.043118954,-0.016724415,0.009151135,-0.010393387,0.018903011,-0.024427703,-0.019998597,-0.01570829,0.026649753,-0.012362355,-0.015637599,0.035916027,-0.048865736,-0.06936133,-0.042270627,0.008586822,-0.04193515,-0.0076326057,0.022260273,-0.015691573,0.010228849,0.033505853,-0.004620799,-0.03478331,-0.09058648,-0.009314403,-0.00624256,-0.02945635,0.021288399,0.014137484,0.026582323,-0.003159598,-0.016250027,-0.0013140581,0.025385547,0.03571593,0.029531496,-0.03372783,0.011542624,-0.015436981,0.04530107,-0.0072620497,-0.004653014,0.056434713,-0.06314587,-0.012994734,-0.041822776,-0.04086786,-0.0450997,-0.031623494,-0.03077012,0.027707815,0.0011691339,0.0073996903,0.012659986,-0.02673097,-0.02168787,0.005517206,-0.060352284,0.008041048,-0.00025017542,-0.016326629,-0.05792875,-0.020286646,0.052680522,-0.024596479,0.0037655253,-0.033416603,-0.03853245,0.004537139,0.080269806,-0.054468513,-0.025009882,0.042097308,-0.029302215,-0.043244865,0.037843443,-0.023612143,-0.013777155,-0.026282813,0.042626284
0.016605515,0.016582102,-0.048567504,0.03441132,0.027858913,0.006941008,-0.016152795,-0.042478774,0.030538522,-0.063809395,0.006319931,0.010854773,-0.029786762,0.023965007,0.027793825,-0.033752304,0.03168733,-0.011851812,0.012190857,-0.04222508,0.036434893,-0.010308736,0.049296778,-0.03312281,-0.008628713,0.0008751297,-0.0057824827,-0.041859463,0.0033574314,-0.028103631,-0.0028067045,-0.015912654,0.0007925259,-0.028569296,-0.006063788,-0.040013324,0.01035673,-0.05933491,-0.0034602121,-0.0001255881,0.003320847,0.021626307,-0.04804095,0.012577913,-0.026202552,-0.059362937,0.0018908305,-0.019305186,0.06396293,-0.04130505,0.01963658,0.04821261,0.045178186,-0.0001689117,-0.014412035,0.02473495,0.012600798,0.00071698974,-0.020764373,-0.015939575,-0.03315915,-0.0043087415,-0.071247995,0.025729155,0.071844,0.028660579,0.019961553,0.014325278,-0.023576876,-0.008664265,0.00993841,-0.009849869,-0.0057526906,0.034152344,0.0086338725,0.011995597,-0.061402854,-0.04824729,0.0031012823,-0.02614376,-0.024888212,0.06992567,-0.029999603,-0.045228478,0.013070223,0.04844583,-0.018095346,-0.0043386263,-0.031047741,-0.003223772,-0.014357999,-0.04496798,0.09956574,-0.027039288,-0.06260034,0.018771028,-0.02203263,-0.020241013,-0.090520754,-0.027529389,0.01855218,0.023610413,0.02020035,-0.03593901,0.050778303,0.03515586,0.0023541483,-0.035961762,-0.010912822,0.020956052,0.0024295999,0.01721376,-0.037332572,-0.032542378,-0.005107623,-0.044880435,-0.05885454,0.0058120904,-0.005519313,-0.014628783,0.008406103,-0.0111884875,-0.09073353,0.024466982,-0.04578345,0.009432833,6.312581e-06,0.037489012,0.059418224,0.061960313,0.013160293,0.03740077,-0.02248345,-0.02928239,-0.056916177,0.0057793194,-0.060202964,-0.059312373,0.047082867,-0.075297184,0.027346903,-0.0032478704,-0.005492879,0.022102052,-0.0013362205,-0.010429021,-0.008589122,0.033606082,-0.024001125,-0.016710537,-0.03699006,0.006404707,-0.030720107,2.0566724e-05,-0.022080056,0.012607759,0.0692047,0.006336298,-0.021679074,-0.022387683,-0.01160623,0.04562039,0.03015687,0.0035049403,0.010857293,-0.0028729183,-0.03148964,0.049256574,-0.08802352,-0.023204139,0.033323925,-0.05939116,-0.00035674652,-0.008026189,0.04366144,-0.028001985,-0.035724625,0.025832694,0.00851306,-0.02727517,-0.045377668,-0.027392993,0.020244077,-0.003751201,0.0020886157,-0.036827136,-0.038837984,0.008022602,-0.010365541,-0.0042898324,-0.013373587,-0.016744278,0.03033377,-0.031053605,0.012141042,0.0017701959,-0.033674724,-0.04247822,-0.040769506,0.050480545,-0.010868956,-0.0015194358,0.018254967,0.060822763,-0.038155638,-0.035446025,0.044027936,-0.0033762816,-0.06119033,0.03545132,0.0050637107,0.03691029,-0.060939405,-0.051598813,-0.055898044,0.013113256,0.07355356,-0.049265333,-0.050871223,-0.008253147,-0.024778778,0.009394413,-0.017299486,0.05831585,0.020780897,0.011971162,0.040334847,-0.013120188,-0.020081457,-0.0050739557,0.009083887,0.020677688,0.017553497,-0.0654354,-0.093313955,-0.039770395,-0.040220097,0.060782682,0.03600932,-0.017786691,-0.0067944694,-0.003863243,0.027684806,0.046521593,-0.021173581,0.019587008,0.017290976,0.054153014,0.006323622,-0.049435563,-0.008483801,-0.03320064,-0.014671495,0.012351138,-0.03733497,-0.05021918,-0.035358544,0.023100263,-0.0017935294,-0.017465862,0.030143403,0.0007595279,0.0017595284,-0.0035285966,0.0216976,-0.0077281366,0.02686254,-0.020838564,-0.024752919,-0.0440431,-0.0128765255,0.026136845,-0.024619536,0.044513635,0.019530807,-0.0054544047,-0.0012231726,-0.057179984,-0.012291921,-0.05909287,-0.012827553,-0.029125983,-0.06230202,0.0031199725,-0.009603376,-0.07233133,-0.00521568,-0.0023270508,0.06851308,-0.040643774,0.026127456,-0.023117492,-0.010125929,-0.060754325,0.03927936,-0.020154735,0.021844082,-0.00024310366,-0.03386028,-0.06914099,-0.019856848,-0.0039964314,-0.017390134,0.01961271,0.009552711,-0.058778405,-0.068108745,-0.027673127,0.003354629,0.0049550654,-0.010914494,-0.0047161104,-0.050046764,-0.0017197657,0.02550308,0.0008800546,-0.03134304,-0.03527405,-0.01910564,0.019432466,0.02144425,-0.015259533,-0.017637147,-0.01079282,0.015331138,0.0066582914,0.009285994,-0.019645728,-0.032236293,0.0216546,-0.017880477,-0.006677084,0.0003925574,0.06189018,-0.008297339,-0.04485967,0.023846766,-0.014958633,0.041899085,0.015855119,0.027001642,0.040163472,-0.059019137,0.051370185,0.016917052,0.0005970927,0.0018065153,0.014611166,0.031260505,0.035750095,0.0030790893,0.08365527,-0.018348765,-0.032857362,-0.013376171,-0.06607357,0.021168891,0.012113673,-0.026981328,0.0014756903,-0.016719315,-0.049551226,-0.01838761,-0.09785089,0.02273292,-0.014043824,0.05021817,0.01867368,0.033024542,-0.0132758105,0.0056548524,0.024951346,0.022233052,-0.057725612,-0.045571323,-0.02954559,0.0045666234,0.010838278,-0.05163968,-0.07255216,-0.023254972,-0.03577184,-0.014764122,-0.038696647,0.050485354,0.0019230106,0.04873918,0.048209887,0.04755606,-0.012171701,0.0023807648,0.020458262,0.013086184,-0.042046458,0.049466446,-0.040346727,0.038722232,0.019834513,-0.050702758,0.013962737,0.008185533,0.0055046557,-0.017463338,-0.036319558,-0.003988981,-0.031482693,0.0118594775,0.0067767818,-0.04336843,0.017064068,0.018914439,-0.023037324,0.004223763,-0.015608843,-0.012958278,0.025466759,0.048883848,0.006422504,0.0024855875,0.03664106,0.0617002,0.011747819,0.05784997,0.025006441,0.007909809,-0.08122701,-0.03542389,-0.007512816,-0.028600113,0.07944587,-0.036734823,-0.07595672,0.0034525173,0.04812652,0.036728594,-0.020181911,-0.0060308552,-0.041532323,0.0014443012,-0.034646366,0.047338475,0.0011087162,0.035755936,-0.031964898,0.042669494,-0.011956337,0.05793399,-0.036114864,-0.014738745,0.041875813,0.057791557,0.02114397,-0.012866228,-0.039717264,-0.043772656,-0.013054765,-0.05738251,-0.02072574,-0.033178117,-0.012224471,-0.02065811,-0.058431342,-0.036872827,0.05219126,0.0019782167,-0.08346397,-0.04541344,0.028853878,-0.041624907,0.005261968,0.019118272,-0.04185718,-0.017969264,0.0031673673,-0.014539008,-0.06186749,0.050263535,0.016747154,-0.019079076,-0.021042222,0.022951035,-0.02239623,0.00078939635,0.00069209596,0.030784871,0.03347087,-0.0043436424,-0.01671565,0.07357662,-0.041327335,0.0035683603,0.030706786,-0.034757607,0.01667916,0.016901249,0.04778014,0.017675936,0.072479576,0.047343012,0.024821997,-0.03263971,0.019309467,-0.018034704,0.0024663147,-0.040223323,0.0096145645,-0.005249974,-0.017201005,-0.022703202,-0.017070094,-0.032968238,-0.031071348,0.00011782151,0.018495107,0.08764977,-0.010414916,-0.00039495155,0.030280696,0.028055025,-0.030527571,-0.03491034,0.03725549,-0.05719176,0.0025461214,0.03425144,-0.05914896,0.0469141,0.045513235,0.048541006,-0.06021618,-0.010984622,-0.04157874,-0.011157968,-0.04920468,-0.025845202,-0.017855711,-0.012488022,0.018260166,0.060978044,0.058271617,0.029085714,0.047332864,0.014925959,0.028350282,0.007737508,-0.06687932,0.021081217,0.0008611275,0.027902104,-0.020626683,-0.0022617935,0.009227354,0.0055324407,0.0579511,-0.01375019,-0.03012897,-0.021505851,0.06027064,0.038098212,0.017730933,-0.025579007,0.050992474,-0.0032195733,0.030267175,0.024362175,0.00512438,0.0018671661,-0.00037154788,-0.029017797,0.03848437,0.010192654,0.08887616,0.015789943,-0.023466313,-0.015183492,0.023909612,0.0039368994,-0.017397478,-0.040900167,0.07776561,-0.0053463676,0.053969525,-0.026676508,0.0056979833,-0.0123307435,-0.041660313,-0.02976872,-0.0043201204,0.03623729,-0.045648545,0.019369006,0.03243511,-0.009779295,-0.013927341,-0.05146741,-0.030296955,-0.02398817,0.00756813,-0.040583283,0.0213643,-0.039053343,-0.033613935,-0.025971541,-0.03728351,-0.054894276,0.049988665,-0.047175836,-0.017089864,-0.012080605,-0.0052937726,-0.0014241555,0.023672847,0.04152589,-0.041167133,0.023206882,0.020106047,0.027897567,0.0016104687,-0.006423475,-0.022813808,-0.011312879,-0.029604012,-0.017849172,0.007557735,-0.009586602,0.057134137,0.03296164,0.037353568,-0.03428067,0.026734458,0.0012800643,0.0037604293,0.017723646,-0.0006096608,0.07665066,0.014405788,0.0033396864,-0.011994424,0.07685286,-0.076562166,0.012453986,0.036212314,-0.013057114,0.011834739,-0.012071359,-0.021674419,0.0026167405,-0.048336282,-0.012661749,0.025850827,-0.0016700458,-0.04040607,0.02218989,-0.053138625,0.029095177,-0.003953784,-0.0025242006,-0.029904434,0.01776447,0.025428768,0.013056822,0.06010741,0.015055714,-0.006276029,-0.05719844,0.023318287,0.003356357,0.0019052578,-0.01725424,0.008429,0.0237447,-0.024927212,-0.028874572,0.038152233,0.059720043,-0.05004104,-0.004352589,0.0499552,0.011741503,-0.031372394,-0.04690497,-0.035991944,-0.05072792,0.061284065,-0.011874235,0.008825017,-0.026366467,0.0073414855,0.0022361293,0.026533855,0.041059643,-0.02812626,-0.043334436,-0.05505116,-0.047517624,-0.0491176,-0.06255589,0.073681876,-0.017949393,-0.05297619,0.026770968,-0.029720282,-0.013361072,0.004624236,0.06094873,0.029237695,0.024095101,0.022530714,-0.05067906,-0.012902171,0.016121337,-0.022275511,0.025923591,0.04711567,0.03962545,-0.031730026,0.015825491,0.005518931,0.017879544,0.012020034,0.009889364,-0.08931852,-0.028355593,-0.022323525,0.05598378,-0.010379413,0.031322602,0.045466155,0.029910665,-0.017250849,-0.011532433,-0.013975262,-0.023909608,0.00018609616,-0.02635633,0.027226985,0.0084099835,0.05875327,-0.03262993,0.07367077,0.03297196,-0.047607552,-0.07091004,-0.034551036,-0.05338227,0.013650976,-0.05932412,-0.018803364,0.060901884,-0.0058832797,-0.03986331,-0.039566785,-0.023603547,-0.04688717,-0.0010910794,0.027622845,0.011325093,0.017569814,0.052104447,0.08238036,-0.033435144,0.00556809,-0.020187043,-0.015234612,-0.04661144,-0.046592996,-0.043487452,-0.01591508
