0.0029447381,0.08780436,-0.016620606,0.08492535,0.08343708,-0.10638087,-0.054146513,-0.035934195,0.040456597,-0.089119755,-0.024860542,0.14649299,-0.17329632,0.010025683,0.06821004,0.004006574,0.11713535,0.018811572,-0.17829087,0.006056506,-0.011883758,0.020041607,-0.037475687,0.11545853,0.005206938,-0.10852436,0.01116338,-0.07548932,-0.059035588,-0.00640866,-0.09463981,-0.044510458,0.05730913,0.03398484,0.051301986,0.052807435,0.032132536,-0.097856715,0.08709023,-0.04690332,-0.010870673,0.12932113,-0.09092142,-0.030673075,0.108996145,0.019208524,-0.11362871,0.03581231,-0.09414195,-0.0918742,-0.028814917,0.08567876,0.0754034,0.08911302,-0.23383561,0.09808952,-0.021661159,0.09343265,0.06517391,0.011384163,0.051746238,-0.05592906,-0.04731094,-0.015303927,-0.004154288,-0.072345294,-0.04992569,-0.06639534,0.116190426,0.06412485,-0.015123409,-0.1563847,0.049932085,-0.06575952,-0.042054046,0.028751316,-0.09789835,0.06618396,-0.054107755,0.09704614,0.0626207,-0.015303975,0.0037925653,0.0037203673,0.0006344534,-0.1564806,0.02493926,-0.14354599,0.05055931,-0.07151176,-0.17099892,0.07574003,0.039343853,0.025973504,0.06422982,0.04694849,-0.08886171,0.078363165,0.082143076,-0.008312952,0.0566468,0.06174431,-0.014092933,0.08959872,0.026994105,-0.20489725,-0.07187853,-0.04417725,0.12801366,-0.09285497,-0.021167422,0.021601126,-0.14394416,0.02530341,0.0017543312,-0.098300695,-0.11930372,-0.09714235,0.055192027,-0.07260691,0.051012754,0.03942662,0.08066334,-0.019774629,-0.12177958,-0.047064025,0.046413053,-0.07855339,0.0944448,-0.051627815,0.059924077,0.016913172,-0.2054444,0.012072502,0.07239314,0.018131461,0.042497728,-0.09112752,-0.14991102,0.026081704,-0.0064256024,0.10924776,0.07592772,-0.01417327,-0.11983774,-0.0975419,0.13268954,-0.06949818,-0.037296407,-0.13956647,-0.12081935,-0.018054856,0.10584904,-0.10866074,-0.07700624,-0.040496055,-0.0037624254,0.1319747,0.06269781,0.0011927256,-0.10562982,0.10366726,-0.13666974,0.030986782,0.081345,-0.10852815,-0.051100723,0.042807925,-0.14330499,-0.033177823,0.034070637,-0.024364034,0.09979334,0.06154561,-0.115785904,-0.096195385,-0.09265987,0.044990256,0.025509488,0.085204765,-0.1688038,0.011805938,-0.050739426,0.073727064,-0.0909425,-0.0072296774,-0.13570432,-0.09723572,-0.03782824,-0.096674345,0.025981776,-0.051672388,0.12439241,-0.19373019,0.13801992,-0.03074343,-0.19708385,0.09034791,-0.032494057,0.0027654036,-0.08094188,-0.14442292,-0.009836222,-0.121326506,0.0107127605,-0.053485915,-0.10437361,-0.054911207,-0.13596652,-0.09118898,0.09109414,-0.13042954,0.03367282,-0.02247666,-0.054613844,-0.019447,0.054564916,-0.0072106845,0.13488057,-0.059649117,0.020742912,-0.00819399,0.0809155,0.017300336,-0.048295874,0.010302089,0.045156337,0.0137564195,0.057459135,-0.1105807,0.0075485464,-0.18105738,0.022888348,0.08475894,0.06201148,0.101994276,-0.029208759,-0.023102889,-0.11860566,-0.07511359,-0.2706276,-0.05668305,-0.04724671,-0.1356743,0.05313147,-0.03070679,0.084068194,-0.1635672,-0.05326614,0.02536639,-0.081757575,-0.05440018,0.0068979757,0.12583901,-0.005534767,-0.04218703
-0.008496937,0.029363202,0.046681102,0.027447734,-0.041479282,0.05260517,-0.028998407,-0.050874993,0.023891067,-0.01043476,-0.023637231,0.05861881,-0.04232236,-0.013527307,0.043055568,-0.008198064,-0.059026107,-0.03695181,-0.019130692,-0.051309098,0.017330525,-0.03792085,-0.008196938,0.010247092,-0.0039797067,-0.022905564,0.060128048,0.03119702,0.05026541,0.029066378,-0.017772121,-0.04029555,0.053841095,0.02136347,0.01624651,-0.036196083,0.05212787,0.024719005,-0.0176582,0.015599405,-0.010481178,0.039770197,0.021230733,0.05424203,-0.032308184,0.0009793264,0.056067146,0.033218052,0.017186265,-0.060653303,-0.004632804,0.05148303,0.04005453,-0.008527645,0.04269697,-0.051577546,-0.04485506,0.045930758,-0.020282865,0.049604047,-0.013092992,-0.03522199,-0.018520076,-0.0032540744,-0.012381429,-0.0019275635,-0.010822836,0.03439336,-0.012749652,0.04997454,-0.060918692,-0.054711133,0.04755422,0.018264564,0.02805956,0.039642017,0.049685802,0.05101579,0.017438568,-0.044844426,0.0032359625,0.009944229,-0.04173624,0.008889783,0.012967974,0.02918504,0.036714137,-0.039401993,0.015706837,-0.05100457,-0.041330665,-0.04656899,-0.05302564,-0.035265196,0.047728647,-0.01122019,-0.04772646,-0.015564655,0.0059138886,-0.030549718,0.0037864319,0.024548804,-0.057674192,0.0146226855,-0.05088671,0.015442838,0.06232845,0.008592112,0.03251696,0.06561859,0.011575854,0.0004983811,0.0318883,-0.018169157,-0.0033838886,0.021323709,0.059609957,0.013326736,-0.029243266,0.022942524,-0.022274321,-0.044868916,0.0049972716,0.026796073,-0.026588297,0.05709267,-0.017200924,-0.028237019,0.00013157996,-0.0065882043,0.014216186,-0.014972581,-0.0041840356,-0.017992793,0.042178262,-0.06267457,-0.04585293,-0.005445801,0.047855925,0.031569824,0.055869743,0.04985073,0.015078382,0.032767013,-0.034321938,-0.057122625,0.062912874,0.027485553,0.05178369,-0.014369345,-0.035201203,-0.00997099,-0.010809422,0.0141698485,0.032496233,0.04954454,0.0034053004,-0.03197316,-0.050448667,-0.039516184,0.04185292,-0.03468654,-0.0018276103,-0.017725622,-0.016103715,0.06079946,-0.019520324,-0.02342401,-0.03886246,0.008556462,-0.036377866,-0.0066043134,0.04685411,0.048418358,0.017210856,-0.024435673,0.036674365,0.007849333,0.024735598,0.054615296,0.054961458,0.013618557,-0.048658557,-0.041782796,0.040209457,-0.0021423886,0.00013915938,-0.017737718,-0.029220346,0.029759644,0.018281654,-0.04484002,0.04048059,-0.020021278,-0.013863591,-0.039891157,-0.038001418,0.061623294,0.04898164,-0.034689117,-0.025184771,0.0055367965,-0.027181257,-0.026056655,-0.035582375,0.011327178,0.033562258,0.011763203,-0.02006349,-0.034621388,-0.03433104,-0.035448685,0.022412207,0.003972863,0.044777706,-0.012859936,0.04877829,0.01629983,0.055075634,0.052431695,0.030685127,0.041452903,0.050388727,-0.04215142,-0.044929985,-0.01803063,0.027586749,0.013663155,0.028483469,-0.044906534,0.0059485342,-0.009465137,0.046894774,0.026845917,0.044026803,0.04261354,-0.013430278,0.021613957,0.05063773,0.024773542,0.011242288,0.004510127,0.03615434,0.0075280587,0.021959806,-0.046779655,-0.041074447,0.04966566,0.053922404,-0.03718419,0.011304811,0.03167146,0.029666642,0.031028396,0.010041888,0.042118322
-0.05906425,-0.0289349,0.021731371,0.041478977,-0.04508739,0.0074646114,0.0006203141,0.05295866,0.0336667,0.088101655,0.04637243,0.006653726,0.08948121,-0.04020082,0.011828591,0.010251689,0.032151356,-0.021825682,0.0055757635,-0.008716651,0.05280384,-0.037997965,0.05493241,-0.053498212,-0.049831502,0.045532897,0.042814665,0.012988868,0.06323736,0.04604113,0.0196706,0.04166837,0.0036800012,0.02003802,0.010704646,-0.027105076,-0.006992312,0.1007236,-0.08685705,0.045179356,0.052816987,0.009811835,-0.012757827,0.00016400326,0.050912004,0.042519,0.1053765,-0.041351825,0.012896289,0.04139178,0.029638546,-0.062167883,-0.053356625,0.0040887366,0.003657138,-0.07164086,-0.0012124161,0.03064339,0.0007094012,-0.07059257,0.027727947,0.090218365,0.036699805,-0.08645128,0.023693586,0.048329145,0.068806395,0.088492624,-0.04678244,-0.026500488,0.08483593,0.061784275,-0.07651883,0.065284446,-0.04512449,-0.0312517,0.038082354,0.010790792,-0.058036543,-0.009980933,-0.011391577,0.1104786,-0.052798748,-0.07739276,0.022393988,0.021419344,0.076590784,0.03281733,-0.011841756,0.010593679,0.06927475,-0.04434693,-0.005221021,-0.02435659,-0.06205536,-0.038083088,0.069566816,0.0061571454,0.02104136,0.023214908,-0.04876766,-0.039882977,0.0003594564,0.025097417,0.028091164,0.035853297,0.0059283483,0.05914334,0.017920181,0.036685698,-0.003784042,0.017098386,0.0062406715,0.012304685,0.029341074,0.043747004,0.07129789,-0.013010466,-0.07617734,-0.022248188,-0.009603693,-0.01546105,-0.035526194,0.039112642,0.039022654,-0.019228987,-0.027689572,-0.019733615,-0.00949836,0.022807019,-0.008470991,0.003980384,0.052748024,-0.0356199,-0.017480483,0.022390747,0.050668508,0.030926116,-0.019669205,0.06737356,-0.04576829,0.02306415,0.01934208,-0.010471843,0.047229137,0.03758025,-0.00663381,-0.016182955,0.03736391,0.009385044,0.038996205,0.048154987,-0.016251652,0.019472364,0.01286361,0.032161128,0.028170902,-0.063022174,0.015294864,0.035686385,0.06921052,0.0565335,-3.5635392e-05,0.03964992,-0.042576425,0.08093184,0.025604077,0.013671277,0.03178661,0.10267643,-0.06842884,-0.041494388,-0.06525932,0.024541544,0.02216891,0.019386962,0.045516003,0.0072360127,-0.014849104,-0.027554726,0.04678009,0.015221331,0.064634085,-0.081520125,0.09101484,0.014261649,0.07294977,-0.012851982,-0.031621493,0.056710087,0.021774461,0.008708346,0.032541543,0.035573937,-0.07473298,0.049420454,0.0004303494,-0.0521121,0.028218834,0.06705288,0.06376855,0.02375981,-0.0030244396,0.086982615,0.044911347,0.05491312,0.03261237,0.071816236,0.06954773,-0.020166494,-0.04973594,0.09228193,0.0551478,0.012268322,-0.021040509,0.013257093,0.041873746,-0.06282042,-0.03843471,0.071762316,-0.015015314,0.03936869,0.06700088,-0.02949723,0.028537706,0.019270653,-0.012936177,-0.0037111642,-0.029156988,0.045264974,0.019649899,0.063719116,-0.044385422,0.006824721,-0.062159102,0.0041712634,0.036878403,0.06664154,-0.0015540761,0.074948065,-0.00064438424,-0.03843431,0.076436125,0.021048022,0.07796989,-0.008372645,-0.06354974,0.0066578616,0.1049528,-0.019452626,0.0076494743,0.04693674,0.012489225,0.018945502,0.029078146,-0.021267341
0.059992716,-0.06199007,0.057374734,-0.00019737438,-0.0081417775,-0.048023343,-0.023496354,-0.021997917,-0.05856327,-0.03336438,0.00076279044,-0.035165526,-0.040457882,-0.053757004,-0.009226859,-0.02747888,0.031998906,0.007315741,-0.029844292,-0.045573447,0.06176358,-0.02989884,-0.015986359,0.026047613,-0.04901865,-0.051648516,-0.017948568,-0.008177847,0.018875046,0.04237563,0.055805705,0.05596874,0.0093029495,0.009269571,-0.0016436824,0.040439595,0.060652416,-0.022658065,-0.030224541,0.051613454,-0.021409806,-0.051260334,-0.015065839,0.017584683,0.015946958,0.02382477,0.04627927,0.06149605,-0.015876224,0.03668604,-0.0022828993,-0.0030204752,-0.029290123,0.023772458,-0.017493445,-0.043541364,-0.018876903,0.012495635,-0.02170414,-0.015188985,0.0013772574,-0.05894732,0.041132167,0.025907902,0.043833736,-0.061895628,-0.025449563,0.020282708,0.047323067,0.009934272,-0.04968448,0.026638132,-0.021642113,0.039169062,0.05453177,0.021921601,-0.00055571675,0.053937733,-0.05584449,-0.028023075,-0.031431805,0.05785207,0.049231295,0.019897005,-0.050348483,-0.04365492,0.0037678436,0.024799425,0.02179593,0.049679898,-0.022014474,0.057506084,0.02299002,0.0077224076,0.03317858,-0.032187913,-0.010786089,0.038989376,0.06103583,0.059249584,-0.057889003,-0.012716201,-0.0174326,0.032891445,-0.061996553,0.034534145,-0.028141923,-0.061523084,-0.058901682,-0.051479463,0.022140974,-0.015845103,0.012339327,-0.0053232615,0.037827842,0.00327358,0.026089381,-0.052778304,0.01516754,0.037132975,-0.0010054999,-0.01332923,-0.046493974,-0.055797003,0.021321766,0.004321247,-0.060500696,0.0059858896,0.05215059,-0.052260194,0.0069274614,0.013243703,-0.013368256,0.04480837,0.005251656,0.030520804,-0.045262765,0.011161109,-0.035867915,-0.03650384,-0.033278067,-0.027905583,-0.04401687,-0.047223076,-0.05115671,0.011076529,-0.036574334,-0.030241799,-0.049032662,0.046566796,-0.05114078,-0.028518492,0.023723867,-0.050295543,0.026719758,0.022904584,-0.05864615,0.029645639,-0.053364232,-0.00076413294,0.0073249172,-0.015135533,-0.05014021,-0.037182186,-0.059019256,-0.030811036,0.012684383,-0.015175318,0.019125096,0.048561223,-0.060410902,-0.018892866,0.028172264,0.011083892,0.001014979,-0.00081060856,-0.014281607,0.050716057,0.051033396,-0.038247835,-0.04321752,-0.051348004,-0.013761781,-0.046349406,-0.026298357,0.038731214,0.041856032,-0.021468217,-0.05693979,0.030051012,-0.044017836,0.015071597,-0.04590803,0.044132944,-0.050950818,0.029501649,-0.019361164,0.04327221,-0.011561981,0.0006896022,-0.0054089488,0.021585828,-0.022662245,-0.016751362,0.044048775,0.052562915,0.011911132,0.036548644,0.04765963,0.029972533,0.05014603,-0.033652212,-0.0046864985,0.054871324,0.0066323634,-0.017072298,0.0017596446,-0.011551805,0.002824069,0.048289992,-0.03484892,0.01289549,-0.007908525,0.056495138,0.061284397,0.045846637,-0.0075748805,0.022797463,-0.038031135,-0.027674492,-0.049314223,-0.030103093,-0.031387597,-0.008530208,-0.046941124,0.032673493,-0.03555708,0.03712042,0.01928839,-0.010149255,0.047891546,0.0532924,0.0030515858,-0.03241773,-0.015913468,0.029901933,0.039784573,0.05045308,0.052647494,0.029510178,-0.009585248,0.050206486,-0.0472722,0.053858556,0.015038906,0.008722449
-0.09261691,-0.13989334,-0.04097491,0.005907035,-0.065421924,0.12316608,0.144834,-0.048526775,0.025396634,0.09772537,0.11229195,-0.11560806,0.10704635,0.009481981,0.052425034,-0.00789104,-0.13307087,0.013677989,0.05527469,0.040620774,-0.038598686,-0.025627147,0.07368941,-0.08331667,-0.07579058,0.12326594,0.014501144,0.14416438,-0.027686346,0.09723474,0.11130942,0.1415426,-0.029119898,-0.060477875,-0.06554116,-0.029505026,-0.09800599,0.06790953,-0.1257766,0.027748674,0.062197316,-0.14151478,0.11807182,0.11008723,0.10016506,-0.081215434,0.07840173,-0.15112685,-0.08246462,0.094996735,0.039966892,-0.095294446,-0.103269435,-0.027113928,0.17945735,-0.13160767,0.12715644,0.010536225,0.04061722,-0.07511358,0.07654556,0.047453187,0.04424093,-0.018823959,-0.015596046,0.06307074,0.040542822,0.09541471,-0.025864985,-0.11775113,0.15349995,0.11203587,-0.096609846,0.13708106,-0.034977876,-0.1463842,0.15158847,-0.12619926,0.02359858,-0.06102835,-0.0067519685,0.18219987,-0.04182645,-0.13053103,-0.13872816,0.14508598,0.14388148,0.12694046,0.004604351,0.010846758,0.0712091,-0.08108075,0.011747728,-0.10658037,-0.0037599802,-0.10663675,0.08621847,0.087971546,-0.09618169,-0.08047668,-0.109211765,-0.01657774,-0.051829185,-0.012751692,-0.054567527,0.07720594,0.15019822,0.05572254,-0.089399524,0.20371717,0.119677566,-0.062961,0.14427292,-0.038168505,-0.044273227,0.14664163,0.12638351,0.06190807,-0.14296462,0.1059663,0.01486541,-0.07295609,-0.08694359,0.026339142,0.09846284,0.051788475,0.015971242,0.061921667,0.113738604,-0.008892544,-0.039665423,0.062876105,0.09752237,-0.10135965,-0.0909574,0.06392494,0.10339624,0.08954119,0.08092255,0.048035998,-0.07648192,-0.11631183,-0.077287026,0.12424941,0.031790026,0.07055795,0.108941294,0.011443252,0.13355781,0.0981034,0.07655791,-0.01381761,-0.11107495,0.12045665,-0.0044628833,0.05130107,-0.102726854,-0.065091394,-0.12615341,-0.068071105,0.122390084,0.058878046,0.071001224,0.033538412,0.0071398024,0.07413919,0.06874844,-0.031446535,0.11488196,0.04461623,-0.04855179,0.09461102,0.004397367,-0.08504421,0.1071465,0.050195303,0.028487282,-0.1193918,0.121363275,-0.025728904,0.09972739,-0.026142202,-0.013597614,-0.02146978,0.0368822,0.067140795,0.1968515,-0.07025669,-0.03102941,0.14295782,0.088826,0.120266214,-0.06275582,0.10241677,-0.11029131,0.038276695,0.08820687,-0.07251886,0.14051375,-0.009844192,0.049152162,0.10871021,0.096481204,0.013495554,0.014986405,-0.0026510486,0.11646416,0.12980391,0.04373315,0.035562627,-0.0411818,0.12920083,0.008988758,0.06864781,0.028246583,0.044113632,0.06258258,0.029727392,-0.009944033,0.104938075,0.07202984,-0.06963159,-0.010427735,-0.10193979,0.09962684,-0.043808296,-0.024627818,-0.10685917,-0.07634274,-0.048708636,0.008391695,0.07638246,0.06381967,-0.053715132,-0.096024185,0.009833137,0.094781086,0.141448,0.058919698,0.12248037,0.12771419,0.07236789,0.08955394,0.05093991,0.07776818,0.07593701,-0.117208414,0.11411107,0.1262994,-0.09807282,0.027465755,0.05845834,-0.03199813,0.061619896,0.11038602,0.11413969
0.005209748,-0.03903328,-0.033590704,-0.008183087,0.01642088,0.021136288,0.077008255,0.004374739,-0.0036979085,0.06475749,-0.029020578,-0.017620781,0.07329317,-0.015021105,0.070119895,0.0025268577,-0.02868092,0.058882147,-0.008915309,-0.03287408,0.030346883,0.041541997,0.060055967,-0.023172218,-0.05937021,0.03300729,-0.013849992,0.036218733,0.060626354,0.013497916,-0.028691389,0.0010512036,-0.02798097,-0.0735054,-0.049378235,0.008772835,0.038833465,0.047677405,-0.031255487,-0.01978961,-0.03838409,-0.027808066,-0.007377534,0.070588745,-0.030674918,-0.051231604,0.08658801,-0.009184244,-0.04922899,-0.03575628,0.044301115,-0.04769341,-0.023460021,-0.008048276,0.055208124,0.027231067,-0.043993257,-0.06209554,-0.03397346,-0.03611933,0.041727398,0.026304264,0.0052278535,-0.016843071,-0.030538755,0.040316645,0.027193975,0.041968923,-0.07100271,0.052995622,0.027300697,-0.012449144,-0.005195753,0.072843865,-0.036947895,-0.041059427,-0.031354964,-0.05850937,0.028273534,0.03738942,0.024993923,0.015457058,0.04643207,-0.048031542,0.03444203,-0.040875554,0.06352863,0.04676811,-0.04753359,0.06559419,0.02329066,-0.02348485,0.056705818,-0.05646721,0.0026849052,0.049482062,0.025719509,0.010266292,-0.0044485247,0.036528934,0.02142794,-0.041236077,-0.032347526,0.0018658107,-0.045988873,0.0019560223,0.0042806347,-0.025849866,-0.01223429,0.06648883,0.043233007,-0.030885154,-0.036114663,-0.0049209017,0.021137798,0.08833173,0.028331157,0.07604373,-0.04380402,0.054175742,-0.036759987,-0.06286272,-0.07021293,0.038851265,-0.0032038507,0.0060329176,-0.026888195,0.06646598,-0.023790248,-0.024925271,-0.0140094785,0.05947374,-0.01592709,-0.014392785,0.001514265,0.0031372693,-0.02220798,0.03498294,0.07269843,-0.033208266,-0.025354154,0.010729822,-0.021603493,0.020313334,0.024447475,0.007850695,-0.035594855,0.06297003,0.024574554,-0.009929551,-0.037956685,0.032365017,0.0077332305,-0.044280045,0.05843478,0.060906254,-0.021273555,-0.06424166,0.0071719014,-0.06256372,0.030569313,0.018780641,0.073910825,-0.0066698054,-0.056804314,0.015160407,0.071359776,-0.01940911,0.06428859,0.05854936,0.002530654,-0.03667531,-0.019395618,0.0026679083,-0.00983615,0.02366116,-0.04733721,-0.059289526,0.017930534,-0.0010609245,0.026096396,-0.009215886,-0.022516077,0.025042169,0.00034838435,0.038461503,0.038369928,0.057818692,0.03733762,-0.020744342,0.044206716,-0.012815557,-0.010417723,0.013954452,-0.024912147,0.007418135,0.054647654,-0.00091393857,0.06913777,0.065368764,-0.008096225,-0.004511523,0.07417357,0.064242,0.004583631,-0.0151309855,0.017299728,0.06330989,0.02418849,0.06644884,0.030913994,0.05881475,0.03384772,-0.033061303,-0.00012252896,0.04044977,-0.020623619,-0.0072789094,-0.03188628,0.058630425,-0.039454583,-0.052404672,-0.043922875,0.019024098,0.061171647,0.023514343,-0.015665036,0.042259667,-0.029998204,-0.018072888,0.0032425828,0.019885408,0.03930885,-0.061844558,0.025177311,0.016389878,0.06869213,-0.02362077,-0.008192704,0.005899041,-0.01343284,-0.014495062,0.020889591,-0.017053526,0.067702696,-0.00720032,0.020297367,0.05559739,0.014479281,0.016631411,0.06457746,0.02982856,-0.032483947,0.03282066,-0.04174658,-0.03582282
0.017682908,0.038716238,0.07069396,0.05006852,0.04804206,-0.082935005,-0.12819216,-0.02568962,-1.3661431e-05,-0.10903579,-0.1346641,0.010076371,-0.088104315,-0.0049830074,-0.020527467,0.062004082,0.08924076,-0.014913518,-0.072656035,0.0756198,-0.029444426,0.045826126,-0.020970222,0.07283657,-0.002820608,-0.1125371,0.085167564,-0.10149117,-0.059422974,-0.078955375,-0.024762984,-0.083058484,0.10231449,0.1152444,0.040808644,0.058035694,0.015894746,-0.10873403,0.032166354,0.06358839,-0.08369116,0.1233596,-0.10265317,-0.028748112,-0.03569754,-0.023553727,-0.1202149,0.03324588,0.051765136,0.007899467,-0.04495457,0.10469015,0.057323042,0.07345168,-0.1364721,0.10446244,-0.03717042,0.01938398,0.02718252,0.13269731,0.042195763,-0.06773164,-0.057136722,0.053490378,0.008940351,-0.11610495,-0.068902984,-0.030902697,0.03094346,0.11302174,-0.08231244,-0.049827475,0.025839189,-0.123999156,0.067680284,0.0133389,-0.04236256,0.12745638,0.070458256,0.10718333,0.116844125,-0.115856625,-0.02372389,0.10113573,0.010747764,-0.104623504,-0.017975003,-0.07759988,0.051513094,-0.041570712,-0.010638736,0.023196653,0.07386395,0.0076579317,0.040631503,0.09326406,-0.041682046,0.040905394,0.00693056,0.03604337,0.066307455,0.07756862,0.046732724,0.06685058,0.036188427,-0.053727433,-0.071726464,-0.08788205,0.09870112,-0.13993724,-0.0633245,0.10225966,-0.041793145,0.056400627,0.005305993,-0.112205654,-0.08905963,-0.01701256,0.11630073,-0.13009657,0.07830029,0.11323968,0.03237998,-0.04752017,-0.06623496,-0.09125136,-0.05521489,-0.044986546,0.061256073,0.01623248,-0.00038391165,0.021710051,0.03940123,0.06259528,0.08461282,0.017999057,-0.00041205998,-0.039314255,-0.08900285,0.028574329,-0.07285307,0.10003359,0.048804548,-0.0886679,-0.095804326,-0.08164971,0.031099705,-0.07088598,-0.09903832,-0.09531233,-0.060695153,0.082398705,0.13340516,-0.016417172,-0.083412744,-0.055845954,0.10573119,0.09044445,0.05079854,-0.016698495,-0.023069577,0.066129275,-0.075619385,-0.029227186,-0.036887616,-0.09550888,-0.11073671,0.025678406,-0.07856135,-0.11579934,-0.021118827,-0.033038832,0.09655213,0.048560083,-0.14598586,-0.10582602,-0.070211254,0.042573843,-0.100943744,0.06434206,-0.008369543,-0.014813537,-0.036302023,0.027206663,-0.10221118,-0.0426394,-0.15139264,0.03741481,0.067491814,-0.13701023,-0.054591656,-0.07433926,0.015043598,-0.06215104,0.052714843,-0.07878184,-0.11863879,0.06905056,-0.05314698,-0.055452883,-0.014390133,-0.11272511,-0.12617408,-0.10710197,0.02203406,-0.040017016,-0.08826621,-0.05444068,-0.05982971,-0.056908447,0.035847433,-0.057323344,0.052363392,-0.10567976,-0.018796396,0.051731724,0.057118088,0.05741119,0.062530525,-0.07326941,-0.03330132,0.061731167,0.024544349,0.040424522,-0.068709254,0.062213723,0.07127936,0.016413404,0.03490157,0.05546391,0.0057118093,0.0653414,0.029647067,0.0551248,0.060724735,-0.013096623,-0.036498483,-0.09819058,-0.111924954,-0.025346387,-0.11397102,-0.040190935,-0.055497605,-0.05690057,-0.029992828,-0.03918587,0.061346896,-0.0736681,-0.042147998,0.025590066,-0.081876844,-0.10644118,0.021626338,-0.04379792,-0.11416626,-0.07618718
0.06834192,0.096374944,5.6473615e-05,-0.02421487,0.07750034,-0.06603158,-0.053940617,0.0016749864,-0.037280772,-0.014309217,-0.060080077,0.107118405,-3.2421696e-05,-0.04917522,0.0045103384,0.019131882,0.11064285,-0.06073178,-0.020278566,-0.04290756,0.056779593,-0.01670199,0.025115473,0.0034442393,0.010472017,-0.0067790975,0.055749353,-0.06846975,0.011352777,0.007548468,-0.06305073,-0.104682155,0.022156559,0.0674107,0.06869688,0.025866356,0.07799396,-0.14028637,0.10691574,0.067977615,-0.105113074,0.054374643,-0.096596576,-0.08857792,-0.056314137,0.019735998,-0.15000731,0.12293926,0.046933472,-0.09299823,-0.039687585,0.060362045,0.111505195,0.07536207,-0.055135135,0.012472123,-0.03495558,0.104557574,-0.011349845,0.0370292,0.045403488,-0.03776032,-0.060536984,0.10251388,-0.0030681577,-0.023955597,-0.056035616,-0.02534046,0.06965804,-0.016835932,-0.02154509,-0.08590037,0.058805343,-0.014189893,0.05673227,0.0038254587,-0.101020865,0.10175309,0.057173148,0.10472278,0.10131038,-0.010525629,0.08241256,0.09065586,0.08554774,-0.009849615,-0.09684646,-0.09908579,-0.010707667,0.009463275,-0.05691598,0.0002330411,-0.04270775,0.07594204,0.049333755,-0.0033971192,-0.021763999,0.02428808,0.08413041,0.10650642,0.09743954,0.09027259,0.03699705,0.07498803,-0.019978845,-0.035475153,-0.12172912,-0.056779467,0.04467341,-0.07904135,-0.1278348,0.110227704,-0.07366503,0.04089198,0.06974508,-0.05422893,0.003930412,-0.099410705,0.06547947,-0.11012065,0.08534103,0.10676642,0.09995645,-0.04459755,-0.031628393,-0.06806032,-0.0030408655,-0.095911264,0.009908431,-0.036814604,0.07069877,0.051006254,-0.046914462,0.0062482795,0.020755377,0.042565633,0.03008254,-0.062707216,-0.056577172,0.035932194,0.05257232,0.03186168,0.05473556,-0.10275864,-0.059767235,-0.09531463,0.023920955,0.031080771,0.011167938,-0.035848755,-0.082494214,0.08002028,0.08771113,-0.07022635,-0.005272034,-0.121663034,0.044469062,0.03701138,0.03830911,-0.023756418,-0.096333876,0.02433579,-0.09102808,-0.035906196,-0.011375943,-0.06997235,-0.012625133,0.012526545,0.011264152,-0.03605627,3.5925306e-05,-0.037893765,-0.0023703054,-0.012104367,-0.122672155,-0.0077120126,-0.03257605,0.063005805,-0.03088351,0.067727156,-0.059049435,0.09826575,-0.03831264,0.087621994,-0.04314773,-0.094027095,-0.071999006,0.055825982,0.056213688,-0.010038504,-0.014450028,0.018443553,0.069388375,-0.059872333,0.04300204,-0.07520656,-0.11026745,0.10441796,-0.07840936,0.018285315,-0.06950796,-0.043988943,-0.037041944,-0.02751089,0.021401038,0.06259554,-0.06190185,-0.0073852795,-0.102736525,-0.046476517,0.036827743,-0.06380715,0.029279111,-0.07749437,-0.049950376,-0.025628472,-0.041697383,0.02603581,-0.0068947533,-0.0039470973,-0.037877124,0.013838278,0.009576885,0.012128477,-0.070475645,-0.036198583,0.112014286,0.022628982,0.028122239,0.046226818,0.06879162,0.047590736,-0.048435103,0.1119849,0.109646074,-0.005976686,-0.06574616,-0.03165769,-0.02271788,-0.062205784,-0.016182838,-0.057805214,0.0035539714,-0.005308623,-0.0313789,-0.0009966531,0.07661156,-0.08215883,-0.08835325,0.0055183955,-0.055682886,-0.00395978,0.09119684,0.056014977,-0.047913156,-0.08018724
-0.049441088,0.03019294,-0.056773517,0.049403604,0.0027407685,0.057440914,0.019322248,-0.050407942,-0.04973677,0.049468383,-0.0075325607,0.041624233,0.012584546,-0.04725102,0.008970932,-0.026669666,-0.034473587,0.05953425,0.035211593,0.03754158,-0.009090088,0.048062284,-0.048806794,0.011685895,-0.007421417,-0.003848268,-0.050848536,0.037788283,-0.05212781,0.056301516,-0.031832278,0.020194117,0.043835863,-0.036091924,0.021638565,-0.010940978,-0.024695903,-0.053989496,-0.00084225985,-0.01199709,0.009436091,-0.010550202,0.05561041,-0.049695916,0.020932091,-0.02303959,0.027632447,0.05301116,0.057115894,-0.030617585,-0.015089489,0.013962291,0.032988176,-0.011820226,0.010884168,-0.025178496,0.0075811194,-0.035465498,-0.017441308,-0.05405856,-0.009642558,0.060476806,0.053709827,0.049436048,-0.008487765,0.035158977,-0.015973665,0.019562433,0.059013825,0.026142944,0.056667063,0.0037226481,-0.034848962,0.031473313,0.023534589,-0.049365852,0.043383952,-0.055463966,-0.032397605,-0.033473756,0.021131152,-0.020320907,-0.01762579,-0.03348166,-0.027843362,0.031514365,-0.02121477,-0.02880296,0.014209366,0.01147213,-0.055713784,-0.01241891,0.020415306,0.043296613,0.029798556,0.0068065748,0.03202009,0.0538492,0.056206454,0.039817974,0.0030028287,0.017765485,0.050187595,0.044576146,-0.007520506,-0.0077603017,-0.0068809805,0.038991045,-0.016886968,-0.032398377,-0.010028638,-0.03554795,0.027811091,0.04846349,-0.05346563,0.015142278,0.062346753,0.05392459,0.046190847,-0.015933083,-0.012401495,0.051384382,-0.04873433,0.039513156,-0.038490154,-0.024244923,0.0067982473,0.026852176,-0.043860815,0.037925966,-0.0017682099,-0.062113147,-0.0031832883,-0.035213914,-0.012852016,0.049484495,-0.010618893,0.0272905,-0.011033734,0.03959569,-0.05192366,0.025779549,0.009849621,-0.0050359387,-0.05631606,0.058409255,0.040247567,-0.01391902,-0.0067781047,-0.04524038,0.03576444,-0.052143805,0.04602606,0.05900589,-0.040541895,0.04848149,0.048342567,0.05137485,0.016590316,-0.014408786,-0.0440241,-0.044032816,-0.050156444,0.058710657,0.005309574,0.026617028,-0.052069455,-0.028068159,-0.0041643847,-0.061632935,-0.051246617,-0.047141615,0.050126217,0.04650348,0.02396995,-0.037121933,-0.057067443,-0.023501461,-0.02113265,-0.009155614,-0.020634444,-0.020005783,-0.058201242,-0.012079876,0.049635623,0.009782847,-0.0093356045,0.04507118,-0.01712812,-0.0027667903,-0.0133326575,0.0032472077,-0.058573026,-0.0014884082,0.042474076,-0.024845928,-0.01830938,0.04430085,-0.04748427,0.010611912,-0.008853421,0.042190388,0.06036474,-0.028918022,-0.03550645,0.046202045,0.054610662,-0.014689176,-0.024106758,0.057226095,0.021123758,0.030314155,-0.029804062,-0.058083534,0.018774651,0.029414888,-0.011607829,-0.04893501,0.00025374722,-0.04895701,0.03776898,0.04017011,0.03085878,0.060576975,0.04758406,0.0052704713,0.03265653,-0.02639574,0.047518022,-0.017475002,-0.034020163,0.052248947,-0.009393717,0.0015655522,-0.03411863,0.0359882,0.041624147,0.013743263,0.061961483,-0.023347793,-0.051503904,-0.054296035,-0.04419974,0.031029578,-0.055395816,0.023595937,0.05784923,0.044467494,-0.059077505,0.047461882,-0.055296153,0.011383979,-0.024657568,-0.055771954,-0.044964086,-0.046623424
0.014422574,0.06306913,-0.036011845,0.06734622,0.093075104,-0.03668364,-0.06931136,0.036636837,-0.045983322,0.00025932907,-0.12092302,0.13015379,-0.11423656,-0.003909099,0.09398401,0.00016113059,0.12544167,0.026641607,-0.12138433,-0.05334193,0.012861152,0.014268751,0.011101621,0.07235665,0.045608126,-0.099464945,0.035761926,-0.0606841,0.04698624,-0.036870774,-0.17802268,-0.09046849,0.07298487,0.06528209,0.00038134554,0.08847923,0.06580362,-0.048121545,0.042657893,0.019639963,-0.032395296,0.15762919,-0.07637431,0.0068137143,0.06605739,0.070153736,-0.074708626,0.14510652,-0.008308327,-0.090486094,0.0073828273,0.1335084,0.065908775,0.10925428,-0.20177855,0.10657963,-0.09602954,0.07361654,-0.012066363,0.10133948,0.049523544,-0.04403711,0.026279377,0.045512803,-0.0031555723,-0.0813698,-0.16261972,-0.060978234,0.15667585,0.032159537,-0.072831474,-0.16784395,0.06694122,-0.040460326,-0.0027546575,0.02626515,-0.07978686,0.03957277,0.04623277,0.12577145,0.06999372,-0.05643225,0.06604748,-0.017884292,0.020789582,-0.10462813,-0.043575175,-0.13793615,0.008670338,-0.040802304,-0.17759229,0.08583239,0.05608035,-0.022248022,0.04821223,0.035156835,-0.041709553,0.09479319,0.07610083,0.0029585618,0.040727004,0.14953846,-0.0274849,0.088296026,-0.0014369469,-0.072713025,-0.0509743,-0.03057812,0.067663334,-0.10378835,-0.06857933,0.05573157,-0.037171308,-0.046851296,0.08279512,-0.09508881,-0.13308032,-0.01730017,0.06500387,-0.09352898,0.04758738,0.12781684,-0.00948966,-0.07815006,-0.06242846,-0.11810154,0.06045946,-0.13458441,0.073211275,-0.037563067,0.086633444,-0.009747,-0.17690702,0.0036918612,0.09060504,0.0056292554,0.063337006,-0.11627513,-0.08744309,0.014874352,-0.046672262,0.027132142,0.056065083,-0.085977644,-0.123188555,-0.18637858,0.088844225,-0.025799256,-0.09587431,-0.1601789,-0.043232188,-0.0051658116,0.07307543,-0.08373804,-0.07828842,-0.083865196,0.01267995,0.053467084,-0.043943875,0.011337179,-0.09431348,0.09163285,-0.08190465,0.02317938,-0.010174305,-0.09573093,-0.013079919,-0.008207611,-0.06661044,-0.12707339,0.0943388,-0.08105727,0.12664093,-0.010062771,-0.18182562,-0.09460573,-0.17785907,0.08264735,-0.030075476,0.1576415,-0.18497556,0.06899328,-0.07642306,0.007483899,-0.09948257,-0.06960968,-0.13807473,-0.03200175,-0.037750974,-0.026945932,-0.06617272,-0.084135346,0.08235932,-0.22781453,0.13611212,0.0015107085,-0.20214806,0.0051719137,-0.059096582,-0.06666317,-0.07469537,-0.13250123,-0.09273107,-0.1529986,0.058306124,0.049002826,-0.13158455,-0.10488101,-0.17618819,-0.013107931,0.07414211,-0.03331464,0.050832238,-0.03822964,-0.11400336,-0.006962519,0.060976356,0.066084586,0.040993523,-0.043578483,0.122327715,0.03920715,0.03193952,0.016165689,-0.056294862,0.074622646,0.13683915,-0.013854195,0.09811489,-0.0987782,-0.030030016,-0.3115434,0.0024467108,0.070407525,0.030381337,0.059931867,-0.06822692,-0.019374866,-0.107782155,-0.05478273,-0.24835299,0.0076155923,-0.050695203,-0.16993432,-0.010149351,-0.030967144,0.14269933,-0.1524593,-0.071102194,0.0036148182,-0.089908406,-0.05479065,-0.01446713,0.12429455,-0.05521753,-0.021911137
-0.011369804,-0.093132116,0.022054464,-0.085410774,-0.028592134,0.07331268,0.052527763,-0.053213324,0.05513318,0.00414342,0.1651321,-0.12678386,0.039159894,0.062020887,0.06558294,-0.019411882,-0.011212221,-0.021299588,0.11453836,-0.059360977,-0.0048499987,0.0069253407,0.06779463,-0.086047344,0.019790163,0.018882489,-0.0043992293,0.11181646,0.008138715,-0.0031996768,0.075097896,0.12394223,-0.13513175,-0.06162337,-0.093948275,0.0022965476,0.0081312815,0.042073373,-0.079289995,0.01071213,0.088172935,-0.0699628,0.08714308,0.024673237,0.02455363,0.009490896,0.15302445,-0.06961721,-0.025556251,0.10340681,-0.07222261,-0.026312644,-0.06403069,-0.037338708,0.13284552,-0.07546071,0.10726625,-0.02723712,-0.011835791,-0.12749892,-0.0061186785,0.06868426,0.05464615,-0.10021062,-0.094068095,0.12191823,0.05809504,0.06424532,-0.08759752,-0.11742633,0.107305996,0.0672771,-0.07667658,0.04211648,0.0036589082,-0.0106037725,0.031493917,-0.07439835,-0.02770545,-0.08502852,-0.034104276,0.073397696,0.023363683,-0.031485233,-0.077596925,0.11069901,0.12146887,0.07046748,-0.021803077,0.10501384,0.043648515,-0.07934743,0.019458383,-0.0009704362,-0.077383704,-0.03701325,-0.012872223,0.03142618,-0.094540164,-0.10796562,-0.046258003,-0.065327615,-0.029471226,-0.020623323,-0.07628862,0.040866945,0.097830705,0.11069477,-0.024508424,0.1795014,0.092134275,-0.11291575,0.1037634,-0.08831714,-0.07456845,0.16215938,0.02496863,0.037382822,-0.067837104,0.077839434,-0.049004257,-0.016536739,-0.07894912,0.09251068,0.12693614,0.09894572,0.046258625,0.008049303,-0.016090976,0.026436327,-0.047555406,0.033471346,0.04175174,0.014592134,-0.07239591,0.0008146818,-0.017181966,0.060839977,0.13445501,0.006862349,0.018311381,-0.10292431,-0.026363762,0.099721946,0.11865981,0.11164859,-0.026619876,0.03969005,0.002870519,0.12747437,0.03730344,-0.08340145,-0.09420423,0.06371863,0.034661543,0.075657785,-0.05726369,-0.09625466,-0.0003162852,-0.041884262,0.08324897,0.028118484,0.0315084,0.07865424,-0.027357211,0.056588426,0.06874204,-0.013505367,0.040880814,0.048784852,-0.07027837,0.03698034,-0.038668193,-0.09804319,0.13989487,0.10313271,0.1068064,-0.015590875,0.092086226,-0.02608569,0.0139499325,-0.0904204,0.02477885,-0.10416424,0.019380443,0.1338844,0.13717858,-0.044950847,0.034937277,0.09496231,0.07263958,0.02867197,-0.07146175,0.05078647,-0.050106723,0.056080144,0.1147838,-0.12000074,0.08557811,-0.051712632,0.0349048,0.097090155,0.02871045,0.091512576,-0.045794986,0.05294496,0.020990418,0.10278834,0.097353,0.038421765,-0.06331323,0.05147559,0.01689495,0.08778541,0.058944378,-0.04033854,0.019377463,-0.081899665,-0.09380574,0.09313445,0.03551125,-0.013187174,-0.01544797,-0.015150692,0.046081007,-0.07151022,-0.09139473,-0.0989568,-0.028165855,0.05661221,-0.093375295,0.078157865,0.050673928,-0.104975216,-0.11553771,0.07148578,0.1307521,0.07483181,0.050719187,0.11790931,0.12818521,0.04368199,0.047284637,0.028238006,0.005041575,0.095695466,-0.12685229,0.021825153,0.13343814,-0.081020154,0.102124445,0.06473025,-0.0062275473,0.001809559,0.070671655,0.110544346
0.043144487,-0.027569583,0.004140122,-0.029719027,0.029580927,0.025560882,-0.055518758,0.016664589,-0.0072792047,0.05425926,-0.0327926,-0.031338975,-0.032001555,-0.04716001,-0.035737835,0.037945997,-0.026481628,0.033347808,-0.0072102956,-0.045825627,0.040530134,0.052410163,-0.02369078,-0.011782108,-0.049691316,-0.01487056,-0.046864677,0.03558746,0.001718522,0.033110827,-0.0608249,-0.033090208,-0.020108968,-0.038944017,-0.0021328065,-0.004030126,0.051815562,0.058541086,-0.061723247,-0.0070074275,0.056929264,-0.03843943,0.041412037,0.023998482,-0.031211684,-0.0033898838,0.015779799,-0.013105888,-0.024394711,0.039724957,-0.053447623,-0.056438424,-0.0369467,0.034803305,0.025145832,-0.020767882,-0.025047917,0.05236159,0.041083325,0.041860018,0.0069330633,0.0425496,-0.038022578,0.061967645,-0.054721303,0.0605436,-0.006689097,0.034016263,0.017527107,-0.03865505,0.00048274902,0.028573377,0.060224045,0.02036394,-0.015310807,-0.056114234,-0.037987854,-0.04270103,-0.02710646,0.023273058,-0.0047524115,-0.011849613,-0.03619586,0.004506019,0.017245356,0.010051047,-0.009063278,0.022802263,0.04283895,0.054955482,0.055534963,-0.0076275957,0.04084685,-0.059339486,0.03886723,-0.013886118,-0.022526413,-0.018255562,0.022541713,-0.008144929,-0.028279273,-0.02882964,0.061435472,-0.011330721,-0.03700121,-0.04797782,0.040416997,0.027436676,0.04604404,0.035139848,0.03934948,0.031488314,0.04284335,0.0018944129,-0.035662238,-0.0021353357,0.0018490171,0.039875098,-0.027358435,0.012763222,-0.023835113,-0.051469684,0.028004194,0.0013253534,0.018264027,0.025056023,-0.052758846,-0.037560448,0.031560916,-0.03976746,-0.018045573,-0.02091416,-0.0052705635,-0.0386261,0.023705712,0.051413815,0.028781056,0.056583066,-0.024402907,0.025268447,-0.00021004115,-0.011767707,-0.041612238,-0.05454767,0.01107143,-0.04695341,0.01998258,0.017454822,-0.062495682,-0.034806084,-0.043024257,0.04530392,0.022508912,0.05426412,-0.0039130715,-0.055938195,-0.023560813,-0.0042396467,0.044995632,-0.053732824,0.054210145,-0.035650313,0.0061516776,0.044893023,0.0512325,-0.007675574,0.01182449,0.025751589,-0.013467281,0.045797564,0.008349027,0.009753705,0.03979187,-0.039799917,0.036371842,0.011666255,-0.035285212,0.060556296,-0.017173784,0.0027885963,0.004244256,-0.020873826,-0.015602311,-0.04188563,-0.041037377,-0.007875755,-0.0069700484,-0.051442955,0.031766865,0.024525363,-0.058084514,-0.028506907,0.046154078,0.023179006,0.0423928,-0.031771388,0.016294062,-0.050508875,-0.0247249,0.042525917,-0.014563495,-0.041689396,0.041250817,-0.026508952,0.05736597,-0.054714274,0.04774889,0.016151842,0.0437154,0.006485536,0.052208494,0.047965333,-0.032641657,-0.034831174,-0.006418677,-0.0009616653,0.019965032,0.041611552,-0.044849794,0.0030303756,0.009977721,0.021723386,-0.04144278,0.061121155,0.041153315,0.044937547,-0.020719208,0.054427627,-0.040377937,0.04680833,0.04100513,-0.05882765,0.054956198,-0.057418235,-0.026471961,-0.043952387,-0.010112319,-0.057923105,0.056307767,-0.03147723,-0.028210148,0.0503557,0.034736715,-0.021044752,0.0013636788,0.030411428,0.03394159,-0.0058755158,0.018220678,-0.024757313,0.05380358,-0.014397605,-0.046717606,0.014927757,0.02481738,-0.020064482
0.0012642501,-0.056433275,0.039748102,0.02512894,-0.029041331,0.03273851,-0.019518364,-0.061006725,0.038811658,0.029413663,-0.043573078,-0.026073063,0.009418816,-0.05754548,-0.04436827,0.0023826847,0.018901167,0.017790562,-0.032897733,0.057988644,-0.060707834,-0.039528135,-0.001996158,-0.052495368,0.015894216,-0.047557782,0.0004509469,-0.029167006,-0.0040546036,-0.043894142,0.031617053,0.049066715,0.041130483,-0.0066599194,0.056991465,0.025957579,-0.04221096,-0.037572503,-0.0072328947,0.04144666,0.011902271,-0.026744843,0.021519633,0.0073508522,0.040216137,0.04041649,-0.045933325,0.016082069,-0.0021067713,-0.033001576,-0.047122862,0.0012413457,0.010189696,0.050759174,-0.016577395,-0.05011969,0.015696267,0.0069452827,0.040396128,0.013951127,0.03240713,-0.056204617,0.016398787,0.058331825,0.020766117,-0.01401752,0.01055405,0.05785901,-0.031723212,0.029661436,-0.005164406,-0.046756387,0.05392585,0.021549508,0.0069739535,-0.0334433,0.019444898,0.026813364,0.0050701047,0.016607454,-0.020070955,0.04613353,-0.010001848,0.032358248,0.03951129,0.038256932,-0.05004456,-0.024093747,0.0055913394,0.058636505,-0.045668352,0.052862886,0.033950604,-0.033584468,-0.03180595,-0.057593122,0.05698605,-0.041922405,-0.059179492,0.0077878344,-0.03109508,-0.056193765,-0.04803484,-0.01638958,-0.04639366,0.033977102,0.012468972,0.0017533326,-0.0459718,0.039802972,0.009018874,0.020306416,0.021332484,0.048879717,-0.04818475,-0.033691134,-0.042180408,-0.058403343,-0.0134828705,0.060441744,0.025258448,-0.02561356,-0.056165926,-0.04272276,-0.013591105,0.005759476,0.015468302,0.05128411,0.054224417,-0.030556578,0.04765834,-0.022736676,0.050870337,0.05960982,-0.0046185004,-0.052627254,-0.0002035537,-0.008581734,-0.03970885,-0.057362057,-0.061469283,-0.041487817,0.06186247,-0.030816332,-0.061731778,-0.039181024,-0.00042152018,-0.010252109,-0.01774135,0.0031411403,0.034745973,0.038023468,-0.03455316,-0.029117081,0.009168944,0.020659812,-0.019745722,-0.025245972,-0.023237431,-0.062112216,0.036037173,0.05674017,-0.054045543,0.014090278,0.05988709,-0.022776395,-0.042063385,0.013322407,0.043779626,0.011854405,0.055282306,0.030782359,-0.061097875,0.035990514,-0.039960988,-0.007016168,0.0062559694,-0.025195127,0.003092776,0.0012804149,-0.042481795,0.019339835,0.049279846,-0.055255003,0.016241854,-0.012542928,-0.036954194,0.021451011,-0.034212366,-0.021481637,-0.061274182,-0.0054849577,-0.023854319,0.054401707,-0.0618499,-0.006905402,0.05744556,-0.021433752,-0.050553698,-0.0054363487,0.0021972456,0.028509216,0.03008372,0.06216492,0.05594914,0.03542883,-0.008110979,-0.04481483,-0.025181098,-0.05599177,-0.012523812,-0.014785173,0.027433936,0.016051425,-0.009288247,0.05081877,-0.024235673,-0.045545466,-0.021358542,0.006937961,0.05824372,-0.03386124,-0.011131059,0.03300787,0.04852331,-0.06234247,-0.05995626,0.020677684,-0.05510934,-0.032360394,-0.011266184,-0.058850773,-0.025163667,0.02362119,0.009795292,-0.012240522,0.012514083,-0.043506477,0.0051196385,-0.053603172,-0.052492402,0.06109359,-0.023460181,-0.042383548,-0.008354016,0.04874919,0.009485073,-0.02106295,-0.050472476,0.020187924,-0.062425967,-0.041428972,0.039723556,0.050072998,0.015903912,-0.0054562353
-0.013506399,0.027925376,0.053829126,0.0314907,0.10216876,-0.12944444,-0.055312376,-0.023723045,0.014263701,0.0021561263,-0.13668197,0.03864344,-0.109601356,0.004337731,0.05088172,0.0059792656,0.038485996,0.023851154,-0.01158443,0.08165456,-0.010570406,0.014597263,-0.019729659,0.040837727,0.034889765,-0.01848973,0.078901656,-0.013540968,-0.012811732,-0.09830017,0.011120011,-0.02706114,0.10099139,0.085479446,0.08193053,0.06392415,0.099279,-0.10551303,0.117304176,-0.013662968,-0.0843234,0.07189195,-0.083631955,-0.051247675,0.031868998,0.0007454563,-0.061202157,0.029135857,-0.036542982,-0.007516404,-0.01009139,0.06360913,0.09384593,0.107398905,-0.11540512,0.0092517845,-0.09884257,0.032926887,-0.04010183,0.10269926,-0.007202003,-0.110228606,-0.06388151,0.109161496,0.039879892,-0.08662229,-0.060868364,-0.05326211,0.056730133,0.036672797,-0.073473334,-0.12390727,0.016504388,-0.104877874,0.021260463,0.027223708,-0.043973852,0.018673006,0.03078438,0.09371528,0.07912922,-0.018509766,0.054439228,0.082756154,0.09960155,-0.06484201,-0.07302771,-0.06417872,0.009513842,-0.03381144,-0.011968413,0.071826726,0.0362812,0.074310966,0.027058415,0.010912861,-0.041421805,0.037868336,0.06363772,0.10237842,0.054525297,0.08259364,0.046925142,0.0027168237,0.03477004,-0.06889084,-0.08078144,-0.028670851,0.04989416,-0.07414317,-0.1009497,0.014998539,-0.10147186,0.0033105295,0.09193121,-0.1470219,-0.053924754,-0.0430467,0.11430705,-0.019987915,-0.013078625,0.019839419,0.011417889,-0.020796964,-0.100785375,-0.083922505,-0.06461014,-0.04304759,0.023090942,-0.028993811,0.04634171,-0.014270233,-0.01983251,0.06885159,0.039264455,0.045721047,0.083576575,0.0044787615,-0.038267605,-0.03300381,0.03375805,0.101371065,0.11636922,-0.08367574,-0.04968439,-0.129155,-0.024565483,-0.035813056,-0.0628111,-0.028637981,-0.03398301,0.08598025,0.065322116,-0.020375032,-0.01780145,-0.019528896,0.08187561,0.012819566,0.0050831465,-0.019577038,-0.11150578,-0.014141832,-0.08664626,-0.04502564,0.063523844,-0.08484187,-0.043553326,0.094259955,-0.106584534,-0.04105898,0.046663232,-0.014178548,0.08737132,0.068359114,-0.07005502,-0.06522994,-0.10274068,0.0961641,-0.104316294,0.05917688,-0.011355107,0.07559901,-0.07065809,0.07743356,-0.04255942,-0.065942325,-0.0870055,-0.0543746,-0.001687223,-0.07133777,-0.033370133,-0.020476315,0.049272027,0.03126935,0.0875979,-0.09515477,-0.07511614,0.09572875,-0.09643208,0.0016129324,-0.07249161,-0.079450205,-0.1050473,-0.10261003,0.035551723,0.055678457,-0.06066945,-0.106973596,-0.061295163,-0.045567878,0.014764462,-0.1131446,0.038091134,-0.017669199,-0.08562303,0.002556787,-0.006260808,0.03000081,0.09909886,-0.012468722,-0.039946914,0.011104895,-0.030641528,0.12430278,-0.016819797,-0.010664504,0.08942071,-0.009750072,0.06287275,-0.0068951454,0.058572523,0.0046873935,0.030882169,0.11598,0.054115213,-0.07203392,-0.11284013,-0.05134268,-0.110709526,-0.07703889,-0.103618525,0.019115143,0.009409518,-0.09333351,-0.06980693,-0.1169776,0.032054514,-0.003579411,-0.09449599,0.0043873657,-0.06622451,-0.115060925,0.0052295476,-0.0011136947,-0.011618082,-0.05711319
0.048042372,0.05712359,-0.037026353,0.036086835,0.026286788,0.039416153,-0.019489119,0.048811834,0.047390554,0.051383253,-0.031417016,0.068244,0.002402271,-0.03024897,0.028526265,0.018970478,-0.0051521035,0.060649168,-0.049851768,-0.056613915,0.033064254,0.033005323,0.03838853,-0.00028150887,-0.034927372,-0.07087504,0.027452374,-0.021849092,-0.03480632,-0.045694392,-0.01207347,-0.024869593,-0.008252266,0.058718402,0.037895046,0.055818904,-0.0038609619,0.0049300254,0.030783627,-0.042390127,0.060647566,-0.020390306,-0.0059086354,0.002607354,0.06210676,0.043405686,0.032702953,-0.027044503,0.04396754,0.051619083,0.046071693,0.028074611,0.034943283,0.017602148,0.025808075,-0.009319916,-0.031448793,-0.034151237,-0.048868302,0.024070565,0.00038439367,0.036048662,-0.061405223,-0.052517507,0.036509927,0.04145062,0.04408889,0.0423607,-0.0381114,-0.020671312,0.054319095,0.016374616,0.066238366,-0.0064588217,-0.035827246,0.044575583,0.042140275,0.06114994,0.06055587,0.0070983097,-0.025632448,0.060225546,0.03705146,0.0642285,0.0531073,-0.011020765,0.031744037,-0.058104932,-3.990867e-05,0.024778964,-0.03652297,-0.03331435,0.045355342,-0.028823089,0.00073964405,0.035829112,0.02494155,-0.046557527,-0.04655595,-0.00043803357,-0.0027824526,0.04719232,-0.005235066,-0.040235363,0.024560994,0.026196262,0.04855832,-0.027209383,0.07535088,-0.015123115,0.04812391,0.0052224332,-0.044987287,0.0056611616,0.012857229,0.03775247,0.002034373,-0.059607986,0.032040723,-0.06352469,-0.0253131,0.0507845,-0.032402366,0.03454557,-0.03274857,-0.030642077,-0.008906336,-0.035710998,0.016638426,-0.063611865,0.01733976,0.04971161,-0.048030198,0.06221096,-0.00411301,0.02212782,-0.039332565,0.023777364,-0.057639208,-0.040604014,0.045751497,-0.008521399,0.06141868,0.044725686,0.025048312,-0.07202298,0.03504927,-0.013307394,0.025212236,0.014960972,-0.043688197,-0.005560723,0.029532097,-0.0034155885,-0.058357745,0.051893342,0.058860816,0.042888366,0.03738584,0.006496058,-0.063676596,0.003606934,-0.053306203,0.054620072,-0.006094982,0.00020831916,0.04017869,-0.026616782,-0.027872652,0.0032874383,-0.011876674,0.032171384,0.00045622265,-0.027731378,0.014594813,0.049183268,-0.027410269,0.054843727,0.002862364,-0.028689642,-0.050929252,-0.023561092,-0.014666927,0.059556022,0.019138763,-0.028450344,-0.043131158,0.038816597,-0.031330172,-0.03786558,0.045251884,-0.0717408,-0.014705945,0.013635099,-0.030406462,0.052536476,0.03369299,0.0025173102,-0.044228848,0.018517049,-0.025206137,0.0064086844,-0.00087031233,0.031171722,-0.02531839,0.005715159,0.04945599,0.016637892,-0.035269737,-0.06505417,0.0055018673,-0.059147,-0.05751657,-0.022883773,0.037919424,0.045568816,-0.012689302,-0.05327164,-0.043304723,-0.02848287,0.05531942,0.026254693,0.0038618003,0.0537218,0.044330254,0.01805307,-0.027618254,-0.031755902,-0.042828146,0.016647927,-0.004236528,-0.060505275,-0.041234255,-0.04493412,0.011780902,-0.054205928,-0.010222182,-0.0071732863,0.0050439136,0.012442931,-0.0129031325,-0.0066253375,-0.0024277696,-0.04069032,0.007862527,0.034006372,0.05316893,0.051838323,-0.052620396,0.030926619,0.049219903,-0.024719272,0.061683845,-0.018636102,0.0068653533,0.04673836
0.062224377,0.012626108,-0.00826649,-0.02590107,0.13098375,-0.1443556,-0.03195732,0.015353926,-0.0532911,-0.12842172,-0.08363412,0.07775456,-0.08896297,-0.031978417,-0.025784552,0.017386157,0.102520965,-0.0038483953,-0.071754165,0.067823075,0.0014319578,0.00881036,-0.031866636,0.051217645,0.037268095,-0.14780541,0.10891996,-0.13462926,-0.004639085,-0.043727133,-0.043820098,-0.041166738,0.043411735,0.028713098,0.057623357,0.053665817,0.10673398,-0.19167456,0.014857217,0.0055199354,-0.09140354,0.14713334,-0.10941271,-0.048648,-0.034739006,0.09882882,-0.07623745,0.07560256,0.039250754,-0.11026538,0.057724193,0.0676526,0.090421,0.029353675,-0.071034946,0.047014583,-0.123834275,0.03497756,0.013807526,0.122467756,-0.0674808,-0.078359336,-0.006661202,0.049194466,0.10890015,-0.045989837,-0.12732911,-0.01854851,0.08182196,0.0889618,-0.08531215,-0.14890797,0.038640384,-0.102197215,-0.024150174,0.08644884,-0.11782379,0.07817874,0.059121035,0.10929348,0.06709796,-0.0616616,0.09930514,0.061535053,0.12804498,-0.09689945,-0.12113209,-0.046616558,0.0920452,0.008608563,-0.048869044,0.111780494,0.08989197,0.10144378,0.08214527,0.10070288,-0.02015894,0.037625246,0.019519532,0.098255485,0.09568367,0.078085415,0.07617161,-0.015240647,0.035585802,0.022141632,-0.077348515,-0.11924198,0.13170826,-0.17813468,-0.14501049,0.08343886,-0.055630613,0.114447705,0.028546214,-0.11323791,-0.054040182,-0.1356648,0.051436305,-0.14767395,0.03469006,0.09829151,0.098885946,-0.11613317,-0.079342216,-0.026264673,-0.014389307,-0.110346004,-0.043635786,-0.020946383,0.06595172,0.0015284166,-0.055712458,0.047149345,0.12788507,0.020788547,0.06724682,-0.033752948,-0.13589403,-0.09259444,-0.04751651,0.10844347,0.028837029,-0.023816392,-0.12901624,-0.14415026,-0.057245824,-0.03011259,-0.093143836,-0.06977946,-0.08884235,0.014813483,0.108678505,-0.10992621,-0.09286997,-0.1446224,0.093491174,0.09888476,0.096240625,-0.038400006,-0.10039995,0.02665603,-0.047146026,-0.058601018,0.068376236,-0.029322693,-0.09866329,0.114364974,-0.12227244,-0.13066429,0.002861617,-0.07480974,0.08997302,0.117653824,-0.17035444,-0.090227805,-0.06095918,0.02696131,-0.12599015,0.13714701,-0.057456862,0.038380638,-0.1130346,0.053467963,-0.048328627,-0.13758807,-0.16329892,-0.015288458,0.037272945,-0.13194095,-0.06961977,-0.04222691,0.12833628,0.006956481,0.13543461,-0.115321256,-0.09742846,0.0044634608,-0.032183655,0.013008462,-0.11461172,-0.12306649,-0.123827614,-0.0713608,0.058729447,-0.018714186,-0.064873874,-0.061034754,-0.047579173,-0.043991987,0.10089689,-0.04619525,-0.033391282,-0.11713707,-0.01814814,0.025886262,0.0022715228,0.07183354,0.124257736,-0.13856095,0.06892384,0.069903076,0.011337467,0.06906804,-0.04430273,0.016716901,0.14656198,0.06103211,0.06515809,0.04999587,0.02328467,0.073870026,-0.049983513,0.0989385,0.035461016,-0.052058816,-0.08434222,-0.037689675,-0.049284928,-0.06442395,-0.07447882,-0.006928008,-0.10843591,-0.07805396,-0.078198925,-0.021375125,0.10105172,-0.06782131,-0.17128648,0.13329293,-0.10616991,-0.05305275,0.058348477,0.03184252,-0.044625137,-0.11024736
0.027255237,0.022498315,-0.06333566,-0.049325597,-0.004330673,0.06576953,-0.054406036,-0.111553036,-0.032083582,-0.020870524,0.06253769,0.010844057,-0.05562668,0.008172521,-0.009325899,0.017715648,-0.058172513,0.032093327,0.057760917,0.03197248,-0.04822799,-0.07894803,0.030153459,-0.079551905,-0.0170811,-0.054121614,-0.01069705,0.007759203,-0.00064583955,0.022988878,0.036062516,0.0028227116,-0.0069880877,0.025044257,-0.029312374,-0.016532525,-0.0393538,0.023578284,-0.0092250705,-0.0040032365,-0.0019888037,0.026838806,-0.03986064,0.040294178,-0.0036263803,-0.056865573,0.06927851,0.0123303505,-0.083271354,-0.007816448,-0.04626138,-0.012226713,0.019555835,-0.033357244,5.0730585e-05,-0.010774148,-0.020806966,-0.0012102129,-0.054434024,-0.0454374,-0.079342626,-0.03739042,0.01945401,-0.061424095,0.035021428,-0.0028314204,0.050608043,0.02266525,-0.018448852,-0.0008648379,-0.018492762,0.035434887,-0.049602196,0.059784647,-0.05621042,-0.023221647,-0.043932445,-0.04089504,-0.0025603306,-0.04969716,0.017604768,0.11427166,-0.022761805,-0.039594058,-0.038689207,0.019179527,-0.021460962,-0.036875717,-0.061619084,0.04477838,-0.052046925,-0.015036177,-0.06687057,0.050219405,-0.021993022,-0.0008301371,0.041066788,-0.058137078,-0.004120819,0.01752713,0.028746858,-0.020258067,-0.041975114,-0.03166924,-0.07017068,-0.027850475,0.041357946,-0.05138971,0.03318596,0.090709575,-0.02204373,0.029373392,0.056265302,-0.042978115,0.034105744,0.022793818,-0.04130146,0.0043731187,0.036802813,0.023731753,-0.034631558,-0.080661826,-0.032119457,0.014833042,0.026465554,-0.016960135,0.028271578,0.007589338,0.06563073,0.01828628,-0.011445775,-0.055012092,-0.055093296,-0.06382798,0.05266964,-0.043654047,-0.06138472,0.022676865,0.048571438,-0.058181033,-0.11536992,0.052651983,-0.03586211,-0.013514026,-0.024742609,0.0075795893,-0.018559469,-0.00022924466,0.065539174,0.036640897,-0.049091313,-0.01836717,0.02489532,0.03568824,0.0289375,-0.057956662,0.0031598886,0.013077536,0.008156895,-0.0027967829,0.013151763,-0.013499967,-0.013205663,0.047584727,-0.051844954,0.006231286,0.046981663,-0.031733353,0.08773231,-0.02030268,-0.039433528,0.038973138,0.0005936754,-0.039613515,0.07931051,0.012106733,0.049345568,-0.038868546,-0.02356929,0.013623225,-0.05088414,0.024908194,-0.026335781,-0.065286145,0.03447918,0.10305028,0.0768994,-0.011269656,-0.04748211,0.06288261,0.008861066,-0.020301718,-0.00932405,0.029799942,-0.06308222,0.038318478,0.08504416,-0.05537388,0.06784882,-0.0059051653,-0.042188182,0.07407405,0.06612002,0.039412502,-0.024442375,0.046091724,-0.024602829,-0.013475929,-0.052041706,0.038534515,-0.038357735,0.00083577575,-0.081822805,0.09840149,0.043909926,-0.09907255,-0.01573215,-0.05273186,0.03258533,-0.04911943,-0.02698623,-0.0698975,-0.06699285,0.031135285,-0.0016244523,-0.041124683,-0.056750704,0.00028812245,-0.01994279,-0.10068608,0.034569655,-0.0679309,0.01229217,-0.042229537,-0.064005956,0.042345267,-0.029380213,0.063549735,-0.004503238,0.004709291,0.09755717,0.0031203444,0.02128957,0.06802993,0.026852133,-0.059613768,-0.044567104,0.02887685,0.008124935,0.024181016,-0.04519271,-0.037446488,-0.054152478,0.032411274,0.0198741,0.014241701
-0.015887244,0.0493545,0.005261304,0.0104963025,0.09933119,-0.015466459,0.031245397,0.061083134,-0.054243103,-0.013059578,-0.07810226,0.07268781,-0.08913021,-0.036496177,0.01685774,0.017719548,0.07344312,0.038814608,-0.10203977,0.03282754,-0.008328411,-0.065952264,0.046062425,0.10174365,-0.027880657,-0.08147433,0.080779485,-0.06865881,0.050177604,-0.06201855,-0.021489799,-0.102336176,0.028873026,0.013514848,0.07688698,0.017941324,-0.01681739,-0.10335534,0.03486873,-0.046271633,0.029764265,0.12373495,-0.059970748,-0.017257093,0.09331907,0.065699816,-0.09173288,0.015203017,-0.045033615,0.02284638,0.01157362,0.09559754,0.06169989,0.07220122,-0.11639533,0.06229111,-0.01395387,0.07512807,0.009651412,-0.023368258,0.0006348325,-0.03940194,-0.06288994,0.042147607,0.052642804,-0.0625654,-0.059642684,-0.049974166,0.09942844,0.009412452,-0.058223523,-0.034306176,0.053383965,-0.01993844,0.015944371,0.0030062182,-0.025443938,0.008982585,-0.024859134,-0.0034467746,0.07188825,-0.04995379,-0.03188287,-0.03723964,0.058120076,-0.0071292855,-0.036388963,-0.15915905,-0.0055367053,-0.0072695916,-0.0765261,-0.0118033625,-0.056091387,0.01904878,0.018429514,0.06587215,0.046864334,0.05194219,0.033126667,0.0029398955,0.027606867,0.102208205,0.018755352,0.0858737,0.024943648,-0.14480108,-0.0059106075,-0.014199243,0.059542816,-0.09822664,-0.03453922,0.05311173,-0.038768727,0.0026856542,0.028822156,-0.0673827,-0.07787577,-0.028138276,0.021249622,-0.050118316,0.05464896,0.028860264,-0.03582348,-0.03698219,-0.024993327,-0.04816069,-0.039877098,-0.03162847,0.070584305,0.029467575,0.025987554,-0.01445411,-0.1078739,0.0050134053,0.06378594,0.048349027,-0.0015902838,0.016547047,-0.063148685,-0.021648962,-0.08239525,0.031665903,0.106966466,0.0077937334,-0.045092646,-0.12679367,0.07794251,0.0020870932,0.0042998907,-0.017229186,-0.017850872,-0.053203743,-0.0020939347,-0.13985758,-0.052128628,-0.03835155,0.0262498,0.015412886,0.025506204,-0.058844343,0.009994786,0.09166615,-0.07835925,0.012792344,0.040168747,0.003748123,-0.09456406,0.030185195,-0.019488797,-0.0399842,0.048318453,-0.07900946,-0.0024973515,0.009513785,-0.14252442,-0.08608723,-0.045369703,0.028438268,-0.054563403,-0.0019729887,-0.12063044,0.07003489,-0.007373393,-0.002031827,0.016439525,0.008298694,-0.10372926,0.0067918743,0.05136754,0.036114387,-0.059129898,-0.095440224,0.03400144,-0.069942966,0.105968155,-0.05010378,-0.046123385,0.02155949,-0.028581133,-0.036856927,0.0126073165,-0.133051,0.0076140044,-0.04734521,0.017351646,-0.061218537,-0.02677246,-0.13333014,-0.0027326846,-0.0028530704,0.06928894,-0.09901281,0.03722098,-0.028906815,0.024768567,-0.037374515,0.01801928,-0.045210026,0.038924407,-0.045302108,0.04143433,-0.010803373,0.06497469,-0.016400198,-0.0020372842,0.08202109,-0.008113276,-0.033302538,0.04127579,-0.04517148,0.060277473,-0.19176842,0.045371603,0.08065958,-0.0044532334,0.044211116,-0.021848705,0.036536314,0.0064777057,-0.02525389,-0.13982628,0.027613388,-0.0138713615,-0.057541363,0.06300052,0.014704897,0.05832823,-0.056737818,-0.09864618,0.07058095,0.0028713183,-0.05789081,-0.014545176,0.008248783,0.054649726,-0.07266419
-0.017587397,0.008148522,-0.04198002,0.01045041,0.037197072,0.016102139,-0.0029225296,-0.013400463,0.05796868,0.009804973,-0.06162261,0.0012628674,-0.037508253,-0.041721486,0.050594088,0.015416153,0.035065904,0.032501653,0.015444926,0.039190337,0.0011813842,0.018947963,0.006406627,0.041588016,0.0057041273,0.005424342,0.059950907,0.006905709,0.024235299,-0.0555436,-0.0128248455,-0.030761033,0.06124046,-0.03321964,-0.0048820917,-0.013128307,-0.007600202,0.061714135,0.027202748,-0.044797428,-0.053367198,-0.0012697867,0.061872464,-0.036071036,0.053159907,-0.003321517,-0.039570488,0.032758206,-0.044614065,-0.04729745,0.012539414,-0.055871304,0.040313024,0.038003527,-0.005545685,-0.030703785,-0.042040106,-0.059958283,-0.05564412,0.015692433,0.060065355,-0.014100573,0.052407075,-0.028650962,0.037233446,0.0059372387,0.009526554,0.021076322,-0.042445607,-0.045366324,-0.0059813773,-0.026995137,0.054795347,0.030064678,-0.018711692,0.030218044,0.0012316151,-0.027406089,-0.045082998,-0.019806618,-0.022370912,-0.013409691,0.0040363325,-0.031253565,0.021429725,0.01755886,-0.033883434,-0.016499909,-0.015855134,0.037924103,-0.05486267,0.04215643,-0.017408522,0.032055113,0.023259263,0.021589013,0.046495765,-0.019348163,0.046044413,-0.04424348,0.06032841,-0.052795835,-0.059119355,-0.039566554,0.035326958,-0.031464823,-0.059682857,-0.046395324,-0.052905034,0.012650022,0.019781845,-0.001882034,-0.0054662,0.030616716,0.052020386,0.02504561,-0.03118994,0.023050047,0.05383159,0.030239671,-0.023916958,-0.028755106,0.015447679,-0.055702988,-0.015414933,-0.041763484,0.027864844,0.04630202,-0.062568225,0.04481846,0.003928208,0.04545407,0.034430604,0.061032463,0.054575752,-0.012291885,0.027586766,0.026725912,0.061315864,-0.02656035,-0.016033238,0.03374286,-0.029851925,0.02752671,-0.04519763,-0.04343068,0.026138598,0.05981178,-0.015306175,0.020949662,-0.05155579,-0.049242266,-0.0298569,-0.011986559,-0.05674388,-0.054134592,0.022186352,-0.05819556,0.04103849,0.0021689713,-0.058076046,-0.009480931,-0.030812452,0.04591777,0.001964321,0.0495723,0.01266624,0.057634152,0.031745363,0.015439635,0.012935398,-0.049175616,-0.04098472,0.05764737,0.025507955,-0.055645842,0.011614981,0.049194656,-0.0002865869,0.02411707,-0.039382875,0.05708301,0.023494607,-0.054130252,0.058564372,0.0010146349,0.027697245,0.027337313,-0.055860743,0.05724446,0.058811847,-0.02262918,0.023849947,-0.015316227,0.026559908,-0.06205129,0.020695858,0.022434263,-0.0011145626,0.023319386,-0.042430427,-0.027666075,-0.019731024,-0.053360157,-0.04030002,-0.032558806,-0.020441614,-0.024949621,-0.006783374,0.03127217,0.006450647,0.05454549,-0.05045454,-0.06053283,0.027900789,-0.03582446,-0.015068807,0.056132913,0.02117585,0.05385945,0.05781205,-0.055074308,0.019474683,-0.00025716962,-0.038091674,0.05793854,-0.0021572043,-0.021692028,-0.029155793,0.0023268594,-0.044078797,0.03720255,-0.02770935,0.011748885,-0.027123557,-0.0048744343,0.0020676283,-0.022217361,0.021654831,0.0062855715,-0.013929517,-0.026405869,-0.034207776,-0.027957492,-0.032247238,0.002093572,-0.039989483,0.031053254,-0.052051406,-0.028888742,-0.06179443,-0.034309033,0.038341474,-0.009366525,-0.04988187,0.010809433
-0.054665152,0.061985895,0.0031883628,0.02696777,-0.0580793,-0.0076790997,0.05230232,-0.04566351,0.023997039,0.04091694,-0.042535216,-0.021010896,0.018620964,0.015560781,-0.031127723,-0.058857717,-0.042246666,-0.0043061757,-0.045917578,-0.00085337064,-0.017547457,-0.0234442,-0.04896427,0.05054373,-0.008089436,0.05469168,-0.03900776,-0.054272886,-0.04740386,-0.037834823,-0.023757597,-0.033146493,0.059089553,0.015637571,-0.015776152,-0.03343,0.06166265,-0.033413198,-0.04163213,0.0015809608,-0.025735738,0.04993338,0.020333866,0.04853263,-0.018914253,-0.03881624,0.015484779,0.037925698,-0.013882637,-0.038242072,0.038564328,0.046556,0.04474045,0.014186628,0.039187927,-0.015149156,0.0065143397,0.032270536,-0.03438217,0.0025401833,0.05836852,0.0030572237,-0.05670246,-0.0128637245,-0.001093473,0.058583967,0.0411027,-0.03890263,0.043392442,0.050125167,-0.010066049,0.026929725,0.03271733,-0.020566951,-0.027113138,-0.008955433,0.015870078,0.051008362,-0.002748513,-0.054063365,-0.015727686,-0.011568365,-0.0108031025,0.0041458714,-0.045079444,0.044896573,-0.051507175,-0.005031676,-0.05532353,-0.03725045,-0.016833391,0.035550136,-0.013468557,-0.04785577,-0.04346926,-0.035258938,0.016116127,0.03167265,-0.039414555,-0.009473152,-0.053231493,-0.031772703,0.030522918,0.02212603,0.046516076,-0.044684205,-0.018517496,-0.02229867,-0.054785445,-0.01551213,0.058136027,0.0005093521,-0.04378006,-0.020064646,0.03414474,0.0035858545,-0.027968995,-0.04390013,0.03403383,-0.018462224,0.004959905,0.0121185165,-0.0008591211,0.017162418,-0.030468188,0.056172546,-0.011562403,-0.053611018,0.021456694,-0.0624001,0.018111635,-0.031220207,-0.061335444,-0.04476469,-0.054687113,-0.0068369885,-0.028874636,-0.003376626,0.047412105,0.04096007,-0.030679077,0.032051392,-0.027894553,-0.014909344,0.005544105,0.054677997,-0.0037751314,-0.02483661,0.02798823,0.04965478,-0.007721348,-0.008406954,0.008112613,0.05318477,0.035034537,-0.0052882424,-0.045436297,-0.0016139635,0.0031491364,0.03422621,-0.06146037,-0.028271567,-0.05206865,0.043863673,-0.041832704,-0.0198161,0.00877437,-0.051844977,0.009022071,0.053636782,0.01164362,-0.00027664853,-0.019871898,0.05663677,-0.050231077,-0.0059033684,0.009775112,0.04504022,0.053517405,0.052302428,-0.007998755,-0.027763423,-0.04521239,0.004500207,-0.034152094,-0.019394604,0.053786274,0.016205318,0.052968707,-0.02563228,0.030500142,0.033576686,-0.016153319,-0.032455802,-0.010948208,-0.024486957,-0.038233068,0.048936777,0.039185006,-0.03467687,-0.0449791,0.03242717,0.004842832,0.012358371,0.030743837,-0.060989942,-0.06026176,0.042855725,0.058277957,0.009465196,-0.03800578,-0.024389261,-0.015137469,0.0014420751,-0.01250283,-0.027129175,0.060716882,-0.013375258,-0.034603402,0.011269837,-0.041997313,0.025098821,-0.02948508,-0.008854841,-0.047405984,-0.0109594,0.04506941,-0.047575332,0.037086707,0.024839101,-0.014855219,0.021765348,-0.030585669,0.030170185,-0.047957584,0.0524056,-0.041514948,-0.03926422,-0.00320418,-0.03646085,-0.012689406,-0.0053408453,0.051741302,0.02518136,0.0009395889,-0.05037726,0.021750828,-0.017634796,-0.04457941,-0.056718703,-0.046367556,-0.007423612,0.035670854,-0.046193622,-0.03685589,0.052487515
0.016901081,0.06835689,-0.018090455,0.054954935,0.018003559,-0.08497383,-0.071919404,0.058348935,-0.033882037,-0.08419298,-0.042498212,0.11176635,-0.15586253,0.01660604,0.08281303,0.09824242,0.11432376,0.008000884,-0.020484295,0.0180169,0.013858187,-0.0047057066,0.06354124,0.087173946,-0.008963138,-0.061786216,0.061411932,-0.08984376,-0.051290113,-0.0062142704,-0.066348135,-0.07524573,0.06163689,0.07817753,0.09242603,0.017796613,0.1100453,-0.09207734,0.06970192,-0.03803263,-0.070035666,0.13901043,-0.020067863,-0.060992457,-0.022158343,0.051652554,-0.07996091,0.16133292,0.0025234697,-0.008402146,0.022468131,0.05270828,0.05243367,0.050786633,-0.20586772,0.13137431,0.0046808547,0.08192815,0.013475558,0.11462065,0.0010456156,-0.10858732,-0.032605115,-0.01877005,0.063186646,0.011676961,-0.14265116,-0.076380044,0.11588047,0.046784986,-0.08668543,-0.07678437,0.034522798,-0.085842155,0.012110443,0.05579448,-0.029257,0.02863917,0.0023211588,0.034472574,0.02274422,-0.030439721,0.03934271,0.0098068295,-0.02002769,-0.14185058,-0.03508852,-0.10516515,0.021166898,-0.09123857,-0.10419639,0.110036746,-0.0019172292,0.02057555,0.07038162,0.101152286,-0.07115795,0.004314828,0.038619563,0.039845828,0.12661171,0.049615365,0.0566099,0.06935664,-0.044837464,-0.067040615,-0.08813713,-0.07785388,0.0945067,-0.116863616,-0.050969277,0.037065472,-0.109247,0.08988399,0.060592543,-0.11540499,-0.043085173,-0.008919439,0.07493866,-0.015902461,0.04384086,0.033188485,0.06675854,-0.09882161,-0.042139973,-0.09325284,-0.027055806,-0.082504354,0.04668667,-0.04269452,0.04309989,-0.009195943,-0.13722081,0.058304157,0.067513764,-0.020745276,0.052143075,-0.101918586,-0.15245079,-0.052787006,0.00047422,0.07633231,0.09541983,-0.022792207,-0.09806424,-0.13159506,0.08562579,-0.01695649,-0.09056315,-0.10511599,-0.12047682,0.027931975,0.043054625,-0.0985476,-0.07927767,-0.03252494,0.041177407,0.13895583,0.042024843,-0.027784063,-0.028370494,0.03167214,-0.029196648,-0.012015761,0.010928512,-0.024553128,-0.0028264509,0.049193922,-0.06616843,-0.14008328,0.05575126,-0.09806681,0.12809503,0.054418147,-0.21560426,-0.043156978,-0.13176702,0.059776865,-0.09400966,0.052739058,-0.13173148,-0.008873834,-0.09362949,0.055159815,-0.0055062934,-0.013998975,-0.053122625,-0.03933962,0.035251334,-0.114989355,-0.066108935,-0.08044092,0.10939924,-0.123177685,0.08132187,-0.07749308,-0.15806606,0.059275202,-0.019051552,0.031521983,-0.050129794,-0.16182476,-0.024226096,-0.032633636,-0.07120105,-0.059804082,-0.152926,-0.114326425,-0.11065422,-0.106273346,0.11848438,-0.10257313,-0.059174802,-0.05190291,-0.016517937,0.033111982,0.011654375,0.042738624,0.119688675,-0.10817792,0.07387594,0.0282929,-0.018898733,0.07268576,-0.10092829,0.08095448,0.1155399,0.029975379,0.0209424,-0.0045176977,-0.0075021884,-0.102522366,-0.06875517,0.10146961,0.022763237,0.09178166,-0.07222589,0.0028617908,-0.12608272,-0.07460012,-0.24415314,-0.005650768,0.02329077,-0.055951566,0.053529136,-0.06365839,0.07311575,-0.09101433,-0.026148502,0.06741938,-0.054097228,-0.112081125,0.016449228,0.10800299,0.022591868,0.014387755
0.06570166,0.0918312,0.072140194,0.04944839,0.12201262,-0.08364105,-0.043605953,0.04345371,-0.04049233,-0.05518923,-0.15213704,0.14246446,-0.06939095,-0.08772572,-0.06170022,0.0029772685,0.11493896,0.013063996,-0.06014717,0.018543659,0.051225338,-0.01010381,-0.027698,0.037455104,-0.0093568005,-0.069006346,0.005843296,-0.14529976,-0.015279007,-0.106123514,-0.085943505,-0.12044278,0.05026287,0.06929325,0.0781366,0.06811133,0.060791705,-0.12526193,0.10563266,0.019212263,-0.060001243,0.15259883,-0.15172361,-0.059161525,-0.05394899,0.09485737,-0.08678398,0.13821274,-0.00212066,-0.035835493,0.042292472,0.054219976,0.057604626,0.027518187,-0.08582152,0.017326027,-0.06392538,0.07984254,-0.03210273,0.14932294,0.03559843,-0.032239676,-0.019437654,0.1269089,0.10345975,-0.10823113,-0.013455939,-0.033577316,0.015012205,0.116712704,-0.07491341,-0.12007857,0.018409941,-0.121844605,0.0066969325,0.11703669,-0.09732071,0.036369845,0.07655039,0.12559384,0.07240156,-0.053716514,0.056738686,0.014211691,0.077714145,-0.026457693,-0.08293169,-0.09490044,0.06489585,0.004853083,-0.020812035,0.01914335,0.03576421,0.12664615,0.049944688,0.034740593,0.0010575101,0.075507395,0.050114594,0.019164545,0.031813864,0.055158336,0.0574016,0.0049439194,-0.05208214,-0.04260306,-0.067481846,-0.073047906,0.11740429,-0.095556006,-0.07582263,0.020559106,-0.114493586,0.011842052,0.12397805,-0.17426902,-0.0443582,-0.07203839,0.023234349,-0.072566755,0.0744748,0.10963257,0.12042499,-0.084589005,-0.10156226,-0.12573768,-0.007604153,-0.07589532,-0.009300302,-0.057901938,0.04293653,0.07225674,-0.045769464,0.07880194,0.11187378,0.0075749075,0.044292945,-0.039777283,-0.093788415,-0.03247313,0.051152207,0.019245047,0.0960797,-0.07245909,-0.080625124,-0.107854046,-0.053335935,-0.06679988,-0.044697493,-0.10512972,-0.13531889,0.003980668,0.11917881,-0.12169277,0.014313844,-0.1226603,0.07657472,0.103815936,0.040598117,0.015580744,-0.13371682,0.05631094,-0.08569507,-0.027202843,0.07997862,-0.078854434,-0.037039954,0.08414514,-0.07002552,-0.066533,0.06042378,0.014820509,0.097701274,0.09148206,-0.14935783,-0.05011379,-8.098237e-05,0.12678193,-0.014369527,0.0391572,-0.089399956,0.08768791,-0.017486438,0.08831206,-0.14266497,-0.11605219,-0.120691985,0.012189516,0.061003517,-0.037889265,-0.030679269,-0.10110443,0.025029426,-0.08869376,0.074867964,-0.07278566,-0.10582414,0.076524876,-0.14227454,-0.05083,-0.091400415,-0.088739395,-0.060181394,-0.14604521,0.03920662,0.032729007,-0.05723904,-0.13681337,-0.12770808,-0.08072667,0.09913396,-0.09232698,0.051491752,-0.10996343,-0.013679322,0.05115342,-0.009954873,0.031549975,0.10734289,-0.07521062,-0.0033840674,0.062838465,0.017393518,0.08015429,-0.06621229,0.028902624,0.13820753,0.100655116,0.027930612,0.030674977,0.026787765,-0.034039948,-0.032761388,0.034232832,0.039068304,-0.05588374,-0.10392876,-0.045905627,-0.12117693,-0.14692251,-0.119206056,-0.050522666,-0.10074709,-0.15174825,-0.06293755,-0.08826059,0.09795444,-0.11526861,-0.14518651,0.13568054,-0.05687682,-0.04392311,0.0065980623,0.007962241,-0.03013125,-0.06036764
0.025650097,0.033228435,-0.05624748,0.011907512,0.04229202,-0.044136148,-0.034208678,-0.034102093,-0.009146047,0.0029973926,-0.024560815,0.04444581,0.0059231278,0.034318294,-0.012729054,-0.033813894,0.024844877,0.030538056,-0.04224719,-0.009851338,0.016557772,0.029974092,-0.020142132,0.004284899,0.040111676,0.05222364,0.017609356,-0.031168386,0.0038267777,0.04122246,-0.036826026,0.0063713016,-0.049279213,0.048223786,-0.060419675,0.0011113468,-0.010608926,-0.04930304,0.015906205,0.03655891,-0.037202455,-0.040806815,-0.029336533,-0.007916005,0.043949988,0.013919765,-0.040648118,0.019286871,-0.042457383,0.030320153,0.009226678,-0.030477274,-0.0063696746,-0.048820097,0.032577492,-0.01635843,-0.00038589534,-0.03378323,-0.0100291995,-0.032817986,0.057138998,0.047101308,0.027681598,0.016458534,0.05772745,-0.031098349,-0.042603806,0.041884713,-0.017513756,-0.018276716,-0.030416427,0.015187802,0.03876125,-0.058901623,0.022035362,0.007559811,0.03497181,-0.03156677,-0.023760779,-0.026886305,-0.009405322,0.03299881,0.032967426,0.03883508,0.047224786,0.05563622,0.050881665,-0.036921248,0.031803735,0.014890446,0.015926413,0.056170262,-0.0034987547,-0.046695143,0.025511898,-0.053046416,0.040117763,-0.022749823,0.011453679,0.004394275,-0.06244332,0.024443211,0.018437894,-0.042346936,-0.046201963,-0.036638904,-0.061258323,-0.017031707,-0.057699963,0.03932542,-0.011696971,-0.050468422,-0.008306039,0.031520467,-0.0016812264,0.005085107,-0.025249412,-0.053994432,0.032900684,0.052832697,-0.037049897,-0.056032155,0.005634626,-0.041886818,0.051646076,-0.0034741533,-0.00525742,0.029567486,-0.060099684,0.0074667535,-0.059059635,-0.029509258,0.049797893,-0.043572284,-0.045810193,0.04927171,0.054790065,0.034004197,-0.04090463,-0.051485308,-0.047045257,0.051222514,-0.01367713,-0.02133647,0.043437857,-0.02938455,-0.02212466,0.060334783,0.02155778,0.054318372,0.05679618,-0.032193054,-0.04956888,-0.037910942,-0.035983354,0.0003814173,0.012584843,0.045075394,-0.030557185,0.037168138,0.0050702514,-0.010937231,0.061106462,-0.024105098,-0.023713874,0.05944658,0.023110138,0.017766584,-0.026439415,-0.00096132717,-0.051664513,-0.024795348,0.0060641486,-0.024331672,0.0070037246,0.020635197,0.05074376,0.00953202,-0.05123408,-0.05825522,0.018015886,-0.007775038,-0.057642054,0.04876078,-0.020922694,0.022877764,-0.0075216703,0.040667057,0.028999783,-0.058192812,-0.016034255,-0.044434205,-0.043341633,0.017566776,-0.028924353,-0.06078313,-0.04218728,0.018783873,0.03437065,-0.04894759,0.005204232,-0.05726951,0.016786607,0.021121634,0.01840217,-0.0491712,-0.026323233,-0.051913317,0.03387465,0.013940783,0.02898093,0.010215022,-0.0030311628,0.040907223,-0.048806448,-0.010691944,-0.043620873,-0.043207154,-0.054794054,-0.057669185,0.016719991,-0.016273996,-0.035207406,-0.019279318,-0.023367552,-0.051060677,-0.039017104,0.010158759,0.013550499,0.030841278,-0.008309898,-0.020134073,0.0008914671,0.05151066,0.051314842,0.046911944,-0.049629476,0.046426352,0.06241014,-0.00014615194,-0.051156428,0.033254933,0.018640367,-0.04622735,0.042697094,-0.008610375,-0.032169588,-0.015594875,0.021970904,0.056856815,0.014296486,0.034755096,-0.03331013,-0.0065197707,-0.028463509,-0.045374215
0.05179827,0.08672022,-0.046158727,0.04197957,0.019248245,-0.09540828,-0.0027596764,0.051256217,-0.04582444,-0.0757093,-0.02383883,0.0064941174,-0.00864001,0.029996952,0.030101452,-0.021815527,0.06801923,-0.055508614,-0.0049573015,0.039458897,0.0105989035,0.047616106,0.02189573,0.0425115,0.05017229,-0.047825575,0.048750542,-0.067146234,-0.0032249852,-0.08613823,-0.067762956,-0.08832762,0.040810976,0.018850222,0.049529906,0.033035953,-0.015303404,-0.075138226,0.0019955013,0.050800625,0.020680439,0.021814397,-0.052461002,-0.09123208,0.007290404,0.018050898,-0.08031946,0.022099158,0.061872646,-0.09066578,-0.0060198847,0.04786611,0.023911048,0.0429686,-0.10407499,0.0011392048,-0.027546214,0.008490573,-0.00025951068,0.031309765,-0.04649671,-0.042750895,0.052384827,0.00042654193,-0.026150865,-0.049325317,-0.05113965,-0.024656467,0.05844584,0.014023615,-0.07399178,-0.029093094,-0.024832036,-0.07864731,-0.027811904,-0.014374298,-0.0777895,0.058192335,0.037398703,0.073317975,-0.00059063244,-0.08218846,0.073053434,0.06552585,0.08005394,-0.018337412,-0.008820574,-0.07271396,0.08480583,-0.082826,0.018654011,0.08464398,0.004394882,0.033612117,0.018417573,0.009622956,-0.064636305,0.02223184,0.08015084,0.048079267,0.078972764,0.007970234,-0.02787092,0.051053952,-0.032060415,-0.009543447,-0.007825687,-0.08752978,0.05998031,-0.05701969,-0.017150618,0.07421579,-0.0737626,-0.0275556,0.06507995,-0.13027813,-0.0660416,-0.03091888,0.015804445,0.002032408,0.08773789,0.08373311,0.092399515,-0.07637458,-0.07942926,-0.089791976,0.03246715,-0.011249811,0.031310383,-0.024833431,-0.009348129,-0.017154496,-0.05956743,0.020591583,0.049849823,0.07250639,0.0657354,-0.008016227,-0.09933508,0.028083086,-0.015550148,0.053221423,0.014096564,-0.08079003,-0.076800294,-0.10747643,0.026486294,0.01804795,0.028450219,-0.022967633,-0.013482513,0.06799791,0.0024079923,-0.086279534,-0.07261041,-0.0032437213,0.09078698,0.018195936,0.050008927,0.026502471,-0.013442411,0.046478502,-0.030463351,-0.023722341,0.06692714,-0.030320005,-0.0437473,0.010305408,-0.09215947,-0.01573148,-0.038567357,-0.002607927,0.0008558178,0.05962812,-0.034327168,-0.020807479,-0.0526483,0.026774196,-0.020417916,0.09583893,-0.08479226,0.034678902,-0.045597415,0.07638627,-0.07711211,-0.089577556,-0.08838676,0.047792617,-0.00398308,-0.07599823,-0.06637267,0.02799543,0.03614078,-0.058613773,0.03561944,-0.05942558,-0.020568956,-0.025456429,-0.04659936,0.05669249,-0.047381222,0.0213281,-0.009736205,-0.09325417,-0.04441577,0.04459434,0.010934206,0.019824546,-0.05391683,-0.047978096,0.021516941,-0.024708925,0.030520823,-0.028194435,-0.05594498,-0.02023408,0.0521249,-0.020389529,0.02120649,-0.087352596,0.041096747,0.07805796,-0.018144729,0.044609062,-0.073935285,0.05538266,0.09535679,0.09158923,0.063463226,0.028960483,0.053335905,-0.043582834,-0.05917317,0.09342526,0.10189815,-0.05462759,-0.06163036,-0.061223965,-0.023173194,-0.097790666,-0.0005772539,-0.017312502,-0.020558579,0.006863642,0.017568322,-0.0012823857,-0.010232245,-0.060990013,-0.063665226,0.097997285,-0.022466337,0.007848343,-0.014774058,-0.046751987,-0.07601896,-0.08515222
0.00020760635,0.028440082,-0.028279254,-0.022520792,0.08173587,0.012743144,0.015727146,0.04975088,-0.021948956,-0.07598831,-0.03304697,0.04457123,-0.015509283,0.009013683,0.033180714,0.06551931,0.03806486,0.020273503,0.028742835,0.039965812,0.02433788,-0.021766169,0.04531475,-0.020882586,-0.050689034,-0.08006737,0.08257774,-0.085927375,-0.038691282,-0.052592117,-0.07473815,-0.06360035,0.060130846,0.06455425,0.0092491275,0.0038355782,0.027455736,0.011380241,-0.011367261,0.03573627,-0.0004791382,0.063079976,-0.027723614,-0.08250285,0.011648114,0.06454542,-0.0411715,0.08162933,0.034882825,-0.066844076,-0.032511286,0.015559688,0.03287684,0.035545226,-0.0064806673,0.030274363,-0.05971574,-0.03892029,-0.053520717,0.0049767504,-0.020511566,-0.062014196,0.0025459216,0.0034540135,-0.04195846,-0.057353742,-0.04370241,-0.042282343,0.020001134,0.030202413,-0.009811346,0.029475182,0.048182197,-0.037692655,0.03681015,-0.02308495,0.00045294184,0.018858796,0.04182147,0.07662103,-0.006895248,-0.065089904,0.031006435,-0.02834126,0.044484947,-0.04682049,-0.078856446,-0.06476904,0.027521163,-0.008791019,-0.049383882,0.039049193,-0.007767039,0.047167864,0.007286997,0.023729794,-0.059295967,0.05996574,-0.036800418,0.05912953,-0.021274049,0.09094844,-0.03041226,0.0046289777,-0.059558894,-0.033666786,-0.075907,-0.05984279,0.05415862,-0.077686094,0.006732458,0.025721425,-0.08240996,0.060932707,-0.037689477,-0.08915004,-0.07058023,-0.0216254,-0.004759311,-0.034330964,0.07599062,0.00525377,0.06171984,-0.044596635,7.310731e-05,-0.088929005,-0.018556401,0.009537547,0.051161394,-0.02141937,0.051863894,0.05796041,0.039601363,0.051439032,-0.013028542,0.05082819,0.059910726,0.010826848,-0.07443457,-0.055302992,0.016440054,0.0034512368,0.046090614,-0.035043035,0.0058645885,-0.048040938,0.002823639,-0.009893374,0.033297203,-0.04423824,-0.08906276,-0.018722659,0.077255994,-0.05436733,0.04171528,-0.0061038146,0.016238011,-0.013058383,0.075930364,0.0058139362,-0.038291063,0.00046596394,-0.07662798,-0.034968752,0.033024736,-0.0008958562,-0.07807521,-0.027312879,-0.0479917,-0.058381956,-0.050416,0.040361445,-0.026289687,0.082070775,-0.052052803,-0.020831253,-0.07164871,0.017043186,-0.035823103,0.039892543,-0.050838884,0.02727992,-0.016525408,0.05579373,-0.0048664403,0.032001387,-0.05605118,-0.058935203,0.00538904,-0.03548815,-0.042435996,-0.004882301,-0.010660541,-0.026678994,0.04049333,-0.05064694,-0.0058475533,0.063890435,0.024039345,0.0479191,0.015330888,-0.012930393,-0.08765409,-0.062412865,-0.03248865,0.015609465,-0.030501707,0.008337958,0.025048582,-0.03348143,0.034402676,-0.07149609,0.015768703,-0.049123213,0.015642097,0.03552154,0.048070025,0.033463027,0.016622202,-0.004225209,-0.047687802,-0.01097656,0.04050342,0.08458857,-0.04969364,0.037903342,0.08084492,0.07984782,0.04122813,-0.06622733,-0.029866762,0.0062423865,-0.052721888,-0.022970047,0.019435039,0.008746888,0.025064223,0.016013943,-0.016540706,-0.07391166,-0.05020031,-0.030060593,-0.002836697,-0.033703435,0.016026802,-0.0039060724,0.0010919735,0.01674364,-0.021400703,0.08319271,0.03623566,0.0028285808,-0.047001414,0.01871897,-0.03897857,-0.052303534
-0.06043447,-0.078358464,-0.0632777,0.019549174,-0.051414024,0.020780211,0.0847431,0.023172364,0.04057514,0.0027162356,-0.009325593,-0.07212767,0.06700952,-0.022929765,0.032738846,-0.054992825,-0.01658212,-0.029393943,0.0552972,-0.044706993,-0.061772022,-0.020433204,0.06782892,-0.09212051,-0.005567367,-0.022872498,-0.0139778145,0.08944539,0.011996786,0.015884299,0.0644997,-0.0040921373,-0.08012018,-0.030908728,0.0151448315,-0.047694746,-0.07470263,0.013326695,-0.02353207,0.064265,0.0020852739,-0.022510681,0.052989714,-0.020222947,-0.04612917,0.018092219,-0.012683518,0.0069835167,0.05628553,-0.0224642,-0.037819628,-0.051236816,-0.07726974,-0.049931075,0.06375077,-0.035618,0.07504191,-0.015283172,-0.021506833,-0.039033595,-0.034062233,-0.01666295,-0.033549145,-0.04443787,0.025840664,0.057388995,-0.019548018,0.079394504,-0.05320049,-0.017357413,0.08470807,0.0737154,-0.06990662,0.062932566,-0.06422331,-0.042022504,0.06816461,-0.08511652,-0.018671758,-0.013468855,-0.062109333,0.09294461,-0.025386002,-0.0037124583,0.0071568824,-0.007993475,0.03340659,-0.017414825,-0.008966209,0.018279467,0.047151025,-0.048437104,0.059450287,-0.003578167,-0.04624438,0.029695746,0.07103916,-0.046237487,-0.056826163,0.029557947,-0.027117873,-0.087887235,-0.014172504,0.05383596,-0.0030363807,0.016025906,0.015471659,-0.032842726,0.0061968537,0.11481342,0.00967764,-0.055527303,0.07125715,-0.060282912,-0.07891838,0.048998218,0.08301611,0.005199955,-0.015034387,-0.021696473,-0.028312989,-0.04754251,-0.08568483,0.013752467,0.08822162,0.094311446,0.059981793,-0.033823185,-0.03849053,0.07808463,-0.035208732,-0.016874073,0.03830261,-0.0072876154,0.02496627,-0.009202452,-0.01752914,-0.0024060898,0.07531632,0.07230311,0.039780017,-0.021795705,-0.07928987,0.07027177,0.08158258,0.013869981,0.072339706,0.06754134,0.03658558,0.06732583,0.08961093,0.013632726,-0.014298398,0.040668555,0.06609571,-0.02609965,-0.069607995,-0.048277337,-0.067714415,0.010827435,0.009057067,-0.009002002,-0.0014232254,0.039790798,0.00044928413,0.0851343,0.055790912,0.0059673404,0.03145504,0.022624264,-0.058810674,-0.0023824433,-0.006693201,0.0072967666,0.03977211,0.066116355,0.04360936,-0.029636849,0.07341705,0.025987597,-0.014373043,0.012021096,0.058840305,-0.07147243,0.084467135,0.08927482,0.08095887,-0.0068922103,0.010856887,-0.014431848,0.06748903,0.021517606,0.019455262,0.002539013,-0.004119411,0.07938278,0.027606834,-0.043895785,0.038195785,0.046186768,0.055707015,0.04173141,-0.010631918,0.071256,0.035441894,0.02058534,0.0050609657,0.09159914,0.0010921357,0.04346457,-0.06161655,0.09454654,-0.032251123,0.026467325,0.05735632,-0.008590036,-0.036246065,-0.042797193,0.038927056,0.018476872,0.04168882,-0.027733421,-0.0002474809,-0.08301825,0.05631328,0.0045279153,-0.05904116,0.024829123,-0.016948482,-0.032543108,-0.046163477,-0.016595673,0.066249646,-0.0144308945,-0.050541833,0.03731364,0.016235529,0.075656615,0.06175561,0.06121916,-0.02703585,0.028741164,0.00229378,0.025365263,-0.0057068416,0.017406546,0.015827974,-0.023830418,0.0743412,0.027972441,0.03024493,0.07801296,-0.054804012,0.02348733,0.056168698,0.07700358
-0.03928231,0.008828112,0.043089855,0.055248078,0.020031642,0.011534757,0.010058457,-0.009185097,0.0627961,0.020432685,-0.028533563,0.023144599,-0.042822964,-0.056987606,0.04010231,0.0350398,-0.01161789,0.022941293,-0.043754123,-0.032758888,-0.05884907,-0.02532077,0.054814544,-0.059660766,0.027502526,0.06979599,0.054079976,0.055900857,0.03439476,0.01722576,-0.045328077,0.0394504,0.019839028,-0.0060663326,-0.013395636,-0.009275698,-0.062284168,0.052010924,-0.06524487,-0.030015651,-0.00067353254,0.03574429,-0.011288034,0.04984317,0.032059908,-0.0057165553,0.049169976,-0.024693679,-0.026819466,-0.017046932,0.016226105,-0.060151473,-0.043740448,0.049608722,-0.017708404,0.051632658,0.05857598,0.047209695,0.03726312,-0.029044395,0.07660596,0.05039422,-0.021245284,-0.04140593,0.029844645,0.026704058,0.010062345,0.021845762,0.055571858,-0.059991907,-0.047417648,0.05214222,0.014608569,0.07207997,-0.015879799,0.034606107,0.06419477,0.026618682,-0.018231735,0.0034747957,-0.03394258,-0.022854144,0.03995471,-0.03824549,0.03569679,0.021919824,0.0672486,0.05046648,-0.066491686,-0.008198342,-0.024341017,0.027866364,0.06542631,-0.016163152,-0.03922518,-0.018017896,-0.046397593,-0.036740754,0.006128729,-0.0025683478,-0.03448972,-0.06401032,-0.044721145,0.067819275,0.049625415,0.050016228,0.053231828,-0.014975674,-0.030331615,-0.01588345,0.00747557,0.004033795,0.012557739,0.015372004,-0.06092847,-0.020604106,-0.00049342925,-0.03337865,-0.051456414,0.00044337127,0.052669674,0.016538765,0.039531462,0.048077963,0.03611146,-0.027158752,-0.0602029,0.043507513,0.0057267044,-0.037716787,-0.03190021,0.05530671,0.03550119,0.020947196,0.027957954,0.0025342135,0.025990693,0.0017411408,-0.028955461,0.034182694,0.028586984,0.0225014,-0.0064759487,0.054540914,0.04977485,0.060541634,0.023781965,0.039532233,-0.015254319,0.06020308,0.049875166,-0.024533259,-0.07277746,0.0104416525,0.038909882,0.068532765,-0.037825223,0.031359125,-0.07254761,-0.032455202,-0.012933282,-0.03413301,0.040410805,0.02386231,-0.04675263,0.06883154,-0.001893611,0.030620784,0.057604954,0.034809828,0.0106872935,0.05796391,0.02320568,-0.005476443,-0.020533241,-0.0010905645,-0.02511816,-0.06772327,-0.006184272,-0.02421309,-0.017709898,-0.024256917,-0.05809573,-0.023450417,0.039277494,0.009211992,-0.019293012,-0.009986301,-0.053505413,0.057807755,-0.013471509,-0.010912259,0.028659364,-0.03375422,-0.07173408,-0.018944459,-0.034087673,0.021145826,-0.012643781,0.05478216,-0.012918602,0.041696575,-0.043625187,0.003979924,0.015730353,0.031522144,0.041755497,0.07353869,-0.03392405,0.03563266,0.053228114,0.01540743,0.0447426,-0.0440685,0.03303972,-0.028895818,0.015185131,0.02149253,-0.028559158,0.01976869,0.03666147,0.012688085,0.044827495,-0.04505172,-0.026774792,-0.030331805,0.0027023414,0.04737749,-0.060083684,0.008952599,-0.04076556,0.031684056,0.05048597,0.015300836,0.009573088,0.06824598,-0.041025613,-0.0026253613,-0.04181337,-0.008326765,0.010721385,0.031739466,0.009336574,-0.014024407,0.037265368,0.039074898,-0.06348313,-0.03541819,-0.012550831,0.03116832,-0.006087555,-0.021660678,-0.05782545,0.01745109,0.054725125,0.0063718455
0.046314605,0.007820058,0.051926833,0.008379937,0.03666756,-0.043881834,-0.014784222,0.01376346,-0.03392455,0.00669386,-0.038867388,0.02462711,-0.0050460566,-0.054279078,0.054396547,0.05850778,-0.001644369,-0.016686339,0.012940679,-0.059756264,0.03606087,-0.028941201,-0.019605026,0.008038452,0.006678458,-0.03684542,-0.034960207,0.056125116,-0.031026226,0.016627204,0.029954342,0.003419164,0.030503979,-0.019406106,-0.050275356,-0.016213587,-0.056165203,0.01266071,-0.011660524,-0.02575719,-0.024204941,-0.050237417,0.049372178,-0.0128106885,0.03761026,0.059813093,0.024626723,-0.0041254614,0.061608158,0.0011748638,-0.011475071,0.032687172,-0.0071112546,0.04654253,0.016967777,-0.0283691,0.044192012,-0.02269924,0.01953559,0.031966105,0.057434056,-0.009628946,0.05301214,-0.027158655,0.05731383,-0.010274268,0.027278438,-0.027014917,-0.013575584,0.0037360801,-0.056338556,0.054856587,-0.011564762,0.045851458,-0.03063434,0.04209409,0.0068467353,0.0075080246,0.036374614,0.03605593,0.020214045,0.018276693,0.05960003,-0.059691813,-0.034030613,-0.063799955,-0.014440706,-0.04142069,0.025083797,-0.053621393,0.04975096,-0.06241611,0.04285749,-0.05676674,0.028239885,0.0016163993,0.019801281,0.028590757,0.057670105,-0.016561428,0.021736177,0.043848787,0.007720928,-0.027604077,0.04261449,0.060922917,0.056915257,-0.033909105,0.0048398203,0.04223467,-0.027268453,0.027428381,0.042871032,0.055735964,0.043242984,0.019941023,0.056593522,0.024022046,-0.0047326987,0.00082514726,0.040811446,-0.014420014,-0.023196524,0.05263188,0.042683214,0.0110018905,0.03250592,-0.057663303,-0.0063908095,-0.052566964,-0.01277746,-0.012104029,0.02815357,0.03929061,-0.04029323,-0.026636127,-0.048532777,-0.0069574253,-0.039830722,-0.014084919,-0.04214861,-0.014620727,-0.053046513,-0.048695385,-0.02231532,-0.01013902,-0.042847715,0.022989312,0.012039132,-0.020976178,0.005803308,-0.0260807,0.025539132,-0.034313112,0.0043892898,0.04016439,0.0022446108,-0.011881801,0.033866603,-0.056287296,-0.016053585,0.03534176,-0.0134270545,-0.022366507,0.06029955,-0.039229464,0.026071822,-0.0004521737,0.057406805,0.011803027,-0.037742756,0.016824186,-0.033313554,-0.0058905627,0.024485318,-0.014249541,0.025188435,-0.048630353,-0.043458503,-0.034177788,-0.057734773,-0.02464003,0.048963424,0.05721357,-0.04959899,-0.025853552,0.055952966,0.048797045,0.028891973,-0.035099346,0.032476455,-0.03677126,0.006101003,-0.045083154,0.056553867,0.0038422649,-0.06132714,-0.043198425,0.058721833,0.059731517,0.051710892,-0.0011243594,-0.023303717,0.029465975,-0.049825765,-0.012011178,0.021538427,-0.047350146,-0.032998864,0.04434074,0.040392112,0.035775144,-0.06006693,0.01149682,-0.050565988,0.055697795,0.010303885,0.0391653,0.017034141,-0.009051625,0.023850016,0.031501368,0.042713914,0.056521278,0.031538766,0.015938528,0.047807086,0.03491028,-0.0074243727,0.007693603,-0.01846942,-0.023829108,-0.034238014,-0.0008691493,0.06070339,-0.014521499,-0.027321335,-0.0054586767,0.01621596,-0.030697662,0.025298025,-0.03453667,-0.05998462,0.06190535,-0.06329118,0.0447179,-0.032100625,0.05466547,-0.027698122,-0.0050437297,-0.04831846,-0.051451564,-0.0045224167,-0.028758878,-0.059472084,-0.029504456
0.02262741,0.023534799,-0.0016783476,-0.039061338,0.03880098,0.074396476,-0.030387843,-0.041698575,0.0015413751,0.04249822,0.040523466,-0.03394387,0.035399277,0.03132297,0.0308517,0.019109175,0.03313928,0.018812709,-0.026278576,0.03239469,0.05888408,0.029442487,0.0025621497,-0.067722395,0.047557548,-0.047116965,-0.049891405,0.023165157,0.028252961,-0.0476481,0.0061629107,-0.029847557,0.046120312,-0.051488984,-0.00016429879,-0.0035208254,-0.0063947625,0.03607812,0.015574108,-0.050600808,0.014457329,-0.011587676,-0.02833704,0.06556081,-0.04085778,-0.014310843,0.010695645,-0.0034749738,0.021145782,0.00581917,-0.025400072,-0.05059544,-0.002585799,0.020497328,-0.025737667,0.01634449,0.042205956,-0.0043571545,-0.08064077,-0.037949618,-0.034992907,-0.025028901,-0.057386596,0.0055208546,-0.069736935,0.016188974,0.010458049,-0.053064425,-0.01674159,-0.037821293,-0.030145265,0.03762541,-0.051366575,-0.01172973,-0.062018264,-0.055217877,-0.020391226,0.030138433,-0.03420916,-0.076900296,0.013092853,0.0024228857,-0.026465602,0.028129077,0.009902031,-0.055977304,-0.020479186,-0.04733168,0.015533846,-0.040936776,-0.00619987,-0.014986052,0.046919316,0.0004282414,-0.018013343,-0.029773071,-0.0044352664,0.005473784,0.002308454,-0.016499583,0.011074038,-0.019080294,-0.015987324,-0.027258914,0.032617066,-0.02524941,0.063848786,0.021084264,-0.02525396,0.05247439,0.056669716,0.016823594,-0.0008668523,0.043802228,0.00059292285,0.009158331,0.013684417,0.03677166,-0.054726444,0.045956705,-0.05051418,0.031322878,-0.015881395,0.06337262,-0.04781295,0.065866455,-0.026620308,0.06401088,-0.044446476,-0.04869868,-0.039299928,-0.05312924,0.058460973,0.044534083,-0.0035011547,-0.055950355,-0.06303866,0.037048068,0.0780074,-0.05052248,-0.011839935,0.044179354,-0.04931484,0.02555891,-0.038345627,0.026404737,0.059435584,0.042904977,0.043151002,-0.024378661,-0.054852217,-0.060920015,0.0054518366,0.044461936,0.046255674,-0.04406644,0.015154544,-0.01736671,-0.008369697,-0.059193365,0.05240793,0.002555565,0.052803807,-0.04234597,0.02195512,0.027440738,0.031900767,-0.046216745,-0.004665931,-0.0136914775,-0.027254386,0.008116831,-0.055551343,0.04843669,-0.039203405,0.029795755,-0.010683974,-0.004462772,0.035366036,-0.049896736,-0.04375881,0.018983535,-0.039426416,0.04541553,-0.028136967,0.0140901655,-0.032156717,-0.0641808,0.04655948,0.0048724697,0.064222276,-0.043100543,-0.052193012,-0.003977536,-0.04246107,0.06304428,-0.025553856,-0.08381824,0.054488827,-0.02116656,0.062179662,0.01323059,0.0330954,0.0597246,-0.009624858,-0.055161454,-0.053069554,0.010348245,0.0636679,0.015243991,-0.031136703,-0.016924368,0.007726282,0.05952871,0.05354846,-0.038160477,-0.0630542,0.0060027,0.05224959,0.041821137,0.021542944,0.043535754,-0.051285975,-0.027616227,0.025288465,-0.05219879,0.055622496,-0.03935582,0.06367721,-0.020037338,-0.021773819,-0.05637533,0.0063102636,-0.013825389,-0.0340718,-0.012278929,-0.00921317,-0.011696713,0.02596722,0.070844024,-0.015921524,-0.032078132,0.036146395,0.06863258,0.021337535,-0.03265012,0.045839425,-0.036799405,0.023550818,-0.027011776,0.057070028,0.0028932176,0.060544673,-0.054644037,-0.030257916,-0.055342294
0.05377425,0.031971794,0.052943096,0.0061587603,0.050468143,0.009953501,0.001541152,0.012283557,-0.0008845588,0.04322882,-0.04846674,-0.004429388,0.034815624,-0.0035650718,-0.014158995,0.031658396,0.030737273,-0.013787334,-0.010299469,-0.03584316,-0.024381641,-0.02572949,0.057246376,0.033373263,-0.05384634,-0.012452246,-0.058397282,-0.0023147862,0.03379691,-0.0037571762,-0.013399273,-0.022045372,0.060991846,0.05309007,0.008410336,-0.06255317,-0.038947698,-0.03129234,-0.04143296,0.044971485,-0.0012465995,-0.025308626,-0.027706582,-0.04402541,0.0077001005,0.04061159,0.048160747,-0.02147896,0.037800707,-0.013825993,0.025165651,0.030608758,0.035474543,0.055134494,-0.035420034,-0.027826358,-0.025067268,-0.048481394,-0.03899653,0.0118227,-0.022588283,-0.062592305,-0.0014603887,0.021147868,0.047131784,0.016752644,0.023688678,-0.032190736,-0.052808426,-0.0027524177,-0.0012013406,-0.052165072,0.018481676,0.020389453,0.031451058,-0.022940107,0.012389845,-0.0077571627,-0.025427084,0.047491767,-0.04441716,0.0033564414,0.021532346,0.012716596,0.055157814,-0.048675403,-0.015952544,-0.06117008,-0.051727016,-0.049658477,-0.06277777,0.015198798,-0.047630977,0.0045258403,-0.031996213,-0.06016372,-0.04687868,0.01003527,-0.014907153,0.057064015,-0.023625022,-0.009440115,-0.042963404,-0.051362462,-0.020658666,0.04485884,0.035223752,-0.0038770342,-0.025860114,-0.0198659,-0.05113009,0.025037466,-0.062484294,-0.042017892,0.0058929985,-0.042057183,-0.036001187,0.05125901,0.02846696,0.04955401,-0.019530522,-0.057029787,-0.014535327,-0.048556812,0.043048527,-0.06196399,0.058121756,-0.03833664,-0.025440533,-0.04902081,0.04370583,0.04476056,0.005596132,0.026045447,0.0101833865,-0.0020241428,0.04341018,-0.033937223,0.023788525,-0.055420205,-0.01994268,0.042249724,-0.021904435,0.04757287,0.028385768,-0.009645577,-0.025242474,0.03503575,0.012436657,0.0590113,-0.035077654,0.02406395,0.022801308,0.04757516,-0.0558915,0.0052206367,0.033735316,-0.035870474,-0.002535378,0.012810431,-0.038124323,0.027572598,0.0073144543,-0.04806122,0.027793314,-0.03190458,0.043769468,-0.012726685,0.043598905,-0.051975917,-0.0033561606,-0.01673636,-0.0395215,-0.041011665,-0.038713336,-0.04439026,-0.06081679,-0.049903177,0.02956293,-0.037795328,0.027235605,0.03626684,-0.012503247,-0.0024531689,0.0049767015,0.036089223,-0.022418935,-0.03803237,0.03556819,-0.0329947,-0.020329153,0.0017848501,-0.04262398,-0.035164986,-0.037567247,-0.04384771,-0.055320986,0.017428791,0.03207925,-0.03462369,0.0024052607,0.028735897,0.023235762,-0.055524815,0.05432456,-0.026979376,-0.02734887,-0.057428163,0.029167175,-0.05770349,-0.014146528,-0.026225267,0.002479426,-0.012597866,-0.047102634,-0.036030833,-0.02824254,0.043034837,0.05871812,0.033379123,0.021183865,0.025596984,0.00050294533,-0.012377342,-0.0075360895,-0.022120256,0.05149068,-0.021804538,0.037345435,0.04558788,0.047138914,-0.014394591,0.015361217,0.0053934143,0.03250557,0.04596561,-0.021801814,-0.021659853,0.049894813,0.010870519,-0.00017461987,0.027917836,-0.030774083,0.04685717,-0.044447556,0.019498937,0.031730097,0.048864912,0.0148266945,-0.01824445,-0.05770929,-0.02166428,-0.009514907,0.007508873,-0.020160927,0.012878556
-0.05296682,-0.060613047,0.015700236,-0.04026387,-0.031998176,0.0151114315,-0.036561422,-0.0415567,0.0068358867,-0.015038641,-0.023611223,-0.018240862,-0.020196086,-0.05726129,-0.025668629,0.01558336,0.031443596,0.00284356,-0.027305001,-0.03203409,-0.042158905,0.034721997,0.026969722,-0.050258253,-0.031000068,0.019686464,0.06029653,-0.047783215,-0.03505301,0.00030152043,-0.035680138,0.051707257,-0.048266955,0.02356002,0.050008405,0.03740499,-0.05142951,-0.034370888,0.040213775,0.017572833,-0.018790975,-0.047978472,0.0036598349,-0.021116218,-0.004934206,0.0047536567,0.028869435,0.03130958,-0.036438003,0.05806421,-0.036572184,0.057857476,-0.046712965,0.008167596,0.020076778,-0.030941483,-0.0011616134,0.061264127,-0.05424547,0.003699196,-0.03976718,0.030810114,0.058890652,0.052354526,0.049737334,0.0018017655,0.0027058234,0.048169356,-0.0091284,0.0030444874,0.00858542,0.0450227,0.00056605093,0.019657284,-0.018987073,0.056745093,0.020660466,-0.0116377445,-0.04284336,-0.019766757,-0.018400526,-0.023812074,0.011591795,0.056606404,-0.04678183,-0.048262477,0.045396063,-0.033072956,-0.044418715,0.06138716,0.011637334,-0.030026142,-0.04558553,0.049310766,-0.06046003,-0.017912837,0.0025844849,-0.0435797,0.05128984,-0.013651889,0.016608072,-0.03643654,-0.027099987,0.019009493,-0.0059830975,0.055696268,-0.03992226,0.020658681,-0.054063905,-0.02350482,-0.05823058,0.061259415,-0.053396795,0.0035493216,0.044782035,0.049996756,-0.02303398,0.03509886,-0.009357584,-0.0108638005,-0.014580922,-0.04362716,0.0014835545,0.027960751,0.033465806,-0.031858627,-0.05577516,-0.05781573,-0.008810157,0.035241213,0.05609893,-0.0034845464,-0.0034744805,0.05892792,-0.061748404,-0.05025176,-0.023825666,-0.0045392932,-0.045565523,0.020403843,0.025541404,-0.047193736,-0.028608205,-0.0013200649,0.044855554,0.0022299523,-0.047826234,0.057141438,-0.023223469,0.048554342,0.040946703,0.009751648,-0.044819366,0.01517343,0.021469641,0.048672482,-0.0031939878,0.036069825,-0.061080232,0.061817616,-0.039367743,-0.006177355,-0.05005564,-0.017812675,-0.027624372,-0.0018873618,-0.038274556,-0.060944527,-0.037060842,0.053927805,0.04038041,-0.017905176,0.038318817,-0.0024164065,0.054891877,-0.059261672,-0.052145813,-0.029412549,-0.009150925,0.058482945,-0.03683882,0.054845378,-0.020809824,0.055365343,0.02775013,-0.036990434,-0.032290086,0.01969437,-0.019214468,0.014036884,-0.013447351,-0.03509886,-0.037766468,0.020764042,0.0073045106,0.04375963,-0.05055426,0.014987215,-0.028440533,-0.031275954,-0.055683237,0.047569834,0.02494802,0.057704136,0.0063081277,-0.00077868695,0.016706027,0.03766493,-0.034637116,-0.04657319,0.024211233,0.0104179075,0.035273254,0.05484186,0.024580162,-0.03609326,0.030795636,-0.025465729,0.03791835,0.055804126,0.0576791,-0.024329824,-0.020012347,-0.048913438,-0.0478922,0.0017351406,-0.017846944,-0.018966144,-0.048552558,-0.050473347,-0.04352828,0.058219176,0.018137697,-0.006184432,0.004242962,-0.016142273,0.014345903,-0.04023944,-0.00793163,-0.004361784,-0.05742109,0.011844305,-0.017793402,-0.0047409176,0.038050834,0.011505317,0.032280743,-0.05498035,-0.01437478,-0.003813771,0.013495874,0.043407705,0.018648533,0.045098852,0.061403614,0.028669989
0.050020818,0.009988824,-0.024762474,-0.012286929,0.009281248,-0.024804685,0.049237043,-0.00020209717,-0.03536128,-0.06075962,-0.018528616,-0.0065376144,-0.054808628,-0.045109354,-0.022950817,0.047487374,-0.04592333,-0.0060558408,0.016536312,0.007754089,-0.022508668,-0.038723502,-0.053715162,0.047631696,-0.056519065,-0.040534344,-0.0036557706,-0.006421282,0.059745748,0.040817562,0.03350237,-0.025331331,0.038602345,0.034493484,0.055757422,0.00897907,0.011138582,-0.03586668,-0.05572276,0.05262799,0.02426474,0.04290199,-0.051339377,0.052540287,-0.050334927,-0.025875032,0.051450707,0.025761278,0.031232202,-0.031184675,0.020051433,-0.031012326,0.036649745,-0.045620836,0.056112636,-0.01879415,0.03068872,0.004843552,0.020574966,-0.027516622,0.03536199,-0.04743512,-0.04749762,0.036393333,0.055463426,0.0034283074,0.04642175,-0.020752035,-0.05689559,-0.04999542,-0.034401774,-0.05904236,0.027400631,-0.024224626,0.01988445,-0.004701824,0.058880843,0.015335976,0.02796166,0.02020701,0.055899635,-0.051584758,-0.001291009,-0.01196592,0.03398734,0.001987955,-0.012813166,-0.04934199,0.04731601,-0.05355562,0.0032685322,0.019609742,-0.0057819756,0.017985826,0.051760104,0.0052653467,0.046160612,0.036904052,0.014663212,0.031333804,-0.031335823,-0.0036379097,0.051157754,-0.015300294,0.015770458,0.017676063,-0.00030159418,0.024285529,-0.03860246,-0.052885745,-0.029299708,-0.04550294,-0.050396178,-0.046330724,-0.049505286,0.032350224,0.03660037,-0.031109482,0.045428563,0.05247702,-0.031700425,-0.04415486,0.027967991,0.022363044,-0.053122014,-0.0043546283,0.05247205,0.020569863,-0.0172622,0.006350148,-0.052247103,-0.030416025,0.041225564,0.007957861,0.008651766,0.05421331,-0.03369562,-0.002086122,-0.03410143,-0.015691854,-0.05673609,0.03476617,-0.013755357,0.02358683,-0.058152754,0.0020199926,0.056333777,-0.03903193,-0.022536652,0.021475758,0.03061832,-0.059473395,-0.039762586,0.025040315,-0.005081079,-0.056478657,-0.050679717,0.028011423,6.711384e-05,-0.054210033,-0.013566981,0.035734963,0.056921855,-0.04513638,0.01374666,0.02361149,-0.049116533,-0.013226559,0.03656185,-0.050095037,0.05445115,0.03988007,0.015643207,0.05961088,-0.0013971386,-0.020169713,-0.0393832,-0.055224594,-0.0030314762,0.023320995,0.042625584,-0.035278242,0.006389784,-0.0305297,-0.00027471574,0.0011911752,-0.041283183,-0.03873751,0.015940953,-0.032644335,0.05185909,0.024590347,-0.04107284,0.055327434,0.027614972,0.032655325,0.0024335035,-0.010692834,0.05125184,0.021817015,-0.040930476,-0.02814607,-0.05080906,-0.0524709,0.016512385,0.029850908,-0.04355249,-0.022512099,-0.057240725,0.014086613,-0.022859981,0.03707447,-0.058879748,-0.05963341,-0.016524523,-0.044628035,-0.0039902017,0.061953284,-0.008505286,0.052553855,0.038355812,0.011802231,0.050847672,-0.050830327,-0.019811403,-0.024805887,-0.026504982,-0.00587045,0.0487354,-0.016021809,0.043847185,0.057095617,0.04617284,-0.025727147,0.062968865,0.053416148,-0.012889928,-0.023322385,-0.03953307,-0.050532885,0.012553284,-0.016317813,-0.00030105282,0.05200824,-0.046865672,-0.057375938,0.040359747,-0.0046345885,0.0014817533,-0.04062777,0.00015598722,-0.04645154,0.013806759,-0.03782062,-0.0140191335,0.043134414
