-0.02060647
0.030393442
-0.04447646
0.035902243
0.023512894
-0.12159268
-0.06628377
-0.21482876
-0.12742415
0.08813075
0.00011665158
-0.07776388
-0.08819539
-0.002859939
-0.05992093
-0.18804543
-0.30795243
0.023764482
0.07282355
-0.04927048
-0.0040910356
-0.07513656
-0.037797015
-0.03282896
-0.03531844
-0.001549413
-0.11208471
-0.08655578
-0.04916066
-0.005141406
-0.10283065
0.014293084
-0.26599464
0.035299722
-0.0067005446
-0.165224
-0.074379504
-0.11408289
-0.044226937
-0.11110468
-0.10855955
-0.2055778
-0.14129728
0.013371934
-0.06662477
-0.058388118
-0.01736555
0.12245969
0.0133240335
-0.3379247
-0.06648016
-0.19630882
-0.03758221
-0.043755658
0.057020333
-0.022868363
-0.074238494
-0.027936563
-0.022403223
-0.0018229858
-0.063583426
-0.16665822
-0.22031406
-0.04448008
0.13616027
-0.066143036
-0.12016563
-0.1660606
-0.039112546
-0.13205579
-0.18089403
-0.07851691
-0.019094981
-0.0338113
0.05293244
-0.010867053
-0.07518373
-0.0534664
0.034358256
-0.1581881
-0.2664422
0.058007658
-0.14456719
-0.06094808
-0.09013847
0.23859729
0.026483383
-0.037598405
0.02891366
-0.1224388
0.042493224
-0.035294406
0.018004296
-0.14922762
0.06967329
0.030613048
-0.09714113
-0.21841705
-0.025276735
-0.08125553
-0.17806168
-0.12469093
-0.11857577
-0.09218849
-0.06265765
-0.11167932
-0.043105323
-0.047416
0.014311545
0.012022787
0.024905678
-0.0804248
-0.091292374
0.093559906
-0.047922876
0.026136002
-0.200869
-0.10609905
-0.017914966
-0.09009126
-0.028881133
0.026570167
0.028447773
0.013517226
-0.024285449
-0.001104813
-0.15590596
0.04481354
-0.0848799
-0.14249554
-0.059587613
-0.03546988
-0.14609233
-0.09557381
0.14926979
-0.108677976
-0.060739893
-0.13272436
-0.11046293
-0.09520622
-0.08378556
-0.11374018
-0.093064174
-0.022590829
-0.009483862
-0.013975256
0.005621659
-0.06960652
-0.078701995
-0.03665767
0.018515322
-0.11798995
-0.110836945
0.03916229
0.06307751
-0.026103146
-0.1669026
-0.12915255
-0.10672876
0.011871267
-0.02396378
-0.10117231
0.008350022
-0.2516751
0.06320749
0.081606284
0.018737864
0.012091572
-0.031880997
-0.03903076
-0.07438084
-0.116488226
-0.1513563
0.020101685
-0.20405707
0.028567282
-0.11819457
-0.1719465
-0.08234111
0.14142631
0.011191854
0.014923806
-0.032170866
-0.08840491
-0.107574284
0.020397121
-0.03304498
0.053086143
0.04734829
-0.012777718
-0.056735717
0.0004163792
-0.11400449
-0.38230628
-0.009729828
0.014703696
-0.14591302
-0.006115687
-0.18745889
-0.035266593
-0.032045826
-0.08170873
-0.11760068
0.028034355
-0.07951192
-0.365977
-0.1119606
0.04556973
-0.2523003
-0.046844687
0.0007110927
0.017037762
-0.004922287
0.008919976
-0.05887763
-0.11209147
-0.11681091
-0.23858844
-0.07872373
-0.114972435
0.037869707
0.008472823
-0.021745631
-0.12644841
0.040771145
-0.06176557
0.09588463
-0.040083047
-0.23814756
-0.0004898138
-0.26024696
-0.24031176
-0.28561026
-0.024357062
-0.12346037
-0.07771515
-0.05109817
0.028064609
-0.023918932
0.085511774
-0.1953709
-0.07950423
-0.10030269
-0.036703
-0.052834146
-0.14518666
-0.013707367
-0.08655458
0.016235527
-0.15922448
-0.12787731
0.038514987
-0.09435475
-0.17387722
-0.041502673
-0.15350226
0.0044995677
-0.088098854
0.033997636
0.1165285
0.022920474
-0.08993696
0.14270043
-0.07460583
-0.14021224
-0.34798202
-0.07242073
-0.042558033
-0.037660256
-0.07957905
-0.4024658
0.042951774
-0.05656035
-0.087098695
-0.047715787
-0.052430253
0.0031834205
-0.22544736
-0.23965856
0.016047465
-0.06102598
-0.15937895
-0.01594382
-0.024730934
-0.05966395
-0.006668116
-0.12015951
-0.18146497
-0.111408055
-0.3617399
-0.06140246
-0.26149288
-0.10506285
-0.2039891
-0.016920296
0.09737852
0.052435488
-0.07729938
-0.0834069
-0.13442172
0.01806815
-0.051558588
-0.13395058
-0.10912121
-0.074294806
0.024302244
-0.13881247
-0.116327815
-0.0057880036
-0.03862607
-0.09269152
0.022809012
-0.09271086
-0.13693398
-0.18281889
-0.039145563
-0.01210834
0.066264614
-0.03536504
0.01492593
-0.06987185
0.02777472
0.072674714
-0.059670094
0.011508907
-0.15355244
-0.051936146
0.019064229
-0.051969394
-0.0321109
-0.050125018
-0.06718882
-0.11376901
-0.05336538
-0.034396138
-0.004685072
-0.07413213
-0.1278518
-0.13739474
0.0039317994
-0.010271326
-0.023329994
-0.14632116
-0.08418072
-0.0029050624
-0.02770615
0.041670516
-0.22140248
-0.036236256
-0.0775016
-0.034689356
-0.21098904
-0.040426563
-0.013109738
-0.028609503
-0.15150459
0.078388244
-0.023656318
-0.11867574
-0.10961172
-0.1943133
0.020953266
-0.038657468
-0.16323145
-0.061719343
-0.07395766
-0.10413966
-0.0030542985
-0.25334528
-0.047794033
-0.027491901
-0.009340247
-0.02745797
0.010057901
-0.009016259
-0.07168095
0.0019425501
0.15032813
-0.025462573
-0.17082559
-0.085381284
-0.13171564
0.082083814
0.014142722
-0.09704256
0.04956245
-0.18701579
-0.015069062
0.07347641
-0.12416642
-0.09705358
-0.045896348
-0.041568827
-0.14262079
-0.05515129
-0.009984712
-0.108014934
-0.043614384
-0.00782429
-0.18002054
-0.08887571
-0.13680214
-0.18871772
0.06811924
-0.20131691
-0.068551235
-0.14095096
-0.07540954
-0.038161904
0.11713669
-0.03120775
-0.0042221216
0.040667087
-0.10015894
-0.041670095
0.040106177
0.23104556
-0.13176128
-0.26162994
-0.05582957
-0.15330659
-0.0017299629
-0.05442522
-0.03625752
0.0119891
-0.089139946
-0.3591596
-0.04239425
-0.07689629
0.015730612
-0.03994784
-0.09431184
0.01878988
-0.011377214
-0.008290261
0.07776985
0.040387627
-0.17259984
0.065874375
-0.054838065
-0.13630842
-0.073880635
-0.016990468
-0.12240623
0.00018237728
-0.061985135
-0.059717145
-0.08970363
-0.18212852
0.080083214
-0.23252067
-0.013580602
-0.27126184
-0.05433926
-0.011575331
-0.044407055
-0.21446638
-0.07649693
-0.093879595
-0.00841084
-0.134063
-0.1487681
0.07000993
-0.02965946
-0.31253043
-0.028830472
-0.02658504
0.021565164
-0.11959853
-0.09231201
-0.26300892
-0.054829236
-0.10641701
0.2811844
-0.09013046
0.023246
-0.096612774
-0.012047393
-0.1038749
0.01623235
-0.07556091
-0.0060733063
-0.013117014
-0.02953991
-0.118645065
-0.16341572
-0.15744819
-0.2658097
0.050771687
-0.013640709
-0.19127761
-0.0826471
0.015636235
-0.022043034
-0.101623915
-0.075084046
-0.2871223
0.06838313
0.0365003
-0.08644031
-0.09367451
-0.16902217
-0.010239122
-0.16987176
-0.10975403
-0.119840585
-0.14854985
-0.11340571
-0.04178853
0.036108345
-0.112677
-0.065591894
0.15731178
-0.046446502
-0.09998428
-0.059374362
0.15311487
-0.20138381
-0.060956307
-0.17611669
-0.015432311
-0.056886088
-0.05219208
0.051337983
-0.09456962
0.027712094
-0.021460999
0.016944055
-0.028327102
-0.49691138
-0.052475356
0.07348601
0.14942385
-0.008043612
-0.13206989
-0.08198623
-0.14957066
-0.025666626
-0.13786513
-0.15847947
-0.014129814
-0.011601808
-0.11318655
-0.11499767
-0.1569705
-0.08630092
-0.04104096
-0.054388806
-0.12817976
-0.030103143
-0.045061413
-0.13629411
-0.07309178
-0.08751904
-0.07416944
-0.05798361
-0.010785096
-0.33811325
-0.0064784028
-0.11188272
-0.12976526
-0.09472326
-0.053453155
-0.13470115
-0.2100114
-0.040060095
-0.13033776
-0.0369234
0.016656047
-0.06028597
-0.32569495
-0.2839864
-0.025859775
-0.06815776
-0.12511118
-0.14641795
-0.12856124
-0.043279078
-0.014631598
-0.024426676
-0.076098405
0.0580654
-0.19216426
-0.19472343
-0.0335008
-0.039417796
-0.033894815
-0.032458324
-0.072145455
-0.16705273
-0.033795398
0.06500998
-0.013938534
-0.13234797
-0.03184499
-0.010010358
-0.05327402
-0.040942855
0.04756201
-0.05095192
-0.14356667
0.05870643
-0.05618016
-0.13870402
-0.17852324
-0.026353462
-0.055802226
-0.043205865
-0.108286366
-0.13931951
-0.10435216
-0.026446395
-0.10144606
0.056922805
-0.06288953
-0.10531059
-0.1998809
-0.23590234
-0.31991705
-0.18275471
-0.13375087
-0.1040726
-0.12046617
0.060108446
-0.18278453
-0.10441329
0.041960202
-0.10592621
-0.10883594
-0.04743731
-0.09801093
-0.19874239
0.0522995
-0.13148686
-0.033318333
-0.03848861
-0.05964663
0.09535809
0.044407535
-0.030737463
-0.17826456
-0.041334923
-0.023398748
-0.082917854
-0.3215146
-0.00044400632
-0.13557173
-0.16829804
-0.101654015
-0.06435036
-0.09512695
0.08695891
-0.1925743
0.025026323
-0.12787001
0.03797408
-0.0799253
-0.28337574
-0.082488306
-0.090515465
-0.081784405
0.07592914
-0.024752058
-0.063383065
-0.17341085
-0.11432672
-0.007014446
-0.039730348
-0.08182611
-0.07612112
-0.07789585
-0.0419704
-0.050853346
0.0038718383
-0.22620012
-0.03842644
0.053562153
-0.055352453
0.19030765
-0.21123801
-0.033127017
0.029177332
0.014803029
-0.06986608
-0.11983642
-0.044487644
-0.06224771
-0.048092116
0.00010173939
-0.10937727
0.04499624
-0.07025753
-0.008439209
-0.09734825
-0.052065853
0.018044384
0.062428262
-0.09856551
-0.061297104
-0.32498962
-0.09049088
-0.0051235063
-0.04906988
-0.30929822
0.03987791
-0.031717144
-0.06724197
0.029937074
0.011077634
-0.14376292
0.05584003
-0.24090621
-0.05040055
-0.22166672
0.064611234
-0.005862336
0.0066122985
-0.038892653
-0.13871187
-0.08846021
-0.092938565
-0.09869927
-0.067453586
0.07102591
0.04334568
-0.11882443
-0.263337
-0.060210586
0.053256623
-0.12855771
0.059063125
-0.14971112
-0.104757324
-0.13134186
-0.058948386
0.037560362
-0.022570508
-0.060300272
-0.186644
-0.06748495
-0.019885598
-0.26031417
-0.05922117
0.00652264
-0.0036726235
-0.11007974
-0.09969837
-0.041908994
-0.04056882
-0.16997698
-0.08913942
-0.017154898
0.12863836
-0.120860346
-0.16965754
-0.122716755
-0.05358072
-0.09075842
0.02526526
0.010256621
0.04425132
-0.053733446
-0.082612894
-0.28161195
-0.071748145
0.05765349
-0.064331114
0.0057887435
