-1.1709563,0.06279001,0.39500713,-0.029620344,1.1669668,0.25573206,-0.89844185,-0.7349154,-0.001708918,-1.2105217,0.9277752,-0.020693058,0.035840034,-0.81489295,-0.09246792,-1.1113044,0.41286245,-0.6788152,0.036814023,-0.07865775,-1.0189545,-1.0449457,0.024309414,-0.57102454,-0.38831502,0.46452308,0.1886292,-0.046592277,0.20903292,0.045773253,0.055124328,-0.08025188,1.5466712,-1.4383432,-0.054104336,-0.7959232,1.0622057,0.59659123,-0.082310736,-0.008277563,-0.6235198,0.04288026,-0.05988043,0.7486247,1.6862968,-0.024946827,-0.086774364,-0.44322985,0.81355435,0.3030752,0.21089484,0.059560068,0.059957907,0.7023493,-0.43371046,-0.18197978,0.9048877,-0.7691806,-0.0047274577,-0.42505682,0.094117284,-0.7398801,0.29436812,-1.2444214,-0.850575,-0.037982453,-0.055693056,0.7826277,1.0734895,-0.8082815,1.2575192,0.7139229,0.00010929935,-0.50795317,-0.37864587,-0.6703874,0.026044628,-0.35597715,-0.71919614,1.1352344,0.030718341,-0.24470115,0.08646635,0.031320248,-0.0036861177,0.12206388,0.12133514,0.08601501,1.307524,0.64142877,-0.073417015,-1.2668986,-0.4634552,-1.1242414,-1.4878747,0.111387305,-1.0358967,-0.047523662,-0.48551714,-0.08679296,0.7208907,-0.018331653,-0.5767113,0.51407206,0.05065985,-0.08798801,0.09115928,-0.5806976,0.13674039,0.02638081,0.7721552,-0.05626151,-0.03471727,2.055364,0.04917221,-0.63814086,-0.5952872,0.0008410522,0.0657889,1.7479198,0.0007365421,-1.0386133,-1.3493356,-0.07874687,-0.5848919,0.9926325,-0.084987104,-0.025404325
