-0.06340175,0.0009589612,-0.0071892724,-0.0113825975,-0.097828604,0.017723402,0.004762327,-0.034409277,-0.061515614,-0.070518635,0.0301537,-0.035399977,-0.09806607,-0.05684751,-0.07553922,-0.012883715,-0.021187214,-0.0625266,-0.028000472,-0.008499688,-0.05638287,-0.006191554,0.064225085,-0.04458953,0.13210188,-0.14907365,0.03638589,-0.005110304,-0.12952599,-0.029526867,-0.11077215,0.010122598,-0.038373694,0.03210278,-0.0819101,0.050377786,-0.0757483,0.054188512,0.10831972,-0.059133742,-0.023970474,0.07205402,0.015083637,0.0017385851,0.008303802,0.04016422,0.042382997,0.06909035,-0.008803367,0.031835213,0.003686467,-0.056522064,-0.015590688,0.029459188,-0.13128695,-0.043155033,0.04036772,-0.0037844197,0.05067452,0.018747881,-0.09159852,0.06470668,0.14787713,0.003690918,-0.0866532,0.007373194,0.030756965,-0.03576254,0.021100992,0.056319173,-0.02059312,-0.021302842,0.0073413854,0.02760942,0.08084798,0.037321508,-0.028944617,0.07289817,-0.046029527,0.04453551,-0.09835892,-0.0031885037,0.043217387,-0.04521439,-0.030352315,-0.043909613,-0.0411753,-0.025105214,0.052778624,0.021693619,-0.02173507,0.1027697,0.02243638,-0.0021690102,0.058259126,0.06116377,-0.008923708,0.039001193,-0.025750507,-0.016305016,0.0007162418,0.014274623,-0.02459673,-0.0272561,0.04315893,-0.013915425,-0.05671984,-0.04601522,0.06194873,-0.054447103,0.028547063,-0.075736485,-0.060776506,0.017828971,-0.011424411,-0.07813054,0.026171474,0.022505064,0.03390862,0.033385936,-0.024946386,-0.19899116,-0.05900103,0.04525003,-0.047364462,0.011381991,-0.09247924,-0.022176769,0.07805688,0.0024038753,0.04680074,-0.057362106,-0.011846701,0.07301571,0.049339443,0.022491837,0.042735968,0.005910494,-0.037534766,0.07004351,0.010222585,-0.024847427,-0.07514435,-0.013702956,-0.056536924,-0.054405823,0.013083276,0.060745757,0.047029346,0.027463863,0.03897314,-0.011521262,0.008809952,0.11796381,0.054021522,-0.049599055,-0.013378488,0.043795016,0.0045148768,-0.0844888,0.07909155,-0.029520262,-0.028451063,-0.021059945,-0.08008239,0.11884646,0.042243,0.032455552,-0.032283477,-0.038197696,0.044185814,-0.079002336,-0.09013929,0.10523849,-0.05993548,-0.050791036,0.0785125,-0.010813636,-0.11790356,-0.03897028,-0.0075018853,-0.008636993,-0.060579605,0.013577441,0.009038557,0.06532924,0.058378976,0.15422386,0.01579571,0.01750945,-0.07399884,-0.036280632,0.0074423747,-0.015716054,0.08549277,0.052454457,0.02096974,-0.019560711,-0.04932895,-0.05098691,0.016559958,0.035028066,0.03798444,-0.010392904,-0.03817443,0.00022681533,-0.0049633496,0.06122803,0.0029042498,-0.020645998,0.013036072,-0.1011947,-0.0036070326,0.041472435,0.045465216,-0.025524998,-0.0095517645,0.109979376,0.05347213,0.004752124,-0.04200974,0.030007709,-0.08871921,-0.029388322,0.0062374864,0.07044159,-0.049923316,-0.015131707,0.007855978,-0.11360631,0.04114729,-0.039123032,-0.04074722,0.008630684,0.051451083,-0.016904356,0.1055399,-0.0012840608,-0.09249428,0.08325747,0.013076077,-0.13232434,-0.026843058,-0.058419686,0.013098815,-0.0070994287,-0.03166469,-0.0073932055,0.036051083,0.0551063,0.08288285,0.076503485,0.01097139,0.00277813,0.017787071,-0.11127671,0.15273985,0.032355454,0.027973868,-0.04675737,0.062903315,-0.011891384,0.014924601,0.0027385666,0.039359234,-0.031559814,0.0119835865,0.049389277,-0.012143773,-0.008412623,0.0031147976,0.024901537,0.05634121,-0.029294224,0.014533342,0.024064686,-0.05837971,0.006217452,-0.112664804,-0.02314179,-0.023498118,0.02050903,-0.008011014,-0.030728955,-0.017072104,0.07772166,0.06146191,0.13794371,-0.0134159,0.0012905266,-0.0964567,-0.011503091,0.003938034,-0.009742299,0.0400028,0.02346637,0.022644691,-0.06284341,-0.028224112,-0.030448053,0.008056344,-0.00096389273,0.049210526,-0.017855434,0.016097974,0.04989221,-0.019695148,-0.022293592,0.08181955,0.026272107,0.07682931,-0.04424855,-0.05765707,0.021338325,0.047196086,-0.028913809,-0.019613784,0.028003406,0.052790523,0.021409413,0.04018713,0.029330613,-0.05910727,0.06708489,-0.008856595,-0.1440531,-0.028924527,0.08667009,-0.0731551,-0.04432059,-0.025733855,-0.04103422,-0.066264465,0.023278112,-0.035746347,-0.02947659,0.0044207573,0.03501742,-0.043940578,-0.09330314,-0.022017013,0.00055567984,0.0010863121,-0.03466424,0.017491298,0.03708095,-0.1003799,-0.006559146,-0.0016568404,-0.032079868,-0.02914726,0.0063062604,0.0873788,0.051217947,-0.001853602,-0.018035335,-0.04531961,0.04334065,-0.10611909,-0.02178643,-0.015595573,0.008192836,-0.014975178,-0.10384583,-0.007574472,0.018067708,0.061700206,0.016983135,0.028052323,-0.0540762,0.0018398892,0.037143916,-0.07461573,0.057200074,0.06660026,0.00037863938,0.031749785,0.003528086,0.0018399457,-0.12034142,0.0129980445,0.03499445,-0.060858265,0.045864023,-0.16855071,0.07408831,-0.05919459,0.031747833,0.061278254,-0.10204501,-0.117369875,0.076227024,-0.036016047,0.0063053216,0.07531675,-0.02256238,-0.1533292,-0.036192607,-0.06357186,-0.06543944,0.037741784,0.01681008,-0.078936026,-0.11710208,0.07823349,-0.016784338,0.11679632,-0.09136024,-0.023133643,0.06659436,-0.012387919,-0.023578355,0.048327852,-0.031517725,0.012615521,-0.09435838,-0.021438416,-0.0585246,-0.013856727,0.055731077,-0.017671313,0.019375876,0.041445114,0.03798393,-0.012882161,-0.034485962,0.07357125,-0.0067469017,-0.067347005,-0.039739158,0.015146413,0.043932468,-0.09059303,0.009701197,0.042388164,-0.06990784,-0.11727033,0.010243842,0.036945518,0.0047397367,-0.028668845,0.01432593,-0.13234113,0.002068255,-0.020126227,0.011553789,0.004591804,-0.011041927,-0.0176671,0.05734798,0.01804085,0.050198704,-0.054034326,-0.17304355,0.10778755,-0.042973597,0.029733922,-0.037010092,-0.022443576,-0.093487665,0.038750064,-0.071939714,0.10532052,-0.0052777273,0.074932046,-0.020478742,-0.05854966,-0.014269592,-0.11798958,-0.047407977,0.043721255,0.041299682,-0.07540585,-0.008272817,0.0060759853,0.059475686,0.08478812,0.018880418,0.05273813,-0.035138905,-0.028264012,-0.0055728755,0.008005194,-0.04569691,0.03696397,-0.06767588,-0.037942935,-0.009213813,0.05140191,0.02912543,-0.01134844,-0.03647492,-0.022150671,0.059072826,0.027741272,0.026443392,0.039968256,0.0047578835,0.025236836,0.08895704,-0.09674876,-0.008743832,0.039095823,-0.005234786,0.04752725,0.01616933,0.009348977,-0.062062893,0.060443245,-0.03553104,0.054448053,0.038317814,-0.05791201,-0.03258389,-0.07553625,0.060767762,0.041266955,0.038746167,-0.14326376,0.0039123306,-0.044621564,-0.07939202,0.079943806,-0.028509157,0.027685089,0.0058503444,-0.031572126,-0.03050238,0.027872374,0.011082698,0.05077861,0.013858196,-0.00809445,-0.014092804,0.09479197,-0.030262677,0.017391969,-0.048120964,0.015951226,-0.001999608,0.06649094,0.14102584,-0.035187192,0.03535297,0.036245722,-0.03375363,-0.026597569,-0.07334811,-0.0026228928,0.06609964,-0.051353425,0.07947535,0.03168538,0.03786343,-0.013466189,0.014732709,-0.040836547,-0.0002644909,0.054502483,-0.025464788,-0.06292392,0.047288515,-0.08164731,0.06920695,0.009892388,-0.009461356,0.0496211,0.04148901,-0.055856433,-0.03796312,-0.06452989,-0.090268366,0.048810266,-0.06115694,-0.00075466244,-0.030787889,-0.02199123,0.061993413,0.10427809,0.054112345,0.06512084,0.030661356,0.04339647,0.09986697,0.044379503,0.06703784,-0.023863265,0.042286623,0.03736219,-0.009743761,0.056493666,-0.04134096,-0.12380593,0.014369561,-0.051194787,-0.17165786,0.0004352914,0.0113940835,-0.027209261,-0.02725431,0.029301535,-0.07309941,0.019485665,-0.03557853,0.019312982,-0.072724424,-0.06891425,0.050099637,-0.088134564,0.03372204,0.086017944,-0.03380857,0.0071660005,-0.014787634,0.011138977,-0.009637231,0.0074367644,-0.11116482,-0.02467054,-0.13894758,-0.011901097,-0.032404806,-0.011466924,0.023750216,0.016669378,-0.011635164,0.024653029,-0.036984596,-0.019359421,0.079671346,-0.023018252,0.007106459,0.035833422,0.03334277,0.055660374,0.07646079,0.01928433,0.024827816,-0.004028401,-0.1568727,0.00785601,0.015297597,0.0967479,-0.004751546,-0.096951395,-0.018701907,0.042171348,-0.044054173,0.08793381,-0.014302481,-0.0835645,-0.009053929,0.069478445,0.016757086,0.12905958,-0.040931564,0.07992813,-0.020544766,-0.12530376,0.03715612,-0.07786565,0.018674312,-0.022727944,0.05934436,-0.018481206,0.014825172,-0.05579444,0.056466855,0.020506373,0.04199545,0.06583154,0.09249954,-0.03552785,0.031449217,0.008267069,0.036346857,0.022224234,0.015629958,-0.031558163,0.00037244248,0.08164844,0.07054512,-0.033127576,0.13228968,0.055625554,0.0051932856,-0.021169046,-0.06285577,-0.022217311,0.0072122277,-0.1400992,0.0039982456,0.084562704,-0.15907587,0.040472083,-0.036110327,0.0538367,-0.094862446,0.014531098,-0.0007078613,0.016028894,-0.023300909,0.023719793,-0.0027444533,0.01325304,0.04869825,-0.00042284068,0.016000923,-0.052075695,0.08775618,-0.0013670119,0.06275573,0.023722995,-0.06892429,-0.010796011,-0.010893874,-0.049736977,-0.0014329972,-0.0043773926,-0.04253771,0.0063539227,-0.029660856,-0.03364715,-0.060289,-0.025081227,0.019910034,-0.030384367,-0.043939814,0.06395727,-0.11386165,0.028954817,-0.0033069947,-0.093610674,-0.14073968,0.023076441,0.012209989,0.027725363,0.006590589,0.02442401,0.04298267,0.0588358,-0.104935244,-0.02124212,0.0505144,0.006603586,-0.059025735,-0.013345947,-0.095439784,-0.035957396,-0.045597102,-0.055996377,-0.04533194,-0.07575541,-0.11672442,-0.038486194,-0.03421731,0.108736254,-0.009199621,-0.049731065,0.023516418,0.042494584,-0.012874458,0.02735477,-0.01550669,0.025792126,-0.031213555,0.026040018,0.04333173
0.06961713,-0.034890722,-0.032172684,0.03611637,-0.19350614,0.014712319,-0.07616005,0.033509817,-0.015865494,0.057596393,-0.01605588,0.010938427,0.014445291,-0.044378083,-0.050006155,-0.022135688,-0.13672507,0.08515176,0.09914986,-0.04147059,0.058864653,-0.09912213,-0.1351528,0.020691225,-0.036432844,-0.036857188,0.10401889,-0.020932136,0.06361108,0.1072509,-0.0065337433,0.02376824,-0.039053585,-0.049072202,-0.019884588,0.011452956,0.08450124,0.068844244,0.0421348,-0.04939158,0.05189613,-0.009858019,-0.0071059386,0.11667491,-0.10822881,-0.17115705,-0.06387426,-0.008978913,-0.08906109,0.07226347,-0.030202143,0.039574657,0.05228075,0.0652374,-0.059471425,-0.068271436,-0.06366763,-0.029630702,-0.061896283,0.078930885,0.019836288,0.05531269,-0.041802436,0.11360987,-0.07507295,0.005692077,0.0979608,0.07694757,0.076218106,0.017756063,0.08138312,-0.027968569,0.016728707,-0.05165013,-0.14938705,0.008461447,-0.03798317,0.055458833,-0.123606265,-0.010296356,-0.07586373,0.05908506,0.056779172,0.022026,-0.0326008,-0.05725367,0.016334388,0.04859896,-0.0094092935,-0.0032149935,-0.013836406,0.020683194,-0.10688256,-0.021075306,0.044320997,0.04091521,0.021109598,-0.03236654,-0.00560384,0.08046267,0.063794374,0.018546611,-0.061263993,-0.10635688,0.02036834,-0.03467464,-0.008299111,-0.054849144,0.002002179,0.07900465,0.0767006,-0.101114675,0.1781643,-0.06671343,0.035537817,0.041554656,0.025071796,0.025609998,-0.05921348,0.083556235,-0.0037429086,0.028377032,-0.17851424,0.11992621,-0.06539647,-0.051125355,-0.032744657,-0.05006887,0.080203675,0.09709264,0.012237053,0.11499606,0.023462063,-0.054037012,0.075168446,-0.033426516,0.116358586,-0.012712013,-0.060277298,-0.2145034,-0.12349607,-0.09916545,0.02958098,-0.13056181,0.047116686,0.021356924,0.059779756,0.112572126,0.022247847,-0.09128103,-0.031784724,0.066662446,-0.0088040205,-0.020422842,-0.016172178,0.13786572,-0.04625434,-0.0010082064,0.046497244,0.010426604,-0.0073322323,-0.10295001,-0.028209742,-0.008803713,0.056727145,0.057169385,-0.025541559,-0.016480269,0.015123449,0.04344745,0.09500676,0.042080075,-0.11169017,0.067790225,0.06092395,0.014284323,-0.007698063,0.042905666,-0.027611408,-0.02152965,-0.02533634,0.03265787,-0.03842807,0.050758824,0.11619537,0.042212326,-0.027606562,-0.02502068,-0.08100931,-0.005027677,0.082299486,-0.06393217,0.05706589,0.055047464,0.082237475,0.0752555,-0.01787378,0.02866021,0.033590294,0.018502874,-0.07067366,0.1279811,0.09051943,-0.13734528,0.0039297463,-0.10678849,0.06850235,0.012425892,0.037361145,0.021513456,0.17414434,1.618723e-05,-0.010209384,0.14025128,-0.032431316,-0.020921135,-0.0575596,-0.03265182,0.045081563,0.00018039654,0.05291286,0.1042335,0.053806774,-0.0710718,-0.076994576,0.16655791,0.084490545,0.020064007,0.11598794,-0.04547325,-0.057989877,-0.061967645,0.065332964,0.088068716,-0.08040241,0.07838905,0.12521866,0.00836202,0.017495468,0.11919162,-0.0061845095,0.03526049,-0.12748678,0.018003289,0.113268115,0.032930523,-0.10424087,0.059980355,0.046422306,-0.03667977,-0.059522334,0.1100885,0.008472407,0.03761683,0.08128385,0.030471154,0.04190724,0.10688884,-0.0064868415,-0.025426362,-0.0098806955,0.023472823,0.07122354,-0.06294754,0.04044169,0.061203875,0.018406257,0.07136503,-0.01690234,-0.01843593,-0.032716542,0.06927784,-0.032078527,0.017674003,0.060281783,0.072390236,-0.008527889,0.013829184,-0.03940824,-0.060744025,-0.0029153922,-0.08303107,0.0983155,-0.072856106,-0.010650804,-0.098125994,0.016139021,-0.01687612,-0.107502334,0.022440195,-0.01353148,-0.008471936,-0.05381623,0.03184101,0.021335296,-0.051538188,-0.058049705,0.056060992,0.07309333,-0.052140832,-0.09321239,0.03436473,0.090271086,0.03844991,-0.077117376,0.06570965,0.0706256,-0.05795219,0.013036775,-0.044254236,0.0123630855,-0.03730375,-0.09504389,0.042045597,0.07923875,0.09927338,0.032240346,0.053378902,0.10883712,-0.07969414,-0.0807543,-0.028198462,-0.07079446,-0.031384796,0.010849186,0.051687423,0.0060210153,-0.035082493,0.11969057,-0.12583187,0.111523785,0.027033206,0.059057,0.09088638,-0.005548407,-0.0138269225,-0.03994146,-0.044495378,0.089807786,-0.15123329,0.072880514,0.10406568,-0.091047645,0.032885335,-0.03615542,-0.22832997,0.05866951,-0.039485034,0.039428655,0.030753242,-0.007612226,-0.07213228,-0.006920203,-0.0046394537,-0.021447485,0.043132864,0.13087651,0.10138493,0.05455406,-0.07150119,0.024670208,-0.011561856,-0.06431035,-0.086668044,0.0370461,0.07468272,0.098339416,0.004611776,-0.043087747,0.011231181,-0.0068748146,-0.018472714,-0.016949708,-0.083435185,-0.07529712,0.02634969,0.0380701,0.005042755,0.030838199,0.027557382,-0.038847122,0.07556247,0.03161613,0.016721575,-0.045613453,-0.029280078,0.014061194,-0.010660762,0.04109738,-0.05737252,-0.124206595,0.07742123,0.060786303,0.107757345,-0.060260136,0.08293775,0.001703363,-0.099370666,-0.03777154,-0.11869629,0.056870714,0.073517784,0.048708845,0.11282205,0.04793952,-0.05633246,0.05662603,-0.04945996,-0.009188266,0.06801978,-0.047552805,0.047020365,-0.03644252,-0.016123679,0.037322827,-0.045432135,-0.0126624275,0.03335048,-0.0066956794,0.005688661,0.033121012,-0.11346306,0.036965016,0.06544297,-0.0018342268,0.061453596,-0.010182779,-0.067294456,0.060973637,-0.00010415157,0.011971161,0.0022065707,-0.075999334,-0.10034263,0.06587618,-0.066901594,0.041430864,0.07828887,0.014620524,0.055621687,-0.07223628,-0.037936036,0.051816568,0.033194423,0.014631879,0.07713752,-0.046132226,0.040202517,0.017305478,-0.08283478,-0.028188085,-0.0024201071,0.07332606,-0.13834341,-0.05007171,0.05256415,-0.0036984368,0.052494254,0.066311456,0.1994063,0.06430174,0.03531252,-0.029723233,-0.06274087,-0.14557514,-0.066486835,0.04792614,-0.090705715,-0.0847695,0.05878895,0.05786539,-0.0746778,0.023663886,0.012119499,0.0070419726,0.063071005,0.01039209,0.032607842,-0.01809638,0.0055655795,-0.008835765,-0.14367755,-0.04638987,0.018867401,-0.003816424,0.2666198,0.010304441,-0.024915695,0.040039986,0.027739411,-0.06903361,0.023436842,0.014588885,-0.008582472,-0.029330358,0.13085394,-0.0167484,0.018878946,0.0024910527,0.03629939,-0.038004376,0.038759436,0.040817242,-0.037719153,0.02963324,-0.0065415916,0.06174145,-0.06969181,0.022709487,-0.060356066,-0.026955878,-0.057127997,0.023336528,0.03235911,0.04392613,-0.04044359,-0.06572681,-0.00020131873,0.0317942,0.04130355,-0.0019926692,-0.0962021,0.043165136,0.052499976,0.03889306,0.008744652,0.051600993,-0.019277794,0.046460737,-0.04291876,0.003933064,0.030375915,0.002863829,-0.0054919557,0.0038423808,0.0161809,-0.0015596527,-0.11039103,0.01611633,0.06869162,-0.0068413652,-0.20893008,0.024042206,0.033356015,0.016099127,-0.056912154,-0.020295663,0.0837251,0.060646437,-0.080619015,0.012145824,-0.022349423,0.16047259,-0.0103747295,0.020680306,0.020809432,-0.047467478,0.10150176,0.050346326,0.08804126,0.0146211805,0.07306949,-0.11772807,0.070490986,0.038291756,0.043563392,0.03436979,0.19203769,0.11007968,-0.05424274,0.055491198,0.16552322,-0.03391356,0.054032322,0.016743563,-0.039880853,0.042754218,0.02258451,0.11686723,0.061349258,0.055475816,-0.16546483,0.016979903,-0.032329176,-0.031534996,-0.06319031,0.078614324,0.036896974,0.028399562,0.10508561,-0.074890055,0.05017212,0.058915477,-0.093865976,0.092394985,0.06799518,0.03568755,0.020825658,0.014054859,0.023695616,0.0937504,0.026002593,0.05168504,0.007276697,-0.08059178,0.033137653,-0.20830397,0.0070949267,-0.0149635095,-0.0055519543,-0.024555847,-0.043490402,0.05602552,0.11526684,-0.06676945,0.06255327,-0.0527646,0.09764687,-0.042404156,-0.06221113,0.034161467,0.078512445,0.06992397,-0.056680094,-0.09587685,0.082326725,0.06427769,-0.03761804,0.062061053,0.025838139,0.04445986,0.011794662,0.08328226,0.062224876,0.08079303,-0.0009909002,-0.1278807,0.03966729,0.06758266,-0.103013106,-0.015173535,0.039632212,-0.108583234,0.03405164,-0.13412605,0.05533805,0.07521095,-0.017361453,0.015938573,0.09543007,0.04010913,0.039771475,0.021486238,-0.15988773,-0.026943725,0.037593577,0.09994638,0.046467513,0.013894946,0.020278715,-0.1477896,0.12351482,0.067233555,0.10081162,-0.10107751,0.019519655,0.03210734,-0.009787917,0.10971294,0.05939744,-0.062516965,-0.006052686,-0.02884393,-0.06849723,-0.036925383,0.05888231,-0.06300708,0.011120849,0.03006159,0.11675916,0.027159574,0.1035174,0.065531455,0.058588143,0.06373399,0.14747658,-0.035496406,-0.08037361,-0.020102682,-0.064373106,-0.1634371,-0.06851583,-0.047362175,-0.024415465,-0.070838585,0.052843545,-0.01580285,0.041199356,0.027134536,0.063410155,0.12226222,0.052080963,0.070368655,-0.010052219,-0.022758596,-0.010710132,0.08390684,-0.10770864,-0.046984542,0.052936118,0.054182883,0.04477725,-0.0554944,-0.093863174,0.104193114,-0.12162239,0.042704944,-0.007926444,0.07466298,0.042770628,0.004331556,-0.060352802,0.04970946,-0.07740722,0.070214905,-0.09400742,0.0035135082,-0.027218264,-0.012682863,-0.0055017774,0.008420991,0.03423067,-0.0024801784,-0.05627819,-0.027401531,-0.021322742,0.13502666,0.034461107,0.036121704,0.002253606,0.037024125,0.06516995,0.029838301,-0.07296817,0.01459727,0.06692146,-0.050330535,0.020326411,0.026079535,0.06802426,0.057754003,-0.02066567,-0.031676583,-0.10100045,0.0934485,0.05337773,0.011799012,-0.010671718,-0.0366993,-0.111615255,0.1260051,-0.0043594427,-0.10028075,0.015730064,0.046007067,0.034141053,0.031916205,-0.120108284
0.06767277,-0.08894338,0.11729202,0.10652861,-0.01275169,0.12713838,-0.02526088,0.113286436,0.0005340082,0.068516575,0.17420262,0.006201702,-0.16102731,0.069684066,0.141448,0.03600875,-0.0107745305,0.01670428,0.019901132,0.047328666,0.03135694,-0.0880237,-0.04217608,0.024897015,-0.042397663,-0.016935326,-0.0034288687,0.03446593,-0.117532074,0.11956909,-0.04213094,0.124512896,-0.0023563914,0.15962788,0.03128688,0.004665551,-0.06826302,0.008609586,0.018104868,-0.093516536,0.010257792,0.08606339,-0.06369582,-0.017945392,-0.09835329,-0.07949882,-0.05270972,0.037144225,-0.0040541673,0.13609155,-0.004365526,0.08145246,-0.0022958107,0.044298988,-0.108513124,0.09297267,0.118580855,-0.015275409,-0.057255566,-0.0667713,-0.016556358,0.014608304,0.120784074,0.06811664,0.06860216,-0.018388202,-0.1034341,0.021600962,0.034845866,0.014403122,0.029831331,0.04426516,0.0075001526,0.025273934,-0.0762645,-0.06290191,0.07499351,0.039965823,0.000946533,-0.033453714,-0.08960199,0.07010406,0.07946242,0.017865025,0.19528228,0.018664073,0.07987145,-0.008918024,-0.04951907,-0.027234035,-0.019136574,0.09975588,-0.027607756,0.09039077,0.048168484,0.06026103,-0.035622425,-0.04399551,0.03253885,-0.062087104,0.051052656,0.049986444,0.13833618,0.043037448,0.053191636,-0.013600061,0.0979868,0.10420995,0.044063456,0.0034621183,-0.005260751,-0.16291177,-0.07856543,0.02019525,-0.04458929,-0.081757896,0.04333167,-0.035454467,-0.05405052,0.059172496,-0.0018496324,0.008662594,0.07131867,0.03554531,-0.113808185,0.07626817,0.07620884,-0.04088933,0.07662224,0.05002797,0.0108390935,-0.030776203,0.014182162,-0.02859452,-0.0038980513,-0.04063239,0.11795545,-0.025034595,0.01882208,-0.10383514,-0.051652763,-0.14959146,0.07550601,-0.15231684,0.00097486353,-0.049214244,0.07240132,0.0642231,0.08709686,-0.070983805,-0.07112124,0.083900005,-0.010546871,-0.12228667,0.032284234,-0.04603364,-0.023981515,-0.0033306559,0.051993214,-0.02466735,0.03483355,-0.00647591,0.008210169,-0.06047715,0.078367,0.07765493,0.19952345,-0.016396765,-0.044488665,0.0043002386,0.067873605,-0.010552329,-0.06570736,-0.023996314,-0.07082758,0.015791677,-0.020095991,0.06711083,0.01814961,-0.008785347,-0.015873836,-0.09576846,-0.033499256,0.053597875,-0.038795017,0.037052777,0.06525977,0.09656656,0.1063354,0.06719222,0.023640506,0.023429241,-0.100183085,0.049286183,0.06361417,0.08472751,-0.028666276,-0.023184804,-0.06451429,0.07874239,0.00029560778,0.07349585,0.038170915,-0.038848806,0.09764018,-0.009259613,0.08340113,0.035086025,-0.046489082,-0.009625182,-0.0023807993,0.018496163,0.121802025,-0.016035551,-0.06940359,0.0025978761,-0.10586059,-0.036925383,0.01887748,0.01691743,0.03160565,0.05047693,0.003513878,0.15762872,0.033212997,0.087445535,0.028918156,0.0034062387,0.034726497,-0.04321478,-0.076378785,-0.027762122,0.056088258,0.09148855,-0.04374162,0.06449412,-0.03979006,0.054396767,0.056782756,0.11413757,-0.019755896,0.044243924,-0.030960819,0.061228618,0.08956285,0.050979502,-0.06996536,0.01751185,0.03309554,-0.029128063,0.038910426,-0.016294662,0.11948465,0.088235706,0.07148584,-0.06021278,-0.05679609,0.07435409,0.07624046,0.0030330636,-0.1432742,0.012420514,0.05574782,0.005059529,0.013648436,-0.015498969,0.12808768,0.012683236,0.078119844,0.0032143171,0.084390774,0.07165609,-0.017601594,0.06433528,0.122012936,0.03750839,0.082898654,0.032650348,-0.049415935,-0.26082006,-0.025281249,-0.117835395,0.0488305,0.05285835,-0.05252622,-0.027859995,-0.09783532,-0.18173823,-0.035478946,-0.032209262,0.07523454,0.06396748,-0.1490457,0.053436074,-0.04812784,-0.008679535,0.0160542,0.09365471,0.0024150629,0.010177873,-0.02300481,0.060983334,-0.06820581,0.041536417,0.066639565,0.1105038,-0.11205056,-0.017793462,0.12242808,-0.026699077,0.100553274,-0.033801768,-0.09429893,-0.009414778,-0.0024629775,0.0784979,0.0483564,0.08081269,0.010622777,0.07108801,-0.024401072,-0.0486317,-0.015123545,-0.045484744,-0.16390465,0.044348706,-0.019637398,0.036173448,0.03739584,0.09879181,0.1518403,-0.0062567783,0.04554373,0.019397102,-0.058664195,-0.008796051,0.023090832,0.014090602,0.026628539,-0.106730506,-0.013856704,0.09184905,0.04125755,0.022854444,0.09261259,-0.16077672,0.083382495,0.0022494528,-0.059218466,0.06738643,-0.053415466,0.10007402,0.04766122,0.052427277,0.06569309,0.05225962,-0.0004817174,0.06295934,-0.030358873,-0.07508525,0.0631598,-0.0038068213,-0.105789684,-0.16227841,0.036426127,0.04861698,-0.003612752,0.017773295,-0.10298412,0.04880997,0.032456294,-0.012740976,-0.037951175,-0.021405507,-0.02655119,0.034969676,0.05468064,0.0026325423,0.02066028,-0.021475516,0.12533303,-0.1778365,0.0883351,-0.03906384,0.035200562,-0.05482432,0.010365439,0.05037084,0.077463895,0.043154184,-0.080909766,0.08067004,0.08592272,-0.00055593584,0.09435921,0.0359657,-0.00042846223,-0.13624531,-0.039594173,0.012573364,0.09503449,0.04516922,-0.10405928,0.04372026,0.0803515,-0.061216976,0.023756845,-0.018721865,0.079601005,-0.04590108,0.018529778,0.16805646,-0.102205515,0.024282785,0.00012489373,-0.07559468,-0.03374822,-0.027827045,0.07230952,0.042916313,0.039748285,-0.08342277,0.057845883,0.013831828,-0.01906292,0.039638106,0.07757737,-0.035930634,0.010440878,-0.038487144,0.05431329,0.061690804,0.04313183,0.04005179,0.07836921,-0.19028573,0.08126296,-0.12784892,0.1344331,-0.054738082,-0.06956804,0.1178894,0.047564156,0.08545664,-0.015994191,-0.009720631,0.15328677,0.017822096,-0.01598608,0.062887825,0.060350843,-0.06426514,0.04038224,-0.13329783,0.017463118,-0.024478398,-0.018046003,0.033414252,0.10252127,0.03868552,0.10278225,0.0030041228,0.08524684,0.025741773,-0.11967332,0.056038287,-0.076178394,-0.039849907,0.033202432,0.08741521,0.026874963,-0.008650641,0.06678599,-0.023182247,0.05066066,-0.17270422,0.11049296,0.14611284,0.014201669,0.021213971,0.0064591765,-0.13971695,-0.0022629984,0.050487623,-0.04156158,0.0979197,0.04361758,-0.04413249,-0.012027422,-0.046875693,0.0679086,0.03340087,0.09207954,0.02899975,0.11465084,-0.013087117,-0.03852078,-0.03713823,0.115997314,0.0673924,0.13472398,-0.122023985,0.015959328,0.09114314,-0.019252205,0.022293115,0.03284967,0.03391849,-0.0069042183,0.038688216,-0.033390112,0.022090768,0.034054115,0.007739994,-0.1356713,0.07623491,0.012963235,-0.020253321,0.12000429,0.039743796,0.041365135,0.053100623,-0.08648591,0.054464165,0.0002690542,-0.012008795,-0.0080306465,0.035078894,-0.09930546,0.055090353,0.080712594,-0.010184552,-0.03813599,0.108392864,-0.07305442,-0.011189705,0.12480272,-0.0510954,-0.013360701,0.059599366,6.170148e-07,0.021707542,0.08789344,0.024805795,0.107720554,0.001388874,-0.13015501,0.04984216,0.011758315,0.109861575,0.054220535,-0.0029162606,0.031452898,-0.021144845,-0.043811433,0.0028631492,-0.019834014,0.0757482,0.13512366,-0.035924904,0.0043939203,0.045353454,0.031540506,0.0023694204,-0.07421282,0.07220151,-0.031214802,-0.010736609,-0.00990837,-0.018851055,0.07241134,-0.092259236,-0.0036475302,-0.0011851797,0.08556949,0.08623439,0.044183865,-0.06934987,-0.0997391,0.04601778,0.091353364,-0.06319067,0.006909757,0.028429948,0.0432507,-0.02103432,0.04354143,0.06671448,0.00672121,0.054228418,-0.07233812,0.08693591,-0.06443717,0.062421776,-0.02651663,-0.14754765,-0.04224049,0.013395375,-0.05486022,-0.029968696,-0.122859664,0.0034781538,0.13901313,-0.06671389,0.11754821,-0.13432764,0.05775452,0.105406374,-0.003958854,-0.06348238,0.07231633,-0.028780162,-0.0637165,0.12704457,-0.008063447,-0.02279096,-0.06313535,0.04884669,0.06060093,0.0823333,-0.0016922428,-0.011071517,0.11766541,0.07866568,0.0555392,0.13786209,-0.055274352,0.057730425,-0.05382288,-0.037951376,0.03058956,0.033602823,0.034133557,0.058393218,0.1194079,0.019719848,0.0023588808,0.06105047,-0.016902147,-0.059460063,0.019955222,0.05581681,-0.0610227,0.08698451,-0.12021738,0.08996664,0.027181987,0.038564038,-0.10064631,0.034574736,0.03626238,-0.10333949,0.07415526,-0.1657541,-0.0039592963,-0.025254367,-0.0139960935,0.015758134,0.027208215,0.091540255,-0.07649346,0.025643874,-0.047650505,0.06711112,-0.08802642,-0.06518637,0.071477965,0.05314147,0.038374223,0.029009787,0.02652314,0.02986714,0.022451546,-0.12056345,0.08553847,0.08045826,-0.021843523,-0.0001568048,-0.008699629,0.009348185,-0.10338399,0.07313646,0.09077094,0.05438745,0.052078225,0.06691926,0.11038573,-0.0026465936,0.04095294,0.13223085,-0.07538811,0.044561177,0.01354625,0.09323608,0.052602846,0.09779538,0.0021583263,-0.08021454,-0.018613061,0.04715488,-0.14301227,-0.02312057,0.017301053,-0.0030878936,0.041991837,0.07293305,0.029857809,-0.033183243,0.06011599,0.043173958,0.027684487,0.0415876,-0.044064887,-0.13000175,0.1034547,-0.03891889,-0.045376737,-0.02979847,-0.03708341,0.037628416,-0.015515635,-0.14940342,-0.038793217,0.01274394,0.041266266,0.03362442,0.0701093,-0.15470622,-0.21822935,0.0864981,0.02543131,0.056984983,0.066623256,0.016638977,0.018883485,0.07208978,0.0043295245,-0.015651232,0.041841295,0.097927734,0.05446168,-0.11474522,-0.11077822,-0.045596763,-0.011152697,-0.1469085,0.079685815,0.10610706,0.085471466,-0.045625128,-0.028512798,0.034430407,-0.19491357,-0.03859565,0.06653449,-0.028880285,0.021942882,-0.015082658,0.040990353,-0.08449403,-0.17175484,-0.08312443,-0.032959,0.044608574,0.018318105,0.009676265,0.10729753,0.07824421
0.05401263,0.01955337,-0.13518223,0.026594227,-0.029020555,-0.009861369,0.027470099,-0.048059594,0.032871455,0.021877605,0.0076699923,0.022433259,0.1075401,-0.0056159156,-0.020907728,0.04544126,-0.12574041,0.032042243,-0.039359003,-0.003333831,0.006709939,0.07956023,-0.019162925,0.016271899,0.017338345,-0.093919806,-0.04392135,0.0014772579,-0.08113128,-0.011315288,0.03711145,0.04175857,0.05599826,-0.05790092,0.06196266,0.02573282,0.0124834515,0.03797003,0.03428103,-0.07532878,0.007493455,-0.008853934,-0.026005354,-0.022490311,0.023242418,-0.019776637,-0.0043859025,-0.06666968,-0.02007074,0.034212478,0.034618348,0.051124334,0.025750024,0.06188213,-0.0079126395,-0.07960871,0.010930235,-0.019195963,0.08650249,0.02613704,-0.009234833,0.056618236,0.008139683,0.013473477,0.013163723,0.00027006996,-0.0015546136,-0.023268737,0.04608892,-0.008647728,0.067881264,0.024761826,0.009441494,-0.033994768,0.055794865,-0.08870965,-0.04214322,0.083024025,0.008164085,0.032840893,-0.06161625,-0.017047504,0.005682478,0.03382036,-0.03302093,-0.02383784,-0.029911775,-0.08959546,-0.04763424,0.029504834,0.037097167,-0.0829792,0.027043968,-0.018084178,0.009696118,0.027944574,0.11326042,0.06292608,0.054764178,0.036662612,0.041266896,-0.084222935,-0.026082743,-0.025297718,0.014897776,0.028473705,-0.07014387,0.008726562,0.013401893,-0.035396542,0.055045553,-0.09614722,-0.014214257,0.017404968,-0.035930336,-0.001961776,-0.04895357,-0.030426612,0.10679371,-0.03240033,0.029404411,-0.09435999,-0.047439035,0.029610686,-0.066947766,0.0501313,0.05074598,0.028786734,-0.03768415,0.022685776,-0.040543348,-0.02194059,0.023559386,-0.022059802,0.05689077,0.053819112,-0.020563358,-0.015177182,0.010328094,-0.10429289,0.054025102,0.046612296,-0.07976741,-0.05358494,0.06061109,-0.0023483166,0.082516305,0.023615884,-0.032181464,-0.069254145,-0.035138812,0.029613614,-0.01703609,-0.075036824,-0.0014736135,0.014273778,-0.0069895037,0.057815365,0.06525424,0.05831459,-0.013867809,-0.025964348,-0.02768905,0.08599878,0.06910628,0.022826929,0.047322094,-0.021077687,-0.06290103,0.006976069,-0.014726723,-0.03262047,-0.04751904,0.023892572,0.05403825,0.061253835,0.046833612,-0.010385027,0.048702024,0.0061311843,0.0058114124,-0.0787226,0.014754836,0.0136694005,0.043803755,-0.039077584,-0.055753086,-0.00047452544,0.03150619,0.0065171225,-0.0062051537,-0.021707889,0.05097269,-0.024946215,0.019087458,0.04186597,0.024075009,-0.03943892,-0.006144047,-0.05074732,-0.03761429,-0.008792139,0.019149637,-0.05094459,-0.0436141,0.03704658,0.05484423,0.018035911,-0.12697914,-0.041352544,-0.00021898263,-0.05030381,0.05685341,-0.011448055,0.04542988,0.02932899,-0.023841249,-0.028795443,-0.02935028,0.0015176787,-0.0075365966,0.10534138,-0.043346833,-0.011206497,0.052964278,0.03879392,-0.015243229,0.069163196,-0.010188161,0.08720037,0.0630479,-0.04944091,-0.02320007,-0.0084118545,-0.012886014,0.04367061,-0.037488777,0.043037806,0.05072986,0.0066636843,0.07163795,-0.084943324,0.0038554228,-0.055004276,0.0071667437,0.052231282,0.0114687355,-0.04240764,0.045546733,0.063591346,-0.046746902,0.014829559,0.01144796,0.045959815,0.017541083,0.03952296,-0.058048356,-0.045143098,0.002424215,-0.011614476,-0.031386085,0.01570333,0.0296717,0.03100002,0.025425436,0.07925352,-0.022172788,-0.0863988,0.040215805,-0.05037366,0.0400739,-0.0067459852,0.055995017,-0.013346922,-0.02321887,0.03019556,0.024751466,0.05276304,-0.040355023,-0.08112609,-0.0007500152,0.087525055,0.039485414,0.0081513,-0.02538671,0.029724436,0.048204347,-0.04420857,0.0014636279,0.03728058,-0.05383227,0.011154778,0.01850045,0.004408188,0.01771924,0.0064904313,0.057992917,-0.0022346075,0.043226864,-0.062429808,-0.012240956,0.011647761,-0.034041688,-0.07231838,0.011900304,-0.02760286,-0.012487147,-0.04588206,-0.05222197,-0.08015531,0.06541332,-0.0808397,0.02508993,-0.018894045,0.013493916,-0.01187326,0.038506437,-0.0042657615,0.039167568,-0.044496074,-0.04672538,0.014400507,0.007987577,0.073864035,-0.0007345882,-0.075794704,0.047055025,0.011529052,-0.0026970627,-0.032899175,-1.2496333e-05,0.028429609,-0.039109316,0.005833846,0.027311089,-0.097435914,0.012884577,-0.048025467,-0.029785726,0.008057341,-0.049366966,0.06503122,0.018495148,0.06857751,-0.02960277,-0.038331315,-0.03542076,-0.013490452,-0.05643833,0.04236617,-0.08498799,0.027593577,0.059078854,0.02769289,0.03107474,-0.030951299,0.04495977,0.06433617,-0.02943227,-0.048183627,-0.07150762,-0.08770061,-0.040142495,-0.035511095,0.029197391,-0.013061992,-0.04995022,-0.009544236,0.007865025,0.014929532,0.07263352,-0.07153808,0.018261151,-0.043048248,-0.04058276,-0.018052092,0.077849664,-0.023814721,-0.071749784,0.010395852,-0.04099517,0.06353839,0.029325685,-0.002870155,-0.048027415,0.07524651,0.06914988,0.019359367,-0.01829018,-0.028585134,0.0239636,-0.00816143,0.056035746,0.094865225,-0.056264576,-0.03753636,0.0031780424,-0.04253848,-0.07490876,0.022099879,-0.022686383,-0.012148212,0.046622854,-0.002950392,-0.03250631,-0.06267601,0.03483196,-0.0075483304,0.0018267244,-0.114370644,0.015983,0.089819804,-0.046293464,0.019008439,-0.021508703,-0.04865096,-0.011855228,0.06360939,0.04480339,-0.010720432,0.020211939,-0.009284481,0.08254084,-0.027840577,0.02976607,-0.058331117,0.037828114,-0.011744658,-0.0174637,0.031379387,0.022908408,0.07540228,-0.12502111,-0.012580537,-0.0064314124,-0.10952121,-0.015394941,-0.04884407,-0.01649029,0.06142296,-0.09153736,-0.027976897,0.014850281,-0.04178671,0.035625953,0.011716111,-0.036597192,0.056859896,0.03137203,0.005246578,0.06334203,-0.053342573,0.10744277,-0.07452087,0.038492307,0.03561292,-0.08341793,0.035043556,-0.025749413,-0.023035452,0.025921488,0.044448156,0.061437562,0.030575287,0.006265131,0.04877892,-0.014212839,0.08572165,-0.016927097,-0.06923679,-0.0449856,-0.084894985,-0.039736148,0.0029891075,-0.016798802,-0.007779108,-0.03969955,0.041201737,0.013066294,0.042487074,-0.04625235,-0.00530472,-0.07897801,-0.043706186,0.0038858063,-0.078952625,0.008452978,0.00981703,-0.025035083,0.004507296,0.007395137,-0.01921106,0.02686035,-0.046133857,0.02028039,0.014152409,0.037762895,-0.054102786,-0.07966158,0.006066203,-0.030849747,-0.021384139,-0.028469475,-0.031327292,-0.03339016,0.0037375707,0.031548753,0.012249279,0.049326822,-0.044475544,0.0051897857,-0.056333385,-0.01305319,0.0073097893,0.01793386,0.0372807,0.023611117,0.023231111,-0.0640132,-0.05026389,-0.0821095,-0.012556045,-0.0364711,-0.07156852,0.0028500457,0.0014207944,-0.067876175,-0.08397304,0.049057115,-0.024786778,-0.032688912,0.039984223,-0.004697913,0.049108904,-0.0016818976,0.10081877,-0.023068303,0.032277714,-0.024661114,0.026951155,-0.021142224,-0.011646163,-0.013848931,0.014518311,0.0037713337,-0.041727133,-0.074500315,-0.023172671,0.025974657,-0.047827065,-0.0025845305,-0.038800277,0.036943655,-0.015401344,0.080743015,-0.0073849936,0.033083107,0.0048230086,-0.000626336,0.026522119,0.037226543,-0.008672186,0.02080999,0.09415934,-0.071115956,-0.0036401004,-0.043123633,0.09364938,-0.051174972,0.033201378,0.04181456,-0.06580324,-0.07115255,0.030698195,-0.008260371,0.06558267,-0.023578469,-0.018985786,0.009808058,0.04442911,0.01619059,0.026070712,-0.008880104,-0.015433888,-0.06823049,-0.0048870184,0.04403452,0.024161588,-0.0035610762,-0.025553998,0.04037971,0.034381688,-0.02413943,-0.057242222,-0.05219671,-0.117752455,-0.02613011,-0.030800378,-0.089857616,-0.049560346,0.04765071,0.04298339,-0.020914936,0.019306395,0.027808452,0.055736836,0.039525002,0.024872603,-0.042667832,0.018102957,0.043062177,-0.034061093,0.07592171,0.087678015,0.083882675,-0.039909266,-0.024192479,0.013739533,-0.026775347,-0.024798458,0.049856797,-0.037251513,-0.023404209,0.03789931,-0.004805182,-0.005114305,0.012841832,0.10080036,0.011518056,-0.015241059,0.01003936,0.025082087,-0.008262239,-0.05590379,0.0951524,0.05475195,0.07194402,-0.0021579505,0.01194946,-0.13300054,-0.0060649277,0.023779027,0.01215859,0.002521364,0.015961304,-0.07988342,0.013188674,0.0804441,0.018653853,0.040538583,0.032743946,0.036057524,0.0030949991,0.00073952664,-0.015731545,-0.051616747,0.031865682,-0.00493999,0.019179452,-0.066143334,-0.054416455,0.018978437,-0.0066967793,-0.025061972,-0.00040260344,-0.02234658,0.025784416,-0.00680338,-0.0066826986,0.0015774475,-0.021128824,0.048097733,-0.010885445,0.064645275,-0.02608371,-0.010712996,-0.06893563,-0.016041823,-0.07020021,0.008403394,-0.035957072,-0.0027808126,0.023949482,-0.038568024,0.031818416,-0.029526612,-0.0016535269,0.096858405,-0.024009813,0.0571857,0.008021327,-0.10165028,0.087474145,-0.08546589,-0.0039083106,-0.020418536,-0.03816326,-0.046418224,-0.07588712,0.03970666,-0.015628485,-0.0027675622,-0.041598152,-0.024607483,-0.027547939,0.014700392,-0.041700892,-0.0071148747,-0.09136574,-0.010914454,0.030196749,-0.035522874,0.015454237,-0.02426878,0.051545847,0.031468555,0.019499354,-0.07177811,0.003208588,-0.049179733,0.024092153,-0.028595803,-0.023064783,-0.03342962,0.108708,0.014537068,0.027206436,-0.07443364,0.01364785,0.0028379632,-0.0048079714,0.015662972,-0.07591552,-0.17969614,-0.018943435,0.12351975,-0.020006008,0.022943867,-0.009799672,-0.01437785,-0.023173664,-0.016028134,-0.019167751,-0.024926957,-0.0017256907,0.08163935,-0.014959537,0.017287878,-0.04238585,0.049000043,0.07557447,-0.07590754,-0.019849155,0.12232704,0.030003851,-0.0722686,0.055594638,0.017401606,0.042847622,-0.057257425,-0.0150668,-0.0011846997,-0.07811928,0.045941103,0.022917,-0.013485393,-0.05567774,-0.029983146
0.035005033,0.015953423,0.008655177,0.013729476,-0.009743091,0.04722081,0.01387463,0.026617777,-0.0018115403,0.047032896,0.037302844,-0.028254451,-0.025775272,-0.042207435,-0.039846484,0.0040814574,0.015142099,0.015796276,-0.0054768655,-0.0071851998,-0.044036683,-0.04670711,-0.09890101,0.023631532,-0.03520668,0.053079583,0.07681481,-0.008376127,-0.03987024,0.05351166,0.0070925085,0.0328934,-0.02808927,-0.0026015062,0.014220342,0.07774242,0.013561319,0.036492385,0.00948179,0.049904518,0.0017322354,-0.013205183,-0.021016212,0.034690104,0.026192002,0.04146852,-0.045120504,-0.004813593,-0.048003636,-0.027118662,-0.0079937335,0.013085982,0.08484469,0.036494426,-0.039957788,0.08206826,-0.019981356,-0.006444426,-0.019421993,0.011263144,-0.025863724,0.024399715,0.022695852,0.038162883,-0.04034875,0.042758968,0.04679581,-0.015912628,-0.04616815,-0.0016328105,0.053544108,-0.07340918,0.008950532,-0.019046174,-0.050757952,0.043427497,-0.067372054,0.022042565,-0.0247752,-0.013519683,0.028095089,0.017866801,0.010826113,-0.02494536,-0.008020966,0.0732318,0.007028772,0.07278801,0.020342344,0.07799347,-0.0011387431,0.011317342,0.0017899458,0.01583117,0.030667963,0.023951799,-0.05579718,-0.020519719,0.04152449,0.047257155,0.032315828,-0.020153483,-0.15269244,0.049714733,0.011357175,-0.050722543,-0.00049315277,0.051173836,0.07304735,-0.037089426,0.011536154,0.022104384,-0.012764513,-0.071596846,0.021050273,0.035711557,0.015471207,-0.039264016,0.010006318,-0.034776706,0.020626381,-0.030528892,-0.031744745,-0.058860004,-0.016983662,0.03890516,0.027497634,0.030874858,0.0032332423,-0.054978166,0.006361016,-0.0023698115,0.047583234,0.058537852,-0.041764926,0.0370451,0.04308452,0.037905175,0.037089072,-0.1147983,-0.033246346,-0.054611344,0.019965647,-0.01725277,0.017102836,0.017657284,0.020828674,0.05954617,0.024672726,-0.07138853,0.019965693,0.032221757,0.05372636,0.0009463547,0.009590994,0.051850997,0.051817104,-0.0016444484,0.018311365,0.00067806913,0.037478797,0.021283858,-0.03055343,-0.034014843,-0.0039429553,-0.032957047,-0.011201093,-0.017515602,0.0015551504,0.0092993975,0.030798594,0.021292392,-0.02122868,0.11579163,-0.036045853,0.03391375,0.00068698206,0.06767699,-0.028084358,0.00041731642,-0.11982024,-0.0013390816,0.018421803,0.06675525,-0.0042871796,0.038612034,0.0459818,-0.037630234,0.036199085,0.044335183,0.007326897,-0.06758452,0.0694587,-0.0022996129,-0.01407349,0.07051091,0.02699313,0.0027624613,-0.044238687,-0.0059783827,0.024281142,0.035858653,0.101609044,-0.023094822,0.0640346,-0.047576997,0.041525394,0.039405193,-0.004862292,0.006604539,0.0015010549,0.011634482,0.045579493,0.07743774,-0.022293497,-0.025383364,-0.019394511,-0.02933964,0.013224236,0.012677461,0.061713614,0.057160817,-0.017727975,0.053978655,0.064634025,0.03363403,0.035899553,0.009348154,0.010028844,0.0066741365,-0.021987645,0.00991966,-0.03130879,-0.009887032,-0.031753592,-0.007860923,0.0013684969,-0.013600501,-0.027131246,0.03426763,-0.02839507,0.07736842,0.011085604,0.04083859,0.06072617,0.053163923,-0.043780636,-0.0011164773,-0.036074568,0.02810165,0.14515972,-0.02859406,0.01684661,-0.062069815,0.044392068,0.017738663,0.015051514,-0.00073022675,-0.008638249,0.046647348,-0.071761705,-0.054003604,0.01838233,-0.010193744,0.06259732,-0.03985057,0.0526538,0.01852535,0.024306485,-0.00023382001,0.0071768817,-0.019064551,0.008570396,-0.06914766,0.029974166,0.034689266,-0.0055181785,0.031958804,-0.09538287,-0.0833687,-0.010981726,0.01674509,0.028307592,0.00048416786,-0.023070596,-0.050227072,0.0432104,-0.037270922,-0.102653235,0.094288915,0.01673599,0.020234007,-0.020993272,-0.0015235364,-0.033974085,0.04786768,0.016494762,-0.0038578354,0.031476382,0.047561653,-0.047089692,0.039079446,0.0012379399,0.07134219,0.045101043,0.07053432,0.020750966,0.0108733475,0.083437964,0.06499783,0.02894738,-0.055124305,-0.052804098,-0.0024059827,0.006036232,-0.014590989,-0.013638703,0.03487131,0.018087769,0.04893866,-0.053341977,-0.014771651,-0.010589267,-0.09001566,-0.05932866,-0.04590629,0.0068249116,0.049455147,0.05046151,0.025273003,-0.007943926,0.06421852,-0.004141486,0.057038046,0.03132191,0.005520577,0.030239899,0.010656569,0.03724948,0.030425705,0.042539164,0.06366917,-0.05411515,0.056052063,-0.06394672,0.020684479,0.053643823,0.030018054,0.06794756,-0.06618712,0.0077153295,0.048196264,-0.061745692,-0.010578275,0.031161778,0.024821546,-0.027991531,0.006996239,0.02004259,-0.037928868,0.00804072,0.02315004,-0.035059758,-0.005466034,0.043535516,0.07122491,0.064064234,0.04551684,-0.033151984,0.044955794,0.048428427,0.010271641,0.06472149,-0.08086861,-0.073317714,0.06507407,-0.052254092,0.043337677,-0.021944921,-0.039439842,0.0061951587,-0.059384912,0.05841673,0.04291258,0.0027941028,0.023794081,0.007140123,-0.034449816,0.006233841,0.0025293315,0.029798765,-0.10024038,0.008348736,-0.02223647,-0.029632317,0.01704619,-0.054394122,0.026904058,-0.009985407,-0.0111649865,-0.0010280989,0.017657861,0.03194213,-0.028573403,0.035745658,-0.002625326,-0.034766678,0.05912868,-0.047645953,0.034932226,0.05519071,-0.0691584,0.048205886,0.04467279,0.045074534,-0.0035400821,0.0028632742,0.0034825031,0.014253862,-0.066268966,-0.0034068555,-0.058328424,0.00499023,0.03655125,0.05519284,-0.050213963,0.078506365,0.004792865,0.003013902,-0.0005526626,-0.046815306,-0.056381065,-0.13130048,-0.026396241,0.022018123,0.082646094,-0.065320045,0.1053578,-0.010008297,0.02448585,0.02728459,-0.012474569,0.008047203,0.02154228,-0.041314766,0.015941165,0.03467055,0.050195534,0.057809953,-0.017451093,0.043744396,-0.031594615,0.05064725,-0.05439648,0.01922538,-0.00075870584,-0.07268917,0.009512082,0.041044455,-0.004893823,0.014591858,0.05053648,0.004869438,0.03109424,-0.08487329,0.0024085601,0.0832071,-0.06843218,-0.016152974,-0.04047094,0.015234068,0.034133196,0.021083893,-0.035281595,0.0595376,-0.052817408,0.046077307,0.09985014,-0.078297295,0.059149817,0.06381086,-0.0015483528,0.018690486,0.0336806,-0.022215711,-0.029725822,0.05229815,-0.09927897,-0.08630976,-0.03719348,0.046084255,0.051976647,0.033550464,0.08166097,-0.07639647,0.021171816,0.0027756027,0.12430641,-0.1036056,-0.030459309,0.068631284,-0.04869261,-0.021215366,0.038801868,-0.04566952,0.042902123,0.025598422,-0.04874001,-0.0780036,0.0570525,0.05847059,-0.084013395,-0.014801546,-0.016590059,0.008941474,-0.0067107575,0.04501356,0.0015796557,0.05337643,0.066861026,0.001897903,0.02798851,0.08037591,0.017805971,0.0060562543,-0.0057803877,0.05578059,0.095620565,-0.099495895,0.0069483924,0.08303742,0.0524616,-0.002595879,0.048107415,-0.044683073,-0.026943758,0.04496183,0.013105778,0.011198652,-0.014503724,0.106987394,-0.06316118,-0.024581159,0.010233239,0.021310706,0.0069543477,-0.11764306,-0.009123742,0.014379291,-0.022280827,0.009658684,-0.07112963,-0.023884073,-0.03573392,-0.035820324,-0.0046427636,0.008229941,0.0422551,-0.074098244,0.032509837,0.020994563,0.020386577,0.07711641,0.025908,-0.062314495,0.030049976,0.0034577402,-0.17812116,0.042918865,0.00314531,-0.038859714,0.011741197,-0.007838618,0.017767744,0.027646476,0.039993074,-0.008130581,0.054028243,-0.072108455,0.009675858,0.053794596,-0.0058490485,0.03866064,0.03167007,0.0182661,-0.023932992,0.015756566,0.030692464,0.011804884,0.09108255,-0.06595515,0.012890994,-0.04229246,-0.0011313192,0.06965538,0.07609914,-0.030084316,-0.010018626,-0.035527915,0.022979248,-0.03227161,0.048180055,0.0010556368,-0.03174488,-0.015052835,0.0693666,0.036386468,0.06829855,0.034398995,-0.010299216,0.012888588,0.006401432,0.036836144,0.02660698,-0.018705396,0.038019404,-0.021433719,0.019416813,0.07814034,0.0062119835,-0.054549344,0.058554977,-0.02814578,-0.013350267,0.07685245,-0.012504459,0.06811287,0.0019917705,0.04887482,-0.026526013,0.05017967,0.019957673,0.015980931,0.056377497,0.026445525,-0.02584693,0.01406428,0.06914711,-0.04321686,-0.0031899093,-0.005117008,-0.056282993,-0.09878089,0.059494603,-0.058666326,-0.006596394,0.0092772925,-0.044886712,-0.018712686,-0.04886739,0.053757418,0.029803725,0.030573022,0.06229002,-0.023435386,0.04356639,0.030738851,-0.0393256,0.0033986862,-0.018988915,-0.017816644,0.021397596,0.028819647,0.07236165,0.031428624,0.006103644,0.015444027,-0.049572483,0.08258269,-0.017697588,0.02123694,-0.0262625,0.03314937,0.0042774137,0.07233003,0.023109479,-0.0043022283,0.040766414,-0.00840224,0.032102775,0.025340764,0.0069853347,-0.040224325,0.05647249,-0.06950259,0.0005109508,0.02062072,-0.056508232,0.010376404,0.01506744,0.046324946,0.008256244,-0.0069318432,0.077074625,-0.006648752,0.0129738655,-0.040713824,0.01051039,0.0137617905,0.07269312,-0.07075748,0.0014261,0.0037280703,-0.006429396,-0.00600162,0.019949097,0.06876648,-0.09209243,-0.105469644,-0.10280648,0.064527854,0.045886446,0.006393606,-0.0039482415,0.01397407,-0.08198124,0.03874522,-0.0462737,0.006816805,0.0008039724,0.023330476,-0.042434994,0.082633175,-0.025198061,0.00018047866,-0.011348869,0.000796148,-0.035599172,0.011985676,-0.0062880963,0.005014282,-0.02091504,0.05569026,0.020568293,0.043617953,0.028378377,0.06895059,-0.018807372,-0.023838604,0.039268207,0.0485892,-0.08900001,-0.061240945,0.008178105,0.031261776,0.019470891,0.039093416,-0.042419508,0.00874865,0.016860425,0.117747486,0.010204978,-0.08234979,-0.08495948,0.0010139814,0.08576456,0.068506114,-0.03145322,-0.066208094,-0.04354665,-0.0050172945,-0.018309748,0.018664401,0.023880398,-0.03185626,0.0081802225,0.03043544,-0.031166697
-0.02082928,-0.056394458,0.005719448,-0.03857993,-0.04094758,-0.006909683,0.042115875,-0.0064384304,0.0012798278,0.07886204,-0.026467437,0.017449733,0.000529657,-0.01948582,0.051476847,-0.020869954,-0.027994152,0.068237625,-0.031210985,0.004244173,-0.031507123,0.020308994,-0.0028775923,0.015851961,-0.027668217,0.028278416,-0.024045786,-0.04979526,0.048982315,-0.018139727,-0.021998303,-0.019094145,-0.025660919,-0.071736574,-0.06236001,-0.007354668,-0.009743574,0.053301193,-0.03071154,-0.0017788124,0.051040746,0.02507354,0.008954303,0.1017627,-0.030245908,-0.0015322155,0.013496221,0.033835497,-0.0031942518,-0.015340499,-0.010080572,-0.01629307,-0.051554773,-0.004154443,-0.040307157,0.0045215106,0.041088134,0.023120433,-0.053679142,0.042415448,-0.007990937,0.016235728,-0.055592325,-0.04913295,0.015698971,0.018031392,-0.02149689,-0.029379752,-0.024624322,0.057877436,0.018960442,0.04703298,-0.053497743,0.072962955,0.012003014,-0.039583813,-0.011625912,0.011636289,-0.022234129,-0.048906665,0.011494295,-0.010432336,-0.011858124,0.018586043,0.011573694,-0.05298025,-0.044383075,0.0069803726,-0.056157626,-0.013363255,-0.02709907,0.052523624,-0.023357023,0.035307046,-0.07783709,-0.033006534,0.0017995705,-0.014453589,-0.051090002,0.009659074,0.037475917,0.043661747,-0.029760234,0.054057986,-0.028878551,0.009391714,0.026442256,0.0031598853,0.0003559084,-0.032898117,-0.004767089,0.029913131,-0.004560732,0.030581139,0.04756372,-0.018367855,0.021252507,-0.020540528,-0.012429246,-0.020586634,-0.030630246,0.012422944,-0.059738636,-0.042337615,0.030159444,-0.010082368,-0.043478657,-0.06968815,-0.052394506,-0.01903128,-0.014768561,0.044817626,-0.007189574,-0.003326141,-0.04163146,0.020658389,-0.04994028,0.033572614,0.0674614,-0.0044968207,0.0018754265,-0.007864026,0.002848432,0.030786544,-0.01829068,-0.013997605,0.024406875,0.030472556,-0.052534986,-0.0657296,-0.007099026,0.018185938,-0.005886664,0.021756101,0.050358705,0.088537276,0.00087845355,0.055802163,-0.0018627841,-0.01353261,-0.0066892537,0.06343272,-0.06586138,0.04510678,0.010082936,-0.056088995,0.030870989,-0.04179811,0.012543111,-0.005180545,-0.015994323,-0.050727423,-0.013032781,-0.058698967,-0.05280859,0.022469519,0.021104718,-0.020170595,0.04450827,0.05307572,-0.00722485,0.04660913,0.073388994,0.053568523,0.04593469,-0.007521249,0.02744957,-0.030602993,0.0030637607,-0.004512859,0.015057934,0.04469764,-0.08865351,-0.084974386,0.015916785,-0.034908764,-0.026551079,0.08659259,-0.0005112626,-0.054379623,-0.008664249,0.0044244835,-0.108373515,0.022624813,-0.05623878,0.0065189837,-0.016074056,-0.10837438,-0.033383984,0.027370898,0.024779784,-0.07342778,-0.029503267,-0.014407003,-0.03307246,-0.031933688,-0.0139641045,-0.028576776,0.030718748,-0.010333953,-0.008636492,0.024668876,-0.039997093,0.042668898,-0.017442338,-0.00840792,0.061419573,0.04950037,-0.03949524,-0.007197862,-0.019804966,-0.009643231,-0.04160071,0.020801533,0.0020889738,0.007963973,-0.03171419,0.008921354,0.040872887,-0.03438577,-0.037171997,0.0064654783,-0.025734833,0.016643086,0.004617014,-0.018393654,0.00625274,-0.030097026,-0.040819116,0.03260699,0.06971881,0.06534084,-0.0027124903,-0.048357647,-0.052522577,-0.010141055,-0.05563268,-0.035549484,-0.049614552,-0.016982345,-0.038877804,0.038132016,0.043389782,0.046810247,0.04702163,0.01945238,0.02150331,-0.013130748,-0.07088328,-0.06035238,0.06638753,0.049634967,0.01019703,-0.04163056,0.013460828,0.0016368071,-0.10534055,-0.04772039,-0.0025489768,0.045380432,-0.049908284,0.04224508,0.04419288,-0.0028936835,-0.03325324,-0.04763591,0.0037677258,-0.04387784,-0.017017325,-0.0051478995,-0.009504249,0.05927535,-0.013169402,0.0020980642,-0.013932527,-0.026905429,0.00593301,0.048353624,-0.04887315,0.06897342,0.06954504,-0.027984856,0.024679871,0.01673501,0.055819374,0.0070482753,-0.023818634,-0.06309396,0.0035164128,0.04646452,0.01475493,-0.00542451,-0.00094016537,0.029724637,-0.051154964,0.083133884,-0.06544725,0.07453064,-0.056491423,-0.03779489,0.0046009463,-0.006292869,-0.072801374,0.0669301,0.010155878,-0.07133703,-0.054977573,-0.032564044,0.03695528,0.017792847,0.028339012,0.03265126,-0.047644563,0.048685774,-0.0316033,0.008002366,-0.0275177,0.047115423,-0.03072807,-0.06468436,-0.013803114,-0.02110716,-0.03447806,-0.006085545,-0.043280907,-0.008145091,-0.007922351,0.038075056,-0.023041777,-0.017443527,-0.03782575,0.06704882,0.017660577,-0.0564319,-0.013683824,0.026892543,0.041411474,0.005674326,-0.05747481,0.04468319,0.037735537,-0.043788154,0.013194898,-0.067991965,-0.0019067655,-0.051507562,-0.046320476,-0.05353076,0.037978668,0.0064867768,-0.014826363,0.009186309,-0.033634044,0.0059424182,-0.028034128,0.034925308,0.06271896,-0.009616062,-0.07366959,0.008059234,0.03633051,-0.015867613,-0.039909083,0.028386535,0.025956688,0.011233414,-0.037800927,0.045139093,0.012432311,0.019612247,0.010092991,-0.033139583,0.0467983,-0.018487943,0.00209935,0.07227383,-0.062031,-0.004717031,-0.011144841,-0.01880055,0.010597304,0.024752177,-0.01941683,0.014968882,-0.040466886,0.012157285,0.04466416,0.092186,0.0049554207,-0.07411967,0.08891077,-0.005349208,-0.05745015,0.004485579,0.053156454,-0.010430992,0.009725052,0.0108483555,-0.0022408383,-0.047934078,0.057908684,-0.009430917,0.015619589,-0.06767557,0.0030431226,0.09974418,-0.025040902,-0.030239718,-0.010074731,-0.006009974,0.053253025,0.009378196,0.022480033,-0.057026196,0.02104558,-0.0510528,-0.005917771,-0.066661455,-0.05804108,0.059877343,0.009864342,0.011324554,-0.0056582927,0.0009626426,-0.05413464,0.010145875,-0.034784775,0.022325404,-0.041612025,0.030029565,0.0059343316,0.014080724,-0.065366186,-0.052247,0.07167807,-0.016801175,-0.0633399,-0.05263081,-0.007901722,-0.054445103,0.023738198,-0.030029848,0.009051502,-0.0489997,0.003612354,0.005356165,-0.023973655,-0.01030779,0.007474611,0.076755956,0.036922224,-0.015154984,0.026711896,-0.017988222,0.048200924,0.03405599,0.02647078,-0.008429691,-0.014076056,0.006855583,0.0010965538,-0.04987104,0.009890373,0.0029180206,-0.0007751468,0.0056477888,0.032048285,0.05888886,0.015486737,-0.012577384,0.08732765,-0.02052084,-0.015005815,0.010522232,0.013517983,-0.012991662,-0.02133032,-0.012243605,0.03626309,-0.020283956,0.045607623,0.034375876,0.040669955,0.010917715,-0.07298435,0.0039526788,0.05306658,-0.012880741,-0.025246572,-0.047659762,-0.016142504,-0.018331112,0.08073519,-0.018849138,0.012201227,-0.0010209938,0.034791984,0.08948379,0.007752772,0.044322215,0.030900117,-0.025427107,0.06720077,-0.022723572,0.0031365214,0.015745822,-0.02289443,-0.0015665952,-0.009126116,0.013818191,-0.035166357,-0.046575084,-0.008179603,0.017796531,-0.009201926,0.019447993,-0.015940862,-0.056938328,-0.023178272,0.0036202339,-0.07479296,0.034586657,-0.03963343,-0.006984632,-0.05251184,0.056711763,-0.08429226,-0.025257781,0.028613942,0.0052726557,0.08391151,0.028006125,0.011626223,-0.0016214752,-0.072927356,0.10120756,-0.05345349,0.051014803,-0.029206565,-0.01855196,-0.070432,0.10782428,0.025509128,0.011310449,0.0961415,0.02083641,0.021142896,-0.043889213,0.026384663,-0.01928409,-0.026098676,-0.024226893,-0.083824895,0.03726578,0.0135157555,-0.033553064,-0.0035201085,0.031619225,-0.008153922,-0.06188693,-0.05038413,0.026689555,0.05359478,0.10383393,0.13876402,0.020430667,-0.006935973,0.04357282,-0.012734578,-0.043190304,-0.018335028,-0.0046095303,0.05630316,-0.016755879,0.006626388,0.013750011,0.032290295,0.01873021,-0.002744626,0.03203824,0.04353347,0.030085133,-0.048810463,0.030787116,0.040185828,0.03241663,0.02775054,0.023249928,0.049239647,0.012166001,-0.037891455,0.03886215,0.047723163,0.006213587,-0.006205424,-0.046542697,0.056054574,-0.060018133,-0.032518778,0.024712553,0.01166196,-0.019951377,0.03964168,-0.025140902,-0.11095944,0.055632208,-0.03412043,-0.0020387215,-0.038600314,0.0135437315,0.00030648746,0.035892364,0.005138415,-0.0848731,0.0076922113,0.019841691,-0.00012280414,-0.018506216,0.081976965,0.009561656,0.026776055,0.03580502,0.054691214,0.037223052,-0.051104423,-0.086736955,-0.0055686575,-0.054459993,0.010356295,0.05383733,0.023432644,0.048585217,0.04217454,0.050910227,-0.030258523,-0.06219681,-0.054737516,0.009850592,-0.03562523,-0.018679768,0.055602998,-0.03380198,-0.065200634,-0.027897773,0.0010165925,-0.015984971,0.030225387,-0.021812674,0.014722503,-0.05152516,0.0053636734,-0.026336636,-0.04518824,-0.015809368,0.027462475,-0.05022959,0.0025850802,0.00761868,0.025989654,0.027153369,-0.041062992,0.013315549,-0.06786342,-0.018448615,0.10837138,0.006007426,-0.017722268,-0.031798862,-0.018850673,-0.057868272,0.019371528,-0.030078584,-0.049732782,-0.02957259,-0.039891288,0.019415686,-0.01809936,0.024890082,0.0057594427,0.08118457,-0.006006168,0.008461739,0.08258111,-0.0051870546,-0.013056998,0.04885815,-0.021536857,-0.0017282991,-0.06048989,-0.05136069,-0.064007305,-0.030015647,-0.05108257,0.0095045,-0.016640777,-0.0004721812,-0.07236693,0.027051823,0.0013155704,-0.019172823,-0.005303563,0.047243953,-0.05477678,0.024804147,0.013459831,-0.041023448,-0.051486246,0.0348641,0.025299268,-0.06748333,-0.045132477,0.021674516,-0.0046901396,-0.038287107,-0.045399215,0.067974955,0.009136296,-0.10110799,-0.06674347,-0.048327483,-0.005499314,0.008499079,-0.0580339,0.023577701,0.021134071,0.023855919,-0.010232142,0.018914837,0.003632524,-0.062341046,0.051886186,-0.012027958,0.015003622,0.046071026,0.022909991,-0.0343721,0.030646,0.051577687,-0.05537925,-0.0042760917,0.012004097,0.014872913,-0.051094495,0.05082404,0.045170758,0.02662527,0.019423604,-0.034823176
0.010236362,-0.03042249,-0.0014935454,-0.038849443,0.057009064,0.057688516,0.044974383,-0.039545663,0.010926251,-0.005308087,-0.002638925,-0.048833843,-0.0040589334,-0.026641963,0.0009456377,0.010449292,-0.03800302,0.0014600331,-0.024319911,-0.003353191,-0.0026426413,-0.054244205,0.0050182594,0.036402587,-0.02470564,0.032296985,-0.0032123947,-0.0010916712,-0.03101059,0.008167091,0.022358982,-0.03088627,-0.020098735,0.0038810736,-0.099376425,-0.018611409,0.027025439,-0.04120547,0.04753377,0.01051804,0.012465141,-0.009808042,-0.04535479,0.048088204,-0.04515693,-0.022053218,-0.04940011,-0.045867343,0.037218675,-0.009224007,-0.04882514,0.044623375,0.025575114,0.015862845,0.0008640843,-0.032840777,-0.043484747,-0.013004062,-0.013475543,-0.011932354,0.01484085,-0.025423015,0.016141297,0.037175372,-0.044198517,-0.00385545,0.04608192,0.044506606,0.011565622,-0.008746689,-0.040001612,0.012376392,-0.022860464,-0.025253376,-0.0010524149,0.062012166,0.017863825,-0.025483144,0.0058705145,-0.026810886,-0.025789976,-0.011242029,0.0054198075,-0.0020258625,0.054268662,0.041970808,-0.015426653,-0.010967259,-0.012096732,0.015049712,0.0027535558,-0.017588701,-0.017970141,-0.011154507,0.04204447,0.023266762,0.018780926,-0.022011796,0.008203193,0.020501845,0.0073548853,0.01621542,0.027720038,-0.03728832,0.031432305,0.005553774,-0.04643458,-0.0038288394,0.01775073,-0.0029108855,0.052233487,-0.051952753,0.038934294,0.03320763,0.0077498504,0.030793635,-0.030268732,-0.03655798,-0.011370803,0.022913372,0.0019831855,-0.019093098,-0.015623419,0.019746132,-0.040621888,-0.026872687,0.011418338,-0.020356586,0.044350598,-0.006691012,-0.038034167,0.016620088,0.00040866152,0.040670708,-0.0076406463,-0.0023472284,-0.032982267,0.005565498,-0.01761364,0.04444387,-0.026639683,-0.07855067,-0.03758022,-0.030180631,0.057137128,0.025196623,0.021649685,-0.008177051,0.021697227,-0.04309368,0.029111095,0.035018314,0.012206097,0.017510304,0.014598989,0.0044848304,-0.011128044,0.0049675717,0.010923956,0.00012964201,-0.045072924,-0.033706624,0.007827224,0.021836106,0.007914985,-0.012107727,-0.029348575,-0.03130798,-0.013039673,0.019102132,-0.021509085,-0.028787313,0.033283014,0.09062444,-0.032986477,-0.011466541,-0.0040372107,-0.008143237,-0.008900705,-0.006210808,0.052637294,-0.024326287,-0.072212435,-0.055499155,0.013311577,0.037325945,-0.02311389,0.0132861,0.032934625,0.047520924,-0.002613238,-0.04440866,-0.04356495,-0.011764068,0.014011659,-0.0133570125,0.011432703,0.021554712,-0.036898147,-0.04836586,0.0586538,-0.0028614956,-0.016844058,-0.03956057,0.031256936,-0.033777334,0.030204115,0.047040556,-0.0451504,-0.013572345,0.039918534,0.009384455,0.05141451,-0.037745137,-0.0028335063,0.0012443346,-0.030697474,-0.0022054322,0.010069727,0.03242829,0.022938788,0.002086403,0.014485851,-0.037604243,0.05917476,0.01775175,0.010106716,-0.047730684,0.004860545,-0.014975518,-0.056433294,0.0016400315,0.035040595,-0.013529622,0.032327957,0.025202747,-0.033421118,0.011465721,-0.015795454,-0.026490416,-0.0076771965,0.017386034,0.003084229,-0.015794815,0.01638609,0.044921152,0.021705987,0.07625426,-0.03269935,-0.0044965246,0.020265937,-0.03171662,0.0013388561,0.032338057,-0.006135578,0.0032089069,0.016919477,0.06471333,-0.007938726,-0.034364045,0.0005213285,-0.032159973,-0.0014960071,-0.0039338167,0.0148722045,0.0073707877,0.011117182,0.008290018,-0.03472804,0.030373327,-0.008459928,-0.0078340275,0.007070958,-0.043762453,-0.02572559,0.005649534,0.00085882976,0.022182113,-0.033194512,0.05000669,0.0238456,-0.054594837,0.017431216,0.0019141141,0.0014441718,0.044343032,-0.044736575,-0.0014212539,-0.047385883,0.06394932,0.042175565,0.003982903,-0.007922158,-0.038570866,0.034256425,-0.017831247,0.019735683,0.03137426,-0.031205205,-0.011634985,0.009251392,-0.008782941,-0.05336737,-0.08508908,0.024147749,0.0022889746,-0.026632069,0.019431872,-0.0059236637,0.011265899,-0.039092176,0.004264341,-0.016407875,0.0013926585,-0.03311094,0.021321053,0.01684022,0.044269804,-0.0042575803,-0.03827329,-0.022856614,-0.05267247,0.04979569,-0.013174763,-0.030665392,-0.004864887,-0.033694055,0.022013713,0.02844697,0.035631023,0.0061286013,-0.005910596,0.010800661,-0.0054286313,0.04783558,-0.03877474,0.0455654,-0.040294994,-0.007170731,0.0053288215,0.0095996065,-0.0015913153,0.0011111712,0.026401764,0.03380538,0.025627421,0.037601255,0.011979375,-0.026554162,0.060629748,0.024255332,0.07530377,0.045596663,0.038007442,0.007708087,-0.021177953,-0.01699118,0.04646933,-0.008838656,-0.01730526,-0.0020452193,-0.052565772,-0.002910424,-0.063683785,0.036789924,0.030016856,-0.027991613,0.012896402,0.01192765,-0.02691846,-0.07110833,-0.046514247,-0.009259809,0.011147508,0.025909338,0.024924103,0.005019658,-0.011521132,0.03371049,-0.020773895,0.0046709273,0.040017683,-0.027709821,0.043003507,0.025628237,0.039967563,0.013950058,-0.010072635,-0.012047924,0.042242084,-0.053698774,0.00031855868,-0.0068614166,0.009179658,0.015388118,-0.034085374,-0.0002756405,-0.046332534,0.0213983,0.030013423,0.024277654,0.006252212,-0.026789175,0.05480176,0.044541784,-0.020038377,0.08786479,0.010410152,-0.03308514,0.035098117,0.026191125,0.042714253,-0.06827088,0.03981237,-0.026996566,0.019451128,-0.02020298,-0.015203893,-0.03424786,0.0029040396,-0.05825122,0.031062163,0.029362129,0.016300794,-0.015186934,0.048448864,0.008116538,-0.0308015,-0.0029760874,-0.026421946,-0.00051470264,0.010330199,-0.05983594,-0.039586164,0.0019816519,0.068793155,0.028274225,-0.005892892,0.029876588,-0.034096837,-0.05802962,0.010104767,0.02226333,-0.01312277,0.01728098,0.04809723,-0.007082145,0.021113744,-0.018440036,-0.05571088,-0.0496645,-0.05641648,0.02726325,-0.037528895,-0.015581541,0.049462527,-0.019187821,0.026441734,-0.004582084,-0.008765052,0.028114207,-0.0034548608,-0.010620202,0.036600433,-0.025766779,0.0134035805,-0.001342165,0.01711482,-0.014574326,-0.04412962,0.020620355,-0.024229204,-0.0039808867,0.008107502,0.045241203,-0.0057525313,-0.023044255,0.036039334,0.018811878,0.005295979,-0.07428361,-0.060464256,0.014193956,-0.030638639,-0.026452651,-0.021481978,-0.010386773,-0.02420427,0.0067696106,0.03348456,0.0076235817,0.0401905,-0.0010648466,0.003926307,0.070657685,0.0071349596,0.014892322,0.07441665,-0.056870412,0.04904125,0.032918513,-0.075729825,-0.0014206258,0.055304814,-0.009059013,-0.051490553,-0.0005482527,-0.0075726653,0.0011902171,-0.017952783,-0.03998587,0.03216622,0.041347645,0.021200938,-0.051285867,0.03964673,0.07449895,0.011651674,-0.074776456,0.0046606455,-0.015476709,-0.017679377,0.0063077994,0.01251917,0.00892702,-0.020263603,-0.0020491052,0.0042369785,-0.04339272,-0.011944908,0.011789572,-0.017558651,-0.025623662,0.013869784,-0.04504545,-0.042441737,0.03437652,-0.029914612,0.03142584,0.0028503628,-0.013619255,-0.05207991,0.013824641,-0.00054714043,0.02868208,0.0059258626,0.014193758,0.045760553,0.04241429,0.027576502,-0.007744833,-0.02813288,0.020734947,-0.0020691822,-0.010953912,-0.020141447,0.0070394087,-0.02388383,-0.04553646,0.031293336,0.030983202,-0.049159028,0.007983954,-0.012837356,0.0062123644,-0.026281005,-0.0066047274,-0.062402066,-0.024497243,-0.0051484457,-0.0077478364,0.027958894,-0.002420059,0.00045530227,-0.016533228,-0.009461297,0.024648486,0.06772802,0.030138193,-0.0611745,0.010976869,0.030010836,-0.019192081,0.033637993,-0.0012700646,0.049110945,-0.014294002,0.020017447,-0.0021918826,0.00033521026,0.05227748,0.04090681,-0.0318648,-0.010723894,-0.014759654,-0.06433164,-0.018073592,-0.0077460115,-0.056219246,0.024785047,0.02444317,-0.0041111815,0.050195567,-0.03087718,0.049301945,-0.0042168517,-0.023331685,-0.018261326,-0.05898532,-0.024823515,0.019162858,0.0051651937,-0.015558789,-0.027274279,-0.008703868,0.004515541,-0.030731954,0.0051406682,0.07480896,0.03921106,0.03502861,0.009493121,-0.00095828314,0.038103007,-0.046899684,-0.0020859377,0.0025841887,0.022873228,-0.011144933,-0.03083679,0.0024371454,-0.026354551,0.05806707,0.028866654,0.046752013,-0.024584277,-0.0047337674,0.014727119,0.041860662,0.04479822,-0.0553975,-0.040588077,0.0030462388,0.032048237,-0.05331085,0.018115237,0.010152641,-0.0047313776,-0.04015137,-0.0052690697,0.0043018353,0.028135696,0.03142328,-0.057601534,-0.0035869791,-0.027190275,0.018633582,0.05112129,-0.05013198,0.00047026316,0.028370356,0.013922764,0.01949099,-0.016572775,-0.042828202,0.03247381,-0.036302518,0.0075308057,-0.03405353,0.018161716,0.020632653,0.01580793,-0.012468955,0.0071497457,0.03825289,-0.018854313,0.041921016,-0.0049157212,-0.03310852,0.047374275,-0.05732562,-0.045397885,-0.028619515,-0.022642571,-0.05159656,-0.024391767,0.010780145,-0.031091813,-0.024495613,-0.0061039426,-0.01159993,-0.0058399267,0.0516433,-0.059942614,-0.042598262,-0.032077797,0.027516706,0.02883264,0.023997862,-0.0074461955,0.015268541,-0.014925831,0.0111608235,-0.0380672,0.0008397654,-0.014646005,0.009606133,-0.028660482,-0.0046585836,0.056868263,0.00955141,0.025496973,-0.02091903,0.022354493,0.009854238,-0.020129653,-0.010762318,-0.020637656,-0.0065535433,-0.03521881,-0.030028123,0.045265906,-0.028943501,-0.038139623,0.04228968,-0.012114094,-0.0159238,-0.07219088,-0.08538716,0.017594459,-0.030455556,-0.0043619536,-0.023683414,0.051264945,0.01561233,-0.009182291,-0.02235458,-0.0037659653,0.008670396,-0.021861859,-0.07471424,0.086724505,-0.07322593,-0.039137572,0.01649357,-0.13483503,0.042271096,0.02874952,0.010495008,0.049982835,0.10645284,0.0371577,-0.023384532,0.102700055,-0.012889897,-0.016224433,-0.003565417,0.039166648,-0.036235906,-0.025670718,-0.027888225,-0.053212762,0.0397661,0.018702576,0.024293793,-0.033623286,-0.010881431,-0.014119573
0.058829837,-0.019644747,-0.036076862,0.0139652835,0.19874105,0.079758376,0.11393893,0.012406991,0.09346595,-0.0005600773,0.027878394,-0.11183267,0.021931447,-0.13785936,0.041475814,0.012660075,-0.13348162,0.034801267,0.02972615,0.063632905,0.033902496,0.0066781226,0.030885715,0.15336022,-0.13530287,-0.0030103265,0.057679415,-0.073047765,-0.014641193,0.046483733,0.0041923416,0.0025343755,0.05445364,-0.00548473,0.0015233023,-0.058689356,0.014286025,0.040324762,-0.16776435,-0.043056976,0.021538552,0.034654617,-0.044148367,-0.01135803,0.15476298,-0.031788114,-0.02970507,-0.0062116226,-0.02643564,-0.010992195,-0.060375076,0.033938695,0.018755747,-0.019086106,-0.05746148,-0.0021045737,-0.010918147,-0.023247082,0.02792502,-0.00043671226,0.086325765,-0.053222813,0.06656206,0.04999711,-0.12880936,-0.005526448,-0.013667921,0.010251422,-0.00031205552,0.03278218,0.095843025,0.0078038173,0.050168477,-0.05107741,0.026764028,0.026352862,-0.02142456,0.0035115224,0.03540558,-0.04027405,0.04855579,0.10023898,-0.018860167,0.06321968,0.1604806,-0.003967599,0.08983126,0.02445475,0.06326631,-0.04038368,0.10375807,0.021840788,0.03916574,0.095686294,0.05519778,0.11966608,0.16998936,-0.02913688,-0.01807496,-0.011365367,0.032924145,-0.022766998,0.044008456,-0.030555576,0.038978033,0.07045669,0.18073341,-0.040255062,0.060851976,0.04445057,0.052504815,0.11131093,0.03028807,-0.04381081,-0.056597248,0.032934945,-0.03641021,0.03243916,-0.021576343,0.0100285355,0.072367325,0.12595366,-0.016443947,0.09293808,-0.12531248,-0.01622077,-0.0012548071,0.024169322,0.039286293,0.041065916,0.009001566,0.10793824,0.014264105,0.099328816,0.014233333,-0.04439054,-0.06543383,-0.027868582,0.007862237,-0.06899821,0.038451083,-0.12658574,0.087141216,-0.049126677,0.05144057,-0.011692361,-0.09415092,0.117407456,0.030445391,-0.1704933,0.013667917,0.053262968,-0.10931421,-0.008812541,0.07934909,0.0628933,0.094931506,0.0009023387,0.04589651,-0.046830263,-0.04620135,0.07281754,-0.014249743,0.014611281,-0.06274555,0.015014576,0.050325707,-0.01935211,-0.10871325,0.047946565,0.03704964,0.015487226,-0.0036464268,0.016315011,0.0047799433,-0.0725158,-0.022102166,0.13778532,0.013064167,0.07283798,-0.13107786,-0.13613367,-0.07260131,0.007874799,-0.057907242,0.07307067,0.011975315,0.0023079214,-0.07698997,0.049689677,0.024945274,0.021213284,-0.0080972165,0.012430048,0.03277521,0.08641058,-0.023519687,0.025467455,0.053609755,0.005567338,0.01339223,0.036559884,0.020933907,-0.05213136,-0.0014112267,-0.04828101,0.07478826,-0.052308723,-0.13897137,0.045558047,0.0210247,-0.068304166,0.013823418,-0.051463913,-0.0070558037,-0.023264645,0.023350157,-0.120450914,0.005311179,-0.04780817,0.076886944,-0.008962133,0.17525764,0.041203555,0.04535706,0.045711666,0.020551318,-0.020249724,0.06435175,0.009884561,0.009986848,0.0046679154,0.054467138,-0.027914194,0.048119526,0.010846719,-0.10057007,-0.0041578757,0.031447947,-0.027184801,0.022653868,-0.067690134,-0.0942426,0.04768319,0.057854936,0.005713156,-0.0269339,-0.07029711,0.03720424,-0.04678477,0.11565125,0.046251275,-0.028991882,0.047467608,-0.0061284443,0.0907163,-0.040784687,-0.010537811,0.034808565,-0.0076220436,0.036432374,0.1193069,0.010660259,-0.017108474,-0.024898741,-0.022265986,-0.011232732,-0.14259946,-0.07831967,-0.0300711,0.036098294,-0.07077116,0.09792266,0.0937958,0.16169296,-0.021097345,-0.0019414722,0.06579802,-0.06271404,-0.15048917,0.049857873,-0.04599023,0.008818361,0.03311642,0.04918009,-0.007926347,-0.14285016,-0.17483966,-0.030228876,-0.00068326836,0.00424556,0.08657847,-0.030446002,0.016965555,0.019832436,-0.035703503,-0.014594663,0.050804757,0.012260916,0.0019711573,0.05339331,0.0032722815,0.04363065,0.024484184,0.027080912,0.073274724,-0.08207544,0.096906,-0.045567714,0.073412195,-0.0135107,-0.0022714017,0.080304675,0.010396847,0.039617732,0.00476768,-0.04122828,0.04374757,0.029032782,-0.08140503,-0.002251872,-0.1120691,0.11548988,-0.07557215,-0.03818025,0.09730397,0.06142109,0.014351088,0.01109204,-0.116867416,0.029970016,0.051603686,-0.032607462,0.037273016,-0.07199225,0.031113079,-0.12402793,-0.08361625,-0.068583086,0.10441261,0.027003298,0.055752717,-0.042942155,-0.04260155,0.056122687,-0.16224654,0.009000403,0.06191726,0.16143279,0.05114372,0.022288408,0.008177541,-0.00018355866,0.013629874,0.09961115,-0.024055786,0.07791492,0.07293451,0.048613407,-0.051455133,0.05256481,0.055508375,0.01964167,-0.021985464,0.032944392,0.033458214,0.037048064,0.06687324,-0.0735216,0.011390306,-0.0033048908,-0.081177,0.020470724,0.024622463,-0.1256086,0.08776623,-0.07436965,0.09660288,0.05559737,-0.04653813,0.01681318,0.07377148,0.06850996,0.027825542,0.016011456,0.030086102,-0.00069477677,0.0011903611,-0.010688324,-0.05914186,-0.001921827,-0.036477406,0.031632178,-0.004499615,0.023895662,0.07050389,-0.06666767,-0.086877316,-0.015578718,-0.050817445,0.014854542,0.038339898,-0.0012969376,-0.008437297,0.020969521,-0.02539711,0.022443451,0.059288442,0.0799895,0.10953303,-0.070846416,-0.11534835,-0.06264687,0.033858407,-0.0700962,-0.032904122,-0.014045757,0.07803791,-0.013491864,0.046742633,-0.1347992,-0.044578522,0.0011054324,-0.008373585,0.034283955,0.033120617,-0.008847005,-0.09803273,0.14521942,0.028104423,0.092563614,-0.07139999,-0.07538595,-0.07112916,0.028873393,-0.07783188,-0.08446972,0.03180828,0.0034050653,0.12512906,-0.13557056,0.08554947,0.051405568,-0.090979904,0.015625527,0.05243609,0.049921714,-0.006398472,-0.020169357,-0.03209551,0.03812343,-0.04154559,-0.03364095,0.038241893,0.00051635463,0.021557495,-0.02768425,0.08930215,0.05769996,-0.061499454,0.03522445,0.068611324,-0.029730743,0.019961817,-0.08941815,0.074255064,-0.055299904,0.040201664,0.09196171,-0.012225714,0.15594593,-0.07294511,0.15730843,-0.054524705,-0.01674211,0.052978247,-0.10684979,0.035274338,0.024521997,-0.0014345857,0.030817242,0.008835081,0.0066626687,0.013319448,-0.032521963,-0.04977581,0.0059399838,-0.039838124,0.055167686,-0.0026602463,-0.009497893,0.007646631,0.056251332,0.114026256,-0.013306434,-0.047244497,-0.06643728,0.067332216,-0.12793536,0.09162556,0.026214562,-0.04605269,-0.048856992,0.1090984,0.066922344,0.08219474,0.023347715,0.04762606,-0.052102517,-0.054546192,0.012984495,0.11417574,-0.0060287854,-0.030549388,-0.019524146,-0.0710406,0.0066977707,0.048084147,0.08270576,0.04749714,0.0047812127,-0.10313567,0.036402892,-0.058881387,0.03950624,-0.10558912,-0.021612413,0.08512576,0.12073022,0.02244179,0.19030304,5.6797344e-05,-0.044081677,0.0026922335,-0.19946931,-0.092691146,0.006521328,0.010348994,0.037671503,-0.038328137,0.15844409,-0.12264058,-0.055612978,0.09330992,-0.10964944,0.008897144,-0.14462397,0.13585392,0.023051515,0.09723229,-0.0046291053,-0.032649312,0.082887255,-0.053905863,0.11382087,-0.027791314,0.040451664,-0.012871122,-0.049913272,0.022571605,0.022322139,-0.02057336,0.00031589964,-0.00015159065,-0.052379802,0.032925732,-0.017810043,-0.08401464,0.04382344,-0.10407545,0.07963175,-0.2526896,0.045280553,0.013267079,-0.030848918,0.03408101,0.101451464,0.06800004,0.018003117,0.04968585,0.062665254,-0.025318524,-0.045753583,-0.022987863,-0.114543274,-0.023250174,0.040891685,-0.0697799,0.1505863,0.022958254,-0.020025212,0.032611135,-0.023205282,0.04144827,0.033505566,-0.17270719,0.0696988,0.084728785,0.010786896,0.09766234,0.03584834,0.048367806,0.0064159743,-0.043438256,0.046234142,0.0034148407,-0.014574489,0.015213261,0.01584173,0.030522956,-0.07806499,-0.03147906,0.063147664,0.03438168,0.058013935,-0.031073429,-0.013952083,0.08976319,-0.019989522,-0.17879446,-0.035569735,0.057080742,0.03592151,0.05746114,-0.07562109,-0.009400989,0.05869283,0.031200098,-0.07669923,0.041587923,0.026164223,0.039132223,0.006909497,0.08683289,-0.043429725,0.036044665,-0.18869258,0.069768734,-0.01611487,0.11011338,-0.10264384,0.09503352,-0.08926318,0.11371537,0.008082245,0.045871858,0.07871782,0.04921618,0.05180821,0.07815694,0.15411787,0.12993135,-0.11595315,-0.11323541,-0.009241972,-0.008247124,0.06673957,-0.025380116,0.023650734,0.20648132,0.047557607,0.0645319,0.023868147,0.04114864,-0.082783684,0.042485986,-0.026344903,-0.084008574,-0.0008587323,0.010645082,0.031157574,-0.03071539,-0.025220202,-0.029562192,0.016870048,-0.00930036,0.008004291,0.014477295,-0.0627803,0.028637536,-0.15802424,0.014698838,0.043553658,0.045807555,0.039316077,0.024741137,0.05154851,0.017623559,-0.02625473,0.031852383,0.090410694,0.022209927,-0.06420736,0.058345877,-0.053030513,0.0057847025,-0.108534046,-0.050084382,-0.033189807,0.0054155677,-0.024153855,0.092408724,-0.0631164,-0.051807262,-0.0051154476,-0.02319748,0.08905394,-0.0580877,-0.060121763,-0.09273956,0.11278209,0.033897843,-0.0028763032,-0.10706701,0.0055286097,0.011475785,0.026217733,0.024607318,-0.01875685,0.06447223,0.062224437,-0.010524845,0.0012504657,0.011683962,0.024260111,0.0076293624,0.05591687,-0.049036566,-0.055495743,0.05814336,0.025554873,0.015891548,-0.0035446542,-0.055068318,0.03806072,0.08266218,0.011716107,0.042838,0.077087276,0.018271197,0.00087844004,-0.061149303,-0.07709131,-0.043675113,-0.005740991,-0.056362536,-0.23073256,-0.012874595,0.096247606,0.0019056723,0.0640252,0.03635311,0.0070765535,0.05496482,0.070200086,0.090622,-0.022866677,-0.090452395,-0.01940328,-0.010074189,-0.102143854,-0.008564569,-0.07537969,-0.05889614,0.054648686,0.08776292,0.13879669,0.013222169
-0.022414152,0.01988916,-0.012895655,-0.05371931,-0.0028187193,4.6803103e-05,0.072600916,0.0681179,0.0068219155,-0.003913395,0.042253464,0.0007049951,-0.015931018,-0.05570112,0.0055824886,0.010243836,-0.0009918014,-8.897321e-05,0.0015930322,0.020666422,-0.025542578,-0.015511728,0.011849119,0.014006652,-0.039800327,-0.0798175,0.0709919,0.03070976,0.0020585873,0.0016385809,0.0014539467,0.054889295,-0.016669327,0.043914817,0.033176463,0.077204205,-0.04492169,-0.0036291182,0.023995742,-0.032531846,0.05382348,0.031146958,-0.06488055,-0.071004085,0.031017127,-0.061749406,-0.09769314,-0.015821138,0.045843795,-0.0029994634,0.05668647,-0.017681021,-0.042090487,0.036143098,-0.05900852,-0.04355325,-0.030805992,0.012635533,-0.013612677,0.016977143,-0.042798188,-0.08754534,-0.013056383,0.02171289,-0.035291977,-0.042730447,0.058800068,0.08562104,0.059623454,0.064361915,-0.0054097124,-0.060536344,0.022369923,0.07256878,-0.074249096,-0.012118353,-0.06072544,0.0058575138,-0.0070029804,0.0047444147,0.011169889,0.007836122,-0.0031365827,0.020479726,0.020335244,0.00616267,0.016586967,0.03225803,-0.061468538,-0.029099269,-0.04486952,-0.037670847,-0.04053768,-0.0029656587,0.027684797,0.044359326,-0.11558917,0.050098542,-0.055657264,-0.0038648297,0.0350617,0.02894807,-0.07033773,0.0057257623,0.026986036,-0.03308172,-0.019714033,0.03081547,0.013129514,0.009059367,0.05213003,-0.008937991,-0.008545877,-0.029866196,0.03013511,-0.038554534,-0.001022809,-0.043877814,0.027034665,-0.013996621,0.01972083,-0.096316904,0.016374711,-0.04652865,-0.027569098,0.005071782,0.08191261,-0.041134015,0.009900272,-0.005498542,0.02937047,0.0726456,-0.008802744,-0.056760304,0.042631164,-0.062054172,-0.0041491007,0.03198945,-0.028681166,-0.047174845,-3.5524674e-05,-0.048911653,-0.028031241,0.05961331,0.051603127,0.019152911,-0.033605535,-0.043880012,0.012572924,-0.0078062746,0.030489754,0.038032606,-0.03898337,0.06565652,0.06541122,0.050290328,-0.055815235,-0.027244123,0.024293795,0.02409945,-0.043819718,-0.015185716,0.030428052,-0.081755176,-0.051837787,0.031789206,0.05426255,-0.08618328,0.023302052,0.013985842,-0.021080682,-0.0591942,-0.0047366857,0.038652185,-0.0037789764,0.050467946,-0.0153433215,-0.011758351,0.0025995811,-0.014517256,-0.0016923924,0.019088807,0.008136346,0.041260626,-0.02013211,-0.032190025,-0.024235524,0.0315784,-0.01135973,-0.064316176,0.048869237,-0.02426973,-0.022944115,0.01023801,-0.058436003,-0.010502398,0.015846062,0.05343789,-0.03856268,-0.026049986,0.03284158,0.022671163,0.058241535,0.053330954,0.018218154,-0.002991054,0.048072446,0.008735179,0.0024662938,-0.036810886,0.03460224,-0.0060724644,-0.016851753,-0.031637542,0.018357975,-0.0055455393,-0.037599232,0.08133843,-0.018890554,0.00056604523,-0.013040739,-0.017239064,-0.032043852,0.018775662,-0.059080306,0.031333253,-0.029615382,-0.010406321,-0.054015804,-0.057450198,-0.024932576,0.06349771,0.05987269,0.043813776,0.10219141,0.022063928,-0.006175138,0.060871147,0.028807437,-0.028415494,0.049562976,0.02069943,-0.030403445,0.0023620434,0.03652956,-0.01571358,0.067784816,-0.038070254,0.0057307617,-0.026483156,0.030857526,0.03624381,-0.005864893,0.0175972,0.021421533,-0.032088663,-0.019798325,0.078004315,0.010455771,-0.034978606,-0.004775872,-0.028048303,-0.06038732,-0.02339461,-0.023862788,-0.006146148,-0.0061697992,-0.032702796,0.026769906,-0.016550798,-0.06271806,0.06916153,0.041151356,0.0034448707,-0.018379008,0.07122442,0.09909512,0.008688158,0.05342521,0.03425769,-0.03440584,-0.03613708,-0.02985603,-0.024468752,-0.035406426,0.003172106,-0.077277064,-0.0008130322,0.04385169,-0.025039619,-0.037132677,0.040095996,-0.0045451387,0.036026627,0.014427369,-0.00053227466,0.04075532,0.044094127,0.02024983,-0.013173498,-0.03543001,0.0010684102,0.04204911,0.028686464,0.007271886,-0.015632125,-0.00014159981,0.099878035,0.04915001,-0.032408793,-0.011807038,-0.06909296,-0.008027511,-0.021269541,0.0028968686,-0.003888061,-0.037268598,0.033417765,-0.07298788,-0.00011350077,0.06284961,-0.069946475,-0.027683763,0.10125751,0.045811415,-0.063531004,-0.07355284,-0.07395684,-0.012526992,-0.0959163,0.009322034,0.031254794,0.020218683,0.00045629428,-0.05707466,0.055093244,0.012732501,-0.026487565,-0.0033163682,0.003441463,0.0300956,0.039170027,0.022315452,0.06156055,-0.015151288,-0.047981042,-0.07508706,0.022439545,0.059955884,-0.0139272595,0.011377085,0.032388076,0.12081658,0.02003677,0.023611363,-0.025458122,0.049460728,0.0020682446,0.021387713,-0.101057865,0.009720966,0.06924578,-0.023411786,-0.040740903,-0.0012186684,0.01690383,-0.0049759545,0.0015525894,-0.016822292,0.041866142,0.01956541,-0.010311578,0.062072285,-0.03644378,-0.06370732,0.03106655,0.043383684,-0.005087564,-0.032059193,0.013046555,-0.0045303353,-0.10477322,0.0066892486,0.011999843,-0.034042086,-0.04683324,-0.0041097994,0.043226313,0.013918481,0.040220354,-0.078154586,0.037508015,-0.015292827,0.021575117,0.0015556084,-0.053028356,-0.024176383,-0.00016263647,-0.035446357,-0.044430893,-0.03375145,-0.0010113314,-0.08156491,0.022259988,0.022731412,-0.025762873,0.0062806765,-0.07402759,-0.017740762,-0.09807038,-0.031203294,0.09853163,-0.03707997,-0.012377457,0.019181486,0.0059520397,-0.040596563,0.01847717,-0.09102752,-0.019321602,0.016033208,0.0017878297,-0.023104295,0.012294417,0.020926412,-0.019025084,0.0023208458,-0.0075451196,0.0007500051,0.025788987,-0.006345438,-0.0012243253,-0.11441573,0.0045980113,0.011850242,0.06935714,-0.05696771,0.07605213,0.037171815,-0.008702385,-0.061892845,-0.0039834795,-0.06845453,-0.004321152,-0.010201773,0.061708227,0.024046803,0.006852061,-0.012936857,0.0038347412,-0.050044708,-0.01743727,0.043975085,-0.031018794,0.005246596,0.07583297,-0.023048857,-0.033218626,-0.027154678,-0.06585555,0.05418515,-0.024678696,-0.011814459,-0.050155595,0.05988311,-0.0128180785,0.06662998,-0.021069108,0.024064835,-0.005796919,0.10192266,0.0024998332,0.0026053966,0.006467053,0.06900201,0.04947741,-0.006348358,-0.031954426,-0.0009658518,-0.007600051,0.058202554,-0.058615334,0.033235297,0.0068606944,0.011245179,-0.045815352,0.05842257,-0.029229328,-0.027656823,0.062373936,0.017126579,-0.004931327,0.034739252,0.002576404,-0.056577083,-0.014438033,-0.047796194,-0.033801485,-0.08908329,0.08795433,-0.008336656,-0.06911774,0.027270043,0.025266947,-0.005592293,-0.01193037,0.039198186,0.053560995,-0.008639506,-0.024919331,-0.06573129,0.059186384,-0.018053941,-0.012764597,-0.04954619,-0.03819977,-0.06855931,-0.010550766,-0.043034162,0.022128249,-0.038369935,-0.02345435,0.08096948,-0.013291,-0.0123420125,-0.0108808875,-0.041451927,-0.004871241,-0.08620553,-0.080820754,-0.12791146,0.045468137,-0.035472374,0.018728334,0.1182004,0.039061934,-0.01899421,0.052262623,-0.02656004,-0.026678668,0.09095946,-0.055012807,0.026049856,-0.036040235,0.0051499903,-0.05296812,0.00026360134,0.030900437,-0.01844514,-0.025757568,-0.060304374,-0.026422704,-0.045882404,0.054532487,0.052954435,-0.061428037,-0.071009725,0.021164853,-0.014939579,0.01614848,-0.028058575,-0.010057373,-0.045167804,0.016084302,-0.020980295,-0.033017408,0.056075785,0.010264738,0.0113625005,-0.010233876,0.043065548,0.0031903472,0.036985032,-0.00011804144,0.018125417,-0.012418433,-0.013016833,-0.054314718,-0.021225613,-0.013991276,-0.015532541,0.076593615,-0.0017153173,-0.03815411,-0.032678667,0.013607834,0.03571132,-0.0119431615,0.014186115,0.027507387,-0.07305871,0.0036865524,-0.04889908,-0.0077128788,0.024134884,0.012575808,0.045878597,-0.029460216,-0.053167645,-0.031681836,0.04478532,0.0076932753,0.0066549634,-0.104504675,-0.045579523,-0.05479608,-0.050581396,0.014816384,0.059282333,0.034363817,-0.04441929,-0.010134282,0.04682681,0.053181954,0.052415006,0.016226534,0.0018559092,-0.0037529238,-0.043587517,-0.025675837,0.015460377,0.024364566,-0.03829231,-0.02740274,-0.08474786,0.013574474,0.08072312,0.09173009,-0.010099593,-4.6154742e-05,-0.062597595,0.009644054,0.043640886,0.049468867,-0.0026951123,-0.07152575,0.043094803,0.035842955,0.027271992,-0.058504578,-0.05950568,0.011537144,0.036552247,0.015872205,0.027642732,-0.024055567,-0.05976748,-0.014974743,0.00070789724,0.016617816,-0.015083383,0.041760042,0.027552553,-0.0016700755,-0.07808117,0.04997486,-0.01106196,0.030944442,0.027352473,0.049240872,0.013119046,0.027646322,-0.10542009,0.019414745,-0.01716527,-0.04027918,0.076959155,0.018434418,0.06550912,0.06286432,0.004848881,0.071459785,-0.0023593297,-0.0783139,-0.037211835,-0.006350729,-0.032893088,0.029276956,0.040756073,-0.0011381557,-0.031639017,0.0013613233,-0.027045123,-0.035364337,0.056736667,0.08143654,-0.030437427,0.084487975,0.055031575,-0.038908422,0.026025793,0.050499424,0.045841694,-0.08383579,-0.014342013,-0.010968798,-0.0051792962,-0.031380378,0.03351371,0.0012646985,-0.0049347626,0.061455533,-0.012680659,-0.003919529,-0.03460752,-0.0016966569,0.04742365,-0.05512256,0.030687107,-0.037837774,0.025628962,0.024712779,-0.09382686,-0.06439572,0.049728047,0.009479634,-0.010316731,0.01698996,-0.024399614,0.0034952832,-0.039815478,-0.0036995027,0.017684763,0.02284361,-0.007613261,-0.013597345,-0.018928723,0.04163481,-0.061862852,0.036052734,-0.070872605,0.030576013,-0.008322247,-0.0052530603,-0.05642489,-0.043843143,0.057666797,0.0045581376,-0.041918226,-0.035034217,-0.0007466008,-0.0060096434,-0.027941639,-0.021102525,0.010394507,-0.11058374,0.011757536,0.03777189,0.009423584,-0.0031028136,0.047054034,-0.01623347,0.00013518588,-0.049717516,0.043912172,-0.023499487,0.0029012726,0.047325242,0.020185212,0.03561067,0.007362546,-0.03924912,0.056241564,-0.06863933,0.017445741,-0.01545242,0.0608577,0.03334975
-0.0371269,0.023548398,0.041238945,0.05915386,-0.024013493,-0.0349666,0.049050983,0.01926391,-0.14812101,-0.019885657,-0.010253946,0.0069851517,-0.059687886,0.030466158,0.0049175504,-0.021632144,0.013196049,0.036786478,-0.031784665,0.06330721,0.046969194,-0.05418228,-0.039091386,-0.008975092,-0.027579196,0.07178354,0.013899806,-0.011006885,-0.014758162,0.025681375,0.03174538,-0.004674237,-0.026734002,-0.02111931,0.007859356,0.049629845,-0.013159028,-0.038883865,-0.00023069378,-0.015979316,-0.027622925,-0.040255025,0.005717462,-0.032483857,0.046553083,0.0010468437,-0.064280786,-0.027492905,-0.03203233,0.002504102,0.055898175,-0.10247998,-0.024876779,0.031856295,0.040812947,0.021047134,0.02960658,0.0068296166,0.013498424,-0.06610746,0.021599283,-0.057075463,-0.03157716,-0.048572745,-0.033010207,0.0267121,-0.06290454,-0.0014427535,0.0042367736,-0.11085268,0.04521353,0.032101624,-0.009990231,0.011830478,0.02476846,-0.011301973,-0.00960208,0.062137175,-0.041286018,-0.009935795,0.060566723,-0.031111186,0.00026689348,0.0024770903,0.00797739,-0.022996707,0.009627935,-0.08741376,0.02547039,-0.04718577,-0.08198287,-0.022417944,0.010112839,-0.009159635,0.05371838,-0.06910382,-0.017707985,0.0024089208,0.027933696,-0.05805678,0.009799151,-0.05855975,-0.008855581,-0.004359819,-0.04992099,0.035600934,0.0149968965,-0.07195322,0.016924767,-8.107652e-05,-0.031077605,-0.013316848,0.014942888,0.02604571,-0.036352087,0.043940153,-0.0051701465,0.04324331,0.03837988,-0.03614462,-0.016481709,0.03699218,0.016882885,-0.033300906,0.05730172,0.032866444,-0.071093366,0.06033325,0.051412646,-0.0028919068,-0.039757445,0.046402354,-0.001417771,-0.06375519,0.043527793,0.037857763,-0.07360589,-0.023552477,-0.09288486,0.0007204443,0.0013924859,0.012150907,-0.04987142,-0.0042334837,0.1286308,-0.008581628,0.020861719,-0.013545259,-0.0068627656,0.00933588,0.01671753,-0.00356977,-0.016705632,0.0048454623,0.04653319,-0.047913823,0.042861536,0.074209295,-0.017233487,-0.033531174,0.008572396,-0.0142820645,0.002145454,0.06255561,0.0044199,-0.07792578,0.037593275,-0.06883342,0.020962704,-0.0064547076,0.012412101,-0.022055283,0.08778051,-0.050308123,-0.037228413,-0.04663166,0.065808244,0.085015714,-0.009033095,-0.01211272,0.021677649,-0.0308464,-0.020599863,0.028687479,-0.016199976,0.016903974,0.013647528,0.020313539,0.005016509,-0.019546008,-0.0113437995,-0.046651248,0.02976428,-0.11155611,-0.036413155,-0.08026216,0.019497722,0.00048853457,-0.0151361255,-0.05153659,-0.018094976,0.048439603,-0.0917917,-0.002895316,-0.07305533,-0.0013291646,0.011756252,0.066269554,0.06743105,0.0040621553,-0.0132933445,0.08515632,-0.05157284,0.0017653456,0.04395974,0.047331743,-0.0060017486,0.013802255,0.0269264,0.0035579205,0.019871905,0.009843978,0.016987933,-0.020078318,0.04438855,0.04232219,-0.08140673,-0.08260234,-0.05892061,-0.07527767,-0.03558792,0.030634034,-0.030157402,-0.003437552,0.055850394,-0.065043464,0.03991227,-0.04056543,-0.010312535,0.022383738,0.026431955,0.046454187,-0.01555635,-0.0009496774,-0.062772185,-0.05091223,-0.027327055,-0.030854223,-0.031233244,0.039317224,0.025771534,-0.008466425,-0.014231783,-0.0857158,0.059816815,-0.04092681,0.03197864,3.2035587e-06,-0.0844748,-0.04537246,0.046754606,-0.13236274,-0.08642257,0.013244523,0.024181543,0.0011165309,-0.05102679,0.020178806,-0.05807361,0.14081529,0.059433345,-0.106770195,-0.025382796,0.0027895777,-0.013641064,0.048184726,0.031717435,0.08496769,-0.03442016,-0.04046253,-0.0347952,0.01892928,0.013721073,-0.042269558,-0.022566238,-0.012895444,0.019034645,-0.07006669,0.0129990615,-0.023054522,-0.05765487,0.049653545,0.012033627,0.0835727,-0.02974868,-0.05753979,-0.094784416,-0.03982687,0.019138973,-0.09253972,0.039202757,-0.037802115,-0.085644715,-0.08113182,0.07914219,0.061223675,0.019359922,0.041939795,0.0066130757,0.077430196,0.05820739,-0.008620577,-0.030339658,-0.0016179055,0.041899875,-0.076024815,-0.011577168,-0.106679104,0.045432016,-0.057183873,-0.06090778,0.022923317,-0.0677025,-0.07427279,0.046316985,0.022773696,0.023130575,-0.07762656,-0.016131062,0.006661327,-0.02546158,-0.04519249,-0.022734685,-0.0070027187,0.018961828,-0.06521547,-0.096101426,-0.09413978,0.095665306,-0.00216295,-0.0060417354,-0.021562288,0.010871606,-0.08737442,-0.0015957779,0.0039814934,0.025004238,-0.012696412,-0.015799755,0.029299254,0.022523085,-0.06952836,0.034769595,-0.015339972,0.0018853258,-0.010283113,0.06241172,0.059273705,0.013639314,0.017645996,-0.031315584,-0.013506282,-0.025467126,0.029323094,-0.0458588,-0.03836688,-0.06541888,-0.03708196,0.082740605,-0.03506975,0.041860644,0.023881001,0.058621585,-0.025990365,-0.022464858,-0.12439688,-0.03913458,-0.024660507,-0.078657255,-0.0786272,-0.057636272,-0.07590358,-0.002241347,0.08575016,-0.022910692,-0.015727306,0.0008743056,-0.08294186,0.032880373,0.025148585,0.0029595443,-0.027469488,0.005299637,-0.010214109,0.03951188,-0.07307984,-0.11738453,-0.021154664,-0.018025303,0.06257463,-0.09336367,0.035114042,0.03281387,-0.00038632288,-0.013075838,0.0025029194,0.06409028,-0.03558668,-0.015661508,-0.009855816,-0.07367626,0.054305986,0.060460176,-0.04317109,0.04474457,0.0006447437,-0.008312198,-0.023565562,-0.036097106,-0.07065517,-0.060856305,0.01924233,0.06712929,0.035789944,-0.0073535894,0.049785297,0.031315204,0.031260997,-0.0039007268,-0.03555422,0.02321784,0.033164214,0.05587872,-0.0039398074,-0.021032173,0.016723495,0.025280302,-0.0032487267,-0.036629997,0.049793135,-0.0026250484,-0.0031905286,0.065156125,0.007461879,0.012305522,-0.030161373,0.05813454,0.023831336,0.02165466,-0.005367965,-0.089171566,-0.025721578,-0.10174574,-0.081094995,-0.028532868,0.07287262,-0.061774716,-0.022785356,0.048834387,0.04075155,0.03160634,-0.063791536,0.015062866,0.033008926,0.07614722,-0.028253462,-0.056598175,-0.01360788,0.018661939,-0.0055869175,0.057838216,0.02049494,0.0013398635,0.0035889873,-0.004537672,0.0016053377,-0.06276494,-0.051192436,0.03200223,0.013732522,-0.041290812,0.055749707,0.005786444,-0.04559216,0.0021748838,0.052633457,0.02774922,0.011485139,0.046579603,0.04444214,-0.013539753,-0.012552326,0.06046767,-0.06497927,-0.06815713,-0.026003012,0.051969964,0.017200457,0.0044454746,-0.025395213,-0.021110095,-0.0046769315,0.10883038,-0.031114569,0.022959705,0.014068432,-0.063142054,-0.01689884,-0.02250817,0.023680331,-0.01758051,0.10924522,-0.045522325,-0.02462189,0.06514804,0.03663139,0.034325194,0.00066708494,-0.012701207,-0.11564368,0.032944106,-0.06365125,-0.061195504,-0.04329282,-0.029644828,-0.10054712,-0.011850117,0.039905045,0.08105276,-0.01351438,0.021269666,-0.00323861,0.019540448,-0.026502395,0.01804301,0.016195964,0.027406741,-0.010216083,-0.025295109,0.0577404,-0.0739214,0.0309454,-0.03305227,0.03386173,0.09481729,-0.018130599,0.029095694,-0.0003183485,-0.03717848,0.014551736,0.02268563,0.010007474,-0.030535292,-0.031400442,-0.0034016757,-0.052307345,-0.05035657,0.019548455,0.0018006373,-0.04707927,0.046302617,0.04945686,0.011894277,-0.07081671,-0.015392112,0.0094699515,-0.01048471,0.0031986681,-0.042885486,0.024974132,0.019418925,-0.019905305,0.04960111,-0.015396139,-0.0446947,-0.048763636,0.00778777,-0.058163892,0.06630953,0.020586265,-0.035583355,-0.03147289,-0.023242151,-0.045980174,-0.052168723,-0.04998187,0.013837379,-0.104292005,0.010008061,-0.048949163,0.069950186,-0.04990596,0.013231953,0.09110699,0.023302918,-0.0030600515,-0.014518861,-0.025121959,-0.010303352,0.051775113,-0.00797023,-0.027119577,0.020208156,-0.024275696,0.050674822,0.012205381,0.049588066,0.038245775,-0.011629781,-0.047931448,0.06518437,-0.023085969,0.06486549,0.003758552,-0.03932359,-0.011655821,-0.006586344,0.023154713,-0.027976137,0.03711743,-0.02290057,-0.07044936,-0.019261591,0.002506054,-0.03315055,0.08239233,0.038842868,0.013265937,-0.05341232,-0.008091658,0.045588206,-0.07035854,0.019207569,0.042654477,-0.041645225,0.014259427,0.02295294,-0.019218322,0.025004167,-0.008977826,-0.042151958,0.023076953,0.022196922,0.054948308,-0.046682812,0.023541657,0.086837895,0.027534401,0.016198095,0.04340756,-0.053476866,0.02800908,0.01567556,0.02248178,-0.07001961,-0.029333929,0.042045787,0.029087601,0.019683843,-0.05983816,-0.05001063,-0.02090474,-0.044729885,-0.0012815853,-0.033303674,0.01671447,0.05037068,-0.0548451,-0.019483237,0.0056577157,0.009268465,0.039298225,0.056573626,-0.09083622,-0.017680394,0.03032142,-0.0056695766,1.9431995e-05,-0.009933171,0.0155757805,0.037019085,-0.045211334,-0.027983785,-0.065882534,-0.038291734,-0.1044807,0.032033037,0.08269537,-0.018089904,-0.0013113817,-0.022006001,0.042444862,0.06772008,0.029367734,0.03406274,-0.023767427,0.04149686,0.00932184,-0.042174276,-0.05164374,-0.027564043,0.0018313929,-0.0064273193,-0.0026865618,0.039895706,0.03536799,-0.010159813,0.001466417,0.01416172,-0.0523466,0.049615886,0.0008444868,9.298756e-05,-0.0149861835,0.029448755,-0.023899946,0.056367412,-0.043821614,0.05912707,0.026249249,-0.12527268,-0.0029926507,0.00029994018,0.0074501783,-0.09467858,0.032913085,-0.071289256,0.0067581474,-0.061596204,-0.079583436,-0.0059933756,0.048016608,-0.085644044,-0.003199093,-0.028169837,-0.022947866,0.056010723,-0.033310328,-0.095024414,-0.02573961,-0.073581256,-0.038587946,-0.09974879,0.018125173,-0.021701299,0.039689034,-0.0115578165,-0.020120298,-0.023412809,-0.06907677,0.042695645,0.002319522,0.0075539555,0.012136807,-0.042543393,0.0006973464,-0.028360602,0.00066311244,-0.045075525,0.03503045,-0.021949355,0.020939538,-0.0066384645,-0.03596221,-0.041831963,0.011069998,-0.02964943,0.03135119
