-0.72049665,0.04869332,-1.2433355,-1.3022531,-1.252664,-0.15316097,-0.021917034,-0.14393727,-0.049871158,-0.6331052,0.90895784,0.072996,-0.6168511,-0.5025069,0.07741543,-0.76445645,-0.8260671,-0.2915705,-0.03035984,0.40437254,0.16509041,0.17415747,-0.074394755,-0.0878518,-0.8569242,1.2093658,0.049580123,-0.15483496,-0.38689238,1.2620833,1.0534928,-0.9224416,-1.4832971,0.7656203,-0.8520371,0.683204,0.96629375,-0.43718463,0.6518306,0.20857546,-1.0773507,-0.05586711,0.5513498,0.30670133,0.31336457,-0.0339048,0.79835963,0.09424585,0.12836532,1.5294042,0.9216409,-0.015125813,0.0015428769,0.5471299,-0.25584158,-0.06935303,0.30140227,-0.58024913,-0.4293264,-0.0666805,0.010643067,0.080542244,-0.9819164,-0.6268129,0.8810419,1.3787555,0.17881313,0.9882077,-0.11888176,-0.91699237,-0.01382789,-0.42527682,-0.41180927,-1.5979532,-0.5839409,0.616788,-0.0339937,0.65025914,1.2464626,-0.83310497,0.6030064,-1.049246,0.4643454,1.3423133,-1.0221052,-1.3830082,-0.23349175,-0.076969996,1.4477973,-0.048073478,0.27432087,-0.44741914,-0.4532928,-0.55311483,-0.28702638,-0.1903552,0.005820515,1.2132294,-0.33994496,0.66813725,0.67650414,-0.38432288,-0.9104093,0.58211476,-0.3914179,0.8421343,0.23280281,0.016348157,0.26422358,0.04883793,-0.03409836,0.4702878,0.038356405,-0.0045556,-0.044547025,0.51703006,-0.75054836,0.60696876,0.17752632,0.052340645,-0.07468605,-1.130784,0.020294135,-0.048027355,-0.06789921,0.15659666,0.78785115,-1.1959581
