0
0.036703143
-0.031742975
0.15212658
0.17829683
0.19078869
-0.032761186
-0.035704643
0.0218655
-0.049824975
0.040358238
0.05541362
-0.040659435
0.047545448
0.04642709
-0.04540394
0.045730714
0.06194982
0.018483562
-0.042064857
0.0619915
-0.017835863
0.062864155
-0.06559056
-0.04669123
0.10901616
0.021327227
-0.0073035974
0.010521557
0.042128623
-0.04424708
0.109063916
0.14306436
0.0772545
0.09973727
0.06444473
0.056897074
-0.02679044
0.05439987
0.07313989
-0.021839784
0.06628379
-0.038185004
-0.004157564
-0.008503745
-0.023962706
-0.07300819
0.077642664
-0.034791894
0.072890684
0.028472027
-0.002740678
-0.08262135
-0.02380097
0.0448271
0.013579968
-0.08286964
-3.224327e-05
0.04835463
0.07313622
-0.03603418
-0.044618685
-0.010529843
0.09557045
0.032925352
0.06522222
0.0041536787
0.030291416
0.061079998
0.03391966
0.052881606
-0.0634523
0.037179336
0.022050062
0.21404576
0.060523957
0.04535489
-0.05363556
-0.032378778
0.041140214
0.12747638
0.09968677
0.15322642
0.014951966
0.053183477
0.047670987
0.117848195
0.0898695
0.05236027
0.015514404
-0.016893625
0.038832027
0.040686324
0.009539874
0.10006683
0.023317073
-0.00710476
-0.053173374
0.014269072
0.07242794
0.1030285
0.019382268
0.08413139
0.17112236
-0.03167165
0.0952706
0.045527082
0.08173817
-0.03908645
0.040306464
-0.015174904
-0.042017892
0.053153057
-0.052911736
-0.019318797
-0.05189288
-0.011337187
0.10684748
0.0027509257
0.06133561
-0.035157338
0.004221823
0.06691392
-0.0042183106
-0.012148038
-0.028549798
0.023711054
0.04695491
0.061743356
