0
0.017609047
-0.01821169
-0.01327747
0.033400416
0.02001492
0.0076961378
0.0007416323
-0.01909325
0.033346858
-0.025634626
-0.035530936
0.023147246
0.02095822
0.007209989
0.022711672
0.0060934797
-0.014505261
-0.006283322
0.009297961
-0.023678863
-0.0065594157
-0.030351458
0.00055506657
-0.010403583
0.0035946963
-0.025939157
0.032056645
-0.010789272
0.027557228
-0.017871397
0.0030100967
-0.026074838
0.012662002
-0.029670808
0.026108872
-0.024462868
0.003707209
0.01850879
0.015527333
0.032447528
-0.02191453
-0.021561528
0.007192391
0.031323798
-0.035797454
0.034434196
-0.02444934
0.029709265
0.003347746
0.028931528
-0.013760005
-0.015043851
0.013861201
0.023781843
0.014250547
0.012972121
0.015609725
0.02343083
-0.03522094
-0.029778292
-0.0067854817
0.034636535
0.0021345157
-0.031121146
-0.029626338
0.0126054445
0.018625522
-0.0053024422
0.000998569
0.0016248949
-0.007666388
-0.02011309
0.0070905164
-0.0014684831
0.0056612254
-0.0043849167
0.01796065
-0.007309476
-0.018106857
0.00640852
0.0007170788
-0.01085069
0.032292876
-0.035954617
0.035729077
-0.02145068
-0.034369837
-0.0006419623
-0.029734265
-0.02764933
0.010824223
0.03028794
0.016882803
0.030575342
0.024191841
0.03427387
-0.02945246
-0.00096140703
0.011619536
0.015260187
0.02199946
-0.018972415
0.0026547033
0.020880396
0.029694656
0.0172735
-0.007673649
-0.009537173
-0.009714704
-0.028895812
-0.006972373
-0.0030974622
-0.0020976737
-0.033236504
-0.0038825676
-0.033752218
0.004025153
-0.012601027
0.027561607
0.018849978
0.017743403
-0.013899097
0.03260239
-0.012301275
0.0065198024
0.02337216
0.024366349
0.031119667
-0.0020343445
-0.018931963
0.035342656
0.02933993
0.0039790566
-0.009463306
0.014146951
0.03586728
-0.011805141
0.021393878
-0.02683417
-0.028812107
0.035323784
0.022079032
-0.025088996
-0.027991224
0.021006076
0.031305246
0.024197219
0.028256556
0.008555055
0.031841643
0.0051297634
0.032935545
-0.017325968
-0.026226254
0.021591885
0.027710274
-0.027911365
0.016321333
0.020133136
0.0058602
0.03277707
0.022363741
-0.02416441
0.0181053
0.035232566
0.01680547
-0.029956719
-0.02292725
-0.0042720255
-0.027380032
-0.020048192
0.0016900059
-0.016478991
-0.006487321
0.011191532
-0.0049735424
-0.012858946
0.022473754
0.018778555
0.017294066
0.0031788612
0.03311669
0.0026679134
0.0029774047
0.035356954
0.020874443
0.012692866
-0.0038538417
0.020944994
0.010744988
0.03475961
0.015831364
-0.0071002166
0.03421127
0.015955431
-0.034232087
-0.007688881
0.011402482
-0.016256953
-0.008515045
-0.015659517
0.002223976
-0.03169994
0.025740178
0.011307585
0.010540451
-0.034379747
-0.009171658
-0.0045091077
-0.009055549
0.015863325
0.03574289
-0.03046382
-0.01580524
-0.02866891
-0.009846961
0.006337187
0.007949299
-0.0054426873
-0.03143092
0.014161826
-0.020689422
0.01416544
0.034054864
-0.0058069592
-0.010854519
0.00025602253
-0.026035849
0.028175423
0.032023225
-0.020112978
0.006282733
0.030203147
0.012054621
-0.014031668
0.021979833
0.024520263
0.0029381742
-0.019497998
0.019167557
0.0068667345
-0.0058226427
0.030171264
-0.0034902622
-0.013918596
0.017531816
0.0040467037
-0.019425068
-0.012144881
-0.0020966101
0.0013425965
0.0097398255
-0.031177972
0.013152938
0.03430986
-0.013578547
