0
0.030606044
-0.02024712
0.030191543
0.032566864
-0.023246849
0.014952489
-0.030663272
-0.029550608
0.034630414
-0.03463237
0.027184384
-0.010229859
0.006126189
-0.011070364
-0.034798414
0.011095382
0.0131415175
-0.005564001
-0.02569617
0.027750392
-0.023505844
-0.0115115745
-0.03228271
-0.010752025
0.0054086745
0.031110594
0.0024170673
0.031784363
-0.024616443
0.004547026
-0.020277705
0.011159894
0.0008205267
-0.009481218
0.014418562
0.030503012
-0.003984533
0.031677425
0.019498209
-0.03415933
-0.019489527
-0.0231351
0.013660544
0.028865777
0.0016745345
-0.023733063
-0.024094256
0.03551895
-0.0055234325
0.010112894
0.027889324
0.031458486
-0.032950416
0.010513971
-0.028390085
0.009277697
-0.0031311973
-0.012661151
0.008150602
0.0051995097
-0.031109804
-0.013650336
0.024946766
0.026228921
0.016112478
-0.02118235
0.03372351
-0.0010309428
0.002297183
0.015142391
-0.028831245
-0.025906246
-0.0112435855
-0.002733823
-0.032221638
0.025849422
0.023538725
0.016276013
-0.006921726
0.03457307
-0.009827957
-0.009098135
0.025316214
0.020209042
-0.004549427
-0.013759678
0.025294375
-0.00612067
-0.025851013
0.002800589
-0.032539193
0.035438675
0.020661213
-0.011424132
0.007821426
0.02017145
-0.016082665
-0.025734952
0.024088616
0.028009687
0.0015771808
0.023287233
0.02746884
0.034988917
-0.031341758
-0.03237974
0.03056548
-0.013626974
0.034155324
0.031096743
-0.026098924
0.010790984
0.013021684
-0.030813526
0.033673983
-0.013352834
0.036011256
-0.016743204
-0.032432258
-0.027402354
-0.007173365
0.014990894
-0.0033409593
0.0034352457
0.01903081
0.0035837975
-0.009073685
0.025153097
-0.006548817
0.009273249
0.006364291
0.01970696
-0.009240449
-0.02786466
0.004053569
-0.033120435
0.004294282
0.034229904
-0.023422007
0.028223842
-0.033158686
0.025735684
-0.033637136
0.024876243
0.028930698
-0.024687931
0.02864258
0.010678636
-0.024578482
0.012055404
0.021170994
-0.021266542
-0.022951355
-0.014692307
0.030672697
0.005263642
-0.029271116
-0.03037138
-0.00069593807
-0.015056967
-0.029034305
-0.0037961102
0.012225906
-0.006812642
0.008064927
-0.0033166986
0.030565536
-0.0062160706
0.02867964
0.0032836131
0.0142193
0.02321991
-0.023646588
-0.028685093
-0.023205154
0.0073413462
0.01882436
-0.0003295544
0.0076134787
-0.027238514
0.00482949
-0.022088211
-0.007926045
0.026345486
0.016775118
-0.0014329395
0.0122755505
0.02482252
0.0073741805
-0.035042994
-0.00055096427
-0.024216954
-0.020860333
-0.03154682
-0.014422929
-0.028999656
-4.1082976e-06
0.022907162
0.03447502
-0.012838449
-0.013383522
0.029137656
0.033186976
0.033818465
0.022933647
0.027829144
-0.029118612
0.0033249962
0.027208192
0.003523317
-0.02606122
-0.022225002
-0.0056427373
0.014392826
-0.03341327
0.014381848
0.02076228
-0.011270268
5.9606107e-05
-0.024711294
-0.015165805
-0.013746352
-0.010834517
0.012685944
-0.02616766
-0.029255833
0.030434527
0.0010503612
-0.01653834
-0.0021658305
0.025288498
-0.010446642
0.00049020967
-0.02265394
-0.009115027
-0.02667039
0.030172864
-0.025496682
0.03251966
0.019702576
-0.031846754
-0.0033466844
-0.024587223
-0.022009281
-0.032356087
0.02541999
0.020898024
-0.009336306
-0.025416527
-0.030793013
0.008429813
0.030539189
-0.023656797
0.012533286
0.020735644
0.035045344
-0.0013619671
-0.030837577
-0.0076344186
0.023443472
0.027225748
-0.003797569
-0.029585302
-0.0115298135
0.00816505
-0.010831746
0.03136041
-0.014933708
0.02295052
0.02121691
0.009917481
0.009247112
0.03592445
-0.010946091
0.013102782
0.018039
-0.0057464098
0.022698758
0.024820713
0.02836468
0.019069606
-0.027090712
0.0100836605
0.0037676224
-0.0035496189
-0.014955518
0.00045057488
0.009052508
0.008528742
-0.022225814
0.011300397
-0.009529976
0.022226615
0.014721463
-0.028678361
-0.0041987994
-0.014911895
-0.019805234
0.028409632
-0.0042109513
-0.0052923337
0.029141974
-0.016518893
0.019942291
-0.020841042
0.004462229
-0.013505231
-0.023912823
-0.009976525
0.0006629138
-0.010231128
-0.023626806
0.003857961
-0.029071914
0.026043996
0.0016841098
-0.0051819547
-0.034097906
-0.0039573507
-0.032556646
-0.0021643406
-0.013763231
-0.02209028
-0.0015193722
-0.0113516245
-0.013515012
0.020000655
-0.011440332
-0.009164044
0.017260117
-0.002336694
-0.018329086
0.0039227232
0.012614736
-0.021134723
-0.010409842
0.026190676
0.004929378
0.022454487
-0.016483134
-0.02467412
0.015983379
-0.018085852
-0.0101864515
-0.01675068
-0.0050005307
-0.0028365187
0.02063318
-0.023000471
0.015296208
-0.010008116
0.022720138
-0.010390128
-0.0032089155
0.014630821
-0.030481711
0.0122227315
-0.013418446
0.021083243
0.022008441
0.022008175
0.0207554
0.00020714244
-0.009558672
-0.020845829
-0.029039403
-0.017639382
-0.03565374
-0.018462991
-0.020584438
-0.022063201
-0.03259449
0.01953376
-0.02543911
0.02049546
0.026748916
0.027977554
-0.03101195
0.016618833
-0.016356345
-0.031740353
-0.0295566
-0.02218289
0.022652077
-0.01439357
0.021323008
0.031350907
0.026469102
0.0040544295
0.0013932667
0.03546855
0.034908254
0.023067689
-0.011594321
-0.010049454
-0.022713916
-0.0134802945
-0.01379398
0.018161178
-0.011665297
0.029569179
0.004701476
-0.030186323
-0.0070130317
0.019214952
0.03135738
-0.0029071425
0.02731137
-0.009698191
-0.029710572
0.017972149
-0.006113624
-0.013003166
0.0042971685
0.018899117
-0.036030687
-0.03509968
-0.024191437
0.027382351
-0.00735968
-0.030756127
0.020843716
0.015877698
-0.021756649
-0.024177466
-0.02484916
-0.019805122
-0.0075238287
0.0029851645
-0.002242125
0.024279246
-0.02374331
-0.029943164
-0.035506938
0.022198109
-0.019946584
-0.00744376
0.015490318
0.0058897175
0.012438319
0.016927402
0.03479201
-0.009939703
-0.011830005
-0.0063554556
0.021366881
0.004581779
0.029490555
0.006039038
-0.009488423
-0.01574788
-0.018651843
0.009298869
-0.012393836
-0.023710007
0.03398965
-0.03492036
0.020307252
-0.0069292323
0.028520085
-0.00796374
-0.026184546
-0.0076905983
-0.032893293
0.02958097
-0.03282735
0.00075180636
-0.034326915
0.03493669
-0.0011978731
-0.019962372
0.008700277
-0.03581939
-0.019643873
0.025363222
0.020013956
-0.0062258444
0.025199588
-0.0017916294
-0.024660716
0.003693449
0.02019442
0.033051208
0.019530991
-0.018483397
-0.015637083
-0.022378853
0.026106805
0.03071921
-0.020859169
0.035653222
-0.023083562
0.026312351
0.015690433
-0.026184315
-0.033961724
-0.033832606
-0.0022487268
0.035087693
-0.004555131
0.032335237
0.010320721
-0.032641146
-0.02899125
-0.002046228
-0.013759343
-0.024645844
-0.034696337
-0.026278425
-0.01871697
-0.0112757785
-0.009678046
0.012982734
0.014091018
-0.01456061
-0.014812674
-0.010780468
-0.0063376557
-0.034046333
-0.004054141
0.030194296
-0.027885491
0.015469748
-0.01390524
0.022225479
0.0023435997
-0.012154126
0.010135676
0.035370506
-0.033608336
0.005568453
-0.0050172554
0.034563567
0.0053060427
-0.015491548
-0.02307464
-0.007642398
0.0038365428
-0.02504333
0.0063935546
-0.023108868
-0.03033343
0.011163043
-0.0007034369
-0.00011948344
-0.030783352
0.014965123
0.024151213
0.026624471
-0.006297053
0.016948834
-0.0021308989
0.030607382
0.029210176
-0.0013690729
0.032788847
-0.00053319376
-0.03595115
-0.026005786
-0.006663566
-0.011318158
-0.0031723143
0.005403061
0.022092488
-0.03321996
-0.020105869
0.011631762
0.023221156
-0.016278537
0.030998832
-0.0030606256
0.00937705
0.01135683
-0.019172985
0.023445807
0.033615388
0.0034277372
0.012880932
0.005716604
0.007203085
0.003543463
-0.034078468
-0.035194457
0.031664085
-0.031927552
-0.021705601
-0.0038851504
-0.021999348
-0.006543134
-0.03310475
-0.029568886
0.016167505
-0.0052637537
-0.008761312
-0.032816347
0.027758598
0.004326204
-0.025789248
0.0051083933
0.032323886
-0.00898154
0.027033836
0.005240921
0.015112621
0.0050880983
-0.025065534
0.016278142
-0.02761049
0.003048244
-0.022218589
-0.0044024843
-0.017453741
0.034301136
0.014610844
-0.0060714814
-0.03412329
0.021867596
-0.013953797
-0.0018667503
-0.0247455
0.029935222
-0.016715635
0.03252739
0.014907727
-0.031041263
0.0048638433
-0.009677255
-0.029977646
-0.0324598
0.018568642
0.020876048
-0.025016367
0.007937591
0.024428528
-0.034020867
0.030116694
0.014016785
0.03324253
-0.034008794
-0.033042755
-0.029367615
-0.031353403
-0.023533225
0.010649161
-0.010007057
0.008928898
-0.032663506
-0.016606232
-0.006166779
0.020060787
0.03193352
0.020286256
-0.012177737
0.008269829
0.018301293
0.019694554
-0.009651333
0.026436241
0.028040297
-0.030620927
0.019984778
-0.012473824
-0.0043905177
-0.029292319
-0.020326028
0.019886091
-0.034670204
0.014057414
-0.01845237
-0.010159597
-0.03520136
0.003385024
0.011037913
0.034502536
-0.032070123
0.027446162
0.031278636
-0.015759472
-0.0048085633
0.034645304
0.004616609
0.019909363
0.0039757187
0.00096558244
0.002879325
-0.02961226
0.033041447
-0.02586163
0.024360782
-0.010057588
-0.019293074
0.029082334
-0.010540753
0.023366753
0.01225191
-0.008002855
-0.018423794
0.008251022
-0.02932558
0.02348811
-0.030675389
-0.016049078
0.03564016
-0.021163806
0.028097006
0.033075515
0.007684132
0.0020582941
0.005978627
0.030273827
0.0035410037
-0.022169594
0.004628718
-0.028259976
0.030135114
-0.010708605
0.03249097
0.0136285145
-0.0136012295
0.030465815
0.018652197
0.004051143
-0.028666541
0.004947496
-0.021584073
0.019763315
0.019759951
-0.0004808361
0.028416678
-0.03606899
0.0050290804
-0.026860237
0.025810437
0.0012338698
0.030528689
-0.033796776
0.015223443
0.0025482962
-0.006995481
-0.0033762786
0.021310225
0.03437753
-0.00040173155
0.0009224909
-0.0029386142
-0.022097288
-0.014475201
-0.020595135
-0.02768706
-0.026168514
0.032187782
-0.025051223
0.013993031
-0.015361644
-0.0182615
-0.017739845
0.02563547
0.004595854
0.006858217
0.027654134
0.014734777
-0.021796387
0.0021419784
0.017464207
0.012054767
-0.026633741
0.013695013
-0.035955925
