0,1,2,3,4,5,6,7,8,9,10,11,12,13,14,15,16,17,18,19,20,21,22,23,24,25,26,27,28,29,30,31,32,33,34,35,36,37,38,39,40,41,42,43,44,45,46,47,48,49,50,51,52,53,54,55,56,57,58,59,60,61,62,63,64,65,66,67,68,69,70,71,72,73,74,75,76,77,78,79,80,81,82,83,84,85,86,87,88,89,90,91,92,93,94,95,96,97,98,99,100,101,102,103,104,105,106,107,108,109,110,111,112,113,114,115,116,117,118,119,120,121,122,123,124,125,126,127,128,129,130,131,132,133,134,135,136,137,138,139,140,141,142,143,144,145,146,147,148,149,150,151,152,153,154,155,156,157,158,159,160,161,162,163,164,165,166,167,168,169,170,171,172,173,174,175,176,177,178,179,180,181,182,183,184,185,186,187,188,189,190,191,192,193,194,195,196,197,198,199,200,201,202,203,204,205,206,207,208,209,210,211,212,213,214,215,216,217,218,219,220,221,222,223,224,225,226,227,228,229,230,231,232,233,234,235,236,237,238,239,240,241,242,243,244,245,246,247,248,249,250,251,252,253,254,255,256,257,258,259,260,261,262,263,264,265,266,267,268,269,270,271,272,273,274,275,276,277,278,279,280,281,282,283,284,285,286,287,288,289,290,291,292,293,294,295,296,297,298,299,300,301,302,303,304,305,306,307,308,309,310,311,312,313,314,315,316,317,318,319,320,321,322,323,324,325,326,327,328,329,330,331,332,333,334,335,336,337,338,339,340,341,342,343,344,345,346,347,348,349,350,351,352,353,354,355,356,357,358,359,360,361,362,363,364,365,366,367,368,369,370,371,372,373,374,375,376,377,378,379,380,381,382,383,384,385,386,387,388,389,390,391,392,393,394,395,396,397,398,399,400,401,402,403,404,405,406,407,408,409,410,411,412,413,414,415,416,417,418,419,420,421,422,423,424,425,426,427,428,429,430,431,432,433,434,435,436,437,438,439,440,441,442,443,444,445,446,447,448,449,450,451,452,453,454,455,456,457,458,459,460,461,462,463,464,465,466,467,468,469,470,471,472,473,474,475,476,477,478,479,480,481,482,483,484,485,486,487,488,489,490,491,492,493,494,495,496,497,498,499,500,501,502,503,504,505,506,507,508,509,510,511,512,513,514,515,516,517,518,519,520,521,522,523,524,525,526,527,528,529,530,531,532,533,534,535,536,537,538,539,540,541,542,543,544,545,546,547,548,549,550,551,552,553,554,555,556,557,558,559,560,561,562,563,564,565,566,567,568,569,570,571,572,573,574,575,576,577,578,579,580,581,582,583,584,585,586,587,588,589,590,591,592,593,594,595,596,597,598,599,600,601,602,603,604,605,606,607,608,609,610,611,612,613,614,615,616,617,618,619,620,621,622,623,624,625,626,627,628,629,630,631,632,633,634,635,636,637,638,639,640,641,642,643,644,645,646,647,648,649,650,651,652,653,654,655,656,657,658,659,660,661,662,663,664,665,666,667,668,669,670,671,672,673,674,675,676,677,678,679,680,681,682,683,684,685,686,687,688,689,690,691,692,693,694,695,696,697,698,699,700,701,702,703,704,705,706,707,708,709,710,711,712,713,714,715,716,717,718,719,720,721,722,723,724,725,726,727,728,729,730,731,732,733,734,735,736,737,738,739,740,741,742,743,744,745,746,747,748,749,750,751,752,753,754,755,756,757,758,759,760,761,762,763,764,765,766,767
0.091942094,0.13810095,-0.18308786,0.05266618,-0.049143437,-0.029174877,-0.05604334,0.13200693,-0.067362495,-0.07334586,-0.048260625,0.05835209,0.058905642,0.04157555,-0.01946156,-0.102080554,0.15551741,0.049016695,0.020363819,-0.011976367,0.05595818,0.0031295333,0.01722226,0.012460719,-0.0073697763,-0.084332265,0.0609223,0.09438739,0.011506469,-0.17114863,0.024586229,0.00630776,0.089383796,0.021228094,-0.039598603,0.058778744,0.03547892,0.24331304,0.03478201,-0.02668673,-0.07191975,0.05435546,0.00054946146,-0.0036819226,-0.01430754,-0.009482247,0.021159342,0.027819814,-0.0843824,-0.108409904,0.03070274,-0.17056772,-0.046069015,-0.08430658,-0.11310072,-0.0959446,-0.1067062,0.097654164,0.08532425,0.03138159,-0.14937407,-0.0048052864,0.022150323,-0.037236806,-0.08850486,0.044559725,0.011820126,0.042078726,0.078704946,-0.079564564,0.011084833,0.033820786,-0.059171975,0.0024257815,-0.097355396,-0.037597105,-0.082292244,-0.049661376,-0.026016725,-0.10480225,-0.031278796,-0.05921053,0.0013952622,-0.0032627976,-0.13143122,0.04119095,0.075512595,0.16385545,-0.057225246,-0.01586296,0.0126465205,-0.009113534,0.014550555,-0.13139214,0.03949453,0.04958571,-0.034546833,-0.1353241,0.08308642,-0.0038110882,0.01632997,0.051975522,-0.078606546,0.104375206,-0.009873336,0.13052408,0.033634927,0.08102306,-0.02674102,0.0080390535,-0.044551145,-0.018953646,0.042923845,-0.007733413,0.013138355,-0.011150812,0.06905095,-0.08133526,0.035634708,0.052052565,-0.017504394,-0.041266456,-0.033355758,0.10957318,0.010095859,-0.071658336,0.002581198,-0.12191769,-0.0023572808,0.0029982706,0.029122695,0.036880303,0.13379118,0.10093237,-0.058682557,0.09450149,0.033076685,-0.21500768,0.12212805,-0.031422533,0.059636455,-0.04006711,-0.025372079,0.07022439,-0.097177185,0.06919316,0.09503689,0.0054150834,0.03085758,-0.07696836,-0.050139427,0.061372373,0.027985407,-0.13533476,0.04710985,-0.093939945,-0.0793293,0.010341283,-0.18991384,-0.019041978,-0.068707764,-0.09091841,0.022575764,-0.08160012,0.059407,-0.027099287,-0.15881447,-0.031333145,-0.07919995,-0.023481397,-0.018006038,0.14395103,-0.027221587,-0.02227728,0.012754711,-0.07657752,-0.044068236,-0.023229927,-0.049821723,0.111211814,-0.10504667,-0.00013714573,-0.1534633,-0.0065419213,0.06980136,-0.048608676,0.012506659,-0.024234429,-0.14057791,0.023982221,-0.13011377,-0.021793026,0.14442007,-0.043817136,0.08691291,-0.026444227,0.14173649,0.12991562,0.07282293,-0.18099557,-0.042557593,-0.073733106,-0.012563562,-0.089513786,-0.08741355,-0.052153956,-0.016887587,0.09553628,-0.13569425,0.1489209,0.049513016,-0.07156202,0.015825378,0.16738075,-0.017352562,-0.0010117767,0.026547324,-0.013861123,-0.040079918,0.095982395,0.05133043,-0.10965695,0.10661946,-0.035329822,0.0561934,-0.15001008,-0.040447727,-0.12990187,0.001808498,0.06818757,0.08735008,-0.07031309,-0.044715323,-0.10331157,-0.09200878,-0.14172515,0.08538918,0.006266082,-0.06289686,-0.112773806,-0.0048919627,0.061030272,0.08650098,-0.06642951,-0.07749069,-0.07386624,0.03871987,0.070111595,0.032438554,-0.17117961,-0.033006787,-0.016631855,0.10473699,0.097829744,0.0028249226,0.059262265,-0.04825419,-0.08008878,0.13779917,-0.20047887,-0.12025179,0.1390499,0.055429175,0.054166377,0.0057475064,0.17680995,0.0018078717,0.023953972,-0.03976712,0.047502372,-0.18118487,0.004889394,-0.049982958,-0.014292482,0.09189914,0.07868142,0.10272756,-0.03413656,0.015471108,-0.019204838,-0.08900221,-0.031778812,0.0072134538,0.10432979,-0.014770418,-0.071624964,-0.124357246,0.11917075,0.05009164,-0.06599099,0.06610822,0.03697751,-0.0065669008,-0.05654267,0.015231238,-0.0674008,0.039883316,-0.12856004,0.097316206,-0.07899408,0.038005106,-0.025471177,-0.0155947395,-0.08695661,-0.033922657,-0.03666606,0.03983681,-0.09064885,-0.04663313,0.05282781,-0.1399401,0.014258267,0.10896337,0.15528496,0.048658814,-0.07989547,-0.075836174,0.06100148,-0.0580028,0.06682469,0.09635829,0.087627605,0.04643708,0.009691685,0.082713224,0.04414404,0.003726429,-0.043141615,0.05014903,-0.09443429,-0.049042165,-0.015926942,0.08787665,0.14979179,-0.13121691,0.04867555,-0.040199824,-0.058796983,0.010705757,-0.12205951,0.11220018,0.1025352,0.005745978,0.05023677,-0.051832195,0.039636984,-0.02416022,0.042385392,-0.06370359,-0.081692964,0.023478016,0.13524309,-0.028838726,-0.044202458,0.067546144,-0.034592204,-0.010518447,-0.029990138,-0.06630399,0.19376984,0.0988631,-0.07406562,-0.12599353,-0.042647354,-0.045370232,-0.10178384,0.15392819,-0.04353815,0.011475661,0.0071974294,-0.12624584,-0.073667064,-0.07283579,-0.038880274,0.0026240668,-0.06676216,-0.069221,0.06671338,0.07311395,-0.07484596,0.05586547,-0.009641351,-0.11869087,0.018667033,0.13166857,0.10390477,0.09137485,0.04660068,0.013819682,-0.07946378,0.071894884,-0.042528972,0.03052548,-0.013204602,-0.030123673,-0.057352178,-0.039653834,0.029850928,0.019552907,0.013898508,-0.03626322,0.06773195,-0.082205854,-0.07514324,0.060093023,0.04255803,-0.10488507,0.05189313,0.08478553,-0.005053954,0.07909319,-0.063802764,0.122468814,0.09858266,0.027206901,0.040952157,0.04237357,-0.06951437,0.029438157,-0.12715343,-0.03934842,0.0388315,-0.0187458,0.060126826,-0.085341334,-0.120533906,0.05658695,0.021443782,-0.15954666,-0.16958393,0.029540347,-0.03894565,-0.0562309,-0.04936208,0.026333245,0.120473444,0.023020575,0.1599395,-0.048793163,0.05863055,0.095602125,-0.06062328,-0.037533626,-0.06562348,0.05672595,0.077780224,-0.058726553,0.08759611,0.14764243,0.018484106,0.045344833,-0.02806013,-0.018229641,0.030064229,-0.062398795,0.01992267,0.007981482,-0.0052147084,-0.0874315,-0.027682826,0.08468457,0.05013904,-0.040868305,-0.084666826,-0.019290239,0.030187212,0.0063255117,-0.052647892,-0.06826841,0.07229188,0.0626278,-0.0093313595,-0.034759764,0.0533797,-0.07104662,-0.048638742,-0.01751794,0.016355177,-0.010295727,-0.06152925,0.020560125,0.05737129,0.054129485,0.012049839,-0.1828023,-0.0038567346,0.026345996,0.079921894,-0.017710939,0.017052155,-0.08447268,-0.16784823,-0.08514385,0.07326979,-0.046287473,0.109643586,0.055258296,0.011630599,0.027655479,-0.065879926,-0.013790448,-0.013727616,-0.0015838862,-0.043707393,-0.041294735,-0.09731319,0.19840182,-0.08229855,-0.036118705,0.0037746967,-0.05584426,0.08769069,0.012040985,-0.014762928,0.120381996,-0.0435908,-6.3417436e-05,-0.043707322,-0.03677293,-0.068964265,0.0034878487,0.03606426,-0.056572646,-0.009420502,0.051294442,0.12283585,-0.15263017,-0.011617516,0.14743242,0.09699311,-0.05013032,-0.08985393,-0.105953254,0.094988555,-0.07084907,-0.17357631,-0.033601288,-0.052665144,-0.15722248,0.054880977,-0.047504462,-0.0377123,-0.050926898,0.12336308,-0.12368192,-0.10974435,0.00680905,0.007067463,-0.09192731,0.00092406815,0.13108361,-0.05397471,0.02612075,-0.08820627,-0.10068013,-0.14803895,-0.1280981,0.03673494,-0.051804684,-0.00502809,0.008881762,0.0044276314,-0.011606397,-0.0047544176,0.13567126,-0.10895499,-0.084513456,-0.0071431003,0.04035196,-0.12363506,0.0010140204,-0.06665277,-0.017506327,0.1715118,-0.045421742,0.05601019,-0.020077975,0.044252574,-0.042188004,-0.021526087,0.028997181,0.1121764,0.015612463,-0.12360656,0.06007377,-0.0033336584,0.022756303,0.018776052,-0.17841183,-0.09489504,0.019064823,-0.010136729,-0.00019513613,-0.090411186,-0.04758666,0.028258992,0.041418295,-0.02366912,0.052141137,-0.09775312,-0.0064209714,-0.040208593,-0.052919485,0.032871928,-0.09627771,0.051022183,-0.04318379,-0.15325928,-0.05136265,-0.11273917,0.09972597,0.05168043,-0.048351396,-0.10806421,-0.042523272,-0.053556096,0.13739614,-0.005778957,-0.21317594,0.026138015,0.13252208,-0.061583403,-0.09429019,-0.09395444,-0.052970693,0.06325189,0.03481185,-0.07727205,0.02203936,0.065678895,-0.026764255,0.07694006,0.071319655,0.017510967,-0.1434737,0.05254673,0.03721162,-0.01602104,0.0899964,-0.06656333,-0.091784246,-0.058080602,0.17066833,-0.069394045,0.009149276,0.0530139,0.0680866,0.09128577,-0.042562854,0.022134133,-0.1102388,-0.05863365,0.09160318,0.011541987,-0.023410128,-0.109466456,0.027847456,-0.14682719,0.041090596,0.03159439,-0.15451564,0.0985659,-0.08284802,-0.00667172,-0.047125883,-0.0050565866,0.04526651,-0.074491136,0.09011133,-0.120421685,-0.024511902,-0.09466304,-0.031838913,-0.14630392,0.07189209,0.108078934,-0.041316416,0.12077723,0.024565892,-0.05225495,-0.07704749,0.047400333,-0.041676227,0.07175868,0.05779677,-0.06304776,-0.019500248,0.14038752,-0.031467162,-0.061687343,0.084016725,-0.03564474,0.08153258,0.021754522,-0.12310178,0.10952256,0.019330464,-0.02303797,0.0146051245,-0.038148914,-0.011531608,-0.03457362,-0.05471927,0.0076743457,0.033033766,-0.07273465,0.101946644,0.16551548,0.04509567,0.084293224,0.020980831,0.0398042,0.048798494,0.13595922,-0.06872789,-0.096274674,0.081281066,0.025481345,-0.008903858,0.040110454,-0.020655878,0.036547698,-0.013283576,0.11656014,0.047971185,-0.10556193,0.04933303,-0.053842496,0.05820727,-0.07291686,-0.07561484,0.1419873,0.015520005,0.005086313,-0.030729147,0.12484124,-0.032205347,-0.039049804,0.020593984,-0.13187867,-0.073327,-0.110416554,0.034652907,-0.044797003,-0.018837074,0.028890347,0.09477947,0.13730161,-0.0065199817,0.02937224,0.002810246,-0.065365165,0.12890975,-0.058982566,0.057258103,0.020979712,0.049459036,0.05380622,-0.0067267856,-0.020229481,-0.02938677,0.035673674,0.06799053,0.062655196,0.04170702,-0.01999878,0.011066628,-0.11084643
0.012626705,-0.026722718,0.0011166283,-0.05068733,0.041234605,0.08163999,-0.019871296,-0.074657276,-0.019753907,-0.05957338,0.028872812,-0.07363544,0.07550869,-0.12867951,0.101765685,-0.030056588,0.022023162,-0.07231537,0.17105906,0.07325655,-0.19135542,-0.0030991994,-0.014509084,-0.04885616,-0.05081222,0.13909805,0.009725395,-0.071426645,-0.030698964,-0.037724428,-0.141067,0.10624379,0.074751325,-0.1063634,-0.030144263,0.0028335848,0.0144491345,-0.03634371,0.08228849,-0.005500461,-0.09771365,-0.157389,-0.05828395,-0.0512334,-0.01687572,-0.023288097,0.048133817,0.036521066,-0.07761853,-0.039151218,0.0037391267,-0.09669437,-0.004302362,0.12263255,0.16956823,-0.18459931,-0.09227545,-0.07420362,-0.09678087,-0.0811946,-0.10945163,-0.03931937,-0.05842944,0.06123934,-0.0281176,-0.039547045,0.07666986,-0.20748042,-0.087491445,0.009764194,0.0585559,-0.12689002,0.009002675,-0.068150125,0.08500168,-0.22273113,0.029535355,-0.011654487,0.0246268,0.071845636,-0.05961825,-0.07375785,0.014578777,0.0025019192,0.0010142575,-0.06226478,-0.00038697853,-0.09106988,0.13852848,-0.069201425,0.03368461,0.080197886,-0.067216694,-0.050319068,-0.0007255805,-0.05506817,-0.06993476,0.1302951,0.046589334,-0.11566643,-0.08506408,-0.013144539,0.043140706,0.07577729,0.0040833373,0.03128709,-0.053491637,-0.103251025,-0.05987793,0.0694063,-0.02489281,0.06785756,0.025796378,0.07924743,-0.19658278,0.052093007,-0.065669954,0.032265417,0.03827545,-0.036418114,-0.044563204,0.028378207,0.06624263,0.0011070872,0.15686503,-0.0872449,0.056697547,0.05104243,0.054533593,-0.0005222367,-0.038164146,0.08875761,-0.10990742,-0.04894585,-0.03973341,0.023252737,-0.05020897,-0.07056919,0.006076982,0.07667358,0.01845635,-0.055430733,-0.011353297,-0.0047376053,0.12800562,0.039138306,-0.051665127,-0.017250795,-0.104640454,0.0010252461,-0.0158994,0.12151381,0.05001805,0.018690038,0.0764406,0.039815623,0.07783632,-0.13477044,0.036511507,0.13659671,-0.063287266,0.019849816,-0.008809563,-0.051955882,0.05637305,0.023930209,0.006738974,0.016097207,-0.012465126,0.065164424,0.11026455,-0.11455531,-0.014755831,-0.069559135,0.03351112,0.03346552,0.03228197,0.031047082,-0.1559477,-0.019244283,-0.07878047,-0.11704263,-0.10737633,-0.039240994,0.041221306,0.078114614,0.11650706,0.020077828,-0.12789075,0.0020423676,0.10457624,0.006968842,-0.09731725,-0.05323104,0.09475117,-0.08803774,-0.05450808,-0.014954484,-0.015406501,-0.050156683,-0.064633794,0.055582386,0.13650036,0.06808004,0.017908456,-0.022711264,0.16683659,0.07632908,-0.060473934,0.08068139,0.06160207,-0.01570246,0.0028825626,-0.03267432,-0.0069574327,0.05923578,0.026158802,-0.008325241,0.07378783,-0.12283842,-0.017429542,0.027774695,-0.042791743,-0.09236484,-0.03017787,0.0040849894,-0.016302627,0.0034034415,-0.049238637,-0.066690795,0.061371036,0.061396763,0.0035222594,0.042664662,0.038463846,-0.03193036,0.06625808,-0.049671974,-0.095085256,-0.021111067,0.059503153,-0.035125233,0.10164542,-0.00648157,0.025324024,0.039098065,-0.0061329016,0.026444169,0.0070647984,-0.024048561,0.008732543,-0.028436385,-0.03296632,-0.10203995,0.042935673,-0.11251271,-0.119138256,-0.14527333,-0.10045718,-0.04375712,-0.07465405,-0.04232582,-0.106359296,-0.033791147,0.07802674,-0.051622953,-0.048773766,-0.07777702,0.004190578,0.022633612,-0.036555022,-0.09467269,0.041536298,-0.040923208,0.028707357,0.06403621,0.01707685,-0.054451875,-0.16370289,-0.038765714,0.07610376,0.0003328022,-0.02499176,0.04628687,-0.024984028,0.05637068,0.028729547,-0.012461287,0.08194927,0.04057831,-0.06851459,-0.055541754,-0.08570577,0.022977762,0.06787992,0.026334897,0.095399246,0.063788116,-0.04267247,-0.045260306,-0.088733494,0.06041092,-0.02137574,0.0809612,-0.027238633,-0.09762542,0.017918902,-0.07284195,-0.011672316,-0.008886169,-0.027919691,-0.066151135,-0.134172,-0.017990038,-0.05290434,0.048255984,-0.10028257,-0.06785411,-0.03388589,-0.04908391,-0.050889235,-0.0665727,0.06731882,-0.0024542331,-0.09359587,-0.09354214,0.04637746,0.10701478,-0.0020185325,0.08287317,-0.035201248,-0.1305461,-0.038678296,-0.016690137,0.028240304,-0.00958768,-0.10503436,0.0038261223,0.049385343,-0.06334602,0.0017456611,-0.060537204,0.035001136,-0.09842104,0.049627494,0.0322006,-0.05406724,0.075487785,-0.017492462,-0.016993793,0.14681089,-0.06635114,-0.088353306,0.011550223,0.053951364,-0.17363024,-0.102105305,-0.12436606,0.040424053,-0.057769254,-0.16006418,0.12249591,0.10639883,0.04421454,-0.02987896,-0.05800232,-0.14254828,-0.008541094,0.025371412,0.026650287,-0.025104424,0.054950308,0.030773235,0.034581702,-0.121439435,-0.14179814,0.10356804,0.08016167,-0.011402852,0.020674543,0.021627776,-0.0012282716,-0.0060143815,0.1061803,-0.08647601,0.015556123,0.01633368,-0.1957378,0.07902872,0.025867892,-0.005832688,-0.0036068922,0.1247765,-0.12370028,0.10318629,-0.063046634,-0.046242528,-0.067106776,0.016424505,0.07929322,0.015834317,0.10623722,0.005180557,0.02714784,-0.06358978,-0.03143301,-0.18078792,0.003559379,0.024429617,-0.15902665,0.08328671,-0.039148815,0.029692171,-0.029962681,-0.13162495,-0.052497532,0.15394026,0.031789184,-0.0029844164,0.16645424,-0.055767745,-0.21559827,-0.07475785,-0.039382752,0.07413539,0.029998055,0.20172328,-0.03884158,-0.09930468,0.03947034,-0.14026587,0.04981567,-0.05089448,0.016395811,0.12872633,-0.007909136,-0.053259693,0.0065838606,-0.05051575,-0.0703987,-0.12782755,-0.021870613,-0.04881611,0.10216105,-0.038842957,-0.034157787,-0.023390058,0.033260915,0.029365754,0.07629384,-0.034971427,0.0142672695,-0.09070288,-0.18781017,0.117053114,-0.017946795,-9.0846705e-05,0.046076056,0.024190573,-0.11378894,-0.013926239,0.076137565,0.00712276,0.031570226,0.06258614,-0.09924955,-0.0025756143,0.08264348,0.17477383,-0.029022336,0.044869702,0.10055887,0.0011304838,0.04210389,0.08921831,0.095478624,-0.080217205,0.030741738,-0.109023616,-7.299904e-05,-0.01345327,-0.0061493935,0.11117877,0.12246268,0.005685899,0.0511427,0.053440493,0.09897524,0.21254201,-0.050691776,0.021574177,0.01012888,-0.00045215889,-0.061611533,-0.12176333,0.0891393,0.047625247,-0.060443297,-0.08645284,0.057119202,0.06572869,0.154249,-0.15627612,0.03462801,-0.111886,-0.07950176,-0.022696763,0.06634078,0.03783239,0.02002396,0.025674503,0.029467292,-0.08939366,-0.09093692,-0.13248135,0.051138204,0.0019072478,-0.044725828,0.02951358,0.06143713,0.09472825,-0.03307926,-0.029387522,-0.026471715,-0.02565244,0.12847881,-0.05091147,-0.012233445,0.009795083,-0.22107159,0.02006793,0.09315646,0.052787095,0.06088805,0.008740555,0.039031766,0.1252289,-0.007353239,0.033625916,0.025717169,-0.09631928,0.027973903,0.04483536,0.139526,-0.03416188,-0.00958836,-0.054075457,-0.10710008,0.011559423,0.01964194,0.0077797933,0.090359144,-0.07654862,-0.024073128,-0.012266405,0.0335859,0.021802686,-0.093469284,0.063712895,0.028757678,-0.02795314,0.037904214,-0.011561112,-0.0219407,0.04786554,-0.10908557,0.06355614,-0.058489382,0.06866804,-0.076031536,0.00028478613,-0.01577357,-0.089230895,-0.13064395,0.046973914,0.042841394,-0.01725777,-0.076835245,0.029739287,0.14831746,0.030336456,0.011291828,-0.05130103,-0.0960378,0.1197852,0.078644045,0.06996987,0.09460053,0.112612985,0.10515431,-0.062406152,-0.008731618,-0.04380283,0.057267774,0.04775579,0.025320197,0.06686551,0.14422826,-0.008459788,-0.09667766,0.14687118,0.10514945,0.0067347093,0.07421823,-0.08825734,-0.05483183,0.04679256,-0.08578751,0.05254561,0.102384694,0.034163605,-0.09828529,0.027738446,-0.1768034,0.0727827,0.019270252,0.08766419,0.068045735,0.029824886,0.10942886,0.07608264,-0.038592692,-0.13016103,-0.11064917,0.09485334,-0.027210338,0.03137291,0.069963254,0.06483751,0.087987825,-0.023089388,-0.081152976,-0.071551085,0.06676343,0.11776575,-0.010277751,0.019598452,0.061696332,0.02544212,-0.070354916,0.067891866,0.05588968,-0.018002417,-0.07811746,0.095688306,0.10078596,0.039576028,-0.021332836,0.015724482,0.054492142,-0.0642854,0.0113296015,0.042843252,-0.11968806,0.08983674,0.022783346,0.09855376,-0.03904596,-0.016726349,-0.06505401,-0.041772217,-0.020328198,0.091205135,0.14044046,0.08934755,-0.08091963,-0.046096716,-0.023738349,-0.040036038,0.13849904,0.037803844,-0.016508073,0.1277517,-0.042166997,-0.028345648,0.09582947,0.0062565245,0.011897798,-0.093845434,0.14959975,0.11547143,-0.03666726,0.11049201,0.04473197,0.073131636,-0.003544146,-0.045826063,-0.09553848,-0.15322387,0.10989493,-0.01662632,0.05077317,-0.039123375,-0.0321136,0.056680918,-0.15163942,-0.028048288,-0.0507684,0.11048096,0.06749972,-0.017194297,-0.113534264,0.026410623,0.11423065,0.0057664206,-0.016396476,0.05326135,0.05131751,-0.087891094,0.08803627,0.045369342,0.100645736,0.054179,0.0019442305,-0.02201835,-0.14958365,0.057364456,-0.15652531,0.004044947,-0.096222006,-0.17602204,-0.059855852,-0.16443123,0.094675764,0.04344339,-0.16026348,0.060625274,-0.1245507,0.02396192,0.026967073,-0.0065489695,0.1468806,-0.016275764,0.028256586,0.072915636,-0.11726197,-0.041194115,0.08750561,-0.04045775,0.09122664,-0.008814398,0.08394336,-0.05027746,-0.071996495,-0.044785958,-0.01869119,0.012061832,0.074748844,-0.038134187,0.01649035,0.015159008,0.016069027,-0.043343335,0.012855696,-0.050705083,-0.1615349,-0.059361596,0.06766888,-0.016686276,0.17394191,0.033972118,0.020405008,-0.1287886,-0.0022151733,-0.020075321,-0.018531783,0.032642383,0.060630772
0.014683356,0.004520667,0.119389005,-0.097534604,-0.115067095,0.055767074,0.008738859,0.05615001,-0.13984191,0.17475553,0.11833782,-0.11295461,0.07791989,0.067912295,0.022184398,-0.030947223,0.08695762,-0.038917646,-0.17454572,0.11076702,-0.030287934,0.06575487,-0.03982867,-0.019228995,-0.15443817,0.04685068,0.035474267,-0.08582991,-0.1300537,0.12328451,-0.018825106,-0.031633426,0.053903334,0.07792502,-0.03210913,-0.057005007,-0.06891927,-0.043800373,0.015654314,-0.03839344,-0.072291836,-0.05057815,0.119973555,0.0035633105,-0.052276503,0.09805777,-0.04990682,-0.10681865,0.2233966,-0.10612785,0.0632233,0.16905616,-0.03460715,0.079190895,0.16647492,0.04162593,-0.17049378,0.04440513,0.043140054,-0.019130295,-0.09194142,0.0327048,0.020202922,-0.018440416,0.04888538,-0.040386375,0.02148018,-0.13922805,0.024850223,0.018557023,0.04771515,-0.06798702,0.048112646,0.15118226,-0.022725787,-0.0036060691,-0.04021172,-0.09143187,0.01814995,0.07670932,0.09685637,0.076403044,-0.07867802,0.030960115,-0.057268057,0.027187658,-0.04642646,-0.023743505,0.040042922,-0.07358327,0.036520883,-0.007726263,0.06364685,0.065516524,-0.16975704,-0.11418282,-0.025032315,0.019224757,-0.014557009,0.012249743,-0.0017551503,-0.11057726,-0.0919993,-0.06669144,0.01054571,-0.13870287,-0.10254519,0.08350101,-0.053605575,0.04945221,0.008200249,-0.04766535,-0.027279025,0.13331568,0.090240665,0.032175627,-0.15072408,0.0124430675,0.13527319,-0.03829336,-0.014061403,0.025421659,-0.00032485707,0.18488438,-0.007070252,0.028868426,0.032553736,-0.03899114,-0.09455376,-0.1357078,-0.096274875,-0.063877754,0.055934794,-0.17031851,0.017865947,-0.05478099,0.052564073,-0.021208972,0.034569673,0.122599155,0.120252594,0.078643784,-0.050409,-0.053787485,-0.046899676,-0.03539773,0.029688297,0.08309706,-0.019771721,-0.06678758,-0.053692646,-0.049212173,0.11983644,0.14603984,0.04868639,-0.088309355,-0.03676557,-0.040573657,-0.05941426,0.04270077,0.06251304,-0.039047208,-0.15468104,0.035639614,-0.15479131,-0.041991685,-0.046558153,-0.14873204,-0.011770981,0.040523674,0.06309089,0.082707725,-0.13498454,0.105550446,0.05208019,0.09229316,-0.047216747,-0.108048744,-0.045109596,0.08187675,0.16462287,-0.08730205,-0.09672291,-0.12976995,0.04345061,-0.11024807,0.08102209,-0.060936037,-0.038893797,-0.013349952,-0.062110413,0.056320585,-0.07149587,-0.14026234,-0.13311884,0.03152254,0.15617585,-0.16162722,-0.001831584,-0.049446814,-0.10289486,-0.024368314,-0.040066447,-0.10621205,-0.11163971,0.08715461,-0.024914965,0.057507854,-0.05220646,-0.13517955,-0.008418943,-0.016209459,0.025509225,0.059480175,0.055329863,-0.069787994,0.07480222,-0.16864076,0.09252341,0.0255751,0.09521845,0.13285348,-0.08123708,-0.12872083,0.07141781,0.09298287,-0.001719065,-0.022723334,-0.06860576,0.0056340224,-0.046146944,0.064159855,-0.08312026,0.03502292,-0.038923677,-0.07470482,0.033401772,0.032776948,0.024728235,0.0395305,0.12246467,-0.049971938,0.03219414,0.035236906,-0.024431957,0.020203475,0.06511028,-0.081379026,-0.063031115,0.0267643,0.0704586,-0.032792833,-0.06260268,0.002903897,-0.20763922,-0.1294579,-0.0116301505,0.055707254,0.06075487,0.01923195,0.06345324,-0.002438537,-0.09582245,-0.10384639,-0.094772704,-0.044719543,-0.11433585,-0.03741519,-0.030879647,-0.006210413,-0.04860628,-0.09704612,0.1555782,-0.0076311827,0.060766846,-0.0855554,-0.042693634,0.008789928,0.03114308,-0.16244736,-0.044078007,-0.10898357,0.0075855004,-0.034209546,-0.019163596,0.110695906,-0.14741492,0.023516454,0.14858334,-0.007088602,-0.017413048,-0.18167712,0.10710344,0.055942357,0.06368611,0.077501416,0.05634031,0.03755157,0.07634204,-0.018836912,0.006958641,-0.04066731,0.0057279454,0.009466848,0.07431174,-0.01649183,-0.03116555,0.032987878,0.11972871,0.026330724,0.008287788,-0.11611798,-0.004265439,0.12507883,0.050292112,-0.030362481,-0.01521945,0.032218013,-0.11724948,0.041744046,-0.015085842,0.044059336,-0.10447723,-0.01019082,0.13610356,-0.124457255,0.046674382,-0.09675326,-0.14877677,-0.019550508,0.09293533,0.015505218,-0.05414152,0.072722234,0.015546816,-0.0027430854,-0.18054089,0.09767442,0.1324073,-0.22284375,-0.18325189,-0.036360055,-0.066558324,-0.06859255,-0.07782938,-0.12305527,-0.010499492,-0.14405982,0.029329984,0.06685198,-0.124637954,-0.08904083,0.036509078,-0.08191776,-0.2203675,0.035051383,-0.07106513,0.10695347,0.058479592,-0.02681288,0.05186398,0.11605611,-0.04976552,0.0067190705,0.06943492,-0.010125947,-0.05700031,-0.086765006,0.09094649,-0.07471282,0.0018822775,0.043816675,-0.02882368,-0.053850837,-0.023975814,0.0513791,-0.041095246,-0.027156804,0.051134765,0.039477423,0.019545678,0.053051695,0.060659714,-0.0133826,-0.07711104,-0.0021139705,0.007743159,0.10945311,-0.04803684,0.055923685,0.087172665,-0.08408133,0.030975271,0.094485365,0.043043014,-0.08725069,0.04191514,-0.09999249,0.08409262,-0.059942525,-0.014927774,-0.010276171,0.07107466,-0.041537914,-0.03302443,0.09356929,0.028838348,0.12931825,-0.06435746,-0.13071162,0.017918522,-0.06803238,-0.07261455,-0.0006550639,0.036012013,0.0046634967,0.042218704,0.0119023565,0.03471047,0.008505718,-0.043635122,0.02327123,0.059848033,0.005929357,-0.022243455,-0.051891763,0.0742827,-0.07130857,0.10373838,0.0926098,-0.058199473,0.0050388826,-0.1089487,0.02228196,-0.053601608,0.046245053,-0.02060263,-0.1206071,-0.031482123,-0.09269959,-0.0810106,-0.09828685,0.057965655,-0.023837058,-0.09430956,-0.0005197436,-0.084868014,0.04748219,-0.0062089716,0.03940328,-0.14216839,0.051257927,0.16689084,0.12320705,0.12536378,0.10843103,0.088554,0.060214955,0.06037591,0.05207421,0.067232445,-0.08142448,0.0030221147,-0.11445916,0.07969811,-0.024475854,-0.033948116,0.09070982,0.05251143,-0.036900543,-0.036851376,0.028122943,0.09470072,0.06873876,-0.025050264,-0.10952728,0.11759551,-0.0032231715,0.041476317,-0.07568857,-0.05822454,-0.06843097,0.04396503,-0.045236263,-0.09774052,-0.05455052,-0.0020704751,-0.07027698,0.066907406,0.17145556,0.08215548,-0.058424775,-0.046418265,0.123619184,-0.030119553,0.07525108,0.0005313539,0.018216437,-0.07071905,-0.0474118,0.09503296,0.06765489,-0.06031159,0.071529314,0.0018045842,0.047664136,-0.16356775,0.008503653,0.10272217,0.028154422,-0.039172284,-0.11802657,-0.052263316,-0.08991718,-0.13725415,0.10709844,-0.029265737,0.07635639,-0.06740392,-0.08073129,0.036878694,0.16516112,0.051132936,0.11935684,0.0149522275,0.1257618,-0.009733208,0.09556506,-0.11535787,0.082901455,0.17112139,0.04651963,0.0018942747,-0.11722685,0.012559748,0.0189035,0.08608791,-0.015584563,0.014327095,-0.07646442,-0.101866774,-0.09271488,-0.054898575,0.052947953,-0.07339802,0.13609275,-0.009479808,-0.022592794,0.052914914,-0.009677774,-0.10530158,0.07103781,0.15177995,0.02758365,-0.06267556,-0.09161548,-0.09052093,0.17711355,0.056500442,-0.15004118,0.070632994,0.055723473,-0.019068498,-0.07960121,-0.083079986,0.19279018,-0.07770295,0.028233578,-0.05899877,-0.082080066,-0.060998764,-0.04530429,0.08251442,0.09067317,-0.13916421,-0.04194119,0.056754418,-0.062861145,0.022197796,0.05114343,0.08136739,0.010408837,0.093872294,-0.06876992,-0.07567433,-0.122827575,0.07164243,0.14371596,0.07904786,-0.016752137,-0.008899624,0.10297504,0.08158184,-0.03304504,-0.08794371,0.06265754,-0.0790047,0.097001664,-0.059577078,-0.10522701,0.09238157,0.13122426,-0.061002664,0.06617837,-0.057811134,0.088846385,-0.016470917,0.13134935,0.038183536,-0.14630993,-0.07806556,0.00012097845,0.02092767,-0.120021515,0.118713915,-0.0753603,-0.003753744,-0.081833504,0.03393057,-0.098146215,-0.017549187,-0.046410587,-0.098407455,-0.08527064,0.055252306,0.01275618,0.015330806,0.07223222,0.06546724,-0.1258593,0.054569665,-0.015948778,0.0754942,-0.08940326,0.09432136,-0.032631334,0.027616737,-0.0056148344,-0.15665284,-0.07407769,-0.049351633,-0.027210737,0.03213377,-0.05674984,-0.06917261,-0.09221891,0.026708253,0.029357962,0.092662156,0.053099424,-0.038601343,0.20777139,0.040396012,-0.08176291,-0.111364774,-0.006298721,-0.072666906,0.016691223,-0.11244364,0.044583973,0.07691615,0.0053178165,-0.08226987,-0.11048483,-0.052691557,-0.007387231,0.09907569,0.06379385,-0.03738327,0.1482195,-0.01912464,-0.038528264,0.004787435,-0.0025044428,-0.051023804,0.0910094,-0.009492867,0.023639377,0.061521735,0.012628412,0.13512823,0.105946146,-0.0080372775,-0.03653985,0.016698122,-0.09310236,0.030115549,0.0847751,0.14313081,-0.051749893,-0.040533274,-0.16969444,-0.109835595,-0.056706615,0.038811143,-0.055976823,0.048079725,-0.12701835,0.0933868,0.057718877,0.15707922,0.0068922634,-0.062294565,0.14512998,-0.03386375,0.011252443,0.04613118,0.074531265,-0.20453295,0.17726621,-0.1316915,-0.06703766,-0.101197764,-0.08766638,0.059463587,0.020795142,0.012165765,-0.039436717,-0.058828115,0.089880556,-0.15698166,-0.090687625,0.022035677,-0.012712031,0.10424893,-0.08002838,-0.024472108,-0.024562662,-0.026905198,0.05489378,-0.101007,0.0997684,-0.05708901,-0.085163765,0.08531833,0.05559573,-0.04673232,-0.0204438,-0.008776458,-0.10574142,-0.03568426,0.022231154,-0.007956628,0.075109094,0.050567694,0.15135461,0.046741437,-0.056751832,0.115211315,0.021606755,0.15327051,-0.019686596,-0.0052591665,-0.03547596,-0.09214059,-0.02708276,0.1721553,-0.02605947,-0.07442761,0.15925828,0.03871387,0.13654515,0.05470862,0.020593176,0.03346044,-0.05172992,-0.13353342,-0.092486374
0.06435051,0.11083172,-0.003536194,0.10651175,-0.07290931,0.12647109,-0.051079202,-0.100707404,0.15348569,0.030029792,0.00379049,-0.11168272,0.027234681,0.04507652,-0.054043148,0.07951537,0.17189264,0.046683256,0.018431626,0.030622631,-0.06074638,-0.07525284,-0.10288378,-0.0631989,0.0660748,-0.08680779,0.13115275,-0.021680245,-0.061177596,-0.007740432,-0.11370724,0.039993268,-0.03083143,0.048773963,-0.03842622,0.032773938,-0.036831584,0.0011783564,-0.10507504,0.05210175,0.033150088,0.031808574,-0.0019359312,-0.054131776,0.02653264,-0.084507585,-0.09408891,-0.07205311,-0.03881846,-0.029801901,-0.0068746107,-0.013285793,0.0055306046,-0.13564554,-0.00434332,-0.09461293,-0.12019146,0.07445454,0.093935095,-0.031253655,0.045750618,-0.108058706,0.034300324,-0.01075606,-0.15956725,0.09227797,0.047835894,0.04019267,-0.055860095,0.038278233,-0.08663508,-0.10929967,-0.07623398,0.018799152,0.03510141,-0.04441516,-0.007475175,0.17617343,-0.111741714,-0.07215542,0.030511878,0.016603881,-0.016956616,-0.10269751,-0.012812732,0.11458854,0.1108795,-0.10505813,-0.018150177,-0.07116388,-0.05370879,0.12225193,-0.014506576,0.12469703,-0.008596046,0.016469948,0.10833152,-0.036951102,-0.0043877126,-0.0544416,-0.063030615,0.18349473,-0.07059524,0.14500462,-0.13346492,0.087676294,-0.15936364,0.056318425,0.007974216,0.030956287,-0.11734829,-0.07070447,-0.13679677,0.0114047825,-0.037954528,0.07779215,0.030596845,-0.05030754,0.031554513,-0.07321206,-0.058869578,0.001699239,-0.079160444,0.0053470787,0.06281797,0.0016666899,0.04360691,0.030946553,-0.17713495,-0.08089378,0.12294262,0.008557442,-0.008199707,0.11027769,-0.17024077,0.00981524,0.05771564,0.029279478,-0.06936917,-0.031597227,0.0056324126,0.017865568,0.037805483,-0.075672306,-0.06809333,-0.08756943,0.09809025,0.08658019,0.057761002,-0.043143757,0.108945005,0.0698306,0.049913824,-0.067530945,0.11225515,-0.08310401,-0.075653754,-0.114239655,-0.120933555,-0.05536424,0.16260225,0.015089249,0.073872745,-0.15632804,0.014107622,0.08968197,-0.10978077,0.012086487,0.028900983,-0.010028438,-0.10489929,-0.0070635127,0.040722508,-0.05825611,0.15538815,0.02988966,-0.19608018,-0.06232397,0.13095957,0.0940856,-0.029978195,-0.06483293,0.010963795,0.0444118,-0.12030173,0.072766766,0.009169403,-0.03892398,0.0597553,-0.07302718,-0.016483143,-0.012145416,-0.0016832661,-0.069597274,0.025451358,-0.09884056,0.12551013,-0.03001305,0.008618738,-0.0005212992,-0.08169234,-0.06567434,0.048277486,0.11984603,-0.028418988,0.17158288,-0.22949836,-0.02202386,-0.092264645,-0.25259304,-0.037812978,0.055316444,0.09738188,0.15585734,-0.06987688,0.0065245912,-0.009244223,0.014819997,-0.095761426,-0.07012725,0.026167164,0.017509315,-0.031212235,-0.12469351,0.01069653,0.056483556,0.039744277,0.056894075,-0.13715146,0.13243783,0.078178495,-0.003241149,0.0064458656,-0.016603332,0.035492603,0.043576203,0.0837388,0.008433655,-0.065847486,0.09652591,0.07625763,0.056071617,-0.059616342,-0.08328856,0.16106856,0.00029905073,0.063042775,0.028723186,-0.04085695,-0.007702996,0.066524506,-0.044500295,-0.03350591,-0.09540659,0.06621651,0.07689949,0.12601048,0.10014508,0.013177921,0.14593507,0.08338313,-0.0025987483,0.093832426,0.011077713,0.02557912,-0.008123246,-0.009295502,-0.055897363,-0.013747225,-0.16287136,-0.020475173,-0.07423032,-0.084959604,-0.0074586617,0.07458083,0.13704507,-0.04918547,-0.092193246,0.031843226,0.06026805,0.10450592,0.027577503,-0.09939799,-0.13454255,-0.063677885,0.029898124,-0.042755302,0.018545477,0.025144953,-0.09565964,0.062380005,-0.002751073,0.08928902,-0.014403531,-0.07799596,-0.0058119283,-0.035790842,-0.0023824829,0.10512912,0.02669171,-0.08373621,0.04298421,-0.0010663274,-0.11982095,-0.026762959,-0.15227643,0.04882046,0.003764662,-0.07709859,-0.06512225,-0.08049901,-0.079111286,0.091124296,0.113429494,0.16467048,0.009683184,-0.03667402,-0.015901761,0.055388223,-0.08177922,-0.091417976,-0.03439933,0.013632873,-0.08112622,0.07014454,-0.09092033,0.024522185,-0.048078027,0.02155609,0.0010641196,-0.011157522,0.17792381,-0.055113696,-0.014371641,-0.0045654187,-0.03517974,0.015926735,-0.00503112,0.029524118,0.032429434,-0.106831335,-0.009691924,-0.057886206,0.04489292,0.007844479,0.024909025,0.07378863,-0.10427924,0.076183535,-0.09440423,-0.07114925,0.058428936,0.14927785,0.10110896,-0.039248683,-0.07100204,-0.079149835,-0.086935185,0.033693176,-0.015473372,-0.13200375,0.118500225,-0.01162321,0.026111135,-0.14561471,0.051177606,0.10915326,0.027208792,-0.006004712,-0.031419422,0.08079472,0.042663798,0.03054358,0.10592724,0.04383,0.046110682,0.051261403,0.085926875,-0.05411812,-0.029678525,0.037069723,0.17037158,0.0005285474,0.049299095,-0.025818378,0.03566368,0.0076312856,0.03256541,-0.12288846,0.032234803,0.009185374,-0.033425145,0.07574042,-0.019375961,0.04029923,0.12748182,-0.056653015,0.117399916,-0.08363213,-0.058874473,0.024644913,0.104633346,-0.06770372,-0.03469447,0.046914104,-0.040782515,-0.1704669,0.04038241,-0.053318292,-0.001970991,-0.052588373,-0.01752068,0.02911361,-0.1054139,-0.008535544,-0.061835382,0.070520915,0.083272,0.06707317,0.10969243,-0.021273654,0.09810196,-0.16872755,-0.026791975,0.011757117,-0.003513333,0.047192365,-0.024796639,0.0541038,0.06347857,-0.14474216,-0.09892644,0.05328245,0.006933998,0.027101716,0.121764556,0.03853167,0.120485894,0.063117035,-0.14154541,0.13671973,-0.057447195,0.035603825,0.05126898,0.06846533,0.08281943,-0.12142979,-0.024640823,0.11458029,0.10636535,-0.07486758,0.042571343,-0.023477731,-0.10720865,0.008681342,-0.0035051077,0.015843792,0.022782568,-0.056752384,0.03604283,-0.020088373,-0.077498734,0.00037350415,0.109682515,-0.040064532,0.0073780855,0.10176628,0.002437995,-0.06649945,0.114833735,0.046611987,0.015945997,0.047494568,-0.029340893,0.17091936,-0.026015205,0.08597965,0.016459733,0.017072462,0.0030032306,-0.07620915,0.025711242,-0.07169381,0.054256417,0.06811801,0.128102,-0.03586296,-0.080179855,-0.10327685,0.0010802061,0.0076717217,-0.056731373,-7.33976e-05,0.010681906,0.066696554,-0.0033255683,0.058716156,-0.03889563,-0.011376578,-0.08919963,0.07482866,-0.022534408,-0.044178218,-0.07232013,0.16229811,-7.997155e-05,-0.09395658,-0.010084516,0.007949015,0.12129044,-0.009133568,-0.049264286,-0.030556185,0.051722553,0.029820312,0.18072581,-0.03521053,0.0912579,0.08394017,-0.11481441,0.057734996,0.02191176,0.0029082915,0.045970026,0.01691713,-0.020091541,-0.03769427,0.055276133,-0.020517366,0.034832947,0.027215214,0.056227695,0.11242757,-0.047082067,-0.02115311,0.030904092,0.037167415,0.016273998,0.17407875,-0.025734045,-0.07838386,0.066425376,-0.0334249,0.06460709,0.07362744,0.16064498,-0.038222346,0.048951235,0.005655297,0.09084115,-0.107346445,0.062889956,-0.14395884,0.032722965,-0.07473795,0.11224319,0.059381854,0.11663946,0.13497955,0.07703316,0.10102322,-0.034205224,-0.12492191,0.07604136,0.08147941,-0.06324916,0.047719635,-0.031959925,-0.075872056,-0.014850605,-0.08403099,-0.024647076,-0.10107768,0.0043715863,0.01663168,-0.016470961,-0.07012056,0.0683674,0.067660406,0.040394332,-0.007526662,0.039038245,0.010326553,0.006830606,0.050494794,-0.0607827,-0.0015869009,-0.052226335,0.14250019,-0.001586143,-0.07756163,-0.072416045,-0.10614352,-0.011505731,-0.07829723,0.018933058,0.06789623,0.06729066,0.033322237,-0.0052672215,0.16345423,0.04031111,0.005160636,-0.040855613,-0.09018385,-0.0546175,0.10859132,0.09888931,0.06376786,0.037751026,-0.02199014,0.10342925,-0.07968878,-0.029420968,0.059892353,0.07894751,-0.14934517,-0.10228685,-0.1563363,-0.009823699,-0.0053131296,0.00229522,0.09706005,-0.043684527,0.0019779871,-0.1834052,0.1614283,-0.012875397,-0.07169425,0.039229248,-0.011177966,-0.019148987,0.025466088,0.06117547,0.05853516,0.10103379,0.036157783,-0.0042570927,-0.08325723,-0.057067282,0.10228794,-0.08837822,0.05656991,-0.024398785,-0.13224685,0.010487562,0.21143648,-0.01206664,0.07089336,-0.02381652,-0.031964183,0.076348536,-0.025764415,-0.1192603,0.021089705,-0.020034768,-0.006422532,-0.024041485,-0.036331013,0.10591131,0.02492405,-0.074022345,-0.00791295,-0.040698793,0.0039347787,0.13829212,0.027302885,-0.04316531,0.006680156,-0.008696561,-0.04626989,0.09485683,0.034058444,0.008147689,0.06786941,-0.086524114,0.030713398,-0.10398878,0.04577415,-0.13030624,-0.06721841,0.08171633,0.12001002,0.03588167,0.11396889,0.10388542,0.067543626,0.03843688,0.0034156244,0.084276564,0.021560539,0.039870813,-0.0128826145,0.11267445,0.019340407,0.0016174796,0.0629491,-0.045488812,-0.09351576,-0.01390682,-0.032086592,-0.10938808,0.04941344,-0.024866387,0.017844683,0.02369885,0.027765742,-0.06877132,0.019419348,0.10988615,0.035379164,-0.068345495,0.018335382,0.11316312,-0.0015372672,0.04926937,0.065309666,0.07271354,0.038867287,-0.10457729,-0.013655092,0.058493584,0.11162903,0.09158219,0.09420406,-0.090596385,-0.18341306,0.052677374,0.00052453176,-0.02514416,-0.06424068,-0.15905261,0.0630521,-0.04942274,0.08714799,0.0034423785,-0.045143194,0.12509172,0.11213266,-0.05672332,-0.12223412,0.10905623,-0.04020471,-0.016416097,0.029859334,0.0040381183,-0.023593348,0.07611481,-0.01539357,0.0707793,-0.08275908,-0.007538701,-0.048709553,0.018225085,-0.07265911,-0.07382127,0.12828986,-0.06256228,0.017602393,-0.0361423,-0.1307957,-0.024444856,-0.04242083,0.0051723043,0.025150238,0.071910806,0.07434683,-0.1281154
-0.112733506,-0.082652636,0.061044745,-0.044910297,0.00858143,0.02942821,-0.045314524,0.009439816,-0.0057060714,-0.08158055,-0.007617623,0.09869844,0.09293421,0.07469754,-0.13789672,-0.04056807,0.005877855,-0.048649393,0.028892173,0.047293648,0.0091978125,0.0017693829,0.09385199,0.10185473,-0.059395544,-0.003329297,-0.042622853,-0.0014345243,-0.053726837,-0.06265112,-0.039414544,0.019696014,-0.044994205,0.015303764,-0.0050462116,0.027262377,0.087440364,-0.1059229,0.0066104108,-0.05047328,-0.048036616,0.114347756,-0.037145708,0.113574594,0.015605451,0.105286136,-0.07518878,0.043662094,0.0089006955,-0.046016667,-0.025500918,0.07645851,0.007883734,0.03134249,-0.10439337,0.13628629,-0.12912698,-0.0093575725,-0.06607538,-0.06360317,0.025252996,0.11337399,0.056495517,-0.025241982,-0.008593308,-0.10739976,-0.07477325,-0.07123534,0.07256494,-0.071996324,0.028607802,-0.011436191,0.022346467,-0.015595413,0.057081938,-0.018481603,0.020296318,0.0425359,-0.05132538,-0.11055629,-0.0062142625,0.030720735,0.0051089544,0.028912272,-0.0637766,0.04306975,0.041272167,0.11372816,-0.11345999,0.072937675,0.017226787,-0.12760347,-0.055914886,-0.07187855,0.024298027,0.056247238,0.118865564,0.025436312,-0.06034077,-0.034482695,-0.07571212,0.03793956,0.11862502,-0.07006544,0.048331335,0.14509037,-0.06669201,0.03128399,0.08805083,-0.008129045,-0.0571785,0.10079019,0.078527465,0.0838941,-0.0052649174,-0.09942948,0.090459645,0.031390276,-0.05879061,-0.028361637,0.069582,0.06760201,0.14616336,0.08948395,0.120167606,0.015833253,0.15926133,0.06132656,0.024785949,0.023180638,-0.0059689633,0.11133513,0.1387399,-0.0017957239,-0.08912541,0.14658763,-0.07811201,-0.07457391,0.021507183,-0.08186663,-0.057032093,0.11381364,-0.18092793,0.004914623,0.06424083,0.0057337163,-0.011316452,-0.040324684,0.045144368,0.08232676,-0.019726321,-0.06035533,-0.094680585,-0.06858713,-0.03588623,-0.07427892,0.026193885,-0.034428727,-0.20925333,0.028632382,0.075606145,-0.026941603,-0.04739693,0.028771179,0.13332587,-0.031154871,0.08302989,-0.014388175,0.03286392,-0.060687546,0.010499358,0.012455124,-0.060371805,-0.026374415,-0.06843294,-0.10394085,-0.0366101,-0.011841568,0.02184432,0.007998741,-0.0064829066,0.072077304,-0.017104581,-0.002645758,-0.028803606,0.06531915,0.033589955,0.04019905,-0.022305576,-0.12884334,-0.046093434,-0.09318498,-0.019557802,-0.025408242,-0.01260514,0.08978857,-0.09140938,-0.048383772,-0.035188355,0.070663475,-0.113835834,0.10748132,0.09011293,0.038240828,-0.013096665,-0.04857144,-0.02863455,-0.031153759,0.019190233,0.07318239,-0.043382574,0.03829083,-0.099949986,-0.014568477,0.0032088745,0.022328088,0.013945048,-0.085482374,0.06888894,0.011391136,-0.107828304,0.07326816,0.027522089,0.04751323,-0.026033312,-0.040028002,0.1260467,0.045158826,-0.048365,-0.17444864,0.07510801,0.0076192305,-0.0018721718,-0.013811627,-0.056391608,0.0663087,0.032996535,0.032144032,0.10998857,0.014923552,-0.079837635,0.051552266,0.11925231,-0.07178742,-0.11520985,-0.13785976,0.028742392,-0.05780966,0.010563741,-0.028920716,-0.039125834,0.023811517,-0.09529044,0.10855616,0.067997895,-0.028950324,-0.04133741,-0.010425913,-0.041999776,0.03000084,0.037413068,-0.02860683,-0.03141395,0.053253405,0.11383724,0.07807227,0.0023725855,-0.039462466,0.017453857,0.029487796,0.067758985,-0.06223368,-0.09185425,-0.13959832,0.10133589,-0.077405706,-0.11370814,-0.03141108,-0.1114865,-0.06248434,0.029045988,-0.032971833,0.006255269,0.109289795,-0.040074468,-0.0005699723,0.08763615,0.07381387,-0.11846414,-0.01838285,-0.09946674,0.042662382,0.0035205784,0.05493682,-0.0019696539,-0.055069502,-0.010901234,0.023528859,0.029689956,0.04752166,0.015047052,-0.02335621,-0.07103954,0.06800324,-0.04441338,-0.00716776,0.081151895,-0.024991084,-0.015302782,-0.03200405,-0.17221789,-0.12743692,-0.17644209,-0.023176577,-0.0975967,-0.03817989,-0.11907953,-0.041581176,0.08754326,0.12279993,0.0019001781,-0.09239681,0.002393005,-0.050032392,0.05587833,-0.04798272,0.024149103,-0.0045531495,-0.03194842,0.056846943,0.08254746,0.1405041,0.08292799,-0.019222667,-0.0031164826,-0.008902442,0.026248582,0.015062412,0.06983406,0.050661545,-0.04647032,-0.022598963,0.026666576,0.03929068,-0.034336884,0.11929491,0.031421598,0.031232389,0.044970054,0.043376986,-0.08784071,-0.058272146,-0.08661347,-0.04086047,0.04369064,0.18865246,0.010351496,-0.025346367,0.019989807,-0.017558847,-0.031937215,0.013836032,0.061644226,-0.028687466,-0.016921014,0.005919189,-0.037630193,0.012323186,0.12381401,0.006889023,-0.07659869,-0.14906089,-0.07742073,0.032509267,-0.058676794,-0.016479362,-0.014226887,0.018760186,0.043158747,0.014016917,0.055680636,0.09085835,0.06069403,0.011325592,0.07577728,-0.11730681,0.054829385,0.006957732,0.15545169,-0.0130060455,-0.052476987,0.07121235,-0.0931019,0.058041535,-0.1270019,-0.07361324,-0.09339749,0.20682795,-0.11649532,-0.06420365,0.039511528,-0.04110041,-0.067072414,-0.11269091,0.0009197789,0.0296727,0.026938507,-0.022573195,-0.011220218,0.052250233,0.09012211,-0.09457313,0.20089407,-0.056252055,-0.0012838158,0.03248189,0.06231172,-0.06758782,-0.015117888,-0.020637346,0.00010794637,-0.07140838,0.004406742,-0.0034714069,-0.078582734,-0.003843959,-0.010969069,0.0025752983,0.026977966,0.063885905,0.051930945,0.019217508,-0.00947628,0.084274106,0.059445653,0.008930943,0.09986438,-0.10949319,-0.01309295,-0.04955587,-0.0041366625,0.0066739614,-0.00053886196,0.056721542,-0.0845308,-0.018855654,-0.06465291,-0.1054647,0.0036799833,0.11169596,0.012712307,-0.10686961,0.14283961,-0.0051810145,0.016669804,0.08738856,-0.10838401,-0.08663756,0.024720112,-0.020640917,0.037017588,-0.114383474,-0.05007213,-0.0010256288,0.04594734,-0.043394405,0.017019812,0.05271203,0.015036372,-0.007674206,-0.064816214,-0.015867686,-0.061724167,-0.020866314,-0.065931395,0.011632141,0.107129365,0.107206,-0.08376462,0.08685056,0.059431463,-0.21335755,0.083663724,0.024473768,0.08368368,-0.09854073,0.120468006,-0.030400794,-0.011718205,0.03366685,0.03573066,-0.036064375,0.024861213,-0.01643421,-0.0698136,0.019294158,-0.018795198,0.08687056,0.101430915,0.022854263,0.054328136,-0.0016586704,-0.044873834,-0.0109056,-0.011709742,0.08459371,0.01114823,0.024720704,0.08650832,-0.01588308,0.045649555,-0.11367255,0.056390624,0.007732423,-0.02418172,0.0073564863,-0.011118466,0.021081714,0.10340503,0.034125675,0.07251844,-0.025053674,0.08350088,0.018629715,-0.08535721,-0.07913342,0.109824926,0.025311636,0.040246017,-0.061511107,-0.0070161414,0.07631075,0.02086557,-0.04552352,-0.05330034,-0.026937526,0.056228478,-0.053960502,-0.15123801,0.018218381,0.04000965,-0.032635644,0.021253332,0.021719692,0.008388909,0.0067020343,0.09297881,0.074113175,0.012513215,-0.02693874,-0.033474546,0.024281718,0.019475617,-0.025861017,0.050163686,-0.067292646,-0.010878656,0.08344802,0.034544233,0.016641093,-0.028192699,-0.027416663,-0.0515249,0.073393956,-0.12196886,0.028094605,0.028078234,-0.05287196,0.025538603,-0.041170232,0.049913842,0.0012780405,-0.09013288,0.014450533,-0.07725748,-0.09446281,0.04250601,0.034700695,-0.037118793,0.03971571,-0.06737638,-0.038818516,0.17509434,-0.0030179652,0.022886949,-0.053683016,0.014404231,0.047787093,-0.014280623,0.016816093,-0.14854208,0.037405435,-0.02075612,-0.10103531,0.014168938,-0.018476628,0.069993824,0.027640883,0.0057746028,-0.011716852,-0.0674398,-0.029310934,0.028880753,-0.059025187,0.07044264,-0.06384038,-0.097767465,0.07435655,0.10311675,0.020705005,0.07918727,-0.08221449,0.04557658,0.035007812,-0.038454436,-0.11124181,-0.13267219,0.200265,-0.16004315,-0.0030434828,-0.11584994,0.05261517,0.02209039,0.042893656,-0.017210316,-0.011569623,0.007927239,0.05266884,-0.06254053,-0.0874033,0.04946817,-0.02283206,-0.11267072,0.0063008666,-0.0063520623,-0.020221246,-0.13914888,-0.15157624,0.02934351,-0.034204133,0.04722377,0.10798152,0.03183459,0.017467568,-0.10812222,-0.022072252,-0.025309058,0.02620207,-0.058300197,-0.045852277,-0.033753652,0.036305383,0.031570867,0.07065173,-0.041282877,-0.003300922,0.035673626,-0.023666425,0.09349384,-0.009224878,0.010785581,-0.007272549,-0.0052840584,0.025795981,0.022372298,-0.08508704,-0.07309166,-0.03233353,-0.09261939,-0.06075079,0.14779373,0.0045144893,-0.029234245,0.023989191,0.033087548,0.09439324,0.046500593,0.060702447,0.014201075,0.010956039,-0.16117445,-0.058820635,0.051300667,0.10423505,-0.01124022,-0.03452256,-0.024443058,-0.051063985,-0.05894919,0.028504612,-0.13044025,-0.17605282,-0.045745414,-0.008961925,0.0043295994,0.004002827,0.058345687,0.06469611,0.08046277,0.072458945,-0.026594782,-0.09493708,-0.070214316,-0.026115874,-0.056005605,-0.06507585,-0.05575843,-0.057916157,-0.03443215,0.097309776,-0.048659842,-0.06514982,-0.20544013,0.027358504,0.053885702,-0.052181907,0.03645567,0.025708202,-0.13355164,-0.11801111,-0.0019991377,0.055192757,-0.05260099,-0.021203449,-0.08921317,0.05854521,0.00786054,-0.01155804,0.11542677,-0.11595573,0.028544303,0.050208032,-0.0031184729,-0.031902496,-0.014504196,-0.08415696,0.05475583,-0.02925281,0.021415696,0.032858685,-0.06594887,0.15310235,0.035492904,0.12960438,0.049106758,-0.07055288,0.05856033,0.10700691,0.038231842,0.09586203,-0.0646245,0.020775734,0.00821685,-0.08344233,0.10556421,-0.047983136,-0.055031154,0.11836951,0.013328165,0.060162447,-0.08310485,0.090140544,0.066922314,-0.025778057,-0.033499476,0.007903215,0.04618965,0.018717712
-0.052199345,-0.037525374,0.115973584,0.0067525394,0.047462363,0.022127327,-0.009277546,0.10284158,-0.017091034,-0.09607091,-0.026555272,-0.091720685,-0.007880246,0.026374929,0.0515905,-0.03836854,-0.0061028223,-0.040666092,-0.036917314,-0.10154687,0.03554416,-0.05562736,-0.13084747,-0.0390728,0.006297611,0.04375708,0.023458023,0.083314106,-0.06570154,0.17447713,-0.11372573,0.016870962,-0.0014695982,0.08072234,0.110395074,0.17639756,-0.061199944,-0.03935016,-0.043846685,0.02783302,-0.10822919,-0.00033633632,-0.012046946,-0.09218139,0.12754099,-0.055731528,-0.025369758,-0.036533933,0.0051115993,-0.09835848,-0.0049439953,0.03336036,-0.10559932,0.09695451,0.05673388,0.09790824,-0.0043560113,-0.019238645,-0.032745387,0.024196474,0.016683035,0.051024225,0.07314361,-0.114909366,0.13721074,-0.023840042,-0.027742455,-0.05405769,0.004751136,-0.044689987,-0.14163595,0.08120338,0.041149314,-0.121945366,0.050629824,-0.06788337,0.06026011,-0.015287388,-0.13731758,-0.072855026,0.056568883,0.05977393,0.036167074,-0.023891794,-0.044289894,0.032671258,-0.0679226,-0.01472081,0.08952217,0.0229055,-0.016910257,-0.003052388,-0.026555907,0.12391766,-0.11614472,-0.013421007,-0.045525275,0.13183473,0.010687711,0.02560424,0.056147505,-0.046474088,-0.05695047,0.13697615,-0.08317889,0.060060214,0.0012649903,0.06880243,0.020053633,0.031047618,0.030336147,0.041910872,0.0013810835,-0.042815506,0.0027316757,0.00035055747,-0.11761889,-0.049913183,-0.026714869,-0.112842806,-0.072627805,-0.1260774,0.055432852,-0.17270909,-0.061053604,-0.00045754967,-0.08344342,-0.0006121914,-0.0140871415,-0.08390345,-0.06503054,-0.026068296,0.040362827,0.044030447,0.040544588,0.026254864,-4.1864998e-05,0.094069846,-0.09026151,-0.08289305,-0.045667052,-0.13315928,0.05486473,0.046094187,-0.0050666975,0.0021496732,-0.08831251,-0.06473856,0.060737338,0.024196396,-0.020176785,0.06327094,-0.0078920815,0.13143113,0.0155301625,0.18999155,0.0449174,0.11075447,-0.022812292,0.0071360692,0.027951177,0.020398166,-0.19094102,-0.067068905,-0.035786796,0.04040956,-0.065380976,0.05719185,-0.00859718,0.1291441,-0.11477744,0.05990631,-0.058319513,0.21223657,0.14367008,0.11124127,0.12406015,-0.016888276,0.09411608,-0.05669481,-0.12306643,-0.05133366,-0.07318401,-0.014957445,-0.094993055,-0.043541674,-0.046337776,-0.0143673895,-0.05954348,-0.15675342,0.02137314,-0.1482622,-0.061881874,0.10697418,-0.07344575,0.025768641,0.013858039,-0.038382675,0.07897624,0.07136401,0.06738801,-0.04923793,-0.012823404,0.059820034,-0.040775176,0.05769096,-0.21381697,-0.024169883,0.08342342,-0.029118508,-0.040751964,0.019539053,0.10169371,0.08960258,0.12752633,0.05846256,-0.033117503,-0.06022832,-0.087487325,0.085202806,-0.15573059,0.047623973,-0.06398303,0.024075452,-0.024191642,-0.16104735,-0.01343692,-0.1892623,0.041758586,-0.028897054,0.07908711,-0.08048294,-0.037963387,0.07587377,-0.091768295,0.0780353,0.14828484,0.087983415,-0.09416224,0.0340704,0.026522957,-0.019719994,0.056993917,-0.027528705,0.093501754,-0.02491674,-0.06704016,-0.011137825,-0.014015434,0.041610762,0.06945477,0.017352324,-0.10838327,-0.011661301,-0.0032090393,-0.031916447,-0.04558595,0.12180081,0.08650107,-0.07182562,0.02284149,0.025690671,-0.08282578,-0.12887023,0.039309844,-0.002427863,-0.068246596,0.013779278,-0.08953109,0.005820683,0.018511022,0.00095728994,-0.026077332,-0.036483265,0.03715307,-0.020853711,-0.044302005,0.10183738,-0.067470096,0.003294391,-0.015954677,-0.035367943,0.016498107,0.026483642,0.009617063,0.04758179,0.0007899923,0.03437182,0.041709363,-0.01937577,0.11482343,-0.013310507,0.0027664169,-0.025669921,-0.029038534,-0.06619377,-0.059217963,-0.108323984,-0.0016365778,-0.080677845,0.017362773,0.05444609,-0.117104374,0.08488728,0.027216552,0.0845404,0.011001343,-0.015945874,-0.021566818,-0.1677781,-0.027411666,-0.06679207,0.10724951,0.030992208,-0.107860655,0.014541948,0.027024658,-0.037886675,-0.026368914,0.056573145,0.16736186,0.07992525,-0.06692867,-0.00314826,0.05690083,0.061822888,-0.0050037396,-0.005385421,-0.16845512,0.17866051,-0.08044945,-0.121240735,-0.047184475,0.06647126,-0.11930987,-0.07964623,0.08496234,-0.09118244,0.031162355,-0.093146384,0.00326042,0.0054319375,-0.029063523,0.16617538,0.076226346,-0.011768943,-0.011412343,0.07968434,-0.107878916,-0.0150206415,0.22563714,0.012473562,-0.027178694,0.08152098,-0.006141123,-0.010027864,-0.043705434,0.008850231,-0.031450283,-0.04022866,0.0805039,0.007820491,-0.013243913,-0.057734344,-0.08582792,-0.0022586547,0.008470991,0.0076825055,0.030224007,0.060360968,0.043752857,-0.0027222673,-0.12773682,-0.04622815,0.060633253,0.0033484204,-0.04647943,0.010847002,0.050209805,0.017413083,0.0604607,0.04635233,-0.064653,-0.010413106,-0.039342955,-0.021628955,0.049151365,-0.035662595,-0.03112406,-0.044855498,0.02439386,0.034709066,-0.108601876,-0.04279484,-0.09710595,0.04102137,-0.0014705431,0.12195671,-0.10685255,0.04772505,-0.13424927,-0.011713918,0.004972785,0.07545107,-0.013909076,0.046320856,-0.0033199799,0.113232926,0.107497744,-0.076389305,0.026469914,0.08322887,-0.053383343,0.023622721,0.03214237,0.16754305,-0.11631642,0.025199078,-0.052549418,0.020166868,-0.12825306,0.10715999,-0.003816564,0.03239906,0.06128031,-0.08798401,0.030602861,-0.071964376,-0.10129274,-0.05699612,-0.09633276,-0.1583655,0.03687551,0.18543303,-0.09734573,0.0063780844,0.0033149652,0.037472714,-0.0076267086,-0.048777416,-0.0458091,0.06863656,0.03093311,-0.03748234,-0.054995995,0.012300366,-0.029879645,-0.036748607,0.036328368,-0.029868538,0.112677336,-0.034771156,0.06348235,0.0036817186,0.027016371,-0.1496114,-0.09539756,0.058314085,0.022146057,0.0014815995,-0.117841356,0.023343617,0.029490162,0.008413043,0.056324027,-0.119179286,-0.12507355,0.076113775,-0.1577176,0.014487668,-0.0124075515,0.0028966162,0.13769595,-0.003919647,-0.03351926,-0.02552248,-0.02467178,0.060892932,0.051508155,0.01697415,-0.20769124,-0.10463763,0.01207062,-0.05135557,0.02116905,-0.04844272,0.04836592,0.11852374,-0.023933765,-0.09716072,0.10414493,0.05888967,-0.07235791,-0.07156478,0.12739989,-0.058756784,-0.13004553,0.040781192,0.049510438,-0.09733051,0.032300342,0.04887078,-0.0629851,0.027410613,-0.12651871,-0.07033159,0.07449521,0.06940742,-0.07552375,-0.017507186,-0.030289214,0.024807952,0.096884675,-0.12355137,0.12524495,-0.058722574,0.031075833,-0.1305551,0.03646781,0.082779884,-0.038491126,0.0403937,0.033126835,0.00668615,0.009476267,0.0209354,-0.025406575,-0.07536976,-0.024895938,-0.010959171,-0.06767168,-0.07667742,-0.16386586,-0.026042366,0.029004948,-0.072571106,0.060901362,-0.11246498,0.07955231,0.055968534,-0.027468301,0.01108646,0.04448524,-0.14189373,0.06430221,0.08686169,-0.028072722,0.109276004,0.05956949,-0.047522046,-0.045749422,-0.045885287,-0.024006134,0.012633643,0.15367565,-0.057324458,-0.10996715,0.060356677,0.019415323,0.052538414,0.082526706,-0.04770439,0.0075409776,0.022773333,0.036985334,-0.046373226,-0.0261987,0.05326619,0.02790718,-0.055266503,-0.0026364608,-0.06568352,-0.019378524,0.031704124,0.023941955,0.032356467,-0.065884635,0.037984032,-0.057140343,-0.048394743,0.106795266,-0.14707358,-0.057273753,0.034273446,0.061473962,-0.010152626,0.02452344,0.008042156,-0.13078451,-0.07267216,-0.06489907,0.052197374,-0.013402013,0.047884163,0.060497854,-0.030094502,-0.0055153216,0.0030972934,0.07830501,-0.01988739,-0.015404801,-0.03966757,-0.08825829,0.0430664,-0.0040084845,0.09013394,-0.09719753,0.043904047,0.083909616,0.0684833,-0.06262261,-0.0685088,0.19742331,-0.0237855,-0.012448239,-0.0076622083,-0.034919392,-0.05392082,1.3369684e-05,0.10357337,0.038954936,0.044574298,0.0717931,-0.07644593,-0.0107928375,0.052893154,0.009947814,-0.05688424,-0.056638934,-0.168853,0.019169897,-0.1583951,0.1407374,0.1098817,0.066547684,0.00076665316,0.04222575,0.116155,0.060116798,-0.028762069,-0.09540011,-0.094015695,-0.046519015,0.065761626,0.08818703,0.07099573,0.089821585,-0.012341811,-0.097657435,-0.018253231,0.09467794,-0.120469294,-0.014683066,-0.121679,-0.024520665,-0.048167564,0.13052428,0.009094484,-0.012149583,-0.03356989,0.10428086,-0.09667858,0.027799306,-0.02620995,-0.029375138,-0.02954503,0.13764243,0.06270112,-0.15990727,0.008415827,0.017248336,-0.022874355,0.04336902,-0.024074476,-0.040484734,-0.07480958,0.039543595,0.025840474,0.00018347081,-0.13175936,-0.010618151,0.01640154,0.016898874,-0.14487131,0.018317828,-0.07241903,-0.07619716,-0.02519866,-0.035979312,-0.0026116585,-0.013787611,0.027054843,-0.054707143,0.06999658,0.028768577,0.011014926,0.024309007,0.0058535496,-0.02013345,-0.008551055,-0.04810639,0.09433701,-0.039752167,0.12293931,0.10378746,-0.040712077,-0.09051955,-0.012475455,0.07437633,-0.06843699,-0.01801721,-0.1381775,0.14201818,-0.08361816,-0.028712487,0.09899706,-0.060873,0.101206526,0.018762408,0.02384238,-0.0005113043,-0.028611805,-0.15154208,-0.050288122,-0.15285978,-0.0583358,-0.014641726,-0.06185811,-0.085182406,-0.0014529999,0.034976482,-0.025190748,0.09133616,0.0035462398,0.08401969,-0.13015993,0.19418667,-0.009513806,0.17596477,0.04938892,-0.013075039,0.007083384,0.04093629,-0.06211383,-0.06821729,-0.10097528,-0.028446676,0.013560974,0.08777025,0.14074264,0.047672257,-0.057527404,0.11128746,0.0050887386,0.07439394,0.007690128,0.12567224,0.013498838,0.18139055,0.029795522,0.10165367,-0.061450433,-0.05514448,0.058229126,-0.022472134,-0.044102464,0.12373263,-0.017479336
0.061556756,0.097201146,0.06747334,-0.017136421,-0.092766285,0.049594797,0.07306124,-0.022503637,0.0051270435,-0.19692832,-0.12391781,0.030689554,-0.07576226,0.07967286,0.0056324955,0.125742,-0.16246548,0.032782573,0.053218037,0.12264791,0.04473257,0.027056204,-0.078169756,-0.15947916,-0.023213692,-0.046555184,-0.055323504,0.06148268,0.1139679,-0.022306425,-0.07759024,-0.07203584,-0.081857435,0.09354937,-0.017438307,-0.03881591,0.07779222,-0.122726835,-0.0046730526,-0.008189532,0.1257111,0.03305821,-0.04532601,-0.03686786,0.018259227,0.11009203,-0.041813463,-0.013124613,-0.09064222,0.15731373,-0.04686241,-0.0107683195,-0.029440194,0.0009327895,-0.094894096,-0.094333954,-0.0719047,-0.16250478,0.14069104,-0.13739401,0.02628923,-0.06553997,0.10003768,0.0081692,-0.03433361,-0.022243248,0.04327239,-0.11314804,-0.11485111,0.0018951162,-0.13886984,-0.043972854,0.09985914,-0.023563458,-0.042775895,-0.120400734,0.08950832,-0.05718727,-0.09465138,-0.07249495,-0.13870294,0.06601975,0.04610465,0.0010308024,0.058321305,0.033379935,-0.01949764,0.12395685,-0.079319134,-0.045743067,-0.041434444,-0.023037935,0.117424026,-0.041809127,-0.04359177,-0.070557155,-0.0010978814,0.029345492,-0.08863853,0.12271751,0.03332383,-0.023812596,0.02552609,-0.06690185,0.03724447,0.032575816,0.0719455,0.09665235,-0.0072528236,-0.04238346,-0.055878025,-0.023669338,0.102383286,0.077334516,0.07212137,0.161774,-0.1527345,0.11810229,0.06441014,-0.13003914,0.07986241,0.069451526,0.14437445,-0.07165364,-0.05200785,0.09790931,-0.0714771,0.01780219,0.041933145,0.009001691,0.013008313,0.0130218025,0.07020553,-1.4631962e-06,0.005051001,-0.1344846,0.0055699255,0.05453505,0.046609435,0.0011000659,0.006115683,0.16722146,0.03134938,-0.11073161,0.013877523,0.15173936,-0.1613873,-0.058896065,0.07212243,0.050676268,0.053666633,-0.02765683,-0.052079096,-0.02582932,-0.050067756,-0.038692683,-0.1061738,-0.017757367,-0.027692843,0.04707246,0.02400143,-0.07578635,0.021996776,-0.04225072,-0.08496555,0.043943804,-0.11703013,-0.0948579,0.07414437,-0.039405882,-0.0101593975,0.06938303,0.008072228,-0.12610906,-0.07993152,-0.057495385,0.042245142,-0.08493757,-0.01688369,0.06829826,0.14623012,0.05177408,-0.01992465,0.040110823,-0.047633853,0.11861035,0.035861697,-0.0005441757,-0.11884426,-0.066424794,-0.015785392,0.012152695,-0.0779419,-0.10604504,0.025488446,-0.090515524,0.056901034,-0.022224575,-0.048710816,0.06340523,-0.053525552,0.10936484,0.029083304,-0.05580586,-0.009790489,-0.025288511,0.13217835,0.04164813,0.11793021,0.008379657,0.009751255,0.019639876,-0.024087511,0.04356577,-0.06502456,0.014703944,0.015643863,-0.02792035,-0.043278392,-0.06911582,0.013928762,-0.0008036225,-0.08519816,0.0839715,-0.121112026,-0.0008528539,-0.06395246,0.028460424,0.021611085,-0.013300578,0.12442579,-0.03072473,-0.07775738,-0.021068297,0.08465662,-0.12866613,-0.06440404,-0.0043681636,-0.10558201,0.013802927,-0.03170728,0.03717007,-0.09307671,-0.14442557,-0.03982555,-0.0129470555,0.2373744,-0.005706686,-0.006888533,0.01358048,-0.035508037,0.11286119,-0.00049588294,-0.028193876,0.03845658,-0.09315727,-0.08551896,0.14941674,0.0036716652,0.101469055,0.082222186,0.06392609,-0.06550099,0.05498416,-0.057422712,-0.011903706,0.009503559,0.002245539,0.08570648,-0.053406145,0.07476622,-0.055718143,0.044631205,0.028155543,0.09780011,-0.030795919,0.07480002,-0.1215435,0.17368633,0.05143606,0.1170764,-0.007177169,-0.07147528,0.026477821,-0.11121827,0.028575663,0.017257325,0.14913025,-0.018961743,0.081142545,0.05085373,0.039543692,0.15036336,0.10522163,0.015697952,-0.03777202,-0.06292095,-5.9903534e-05,-0.11050543,-0.13374548,0.09166791,-0.03486691,0.04934787,0.059301384,0.068060905,-0.032927252,-0.19149156,0.080399886,0.014071354,-0.037881874,-0.05356314,-0.082616575,0.06835665,-0.08003824,0.074549206,0.025600782,-0.060891904,-0.09829884,0.019901555,-0.08019414,-0.052565653,-0.046423018,-0.044268403,0.030689605,-0.061825488,0.023903348,0.011580035,-0.07691257,0.08823696,0.05563572,-0.0075326725,-0.019628389,0.061821654,-0.0037567583,0.029360337,0.0146737285,-0.010172229,-0.07364179,-0.10023675,-0.18387619,0.18209183,-0.014170015,-0.12332581,0.035379812,0.01321658,0.014360814,-0.08691881,0.06382978,0.039179847,-0.01632968,0.09564447,0.0062256483,0.20500647,0.08963773,0.07236699,0.15612681,0.11815632,0.060752064,-0.027866568,-0.11911471,0.030725123,0.20567223,0.04025427,0.08278125,0.012509629,0.002032317,-0.052320573,-0.098420575,0.05520235,-0.050994005,-0.0782344,0.066596664,-0.029657068,0.08657922,0.064218216,0.11599872,-0.04489006,-0.017142003,-0.0485921,0.004308811,-0.0055275247,0.1760487,0.08503677,-0.046857726,-0.002189052,0.030344354,0.12931357,-0.005686568,-0.08443002,-0.043079503,-0.008144561,0.100866996,-0.051313046,-0.03524185,0.07782644,-0.022848485,-0.07304241,0.046924226,-0.045404382,-0.0066038584,0.007257574,-0.026517557,0.049704637,0.08810377,-0.04226382,0.13730387,0.013204514,0.039137088,0.083272204,0.11463543,0.018828858,0.035183843,-0.102644235,-0.01617189,-0.106036,-0.09129367,0.10723893,0.04389973,-0.04508917,0.04389265,0.017438086,0.13528487,0.048684284,0.07089547,0.06009938,0.024336487,-0.025445165,0.03656849,-0.07005657,-0.092284665,0.034006663,0.06855183,0.021928523,-0.052258864,-0.066631444,0.024610618,-0.042868737,-0.13024491,-0.06833924,-0.11313449,-0.034905907,0.06726876,0.12748152,0.1277493,0.05559719,0.08026092,-0.005458061,-0.15839714,0.09873466,-0.013006193,0.015796322,-0.111991175,0.036181472,0.029006012,-0.07643513,-0.036386557,-0.014348537,0.11497495,0.04620846,-0.06335371,-0.019703858,-0.0064814463,-0.06965189,0.16886611,0.15585521,0.15096,-0.047353953,0.02738379,-0.008512541,-0.1400055,0.10567007,0.0004722439,-0.04535679,0.110918924,0.08656913,0.01378779,-0.06871636,0.05679981,0.04561113,-0.034149703,0.08771068,0.048557967,-0.08192115,0.08969057,0.06712349,-0.015248932,-0.11695509,-0.021566894,0.08517329,0.20196399,-0.07285589,-0.0011973066,0.03948958,-0.032992285,0.0101961065,-0.0047819177,0.026506094,-0.10941468,0.04077634,-0.023489863,0.044010222,-0.18881534,0.014842377,0.059007697,0.08375013,0.02760469,0.11154843,0.14182639,-0.03274818,-0.0691188,-0.07520912,0.006122031,-0.042607352,0.01983491,0.023222579,0.04179845,0.10048989,0.03196241,-0.099834,0.058312748,-0.038421217,0.1157645,-0.0027395843,0.039835628,-0.0009966244,-0.0137626855,-0.062386926,-0.03638899,0.08475805,0.038882982,0.067225106,-0.036523893,0.053197555,0.018690856,0.080121264,0.054990754,-0.026467772,0.08601463,0.0478192,2.0723366e-05,-0.12260113,0.0661549,-0.02850466,0.03294162,-0.049370404,0.096173234,0.036624145,0.043362807,0.010988551,0.07078864,-0.08534527,-0.1055245,-0.056284398,-0.07029572,0.09202459,-0.002461394,-0.095780544,0.010620002,-0.07945128,0.034462575,0.01883553,-0.06947287,-0.077357836,-0.026631692,0.0097728325,0.007871827,-0.07590867,-0.025993071,-0.0898521,-0.065538876,0.014236392,0.08110296,0.062344626,-0.038079105,-0.21369888,0.049844723,0.048353396,-0.046933573,-0.08821489,0.0054878434,0.026245682,0.08858166,-0.015841516,-0.031457175,0.077391304,0.059086528,0.05897576,0.07685129,0.05587881,0.028950853,0.028364522,-0.027187552,0.07440054,-0.021631973,0.08054145,0.06891182,-0.057435017,-0.027859977,0.052495096,0.034401175,-0.016593304,-0.078375034,-0.020108812,0.11789911,-0.06979671,-0.07268457,-0.035416156,-0.09495993,0.03335935,-0.022748437,0.0068673017,0.0084957685,-0.14027135,-0.101361305,0.044971243,0.047985796,-0.085836425,0.023665832,-0.06437589,-0.0131057585,0.061114144,-0.009211626,0.105331585,-0.11232738,0.06339903,0.0495281,0.030088946,0.11115506,0.07512771,-0.08269542,-0.053103916,0.08577016,-0.047938682,0.06879823,0.15726103,-0.10708575,-0.04424839,0.12203569,0.14536147,-0.078228995,-0.052210726,0.17798251,0.0019929996,0.034524128,-0.101103954,-0.10193325,-0.042928547,0.04662024,0.033684537,0.04605427,-0.08035959,0.0027933856,0.053227477,-0.048946355,-0.10104685,-0.18172415,0.031358477,0.0074642976,0.013447505,-0.031161,0.023663769,0.022198826,0.05987524,0.08771487,-0.1706716,-0.13762306,0.050156567,0.029065803,-0.17258352,-0.14187418,0.057070773,0.017342431,0.016066406,0.009070361,-0.06762673,-0.08066026,-0.094474256,-0.094159566,0.0632027,-0.011432313,-0.014969311,-0.030165602,-0.23288323,0.13216275,-0.13828205,0.07430035,-0.110871494,-0.053479478,-0.059920687,0.0076215966,0.01795855,0.028335324,0.07980348,-0.06972679,-0.048825912,-0.07855597,-0.094746925,-0.07462359,-0.04792575,-0.064171635,-0.048135344,0.036404323,0.016933396,0.117983796,0.14373635,-0.05891327,0.010621492,-0.0955442,-0.026719388,0.09466572,-0.21454594,0.059780467,0.021666592,-0.11718914,-0.008152354,0.033231102,0.20305201,-0.031043999,-0.053083442,0.00200151,0.022114422,-5.2233514e-05,-0.11326949,-0.04463137,-0.11115479,-0.07888857,0.12566917,-0.13448696,-0.10338101,0.107721865,-0.019026909,0.004525058,0.03485309,-0.07958269,0.026567966,-0.111897305,-0.12511066,-0.030154904,0.019154312,0.07406674,0.16730043,-0.10619954,0.007068677,-0.06643836,0.03855979,0.055876274,0.17266679,-0.020206815,0.03234226,0.13506947,-0.1286767,-0.020361094,-0.013918852,0.012654139,-0.16805266,-0.005818837,0.093726136,0.10727891,-0.053622574,0.02483267,0.14958125,0.18913229,0.101201214,-0.15601152,0.13081475,0.062366787,0.061316244,-0.0696596
-0.049888507,-0.069418125,0.05264411,0.072210714,0.07877023,0.08358651,0.08008578,0.053751905,0.098456085,-0.1026994,-0.0081119705,0.10823264,0.07099619,0.11360906,-0.034626994,0.11716137,-0.04855932,-0.031014875,-0.053937845,0.04693688,-0.0032095613,0.08932275,-0.0729359,-0.015516712,-0.012116647,-0.000738194,0.1120682,0.019212745,-0.008166011,0.055448283,-0.020883488,0.0042876503,-0.016586391,0.07883091,0.15193945,0.020198682,-0.0033651171,-0.026465923,-0.014830526,0.03697311,-0.07374652,0.024980212,-0.0066236784,0.122965455,-0.0061867926,0.026265975,0.06637079,0.026205614,-0.08661818,0.022072688,0.0037372932,0.07822897,-0.10087232,-0.15297802,-0.030327735,-0.07720103,0.03901158,-0.101956785,0.08066104,0.017103896,-0.03963725,-0.04949408,-0.0044683907,-0.06671527,0.049893778,-0.11451029,-0.026951218,0.12173695,-0.09154913,0.030992229,0.105982274,-0.036215108,0.04571572,0.016816853,-0.13664536,-0.02402786,0.018980471,0.04483819,-0.10453469,-0.025052343,0.098480254,-0.013151048,0.02182979,0.010120483,0.0073511763,-0.02548998,-0.055343304,-0.0054271705,0.10226754,0.11715994,0.1064063,-0.0060511213,-0.086042084,-0.0024813702,-0.0015504998,-0.055727895,0.062282905,0.046458717,0.046457514,-0.05126129,0.0683758,-0.04017258,0.15053771,0.027808048,-0.0077230087,-0.08689685,-0.09448189,0.13136369,-0.059103925,0.0810886,0.06411134,0.005669595,-0.040616512,0.010098488,-0.07579998,0.05996877,0.037600804,0.017575009,-0.046713524,-0.048205037,-0.029025286,-0.083784185,-0.034228973,-0.061554477,-0.061692666,0.1095781,0.044270992,0.08608706,-0.042916033,0.10351686,-0.07936113,-0.003068468,-0.0025386878,0.071898594,-0.010291446,-0.05353329,0.0788559,-0.017095756,0.04663966,0.046796866,-0.029772893,0.009688669,0.07152404,0.059296872,0.05752242,-0.024401229,0.009863592,-0.0430356,-0.019342896,0.019548366,-0.04387862,-0.079407506,0.020477872,-0.11156991,0.092835315,0.026912179,0.012963031,0.011264701,-0.0052429726,0.01869969,0.08251201,0.11410811,0.07153334,-0.07304726,-0.022433478,0.057446178,-0.032824617,0.14217761,-0.12804599,-0.017659081,-0.08691536,-0.085677244,0.04518014,0.10179592,0.02935394,0.016329568,0.08330258,0.046508096,0.045919914,0.1302817,-0.061589442,-0.01865098,0.022134155,0.021924973,-0.070784084,-0.08586922,-0.036426198,0.09459326,-0.12784518,0.096037656,-0.055887125,0.017270723,0.03935768,0.024570532,0.08851491,0.09569307,-0.06558215,-0.08672644,-0.03296636,0.08679185,0.023061357,0.06588641,0.07498792,0.038804486,-0.027804911,0.021298,-0.053922966,-0.08535077,-0.03665369,-0.037722863,-0.060473554,0.041798506,0.001783377,-0.08342356,0.14702648,-0.018077873,-0.06686141,0.056118283,-0.031020598,-0.027035624,-0.051387414,0.007889139,0.10020995,0.024745613,0.10647051,0.0541452,0.0019756628,-0.018081898,-0.01438189,-0.05649181,0.013387683,-0.0013175008,-0.027604707,0.1286816,-0.10122907,-0.023022424,-0.006545837,0.025584977,0.041024655,-0.06805435,-0.015056321,0.063554645,-0.008444432,0.020401774,-0.044815086,0.15797281,-0.0006927732,-0.025397923,-0.12563951,0.07985042,-0.0025358004,0.00069098244,0.10584174,0.018152844,-0.053993385,-0.037206665,-0.096084535,0.07261747,0.036316443,0.005405944,0.085049815,-0.06590676,-0.07277654,0.11412568,-0.062860325,0.03906102,0.0034787313,0.008588738,-0.10256872,0.037928227,-0.14364076,-0.030028181,-0.102579236,-0.14973949,-0.07158974,-0.06797599,0.054487582,0.053761434,-0.091403544,0.0012565907,0.023183236,0.00092770916,-0.016134487,0.083961144,0.10516974,-0.078584336,-0.05878199,0.11510545,0.053593967,0.034165043,-0.04184019,-0.009809827,-0.00020345606,0.012451096,0.07317117,0.031761624,-0.061340258,0.042171758,0.045117766,0.0031434093,-0.087852925,-0.12073711,-0.10309494,-0.027430113,-0.030048901,0.05925134,-0.08899937,-0.0025067946,0.09307421,0.08364548,-0.017045667,-0.09384689,0.05014236,-0.031888094,0.014654195,0.028535204,-0.025120243,0.027294507,-0.12012252,-0.050262257,0.051418647,-0.021422563,-0.126886,-0.08273218,0.006305682,0.100367606,0.029474996,0.0117747495,-0.10091527,-0.022937996,0.038377915,-0.0345658,0.0057963617,-0.04573408,-0.005476905,-0.10515925,0.12653638,-0.047767695,0.05634869,0.1583921,-0.027822496,0.157227,-0.024142353,-0.026935158,0.09263977,0.036355864,0.025742093,0.021248832,-0.007043472,0.030703362,0.03760275,-0.01624687,0.06554916,0.07767664,-0.17790943,-0.079956345,0.055797074,0.08020358,-0.10161509,-0.039366107,0.06271943,-0.026081838,0.013738902,0.0044191564,-0.006486617,-0.1556591,-0.056586683,0.016826563,0.0006112232,0.09761659,-0.12166947,0.07090042,-0.032126103,0.047724664,0.1183025,0.06443759,-0.058592264,-0.011030028,0.014750116,0.09654728,0.07444441,0.0075332643,-0.022096923,-0.096877135,0.040529985,-0.0049464502,-0.008063903,0.002971274,-0.018859308,0.028079601,0.05111564,0.021379285,0.07489656,-0.12363719,-0.034815475,0.011488018,0.04578647,0.08890241,0.07556689,0.023436362,0.015925022,-0.053010035,0.007681126,-0.033574555,0.026889957,-0.029754836,0.08134169,0.060533997,-0.0920473,0.065006085,-0.07348354,-0.07281228,0.14685358,-0.070071414,0.010612986,0.13391498,-0.047673628,0.019531652,0.022278272,-0.018392382,-0.013338156,0.045035027,0.06471044,-0.051184554,0.05300854,-0.03871469,0.04479993,0.02194268,0.016303971,0.0051868316,0.12622367,-0.08322104,0.057244215,-0.07034793,0.005351387,0.044496574,-0.1026013,0.11480841,0.021242682,0.074671656,0.03975365,-0.1530732,-0.017720914,0.115084596,0.087170966,-0.052442413,0.23353435,-0.108457565,-0.0037671658,0.017352162,-0.04436804,-0.01566386,-0.072433576,-0.035090376,-0.18993352,-0.063387305,-0.011081458,0.05304154,0.053456176,0.097647525,-0.013606316,-0.059591357,-0.106383696,-0.1325345,0.09241843,-0.04367953,0.019895047,0.121294364,0.041421387,-0.01058125,-0.15595937,0.06072399,-0.03987966,0.0009746194,0.037954528,0.026446782,0.035649423,-0.008589342,0.033803016,0.0104910415,-0.033695597,-0.050599035,0.08236519,0.11426627,-0.019467017,-0.01741108,-9.2070164e-05,0.064255945,0.03521642,0.0134476,-0.038183946,0.032307163,0.021182455,-0.15520689,-0.054480273,-0.0079793595,-0.0041276156,-0.07032927,-0.039857555,-0.01126615,-0.03761285,-0.02675039,-0.06731361,-0.02347273,0.02999797,0.028880535,-0.040668722,0.04403756,0.0893132,-0.0164956,-0.10119813,0.014844497,-0.016325645,0.052496076,0.026292859,0.016059168,-0.025341054,0.013387361,0.046786267,0.0904884,-0.056429368,0.015699854,0.08852004,-0.071333885,0.00065269455,-0.03213317,0.0052948585,0.020362742,0.029954316,0.08079124,0.07559207,0.045067042,0.028094843,-0.102199994,-0.064711235,0.0634148,-0.028900772,-0.07949234,0.033235904,0.15239552,0.04475908,-0.05865432,-0.04167169,0.020560147,-0.04317967,-0.022404814,0.0012292147,0.14160666,-0.12961537,-0.0833146,-0.119355716,-0.11205771,-0.008489242,0.05193702,-0.0067342897,-0.062960535,0.005420219,0.009995085,-0.010713333,0.04232714,0.070846364,0.06156227,0.12882595,0.00469003,-0.03531833,-0.12945597,0.014500159,-0.04463571,-0.040118795,0.042892773,0.0070182956,0.09213147,-0.005963875,-0.029576177,0.08186703,-0.016327536,0.08208726,0.11495734,-0.059530795,-0.1138153,-0.031956796,-0.15343584,-0.055214476,-0.02970748,-0.110671654,-0.03915288,0.017083846,0.02048942,-0.07374957,0.13879666,0.078747526,-0.016265893,0.015850741,0.046468016,0.0029699688,-0.011065624,0.083820574,-0.021251194,-0.14991002,0.038062837,0.11017572,0.07328466,-0.057974067,-0.022932002,0.028132023,0.05705007,0.05793428,0.046828505,0.049578927,0.065568715,0.045774575,0.08966746,0.024999795,0.077475995,0.008374474,0.056884423,0.0015486568,0.06177659,0.07248238,-0.0013375097,-0.06886391,-0.003826025,-0.08623872,0.089288265,-0.0022069141,-0.096586265,-0.020969154,-0.12491809,-0.0046318523,-0.023790905,0.08483044,0.0059560263,-0.07147872,-0.02526735,-0.036395125,-0.11568751,0.044064812,-0.034281664,-0.0562912,-0.0720135,-0.03727213,0.0063802665,0.120137215,0.06457749,0.04491584,-0.08587231,-0.061301038,-0.033390738,0.03261173,0.01581312,0.031277638,0.0053187907,0.03212366,0.02293852,0.0034901584,0.00046699907,-0.07773851,-0.0038451666,0.09229838,0.036839377,-0.048424337,-0.070156954,0.010215113,-0.056120947,0.0052650566,-0.10631333,0.036258936,-0.0015484423,0.07112248,0.07875362,0.05194699,0.019963361,0.0034697256,0.060185198,-0.14028941,-0.21328233,-0.037725277,-0.02365482,0.026279172,-0.06819672,0.057042457,0.05374434,-0.0041971174,-0.0066700717,-0.0046453825,0.08973867,0.0546792,0.030109989,-0.07401096,-0.052815996,-0.03330693,-0.1298212,0.0002572301,-0.31353107,0.045716237,0.06311002,-0.06825634,0.05113027,-0.058068678,-0.12940365,-0.081206776,0.031730525,-0.14822981,0.045875754,0.052574955,-0.05904302,-0.031897977,-0.025080876,0.06668096,0.06336736,-0.08780353,0.012897694,-0.018341258,0.17122455,-0.042280313,-0.051358573,0.11079287,0.034908034,-0.07768448,-0.05375931,-0.025105933,-0.08772474,0.06530281,-0.011992901,0.12272221,0.06820405,-0.013756375,0.04582328,-0.004705141,-0.037729323,-0.048272256,-0.0018800482,-0.05259261,-0.10184964,-0.13497174,0.0023191539,-0.011990435,-0.0062683406,0.019872775,0.048133187,-0.06752399,0.0097677065,0.039658032,0.025308438,-0.05586618,0.013514183,0.05225575,-0.02860202,0.07395027,0.016269805,0.040118955,-0.07832685,0.05146889,-0.038811058,0.0036733812,0.119674616,-0.044653747,0.023912827,-0.020860435,-0.06764371,-0.16418645,0.059563126,0.058080815,-0.010453486,0.11466239,0.07719329,-0.09759144,-0.053650443
0.061800696,0.058373723,0.084889226,-0.05657246,-0.039784946,-0.02047328,-0.0022120266,-0.033645906,-0.0075793113,0.0018946737,-0.12124137,-0.03119228,0.022224206,-0.14625648,-0.05528985,0.050181556,-0.038360238,-0.03636689,0.034823738,0.05839309,-0.13854909,0.15880251,-0.005366426,0.12830248,-0.0151263345,-0.22846493,0.02004007,-0.1239019,0.050298538,-0.12475677,0.052936513,-0.05684185,0.037422836,0.047655765,0.017384911,0.008924724,0.027239177,0.026622219,0.0792292,0.081535436,-0.0032856679,-0.007084626,-0.06937094,0.11465129,-0.02118147,-0.13314934,0.03849592,0.03334328,0.035286665,-0.019502211,-0.1623112,-0.05794846,-0.09376869,-0.013720913,-0.11448825,-0.013030774,0.0006511199,0.070985176,0.093291365,0.06826601,0.110468045,-0.03366446,-0.0786989,0.0758762,0.10572734,-0.052850917,0.09475904,0.11678876,0.042671382,-0.062583834,-0.058577575,0.13636503,-0.027660862,-0.045994125,0.079877384,-0.064825974,-0.013280932,0.044043478,-0.07898421,0.117364086,-0.14207235,-0.07074706,-0.06812114,0.16891164,-0.014657641,-0.10004461,-0.15516041,0.017194988,-0.0060608923,0.021618355,0.14370583,-0.17254113,-0.05621148,0.09994244,-0.08065514,0.105404176,0.09039195,0.06453021,0.05828112,0.072285816,0.07145028,0.09346578,-0.17126384,-0.047705665,-0.15244561,-0.08108235,0.009372383,-0.073502816,-0.018848889,-0.09912681,-0.08456822,-0.0075201867,0.0060627325,-0.13899976,-0.040235598,0.016520787,-0.08170822,0.056910362,0.019444985,-0.09648829,0.044207927,-0.045251276,-0.0065568043,-0.08978634,0.11881576,-0.15782085,-0.05842326,0.022092069,0.092726156,-0.039271437,-0.15023242,0.11026862,0.044864193,0.13344508,0.108215354,-0.074421994,0.012476459,-0.005785126,-0.009670743,0.11886549,0.10388416,0.043730088,0.10505216,0.17680293,-0.040357858,-0.08095117,0.013990938,0.0296342,-0.19755608,-0.06916164,0.04536672,-0.015620691,-0.07015265,-0.13472345,0.14953488,-0.033574946,-0.065973796,0.104134105,0.022735227,0.06266914,0.11555191,0.03717341,0.056570295,-0.08292896,0.07482208,-0.02572689,-0.07463896,0.004764308,0.076610014,-0.11902147,0.039697796,0.07988886,0.083631225,0.056530524,-0.0063125873,0.0525306,0.115580596,-0.03000687,-0.14805552,-0.044401586,-0.058962237,-0.017257962,-0.00045987748,-0.01168206,0.033733375,0.026762927,-0.17709652,0.11581065,0.077995144,0.113303475,-0.13906713,-0.059975613,0.035177972,0.012858632,-0.031346984,0.057699997,-0.0012020745,0.09959039,0.037406217,-0.040335316,-0.06850631,0.056272116,-0.045762885,-0.18908323,0.10738617,-0.12094381,0.0663227,0.037564263,0.013281859,-0.08956923,0.08561355,-0.042744454,-0.194875,0.07181088,0.1604937,-0.0411499,-0.00058547145,0.058452055,0.05328216,0.04730905,-0.03097117,-0.01281646,-0.09842655,-0.09210777,0.033661205,-0.03571039,0.022609198,0.035776917,0.11442372,0.16131686,0.018851057,0.089567564,0.089597695,0.044580642,0.0057288418,0.008731606,0.03661839,0.079135254,0.11463971,0.101282395,-0.027158918,-0.07203985,0.029773649,-0.093478896,-0.03459818,-0.18679935,0.0080488445,0.082067624,0.05994356,0.09959583,-0.16491821,-0.0320635,0.06294226,0.04818997,0.050480377,0.045878354,-0.06272693,-0.05115393,-0.026942456,-0.112962395,0.14135265,0.008786297,-0.055092286,-0.010605886,-0.010419547,-0.16937037,-0.1446859,-0.09747205,0.03134811,0.10553943,0.14753588,0.2030244,-0.053251766,0.1510607,-0.10594257,-0.15088971,-0.18438776,-0.06477745,-0.009822093,0.16144845,-0.017162101,0.0102242725,0.057832938,-0.09535965,-0.009116928,0.083199054,-0.064592816,-0.13948666,0.012843284,-0.16425525,0.08649662,0.049478553,-0.048825372,-0.07026378,0.07336612,0.044046886,0.0064933086,0.017440215,0.089184426,0.02634382,-0.07887309,0.1666116,0.01310048,0.009132809,0.008259744,0.105394155,-0.023260934,0.024348596,-0.020289896,0.20717427,-0.09448125,0.12050284,-0.029843265,0.05327407,0.0052952487,-0.08798019,0.032613706,-0.025325576,-0.026657272,-0.09259641,0.14861248,-0.0054092496,-0.03312605,-0.059579823,-0.0310195,0.1194308,-0.18785639,0.19463888,0.02025694,-0.02641145,0.13084166,0.0047737183,0.08914629,0.096988924,0.0888772,0.009218629,0.09187297,0.08248638,0.093886584,-0.017710043,-0.12782563,0.03467743,0.05106096,-0.04401336,0.0050669815,0.05157979,0.019557804,-0.14410558,0.12431319,-0.011200867,-0.01110749,-0.19307037,-0.048763372,0.13521935,0.03681602,-0.038860228,0.054823387,-0.021361995,-0.024976615,0.037339997,0.034831353,-0.06538225,0.055491608,0.123424314,-0.03558243,0.022091305,0.19006655,-0.027025832,-0.06738104,-0.016294623,0.08291794,-0.11762483,0.0139108235,-0.070838965,0.09311015,-0.11642696,0.17321497,0.11047934,0.14611623,-0.08827485,-0.09911562,-0.008194794,-0.066775724,0.17515846,-0.07103223,-0.03843927,-0.026020262,-0.0109266,0.08216926,-0.018386967,0.08191573,0.14878547,-0.0004814131,-0.035573848,0.080408715,-0.010913772,-0.033484653,0.12632078,-0.017613837,0.117847264,-0.052772477,-0.14201503,0.028373096,-0.10988948,0.020049555,0.17989264,-0.046647843,-0.057053994,0.03242609,0.058042333,-0.016203836,0.030358557,-0.008227272,-0.067573726,-0.025689475,-0.08499176,0.08291149,0.049993664,0.10489054,-0.13266395,-0.037379827,0.06482311,0.013205364,0.01917941,-0.03914103,0.10845781,-0.027833227,-0.06034748,0.05065636,0.0768495,0.009739601,-0.08008684,0.05285094,-0.12791196,-0.12702626,0.076329276,0.07091384,0.06527904,-0.20223881,0.15341282,0.1184973,0.01600265,0.09609851,-0.02013116,-0.12249209,-0.24946767,-0.1524654,0.024838,-0.0024890366,0.12927161,0.060354304,0.015205884,-0.12263089,0.09298205,0.027923921,0.01740703,-0.036565695,0.010326253,-0.028434893,0.020983147,0.10474499,0.09366506,0.014495295,0.021021778,0.030945487,0.05329608,-0.025367236,-0.088011004,0.061592933,0.11929334,-0.18598036,0.057458926,-0.0959884,-0.08727087,0.08974808,0.081940524,-0.17777728,0.09301049,-0.016841935,0.000641417,0.150609,0.082160994,0.06560211,0.005761783,0.031565282,0.015448049,-0.051762182,0.08001095,0.05216447,-0.0072796145,0.07719801,0.05162906,-0.09240103,-0.07081253,0.11629146,0.041615773,0.15357642,-0.054669857,0.067813896,0.10133313,-0.052953083,-0.08904535,0.07044479,0.1159593,0.038902383,-0.05125336,0.20351425,0.006054562,-0.04174989,-0.050366655,-0.07462827,-0.0019815103,-0.073943235,-0.039544865,0.054317486,0.07786887,0.011195328,0.11116341,0.0055805333,-0.1130332,0.011446573,-0.20497014,0.09471248,0.08329844,-0.066966094,0.033683065,0.104727805,0.07849544,-0.107586056,-0.03790522,-0.089765556,0.008417584,-0.15457256,0.16732936,0.04591922,-0.019297082,-0.06855048,0.06355354,-0.123201855,0.10643705,0.1936958,-0.10096702,-0.03767766,-0.072476655,0.026917905,0.20707768,-0.020185841,0.058993228,0.0007997858,0.063549966,0.08046665,-0.091582045,0.029798087,-0.04846083,0.036662325,-0.017301302,0.035372578,-0.029870704,-0.11583124,0.057170574,-0.052323908,-0.005746082,0.0996966,0.11155153,-0.044378027,-0.2222178,0.12710868,0.088020235,0.017253831,-0.10092235,-0.1157735,-0.0952719,0.030953545,-0.0014626718,0.011013591,-0.15301387,-0.025358235,0.048761543,-0.06310421,-0.115187325,0.038031064,0.00016372072,-0.017668122,0.15750614,-0.07868855,0.09305611,0.07711439,-0.08701192,-0.01862558,-0.03204208,-0.00046180343,-0.1470764,0.03753408,-0.004682119,0.028376142,-0.07083961,0.0123589,-0.04542152,0.13507667,-0.036885243,0.010518101,0.014764849,0.0069669015,0.03290177,-0.13349026,0.123582505,-0.08467122,0.050334223,-0.04945635,0.034266595,-0.05715643,0.056532573,0.042139817,0.02890849,-0.0741597,0.028927613,-0.08135616,-0.007881548,0.15381184,-0.01193971,-0.027485805,0.01427849,-0.18729667,-0.01626625,0.040390592,-0.009517205,0.13012436,-0.03805276,-0.018956086,0.03353784,0.03731274,-0.04835817,0.09359005,-0.047419917,0.047371775,0.013554734,-0.020115582,-0.023731392,0.0064742793,-0.018012827,-0.09317191,0.0118630035,0.040214688,-0.12534131,-0.14340192,0.032282706,-0.04839747,0.025153983,0.02273601,0.006443582,0.05208553,0.031748783,-0.13547397,-0.006447352,0.01663374,-0.036424764,-0.061216377,0.06402088,-0.13621932,-0.1015769,-0.035172716,0.0066515277,-0.1281243,0.024427166,0.106248274,0.0021290919,0.042291585,0.081174545,-0.0617763,0.087413915,0.039623603,0.0031940606,-0.024801487,0.005099741,0.05499036,-0.073804535,-0.10983505,0.100676015,0.053849936,-0.0592647,-0.043775592,-0.03449583,-0.06569841,0.11441999,-0.024699213,-0.009408132,0.038787924,-0.120797984,0.017243916,-0.22581258,-0.03447419,0.09763368,-0.1319863,0.027098829,0.0077780643,-0.14666632,-0.1051942,0.1903999,0.0112491045,0.05855725,0.05478406,0.10337935,0.11016282,0.12404989,0.15059522,-0.08429042,0.17726992,0.11210301,-0.09291039,0.15008432,-0.0018522844,0.009876727,-0.048723333,0.081052184,-0.08214887,-0.07927938,-0.0910719,0.0800605,-0.004102832,0.068620056,0.09701087,-0.028416323,0.02621592,-0.05619343,0.15772916,0.0060642427,0.08940517,0.080534436,-0.048918504,-0.055053372,-0.006348681,-0.018071549,0.071658574,-0.009233998,-0.0529852,-0.050337695,0.032731943,0.079315715,-0.009120737,-0.002945512,-0.082641415,-0.09939844,0.09142516,-0.040483218,0.059866045,-0.05647811,-0.019735863,-0.01082606,0.0051600356,-0.02095711,0.10256714,0.05999604,0.07449474,0.092163004,0.07959226,0.044586755,-0.0745836,0.0029599266,-0.070510104,-0.057915952,-0.017992934,-0.06355677,-0.06858501,0.13211872,-0.034813948,0.117532834,-0.1017729,-0.053699937
0.049028568,-0.06050813,0.055611882,-0.13367367,0.03753774,0.012387705,0.04600963,0.083782576,0.058385845,0.06357164,0.01673198,-0.05808984,0.03097669,-0.027124524,0.0971437,-0.04954701,-0.07297481,0.14062403,0.091279976,0.012549786,-0.104587056,0.12806481,0.037264146,-0.0062664584,-0.010029163,0.09009848,-0.1579669,0.006556714,-0.16252036,0.13467589,-0.1959889,0.0035875223,0.028060779,-0.08824302,0.097663015,0.12712367,0.14715973,-0.022944959,0.036870614,0.0114256255,-0.073619194,-0.0436367,-0.040235918,0.026153278,0.09716224,-0.029946206,0.15296176,-0.011460994,0.071074486,0.07336271,0.02582573,0.02677518,0.022170465,-0.013754185,-0.054184105,-0.07081117,-0.0621793,-0.06629387,0.10837957,-0.08591235,0.038251393,-0.08929975,0.04512993,-0.0027853681,0.06397354,-0.05310635,0.035398874,-0.12365571,-0.015662054,-0.07482291,0.012494245,-0.046931088,0.012214839,-0.04624839,-0.07253785,-0.1788212,0.07928744,-0.10901045,0.018713308,0.026576431,-0.0898948,-0.04348593,-0.12184026,-0.070791066,0.15370755,-0.03343216,0.076553635,-0.024404595,0.14361025,-0.08984897,-0.1057462,0.0651022,-0.031688463,-0.04907844,0.040850483,-0.05434612,0.05593717,0.012797014,0.09909065,0.13484424,-0.0065921075,-0.10058121,0.08577254,0.058044963,-0.11482392,0.10036325,-0.06664153,0.06488537,-0.0599012,-0.072101355,-0.22870676,-0.031696092,0.022813212,0.0007913607,0.22400391,-0.07001715,0.04934,0.072237946,0.11936154,-0.0686564,0.08042633,0.05736312,-0.0907209,0.09260796,-0.07316063,-0.037257943,0.040289007,-0.07554743,0.03672347,0.07981273,-0.03652687,0.017417563,0.030206665,-0.025485095,0.005196973,0.07876295,0.08543138,-0.06784424,0.013586834,0.042541776,0.007951585,-0.077304855,-0.056626465,-0.033305254,0.10589744,0.055385787,0.08367759,0.032685764,0.08820482,0.046219055,0.21644385,0.0736726,0.0030532244,0.0041100536,0.12852058,0.0776706,-0.1488387,0.043019433,0.12032407,-0.08302028,0.15691784,0.016589,0.07850391,-0.030653952,-0.12273415,0.080904834,0.035851073,0.005316329,0.17191891,0.03195882,-0.10288446,-0.06885937,0.088108346,-0.05340887,-0.10097253,0.06242111,0.07750835,0.008529677,-0.088589065,-0.028488617,-0.01150675,-0.07195102,-0.07599036,0.033858556,-0.035752054,-0.045478776,0.17625731,-0.10001621,0.060366187,0.0022627504,0.05302908,-0.06649589,0.010651611,-0.10631732,-0.084054075,-0.08050475,0.024696296,-0.007639525,0.08571696,-0.0038502337,0.09533533,0.12160146,0.009466454,0.012259003,0.03988092,-0.039747287,-0.12433398,0.053033028,-0.13384365,0.011977638,-0.006010093,-0.010900992,-0.014522589,0.053078935,-0.047296803,-0.0093689235,-0.0014161274,-0.07055476,0.186544,0.03266505,-0.001092891,0.09487707,-0.032828204,0.039320875,0.0012372766,0.04640939,-0.013526086,-0.0044722944,0.007084001,-0.0020397117,-0.02825286,0.0055816146,0.016243167,0.094931364,0.009846371,0.08679403,-0.04921744,-0.10412035,-0.029433986,0.03404321,-0.035516582,-0.017182175,-0.016878342,0.054669086,-0.052722096,0.051956177,-0.027250152,0.0577904,0.009782574,0.06751833,0.0017373922,0.04306565,-0.061288316,-0.033906154,-0.031423416,-0.025889162,0.026415922,-0.09789628,0.12282253,0.055813216,0.022768632,0.05205016,0.12954356,0.03560514,0.03806697,-0.123053245,-0.0331444,-0.03126313,0.015805224,0.03512343,0.080523044,0.0013759095,0.037449215,-0.013213445,0.11825243,0.13922298,-0.062021304,0.019821262,-0.018613916,0.074813694,-0.08000129,-0.07219884,-0.12702349,0.09023119,-0.024296133,-0.044773296,0.03580567,0.07376323,0.007061393,0.042164426,-0.024982736,0.012678979,0.03536697,0.07503229,-0.008260438,0.13569771,-0.008591792,0.24862161,-0.04704113,-0.006428597,0.044412456,-0.11322661,0.041735794,0.0035232285,-0.022138046,-0.16457675,0.032098174,0.06061941,-0.015537645,-0.07088171,0.12156565,0.12924388,-0.051881347,-0.04030659,-0.12460154,0.051382873,-0.07892122,0.0268676,0.048736915,0.013791819,0.06554972,-0.076659955,-0.05309711,-0.027326792,-0.15232302,-0.011644175,0.09453057,-0.02236027,0.0139084235,-0.059424352,0.18727705,-0.19289869,-0.0022061036,0.09799409,0.13282393,0.07764782,-0.04985655,0.07086353,-0.030023655,-0.119645335,-0.07845763,-0.061875142,0.051577684,-0.0077403896,-0.053226653,-0.09884535,-0.022821344,-0.028079359,-0.13606629,-0.14072183,-0.051607355,0.034827888,0.004327768,-0.011040134,0.030446127,-0.0116903605,0.013963511,0.018453239,0.15227191,0.08161378,0.0018957234,0.0587128,0.077668704,-0.008243429,0.06458385,-0.12758796,0.05074486,-0.08199852,-0.18089928,0.07439241,-0.011918703,0.014494499,-0.0088210795,-0.010760711,-0.044265706,0.034752555,0.058571916,0.10306093,-0.014636235,-0.120853074,-0.11008658,0.09233172,-0.0244584,0.022430725,0.06309894,0.054180104,0.06853277,-0.026031844,-0.16642489,-0.060989987,-0.018443003,-0.0199942,0.0087189,-0.041380066,0.03387679,-0.03958302,-0.05665571,-0.09333579,0.06680472,0.13319759,-0.058825452,-0.054787356,-0.057648584,0.010539205,0.070793845,-0.07022322,0.003911009,-0.020266764,0.18601306,0.13817279,-0.009785871,-0.049708884,-0.05574342,0.2147742,0.00090808136,0.03193996,-0.06605624,-0.15456334,-0.056453314,0.038351733,-0.052284054,-0.016517723,0.09864835,0.025804799,0.13039087,-0.0014301236,-0.009629021,0.07358063,0.064892486,0.086856484,0.037932318,0.14233828,-0.05836628,-0.06738718,0.025604244,0.018660275,0.08864136,0.0818958,0.068216935,-0.08317518,-0.009263036,-0.17999311,0.0763152,-0.12530014,0.17675653,0.040464595,0.020289687,-0.14525184,0.08156422,0.04470902,0.09897493,0.06986362,-0.03173864,-0.043697044,0.014893632,0.09889579,-0.062344,-0.095149316,0.024478938,0.16183253,0.04060468,0.052069258,-0.14362384,-0.063875206,-0.094689,-0.10044728,0.073793,0.03689956,-0.012086662,0.07067582,0.0086093955,-0.053465426,-0.10830272,0.03613019,0.07290286,-0.13457322,-0.049788985,-0.012103884,0.112373136,-0.090130374,0.012692219,0.012364842,-0.13753206,-0.08213772,-0.02828256,-0.097547255,-0.037344422,0.029435245,0.05286648,-0.07431766,-0.049261816,0.06587509,-0.0025774066,0.041014533,-0.06199519,-0.026024135,0.071066976,0.14478213,-0.08242731,0.048464097,0.13719124,0.08196261,-0.07286992,-0.0076697906,0.14290163,-0.035057016,-0.07957305,0.09757393,0.000118806885,0.038754184,0.0040903916,0.048565056,0.08132243,0.1080666,0.023472924,-0.12020449,0.1953787,-0.038920537,0.043866917,0.01714183,0.096252844,-0.001043579,-0.13555554,-0.079119325,0.012057938,0.004808385,0.040367417,0.047693457,0.02555373,0.11303132,0.004297177,-0.0038025388,-0.096328296,0.00042491482,0.02849586,-0.01418454,0.11468557,-0.07164452,0.00323277,0.015478417,0.011213408,0.10701956,0.08275811,0.051252156,-0.11744433,-0.059418608,-0.050896034,-0.02426658,0.123659946,-0.0057930714,-0.0049712323,0.114406124,0.017559756,-0.004646984,0.050346117,-0.027223099,-0.007420747,-0.079590276,-0.0360957,0.0047643543,-0.0050886287,0.0014605034,0.13218544,-0.057134315,-0.021716384,-0.07392963,-0.041719846,0.14830111,0.068476155,0.1526839,-0.0003947625,-0.09559389,-0.046206772,0.048146613,-0.0214851,-0.072861105,0.12956215,-0.10598763,0.1014222,0.05927381,-0.11720817,0.020146511,0.011892883,0.13351312,-0.1761708,0.01759062,-0.053265374,0.016966153,-0.060762703,-0.007336262,-0.0137387505,0.033718824,0.04359517,-0.04110579,0.049959827,0.078800455,-0.02845859,-0.043860003,-0.027319705,-0.061234087,-0.021099886,0.07006914,-0.026959307,-0.07240009,0.026092662,0.104197085,-0.07847309,-0.03238323,-0.12566046,-0.102079675,-0.12340649,0.0920116,-0.025054011,0.028012479,0.037469525,0.019558972,-0.015480962,-0.04733294,0.08580623,0.15505376,-0.019874712,0.10627638,0.045056112,0.033879317,0.084432356,-0.05211592,-0.05312047,0.18018714,-0.0921868,-0.12499077,-0.03556303,0.029424766,0.0070381965,0.052744698,-0.1008436,-0.07587562,-0.105846494,-0.07051634,-0.12607767,-0.12640044,-0.011182182,-0.0072720074,-0.010370118,0.06359578,-0.028612005,0.049201533,-0.072086245,0.09456287,0.14319924,0.06153731,-0.09020562,0.07368304,0.029652022,-0.16494064,-0.041742288,0.021101331,-0.16229102,-0.008570489,-0.01396754,-0.04245172,-0.0032822029,-0.0658329,-0.081513755,0.002991386,0.0045648324,0.015131053,-0.046704847,-0.058124878,-0.062424835,-0.048401233,-0.081929296,0.10278797,0.09493179,-0.10876461,-0.044109877,0.10212603,0.024123438,-0.04912016,0.006163708,0.09042368,0.09268464,0.17280717,0.091030344,-0.05166842,-0.0128793735,-0.0036439963,-0.070112154,0.046575278,0.028003508,0.09295649,0.024054687,0.22107255,0.02914824,0.06705358,0.07520455,-0.100418046,0.015204129,-0.057728484,0.07736874,-0.046021193,-0.05043359,0.018497242,-0.05799929,0.09361656,-0.06776512,0.12544945,-0.0480422,0.05742731,-0.009834504,0.07819037,-0.054777622,0.026509894,-0.10621204,-0.031253535,0.07619221,0.08134337,0.040316395,-0.08308033,-0.06008597,0.028686753,-0.18272918,0.22147724,0.09099437,-0.028087957,-0.0022981504,-0.08554435,-0.0017491009,-0.018900473,0.0026997281,-0.03655963,-0.022463609,0.076135606,-0.13690041,-0.041046698,-0.040301938,0.0138119105,0.0704782,0.060241528,0.029414525,-0.112893745,-0.12489977,-0.01494771,-0.0719382,0.0024131716,0.15626618,0.14053892,0.0799051,-0.084745795,0.0591824,-0.05468289,-0.015203578,-0.10372679,-0.08987899,-0.08727706,0.025728399,0.041356444,0.022474082,-0.015625022,0.030461045,-0.10775464,-0.029316923,-0.10429177,0.040595256,-0.09624118,0.012248395,0.01638778,-0.032161232,-0.13529006
