0,1,2,3,4,5,6,7,8,9,10,11,12,13,14,15,16,17,18,19,20,21,22,23,24,25,26,27,28,29,30,31,32,33,34,35,36,37,38,39,40,41,42,43,44,45,46,47,48,49,50,51,52,53,54,55,56,57,58,59,60,61,62,63,64,65,66,67,68,69,70,71,72,73,74,75,76,77,78,79,80,81,82,83,84,85,86,87,88,89,90,91,92,93,94,95,96,97,98,99,100,101,102,103,104,105,106,107,108,109,110,111,112,113,114,115,116,117,118,119,120,121,122,123,124,125,126,127,128,129,130,131,132,133,134,135,136,137,138,139,140,141,142,143,144,145,146,147,148,149,150,151,152,153,154,155,156,157,158,159,160,161,162,163,164,165,166,167,168,169,170,171,172,173,174,175,176,177,178,179,180,181,182,183,184,185,186,187,188,189,190,191,192,193,194,195,196,197,198,199,200,201,202,203,204,205,206,207,208,209,210,211,212,213,214,215,216,217,218,219,220,221,222,223,224,225,226,227,228,229,230,231,232,233,234,235,236,237,238,239,240,241,242,243,244,245,246,247,248,249,250,251,252,253,254,255
0.036333043,-0.080269694,-0.051761836,0.13963519,0.03637467,0.17254512,0.10365608,0.09228696,0.14375205,0.12872824,-0.053853203,-0.1040887,-0.014256533,0.099590704,-0.020077437,-0.00898123,0.019596104,0.020607011,0.023500765,0.035559144,0.09999267,-0.03634165,0.029356347,-0.00053193246,-0.14955924,-0.0015643699,-0.105628826,0.035078585,0.06580688,0.032269806,0.093432635,-0.015079045,-0.019134544,-0.06335857,-0.20332173,-0.010728615,0.06759777,-0.10548116,-0.2442478,-0.13735315,-0.098190926,-0.020161679,0.046648093,0.068903245,0.12536357,-0.13715358,-0.14091507,0.010263985,-0.02887604,0.040797554,-0.018529046,0.02374342,-0.15035106,0.024207845,-0.10346108,-0.11321084,-0.03868722,0.22106357,-0.14166558,0.12919058,-0.14769402,0.080051996,0.05186031,0.048491903,-0.14661154,-0.07430533,0.16055974,-0.011460108,-0.07281818,-0.12323997,0.15699282,-0.03260693,-0.09909272,0.055938553,0.123756655,-0.16228266,0.015599832,0.1137724,0.14512007,-0.045121767,-0.10610012,-0.038546816,0.0917183,-0.083692856,0.07903961,-0.11486418,-0.039591175,0.011071332,0.10058812,0.072832614,-0.015459502,-0.13424994,0.063347794,-0.0628725,0.13660315,-0.0056903935,-0.06513381,0.15607217,0.27844873,0.037079744,0.053432696,0.037120286,-0.042220972,-0.12732387,0.08871168,0.15316461,0.018792907,0.074616104,0.1289933,0.020488603,0.013168396,-0.00017498735,0.023101453,-0.21211421,0.052127596,0.047886383,0.10006633,0.018307587,0.04695268,-0.0041703866,0.0561549,0.11390323,0.12251301,0.052068885,-0.06997105,0.079208694,0.010693702,0.11217062,0.06093682,-0.030484408,0.07539602,0.16900986,-0.14849313,0.051236868,0.015624799,-0.05978814,0.12170375,-0.02639894,-0.17224385,0.11970511,0.01403911,0.15331726,0.09361174,0.072868206,0.018371526,0.11861816,0.12366361,0.059555866,0.13367818,0.04757847,-0.22572184,0.060323168,-0.08719016,-0.0537302,-0.009527865,-0.007389095,-0.04236474,-0.09087872,0.094671525,-0.002710456,0.12642609,0.03571534,-0.11363708,-0.14314032,0.15442827,0.0337165,-0.15027882,-0.1572615,-0.051395588,0.19705169,-0.08883799,0.022712022,0.16282134,-0.03332205,-0.022203881,0.050306883,-0.13196549,0.20599931,0.0041607697,0.045074563,-0.17869423,-0.03995154,-0.04460478,-0.012169255,0.13287354,-0.03639337,0.07169179,-0.13243188,0.08694981,0.08192125,0.05846851,-0.100359425,0.2121723,-0.010926306,0.037246075,0.16392478,-0.098321535,-0.12612164,-0.2481974,-0.039285615,-0.083367355,-0.08869485,0.09107536,-0.015769644,0.090478286,0.1232516,-0.10839728,0.036000486,-0.052584067,0.01343438,0.17906694,-0.0011750603,0.1146944,-0.020622745,-0.12256904,0.0973248,0.02369298,0.042626172,0.1977876,0.07132844,0.014513136,0.025632318,0.05220953,-0.07592409,0.1014285,0.019344714,0.03274585,0.027133463,-0.031208582,-0.18664883,0.18235862,-0.11943218,-0.00032192553,0.17239678,-0.053896524,-0.11778706,-0.06273066,-0.074207425,-0.0815277,-0.010372891,0.09402355,-0.006021335,-0.13469107,-0.017631559,0.14683686,0.011332329,-0.09653782,-0.061052777,0.18163314,0.037438024,0.16815734,-0.041260127,0.08088957,-0.056175042,0.019857118,-0.2278951
-0.020410668,0.079342954,0.11144885,0.17677796,-0.057318468,-0.14718176,0.16293244,0.19020057,0.1513031,-0.17852342,-0.14261892,-0.15241343,-0.21327657,-0.044284426,0.06533952,0.008560314,-0.044834074,-0.016016545,0.027076986,0.020610103,0.115052134,0.08448959,-0.048506197,0.006971288,-0.29778305,-0.21205667,-0.06293238,-0.08223874,-0.20309323,0.060094416,0.072682574,-0.0760094,0.13736165,-0.14544666,0.055710323,-0.118071124,-0.13809063,0.0758745,0.14683332,-0.14951701,0.02610581,-0.2530828,0.17373826,0.026316646,0.03743425,-0.02636339,-0.025503518,0.033594448,0.020195365,-0.05791346,-0.020179532,0.041751806,0.10003387,-0.022306647,0.0038936753,0.04345476,0.12034205,0.107284285,0.11489674,-0.16294506,-0.10496715,-0.117792696,0.2278943,0.09689517,0.18440083,0.045510415,0.038165987,0.15262815,-0.14718902,-0.08404877,0.12696093,-0.11064654,-0.31117716,-0.023843516,-0.04401497,0.038868766,-0.13552906,0.044966105,-0.18833058,0.0029581522,-4.356334e-05,0.13516326,0.06480812,0.04956668,-0.16755128,0.13554299,-0.1821692,-0.104695834,-0.06414524,0.011070106,-0.11867519,0.08191654,0.115090765,-0.28280053,-0.052602224,-0.03503356,-0.015630312,-0.0950314,0.06828257,-0.04490195,-0.12297292,-0.11166258,0.0130831245,-0.051835235,0.033117443,0.013637549,0.029639605,-0.19737048,-0.16406165,-0.16518715,0.19412851,-0.12305141,0.1186002,0.012048409,0.07279376,-0.058837928,0.04357859,-0.090360865,-0.0826151,-0.18310238,-0.16098794,0.09096131,0.16851966,0.22034644,-0.16370894,-0.046485536,-0.008163394,0.079790704,-0.124744825,-0.0023479464,-0.07781893,0.0473622,0.07132226,-0.07851417,-0.10169225,0.30824605,-0.13847189,-0.070885606,0.22051743,-0.1308428,-0.116200484,0.16323094,-0.28729722,-0.0514615,0.12849607,-0.06724833,-0.13622947,0.13658084,-0.06109267,-0.17492744,0.037532892,-0.10827811,-0.081535146,-0.10917903,-0.053093128,-0.16097741,-0.014445253,0.0017764289,-0.08558627,0.20045045,0.039696265,-0.041911352,0.004689505,-0.054466356,0.106611654,0.29120824,-0.0014960183,0.18969183,-0.15324697,-0.106500015,-0.048998315,0.16064346,0.095630266,0.04410361,0.012320191,-0.07092689,0.124613,0.19693619,0.13092367,-0.015340421,0.0987917,-0.19841354,0.12736017,-0.1208438,-0.0788083,-0.035157025,-0.037953004,0.13868912,0.12867275,0.07241889,-0.005160322,0.089605495,-0.061424088,0.09285044,-0.034370244,0.072483554,-0.16535565,-0.06478976,-0.030976268,0.12603757,-0.09337673,-0.17833412,0.091303915,0.08418859,-0.12256023,0.17804468,-0.021732947,0.006237889,-0.09377352,0.27404955,0.009193759,-0.04974304,0.0053996565,-0.150484,0.21725328,0.09508732,0.22304691,0.12659599,-0.015333273,0.1122415,0.079953745,-0.01098889,0.04558852,0.15530142,0.14127477,0.13495699,-0.15098076,-0.02764219,-0.023186814,-0.105219394,0.10738114,0.28984833,-0.01411173,-0.18374676,0.1602215,0.16568305,-0.2618359,0.06535192,0.097769916,0.009691109,-0.024252359,0.12129306,-0.04077806,0.01046228,0.16367641,0.11718896,-0.07206505,0.014730049,-0.1708771,-0.15041202,-0.20706406,0.16227172,-0.019344095,0.06482346,0.0215844,0.094000615
0.1066631,0.12327693,0.028534466,0.20779154,-0.00048395965,-0.015133214,-0.06394824,0.15445088,0.013640045,-0.07695524,0.20833358,-0.21871385,0.039742496,-0.10361995,0.0043678144,-0.035715926,0.11324698,-0.19756527,-0.123101264,-0.10018122,-0.25616175,0.0361108,0.08806698,0.09734172,-0.051713437,0.114437975,0.1607974,-0.19107091,0.0774705,0.1207294,0.015519594,-0.17117827,-0.12309644,0.011366195,0.00038881315,-0.048717927,-0.093961015,-0.13289596,0.044657808,0.102148235,0.08521006,-0.15612462,0.20036317,-0.07448316,0.11256442,-0.00028255125,-0.029129911,-0.15846069,-0.09755153,-0.16557208,-0.0073920805,-1.1130142e-05,-0.31438026,-0.031011058,-0.056706265,0.081798665,-0.09545469,0.010164624,-0.058792118,-0.16270114,-0.027594982,-0.00470193,0.086039186,-0.12718984,0.07149481,0.08729291,-0.10886718,-0.062239897,0.008626161,-0.19310814,0.03867432,-0.032106116,0.15639286,0.08589642,-0.022521194,-0.11968064,0.22637051,-0.31571293,0.021840043,0.09757283,-0.16600744,0.07044259,-0.12821214,-0.11800016,-0.048923824,0.012242349,-0.11378741,0.101153865,0.13378988,-0.15679924,-0.08470578,-0.041461173,-0.03172584,-0.17825578,-0.06003952,0.1396941,-0.025223397,-0.0111902375,-0.015507712,-0.069291554,0.046194058,-0.014245393,0.18224064,-0.0964037,-0.18971555,-0.035717495,-0.008688318,0.16162702,-0.07887764,0.07570648,0.11147749,-0.059480317,0.054963462,0.119212806,0.1870211,0.060923528,-0.13408865,-0.011460618,-0.05597461,0.07036305,0.28518745,-0.2323381,-0.006973874,-0.034972664,-0.036932264,0.27595252,0.099648714,-0.1786693,-0.054680623,0.038852166,0.10436415,0.024931798,-0.105631,0.06340475,0.011409279,-0.10308419,0.04513437,-0.034891058,0.18816431,-0.19893077,0.11526159,0.24425964,-0.06907942,0.079338,-0.022617163,0.1691568,0.0014958022,-0.22689208,-0.17751187,-0.24268568,0.04333329,0.149851,0.0006560297,0.047162592,0.08830954,0.116452806,0.10271478,0.08052933,-0.03819977,0.057829205,-0.1398882,-0.12532926,-0.13382891,0.08040481,-0.29679042,-0.13869007,-0.124296725,-0.0587861,0.08436989,0.008087734,0.059440196,-0.105523095,0.051159594,-0.22236258,-0.027917432,0.012446854,0.044603206,0.07702383,0.17241387,0.1500256,0.013801101,-0.12017418,-0.22751617,0.068799734,-0.270448,0.1013928,-0.24234572,-0.21251763,-0.026532724,0.0969884,-0.16605335,-0.19955754,0.0127407145,-0.16510895,-0.1400019,-0.18708895,-0.050216377,0.15999654,0.092126615,0.13161497,-0.02250598,0.12791306,0.065023,0.015059887,0.12356562,-0.08967996,0.07495411,0.20090823,-0.0155581115,0.09275932,0.11232644,-0.14892304,0.14162205,0.08351243,0.09702269,0.001435579,0.13018219,-0.13630313,-0.044481304,-0.17398308,0.04326021,0.15448593,-0.16069084,-0.047302883,-0.011803487,0.24040769,-0.08592619,-0.07495137,0.07157262,0.17700537,-0.06435251,0.19333196,0.13771917,-0.107790954,-0.075195394,-0.03211898,0.044485096,-0.27970305,-0.14046736,0.023185601,-0.33088684,0.049442798,0.19440114,-0.03726621,0.14664996,0.03353664,0.057414897,0.13166714,0.087419786,0.22836696,-0.06230457,-0.107299745,-0.20123255,0.10483696,0.016028063,0.11743892
-0.040441602,-0.18348148,-0.19235273,-0.2631555,-0.037593346,0.07383375,-0.2207562,0.13477066,-0.0053386837,-0.115554385,-0.20272712,0.09048037,0.12181019,0.042425364,-0.042259987,-0.051244177,-0.03262232,0.0066032046,0.080634415,-0.09167254,0.08496738,0.20168833,-0.10945087,0.069399476,-0.056463875,-0.024916138,0.07755834,-0.23980266,0.05191541,-0.15256749,-0.3394014,0.11383904,-0.15636984,-0.07519019,0.004374319,-0.11505774,-0.010448293,0.003898167,-0.098814085,0.31477687,0.008318897,-0.18910249,0.1861526,0.11896982,0.022528054,0.011320356,0.14965135,-0.0632352,-0.085622214,-0.067543864,0.1340228,-0.037933286,0.08916732,0.09203955,0.090869606,-0.07343331,0.0016246494,-0.3219402,-0.08248227,-0.18321273,0.087174445,-0.11596767,-0.023654757,-0.15704402,-0.034069844,0.030763654,0.07947866,0.1618109,0.122831404,0.23008886,-0.046452485,-0.22796501,0.12717918,0.02220332,0.1019561,-0.11800989,-0.15902004,0.02714357,-0.086348355,-0.03296128,-0.11764196,0.18489663,-0.11354948,-0.056121334,-0.1741495,0.0052381353,0.05279996,0.076298796,0.16772376,0.020273084,0.070369095,0.0026066632,-0.027529418,0.29373387,-0.08957765,0.13243279,0.07694498,0.02761205,0.09965142,0.08491447,0.05232737,0.0704466,0.20152983,-0.037119627,-0.054728072,0.040003426,-0.09335502,-0.13825338,-0.13779195,0.11194696,0.1631149,0.05510157,0.14221534,-0.104164325,-0.094765,0.10506488,0.13591726,0.11047598,0.16116175,-0.105049,-0.04424575,-0.096429914,-0.089159906,0.06302879,0.107319295,-0.16933797,-0.0071326247,-0.026649334,0.1828041,0.13185988,0.039299056,-0.18435201,0.034953102,-0.016252473,0.10223409,-0.16130616,0.07083272,-0.015343561,0.020010697,-0.07547397,0.1333263,-0.094051726,0.14809999,0.05559959,0.07352,-0.19200066,0.21765226,-0.1300429,-0.07508136,-0.064552836,0.11783569,0.09113026,0.03441829,0.1025217,-0.08712449,-0.18530828,-0.15006052,0.25642368,-0.019002985,-0.04578771,-0.06812321,-0.027101077,-0.068056285,0.047374286,-0.048817813,-0.07734343,-0.017211441,0.078825936,0.17311932,-0.069563605,-0.08192891,-0.0799791,-0.08555992,-0.11625111,0.1816505,-0.065228686,0.1266766,0.11664017,-0.018827999,-0.12824966,0.12135991,0.15973556,-0.021068525,0.24802156,-0.09161169,0.092693806,0.01721189,-0.09958351,0.0738306,-0.033298053,-0.062161364,-0.027102074,-0.09194081,-0.108445674,0.04091217,-0.07980965,-0.12580013,-0.08877005,-0.01792549,-0.0214098,0.066075936,-0.2260051,0.01229366,-0.020034632,0.036465146,0.07014615,-0.014009561,-0.011529947,0.0943748,0.020091861,0.021992445,-0.20996906,-0.12362248,-0.03333198,0.12695742,0.08556842,-0.044259068,-0.012420563,0.051807947,0.18992566,-0.13913858,0.2829539,0.18908802,-0.06307069,-0.057862744,-0.047433667,0.13297762,-0.21311197,-0.13722815,-0.053511675,-0.06901973,0.0028381343,-0.07855907,0.10375008,-0.08201613,-0.09514399,-0.043650832,-0.13786379,0.043304004,-0.23589863,-0.012360703,-0.14756432,0.14225298,-0.06252139,-0.04559068,-0.012905609,-0.03889295,-0.007516826,-0.07040477,0.120338395,0.079855256,0.019879276,-0.10798548,-0.0635244,0.082686886,0.18645667
0.06296619,-0.0973839,-0.029658003,-0.08694399,-0.08133418,-0.074315645,-0.019193714,0.03156546,-0.039177563,0.043887753,0.0585951,0.1427163,-0.056310244,-0.0658509,0.0020985594,-0.021310119,-0.08364129,-0.2469029,0.0031259314,-0.13673605,0.055770967,-0.008685304,-0.0515009,0.14689197,0.036851548,0.1830245,0.053789772,-0.021127073,0.02499728,0.027530894,-0.010935514,0.059185516,-0.0124533195,-0.115830794,0.15130341,0.049761515,-0.07165104,-0.075788915,-0.015255981,-0.034299795,0.035921052,0.042957902,0.0031314862,0.12379149,-0.062706016,0.05284547,0.116278656,0.05060427,0.031527005,0.03782565,-0.06747147,-0.030563004,0.07507937,-0.017819403,0.040740956,0.05488716,0.034816414,0.051304456,0.11450322,0.09813623,0.10298487,0.06278684,0.039262075,-0.040181182,-0.054040477,-0.1192393,-0.047658157,0.06504152,-0.16357109,0.13865428,-0.054036234,-0.034581278,-0.08268687,0.031799395,-0.03347485,-0.0024317494,-0.0768629,-0.14044693,0.1865066,-0.081736036,0.17188783,0.031351086,0.03063685,0.047356375,-0.0055100573,0.06358124,-0.061366875,0.044220656,-0.02767563,0.097419724,0.09216447,0.017664727,0.061870523,0.06522951,-0.085810885,-0.07066269,-0.0892849,0.008410383,0.013236079,0.01322672,0.05117026,0.10872426,0.0056907996,-0.05504674,0.051803064,-0.13513122,-0.035484035,0.056018703,0.030195383,-0.09720933,0.0036258644,-0.051144853,0.09720946,-0.01126706,0.07238262,0.019285992,0.019410951,-0.06285602,-0.11408348,-0.09711009,-0.04769165,0.0011268038,0.046523612,-0.20319465,0.084160924,0.10805783,0.036412053,0.069857076,0.087075666,-0.07750746,0.057112437,-0.028986508,0.043206412,0.14549781,0.018748902,-0.014081751,0.036627997,-0.02530387,0.082321174,0.00047825003,-0.025118662,0.0045973235,0.022562008,-0.043089133,0.01808171,0.043963935,-0.1079229,-0.09026837,-0.037915464,-0.022384372,-0.045681797,-0.1147966,0.021911636,-0.042067584,0.12140824,0.08893371,-0.036293622,-0.056492526,-0.01862739,0.09667429,0.021588651,-0.023290232,0.10936012,-0.13903572,-0.047497965,-0.04426727,0.031172466,-0.0100541115,0.07039122,-0.057031844,0.07695357,-0.09291333,-0.10209957,0.03882445,0.044458926,0.057245836,0.06211004,0.139519,-0.060396474,0.08095374,0.0702579,-0.06180393,0.086424924,-0.0039839237,-0.056020554,-0.056105018,-0.0642372,-0.13459034,0.03442312,0.05992211,0.023212457,-0.00014532823,-0.06406569,-0.038352497,-0.00859327,-0.032560654,0.00915741,-0.08932463,-0.049980197,0.12551826,0.0006020626,-0.20909055,-0.049517784,-0.100718595,-0.05007746,0.026426384,0.14001204,-0.0050095045,0.070389956,-0.08047098,0.019414885,-0.06807247,0.062120896,0.1560772,0.074228376,0.04475803,0.0700287,-0.16962941,-0.027180115,0.10565284,-0.023396136,-0.08180334,-0.17938542,0.15854451,-0.05840844,-0.10356735,-0.12611581,-0.11462892,-0.0034181266,-0.027847597,0.04521774,0.020785274,0.05555466,0.028788308,0.05576997,-0.04358044,0.011205783,-0.09726893,0.119809344,-0.047801893,-0.066257365,-0.0711142,-0.061597195,-0.07480948,-0.12182257,0.09689747,-0.027978914,-0.12904502,-0.012893744,-0.026125563,-0.022498488,-0.07307746,0.102600165,-0.019035008,-0.11810959,-0.05722688
-0.0032227335,-0.084021814,-0.16128978,0.10867913,0.08140329,-0.09947638,-0.061189476,0.25942412,-0.1985355,0.109540574,0.08415909,-0.28612295,0.14761566,0.124075495,0.06955056,0.16635953,0.047929626,0.14252956,-0.10539332,-0.20602125,0.10279425,0.09260528,0.11271369,-0.09608095,0.11804233,-0.026520332,-0.06523285,0.073296234,0.084582195,0.18552196,-0.011615151,-0.33133882,-0.16032887,-0.2091223,0.10077685,-0.0062764566,-0.03295437,-0.11727476,-0.18414365,0.12751402,0.12480462,-0.20486774,0.12391256,-0.106015086,-0.02500967,-0.01906679,-0.18383685,0.1646515,-0.06813138,0.0016989469,0.13962884,-0.07381584,-0.15377134,-0.13795424,-0.13954265,-0.09480545,-0.1946346,-0.10491832,0.24531013,0.0635353,-0.14988405,-0.11973289,-0.040531732,-0.14141569,-0.034068473,0.031069996,-0.08876652,0.11770293,0.06658617,0.049481835,-0.16276091,0.0624758,-0.053833723,0.018240375,-0.08122485,-0.1698273,-0.044602286,-0.0420515,0.12530723,-0.10734331,-0.041850593,0.22163165,-0.08126573,-0.1487268,0.0064821714,0.09794453,-0.18049735,0.14042707,0.1921632,-0.19530669,0.06422461,-0.017324785,0.19312197,0.1840254,0.07902266,-0.1624924,-0.0048438786,-0.00932971,0.06309571,-0.15886235,0.08989027,0.16144934,0.05235309,-0.034538854,0.16522074,-0.1007531,0.18584776,0.026137298,0.0296931,0.035068195,-0.12810391,-0.20042624,-0.14417045,-0.029151537,0.03402418,0.057856962,0.066790126,-0.17669863,0.15653811,0.02349056,0.083831355,0.1161674,0.06746145,-0.20237486,-0.1208763,0.14902435,-0.19519931,-0.025960568,0.10207189,-0.039626293,-0.20859902,0.17812951,0.0050687552,0.026305355,-0.0916357,-0.04600594,0.016327247,0.18323742,0.039867796,-0.016016072,0.06253238,-0.044993494,0.06074317,-0.14276443,-0.010113744,0.21714386,0.09926457,0.024597468,0.08449246,0.18636145,-0.13462079,0.13790356,0.082430914,-0.21945733,0.026200907,0.1075235,0.035515096,0.06441826,0.020606505,-0.06809058,-0.23879358,0.06464409,0.06819939,0.088306025,0.060541607,0.024134701,0.2657705,0.07453619,0.10729149,0.0434735,-0.04971757,0.10777501,-0.001464317,-0.058016386,0.02120765,-0.042634275,-0.0038333158,0.0041127773,-0.007756299,0.1104913,0.06839472,-0.15157582,0.21587126,-0.047751606,-0.36705604,-0.0141579,0.12978107,0.047741942,0.049340572,-0.10804998,0.04953322,0.13273813,-0.003165958,-0.040545333,-0.10314067,0.03267281,0.16512242,0.23280293,-0.0033122695,-0.037930124,-0.28860617,0.054390054,0.18746004,0.07249637,-0.04424335,0.06310085,-0.28591737,0.14734663,0.1122227,0.1639784,-0.08831803,0.04998738,-0.028043518,-0.03910136,0.10629376,-0.080796674,-0.16000542,0.013961684,-0.22132853,0.1161161,0.063978426,0.076742895,-0.23810926,0.16440943,-0.053298675,-0.061087117,-0.08873649,-0.10903786,-0.19939882,0.03133098,-0.09573751,-0.11229612,-0.12668389,-0.16318034,0.20287026,-0.028479774,0.21003462,-0.20748025,0.09345448,-0.05872638,0.022322653,-0.026691267,-0.14988135,-0.0030968296,-0.088916734,-0.020588541,0.025728485,0.19771731,-0.21720284,-0.17278536,-0.054462686,0.009636903,0.04415245,0.041928716,0.109005824,-0.0867432
0.14859167,-0.2619677,0.15133122,-0.006536145,-0.008843016,0.01503262,0.08814817,-0.0057709473,-0.051292542,-0.105604984,0.25619453,-0.09201374,0.017676646,-0.117745325,0.08644759,-0.05571594,-0.17335401,-0.053672075,0.14022112,0.23169863,-0.054387074,-0.08976502,-0.11943602,-0.030196324,0.08532874,-0.0064585083,-0.16324092,-0.058796708,0.073913045,-0.10835922,-0.08588549,-0.0015042924,0.052887663,-0.17121124,-0.05639433,0.0028554343,-0.091147766,0.13691258,0.12906528,-0.2711596,0.28052926,-0.009728398,-0.12102367,0.011222018,-0.09430243,0.030275641,-0.13578145,0.11766939,0.05760458,0.042327937,-0.040841367,-0.026219988,0.077657804,-0.12402089,-0.045939445,-0.14318846,0.17098923,0.019042967,0.08913809,0.22878249,-0.21623781,0.11116175,0.1259764,0.11846777,0.029734775,-0.19743139,-0.056326002,-0.024913618,-0.26018107,0.09588626,0.07617819,-0.1073207,-0.17590737,0.008251994,0.008023532,-0.16852896,0.06382565,-0.100795716,-0.1815131,0.1639723,-0.025807599,-0.14448644,0.044212855,0.20884624,-0.0016545951,-0.024358392,-0.11436277,-0.0662512,0.07853602,-0.10594581,0.15936673,0.055609174,0.041630205,-0.034872536,0.06725573,-0.18047306,-0.16412123,-0.08057854,-0.24439296,0.057485517,0.14180182,-0.2228634,0.019597199,0.05335108,-0.07363083,-0.038747683,0.107510135,-0.114128955,-0.0071104555,0.072398916,-0.09297304,-0.04644871,0.21232912,-0.15141352,0.05256367,0.054189622,0.07728285,0.015101505,0.11454439,-0.12855935,0.19002014,-0.09975028,0.025278471,-0.041044146,0.18744217,0.183895,-0.074305,0.19545214,-0.024513384,-0.0032440946,-0.056092884,0.012622742,-0.13277675,-0.0357199,-0.047027763,0.09666203,-0.12208967,-0.05413536,-0.00844115,-0.17453922,0.051814124,0.24581045,-0.003257991,0.05166954,0.06105289,-0.13510533,-0.02352999,-0.038769633,-0.1212634,0.14047007,0.10937903,-0.06665172,-0.26520163,-0.032563772,0.06741059,-0.07032815,-0.21684895,-0.060784835,-0.14230673,0.06953245,-0.057056885,-0.08309621,-0.036624078,-0.0806763,0.19609177,0.1107033,-0.13378473,0.011689088,-0.08575189,0.09755548,-0.08942615,0.12268876,-0.033044826,-0.031552337,0.079943545,-0.049234737,0.23680519,0.064309426,-0.005132367,0.09134766,0.031105675,0.23692785,0.11816436,-0.041958015,-0.11141769,0.05650401,0.04438395,0.179957,-0.19398463,0.16472344,-0.06027406,0.099640414,-0.07557165,-0.037301365,-0.06853937,0.06630492,0.21093746,0.02165811,0.11994805,0.08390466,-0.08178453,0.049277335,-0.005562743,0.025334913,-0.017266707,-0.15229802,-0.13770281,-0.1538626,-0.062089488,-0.1709226,-0.036688387,0.12043943,-0.0435646,0.1106607,-0.20823902,-0.0358125,0.016899016,0.12950684,-0.17495325,0.008142657,-0.025692469,-0.19706886,0.024222137,0.086448394,0.09010565,0.015761236,-0.16736712,0.027752638,-0.011729731,-0.10162452,0.017351342,0.15388548,0.18772586,-0.03275253,-0.13109243,0.072367355,0.016738664,-0.029746773,-0.12464668,0.17885216,0.12067526,-0.15151726,-0.004522672,-0.22276083,0.17436752,-0.13659687,0.14833762,-0.18105021,0.18168648,0.051851302,-0.1464853,0.09637016,0.019098794,-0.16988288,-0.20826428,-0.28717107
-0.025491942,-0.12692654,0.06291638,-0.2085986,-0.13547236,-0.07004251,0.020192955,-0.081185795,0.009083019,-0.18055901,-0.054352604,0.21479423,-0.037606947,0.05452372,0.13953061,-0.020639734,-3.8691847e-05,-0.12874864,-0.37077314,-0.0027409608,-0.09793443,0.26730523,0.18372162,-0.20137556,-0.07408558,0.034718838,0.13634998,0.09245862,-0.04389667,0.16496159,0.042389542,0.008784223,0.22258668,0.04232117,0.1288861,0.20339261,0.14646037,-0.12662236,0.012125896,-0.03372684,0.04123543,-0.10298525,0.1939999,-0.08420294,0.09443813,-0.16408753,0.07426145,0.062152863,0.010974735,0.038013242,0.2373267,-0.018811494,0.118464485,0.08743326,0.057309236,0.23565185,0.17857331,0.0024270269,0.08146582,-0.18993248,-0.08960362,0.1035827,0.14375609,-0.19411936,0.011059756,-0.20533529,0.08771225,-0.22600728,-0.15085825,-0.12561959,-0.020055648,-0.0487635,0.14824702,0.062458176,-0.23235777,0.23467228,0.20143332,-0.018906964,0.15706928,-0.083620355,0.23600732,-0.016397111,-0.008358096,-0.10680925,0.1722384,0.13694897,0.14251478,-0.10519362,-0.037769068,0.13501161,-0.1321641,-0.09413741,0.06334397,-0.15392937,-0.19924942,0.169807,-0.26758176,0.21825813,0.1287715,-0.17571162,-0.0019040363,-0.08602453,-0.25482765,-0.07307675,-0.044836625,0.0906751,-0.0041652145,0.001997674,0.06803316,0.08550847,-0.07788598,-0.2100924,-0.04362042,0.0060099796,-0.036676593,0.12780827,0.12155709,-0.030899083,0.107865356,-0.10756387,-0.12987345,0.13028036,-0.020775778,0.08409454,-0.0041793557,0.113976724,0.0026215308,0.025970876,0.08559336,0.007182375,-0.024510833,-0.05424193,0.19898169,-0.15597168,0.22336484,0.013824945,-0.03689691,-0.056439906,0.12794721,0.04379032,0.035654075,-0.13938467,0.14434214,0.2858557,0.02392198,-0.17109494,0.018980235,-0.3284041,0.27022702,0.11323636,-0.16729398,-0.05249686,0.038305644,0.01176735,-0.26927024,0.09415356,0.020088457,-0.05145739,0.13887678,0.08051124,-0.053996928,-0.10364797,0.086956635,-0.12403306,0.18243372,0.056041095,0.06311769,-0.061792467,-0.13397454,0.050368287,-0.07058826,-0.0012216499,0.20031534,0.28286973,0.23979554,-0.103203826,-0.14942014,0.32646158,0.11100019,0.06298425,0.17883532,-0.11887735,0.023714026,-0.020246956,-0.016608778,0.10689241,-0.08435326,0.14110997,-0.18889987,-0.07907046,-0.07080741,-0.15291382,0.3560662,-0.23116153,-0.008437396,-0.18740459,-0.10147149,0.09329185,0.070679545,-0.19283931,0.06982746,0.19921528,0.018498993,0.020751826,0.09752816,0.07764688,0.06806048,0.0865516,-0.21134865,-0.10279501,0.0009147797,-0.17937605,0.12825646,0.13084747,0.14337885,-0.13094829,0.005869228,-0.13976021,-0.029944083,0.023911273,-0.02299523,0.013354922,0.047896218,-0.058104236,-0.38900504,-0.060989294,0.034284417,-0.14962514,-0.257811,0.052906442,-0.059367448,0.03582722,-0.1359729,0.092469096,0.122291066,0.2157926,-0.058448683,0.07195382,0.07890872,-0.023339758,0.21484953,-0.29266068,-0.18468556,0.14968942,0.0028125069,-0.15872543,-0.061630428,-0.15979452,0.10936668,0.042611573,0.25246254,-0.14847764,0.23704234,-0.008400409,0.040280666,-0.17453691
0.052871693,0.0122551825,0.0015743881,0.065762825,-0.019901797,0.08660152,-0.0093459925,0.08769009,0.004162133,0.0075487667,-0.020995855,0.03002418,-0.039394803,0.060121536,0.11983988,-0.054294083,0.019513486,-0.009844903,-0.00016021852,-0.043776322,-0.0888897,0.08648206,-0.08373493,-0.07987006,0.041099347,-0.005374322,0.009965666,-0.063002594,-0.025244618,0.11463409,0.010552463,0.03304826,0.0527414,-0.1210703,-0.026096553,-0.048539713,-0.039691392,0.0055748625,0.089420035,0.046604928,0.01645185,-0.00093043345,0.13417833,0.06704296,0.035570826,0.08303543,0.05866023,0.14959672,0.015979687,0.01368078,-0.063893884,-0.024063103,-0.035293974,-0.069012836,0.031656694,0.027404794,-0.014724558,0.04019984,-0.11104884,-0.02520836,-0.031794693,-0.0636519,0.104191646,-0.03605299,-0.0013973097,-0.10228654,-0.036326196,-0.029571323,0.08238427,-0.036191396,-0.04361137,0.017087676,0.02565897,0.008387645,-0.034816455,-0.0041093957,-0.0011871158,-0.018806048,0.115403,-0.025356796,-0.0050379573,0.036269594,0.11710117,0.10324943,0.1086677,-0.102105394,-0.10221216,0.051908683,0.095794305,0.1144568,0.04249516,-0.11322675,0.0073604975,0.06707822,0.00012592322,-0.004387467,-0.027792865,0.057024866,0.052192416,-0.056544814,0.016969386,0.019235546,-0.0864545,0.011041221,0.08136824,0.077893436,-0.008407353,0.05397786,0.06665303,-0.03526702,0.033399604,-0.06681019,0.0040752804,-0.012299855,0.08412903,-0.0043044966,-0.024691723,0.05548019,0.045981657,-0.088914275,-0.065544404,-0.03132996,-0.047070768,0.09108231,-0.07684903,0.00031446738,-0.05213552,0.03548898,-0.033431664,0.06100911,-0.03530557,-0.024766376,0.03344435,-0.09270587,-0.02000161,0.0809592,0.04781305,-0.0019574866,-0.02342411,0.022659568,0.06897795,-0.048611667,-0.01155829,0.036942538,-0.02333384,0.07260457,0.028429603,-0.02609371,0.01639185,-0.014068798,-0.0007028355,-0.044010963,-0.06719107,0.028834594,-0.061895654,0.03663592,-0.07621189,-0.008262119,-0.024704829,-0.06942346,0.01299824,-0.07469439,-0.013168034,0.036584303,-0.04453197,-0.030418716,-0.055620074,0.0031787425,-0.089290544,-0.07209218,0.054942437,0.06193566,0.0003905639,-0.049140353,-0.09407819,-0.05638807,-0.10908678,-0.0104758395,0.05007754,-0.070683725,0.10385854,0.02546415,0.10162958,0.09105702,-0.059368514,-0.099289134,0.026517255,0.07179296,-0.025438558,-0.08396898,-0.09900845,-0.050571278,-0.057215605,0.042383227,-0.110400945,0.07320293,0.016074935,-0.085075915,-0.03506341,-0.026433937,0.011678474,-0.061598893,-0.030310974,-0.02205101,0.11388171,0.054971475,0.06718286,-0.042276744,0.026820201,-0.053327497,0.022558963,-0.019190356,0.10513503,-0.088505484,0.050780766,0.023459246,-0.0410659,-0.0067158677,0.06979165,-0.013525383,0.05603452,-0.017540384,0.10003171,0.0026710005,0.08325735,-0.020901399,-0.009885296,0.024057258,0.045635037,-0.13313524,0.04996101,0.04359336,-0.0242687,0.05023026,0.004840518,-0.06936233,0.0013482864,-0.067706235,-0.14722149,-0.013360648,0.030453954,0.06618284,0.11681817,-0.017332189,-0.09129117,-0.050034776,-0.03611896,-0.017505351,-0.01474878,0.06553305,0.00082116947,0.008228173,0.00022866548,-0.012063739,-0.03126573,-0.010774416
0.10270756,-0.11599902,-0.014115824,-0.052552655,0.012153751,-0.11248388,0.09154152,-0.24422015,0.09819545,-0.09170836,-0.10280606,-0.106941484,0.081551306,-0.25280154,-0.16201048,-0.19140694,0.09199818,-0.20542614,-0.07106246,0.0726155,-0.15322511,-0.049280897,-0.087254845,0.04688779,-0.03833717,0.14699368,0.05779159,-0.023899097,0.23938909,0.16578455,0.0561747,0.13241954,0.13666423,0.03412921,0.10262631,0.074673176,0.031193858,-0.061605792,-0.06733337,0.06985253,-0.18929341,-0.002742432,-0.019012898,-0.12959805,0.11105772,0.12097914,0.26972905,-0.037940692,-0.23144236,-0.010358304,0.037428226,0.09866343,0.069690526,-0.08253472,-0.24136634,-0.14392444,0.11979894,0.042909674,0.0366246,-0.11149375,-0.111886926,-0.010127212,-0.05236281,-0.20821106,-0.06277769,-0.13154127,0.08352082,0.058426272,0.046029475,-0.055564288,-0.05423649,-0.01001601,0.14921601,-0.09737763,-0.13176292,-0.048162133,-0.13041961,0.0034776228,0.02544843,-0.19378708,0.23439941,0.22007714,0.088139474,0.14668873,0.06455233,0.070200026,0.04412763,0.017345048,0.040797852,-0.028004076,-0.06156695,0.101894684,-0.030900568,-0.013967302,-0.02272889,0.12890787,-0.14089866,0.07649965,0.037716478,0.04005354,-0.22991753,0.08627996,0.05979444,-0.082184814,-0.0647591,0.22918306,0.05014797,-0.112844326,0.0512308,0.16647798,-0.06878675,-0.22395113,-0.011322835,0.24111614,-0.018792348,0.23965026,3.964286e-05,-0.03934216,0.22244844,-0.04705398,0.037909694,-0.07757261,-0.07275204,-0.23531209,-0.15215285,-0.0075131096,-0.2444235,0.007724348,0.17279823,-0.18882662,0.15014753,0.025204575,0.27685785,-0.012029263,-0.015454156,-0.0137497615,-0.23245896,-0.21758544,-0.12478938,0.17011255,-0.18768997,0.10516716,0.042088974,0.17557007,-0.06378263,0.094561316,-0.16244622,0.0341291,0.01868301,0.16333543,0.058189906,-0.014697096,0.022800146,-0.07035404,0.22381994,0.14158982,0.016891643,0.052711427,-0.1398721,0.14193353,0.10621813,0.17347385,-0.043177277,-0.11361296,-0.23578802,-0.0004651986,-0.11513938,-0.05657741,-0.012204515,0.14158088,-0.0053413534,0.06154343,0.06620002,-0.07711397,0.047229636,-0.2570382,-0.18982752,-0.07985611,0.11687685,-0.30766255,0.18857521,-0.082409725,-0.10273106,-0.0045979843,-0.2278541,-0.046888217,-0.03084092,-0.064318344,0.23008,0.21603271,-0.062159292,-0.09615539,0.11287505,0.099819094,-0.07692008,-0.020426186,-0.08102309,-0.0958972,0.16150796,0.035147153,0.25352177,0.0644409,-0.18766789,-0.05584059,-0.108724125,-0.18262286,0.068273924,0.008048873,-0.1655364,0.15258425,-0.07867093,0.00028752713,-0.15152855,0.028746093,-0.000729413,-0.123814575,-0.0240374,0.12992187,0.07245541,0.03577928,-0.011825926,0.11534542,-0.16203603,0.073052794,-0.09661588,0.049903065,-0.021319121,-0.052003488,0.06606511,-0.008083627,0.070726685,0.13506134,-0.14180568,-0.072065786,-0.044250224,0.22555126,0.08898487,0.046258226,-0.045305394,-0.049052753,-0.0054261074,0.034514047,0.16487809,0.12513767,0.082411185,0.015593596,-0.18193741,-0.02788434,0.18003583,0.16642848,0.13598944,0.107307345,-0.13364246,0.0006359664,-0.25727263,-0.06977762
-0.077698536,-0.1221446,-0.09135966,0.15309922,-0.027384615,-0.22645326,-0.06440105,-0.082863994,-0.2258946,0.11666349,0.06936209,0.113513276,-0.0256473,-0.13171548,-0.07090333,0.01949254,-0.03208017,0.19402948,0.20469943,0.18622313,-0.19778411,-0.035257913,-0.086492114,0.23304461,-0.021642046,0.17364721,0.20196857,0.10720984,-0.04284557,-0.11223951,0.07001625,-0.101426005,-0.19254391,-0.019229759,0.03860467,-0.027175294,0.11568718,0.22152337,0.006937147,-0.050190475,0.048059,0.13815297,0.04927972,0.0091561945,-0.17391741,-0.11647893,0.07283977,-0.19475742,-0.0137121165,-0.046290603,-0.05936933,-0.34068286,0.06643593,-0.20178013,-0.3217451,0.06254778,-0.16716339,0.28186238,-0.014621901,0.0469625,-0.0653532,-0.14035416,0.0751706,-0.049678553,0.047325738,-0.1158735,0.08288524,0.16448921,-0.121905416,0.13963613,0.05192399,0.12721694,-0.09937697,0.08557192,0.030482776,-0.033830382,-0.12371851,-0.011980713,-0.12246796,-0.13960667,-0.12612922,0.072483264,0.25656953,0.13842091,-0.2140925,-0.01780336,0.0672201,0.038539965,0.19723321,0.22563966,0.09980818,-0.11446399,-0.27855554,0.1488719,-0.1877878,0.030735258,-0.21989787,-0.06584821,-0.14951056,-0.033032704,-0.053776827,0.04274392,-0.0045474577,0.03744244,-0.09584556,-0.007457672,0.09484066,-0.22520652,-0.11780792,0.13397376,-0.17656131,0.2189431,0.048229948,-0.04956964,0.052989576,0.019100372,0.23601592,-0.06724878,0.096223995,0.18364652,-0.03911268,-0.16218366,0.07750565,0.13721712,0.13574506,-0.15096962,0.043282405,0.24655725,-0.13022041,0.033025634,0.043215573,-0.00075444294,0.0033749978,-0.25107187,0.06864905,0.10003749,-0.27647868,0.13755545,0.029584412,0.076280914,-0.2114661,0.024119139,-0.14225794,-0.13775805,0.1689696,0.1087489,0.02748718,-0.04333194,-0.05361244,-0.03867846,0.07826921,0.054949988,0.16948216,-0.24342085,-0.099739,-0.071004584,0.014677166,-0.0106898155,0.079555824,0.019643748,-0.18553194,-0.183764,0.0027050872,0.029463269,0.022997709,-0.2511332,-0.12575601,-0.18840227,-0.057108875,-0.0038588122,-0.046303835,0.120243445,-0.07489956,-0.020391142,0.05425257,0.08712879,0.14129582,-0.1150092,-0.2043508,-0.14342149,0.10414233,-0.14384371,-0.07116156,0.101675615,-0.049175173,-0.22294728,-0.07930063,0.16182809,0.039961245,0.17538059,-0.059760712,-0.078108944,-0.21352576,-0.15157372,-0.07969983,-0.06251119,0.039609715,0.03640864,0.17637977,0.025633259,0.28071198,0.03009204,-0.33153793,0.23856027,-0.014239952,-0.1684281,0.06768579,-0.123034425,-0.25770003,0.15821423,-0.040170074,0.038426246,0.10986824,0.15904132,-0.004713738,0.1160392,0.07600456,-0.020574946,0.1342201,-0.057602644,-0.09505785,0.09824456,0.024458388,0.060291305,0.2509723,-0.08188706,-0.063443534,0.09754074,-0.17824025,0.08471673,-0.18894035,0.08698845,-0.21799326,-0.30290863,0.20460027,-0.02071169,-0.00060801674,-0.13003278,-0.032829806,-0.18876615,0.006304838,0.020074802,0.016503396,0.13247283,-0.05596283,0.20300145,-0.24818961,-0.1412508,-0.044961527,0.04763332,0.1174669,0.02701103,-0.09493909,0.021410001,0.1423467,-0.15189353
0.14193189,0.14104614,0.172671,0.0679611,-0.10979777,-0.015698403,-0.06841138,0.05663364,0.108178936,-0.10592455,0.09332409,0.017515551,-0.009405091,0.0841847,-0.15427391,0.2037281,0.21549222,-0.15633266,0.061282553,-0.16032548,0.02250856,0.22364643,0.12629947,0.012587511,0.1071438,-0.002914451,0.07000106,0.029924167,0.0115280235,-0.032508347,0.19982271,-0.07642157,-0.18024802,-0.044065304,-0.0657277,0.26825887,0.28099054,0.061333947,-0.09031809,0.08846755,-0.084951155,-0.119167976,0.16032703,-0.030760052,0.09687237,-0.10042709,-0.074560575,0.05682515,0.011942188,-0.15754947,-0.18982199,-0.074053936,-0.116562575,0.06705799,0.20770492,0.103746966,-0.15572119,-0.063302815,0.054633114,-0.15396218,0.1513602,0.06249591,0.1099054,0.17597082,0.19515806,0.021849317,0.19244523,0.069350705,0.047034383,0.04146575,-0.15044318,0.100877665,0.07033921,-0.07653719,-0.035128675,-0.17506261,0.16502418,0.14788507,0.13868839,0.020530697,0.22868757,0.16939293,-0.14215472,-0.07271837,0.24360836,0.076569445,0.16699891,0.101233855,0.07095945,-0.17218137,-0.008754247,0.090356484,0.17811587,-0.29692352,0.06431659,-0.08751623,-0.17476264,-0.056453854,0.10759136,0.0023038422,0.07989132,0.14037384,-0.21136038,-0.13072588,0.009313335,-0.10446143,0.17487082,0.154131,-0.08113348,0.08202504,-0.099360384,0.05557194,0.002775009,-0.065097295,-0.2550429,0.043583415,0.17923254,0.03518634,-0.017559305,0.003064132,0.024309762,0.086261444,-0.06944294,-0.17303653,-0.24866588,0.17076632,0.19297844,-0.0073293047,0.020637706,0.2357236,-0.24221174,0.2209039,-0.13695197,0.04505088,-0.14234301,0.11938761,-0.06769557,-0.23282772,-0.027870253,-0.17399397,0.01420105,0.20091876,0.12744093,-0.066817306,-0.10577101,-0.11935899,0.07822542,-0.033809107,0.18430471,0.01768619,-0.21149418,-0.14493601,-0.251041,0.1823683,0.13846597,-0.011842925,-0.14029284,0.23967044,0.10925184,-0.0007213144,-0.1335391,0.029975835,-0.109980546,-0.07413269,-0.09358562,0.04203989,-0.007950639,0.13216099,0.06039905,-0.033177454,0.11961223,-0.09331903,0.10635373,-0.20762362,0.080245554,-0.02472301,0.009764354,0.31022686,-0.17900284,-0.010215474,0.21491951,0.036985803,0.06889374,-0.012309652,-0.077142425,0.1386236,-0.031097889,0.0017748892,-0.044511896,-0.075324796,-0.15235826,0.00089533353,0.2137066,-0.1520389,0.008911212,-0.16438885,0.0358595,0.077769905,-0.104989626,0.07083917,-0.2657862,-0.08969156,-0.08444468,-0.026329372,0.05638378,0.20702215,-0.24799444,-0.05727537,-0.16486487,-0.06390107,-0.17448267,-0.016937304,-0.034212973,-0.038784653,0.09787904,-0.07465287,-0.14203247,0.02205111,-0.2358131,-0.24731869,0.07067535,-0.1721743,-0.16054377,0.06232079,0.026484933,0.23550913,-0.11063385,-0.18179218,-0.15669924,-0.04546751,-0.044048674,0.16413516,-0.062136125,0.040164836,-0.12857464,-0.06870576,-0.08497902,0.14788608,-0.046707384,-0.18014573,0.20153072,0.14235027,0.03085584,-0.05441515,-0.09148508,-0.09288345,-0.03338289,-0.019334823,0.106280066,-0.053251445,-0.12377014,0.101427756,-0.06652095,-0.13498887,0.049156267,0.2355166
0.0688344,0.008225969,-0.018390188,0.025347827,-0.0019384995,-0.11042872,-0.16554826,-0.022443239,0.23735337,-0.16936602,0.381296,0.052497435,-0.07287695,-0.10168907,0.12747195,0.09708369,0.020015026,0.1408555,-0.035843644,-0.09811637,0.037953466,0.1031397,-0.15496643,-0.12503032,0.18319277,0.1321124,-0.08033143,-0.03103687,-0.004598602,0.00017031757,0.11624539,0.13940294,0.077677935,-0.08347422,-0.11982984,0.177345,0.23773721,-0.057323452,-0.05776563,0.20773304,-0.122598685,0.13310507,0.19047873,-0.019167848,0.07383498,-0.08173403,-0.10580162,0.1288565,0.054295857,-0.046094563,-0.093193755,0.06953436,-0.12688038,0.01415587,-0.079446964,0.11755497,0.059101854,-0.018505521,-0.07776007,0.038074885,0.093438886,-0.018851716,0.14687353,-0.022533126,-0.019885274,0.11072214,-0.027005063,-0.059375644,-0.08000054,-0.29530677,-0.0048864614,0.15559703,0.1495304,0.056859646,-0.08704788,-0.18018483,-0.0651015,0.10253665,-0.28922874,0.23412752,0.14525515,-0.17951483,-0.027654577,-0.13402694,-0.11399983,0.05795722,0.06741892,-0.056229807,0.14268267,0.11231011,0.056888875,0.02745469,0.20511404,0.20426935,0.096422456,-0.0068710116,-0.016526276,-0.20171385,-0.006790724,-0.009926817,-0.16624184,-0.058518123,0.008215314,-0.088921666,0.047956537,0.057513285,-0.011514088,-0.13034236,0.048173152,0.05101803,0.22764143,0.08908798,-0.12100075,-0.04264491,0.060757723,0.02623206,-0.03030394,-0.103777945,-0.15120038,0.14379293,0.14265989,0.028999472,-0.03644857,0.052690312,0.0017596659,-0.032420598,0.16235761,0.068674795,-0.057409722,-0.056579784,-0.018097918,-0.06363243,-0.054228697,0.0034171958,0.03758884,-0.054202903,0.17177579,0.15463002,0.016956089,-0.0033600067,-0.03913916,0.04313608,0.093158424,0.17012152,-0.023065453,-0.042053357,-0.06196099,0.17928292,0.054277424,0.063880175,0.123636365,0.055706963,-0.10776262,-0.11911981,0.13701902,0.027732478,0.054167088,-0.15927486,-0.17228544,-0.03741824,0.059826393,0.0004153377,-0.20956309,0.017393911,0.031067485,-0.00527138,0.0603063,0.034162458,-0.022118436,0.0397469,-0.07084012,0.13584617,0.045376807,-0.07583984,-0.15030591,0.0615616,0.05341294,-0.106218465,-0.024561707,0.07256873,0.024543839,0.17432189,0.21031891,-0.087724686,0.055124015,0.0562475,0.041426085,-0.15798031,0.06704628,-0.076952554,0.14278798,-0.059130464,-0.105358,-0.004026175,0.092588976,0.14848818,-0.074067734,0.11385106,0.07360298,-0.012022897,-0.1421069,-0.014780118,0.007927355,0.1453962,-0.07808647,-0.12225385,0.11705637,0.015116436,-0.06648715,0.09031268,0.19551198,0.05758196,0.043934744,-0.19237296,-0.24188387,-0.18735674,-0.025630666,0.01634822,0.048980325,0.018874882,0.13727176,0.14937048,0.19872975,-0.07028804,-0.10430005,0.124791205,-0.03321663,-0.09910024,-0.010939185,0.2644546,0.018619329,-0.09329745,0.03990413,-0.11677716,-0.07195433,0.15588877,0.034844708,0.20133878,-0.18921149,0.2689657,0.10775908,-0.025856357,-0.122183666,-0.07814027,-0.2523116,0.10085281,-0.024406506,-0.122053064,-0.1953057,0.1271802,-0.08288625,0.1052298,-0.09361977,0.0038140144,-0.07490841,-0.1567871
-0.04496024,0.22892982,0.074963145,0.22985303,-0.03125593,0.09576533,-0.056150865,-0.10933482,0.02355389,0.010536349,0.06345599,0.08991524,0.18425469,-0.08530867,-0.10948218,-0.14426386,0.1446318,0.080747284,-0.044231314,-0.06892968,0.0125658605,0.033795856,-0.2347702,-0.04273671,-0.15586051,0.107661985,0.06690627,-0.069343984,-0.11395782,0.1583456,0.09374552,-0.027464863,0.14994179,0.15874264,-0.058805477,0.0115282005,0.0004981136,0.23780869,-0.020506939,-0.01672092,0.11343327,-0.0501326,0.32657602,-0.070283905,0.14522381,0.11425768,0.0058914507,0.079783335,0.008148712,-0.100372136,0.24114862,-0.017243287,0.12855735,0.0032432347,-0.01227579,0.04384133,-0.05251667,0.05761935,0.009898377,-0.12617503,-0.085410155,0.058415804,-0.010656722,0.18780306,0.026211899,-0.0346571,-0.19601409,-0.008952443,0.033628378,0.2401481,0.26046544,-0.11448701,0.039881766,0.00836233,0.082333826,0.20944555,-0.147231,0.08453817,-0.12706225,0.018567717,0.04967058,-0.0031685808,0.2654605,-0.020912202,0.00800602,-0.034084164,-0.18820888,-0.01231391,-0.040459342,-0.22674549,-0.0609889,-0.041045945,-0.17808454,0.07461944,0.103205465,-0.10133623,-0.003485084,0.083623074,0.2692164,0.16300358,-0.034810256,0.14365187,-0.009318854,-0.023886202,0.08139571,0.009824951,-0.11655316,-0.12885037,0.08229344,-0.12497626,-0.1487007,0.015883528,0.0343622,-0.09980701,0.09105373,0.055799108,-0.1360122,-0.019600002,0.16205107,-0.060916297,-0.024671976,-0.05472245,-0.023247877,-0.18015659,0.022022182,0.22287779,-0.11936379,0.16137376,0.061810207,0.056309897,-0.056885984,-0.017141774,0.18684864,-0.028415157,-0.06522932,-0.027290666,-0.1019137,-0.01717677,0.17382039,0.14992252,0.08942584,0.047588293,-0.09007797,-0.15987323,-0.06569064,0.0031632762,-0.116203755,0.10883689,-0.0170773,-0.019013423,0.048890695,-0.21642911,-0.070267856,0.0087675275,0.100083016,-0.0038267674,-0.13483597,0.010267687,-0.16718997,-0.1551463,0.012848295,-0.10251194,-0.015884873,0.08294589,0.03315258,-0.13323149,-0.15149535,-0.055298112,-0.11180254,-0.2036549,0.060117487,-0.009876334,-0.109418064,-0.008724415,0.16121723,-0.10631182,-0.11934969,0.0073215193,-0.012436488,0.024621794,-0.01448333,-0.01591242,0.15015401,-0.07356651,-0.05088499,0.15292063,0.004092895,-0.022532564,-0.1305896,0.05462208,-0.21084362,0.12910622,0.021817187,0.11779756,0.1363505,-0.13309139,0.17787385,0.1428559,0.108877294,-0.123993844,-0.072430804,0.14729519,-0.013582926,-0.18987328,0.10840638,0.038615767,0.012539825,-0.110097945,-0.09255581,-0.115385935,0.07229672,0.2175202,0.04793583,-0.19799545,-0.02811502,-0.04868533,-0.0052623223,-0.095577344,-0.042279873,-0.019513324,-0.16316903,-0.21359363,-0.17718746,-0.020236034,-0.18678086,-0.056149326,0.05580523,-0.010448492,-0.12562147,0.024702778,0.020114837,-0.009002645,0.10524072,-0.20627506,-0.017947497,-0.17009076,0.048563153,0.02906337,-0.18950216,0.04755793,-0.07926418,0.085081615,-0.004649213,-0.16406044,-0.041204892,-0.09046124,0.084438086,0.09802769,0.006862488,0.07465485,-0.017470831,0.020406866,-0.19104537,-0.027306195,0.056427043,-0.028691834
0.010266789,-0.069684245,0.06277594,-0.17343715,0.03603037,0.050142474,0.015677804,0.048334334,-0.12798548,-0.07099324,-0.113188714,-0.098935656,0.07735965,0.08649745,0.04310238,-0.021891775,-0.1536731,-0.022781346,-0.17581695,0.17539617,-0.06940855,-0.15196273,0.15175487,-0.028847652,0.022370165,-0.16082364,0.06786955,0.020180732,0.18062288,-0.061650332,-0.010086463,0.04176594,-0.07674494,-0.07970514,-0.10096867,-0.03587729,-0.0998426,-0.028575685,-0.02354339,0.013202795,0.011869566,0.09457947,0.030435773,-0.030162679,-0.047518067,-0.12843272,0.08830192,-0.03490664,-0.085138254,0.042420737,-0.019689353,0.06849864,0.09861281,0.067354985,0.04215737,-0.18886968,0.12323373,-0.04194239,0.064100295,0.05166823,0.004368485,-0.12947124,0.028847564,-0.008759214,-0.027091509,0.081605636,0.0076564974,0.100208215,0.03379425,-0.15739894,-0.09633773,0.004063089,0.017542811,0.11531532,-0.029898519,-0.09919438,0.079922095,-0.009397659,0.053050168,0.092665404,0.025841817,-0.10282215,-0.03906898,0.059234116,-0.1060175,0.043806355,0.05989833,-0.012469027,0.00135305,-0.006600779,-0.06603919,0.059776083,-0.02336059,-0.09076556,-0.00074078987,0.06195356,0.07177278,0.13490662,-0.12491791,-0.0051485472,0.024613947,0.009108428,0.042852465,-0.01633923,-0.045325678,0.034323044,-0.08738506,-0.14723176,0.100985646,-2.5153759e-05,-0.03979622,-0.029828524,-0.05631665,-0.07448095,-0.06385276,-0.0404737,-0.024895795,-0.022423076,0.113025546,0.017393233,0.039938517,-0.034866348,0.12507907,0.06983533,0.039844424,-0.0957658,0.06897431,0.08131645,-0.01783958,0.04782054,0.06804745,0.09408824,-0.04675496,-0.008619588,0.15600063,-0.01990576,-0.116928,-0.032497432,-0.14703114,-0.044976447,-0.24496949,0.07016958,0.10424832,-0.010637072,-0.096465036,0.051862676,0.08203055,-0.10663942,-0.040500537,-0.098538466,-0.11619944,-0.036304113,-0.04174383,0.027065437,0.08082684,-0.07867531,0.047503445,0.029230054,0.117258236,0.18024506,0.029763749,-0.05337591,-0.094010174,-0.17145221,-0.022787534,-0.100902826,-0.10873309,-0.03517939,0.091117725,-0.018579908,0.07549772,0.093421124,0.091511525,-0.07980344,-0.21814907,0.094768934,0.03324919,-0.035515707,0.001308946,-0.06602611,-0.105276525,0.018987376,-0.12162808,0.14092724,0.057543725,-0.04464433,-0.08273146,-0.09543722,-0.05041379,0.1387918,0.025064535,-0.18007964,0.03403072,0.06302039,-0.099977754,-0.065538846,0.022284184,0.05398153,-0.019365223,0.07723581,-0.0079621505,0.043869983,0.036715757,0.013056924,0.11353449,0.0020617605,-0.044995308,-0.08247929,0.0671833,0.13241419,0.11172035,0.0064243316,-0.028186195,-0.14234161,0.06202099,-0.11695084,-0.1194744,0.15574172,0.014194338,0.025232164,0.035415065,0.08991329,0.046143644,0.07387167,-0.19687566,-0.14229538,-0.052627094,-0.00900267,0.14234357,0.1229461,-0.04572786,-0.040043846,-0.09020978,-0.057313755,-0.16515331,0.09187708,0.12708467,-0.1556869,0.04358416,0.09347794,-0.06046134,-0.10533908,-0.02562121,0.12813768,-0.013980221,-0.12437075,-0.029111233,-0.07144369,0.039261688,-0.19864942,-0.107565545,-0.034599148,0.06412608,-0.012960389,0.13209723,-0.0090470845
-0.25061584,-0.25267634,-0.14829236,0.006486164,0.0024079068,0.114783235,0.17323613,0.017585397,-0.15556146,-0.13390502,0.011512294,-0.058010556,-0.18014382,-0.06432921,0.11875679,-0.06464997,-0.06360426,-0.17533937,0.10875024,-0.041671082,-0.04064798,-0.018648408,0.077279255,0.08046456,-0.08301346,0.0028293666,-0.062390596,0.005358393,-0.05953695,-0.0817863,0.09955706,0.17257364,0.07254753,0.061076332,-0.010204216,0.03495197,0.13837515,0.13832289,-0.11145928,-0.044318564,0.071686275,0.0026174905,-0.13214818,0.08074038,0.07050553,0.12454872,-0.12500376,-0.017725613,-0.21184513,0.06071,0.24031743,0.0053373165,0.07619357,-0.053988665,-0.023663241,-0.05056156,-0.07437644,0.03326273,0.14679042,-0.102871194,-0.061539974,0.027565828,-0.030103402,-0.046393845,-0.040228587,0.25314102,-0.068459876,-0.21831536,-0.16400734,0.025296142,-0.13043196,0.030550553,-0.16050486,0.13340528,-0.09250796,-0.14125499,-0.03813033,-0.04046562,-0.059455488,-0.19399326,-0.13821346,-0.061977897,0.054352496,-0.011725752,0.32285446,0.19595502,-0.0030802577,0.03461969,-0.032831006,-0.018024553,0.0018154453,0.11296544,0.086792745,0.04799001,0.27651843,-0.12378736,0.09176732,-0.11959106,0.019331247,0.024293454,0.21058325,-0.0353799,0.035010904,-0.042600192,0.020508567,-0.1793133,-0.04201496,-0.13310178,0.18147403,0.026655652,0.110865,0.23095694,0.1686857,0.008117978,-0.021493847,-0.10122921,0.097665325,-0.051927738,0.19599426,-0.053471316,0.08086217,0.041513454,0.021030093,-0.092915125,0.21614069,0.14875805,0.11171282,0.1334252,0.09904875,-0.058930844,-0.104462355,-0.1796241,-0.2048071,0.10932543,0.15460588,0.008000069,0.09932848,0.06312391,0.11404257,-0.025429118,0.09529504,-0.07800082,-0.07975433,-0.018829376,-0.014400641,0.1441657,0.21736152,-0.06700212,0.06622835,-0.22616912,0.042692352,-0.1062326,-0.07650888,-0.016405774,0.21489099,0.13920616,-0.021124374,-0.0016053645,0.1502175,0.023763146,0.037450157,0.14163421,0.08541511,-0.06666989,-0.081696495,-0.12992819,-0.07930374,0.06929755,-0.11720074,0.13560046,-0.09540105,0.14369595,0.070518784,-0.13972944,-0.081950195,0.16123788,0.0124777695,0.018552229,-0.06910023,0.14273156,0.09467719,-0.1524029,0.1898926,-0.0021843459,-0.07733711,0.18724683,-0.069055185,-0.2769196,-0.06422607,0.2629521,0.068951115,-0.029890185,-0.037700083,-0.1606234,0.0095126,-0.11977927,0.009603262,0.058387976,-0.056390766,0.07700232,0.042625982,-0.067932114,-0.086338595,-0.19763654,-0.060736842,-0.09856406,0.12813535,0.18830958,-0.11174893,-0.08574521,-0.17319192,0.05690707,-0.22946689,-0.06411579,-0.1248233,0.17033724,0.035202365,-0.1769472,0.008813939,-0.14302549,-0.2956477,-0.09525695,-0.0022078024,-0.01885972,-0.21395193,-0.11808279,-0.11955456,0.06784902,0.106558725,-0.15128788,0.030097604,0.11486646,0.16745214,0.028788807,-0.0877086,-0.17483623,0.2105408,-0.018846747,0.14375703,-0.07505484,-0.120328344,0.010979602,-0.026390668,0.044622883,-0.04079358,0.031648874,-0.0997913,-0.200102,-0.028970394,0.10019863,0.18711147,0.010672163,0.36292475,0.07275538,0.094354786,0.07945066
-0.027794736,-0.07127859,-0.13894366,-0.10345126,0.12383061,0.14068444,0.23890865,0.19903217,-0.076587446,0.05651424,0.10071164,0.19441055,-0.047883388,0.013388362,-0.21856005,-0.07935443,0.19717032,-0.018814651,0.16407366,0.13696551,-0.02336269,-0.33348715,-0.09568511,-0.027102832,0.04138655,-0.018647028,0.08022367,0.060905132,-0.014171738,0.1271371,0.09027825,-0.062936254,0.047155198,-0.23119788,0.0007130044,-0.14976291,-0.22604306,0.028674204,0.11155402,0.06670272,-0.06677354,-0.1258485,0.1262993,-0.08765087,0.022976644,-0.0644771,-0.09603787,0.12665454,-0.07049878,-0.013716484,0.18705815,-0.14831105,-0.065148,0.0012830883,-0.05240023,-0.1952625,0.032916714,0.14208567,0.1794959,0.1545837,0.011488049,-0.11828068,0.006193546,0.09301736,0.20761763,0.1465704,0.0212211,0.09725927,0.08981216,0.04211474,0.067114644,0.053653557,0.09188313,-0.078443736,0.03658385,0.1542417,0.11300951,-0.030955208,0.0043642363,-0.22118953,-0.03203516,0.15821268,0.15384038,0.08345162,-0.040999528,0.09543466,0.07811876,0.013094851,-0.11708066,-0.015343137,0.24263783,-0.21023278,0.08322604,0.0184232,-0.10624906,-0.012843741,0.007404043,-0.21800058,-0.07682747,-0.13025033,-0.07193804,-0.10439335,0.13790834,-0.06058831,0.040317573,0.21223061,-0.07537353,0.12864326,-0.06959135,0.010499236,0.18208696,0.04588038,-0.05082579,-0.05181921,-0.10704497,0.0013276439,-0.15693855,0.06366656,-0.006385014,0.17396936,-0.014651595,0.11958677,-0.0066905804,0.07620335,-0.058861405,0.12786141,0.18961671,0.033489123,0.1698696,0.0025103367,-0.10246291,0.17878258,-0.10403049,-0.036920458,-0.11163766,0.10138327,0.16821647,0.10203672,4.7766434e-06,-0.0039905994,-0.063429534,-0.030978836,0.07760002,-0.17705259,0.12984698,0.08176418,0.11715358,0.101404995,-0.0069351005,0.026854739,-0.25125292,0.14689492,-0.13909839,0.01956126,-0.0041666212,0.029055145,-0.08667136,0.10135567,0.02032617,-0.025263488,-0.11498747,0.038789544,0.0032363487,-0.03516483,-0.07468834,-0.17098455,-0.096158296,-0.106214404,-0.13707256,0.1258102,0.07620514,0.06108511,-0.07470769,0.02748676,0.014781701,0.08472246,-0.012128718,0.06265421,0.08409736,0.2158067,-0.05362463,0.21953152,-0.12638772,-0.16645105,0.03711653,0.019008428,0.13460042,-0.052444596,-0.01172553,-0.09921325,-0.01943055,-0.16175354,-0.17800221,-0.07706771,0.0010097695,0.08257991,-0.014565096,-0.09567232,0.08018193,0.20621444,-0.13853306,0.0044952156,-0.20768552,0.065830186,0.090290815,-0.16977058,0.1987087,-0.12780623,-0.08528344,0.0397354,-0.06640709,-0.010613162,0.15083173,0.09047031,0.11540003,-0.13188592,-0.13236867,-0.04025106,-0.07822127,-0.11053361,-0.16684736,0.1561744,-0.14198448,-0.06427137,-0.08380182,0.033129863,-0.006328073,-0.13973764,0.03609619,-0.09057669,-0.0077486746,0.047054015,0.056338992,-0.11115736,0.06413625,-0.12918885,0.12554675,-0.111104816,-0.14660291,-0.08249533,-0.011801466,0.1349077,-0.15463896,0.041348606,0.024971215,0.113785565,-0.030370455,0.018545942,-0.040410176,-0.16970952,0.00955942,0.14024292,-0.15126897,0.05630726,0.084089875,-0.11250632
0.03137188,-0.028221838,-0.035544176,-0.04030384,0.12773243,-0.141729,0.018251382,-0.011889087,-0.081222124,-0.10376207,0.08406772,0.021725714,-0.029490273,-0.018408438,-0.1313962,0.039833073,0.011333306,0.05097768,-0.022400102,0.103141546,-0.044058256,-0.045331333,0.12139388,0.06086051,-0.06288544,0.047767192,0.042865332,0.13089836,-0.092948,-0.0175992,0.04882428,-0.093752176,0.026818044,-0.028749125,0.05270344,-0.047462173,0.04282255,0.023412284,0.06860388,0.059880845,0.23900591,0.11897879,-0.099107735,-0.0423585,0.17609353,-0.029156722,0.07888468,0.026276698,0.009825985,0.06406912,0.075636014,0.08058694,-0.018736035,-0.001004422,0.06703518,-0.052769393,0.17193247,-0.11697915,-0.08632811,0.006943116,0.031123815,-0.12332491,-0.063690886,-0.014709793,0.06701305,-0.01603851,-0.14051197,-0.022779834,0.025296353,-0.12813012,-0.0034923821,0.16314612,-0.028794821,0.039819296,0.053912267,-0.08702288,-0.08770583,0.04195611,-0.104028404,-0.05498107,-0.05353849,0.0014902165,-0.07651535,-0.064258575,-0.09977444,-0.1276985,-0.022450367,0.05283196,-0.09265219,-0.22397469,0.13841476,-0.06215892,0.09486309,0.044048466,-0.012641801,0.17920887,-0.0037237986,-0.1062073,-0.002142802,-0.15072528,0.03365401,-0.18243891,-0.067986615,0.19240116,0.056982078,0.0442131,0.008398019,-0.16687393,0.019227887,0.058047842,0.0602197,0.1351348,-0.068482265,0.15703106,0.076470606,-0.059671897,-0.07674807,0.1031486,-0.020119289,0.04338866,-0.020251103,0.07180315,-0.02925274,-0.011911673,-0.09464831,-0.0071210745,-0.10311037,-0.032296445,-0.010135406,-0.06361392,-0.07918995,-0.0049333763,0.027798211,-0.19703507,0.060342643,-0.010910787,-0.08674389,0.017124332,0.032124452,-0.002124141,-0.09159929,0.110308416,-0.15191557,-0.026011478,0.103982925,-0.0036404808,-0.027704772,-0.06721216,0.026939593,0.0054341643,0.06964247,-0.013199881,0.025190556,-0.06867717,0.021700168,-0.0026597653,0.20964496,-0.041957337,-0.08301754,0.010715586,0.08606685,0.046219576,0.014140249,-0.08110598,7.717165e-05,0.09454933,-0.12036928,-0.08646223,0.11434428,-0.108418405,0.026139881,0.15379007,0.01882907,-0.13834853,0.058703624,0.02824407,-0.016999878,-0.024339287,-0.026855888,-0.071873434,-0.052264683,-0.09364917,-0.09262306,-0.07260583,0.116327725,0.07964621,-0.009786489,0.007900155,-0.03668494,-0.12466685,-0.008658949,0.06908604,-0.0030727538,0.032532755,0.033181984,0.02345549,0.115602076,-0.046756145,-0.085986696,-0.14540447,0.013944471,-0.08055307,-0.036302127,0.04658528,0.084210806,0.047782894,0.022473814,-0.109829694,-0.017112385,-0.06698051,0.17932208,0.02763398,0.16445033,-0.026413012,0.12358151,-0.13238847,-0.0441699,0.043117587,-0.028446341,-0.004018033,0.14189678,-0.032537658,0.06644892,0.116360925,-0.120800056,-0.084280655,0.028542383,-0.12853144,0.14062932,-0.00081312546,-0.07685101,-0.011527161,-0.12146801,-0.033879027,0.10912043,0.046401985,-0.056356054,-0.03354198,-0.040569704,-0.02437066,-0.10021613,0.13129742,0.024639292,-0.05882658,-0.07824986,-0.13919571,-0.022307567,-0.10451818,-0.011968175,-0.08754608,-0.04302279,0.08632013,-0.026284589,0.029140418,0.07963866,0.062042266
0.101286985,-0.05796418,0.12247695,0.056885857,-0.050615348,0.01882279,-0.064740844,0.0045574224,-0.14479968,-0.084083885,-0.06912894,0.04638372,-0.033266775,0.107230484,0.028032715,-0.14519227,-0.02401064,0.080752194,-0.094880156,0.13809328,-0.078786366,0.0006376443,0.21827324,-0.007086253,-0.13628983,-0.009790532,0.0389129,0.017519409,-0.040363938,-0.071784146,0.053679362,0.043609023,-0.14367048,-0.030698774,-0.05949357,-0.023890488,0.044302754,0.01067327,-0.049848508,0.09710963,-0.002301569,0.10384032,0.06813919,0.024728535,-0.031048149,-0.03642601,0.053935364,-0.0241799,0.09307685,0.08845004,-0.042696554,-0.19488792,-0.07397291,0.024823926,-0.041539744,0.008897948,0.049502715,0.09452798,0.0729915,-0.052090693,0.06255955,0.012034563,-0.047717825,-0.10238523,0.071007475,-0.015777882,0.07894859,0.013498819,-0.1539078,0.0035621042,0.1363287,0.10132877,0.02533846,0.06512575,-0.12631737,-0.03730393,0.01774309,-0.03656294,-0.10849497,-0.019839171,-0.0683531,-0.032002375,0.047165114,0.056926616,0.009874359,0.12672442,-0.13985533,0.067632765,-0.028580176,-0.007886875,0.046753533,0.09518846,0.11949231,0.079764284,-0.02249511,0.01726576,0.07825366,-0.11486539,0.06259074,-0.11636281,0.062009092,-0.059774384,0.09341281,-0.030049857,0.09130423,-0.022278229,-0.03470769,0.10907494,-0.021117425,0.04688503,-0.004660599,0.012613968,-0.01542663,0.0364374,-0.13148578,-0.11111333,0.08879972,-0.069622114,-0.039151847,-0.06977498,-0.054000538,-0.09114092,0.03488751,0.006208196,-0.00809487,0.023250144,0.09246636,0.15684979,0.023584258,-0.05152007,0.13854004,-0.03135243,-0.01010365,-0.001144898,-0.006024952,-0.048774138,-0.1288725,-0.043070372,0.057634592,0.037040193,0.012364879,-0.14823043,0.054339226,0.071813904,-0.07335246,-0.0025992638,0.030967016,-0.12505269,-0.077150084,0.025672127,0.041336365,0.044847302,0.10851064,-0.008307357,-0.017681768,-0.0057456526,0.0047176117,-0.039591502,-0.010078005,-0.025700742,-0.004475185,0.011424907,0.08466912,0.10442881,0.03591864,0.034813862,-0.08661359,0.013723339,-0.0041801454,0.08101895,0.040824663,0.11782021,-0.04182758,0.14208043,-0.04105805,0.046583567,-0.07114285,-0.05120728,0.054825515,0.070398524,-0.016589014,-0.0334661,-0.08240215,0.03481826,-0.07417251,0.106137134,-0.061961606,0.13331662,0.029172903,0.087777935,-0.08206849,0.10043458,-0.0037966801,0.051336415,-0.0037522593,-0.10192581,-0.082503475,-0.014599995,0.054721475,0.059294753,0.07620936,-0.06895773,-0.0483022,0.041695308,0.060870685,-0.03068984,0.06275494,0.072615206,0.11467227,-0.03927099,-0.008982378,0.012231952,0.036215406,0.10136634,-0.05576522,-0.031027261,-0.069943085,0.011912878,-0.013621291,-0.025582435,-0.03625912,-0.07252478,-0.052200936,-0.025128622,0.05835466,0.12903084,0.18063629,-0.15528537,-0.10482074,0.05024709,-0.041816894,0.029925756,0.039167214,-0.032751407,0.034511406,0.08643246,0.09379512,-0.050116174,0.028484764,0.027516318,-0.07941071,-0.054557983,-0.04670194,-0.071183115,-0.07956741,0.08840405,-0.09280917,0.0011313107,-0.02823638,0.03188264,-0.017876524,-0.09321447,-0.118912764,0.05741747,-0.03920431,-0.031237654
0.012072779,0.116494805,-0.072455116,0.024542322,0.022801958,0.13385597,-0.23245189,-0.012220557,-0.072437845,0.04628887,-0.21867412,-0.061057225,-0.035641328,0.087374344,0.046266895,0.072269894,0.04990861,-0.29553086,-0.116870224,-0.13679251,-0.031527005,-0.20668265,0.0968946,0.15488806,-0.10300982,0.09749264,0.08084442,-0.18119591,-0.05190659,-0.010154991,-0.021725504,-0.09582407,0.037487194,0.009312201,-0.024865044,0.17039773,-0.08409161,-0.0323538,0.060159296,-0.009782091,0.08849394,0.091905154,0.014797832,0.0067375535,-0.048670936,0.012948173,0.07414661,0.083296545,-0.03492725,-0.117291026,0.019822923,-0.11857855,-0.06251444,-0.055683844,-0.07594432,0.19762933,0.053386558,-0.07323191,0.007777922,0.0734001,0.19485556,0.019498173,0.01602807,0.038885336,-0.10234777,0.020890383,-0.0806096,-0.12020754,0.21007937,-0.12687589,-0.012904511,0.17106682,-0.06529673,-0.06966556,0.16091806,-0.02728672,-0.08900814,-0.088036224,0.13859041,0.049511664,-0.13871092,0.039467756,-0.119618274,-0.14621282,0.0022471913,0.025023887,0.14882267,0.019829191,-0.1459976,-0.06402593,-0.06299168,0.09535584,0.08737746,0.12683322,0.110103026,-0.07991845,-0.119651906,0.028218925,0.123543635,-0.1263887,0.16339608,-0.021066723,0.10257653,0.033541314,0.0006636025,0.050958402,0.0064547267,-0.06238103,0.058514863,0.026004327,0.06073838,0.033607773,-0.06158151,0.13363908,-0.11432952,0.1373454,0.10075389,-0.080172196,0.085201144,0.270855,0.18252583,-0.1708214,-0.24321996,-0.052576758,0.0372983,0.02171771,0.04277197,0.021490669,0.08417116,-0.16687563,-0.13363388,-0.14792544,0.11319182,-0.120133005,-0.06896584,-0.17524348,0.09050567,0.06703891,-0.12120018,0.044893917,0.034669556,-0.17538065,0.03632375,0.02643521,-0.20387729,-0.039424926,0.24209602,0.081652276,0.015836537,-0.03596577,0.003879148,0.12879297,0.11639905,-0.12314899,-0.031610984,0.024061808,-0.1317859,0.22739416,0.24740548,-0.009293096,0.07529398,-0.06334894,-0.1797543,-0.16730727,0.038738318,0.04627638,-0.086363435,0.118588984,-0.1595993,-0.17479533,-0.036091767,-0.0739098,0.059353642,0.012630409,-0.058150038,-0.10173163,-0.12102322,-0.16647981,-0.007584088,-0.027195182,0.0041703577,0.013813717,-0.082181655,-0.13544925,0.10087033,-0.27729714,-0.1339547,-0.05667281,0.09105228,0.011544152,0.08036607,-0.14366144,0.11497053,0.07238594,0.08991705,0.048381917,-0.04539011,-0.10755996,-0.07782812,-0.0005513878,0.012738882,0.04506405,0.02824403,0.11034195,0.10020123,0.08428251,0.09071634,-0.018211644,0.049969275,0.024464207,-0.09381316,-0.110134184,-0.11941348,0.025029743,0.026755389,0.042018402,-0.054923747,0.15362585,0.06509816,-0.04425239,-0.28430364,-0.109164216,0.043271855,-0.06641791,0.14142355,-0.1372773,0.28134352,0.13253875,-0.110175274,-0.13953422,0.014045554,0.23992452,0.08961291,-0.15185627,0.11206931,0.017247375,0.03972989,-0.112269044,-0.04311865,-0.17378673,-0.043395687,0.0072179297,-0.04349209,0.14161295,0.015162389,0.041568108,-0.051306155,-0.13060363,0.08788966,0.0499504,0.080225006,-0.04588224,-0.10276769,-0.05415995,0.07206545,-0.15373382
-0.016462581,-0.08146426,0.03426622,0.16670796,-0.17600805,-0.09879641,-0.013915782,0.018449515,-0.085703276,0.0144943865,0.1315488,-0.06698557,0.026763191,-0.0525439,-0.031267647,-0.05818664,0.1038391,-0.08396091,-0.09509139,0.023355447,-0.014519248,0.026129544,0.009063665,0.016311603,-0.117793694,-0.03981091,-0.103385784,0.022558125,0.09127201,0.05812211,-0.00067430345,-0.091644146,0.08190322,0.0908525,-0.05788294,0.08344788,0.12438514,-0.027927956,-0.016115814,0.18478146,0.10331762,0.049745653,0.06988795,-0.06969042,0.09382423,0.06567254,-0.05018218,0.13695927,0.004338261,0.17445414,0.03113118,-0.06889432,0.03460122,-0.088688314,0.111860536,0.009192856,-0.053831235,-0.042453256,0.08566067,-0.1281802,0.068380654,-0.0468825,-0.1826823,-0.17188288,0.11702042,0.13577382,-0.0184718,-0.16467258,-0.0139255,-0.07402153,0.042155787,-0.04305237,0.069987774,-0.19302498,0.1480529,-0.038960602,-0.04561307,-0.0858244,0.10810938,-0.0866861,0.024174195,-0.07561687,0.03871029,0.15432046,0.062212177,-0.013915753,-0.114657655,-0.104987144,0.06834877,0.065171935,-0.02394916,-0.1694472,0.19037771,0.0790798,-0.13680388,0.0064336592,-0.0048289187,-0.1906206,0.029270029,0.021024095,-0.21808438,-0.0003141925,0.1551428,0.11713712,-0.22322834,0.059412304,0.031867266,0.010046566,-0.13919751,-0.14047724,0.10456859,-0.0038021673,-0.0814535,-0.10567991,-0.02046907,-0.08809746,0.12641963,0.07295865,-0.1999948,-0.034138948,0.08765832,0.114792906,-0.10918168,0.058257733,0.11220576,0.06005176,-0.08224135,0.06446045,0.15611757,0.03557292,0.027484657,0.07667544,-0.019389505,-0.013662433,-0.0042609437,0.008319142,0.21047768,-0.05994613,-0.003165194,-0.049220443,-0.066607036,0.07898917,-0.024160152,0.02879175,-0.056648687,0.040708106,0.0544802,0.025252897,-0.00078096974,0.051536493,-0.045549758,-0.05624253,0.113950126,-0.043018147,-0.13160466,-0.13592736,-0.06848117,0.025915626,0.0007317542,0.091439106,0.037875798,0.0319915,-0.0029992987,-0.02943272,0.110802546,-0.2527179,-0.158127,-0.08060524,0.054381803,0.046051566,0.0759285,0.11545955,0.12835898,0.02428001,-0.021318141,-0.045663103,0.01696041,0.03899694,-0.07716283,-0.0019428324,0.12808816,0.22552775,0.032969482,-0.037492342,0.0886731,-0.0050544864,-0.04260912,-0.09870155,-0.07581019,-0.07464646,0.14501901,0.0025579697,-0.11583834,0.105593726,-0.23541552,0.03013416,-0.110947445,-0.005463644,-0.09596509,-0.07115941,-0.0914958,-0.006989792,-0.1367053,-0.17483868,0.12454522,0.092141256,0.057305958,-0.021291338,0.04646309,-0.070294425,-0.14206165,-0.05008603,-0.006631449,-0.16426148,0.045622744,0.030798512,-0.14283858,0.09969448,0.16665354,0.04073289,-0.018601479,0.02500565,-0.029428976,-0.04105583,0.08156912,0.021593649,0.076720245,0.22250214,0.061960127,-0.027879713,0.036353305,-0.052119475,0.0878418,0.04654807,0.16051476,-0.0587617,0.12784004,0.022260742,0.10376444,-0.0397395,-0.085571624,-0.09165647,-0.010851671,0.041174576,0.029937275,0.17830613,-0.10228064,-0.0938412,0.04801416,-0.02710269,0.017434595,0.07117176,-0.16202185,0.14424331,0.09913219,0.21307369
0.13913491,-0.06190429,-0.05154921,0.1431861,0.039737646,0.06344678,0.08797399,-0.056584362,-0.016294338,0.041005652,0.1575598,-0.044596743,0.038378242,-0.038166337,-0.114707775,0.054147497,-0.21822733,0.009532315,0.02761851,0.07578715,0.044700768,-0.10854844,-0.09485281,0.09335702,-0.0580393,-0.04432686,0.041077606,0.00015823435,-0.050546754,-0.11642908,0.11810735,-0.055854943,0.08927364,0.0024390137,0.0798689,-0.09364077,-0.11682889,0.042795043,-0.017542813,-0.0946383,0.05428704,0.035455033,-0.023347968,-0.05546563,0.1407663,-0.12541619,0.13625184,-0.013788815,-0.10161053,0.076025486,-0.1327024,0.01587135,-0.07221261,0.030689716,0.13725442,-0.08382325,0.052343972,-0.26249835,-7.157856e-05,-0.041418906,0.085196026,-0.11182465,-0.03275248,-0.017998552,-0.030864967,-0.09735291,0.08145183,-0.0978839,-0.16379058,0.14296639,-0.100566044,0.16277394,0.13350573,-0.15479606,-0.032827575,-0.11244378,0.1089629,-0.005571088,0.056753356,-0.07573468,0.021157479,-0.11454096,-0.019894868,0.08313783,-0.025420787,-0.007966967,-0.17222376,-0.045650415,0.008586601,0.0003544391,-0.028935557,-0.054742165,0.04831758,-0.07981062,0.07254483,-0.09866106,0.003743999,-0.010833426,0.026655754,-0.012873614,0.011327116,0.20400664,0.041906152,-0.07982319,0.118750274,0.020340152,-0.11529369,0.049362104,0.039942604,0.0903657,-0.11037514,-0.086900845,0.014609653,-0.0016936699,0.0015350244,-0.010756551,0.0259697,-0.012410351,-0.112004235,0.092702545,0.07313312,0.023864485,0.12315605,0.060484312,-0.029389719,0.021030704,-0.082339555,-0.062444057,0.02826693,-0.101710215,0.049297053,-0.011931404,-0.033078462,-0.07004982,0.049103905,-0.058396727,-0.06948847,-0.094527245,-0.061410896,-0.05466874,-0.08080445,-0.0026919243,-0.038144544,-0.07501725,0.08765044,0.011462383,0.014944219,0.0054539456,-0.06797951,0.122739546,0.0064249686,-0.1017216,-0.0402077,-0.06967945,-0.05048914,0.07769949,-0.072548166,0.15321568,-0.027747484,-0.17660435,0.057422884,0.05011148,-0.015965259,-0.012875576,0.051689178,0.08329206,-0.034782402,-0.060792867,-0.037918326,0.12100646,0.06314838,-0.159211,-0.08489162,0.08823515,-0.15834731,0.17193103,0.11123161,0.012031507,-0.016703129,-0.07681008,-0.074956186,0.061752368,0.07377581,-0.07248637,-0.051850047,0.10010343,0.025078556,-0.1383229,-0.08706155,0.048414156,0.035207517,-0.035516836,0.026862787,-0.0057056933,-0.11489702,-0.084486134,0.10329983,-0.004985957,-0.12669948,-0.05461306,0.008793147,-0.06746774,0.16695647,0.074303925,0.104503796,0.033425797,-0.06453195,0.089608885,0.005352977,-0.14088775,-0.05862471,-0.00923699,0.0372277,-0.03250921,0.0574695,0.037625913,0.05333707,-0.012677945,0.048422523,-0.040214907,-0.1221724,-0.10013845,0.14394034,0.11776462,0.12112627,0.052653853,-0.046222605,-0.09461529,-0.03225252,-0.066318594,0.008850125,-0.046095576,-0.004900401,-0.062793314,0.15496606,0.013041385,0.031065015,-0.13757963,-0.016114008,0.10747372,-0.06332896,0.042549275,-0.08531958,0.09812593,-0.103993565,-0.0141748795,0.07963525,-0.12786138,0.07126885,-0.060978446,0.18833575,0.07820851,0.16263969,-0.005114343,-0.031816058,-0.0811288
-0.009879602,-0.15958406,-0.07608837,-0.036728535,0.05891789,-0.014425242,0.015339978,-0.040534947,0.027475275,0.011254934,-0.02142749,0.11484834,-0.1325107,-0.006097907,0.13926819,-0.08848349,0.043411706,-0.14925972,0.05171854,0.11100184,0.07047169,-0.02275981,-0.030523295,-0.018674992,-0.023585225,-0.063622914,0.011348465,-0.05741615,0.027483758,0.04460009,0.11036428,-0.07030874,-0.03715551,0.10958915,-0.05801439,-0.005586589,0.11392632,-0.16264632,-0.05988391,-0.021719357,0.120098025,-0.13620874,0.1486328,-0.059604824,0.082924545,-0.030102298,-0.0395444,-0.0497236,0.04654779,-0.08470308,-0.0950824,0.024296002,0.17185898,-0.08772621,-0.02304965,-0.006994122,0.09336461,0.17372407,0.043873478,-0.17025393,-0.022515815,0.037356988,-0.009450205,-0.012753287,-0.037285507,0.1197208,0.106718786,-0.033032894,-0.055965662,-0.12393753,-0.019630503,0.040014777,-0.06792092,0.028916692,0.06762131,0.005113893,-0.056437507,0.022886276,-0.056569982,0.045825675,-0.046874333,-0.007047035,0.026378665,-0.035519604,0.0074447514,-0.16077839,-0.111625865,0.008777425,-0.05430313,-0.050517306,-0.05200309,-0.12588017,0.020474017,-0.07956206,0.017882792,-0.12440449,0.016327316,0.008586821,-0.046291918,0.09545177,-0.079171635,-0.020053772,0.15618621,0.11802195,0.026455492,-0.07322817,-0.022762593,-0.028274642,0.064281166,0.117043406,0.06285136,-0.03546151,-0.11436464,0.13724117,0.059151426,-0.073675945,0.01288911,-0.13561726,-0.18797402,0.069370955,0.2253644,0.15603398,-0.021032011,0.09919872,0.0028937797,0.049849663,0.14201514,0.15896028,-0.09720828,-0.09379605,0.065319434,-0.018632932,-0.04144746,0.13596445,-0.09380965,0.14378373,-0.024167577,0.010326418,0.07743456,0.10017342,-0.019147446,0.028542234,-0.16315982,0.021223916,0.016489236,-0.1362366,0.15783437,0.06379286,0.11284356,-0.047764245,0.14220008,-0.14267601,0.024562761,0.06444897,0.025994984,-0.059433147,-0.021975156,-0.06087112,-0.05414589,0.1086035,0.1912031,-0.028678073,0.080729276,-0.04916379,0.0059902635,0.01847563,0.1272673,-0.04979645,-0.0036185079,-0.15651038,0.031154366,0.16710252,0.1834911,-0.042808317,0.10804736,-0.0518249,0.023124397,-0.003988308,0.1962395,-0.07994159,-0.06738713,-0.13010891,0.21894458,-0.0040816814,-0.038378954,0.00969069,-0.014215065,-0.0028555838,0.038706973,0.07927925,-0.19492577,0.0058613727,0.07117728,0.028302299,0.05672261,-0.11432243,0.02480839,-0.19960992,0.12876208,0.02810066,-0.03442946,0.010802824,0.1818615,-0.08695971,-0.11163248,-0.06761269,0.06303505,-0.20590281,-0.0059743472,0.17466342,-0.102212235,-0.07915227,0.066072926,-0.061421774,0.07958728,0.08737388,0.089965165,0.11298696,-0.016868833,0.042273667,-0.085354485,0.07207728,0.045641635,0.1497746,0.075282834,-0.079787955,-0.10313686,0.046292644,-0.08343282,0.041139957,-0.028612413,-0.02726373,0.086151086,-0.039163284,-0.111849144,0.17676148,-0.12455722,0.10936739,0.0650518,-0.096091695,0.037139338,-0.026213171,0.11679877,0.16265218,0.022367032,0.20145816,-0.007421183,0.11240265,-0.12573257,-0.0070789782,0.024414117,0.019964637,-0.021322537,0.011327053,0.1312715,-0.056174643
-0.04076019,-0.04721289,-0.032714013,0.09758328,0.07896959,-0.13489653,-0.15670878,-0.05698362,-0.10839953,0.21220459,-0.18861648,0.1104566,-0.18649496,-0.03704236,0.0326824,0.010956611,0.045814134,-0.023195038,-0.022344321,-0.006371119,0.115019776,-0.124165125,-0.030281102,-0.0055876034,0.08675383,-0.1157668,0.039874166,-0.078339875,-0.11895726,0.07504013,0.005688586,-0.010724725,-0.007737811,0.071579926,0.009953195,0.2505253,0.13963534,-0.04215707,0.15786023,-0.15489133,-0.047597617,0.0990104,-0.04550415,-0.08775873,0.016432302,0.008483495,-0.029196355,0.032053776,-0.05021763,-0.098201625,-0.19099106,-0.065026104,-0.03218617,0.021697182,-0.17912562,0.07503114,-0.0882833,0.0823679,0.12817894,-0.07150745,-0.059854608,-0.12909907,-0.07231258,0.06035172,0.19588415,-0.148565,-0.22931898,-0.122692205,0.11044262,0.1350799,-0.12601873,-0.14386022,0.03038899,0.022615127,0.13245255,-0.0108262,0.07666739,-0.17801075,-0.04971718,-0.0034977337,-0.026651043,0.06439353,-0.06725734,0.06755831,-0.055619545,0.09307035,-0.09553084,-0.06006774,-0.08240618,-0.0037344205,0.0672245,0.0111342855,-0.07941051,-0.04251807,-0.07506067,0.026819179,0.07100215,-0.035544768,-0.032134235,-0.13226286,-0.060806077,0.15976319,-0.034678116,0.17822318,0.13515924,0.1520215,-0.11896855,0.09885875,-0.13384254,0.028603887,0.073394835,-0.055306092,0.10976807,0.12980431,0.085014105,0.036328685,0.022335514,0.057343233,0.15763952,0.16889802,-0.071266696,-0.11253833,-0.2025961,0.07444668,-0.097283825,-0.037479002,0.03673583,-0.13800575,-0.089795776,-0.2597875,-0.16984595,-0.05845221,0.069222346,-0.091828585,0.14774007,0.084487356,0.08168203,-0.100540765,0.074148566,-0.15690227,-0.009774258,-0.013305841,0.07353012,-0.04631227,0.024522992,-0.17574172,0.19688314,0.0045696395,0.1146895,-0.054652065,0.14051875,0.10956633,0.033142477,0.0775584,-0.08321671,-0.10320704,-0.04804446,-0.13218297,0.17721632,0.12609936,0.20764795,0.044859268,-0.05690554,-0.040568266,0.06919729,0.1547338,-0.05836766,-0.006515082,0.002688896,-0.105941,0.036260106,-0.11466347,0.1309715,-0.080657445,-0.0025425097,0.04316022,-0.068829186,-0.03209771,0.13758716,0.12839729,0.0019187984,0.19677196,-0.019524703,-0.03706527,-0.15802027,0.014202991,-0.11488706,0.09019874,0.0054342113,-0.05020224,0.05580713,-0.0018053568,-0.061744116,0.086295605,-0.12368101,0.06139201,0.04230448,0.21089031,-0.14022528,0.15628567,-0.10368347,0.079153,-0.08056912,0.10243552,-0.028229399,0.04827849,0.085843995,0.054168057,-0.04491081,0.13962032,0.02649076,-0.003032935,-0.081613295,-0.08605452,-0.10829645,0.17975992,0.07563347,0.026847033,-0.09129967,0.18573642,0.08490444,-0.13362205,0.051923238,-0.0016770117,-0.0638078,-0.051021647,0.08451045,-0.12961473,-0.025940659,-0.18040736,-0.042684305,0.12727095,-0.06371926,0.016495619,-0.10352366,0.088354155,0.039107002,-0.031642765,-0.13350755,-0.13759227,-0.016967837,0.12852263,0.23383813,0.1779362,0.09730132,-0.012666351,0.14766598,0.06955945,0.044919454,-0.031613722,0.047999557,0.0236228,-0.049653873,-0.16843195,-0.0024830536,0.000508174
0.09154239,0.16922098,0.064812936,0.14035048,0.13662371,0.0481761,-0.116187066,0.13892712,0.104471184,-0.0022025509,-0.13816017,-0.027292605,0.15050772,0.09841276,0.045714572,-0.21960539,0.22044069,-0.002070743,-0.031261876,0.04092691,-0.20204073,-0.20106784,-0.022244683,0.29152685,-0.026682451,0.13965589,-0.22071502,-0.103118315,0.03485849,-0.25218537,0.054229494,0.052782085,-0.17887929,-0.28262228,0.10203116,0.08225217,-0.09780531,0.11694299,-0.18466203,0.22069457,-0.13438997,-0.08430349,0.013583311,-0.20203726,-0.12721635,0.17998004,0.056981668,-0.07805176,0.23275207,0.20478532,-0.14131598,-0.06604414,0.30460754,-0.11845054,-0.03878592,0.1921825,0.021716721,0.2433459,0.06383607,-0.13977197,0.04997148,-0.15213068,0.22215609,0.018512143,-0.028986204,-0.09696605,-0.11182354,0.094075985,-0.025999406,0.005217631,0.07303603,-0.07554772,0.10655049,0.15568146,-0.0014917117,-0.11107406,-0.22170798,-0.13641867,0.09058697,0.075125806,-0.19847082,-0.00036181213,0.083697595,0.05942225,-0.09219161,-0.03715009,-0.012071369,0.07535079,0.05622497,-0.2794925,-0.042920973,-0.15710926,-0.33510366,-0.013899952,0.10624815,-0.0048645632,-0.02353059,-0.18906024,0.036218684,-0.1964274,-0.044779107,0.09731373,0.014070031,-0.008903584,-0.011653182,0.1677599,-0.008406912,-0.30953062,-0.03784943,-0.18818484,-0.2011607,-0.025730941,0.32091656,0.14062169,-0.19338201,-0.13720392,0.17739573,-0.07193392,0.16726868,-0.024212616,-0.017590445,-0.14391062,0.1230996,-0.13122995,-0.08680492,-0.05698966,-0.0047162455,0.09080011,0.07977357,0.14461146,-0.046058565,0.059717774,-0.21613158,-0.001668315,-0.18888481,-0.03613835,-0.08060266,-0.23361062,0.1355095,0.14459571,-0.30554405,0.054959364,0.23148885,0.011438683,0.12276544,-0.11882323,0.09631432,-0.2331815,0.09238331,-0.24008578,0.08753818,0.08856649,0.08854091,-0.13837099,0.02877249,-0.18686749,-0.040690172,0.041778296,0.07460104,0.12927529,0.17283785,0.26906377,0.17124298,-0.083407804,-0.024787027,0.024002058,0.17294146,-0.0191231,-0.075441495,0.039723918,-0.010726223,0.034114048,-0.21204413,-0.14105426,0.076468244,0.14996049,0.13635091,-0.042448007,-0.12687849,-0.092650205,0.13042843,0.026892586,0.20340243,-0.07750417,-0.11528564,0.07640512,-0.17429696,0.03632982,0.08199842,-0.13895638,-0.14857067,0.08932479,0.18758172,-0.16126268,-0.16476813,-0.09456829,0.10245068,0.018048907,-0.060845442,-0.054489877,-0.0440479,-0.026702756,-0.1101323,-0.045818184,-0.17914474,-0.26704913,0.22413374,-0.012594753,-0.3900314,0.07165394,0.13253419,0.050836626,0.117643096,-0.17525826,0.054638986,0.109307356,0.07126286,0.17390189,-0.045468196,-0.10741649,0.082747735,-0.19181307,0.13174465,-0.049472913,0.23227262,0.063021176,0.14493753,0.18192568,-0.036194474,-0.060079176,-0.19973607,-0.33539474,-0.15429358,0.01697289,-0.057546634,0.10813404,0.1574779,-0.23882322,0.0411124,-0.037441112,-0.066589884,0.025045492,-0.034721736,0.11640779,0.06246983,-0.07223458,0.08853193,0.19169538,0.061369624,0.23376268,0.15645625,0.10871873,0.0355264,0.045689866,-0.059173718,-0.04742783
0.0077090953,0.041537445,-0.09148567,-0.043497413,-0.019304365,0.05236464,-0.017173266,-0.17735673,-0.083189294,-0.12628873,-0.021886608,-0.116980515,0.13101284,0.13178144,0.11840317,-0.051193133,-0.005543183,-0.0114142895,0.06264878,0.05827713,0.022683434,0.044567112,-0.018910956,-0.08707787,0.07296433,0.0152769685,0.07914027,0.0879179,0.005253891,0.10017024,0.076614335,0.04397912,0.05514974,-0.017315485,0.092972375,0.06406439,-0.11593385,0.12667456,0.13085121,-0.06957321,-0.0059275264,-0.01315481,-0.050105143,-0.003801923,0.10217872,-0.010875192,-0.031694062,0.0017386384,0.068511076,-0.08135227,-0.052575346,0.007671605,-0.19971755,-0.008793071,0.06743358,0.05098467,0.026411647,0.024163691,0.10598423,0.084025815,0.09982342,0.006197929,-0.04636065,0.099021435,0.11307773,-0.022023458,0.09238624,0.0010438161,-0.04491444,0.06366059,0.055748563,0.027187645,-0.08744887,-0.07752547,-0.13502908,-0.13243298,0.0004840055,-0.03436994,-0.042016514,-0.01771789,0.046908185,-0.064122915,-0.1454795,0.06695501,0.03900147,0.049375657,0.052582774,0.015814599,0.0910904,-0.06434519,-0.008483944,0.041569162,0.029092748,-0.052349232,-0.06720193,0.023291506,0.00444533,0.072567835,-0.1009148,0.01226366,-0.08762228,0.15441544,0.1533869,0.012923168,0.021259364,0.001148341,-0.13220404,0.051981345,-0.088095106,0.012826857,-0.06749037,0.124595754,-0.021988502,-0.105460264,-0.003505133,-0.038263775,-0.035747964,-0.010128323,-0.009174056,0.048231557,0.076529026,-0.06783097,0.104264684,-0.022859657,-0.06598565,0.10227637,-0.06902646,-0.004941359,0.015688496,-0.053162385,0.023702275,0.047816228,0.07576729,-0.034895226,0.053101975,0.08623125,-0.121014394,0.09249664,0.012143006,0.00780616,-0.021175632,0.08077538,0.18868181,0.021290226,0.026999949,-0.056194186,-0.010200471,-0.020649025,-0.054412987,0.047970746,-0.049680937,0.19499049,0.19813862,0.05343515,0.022953717,-0.022214541,0.13365781,-0.2091281,-0.022544337,-0.096339144,0.037100244,-0.09701367,0.056621548,0.031509493,0.03501491,0.040800262,-0.002079519,0.08064314,-0.02409784,-0.06955977,0.10852872,-0.15271024,0.01721599,-0.11120125,0.063446835,0.16764918,-0.015990632,-0.02636304,-0.010354918,0.035107877,0.024512116,0.04854659,0.040986497,0.01738996,-0.03308019,-0.006140889,-0.052863047,-0.043024976,-0.016381823,0.11493402,0.04906769,0.053030483,0.018597983,-0.052628275,-0.19750273,0.0087697115,0.0046887393,0.045893654,0.016337907,-0.09021907,0.070397876,0.10103932,0.0023597137,0.0033269033,-0.061796922,-0.043168332,-0.045616016,-0.12525235,-0.021735707,0.06341561,0.14302544,-0.041605618,0.024771182,-0.0077764983,-0.013429972,-0.074199185,0.035243,0.21013173,0.12186316,0.0510717,0.0036250658,-0.04244079,-0.07623065,0.084693484,0.019714193,0.043994002,-0.063575946,0.0420408,-0.05146936,0.11285614,0.09178858,0.037458383,0.037820015,-0.015618277,-0.10767404,-0.15967152,-0.03168505,0.13372429,-0.06674712,0.071805045,-0.04002809,-0.0009638061,-0.017732684,0.1758803,-0.019955503,-0.12980308,0.032650046,-0.10810508,0.019152155,-0.16145396,-0.015913168,0.07330392,0.0021512876,-0.025458025,0.10708275,0.047142915
-0.045476023,0.134413,-0.118135296,0.22132374,-0.024652295,0.0043673636,-0.060622174,-0.03189143,-0.1735429,-0.054142293,0.10720911,0.01970022,0.14305599,-0.10905756,-0.09679221,-0.19838063,0.20010361,0.0001755042,0.14632905,0.116670236,-0.09076977,-0.15956949,0.058481365,-0.08472577,0.06500635,-0.10011812,0.09418942,-0.21497704,0.08161045,0.0154802725,0.09791698,-0.0118826,0.23800625,0.093426704,0.17207932,-0.09358682,0.06962194,-0.12025634,-0.020894924,-0.06844676,0.050556276,0.11232658,0.085002735,-0.0041867686,0.013644083,0.18211961,-0.021821918,-0.16055462,-0.22458756,-0.10841342,0.029472547,-0.09221613,0.15869796,-0.18581343,-0.12486114,0.10397711,0.18625204,0.09412955,0.024131551,-0.03699301,0.109036334,-0.14580043,-0.09584541,0.16852093,0.12362366,-0.04148964,0.03375162,0.004059603,-0.23176482,-0.01542988,0.086383246,0.04224812,0.07248074,-0.1465171,-0.022627514,-0.102301635,0.004534883,-0.24094443,-0.00801211,-0.12792969,0.00953154,0.06945433,0.050030332,-0.22463702,0.12093625,0.0049132854,-0.09334057,-0.0034598857,-0.20484278,0.009573754,0.2268252,-0.08695068,-0.13233969,-0.01963156,-0.15341823,-0.041072663,0.13212283,-0.17151625,0.107848346,-0.25853872,-0.07863286,0.124579586,0.099794984,0.06693989,-0.029143825,0.00871243,-0.11996167,-0.04223578,0.08067068,-0.2031789,0.07867253,0.041826706,0.12891816,-0.13291535,0.019693993,0.025737174,0.17965713,-0.10947539,0.067280576,-0.08564762,-0.00912364,-0.18497531,0.123448074,0.15909253,0.06799839,-0.17586434,-0.11427441,0.006406731,0.007987775,0.025036495,0.10503147,-0.16220503,-0.10652681,-0.117652506,-0.059073154,0.035445627,-0.081582576,0.06959903,-0.32023293,0.047884315,-0.10099162,0.10324931,-0.10309331,0.23599161,0.08528332,-0.015826533,-0.091438174,0.014078973,0.012835885,-0.058828793,0.18714027,-0.03161376,0.078495115,-0.12182365,-0.12277234,-0.104370825,-0.019164925,0.025907125,0.07748939,-0.02376829,0.022226635,0.09646467,0.011055369,-0.14879808,0.08549019,-0.05927657,-0.043630514,-0.002838862,-0.024218367,0.016667178,0.114566095,-0.015722958,0.008060512,-0.12405772,0.07633877,0.09352027,-0.032474212,0.03919557,-0.051336486,-0.0200667,-0.008047712,0.13247196,0.034695,0.06434397,0.022322636,-0.02935757,0.060131315,-0.10359934,0.03675943,-0.061910253,-0.04445925,-0.04551416,0.15083054,0.24353598,0.097700365,-0.2710069,-0.0544907,-0.10083284,0.12905747,-0.15492713,-0.03147347,-0.1756402,-0.08102156,-0.21253856,-0.117403574,0.06867552,-0.019967582,-0.001550868,-0.20496607,-0.050153937,0.2241465,-0.25063992,-0.028322833,0.062047277,0.109127805,0.09129689,-0.11851495,-0.044750962,0.0021839538,-0.021507112,0.0999415,-0.083402276,-0.11547732,-0.2772552,0.1297396,-0.04283223,0.21940634,0.03212663,0.08360808,0.06200588,-0.19112727,-0.009328989,-0.16630581,-0.066575006,0.03851689,0.09116784,0.08962931,-0.030892484,-0.040734038,-0.17183799,0.17688821,0.04714472,0.04533894,0.087131314,0.15460046,-0.009664514,-0.07812809,0.17182255,0.05597545,-0.017338803,-0.16978449,-0.14409856,0.1760711,0.0073971683,0.035206687,0.15164952
-0.0328434,-0.03828738,0.0045444295,0.22710146,-0.0064958665,0.025900032,0.09451947,0.07991281,-0.0085839415,-0.2098811,0.0052694054,-0.024516862,-0.044360533,-0.08764253,-0.009697486,-0.13850006,-0.17957789,0.038950056,-0.05863814,-0.024119416,-0.01463315,0.11753148,0.08895132,0.09513661,0.015581748,-0.15185985,0.117033616,-0.064255916,0.018135227,0.052239977,-0.016995963,0.0032520753,-0.05057535,0.13508411,-0.0926603,0.032472562,0.020259,-0.020626102,-0.17595215,0.039265677,0.020656833,-0.14228575,-0.01372794,0.010748039,-0.1404231,-0.04309809,0.048432846,0.0036636018,0.207984,0.08145433,0.18260373,0.05594624,-0.008580092,0.06241566,0.009110365,-0.06210993,0.030169157,0.09259014,0.24732506,0.029673722,-0.026969384,0.12571657,0.0021174154,-0.17512621,0.1434439,0.053688273,0.04783508,0.21837799,-0.028183391,0.13604711,0.057680883,0.015591816,0.051175553,0.13687257,-0.02995494,-0.009882111,0.17599896,0.012400689,0.11503856,-0.15081523,-0.022101033,0.05125958,0.22175914,0.030602003,0.13412884,0.09611373,0.052147146,0.09176395,-0.034858648,-0.21345077,0.016664252,0.027638702,-0.13979973,-0.052059185,-0.09778422,0.12517406,0.040342893,0.07545834,0.15776683,-0.03402085,0.03662799,-0.19649243,-0.1503617,-0.1344075,0.04204051,0.089070715,-0.17699069,0.068622656,-0.023058735,-0.29825988,-0.055970747,-0.22843143,0.24080533,0.042401083,0.16668063,0.121923804,-0.011151494,-0.19965544,0.112513155,-0.11622654,-0.22832842,-0.011030415,0.014128899,0.09640158,-0.039334632,0.11535361,-0.09644161,-0.078280985,-0.0044645485,0.14473495,-0.17523338,0.091574,-0.1289254,-0.16244361,-0.09322244,-0.2071432,0.029770905,0.0029066736,0.103713796,-0.13223346,-0.16912742,-0.14762138,0.06981465,-0.17359239,-0.11718247,0.09854674,-0.13287985,0.24927644,0.049767,-0.055882268,-0.07746514,-0.006228643,-0.16859116,0.008983983,0.06355504,0.12926076,-0.0351765,0.12410852,-0.14821261,0.075962484,0.036437687,0.075807124,-0.21401997,0.13315317,0.087059334,0.009685037,0.08014637,-0.08747381,0.20757563,0.0151039185,0.15993778,0.024275037,-0.04562431,0.03459247,-0.03264102,-0.11881326,-0.14666092,-0.058986872,-0.03423507,0.22491555,0.20425765,-0.12857363,-0.043137178,-0.1307726,-0.005401593,-0.19513552,0.04347435,-0.11389883,-0.1650617,0.04170059,0.052187074,0.04093358,0.02695614,0.01779632,-0.12758294,-0.03531944,0.035487637,-0.0021604863,0.034064557,0.061113484,0.11020019,0.018763054,0.1361601,-0.048844762,0.12465518,0.07472785,0.17782336,-0.06458042,0.06267025,-0.16509491,-0.066975944,-0.00414662,-0.09408375,-0.15773886,-0.15526675,0.18725762,0.03981407,-0.09671498,0.09971583,-0.24722612,0.04691213,0.19210309,-0.013687857,-0.07787394,0.10223558,-0.011096254,0.11954167,0.019646961,0.12801737,-0.032949876,0.037840188,0.01718466,-0.12156974,0.11590078,-0.07901997,-0.12782289,0.05349292,0.04223491,-0.18823528,-0.101082265,-0.13048397,0.17371176,0.06689832,-0.06390618,0.1481069,-0.012940226,-0.2961508,-0.1109951,-0.04825542,-0.08852971,-0.14759806,0.04181145,0.05064719,0.042617846,-0.09181895,0.23378679
-0.1330689,-0.21063657,0.04504188,-0.03687948,-0.01032622,-0.06402649,0.17492281,-0.038165666,-0.058573876,-0.056730505,0.30258977,-0.2170521,0.08079158,-0.07139953,-0.09687816,0.002081369,-1.3299299e-05,0.18393141,0.12811813,0.07475841,0.072828144,0.06881359,0.064039975,-0.18233408,0.03839525,0.16192825,-0.075568564,-0.08180436,-0.022316843,0.13504937,-0.04119916,0.24073692,-0.108294524,-0.06399217,-0.10011634,-0.26217428,-0.01519705,0.09015068,0.07610956,-0.06535065,-0.08527693,-0.069066495,-0.0076473244,-0.123354785,0.15317832,-0.14558603,-0.05305803,0.0602301,0.03259673,0.0048300535,0.0665196,0.07677566,-0.12868725,0.10751273,0.06227952,-0.17910808,-0.15226577,0.0071875425,-0.033246145,0.09212087,-0.028414695,-0.08520198,-0.086164966,-0.021990096,-0.046535645,0.01116527,0.0938067,0.1793623,0.083264425,0.0068733445,-0.00852712,-0.06764137,-0.27376118,-0.35382724,-0.19107683,0.028562795,-0.06342721,-0.088359214,0.01485631,-0.122819185,0.14775825,-0.08560993,0.08578571,0.09602601,-0.2319416,0.015358626,-0.08824012,0.24978514,0.26094535,-0.05449314,0.06940343,-0.054725505,-0.039661765,-0.053433154,-0.06189123,-0.014134854,0.110607445,-0.07689624,-0.01980747,-0.111389644,-0.017691292,-0.09544882,-0.16100992,0.13024226,0.01899229,-0.01133555,0.10589433,0.069649056,-0.010883965,0.036140352,0.05520466,-0.1239216,0.21668041,-0.13911015,-0.18400408,0.16228074,-0.023580346,0.007338792,0.079287075,0.03589915,0.15752898,-0.14063452,-0.06838428,0.12550217,-0.061313126,-0.055000912,0.120764785,-0.0803466,-0.13663322,0.16007836,-0.06464132,0.089286655,0.076328225,0.05209811,-0.038953427,-0.2462045,0.093112916,-0.1886384,-0.21620023,-0.0809268,0.12157792,0.062404305,0.23581877,0.07095283,-0.09915712,-0.14429712,0.112748146,0.18639836,0.10148142,0.20945565,-0.034638476,-0.3116505,-0.062068213,0.07266294,-0.22017139,0.11969976,-0.027121162,-0.1153484,0.017576652,0.11686916,-0.078844056,-0.027662672,-0.06968137,0.14477167,0.04282351,0.08807832,0.12001964,-0.078481294,0.09655765,0.05188394,-0.057687193,-0.20085774,0.052214175,0.058845624,0.19354984,0.0047980864,0.082548484,-0.076067425,-0.047403023,-0.022766918,0.09543443,0.17281382,0.054453917,0.063898586,-0.04794166,-0.034669224,-0.006768072,-0.09422344,-0.03716122,-0.09718706,-0.13048947,0.09626311,-0.18494172,-0.10849535,0.027072884,-0.17850646,0.04385293,-0.05615009,0.07796653,-0.1895643,0.18469441,0.244906,0.025700057,-0.011019432,0.18814857,-0.05002121,-0.067878716,-0.014378973,0.0939589,-0.10008058,0.086961545,-0.18256794,0.051109232,0.017831335,-0.031301185,0.07691149,0.07984466,0.17783462,0.03280276,-0.07365525,0.07953128,0.042313073,0.19387335,0.049827002,0.16613045,-0.00031835755,-0.08388948,0.16427074,0.0055774134,-0.12915833,-0.0024890522,0.05888084,-0.043550786,0.120115615,-0.0049473713,0.07761558,-0.03094147,0.053146664,0.0049251732,0.08928151,0.02224272,0.011859111,-0.17255849,-0.1281674,-0.23305899,0.071318634,0.11046383,0.118030675,0.02437002,0.21701628,-0.03875185,-0.12239583,-0.18961428,0.11358469,-0.1820092,-0.24628803
-0.23065393,-0.019679394,-0.017418737,0.17756891,-0.24262829,0.13318169,-0.11792751,0.23224232,0.0974092,-0.24735975,0.056872968,-0.011666121,0.05968849,-0.035347912,-0.08636638,0.14413431,-0.21051207,-0.010877335,-0.005355077,0.09342924,0.033962816,-0.23292851,0.120060116,-0.023309963,0.06577022,0.09450345,-0.0067255907,-0.026166312,-0.31554142,0.0056618643,0.14339098,-0.06545897,0.094059356,0.24292214,0.011210717,-0.08878553,0.22133929,-0.10998325,-0.2679766,-0.05865914,0.01902182,0.017262679,0.005141724,-0.010023132,0.12791693,-0.11228498,-0.09555185,0.1634045,-0.20850877,0.071432196,0.12677549,0.004514864,0.099049464,-0.041718446,0.11354819,-0.05525228,-0.06835402,-0.27157024,0.10304555,-0.098076634,0.2849772,0.08030728,0.10407515,-0.11284401,-0.029825607,-0.13319603,-0.18952353,0.12575756,0.12718147,-0.029253952,-0.037817843,-0.14877138,0.15876822,-0.2050203,-0.044298362,0.15460163,-0.13527943,-0.048220992,-0.10353589,-0.044982105,0.07270798,-0.010285427,-0.00012017972,-0.0051488485,0.01587386,0.09921561,-0.007862589,-0.09982953,-0.025700217,0.018333355,0.13861853,-0.09513239,0.10289693,0.031153785,0.09534482,-0.24052662,0.20926903,-0.07084652,-0.12265633,-0.08018071,-0.041574236,0.024674214,-0.16761489,0.06532689,-0.06979001,-0.084319,0.032147225,-0.13964806,0.002514688,0.067163475,0.22998784,-0.073045954,0.16138068,0.12856919,-0.08266676,0.07523438,-0.01912139,-0.08510363,0.13792042,0.07167241,-0.12036926,0.0003054246,-0.19693974,-0.04479808,-0.1431674,0.066585936,0.101519614,-0.11681149,-0.14798161,0.08696226,-0.09492513,-0.16530937,0.040301554,0.08840112,-0.09634181,-0.14651005,0.02938047,-0.085554115,-0.21918093,-0.097787194,0.12358743,-0.10934163,-0.23796925,0.09886887,-0.021184482,-0.088739336,0.052570645,0.08213087,0.0525514,0.04212205,0.01028878,-0.1630814,-0.07524071,-0.08930971,-0.0029275347,0.10035356,-0.23093858,-0.079074584,-0.2138975,-0.29801324,-0.23600993,-0.07656564,0.1625935,0.24192129,0.20932606,-0.119425155,0.09991441,0.2104018,0.040882513,-0.055660892,-0.2851024,-0.16072565,0.061458744,0.070462346,-0.08221026,-0.22029112,-0.2121362,-0.07818028,-0.09435446,0.11271983,0.15178752,0.10328869,-0.03863823,0.1309276,-0.21701457,-0.037359953,-0.1666689,-0.12047685,0.27256903,0.03048709,-0.17621845,-0.04129321,0.10122568,-0.16140585,0.13838401,-0.24349238,0.06337161,-0.23338126,0.11070154,0.035535064,0.028061898,0.2773839,0.2693759,0.16863859,-0.09226769,0.023820195,0.07823799,0.06617212,0.055054303,0.15725362,0.053765107,0.1347379,-0.061683852,-0.082129836,-0.21730782,0.021233475,-0.04582251,0.116171844,-0.10366284,0.13157292,-0.21378122,-0.14719075,0.053301834,0.002721257,0.029068016,0.29412553,0.059422117,0.14984763,-0.2610712,-0.057835866,0.023576988,0.14538537,-0.019193638,-0.002416503,0.05591799,0.15552959,0.09039794,-0.098926656,-0.14222746,0.02521312,-0.0064198114,-0.11333469,-0.030389113,0.15455994,-0.1599084,0.12333097,0.10623789,0.2116504,0.20871277,0.12023627,-0.1162692,0.17262277,-0.10909212,-0.1208307,-0.16341724,-0.013862951
0.14917445,0.036920987,0.1541839,-0.026674407,0.03647165,0.016793756,0.066385545,0.0597833,-0.04932159,-0.0058962167,0.16911389,0.024186444,-0.03096181,-0.033145793,0.060633745,-0.13810886,-0.058952108,-0.11301002,0.11311045,0.05395273,0.20244472,-0.041094095,0.08465579,0.039828587,0.07220198,-0.17315339,-0.02295015,-0.029227506,-0.096031755,0.19650298,0.016232744,0.07125598,-0.12415837,-0.031520408,-0.051333975,0.031262957,-0.120141156,-0.048793156,-0.0057943957,0.08959143,0.053586137,-0.06689414,0.12019895,-0.13042699,0.08565098,-0.019254817,-0.035089053,0.015537164,-0.048815195,-0.08226241,-0.028939398,-0.012419101,-0.12670861,-0.025425313,0.029183751,0.02665919,-0.25503716,-0.018110983,0.00597522,-0.28245816,0.038439088,0.21561056,0.13747376,-0.03326005,0.11759177,-0.07886495,0.013078314,-0.04206756,-0.16950484,-0.010640902,0.14018123,0.16212037,0.0009138307,-0.020119667,-0.12658808,-0.07866366,0.00920701,0.10480875,-0.0108661745,-0.09232148,0.13855214,0.03602751,-0.11371454,-0.115744755,-0.10316533,0.02482364,0.06536191,0.13042387,-0.041196458,-0.07443188,-0.014996804,-0.08671092,-0.047283515,-0.0720377,-0.12732519,-0.0011632866,0.12609075,-0.05533563,-0.058551546,0.026037076,-0.09659695,-0.02174086,0.005761204,-0.09684774,-0.0346733,-0.092539854,0.04008806,-0.030957425,-0.12153487,-0.0031897528,0.03855905,-0.055247553,-0.004658136,0.11342713,0.104699075,0.11562609,-0.09658925,0.079679675,0.12808883,-0.041009527,0.10636345,0.010545232,0.03533493,0.10833259,0.10835911,-0.1145831,0.09879024,-0.04618736,-0.0167781,0.12737456,0.07680134,-0.1528352,0.01615481,-0.055653583,0.008503444,0.11274743,0.061024208,-0.14721462,-0.060503777,-0.059750825,0.06920534,-0.031001052,-0.103868134,0.09732093,-0.018667342,0.02366643,0.07350566,0.16951206,-0.062253915,-0.0061845835,-0.042727605,0.034549113,-0.00081247435,0.14234377,-0.07488536,0.028968599,-0.0831937,0.083078444,-0.012162473,-0.05701245,-0.1344368,0.062307235,-0.09192119,-0.0039003792,-0.18827175,0.25291047,-0.04681269,-0.043837123,0.032711126,0.10177964,0.029352,-0.051818244,0.052152585,-0.09833859,-0.057973567,0.010205963,-0.005476932,0.12924418,-0.08672017,0.14176235,-0.06395405,-0.07716659,-0.15142836,0.073857576,0.08184253,0.21063812,-0.103866786,-0.12089778,0.10558272,0.0057060057,-0.04459003,-0.22359538,0.14510964,-0.03258966,-0.17113942,-0.019821271,0.054570254,-0.08287037,0.116012365,0.06659111,-0.14024705,-0.019774105,0.006317444,-0.11087112,0.027835976,0.038376242,0.038035873,-0.018969078,-0.021087408,0.099094115,-0.16991608,-0.0072459793,-0.045992833,-0.022056809,0.19367984,0.11050303,-0.06832263,-0.120872065,-0.067011505,-0.18437578,0.09191812,-0.1724151,-0.15624163,0.17305715,0.021251332,-0.084596045,0.0824993,-0.07885706,0.06945818,-0.08958983,0.0010602392,0.0015835246,-0.037394904,-0.08143936,0.015301921,-0.12079402,0.06880201,-0.025312588,-0.15709442,-0.052718334,-0.10393412,-0.144745,-0.0602539,-0.11330662,0.14905205,0.0123891495,0.11424179,0.042767644,0.19171056,0.015660463,-0.061025653,-0.0307434,-0.11802859,0.114167236,-0.13108253,-0.05597251
0.33896855,0.08770346,0.10225137,0.029967492,0.0666798,-0.071197756,-0.37632817,-0.2411008,0.16069089,-0.028397685,0.006415451,0.110621534,0.28155908,-0.04555549,0.10126236,0.15467781,-0.019890582,-0.09815862,-0.032162935,-0.14889418,-0.10375795,0.14506294,-0.26742914,0.023758814,-0.02311738,0.21105272,-0.06612779,0.096872866,-0.31115687,0.06778828,-0.2414533,0.09175085,-0.016564885,0.048377912,-0.13013159,0.07804546,-0.090096176,0.06284986,-0.20873395,0.17110138,0.0493859,0.108300015,-0.21688323,-0.14727218,0.07328184,-0.014599359,-0.035945863,0.22007969,0.2127876,0.022898622,0.054042723,0.15556091,0.0012873956,0.15084133,-0.20512682,-0.12855953,-0.060931113,-0.10989524,-0.22814801,-0.040483467,-0.076471835,0.04398107,0.22103867,0.090639345,0.04689712,-0.18307939,-0.0705666,-0.2912258,0.09239228,-0.24926284,0.020262824,-0.06933822,0.18927953,0.13105418,0.08014936,2.9444182e-05,-0.08012221,0.024052782,-0.08936996,0.032436874,-0.0019281814,0.28809467,-0.14908455,0.11539477,-0.06757855,-0.22421828,-0.21490405,-0.011992256,0.024105418,0.17550173,0.07036086,0.0006808195,-0.077273294,0.2421752,-0.031117331,-0.29371452,0.022946777,0.116509624,0.11340376,0.011664385,-0.15642913,0.077159695,0.030659664,-0.13872597,-0.18133587,0.26637495,-0.22777112,-0.10252564,0.006542499,0.09430642,0.21685587,0.1164431,0.059380718,-0.14546746,0.14012551,-0.0055449186,0.05817495,-0.0062084533,-0.012255952,-0.031249112,-0.019187653,0.041106924,0.01767907,0.013633378,-0.04912151,0.13139385,-0.11006021,-0.008748045,-0.22625302,-0.09357004,0.07422184,-0.10133802,0.18665682,0.0033298908,-0.18297245,0.052220076,0.05318559,0.08753769,0.061918084,-0.06949095,0.06681523,-0.0318651,-0.07875603,-0.0756001,-0.2636459,-0.022594808,0.090263136,-0.015110918,0.06167606,-0.20086345,-0.050239585,-0.15293081,0.13684791,0.059665564,0.23415998,-0.072534256,-0.21609412,0.22587653,-0.14302811,-0.12723997,-0.13438572,-0.11780653,0.14717317,0.17174053,0.1190527,-0.010344997,-0.072412916,-0.12519121,0.23372161,-0.04364825,0.116270825,-0.15573405,0.11154005,-0.015578098,-0.07938589,0.19082464,0.05554271,0.18765152,0.05523028,0.18244894,-0.27527985,0.09259779,-0.19495279,0.0054744016,0.036430426,-0.16586806,0.1605477,-0.13335404,-0.013869659,-0.1461405,0.09245141,-0.27343926,-0.13942726,0.12655929,0.11393651,-0.13038345,-0.10750657,0.11543898,-0.08167776,0.060351744,-0.13414948,0.21867238,-0.024397178,0.14765914,-0.038195394,0.055558696,0.04264813,-0.17023669,-0.03847921,-0.08899918,-0.06807732,0.18029706,0.067736134,-0.037594575,-0.13487059,0.017655926,-0.2731219,-0.032433275,-0.16115354,0.15382294,-0.00596918,-0.12834126,-0.18010984,0.15360102,-0.26270998,0.16156241,0.236205,-0.10072978,0.047042686,0.21652527,0.02209858,-0.097229995,0.109225765,-0.093539946,-0.037470117,-0.035018012,-0.12253561,-0.04118503,-0.114275046,0.11969765,-0.016107727,0.10131479,-0.013862877,-0.18315455,-0.2386773,0.28577697,-0.066094846,0.15479553,0.036683302,-0.23797446,0.0037345458,-0.0032315045,-0.028713912,-0.19858639,-0.25533077,-0.11353721
