-0.029422438,0.010543754,0.003603192,0.025555735,0.033690874,0.020570427,-0.028681545,0.032927915,-0.0681563,-0.039483834,-0.18791622,-0.107576154,-0.40001464,-0.28549412,-0.40701,-0.31812587,-0.48208752,-0.23747098,-0.20789486,-0.29937917,-0.54009324,-0.43290317,-0.56889075,-0.44385168,-0.3384852,-0.10300104,-0.18878046,-0.26611626,-0.24509677,-0.19375323,-0.4626206,-0.3369494,-0.24033718,-0.26958215,-0.038430102,-0.08502077,-0.045961022,-0.06642365,-0.24145696,-0.26348972,-0.23541734,-0.008446715,0.032455303,0.20046619,0.22000428,0.10749684,-0.120005704,-0.3517747,-0.19271012,-0.015133365,0.0830544,0.23482199,0.21902624,0.05274193,0.024432013,-0.30848348,0.013482148,-0.014779212,-0.015086359,-0.022764405,-0.026024029,0.0070651327,0.0006755826,0.012308854,-0.66209275,-0.15189523,-0.14810514,-0.23399584,-0.11207063,-0.5199121,-0.17176637,-0.37670016,-0.36743295,-0.237225,-0.50980216,-0.19057244,-0.24261166,-0.4565081,-0.27678785,-0.42564347,-0.4379509,-0.25030538,-0.16490506,-0.12708549,-0.36455736,-0.25601077,-0.5382008,-0.08877002,-0.1919537,-0.40439615,-0.24173342,-0.19161922,-0.10777733,-0.042216107,-0.21667063,-0.23538017,-0.03152878,-0.13335486,-0.07452836,0.059283383,0.10982119,-0.040209338,-0.08777106,-0.017716855,-0.25997588,0.1346338,0.23338278,0.45662424,0.19927615,0.12960784,0.28263807,0.224606,-0.012175063,0.03204874,-0.07728573,0.19980285,0.23049614,0.11213655,-0.108185,-0.11521476,0.23873737,0.15665469,0.18960606,0.2982989,0.2843164,0.2677856,0.2005052,0.23981583,-0.24399485,-0.11748828,-0.19729355,-0.062066443,-0.2828232,-0.26985925,-0.38098106,-0.533111,-0.4761396,-0.23436184,-0.49619198,-0.02418955,-0.352972,-0.30064416,-0.4168771,-0.3386981,-0.4761152,-0.50855553,-0.14301147,-0.13304536,-0.13924746,-0.09814112,-0.2980766,-0.17469935,-0.19702007,-0.007981665,-0.17858966,-0.19547445,-0.25029635,-0.106574915,-0.035012495,-0.19982192,0.23693803,-0.12468326,0.05220729,-0.018573485,-0.0031718917,-0.024658334,-0.29772514,-0.23754925,-0.0715763,-0.011711744,-0.020282187,0.086045384,0.11116127,0.094303325,0.04846257,-0.18613905,-0.16150473,0.1325465,0.17808543,0.21493565,0.099865936,0.019515911,0.06657347,-0.29896554,0.24253336,0.13355267,0.11288315,0.06606676,0.046893608,0.04539223,-0.011987073,0.39846593,0.06863716,-0.09361046,-0.12138237,-0.022104857,-0.084402665,-0.17215052,-0.032699723,-0.3128587,0.07801022,-0.17043118,0.039537586,-0.15664351,-0.034451686,0.0022985786,-0.14707245,-0.07707174,0.017299537,-0.07636849,-0.26860505,0.1543807,-0.02448828,0.026195692,0.042982787,0.067369916,-0.07002332,-0.32434705,-0.06560028,-0.10141805,-0.054105226,0.05497121,-0.0634728,-0.07860427,-0.09279687,-0.021649884,0.003918481,0.093403086,0.2688424,0.2452723,0.13643944,-0.07011211,-0.14136009,-0.2205367,-0.0001688409,0.13846946,0.13395491,0.045572843,0.12644118,-0.01182555,-0.050235156,-0.0064221523,0.1691043,0.16367733,0.20388384,0.16618977,0.28638694,-0.09455438,0.1219163,0.0870291,0.2362996,0.16831228,0.20966975,0.21499719,0.24028845,0.20194934,-0.28396922,0.17019664,0.105955474,0.21281941,-0.01824291,0.26705903,0.07367088,-0.026419336,-0.24970582,-0.4347735,0.11772107,0.41183242,0.20200197,0.11236174,-0.36034653,-0.07276668,-0.2004769,-0.10955656,0.14833912,0.13700525,0.1913993,0.07106538,0.09887792,0.006003107,-0.2224094,-0.061076444,0.038180184,0.011480662,0.035142247,0.1571994,-0.1717105,0.06431663,-0.21982926,-0.18367022,0.06782577,0.022339774,0.2240202,0.13097382,-0.023884153,-0.06757885,-0.26406595,-0.039496403,0.056672115,0.22809415,0.30320174,0.1829965,0.15478604,0.07020846,-0.4107674,-0.08326564,0.09422766,0.17897862,0.13633186,0.2506119,0.14462653,0.07295892,0.34821746,0.056007452,-0.14238065,0.19950886,0.30489883,0.14536639,0.25502256,0.14948192,0.21108425,-0.26875257,-0.06897065,-0.16998349,0.07424564,-0.17780384,-0.046883166,0.2140268,-0.08014957,0.07684366,0.17040108,0.19702357,0.1537061,0.2264409,0.13069214,0.121986166,-0.082280576,0.029344704,0.23935094,0.13443658,0.160862,0.2214873,0.15658607,0.31172395,-0.04191049,0.040913146,0.22666524,0.11376882,0.2097011,0.0499629,0.04394833,0.19352835,-0.21800841,-0.07366054,-0.025443098,0.1849194,0.055858318,-0.19159588,0.00025942695,0.15856309,-0.24922566,-0.3385007,-0.19370551,0.60100836,-0.12728544,-0.21467616,-0.08002752,0.16345139,-0.21886949,-0.20230742,-0.17612927,-0.10376526,-0.26261413,0.15255377,-0.082816884,0.053608127,-0.21447688,-0.18333071,-0.22833203,-0.06794522,-0.020597644,-0.41059548,-0.023460628,-0.08913214,-0.024801351,-0.0045809187,0.0040552425,-0.014241414,-0.03235593,-0.00029030602,-0.020982068,0.023171244,-0.081423275,0.023855655,0.28116143,0.18266046,0.047586232,-0.13503107,0.095303856,-0.13890126,-0.19765227,-0.08982647,-0.01274238,0.16826859,0.13949949,0.02442028,0.0033405952,-0.09411616,-0.26100162,-0.15794468,-0.037639197,0.089515075,0.14026009,0.011335791,-0.09623714,-0.08413419,-0.26139024,-0.2692487,-0.052491106,-0.11655558,-0.13147895,-0.13644338,-0.18575524,-0.28367785,-0.27388385,-0.13136119,-0.21187907,-0.16219237,-0.2522837,-0.31455866,-0.27786356,-0.15321477,-0.09751813,0.1316717,0.12706992,-0.0024447422,0.00031831604,-0.026699372,-0.054123636,-0.23810582,0.011449636,-0.013439941,-0.026658144,0.029047692,0.03336479,0.008158817,0.006985325,-0.027551048,0.14885765,-0.13931479,-0.17471166,-0.3299837,-0.23017174,-0.41842002,-0.007966838,0.04033501,-0.21457504,-0.2699938,-0.10625533,-0.0437115,-0.08137668,-0.34231827,-0.22603332,-0.40125525,-0.3760464,-0.11701552,0.13595694,0.016737524,-0.06711723,0.0068947417,-0.09355436,-0.23105356,-0.22902521,-0.14997874,-0.08989915,-0.24868278,0.0023077242,-0.045735244,-0.14593402,-0.12737128,-0.12739728,-0.4882513,-0.22997387,-0.22624575,-0.20122498,-0.28833878,-0.26681292,-0.24869525,-0.20565893,-0.32736188,-0.34912327,-0.3521656,-0.27610993,-0.21490641,-0.09432883,-0.25278386,-0.37791756,-0.1530896,-0.4411826,-0.1819914,-0.067660995,-0.5230718,-0.37761825,-0.2766912,0.19546047,-0.061387263,-0.0105523635,-0.13062817,-0.048880845,-0.0704176,-0.08185587,-0.48082718,-0.15489003,0.27928567,-0.08369899,-0.12067023,0.13427487,-0.006154729,-0.005713303,-0.34735778,-0.21237354,0.031728014,-0.25902703,0.07122017,-0.10292122,-0.27221513,-0.057254825,0.05655085,-0.20368655,-0.3845462,0.013895917,0.06780876,0.050133273,-0.108523786,-0.10754935,-0.055411573,-0.32035685,-0.042919956,-0.033577554,-0.04796086,-0.14690179,-0.06251096,-0.34790087,-0.31799716,-0.23760818,-0.26428217,-0.13901444,-0.33171523,-0.17325626,-0.46469393,-0.049749967,-0.23946564,-0.52721107,-0.24261656,-0.28054076,-0.12693262,-0.28607717,-0.020677444,-0.27850673,-0.37999046,-0.43385005,-0.36167705,-0.54283893,-0.43813145,-0.25336283,-0.57923234,-0.27043012,-0.42845327,-0.30475152,-0.22999248,-0.3301626,-0.046374626,-0.50569725,-0.2559754,-0.03918143,-0.42986706,-0.20174158,-0.24941564,-0.011424088,-0.09354599,-0.0070756963,-0.1512747,-0.14413945,-0.05574579,-0.11936562,-0.007870801,-0.12217258,-0.18372887,-0.21207203,-0.20320745,-0.15255697,-0.30416787,-0.47824788,-0.3883431,-0.21704155,-0.38942635,-0.26028064,-0.22228514,0.05982573,-0.06308604,-0.6886393,-0.18829063,-0.4215591,-0.28800794,-0.22820075,-0.14640443,0.089919746,0.059756495,-0.49217647,-0.47034708,-0.2176625,-0.22066467,-0.2781428,-0.31577802,-0.43471646,-0.3535095,-0.63041544,-0.091985695,-0.33652976,-0.45372334,-0.488657,-0.4036221,-0.06032433,-0.31340423,-0.62330174,-0.34020448,-0.1777361,-0.29100716,-0.1094309,-0.2805368,-0.15915507,-0.44506437,-0.6148583,-0.41209498,-0.39225826,-0.2702081,-0.4429414,-0.28465292,-0.21444662,-0.47382334,-0.11484334,-0.047176145,-0.39853755,-0.26806638,-0.01035273,-0.27472827,-0.27775133,-0.41011268,-0.18849055,-0.2827934,-0.49040216,-0.14464766,-0.23489733,-0.23890826,-0.33986357,-0.5240742,-0.4824574,-0.40709203,-0.19527075,-0.3084861,-0.23597828,-0.27710414,-0.25219053,-0.2956856,-0.5362732,-0.44277298,-0.48098022,-0.36944547,-0.19955061,-0.26965696,-0.4423322,-0.4233787,-0.5059881,-0.6021518,-0.48013732,-0.43854806,-0.42283088,-0.4935739,-0.74319184,-0.55696416,-0.8360929,-0.61124134,-0.3238431,-0.37723625,-0.44333762,-0.6166044,-0.3777912,-0.57379204,-0.62070084,-0.75767773,-0.3376214,-0.06636315,-0.30644494,-0.45448834,-0.81112343,-0.68627805,-0.46702,-0.17407353,-0.113542594,-0.043238595,-0.059962932,-0.04736447,-0.21785754,-0.591361,-0.38381502,-0.21817227,-0.2924935,-0.1517653,-0.2909941,-0.28722626,-0.17889103,0.09398613,-0.26863763,-0.20355137,-0.3377194,-0.2852946,-0.3843771,-0.46480304,-0.04125606,0.07954392,-0.349338,-0.36698756,-0.4408518,-0.15630224,-0.44846293,-0.22221272,-0.054127157,0.16205795,-0.16067597,-0.39235082,-0.12786527,-0.42728597,-0.19107975,-0.09322083,-0.0659014,0.31095484,-0.16367246,-0.2754889,-0.17031918,-0.11868733,-0.16742894,-0.083906926,0.19270344,0.30721906,0.15603481,0.06910965,0.09928634,0.101102956,0.26129153,0.097786926,0.34054974,0.34418303,0.28606564,0.10468325,0.21614525,0.16541131,0.3208656,0.411638,0.47761592,0.5521839,0.38940576,0.39437637,0.3555908,0.19184877,0.41430518,0.46829778,0.7352751,0.7510927
