0.0011493216,0.008176437,0.023631502,-0.004420267,-0.01214101,-0.034607112,0.0018694946,0.010917744,0.10262705,-0.00924304,0.056425754,-0.027321955,-0.03479472,-0.020724747,0.02776162,0.014348472,-0.10126412,0.032164052,-0.00042387523,0.027531369,-0.0002984446,-0.029086865,0.0053033275,0.036925156,0.05016723,-0.029599087,-0.019109458,-0.042330187,-0.017165922,-0.019334234,0.04378096,0.04072236,0.0023699766,0.003165978,-0.011194097,0.030171191,-0.020508759,-0.016423745,0.018518103,0.0085788,0.034764912,0.025081564,-0.01301248,-0.023047302,0.042864885,0.019605596,0.023499642,0.039883938,-0.01383697,-0.014243062,-0.030222528,0.023399955,0.034536447,-0.007413839,0.0065255547,0.04142185,-0.027874384,0.012707345,-0.005815158,0.03449629,-0.010736841,0.00039475734,-0.018913565,0.001112358,0.021295995,-0.036766905,0.027059298,-0.032450218,-0.0068049533,0.009848535,-0.033315424,-0.008122286,-0.0309338,-0.008534789,-0.019822342,-0.03316112,0.015699299,0.0047018854,0.03233941,-0.034858655,-0.014517945,-0.028518017,0.023337767,0.013091311,-0.020811822,-0.038088813,-0.009415509,0.022740183,-0.007011537,-0.017486304,0.04053696,-0.015863165,0.021558324,0.008010917,-0.005968031,0.020102954,-0.0018537914,0.053300828,-0.0016679497,-0.027833804,0.0481718,0.034061667,-0.015308347,0.0060855066,-0.020671953,0.04222246,-0.024643585,0.04186691,-0.02111516,0.019848194,-0.002492941,-0.010130327,0.0068483828,-0.006792092,0.0077724014,0.020898644,-0.009964431,0.021364463,0.02727528,0.026151685,0.022890184,0.016082838,-0.007823817,-0.031052392,0.0025952694,-0.0041660895,0.00809325,-0.024378091,-0.018157806,0.027972253,-0.040939264,-0.0037326685,-0.013981587,-0.055160847,0.01904423,-0.013104639,0.024470767,0.023050606,-0.010492278,-0.036651637,-0.01740975,0.032766763,0.026865043,-0.024508137,0.004579466,-0.00033013234,-0.0090427445,-0.013965476,-0.014697145,0.015011523,0.00038273708,0.012306834,-0.019750468,0.026559163,0.026799908,0.0013052382,0.02394665,0.038911656,-0.015636828,-0.02950601,0.018227117,0.021195082,-0.022816457,0.03303217,-0.021789914,0.0029923904,0.06697554,-0.006972788,0.03558627,0.035752483,-0.008274547,0.017222466,-0.005100109,0.023604525,-0.03999121,-0.011147464,0.031933524,0.022608953,-0.005451642,0.024766752,-0.0031740477,-0.010937559,0.0019051947,0.022854788,0.010241936,0.031060603,0.018557996,0.02626444,-0.045629192,-0.011712124,-0.0021379315,0.02096603,-0.034177404,0.06368095,0.044709053,0.008926631,0.020114984,0.015169918,-0.035476476,0.03498839,-0.020810148,0.0052615595,-0.0007559257,0.014843159,0.014348969,0.021811353,-0.02995488,0.026835892,-0.012539875,0.039842714,0.0142465895,0.041771512,-0.015493539,0.011358585,0.009077749,-0.025716571,0.0392138,-0.02764644,0.016700242,0.0064297174,-0.045267604,-0.031880405,0.037901357,-0.026783332,0.020892987,-0.010908659,0.0056334436,-0.010195403,-0.023367742,0.008182017,0.014997257,-0.013565112,-0.0033085914,0.028077194,0.043141574,0.04748151,-0.018684458,0.03236208,-0.0012252432,0.0120998705,0.004572478,0.0029850972,0.050706826,0.0015132754,-0.017097041,0.024024194,-0.0061571603,0.0019391817,0.010464861,0.020820469,0.01748851,-0.006158158,0.0093504535,0.02931841,0.003219449,0.020843824,-0.0036328635,-0.005684172,0.030059548,0.025858615,-0.010998217,-0.021179946,-0.041303128,-0.0040291063,-0.02959092,0.012539978,-0.009549059,0.044080507,0.008174708,0.048978176,-0.008120669,-0.012911911,-0.010992303,0.034375,0.028901534,-0.011337909,-0.039996617,-0.028099636,-0.023280924,0.006073373,0.04454273,0.039993946,-0.013716783,-0.0151147535,-0.023093833,0.029147096,-0.03390904,0.025755545,0.0008974923,0.0027140158,0.03993314,0.040220197,-0.002030738,0.024151342,0.0138235,0.037203964,-0.0017290757,0.043238588,-0.00601894,0.0012222972,0.036959503,0.023351142,0.032368872,0.031330075,0.016678644,0.032971967,-0.00772334,0.0041894866,0.01929962,0.00409668,-0.0006349422,0.0030436122,0.012431063,-0.026591027,0.03542488,-0.0052846177,0.020526692,0.026918214,-0.020577708,-0.021539656,0.046048053,-0.008192007,0.003454177,-0.040137466,0.014566868,0.047356475,0.004447266,0.006651425,0.031909622,-0.0040054577,0.011718453,-0.037507705,0.00040606057,-0.066658184,0.000712527,-0.0019712425,-0.014586973,0.02520754,-0.04521407,-0.009629793,0.008325171,0.025046753,-0.03519166,-0.021879075,-0.012873867,0.0033863191,0.0057977075,0.041604884,0.017886305,-0.0039184513,-0.003663631,-0.012260291,-0.009909134,-0.024676068,-0.009823409,-0.0152909355,-0.0099548325,0.049220026,0.0458829,0.024497641,0.032085173,0.017998127,-0.032481298,0.022163725,-0.010646291,-0.024508847,0.0034157,0.034482,0.008127313,0.020976624,-0.017979208,0.003999915,-0.03072575,-0.037808932,-0.006307703,0.017408948,-0.011316444,-0.02304921,0.027262803,0.010221087,0.018586306,0.015656205,0.01886923,0.024791157,-0.021331126,0.0120120095,0.027733976,0.02879782,-2.246723e-05,0.03154004,0.0015898135,-0.012174137,-0.03580722,-0.024670605,-0.019980958,-0.028602645,-0.006191688,0.011400983,0.018785764,0.0020184047,0.030881124,-0.008031854,0.019391393,0.029239053,0.000372593,0.0248126,0.009847479,-0.0014798702,0.045333326,0.013056533,0.04424,0.04088523,0.006107542,0.06143577,0.028066749,-0.014971426,0.0078041996,0.017649142,-0.024247194,0.021054827,-0.001143319,-0.012056336,-0.022480305,0.014171056,0.015450204,-0.024171432,-0.034298856,0.03702423,-0.01709694,0.00045386542,-0.044966076,0.038036708,-0.11870646,-0.026175436,-0.008784478,0.012552466,0.023354348,-0.026980285,-0.03384996,0.037783954,-0.035163317,0.0018274464,0.02135417,-0.015597805,-0.010707649,-0.016866278,0.00025459417,-0.009125476,0.032754827,0.0069545256,-0.019916818,-0.0057900124,-0.035740715,0.0191176,0.01236715,0.027836561,-0.01730872,-0.026390508,-0.019267548,0.040340103,-0.012865059,-0.016902393,0.024757711,0.0017749593,-0.0032853428,0.01849918,0.027974857,-0.013189932,0.037857138,-0.004245371,0.030513067,-0.005362886,0.013078344,0.010339765,-0.009927704,0.00523916,-0.0037755307,-0.03124032,-0.0034560987,-0.013891178,0.030068442,0.023231385,0.0039275275,-0.0027949596,0.026866628,0.0098157255,0.013369024,0.011939127,-0.020254966,0.03545968,-0.026703585,0.0007113316,0.008725926,0.0150085315,-0.0069865524,-0.010903956,0.024444941,-0.007047542,0.011550893,0.054400943,-0.028775323,-0.01745469,-0.027696166,0.025476666,-0.01384838,0.0007071091,0.028106311,0.014008689,0.035458922,0.012630413,0.009565783,0.022857543,0.0049130665,-0.021433936,0.0033788024,0.007920725,0.02069872,0.012641437,0.027011175,0.023253357,0.020341959,0.012086845,0.017603375,0.0017180727,-0.026735665,-0.020340446,-0.005809861,-0.027590457,-0.020433139,0.0367285,0.005457486,-0.02701001,0.00134049,0.0019888617,0.018627677,-0.022159738,0.00076706795,0.021606436,0.017055837,-0.02761105,-0.009232925,-0.02809255,0.03902194,0.01992375,0.043705124,-0.02274129,0.018191889,-0.026940126,-0.02806977,0.036547992,0.03566679,0.030014254,-0.020060675,0.017776137,0.0084383795,0.00028940072,-0.03735774,-0.00026626114,0.00012399633,-0.0054313107,-0.012614385,-0.000817666,-0.0033633374,-0.033089556,-0.03426514,-0.031563282,0.03970977,0.0006696215,0.032465883,0.008257347,0.033758227,-0.028753929,0.015911939,0.027063511,0.04314556,0.027636902,0.011026989,-0.0004521693,0.0014435012,-0.011022728,0.0098620495,-0.008872014,0.006462449,0.025802791,-0.03718933,-0.020719003,-0.0012177732,0.020409776,0.05165641,-0.006534534,-0.002320467,-0.01144804,0.016329687,-0.019611297,0.026867408,0.004312468,0.04274594,0.029246874,0.023648959,-0.0004907184,-0.025272094,0.004707767,0.039380252,0.008680539,0.02982928,-0.016330663,-0.025823724,0.025268506,0.004392388,-0.02333649,0.00228567,-0.012598169,-0.01673251,-0.04336473,-0.015205339,0.05098791,-0.004613165,-0.0149607025,0.023145534,-0.013987499,0.020278959,0.03185676,-0.03940476,0.02982812,-0.018102633,0.018094601,-0.0099799065,-0.0019376774,0.06312011,0.046530627,0.03625771,-0.026216822,0.02711577,0.00013122539,-0.0040635397,0.041475266,0.0478926,0.023968654,0.025666215,-0.045606147,0.022780573,0.014337528,-0.001175267,0.011604629,0.0038249195,0.031165862,0.0059800707,0.01933936,0.009963828,0.033638176,-0.019729635,-0.0015168317,0.009279693,0.02310375,-0.024208799,0.03319423,0.0029004386,0.03372261,-0.01582343,0.04030638,0.016009044,0.010419364,0.014046464,0.020737696,0.009827603,0.016106935,0.012457305,0.018736716,-0.012708828,0.022771776,-0.01437182,0.008590262,0.017427983,-0.021785941,0.01731394,0.020131476,-0.0040374002,0.014819951,-0.006374977,0.039892603,0.030307814,0.01896435,-0.0013916865,0.01391825,0.0048454986,-0.021982793,-0.008831687,-0.01597566,0.023467775,0.0022971407,-0.0034052834,-0.015699843,0.009953366,-0.029499004,0.04014908,-0.026902521,-0.0065611964,-0.0073354635,0.0148673,-0.0040097535,-0.036070447,0.03598232,0.031867266,0.048984252,-0.003243011,0.010426236,-0.032836847,0.014540237,0.02635787,-0.020459069,0.0357273,0.026257448,-0.0010758422,0.02520936,-0.0076238653,0.009314834,-0.00033729197,0.033785786,0.0032008972,0.02018361,-0.013838017,-0.038306985,0.01895314,0.0014082259,0.007595215,0.0147193605,0.0063370992,-0.0039853053,-0.030865638,-0.02674208,0.006211747,-0.0121362535,-0.013251526,-0.0066666347,0.02160511,0.022982867,-0.008807352,-0.016148228,0.014556639,-0.019341875,-0.0074158334,0.020634621,0.030293232,-0.03436322,-0.004419004,0.008126986,-0.018367149,-0.011996359,-0.036670044,0.039806943,0.010765033,-0.023974754,0.053500615,0.024787769,0.077912524,-0.025465347,0.02183343,-0.06997062,0.019424848,-0.005120483,0.029425146,0.039570104,0.025831467,0.00393025,0.024939239,-0.022642227,0.015677182,0.023784526
-0.020985816,-0.028294582,-0.03009973,0.026708903,0.007898704,-0.010825887,0.0053276024,0.009413046,0.07919828,0.03510195,0.05977605,-0.005073969,0.027585963,-0.049309272,-0.027074788,-0.0055872076,0.010090049,0.058912575,-0.012533663,0.01991967,-0.014158256,0.040709294,0.019059176,0.0035209432,0.036795504,-0.053051356,0.0011187545,-0.016040355,-0.019758115,-0.064639255,0.04859458,0.070967786,-0.03596195,-0.025418105,-0.042526074,0.016645636,0.008106169,0.008090706,0.040523395,0.047182158,0.017656175,-0.035636317,0.00898424,-0.02304806,0.013945019,0.019659419,-0.005400619,-0.009109052,-0.00036384218,0.0038961095,0.02623723,-0.013278767,0.023846673,0.03342145,0.02658803,0.023379033,-0.010214502,0.033587333,0.03588416,-0.01823742,0.02791602,0.010103917,0.01910869,0.012065844,0.020835904,-0.0023656122,-0.00708826,-0.0065750293,0.00890896,0.020314608,-0.011123415,-0.0032426051,0.031933933,0.030652478,0.022174785,0.018779142,-0.020658007,0.029098118,0.031611443,0.01528036,0.0059706485,-0.006661588,0.02691321,0.024792943,-0.004196171,0.0036049974,0.031588826,-0.004101476,-0.0034692683,-0.023881393,0.04161672,0.0002052164,0.028871985,0.024210513,-0.016204396,0.01678582,-0.010480006,0.011456919,0.020522658,0.006023493,-0.022695072,0.0028352463,-0.0075860466,0.023519747,-0.006867809,-0.018679839,0.0098886555,0.026640799,0.040800735,0.006308312,0.041424114,-0.013633548,0.03601073,-0.0025540425,-0.0018382493,-0.027432268,-0.02696681,0.030284492,0.011507862,0.020517947,0.0197862,-0.010224838,-0.034154754,0.015965331,0.03647723,0.011275789,0.004627959,-0.009893983,0.0088027865,0.029954378,-0.055811457,-0.030266937,-0.018102013,-0.0057659177,0.017605372,0.019966438,0.013894766,0.004420794,-0.012391392,-0.02478423,0.016697664,0.041074857,0.00320119,-0.0011055362,0.042438973,-0.0057330653,0.013080966,-0.009266972,-0.06465348,0.015718445,-0.0112638995,0.0042957207,-0.01324276,-0.0052544954,0.028203653,0.0065248786,0.04182463,-0.020376923,0.025326889,0.0063762255,-0.025507899,0.029105054,0.012499466,0.019370412,0.033178344,0.009512859,0.011973153,0.030303912,0.01723321,-0.0070875403,-0.0148616675,-0.006582055,-0.0039580096,0.028715968,0.004238367,0.018324869,0.022179356,-0.028592343,0.015187568,-0.028143419,-0.034433126,-0.025365649,-0.026092501,-0.0017130477,0.018789802,0.012159134,-0.008461183,0.012118523,-0.00970524,-0.032968655,0.02851502,0.0045901877,0.0116983745,0.044807363,-0.015430384,-0.023943802,0.0038789816,-0.01658815,0.011577619,-0.022233581,0.022889953,0.031677295,-0.037466433,0.01007052,-0.0013542633,-0.0074871676,0.036968943,0.0006452545,-0.015892275,-0.005106487,0.0005522249,0.016860085,0.030006878,0.00046690067,-0.0030233301,-0.030689782,0.039479796,-0.021758158,-0.015164241,0.002917201,-0.005545152,-0.009855938,0.021688163,-0.028572734,0.007271384,0.019216044,0.014896418,0.01769942,0.012287113,-0.0019382517,-0.0009137588,0.014735425,-0.023547105,0.006028931,-0.0097845495,0.016757304,0.006475496,-0.0021450887,-0.013343854,-0.0066475966,0.0050361413,0.007536155,0.026493141,0.0051989947,0.013385495,-0.00060789793,0.002028909,-0.02333392,-0.025987417,-0.030301541,-0.008830671,0.0013177936,0.04283436,0.0003949912,0.0042687417,-0.021127375,-0.029829541,0.011885672,0.005600435,0.0136619825,-0.0050034085,-0.014989377,0.019042937,0.0015935812,0.025273284,-0.02812263,0.02941291,-0.0052870302,0.0149533935,-0.017468123,0.024745092,-0.030245662,0.025851047,-0.016241563,0.036084987,-0.022425918,-0.040663037,-0.02581184,0.041587006,-0.036216386,0.0022056007,0.04457632,-0.017469242,-0.007419834,-0.008200593,0.036587346,-0.019515734,0.02808398,0.011409114,0.020697894,-0.015641212,0.024631433,0.0028198392,-0.0002625137,0.0020659028,0.014152655,-0.005642865,0.020222766,-0.025045555,0.024606384,0.037248995,-0.0057975505,0.014685005,0.030817801,0.01639433,0.006634294,0.007071621,0.023732321,0.030781344,-0.020415477,-0.0008236018,0.01814716,-0.01961677,-0.03477528,0.032241404,0.009054666,0.0377637,0.025563,0.023982815,-0.028489923,0.023564283,0.009066028,0.01200808,-0.03924891,0.024630591,-0.030163808,0.034558658,0.036127772,0.04670316,0.018937347,-0.024779826,-0.026440052,-0.02056819,-0.01825432,0.0025472096,-0.0039755027,0.013789469,0.006679368,0.009728686,0.02399225,0.03204764,0.001476334,-0.005147112,-0.023813387,0.0274182,0.033679284,-0.01599142,0.036481734,0.032876726,0.011772557,0.013560079,-0.0026538952,0.021718156,-0.0058227605,0.0028982414,0.03304719,0.005867084,0.02614147,-0.010421206,0.0048740823,0.022104794,-0.029923452,0.02721816,0.009105258,-0.0033273976,-0.028773084,-0.026731621,-0.028230421,-0.0036298633,0.021988085,-0.00057062454,-0.020271515,-0.029843621,-0.0039237035,-0.006738679,0.007310269,-0.019979153,0.028482927,0.028786099,0.02218014,0.015700309,-0.0011078106,-0.008053966,-0.0064027864,0.032204017,0.008285021,-0.022076802,0.032773476,0.028961582,-0.0058060386,-0.019118609,0.014481259,-0.030904066,-0.03277126,0.038055938,0.016820965,0.008939358,0.032583956,0.018669643,-0.015346284,-0.020237004,0.011879354,0.0025216392,0.015688485,0.03330487,0.00887885,0.03170459,0.013017495,-0.002440615,-0.01607314,0.0046994253,0.01388701,-0.018923722,0.05622065,0.023317449,-0.0066511063,0.03387107,-0.0068731215,-0.05414319,0.032632794,-0.032183573,0.031003455,0.032565027,-0.007354432,0.0037738183,-0.090609625,0.00034207222,-0.060399078,-0.04072601,0.04081586,0.02670045,-0.03480206,-0.0052989284,-0.0010526401,0.016297894,-0.046550807,-0.020165417,-0.07958366,-0.06022111,0.014042958,-0.0038137122,-0.032864522,-0.007817809,-0.0033393065,0.02913905,0.0004649938,-0.024304595,0.018713206,0.03750866,0.036547497,-0.015621711,-0.010657508,0.03408742,0.034125276,0.034347497,0.018694457,-0.033919044,0.026453547,-0.024627259,0.006978103,-0.010735886,0.006206381,0.039609246,0.0021105676,0.023960108,-0.0067394464,-0.021061718,0.04596306,-0.01513963,0.03818905,0.007316199,0.032203563,-0.014598959,0.03161838,0.027568424,-0.017165694,0.03981066,-0.01973716,0.02825216,-0.013300277,0.018719159,0.014887637,-0.04396566,-0.027940731,-0.02221905,-0.029281344,0.006120528,-0.0009224724,-0.00521854,0.025395894,0.02170282,0.010291542,-0.024367211,-0.019692982,-0.01463371,0.0429205,-0.02503666,-0.00026538168,-0.024034938,-0.009011823,-0.03362482,-0.022379387,-0.017765196,-0.0003061439,-0.029425684,-0.0013322044,0.027340794,-0.027993906,-0.025454454,0.02761254,-0.01944039,-0.0058978996,0.0099806655,-0.004279442,0.019095527,0.033575706,-0.018289048,-0.03797788,-0.03328922,0.033978,-0.0019620934,0.018019041,0.021324027,-0.027150389,-0.0055150785,0.009860256,-0.03730884,0.006430978,-0.03600757,-0.024791675,0.0073652775,-0.0054488527,-0.009123227,-0.009825343,-0.0073402645,0.015767245,-0.014580027,0.011682767,0.028320234,-0.011400501,0.038122933,0.012319452,-0.027996445,-0.007911701,0.036965404,-0.041590765,0.024797957,0.006880373,0.028108008,0.0072098193,0.026053369,0.026228255,-0.002753964,0.0134866405,0.011562452,0.017550295,0.009809739,-0.019013138,0.029226799,0.016751409,0.00947803,0.021506412,-0.005463064,-0.0035183975,0.018863956,0.03352183,0.0009001537,0.048891652,0.0009677518,0.035131175,-0.036157712,-0.03188267,-0.037849877,-0.06433084,-0.017994413,0.03586726,0.011920807,0.004131794,-0.030290714,-0.014984552,0.025069367,0.03043532,0.026304577,-0.022262199,0.025771983,-0.026846068,-0.003605764,0.03233365,-0.003499965,0.008074115,0.015783077,0.05111616,-0.030046994,0.016068479,0.0073480452,-0.0038769285,-0.013305288,-0.017235804,-0.01931019,0.0097312555,0.016642885,-0.01958801,0.011045486,-0.0030051933,0.014080347,-0.006217903,0.018309224,0.005718716,0.020576429,-0.010411371,0.0145024145,-0.012790247,-0.03215967,-0.000704815,-0.002725824,0.03339503,-0.002281044,0.011812987,0.0039053108,-0.023830326,0.024306659,0.009277685,-0.008497507,0.008446151,0.0102221,0.027484192,-0.0072188326,0.041847035,0.034340337,0.026046753,-0.006295709,0.024728466,0.06179729,-0.020178095,0.0029181703,-0.012171077,-0.0111523485,-0.021337666,-0.0009545018,0.027050253,0.0009098588,0.022104744,-0.0019036132,0.028829785,-0.0049113915,0.013406634,0.0024703518,0.001780676,0.002655456,0.026364697,-0.013120056,0.016957525,-0.019415261,-0.006674893,0.020884674,0.0029776937,0.039394736,-0.0011538262,-0.0065006637,0.0120537365,0.018777858,-0.015873851,0.01344532,-0.025235247,0.0044686263,0.035730984,0.0169188,-0.0014119318,-0.014519801,-0.03369632,0.040283475,-0.020319242,-0.0076964283,-0.031601433,0.027515668,-0.016690716,0.026722008,0.017557852,0.03398522,-0.0029367502,-0.024093725,0.040991127,-0.014499058,-0.044243895,-0.03726596,0.011006707,0.03522896,0.013677159,0.031111391,0.010592989,0.011097414,0.0090349065,0.035758536,0.021561617,0.01216918,0.026688894,-0.032264013,-0.022707352,0.020938685,0.0074830437,0.023485487,0.024155553,-0.009939844,0.028536467,0.0028542157,-0.012038619,0.026458146,-0.035610884,-0.014318813,0.010456627,-0.015861232,-0.0115124155,-0.024871068,-0.036230404,-0.014032861,0.005324093,-0.016403753,-0.027802885,0.008295677,0.026576532,-0.013708397,0.004004602,0.015742557,-0.035128485,0.0066010985,0.0037808942,0.022261776,-0.017153144,-0.023785446,-0.022703413,0.0064898552,-0.027035067,0.022700774,-0.026548272,0.032001276,-0.027830558,0.022272808,0.014576604,-0.0047059315,-0.0032782021,-0.036128506,-0.0058668666,-0.009996711,-0.015753599,0.032848444,-0.0034377757,-0.033100206,0.023380542,-0.023577351,0.013767845,-0.0025020982,-0.015971564,0.050301872,0.040654484,0.053560596,0.0151028065,-0.031518154,-0.00708228,-0.011802219,-0.03471126,-0.0068695694,0.00053840125,0.033829868,0.012465637,0.013094271,0.026173932,-0.006076733,0.020462632
-0.006535873,-0.018405586,0.004385394,0.0030910226,-0.004038608,-0.0025615136,-0.0090894075,0.01189301,0.041726086,-0.0154284155,0.022074651,-0.046662636,-0.08032722,-0.0074568274,0.01389209,0.028668648,0.013866024,0.0018026978,-0.03228662,-0.084343985,-0.025378471,0.0017978483,-0.030385936,0.0001743387,-0.01342361,0.0013701433,-0.037922695,-0.011304527,0.03173316,0.06336671,-0.022447813,0.029426128,-0.016072953,0.019217517,0.016208582,0.053404033,0.019122552,0.008300637,0.005956819,0.020951815,0.045994043,0.00965014,-0.0024293002,0.020768289,0.027172092,-0.006628073,0.029704427,0.02474676,0.043453667,0.039234474,-0.013805647,0.009803836,0.029365115,-0.025819862,-0.035957474,0.05060774,-0.029921269,0.03600906,-0.022414302,0.005083702,-0.021467444,-0.012147049,0.03084067,-2.2785547e-05,0.0005240888,0.026185345,0.009368852,-0.008620879,0.02019248,-0.03691155,-0.026409794,-0.02757716,-0.030203437,-0.01046853,0.0028821018,0.009220679,-0.008392283,0.020110892,0.010568023,0.030743826,-0.005972931,0.012640977,-0.041267134,0.018421492,-0.029170016,-0.038807943,-0.010823379,-0.029988883,0.017187268,0.03316029,0.035594177,0.022506801,0.035888635,-0.028107224,0.0012107956,0.020097345,0.02621679,0.05719471,0.004557282,-3.9078328e-05,0.039000656,0.06527726,0.03263204,0.033447113,0.017541148,0.0133480355,9.088169e-06,0.032490436,0.019236827,0.026514068,0.04086513,0.023549896,0.02338097,-0.018315593,0.0055433423,0.045241307,-0.02226575,0.021241246,-0.028207459,-0.005557308,0.021743244,0.0014339738,0.022474011,-0.006191092,-0.02415813,0.01303703,-0.02762023,-0.030834472,0.030762423,-0.0056025437,0.0030932839,-0.03709616,-0.024736226,0.032860994,0.025102066,0.0012570276,-0.014918691,-0.018135374,0.023872457,-0.014907941,0.0037631327,0.011620535,0.016109169,0.009567071,0.0018512974,-0.013500438,0.015390217,0.012590278,-0.026122155,-0.019118402,-0.0340483,0.04227372,-0.02025825,-0.012135472,-0.03203708,0.0137494365,-0.011270307,0.027328612,-0.012177432,0.0068737394,-0.023870355,0.00393229,-0.02177103,-0.0129998885,-0.008934279,0.036537275,0.039745804,0.027962932,0.008393278,-0.00040014493,-0.0025657916,-0.014120693,0.032296654,0.012529887,-0.026173657,-0.01582848,0.013376611,0.0070456574,0.009382779,-0.004121628,-0.03487199,0.014778537,0.0037473103,0.00048280778,0.007612672,0.0070621544,0.008103752,-0.010874243,0.006220544,-0.00827961,-0.0072076945,-0.022711031,0.0017992147,0.027574167,-0.011199718,0.021576503,-0.022705933,-0.019045053,-0.0059264745,-0.016940795,-0.030953098,-0.0036565878,0.025223793,0.024002535,-0.013099644,0.00846474,-0.0288728,-0.011097256,0.0027518952,0.04250129,0.017235218,0.04904617,-0.026195964,-0.032435827,-0.025850598,-0.02633015,-0.0009473267,0.002225698,-0.017178118,0.0401841,-0.03993539,-0.035569448,-0.03315219,0.023993408,0.008441324,0.04163898,-0.0060729147,-0.030995445,-0.024808442,0.018674467,-0.024507405,-0.039418958,0.02909558,0.016366424,-0.019031476,0.0019494272,0.05365759,0.0008349355,0.023086108,-0.03409833,-0.0025857908,0.008026123,0.019405805,0.05534766,0.04210988,0.041633315,0.01827526,-0.020259107,0.033206817,-0.022154711,-0.028870843,0.008590972,0.0054507335,-0.010960097,0.0016373858,-0.039237183,0.0120693045,-0.016465547,0.012099325,-0.032035373,0.0485886,-0.018961236,-0.02133397,-0.027682828,0.010870541,0.0012350292,-0.0030428506,0.04639841,0.034748603,0.018838407,0.0051170676,-0.021529946,0.016857095,0.027389381,-0.026313966,0.01297042,-0.054688714,0.023628224,0.04909269,0.0044485317,0.019254882,0.015902331,0.031238686,-0.03773457,0.022768393,-0.012843086,-0.026437111,-0.0026752038,0.03246779,0.03548632,0.01964745,-0.005951371,-0.016930342,0.0023218072,0.0019982979,-0.0028537584,0.03843188,0.004526424,-0.010672184,0.0326936,0.0322283,0.035444643,0.0076359496,-0.026393581,-0.00042711623,0.014819046,-0.018750401,0.03428567,0.023380203,0.012581656,0.04381337,0.019297462,0.016660443,-0.010187355,-0.033116437,0.02798937,0.012481872,0.038851902,-0.01661883,-0.0027830221,0.014812854,0.031153759,0.010915833,-0.032495465,-0.0098082535,0.021665405,0.034805633,0.051541176,-0.025055123,0.012278755,0.020804849,-0.006192952,-0.02126777,-0.048331894,0.014866767,0.012030694,0.029367289,0.02224624,-0.031214692,0.00058381,0.019469315,0.020505577,-0.003057478,-0.0051346454,-0.018933505,0.027675908,-0.020015167,-0.011268792,-0.03726073,0.013451194,-0.012163396,0.010013131,0.019825444,-0.022224404,-0.01929359,-0.010029621,0.03219011,0.00808422,0.022399575,0.037168693,0.011245012,-0.028878266,-0.023617761,-0.034479275,0.027384903,-0.031394567,0.0032013871,0.0058212252,0.023179544,0.030479942,0.00041462266,0.028636368,0.015419058,-0.020678047,0.0072113485,0.01643086,-0.020141207,0.034163304,-0.033539582,0.017356873,-0.0011103048,-0.017949745,-0.02138352,0.02588765,-0.011043007,0.0012467225,-0.029855695,0.034693655,-0.025009373,0.029005738,-0.033664696,-0.024174975,-0.0108988825,0.014784367,0.022471678,-0.02691107,-0.0047596586,-0.00049740775,0.008314347,0.043607086,-0.0010275687,0.0139682945,0.006356934,0.010356641,0.017057437,0.020525517,0.041140106,0.009814401,0.046033774,0.029785149,0.030705128,0.022224717,0.0458238,0.021681886,0.022461405,-0.04276527,-0.011671837,0.006570754,-0.0070052207,0.037414435,-0.038876396,0.028725518,-0.008724298,0.009387512,-0.06554973,0.0264763,-0.0074534155,-0.0022294852,0.027622573,0.012218501,-0.016889438,0.023713728,0.05370726,-0.027194029,-0.0029619054,-0.037664626,0.030677164,0.017535813,0.06801831,-0.031211872,-0.0053992155,-0.035430983,-0.0064951023,0.012411232,-0.033845957,0.018488685,-0.019386925,-0.017211076,-0.003966898,0.025737742,0.004376239,-0.010179854,-0.0389368,-0.029647043,0.01801576,0.034733996,-0.021233113,0.012805521,-0.01655297,0.0392229,0.029190559,0.0031351666,-0.0045985216,-0.030601451,0.022295872,0.04784507,0.011687008,-0.015032388,0.007615563,-0.0062318663,-0.0055039297,0.024581961,-0.03043042,0.04319188,0.040043224,0.06516386,-0.0022406974,0.002828208,0.04669474,-0.01882981,-0.00033949144,-0.02171936,-0.034608398,0.008060542,-0.0037704348,-0.0070552533,-0.008182315,-0.0006100778,-0.01130104,0.060553763,0.002936495,0.013606369,0.017888138,0.0149337165,-0.030694984,0.0079346,0.047402013,0.03800723,-0.009351277,0.036036614,-0.011360729,-0.0007294185,-0.025753204,0.018917255,0.026353696,0.00042392148,0.02683788,0.014917756,-0.011414136,0.0011172622,-0.002522278,0.018125193,0.022318266,7.6596385e-05,-0.03324292,0.016655779,0.010450684,-0.03569211,-0.00034867815,-0.0018701465,0.004555183,0.011140869,-0.0018434871,0.040173262,-0.029049225,0.008370763,0.013553207,0.010963763,-0.024923831,-0.01877585,0.00632145,-0.0018630233,-0.020823518,-0.0026428134,-0.012739618,-0.0063970387,-0.026656613,0.052708223,0.028966554,-0.017757034,0.003466605,-0.014418005,-0.004887894,0.0057282746,0.03499518,-0.038626626,0.008598166,0.03184331,-0.01866094,-0.0037876838,-0.004516807,-0.015134417,-0.012076171,-0.037011765,-0.0047048694,-0.022846382,-0.030412238,0.019955946,0.030776594,-0.030152023,0.025120968,-0.022318467,-0.03311485,0.018218894,-0.027451277,-0.008397491,-0.01118175,0.016576909,-0.002543392,0.033606507,-0.0035123897,-0.048185878,0.003822717,0.026017709,0.044793475,0.025457267,-0.014222408,-0.0054846937,0.02913766,-0.012606581,0.018791318,-0.009790606,-0.024375897,-0.02697755,-0.033609696,0.0034678369,0.0332605,0.054366592,0.0041571246,-0.008489195,0.01568459,0.024756504,-0.0030943637,-0.0018700121,-0.024260683,0.01803633,0.043651957,0.020785883,0.019063264,-0.0036492592,0.0064573116,-0.015717039,0.031030424,-0.012295041,-0.006537467,-0.014369864,0.016355261,-0.038948063,0.0035952611,0.01959776,0.0015568595,-0.00012688665,-0.0050897924,0.0219949,-0.010539336,-0.007793083,0.045220386,0.014949203,0.014850091,0.008859033,-0.013317186,-0.022904221,0.004015654,-0.017628985,0.009802814,-0.028480666,-0.023188038,0.041202374,0.07462135,0.025352271,-0.009738147,-0.034181092,-0.005063097,-0.014519181,-0.0172141,-0.0030323646,-0.00086796976,-0.034625314,0.001719783,0.024095388,0.009663209,-0.0037215864,0.003231242,-0.013367308,-0.012806269,0.0012483762,-0.023133673,0.03827892,-0.025785431,-0.03364366,0.030210197,0.04000285,-0.021605758,0.0038938236,0.020617101,-0.011249106,-0.028834878,0.025053535,0.025367428,0.017125659,0.023660215,0.004388763,0.019590054,-0.007918827,-0.0062138936,0.028944703,-0.00035807316,0.042783275,0.033702627,0.002474455,0.0017427993,-0.02234554,0.020938065,0.009221166,-0.02654376,0.0154666165,0.00029926162,0.0010931835,0.038706094,0.026818147,-0.0060451287,-0.010289079,0.015318067,-0.043252334,0.027218152,0.04525269,0.056895368,-0.016878346,0.025240825,0.01486401,0.014704924,0.035113085,0.0209885,0.013554101,-0.01175392,-0.0008469754,-0.021772495,0.011837025,0.017915897,0.03557062,-0.039576363,-0.00023229886,0.0166404,-0.009558039,-0.0030366248,-0.006525783,0.015279315,-0.019765804,-0.006574709,-0.0045927977,-0.005998458,-0.029035494,0.018777441,-0.013969094,-0.027317194,-0.03976389,-0.009702143,0.0067330706,0.027178047,-0.028613169,0.013061423,-0.036351368,0.010623614,0.016628357,0.023390917,-0.025427928,0.00984164,-0.030783683,-0.03189834,-0.019539133,-0.02059896,-0.012855517,-0.003065976,0.007490755,0.028007492,0.027901214,-0.018771412,-0.0095870625,-0.028299797,0.028024167,-0.034653317,-0.018595573,-0.02027428,0.0070798667,0.031497728,0.0064613675,-0.012463955,-0.009391152,0.0039038355,-0.023020953,-0.022443337,0.0055261073,0.034247193,0.03183637,0.052800376,0.008611286,0.0263316,-0.06493572,-0.023497848,0.008515196,0.06636874,-0.008171751,0.03512637,-0.021845056,-0.01797913,0.02861523,-0.0129782725,0.0058130976
0.03572248,0.03594223,-0.0013956997,0.008161412,0.029876536,-0.02222767,-0.034523237,0.01107381,0.030005096,-0.0051697316,-0.00963393,-0.024420705,-0.023639092,0.040404454,0.036273554,0.01878717,-0.051300272,0.01625745,-0.009628881,-0.030604135,-0.05264593,-0.02944276,-0.03423868,0.02467016,0.04670542,0.026056789,-0.029773232,-0.0072300374,0.06212845,0.017302958,-0.008178518,-0.01605917,0.027617188,0.0030864333,-0.014577317,0.03067285,0.018807882,0.042852376,0.043928497,0.026946198,0.008720584,-0.005264675,0.0073357066,0.021875365,0.015567517,0.009856263,-0.015908115,0.037109695,-0.021176802,0.020019002,-0.012119043,0.015050802,-0.014987028,-0.011155547,0.027426433,0.027870402,0.030070044,0.004451944,-0.03171682,0.0011317796,-0.014135057,-0.010743508,-0.026540598,-0.012245982,-0.006382544,-0.028330771,-0.024499662,-0.012831216,-0.018932914,-0.021006472,-0.017287608,0.026903376,-0.026404265,0.022480346,0.009675559,-0.021678492,-0.020497927,-0.04335447,0.008145933,-0.006096824,0.03517435,-0.034918092,0.0070439284,-0.0047268583,-0.028569147,-0.03533425,-0.039020035,0.013628399,0.030383473,0.0016519,0.016283073,-0.018079683,-0.012080271,-0.028957808,0.0067140437,0.026404815,0.0023886156,0.04947479,0.026227918,0.0073670177,-0.015601436,0.007734976,-0.0027331014,0.028928583,-0.007190729,0.027798174,-0.027481921,0.0198728,-0.003330125,-0.014635813,0.04092091,0.011356747,0.00088131573,0.02470972,-0.0019871565,-0.014067535,0.006351978,0.017451834,-0.006211822,-0.019607944,-0.01584163,-0.022908278,-0.008738004,0.026853539,0.005799307,0.021288278,0.018083898,0.020186786,-0.003842879,0.009222799,0.038974073,-0.034836367,-0.018734358,0.025760558,0.026831204,-0.0056375437,-0.00535013,-0.015620457,0.017752374,-0.016013728,0.034211557,0.0018003465,0.028605063,0.029421993,-0.028621715,-0.010915356,0.00092491077,-0.030175446,0.012578853,0.028855825,0.025207054,0.004771618,-0.017001886,0.037405457,-0.013816673,-0.0204989,-0.019199386,0.017320761,0.0008364231,-0.011825463,0.011377569,0.012525684,0.0012375462,-0.013706471,0.013975577,-0.0034537194,0.00937873,0.004201369,0.011455499,0.03786143,-0.027527781,-0.0049887756,0.04238668,-0.030308507,-0.020760683,0.027084153,0.0104911355,0.019780837,0.010654591,-0.00056853425,0.02059008,-0.0016736165,0.012614904,0.02873663,-0.027676627,-0.0037966482,0.02693824,0.02922589,-0.020714022,0.02776892,0.023458522,0.015260418,0.034035828,0.010571754,0.022663422,0.029977795,-0.018697564,0.025557492,0.02784325,0.011135957,-0.0074296193,0.008713286,0.0051981653,-0.030582279,0.00072103343,0.042000167,-0.005878224,-0.015358214,-0.0075458954,0.0052593676,-0.023369562,0.01571392,0.026724508,0.030370664,0.028491445,-0.0013832038,0.0399188,9.484792e-05,-0.0076537277,0.021303842,-0.042751566,-0.0049022986,0.017693805,0.023268174,-0.019460771,-0.028893916,0.028446265,-0.031577583,0.008060024,-0.030685714,-0.029324515,-0.024702618,-0.008219298,0.011996101,0.020070035,0.0033309392,0.008816196,-0.0068886974,0.013838295,-0.0014202216,-0.026645418,0.031821083,0.0243172,-0.0013706922,0.011929517,0.033649217,0.022763295,0.015652103,0.015157985,-0.030485261,-0.029037379,0.025488416,-0.026761811,-0.0030970997,0.027410217,-0.035757,-0.023138903,0.0058797696,0.020059915,0.02532549,-0.028929114,0.030871967,0.031998962,0.0074029975,0.021558316,0.033800792,0.012370166,0.034690026,-0.0064307703,0.0072681615,-0.018875819,-0.031451546,-0.008095964,-0.0033523256,-0.02490089,0.003682761,-0.026277525,0.036529332,0.013582401,-0.03160598,0.0068702647,-0.00028444096,0.029908894,0.005006606,-0.028882053,0.029604917,-0.026896507,0.0054293624,0.0010240814,0.013359144,0.022598872,0.02846506,-0.017654004,0.00018988468,-0.005610941,-0.013361172,-0.01317002,0.0027679687,0.010354526,-0.019989097,-0.025027595,-0.005832798,0.0071423743,0.011321587,0.004441738,0.041775882,-0.026308853,0.017852435,-0.033842005,-0.0034107775,0.027578626,-0.006692572,0.017001744,0.005469086,-0.0136031965,0.018678298,-0.0065340623,0.027749859,0.02581961,-0.018458493,0.011602183,0.008135656,-0.0016663157,-0.029722506,-0.010813008,0.03130911,-0.0007486888,-0.020493766,-0.030781412,-0.01752779,0.02110457,-0.029624127,0.022603348,-0.020168316,0.019903725,-0.022631347,0.0017264687,-0.016518673,-0.024393931,-0.0010309488,-0.02278703,0.012716777,-0.032228343,0.0059751133,-0.02693411,0.0115117235,-0.020190597,0.020646952,-0.021381939,-0.026991487,0.006417234,0.020209737,-0.020980848,0.019984784,-0.01097646,-0.015682502,-0.025933415,0.038387526,0.0445384,0.032843262,-0.021130577,0.005151559,-0.020457085,-0.009579396,0.0016982743,-0.0118142655,0.023241116,0.008552365,-0.035810664,-0.002644237,0.023670597,-0.015012079,-0.028231762,-0.035023812,-0.019415569,0.010160976,0.0174291,-0.0036500606,-0.019991735,-0.005123008,-0.009206692,-0.03424797,0.00424517,0.020868389,-0.014221562,-0.00911086,0.009552215,-0.027737156,0.0065584993,0.0033880176,-0.024041805,0.004747855,0.026730174,0.0059949243,0.03190076,0.016948992,0.028636003,0.02042117,0.038646866,0.01717339,-0.025708143,-0.0053848214,0.01965444,0.015531484,0.0064533977,0.008255511,0.032585476,0.013877164,-0.030483935,0.016249198,0.034703888,-0.0031754232,-0.020033816,-0.015154787,-0.02458439,-0.013268209,0.007242875,-0.022190563,0.023526123,-0.0138858305,-0.029277394,-0.0032538434,-0.051121455,0.0020029522,-0.014803284,0.043746512,-0.01502735,0.009057256,0.043201692,0.008837704,-0.039796274,0.021047447,-0.041167278,-0.018230721,-0.020497601,-0.030129172,-0.0011944756,-0.0059923376,-0.02515339,-0.017575242,0.027530171,-0.016673647,-0.0149197625,0.02625265,0.018254545,0.020310754,0.015603845,-0.01618943,-0.017514551,0.012387026,-0.009193609,-0.030842224,0.021248618,0.01937062,-0.009334968,-0.0010460531,0.0035743155,-0.007974157,0.009901882,0.011844169,0.009881082,-0.022802878,-0.012557099,0.0019216276,0.0085124085,-0.024438906,0.00817123,0.010481882,-0.020415338,-0.005121978,-0.01006533,-0.0066587757,-0.027849331,-0.0013839118,0.012291065,-0.0052343193,-0.009240309,-0.022940613,0.032715205,0.03866603,0.009473138,0.0029457693,0.027462991,0.0113310795,0.03384162,0.03195172,-0.00011182605,0.037997074,-0.014689011,-0.01627959,-0.01695525,0.032537322,0.02688247,-0.021628937,-0.008279237,-0.02782188,0.031079926,0.016879808,-0.0037827545,0.0019027058,0.028027315,0.03151933,-0.01051261,0.018931804,0.026200326,-0.00040715776,-0.026651619,-0.022164151,0.032037906,-0.010964869,-0.023136351,0.03164547,0.022182196,-0.021888994,-0.0006062698,-1.999983e-05,-0.01773047,-0.030787725,-0.0043812105,-0.026312219,0.0064490926,0.0023161955,0.026305223,0.029302906,0.0047883764,0.010906368,0.013140824,0.01232886,0.003486845,-0.025890818,0.0021977338,0.028049074,0.03404524,0.035990894,-0.008724013,0.0137559865,-0.016496211,0.0071398397,0.018645393,-0.01781685,0.015750518,-0.032641735,0.03856146,0.01692357,0.015325154,-0.0073241005,0.035600882,-0.004053436,0.013086015,-0.0021372184,0.033236645,-0.028010689,0.0057537016,-0.007471888,-0.039470192,-0.011837376,-0.017433986,-0.013622268,-0.0042179497,-0.028037786,-0.020549193,-0.0230101,0.015159571,-0.019717516,-0.011261089,-0.02775532,0.030597769,0.00037702173,-0.0025706354,0.018793613,0.04812841,0.021354275,-0.037591334,0.024538485,0.027193796,0.02041449,0.026324522,-0.02247535,0.023005137,0.032810304,-0.027821641,-0.027061624,-0.0033917732,-0.022107882,0.007784777,-0.00212618,-0.030755233,-0.008712592,-0.00654238,-0.012807266,-0.01272505,-0.02879189,-0.01088207,0.020713976,-0.017724574,-0.027474018,-0.011546681,-0.02724506,0.0059593986,-0.013703462,-0.030914018,0.0034284364,0.029539224,0.002778592,0.014264321,-0.023154598,-0.006907251,-0.023964986,0.013767195,-0.007600056,-0.0054732584,0.00038555518,-0.021125209,0.02028077,0.023371201,-0.010644272,0.013700202,-0.022671573,-0.02098739,-0.013324674,-0.019288056,-0.0080625955,-0.011881786,-0.031202283,-0.0012358871,-0.011394029,-0.007345583,-0.030030448,0.016659128,0.02328167,0.010631326,0.016704103,0.0009669312,-0.02596419,0.006003037,0.0061272606,-0.0057374923,-0.008551904,0.0067820004,0.03772923,0.02515536,-0.01892043,-0.022472205,0.026690869,0.020038363,-0.03470685,-0.010840996,-0.009258021,-0.025325797,-0.015451345,-0.023610063,0.007931494,0.035166696,0.02009567,-0.025187787,0.028246673,-0.014612234,0.02477271,-0.02912739,-0.0035010206,0.022291243,0.017050494,-0.026477478,0.008553872,0.023467321,0.017508546,0.0025224034,-0.013712382,0.027873974,-0.015294212,0.018314304,0.027576199,0.012949288,-0.023530595,-0.0090093035,0.013726195,0.0038592976,-0.02300885,-0.0031809038,0.0054701976,-0.013337907,-0.004936664,-0.020249447,-0.007877618,0.017570999,-0.027755348,-0.014193835,0.007466244,0.034142364,0.006822499,-0.002221064,-0.024140796,0.005393276,-0.031052759,0.038517755,0.028849037,0.020124236,0.012863646,-0.014823181,0.010972366,0.019922776,-0.018621292,-0.010963364,0.032392915,-0.008729678,0.006687363,0.020314155,0.007962688,0.0043024304,0.024076087,-0.033134073,-0.019153878,0.009275992,-0.024467694,0.018441757,-0.018496977,0.03075223,0.021619227,0.034696978,-0.016490448,-0.025989098,-0.008598746,0.0072933426,-0.02513778,-0.031090716,0.02104153,-0.023313403,0.017010411,0.023180893,0.02188747,-0.025810385,-0.01539138,-0.036054164,-0.01866687,-0.008728149,0.016117511,-0.009507705,-0.0066282237,-0.03516915,0.025794467,-0.009125606,-0.030036312,-0.025622075,-0.0040045683,0.023958957,0.036063727,0.016991546,0.016985975,-0.0073548304,0.023385648,0.026448969,-0.008636307,-0.02626806,-0.014981698,0.024899334,0.0043035694,0.013388776,0.0010427738,0.033239007,-0.017796857,0.048328303,0.015881667,0.051957887,-0.014155735,0.004149672,-0.013360983,0.004666131,0.0066460287
-0.019897645,0.016808158,0.018848453,-0.035329968,0.017767934,-0.023312423,0.03436048,-0.024330512,-0.0020459243,-0.019140698,0.03046472,-0.035418853,0.013046662,0.035810094,-0.031670388,-0.024540097,-0.0019662748,-0.0409963,-0.028088422,-0.060833283,-0.041991126,-0.038241588,-0.0059834267,0.05863294,0.026742341,-0.03763817,-0.010346032,0.058676172,0.036723945,0.033658117,0.042475034,-0.020750338,0.06171874,-0.0064269775,0.051928774,-0.017142173,-0.044562176,0.022160197,0.033170104,0.016666299,0.005502913,0.033780735,0.03403408,-0.0008262027,-0.0021839312,-0.004622924,-0.00648573,0.0028518273,-0.0019806754,-0.00205788,-0.02120743,0.011449735,0.010448009,-0.005910185,0.012743618,-0.013178763,0.0066393907,-0.01832084,-0.019625114,0.022119187,0.023369208,-0.026219923,0.016130267,-0.02084843,0.009720166,-0.04353278,0.011721757,-0.009279803,0.022451615,-0.032067746,-0.027791806,0.018721197,0.034734074,0.022847263,0.031041253,-0.038965996,0.020068336,0.004320791,0.0019848023,-0.030145228,0.0061133592,-0.035618544,-0.031134238,0.008570906,0.013906147,-0.0057411115,0.019942004,0.007893052,0.02763025,-0.024024032,0.029165367,-0.000113156835,0.022979798,0.050726395,-0.006388475,0.049571317,0.043731287,0.004999884,0.045467343,0.004814652,0.022148293,0.004010735,0.0009710031,-0.033481922,0.0035849921,0.017572083,-0.027265405,-0.01456965,-0.0066276267,0.01589584,0.021624414,0.017644761,-0.019321907,-0.020990161,0.03460075,-0.022799188,0.036106832,0.0009287114,-0.00021365134,0.017677423,-0.02896511,0.02441079,0.0060287723,-0.029586669,0.005269126,0.009760498,0.035919238,0.011375481,0.01608694,0.014005267,0.015332052,0.015257932,0.013916089,-0.043812,0.0039352146,0.0027950613,0.0036158562,0.002596638,-0.002916882,0.047127407,-0.00980179,-0.009151498,0.024187507,0.0057374034,-0.016854081,0.01666893,-0.03486829,0.03068449,0.040816706,0.007923712,0.025708206,0.030134687,-0.02052397,-0.0005587412,-0.0016684339,0.025563302,0.021160422,0.025802536,0.012376186,-0.007725666,-0.0015438857,0.005371377,0.024871834,0.03634288,0.031676035,0.02238131,-0.01797058,0.0016180301,-0.0029495691,-0.01889335,0.018512234,0.021599123,-0.0008397746,0.04068753,0.016510058,0.027206967,0.023366356,-0.010013703,0.027641555,-0.026866697,-0.016902434,0.004034497,0.015032006,-0.0005479985,-0.0096860295,0.009823271,-0.026294405,0.029916836,0.0019954317,-0.0012590517,-0.029748408,-0.028904397,-0.015826065,0.005140337,-0.04779697,0.053123664,-0.044455834,-0.021345628,0.010598102,0.019991875,-0.031062366,-0.002887109,0.01372556,-0.0014419925,-0.0020701578,0.040674508,-0.023210645,0.018254861,-0.028368961,0.009531577,-0.0075284275,-0.0046949023,0.013779937,-0.039816108,0.013175553,-0.011027792,-0.00014591508,0.040082358,-0.010799683,0.006158178,0.015023406,0.017752234,0.035621434,0.019415744,-0.018118175,-0.010309258,-0.030610103,-0.0048108343,-0.011871924,0.007106479,-0.023699587,-0.015190867,0.003222543,0.020340845,-0.021744357,0.007135037,-0.006288915,0.03420104,0.01716991,0.01834734,0.033879478,-0.02949419,0.019610867,-0.029642023,0.027491556,0.024535853,-0.033549674,-0.023729363,-0.008840607,0.028696824,-0.0019382045,0.014237664,0.021344345,-0.0229982,-0.028890345,0.007738534,0.004225032,-0.012446555,-0.026814671,0.034105297,0.016490052,-0.008852945,0.011980637,-0.03029122,-0.007938797,-0.024676302,0.008089077,0.0051304684,0.009927737,0.03729636,0.010684006,0.010915815,0.022322644,-0.010620494,0.0066873585,-0.035008635,-0.006740184,0.0220905,0.018062938,-0.033249766,-0.010027569,0.040976536,-0.0018900008,0.029023767,0.028910926,-0.01805725,-0.010863714,-0.0152165545,0.0504213,-0.021159727,-0.027011396,0.016724568,-0.03037386,0.007372274,0.005749994,0.009626653,0.012896598,-0.02513391,0.02983314,-0.018904597,-0.0048844027,-0.021753678,0.019336391,-0.016370533,0.010347074,-0.020029228,0.023166249,0.0012243119,0.022030566,0.042418472,-0.031041322,-0.022357719,0.02058699,-0.020907667,0.019840682,-0.0037336696,-0.030939657,0.031583622,-0.04355236,-0.0005875646,0.0006908671,-0.0037653486,0.023216335,-0.030803027,-0.035854608,-0.013490125,0.043103747,-0.0039011792,0.0069978517,-0.025144247,-0.016820919,-0.046208363,-0.053079255,-0.044672184,0.05926694,0.035218533,-0.027456777,-0.019871226,-0.035222284,0.0049267216,-0.042197414,0.018418485,0.02933512,-0.02576786,-0.028507851,-0.018523516,-0.03610288,-0.022367075,0.009885385,-0.018802196,-0.028102234,0.023735134,0.00283578,-0.00888499,0.0072644735,-0.0061532073,0.009729408,-0.021713907,0.023223989,0.007911346,-0.004790989,0.00036474978,-0.000616481,0.0070264656,-0.0038275549,0.010795468,-0.012691673,-0.005202883,-0.015862226,0.0031297957,0.0222047,0.03143772,-0.03159547,-0.023312358,-0.03990738,-0.012867525,0.027826512,0.009111038,0.019387376,-0.017279178,-0.0041685347,0.01546178,-0.0032628835,-0.0043199244,0.028353192,0.012654883,0.015940122,0.011944161,0.029065797,-0.024429783,-0.033451352,-0.009187918,-0.0049299495,-0.0074770097,0.032002524,0.032885436,-0.022548707,0.024156736,-0.014827083,-0.031886373,0.020554708,-0.030814834,0.019002743,-0.031203646,0.052273657,0.029601676,0.0064544305,-0.026819525,-0.020161578,-0.006574634,-0.010763074,0.045971252,-0.010710592,-0.0026543937,-0.05252092,-0.02858794,-0.013903698,0.0046408116,0.05587181,-0.02170688,0.03338291,-0.052070655,-0.026383512,0.005774532,0.019981422,0.052215885,0.036101304,-0.028866604,-0.021362603,-0.024987204,-0.043482635,0.018904286,-0.028957862,-0.015475314,-0.06684547,-9.532703e-05,-0.03348271,0.04590675,0.0644832,0.0711865,-0.03443565,-0.03289978,-0.004692541,0.013258469,0.03296447,0.030416409,-0.011683582,-0.012143401,0.012677342,-0.01873014,0.03311583,0.031655088,-0.022744048,0.033511814,0.03792047,-0.012214049,8.3452716e-05,-0.01182604,-0.026442112,-0.025132198,-0.0055155954,0.03756223,0.00582918,-0.018950084,0.036999382,0.008590596,-0.0069375113,0.018625904,0.021119202,0.025797725,0.021438852,0.023671694,0.011923552,-0.022019964,0.0073201316,0.03298547,-0.00075514143,-0.022755701,-0.0147732375,-0.007901328,0.031430602,-0.01140441,-0.02795261,-0.014305317,0.010859455,0.01546551,0.01923663,-0.0041740146,0.018456612,-0.0104911225,0.027981108,-0.029240679,-0.010946915,0.002524022,0.03496614,0.03952505,0.026266646,0.011348272,0.02032985,-0.013074788,0.016322976,0.03289271,-0.017898638,0.02498923,0.032750864,0.015618454,0.004088788,-0.021595262,-0.008643933,0.02540278,-0.014817567,0.00021588504,-0.0043992405,-0.029727139,0.021670448,0.023466423,0.035298076,-0.015062406,-0.02608359,0.021585453,-0.0061894823,0.0027214647,0.032048985,0.040005732,0.031719916,-0.015703326,0.020600839,0.027100902,0.013200864,-0.009350958,0.0038164586,0.016487753,-0.02802999,-0.031312075,0.016695857,-0.017212408,-0.0014667108,0.0133316675,-0.0034765776,0.017271947,-0.013831951,0.0069355974,0.042494018,-0.025447356,0.032543737,-0.026456144,-0.019901179,0.028783998,-0.031794906,-0.017882472,-0.018167028,0.04091398,0.01759699,-0.01184367,-0.019166104,-0.004396924,-0.0023975517,0.05702785,0.013732244,0.008210588,-0.02723966,0.058649115,-0.049893405,0.039400432,0.025385762,0.027811414,0.018410683,0.03485401,0.025336808,-0.0013562044,0.012183551,-0.028211063,-0.031680062,0.053656373,0.017832397,0.016443267,0.0074580545,-0.01619612,0.0021567254,-0.0045414683,-0.01196197,0.03121458,-0.0007685518,0.0005522669,0.023487158,-0.02917346,0.012182518,-0.00044994,-0.0152388895,0.037149657,0.055915654,-0.02504662,0.038612206,0.030737607,0.030104445,0.001466695,0.018139541,0.040888704,-0.0001299783,0.017708119,-0.011384704,0.022855515,0.040314987,0.02290199,-0.011517606,0.020484528,-0.013132039,0.0033743177,-0.028923288,-0.026345273,0.0064569903,0.031006701,-0.02977111,-0.0016548313,0.024202608,-0.026565501,-0.005130041,0.01563394,-0.0011951108,0.028413055,0.0013441691,-0.02353648,-0.015187156,-0.033533666,0.00886724,0.0021319897,0.01718052,-0.0060890736,0.059075244,-0.00663192,0.021879569,-0.026905281,0.005685255,0.008697754,-0.002790665,-0.019264413,0.023731014,0.031735756,-0.006898163,-0.011442251,-0.022428047,-0.031569425,-0.003384219,-0.029105898,-0.029042602,-0.006381911,-0.0014454115,0.012871117,0.030531006,0.0057858797,0.01709655,-0.0076632183,0.0247693,-0.0072068404,-0.011704062,-0.03297855,-0.009822421,-0.032333907,0.030366722,-0.005978815,0.02136897,-0.005376014,-0.027112108,0.03360948,-0.019747168,0.02313651,0.016529486,-0.0047781784,0.027960628,-0.031064011,0.021185594,-0.029812478,-0.02046917,-0.02337579,-0.028935691,0.027555808,-0.025197046,0.0064251754,0.019782947,-0.0057176175,0.0040268274,0.0064551784,-0.0006477893,0.016891532,0.028982213,0.03682407,0.031247431,0.00022759345,0.019062767,-0.025813686,0.003831555,0.0042415257,-0.0041141943,-0.028148437,0.03569131,-0.0011130887,0.03785278,-0.008149571,-0.017770473,0.041955013,0.03615941,0.0042197504,-0.00852562,-0.012405666,0.008786567,-0.017250393,-0.03663863,-0.026200604,-0.017500518,0.014230377,-0.013721741,-0.009047462,-0.013489395,0.006304786,-0.022133399,-0.0046815923,-0.026456466,0.008479554,0.02182556,-0.010392154,-0.022795977,-0.016885204,-0.017363947,0.025681641,0.00064675143,-0.021137748,0.004008038,0.013241662,-0.027938936,-0.030574596,-0.027995555,-0.037786644,0.01688132,0.018700657,0.031436764,-0.014376647,-0.00873495,-0.053581584,0.019075684,-0.039605904,0.011468133,0.0045525697,-0.012700752,0.02983043,0.03066151,0.04525146,-0.022256002,0.026996179,-0.02174836,0.025835797,0.006278743,-0.040475097,0.062074516,-0.041327517,-0.00673511,-0.026100338,-0.03302008,0.0023696404,-0.022794172,0.024881022,0.023628315,-0.011908572,-0.00058118615,-0.013170827,0.014782587,-0.021589952,0.027950227,0.008188177
0.034691513,0.012236716,-0.012003243,0.00033363598,0.03193081,0.013433682,-0.035902034,0.010012065,-0.041301265,0.026212515,-0.013069775,0.006036151,-0.015058489,-0.02108362,0.0010564881,-0.04478593,0.021029405,-0.007113,-0.02605936,0.029397728,-0.009431733,-0.013232732,-0.03423958,-0.019317973,0.015135853,0.027817668,0.028495852,-0.033418704,-0.009804936,-0.008026069,-0.009510381,-0.014617325,0.009923545,0.020167146,-0.00587121,0.019554412,-0.027255468,-0.035369474,0.036518548,0.011425321,0.020521574,-0.027905216,-0.03146759,0.013624653,-0.033395298,-0.025992952,-0.035192292,-0.024279803,-0.0059957444,-0.034910895,0.026469402,0.035310905,0.015421049,0.0067690657,-0.015745537,0.023937033,0.03206212,-0.01749971,0.0239694,0.025529973,0.017705007,-0.031496268,0.0043864693,0.03220796,-0.010773058,-0.01772539,0.011545093,0.011144829,0.028358907,0.02276789,-0.02784081,-0.0029052903,0.002134214,-0.013608082,-0.012240601,0.022952149,-0.02302714,0.0070479414,-0.02728237,0.00026093618,-0.029029539,0.004369304,-0.023067774,-0.024729755,0.019955104,-0.034057572,-0.024839884,0.0006430995,-0.011027709,-0.03337054,-0.03234069,0.00765474,-0.01827619,0.00594995,0.0052216314,-0.0028172291,-0.026265837,-0.002155996,0.01450344,0.011967522,-0.010952621,-0.022049978,0.02845351,0.0030418283,-0.00058861356,-0.0033572488,0.009342702,0.026036741,0.013937804,0.004630002,-0.020140065,0.0038230438,0.030739803,-0.0031730898,-0.023040298,-0.012294269,0.028135892,0.00930685,-0.005605295,-0.020455068,-0.007940595,0.026807152,0.001913179,0.025989745,-0.033460148,0.034012195,0.03103301,-0.0088590095,0.022137351,-0.020669863,-0.028413568,-0.03151926,0.027108088,0.02032101,0.030463906,-0.02414107,0.03510879,-0.00785662,0.0316263,-0.008342647,-0.02602339,0.025609761,-0.023437928,-0.03674969,-0.035875555,0.007334959,-0.023134505,0.025551239,0.0101323305,-0.0046663,0.02816007,0.015563921,0.0011069158,0.009000377,0.0039709327,-0.032057494,0.01692506,0.021450397,-0.019909946,0.0021963508,-0.029679567,0.014325476,-0.022071227,-0.0020378376,0.024347527,0.01938035,0.015754333,-0.028478004,0.0022971726,0.034706518,-0.021767927,-0.03349969,0.014137634,-0.031144246,-0.000198382,0.0079635475,0.02147398,0.022907408,-0.008893062,-0.0022746972,0.0003866628,0.019190164,0.027180174,0.032593254,-0.02227596,-0.0035225984,-0.0116770975,-0.03277951,0.0024729066,0.03294534,0.004044977,-0.0114902435,-0.03157185,-0.019398602,-0.0021749514,0.024526015,0.025186764,-0.0005119579,-0.004094041,-0.020430543,-0.030273391,-0.014059823,0.0041241143,0.009545277,0.027605867,0.027642587,0.012209441,-0.026780259,-0.010950926,-0.031858504,0.020353204,-0.01769317,-0.017666148,-0.010843039,0.010835621,0.029263053,-0.013263183,0.015974317,-0.006221878,0.033424318,0.03749591,-0.03275348,0.03251415,0.015374769,-0.02018812,0.02082573,-0.026584875,0.02288494,0.00852911,0.025470085,-0.020085284,0.006810625,0.0039174454,-0.029922357,-0.0124303335,0.027375082,0.026522866,-0.014505985,-0.0016026602,-0.031625714,0.026266713,-0.027153427,0.03375957,0.023267902,0.00023346723,0.027589126,-0.011673116,0.010336727,-0.024516376,0.021588271,-0.001699568,0.004621657,0.0015544725,-0.0132506415,-0.032067,-0.0023715263,-0.035850517,-0.033342026,0.025531096,-0.006970651,-0.009089264,-0.005665427,0.0296853,-0.008849452,-0.006068727,-0.021287626,0.008169428,-0.008669804,0.016912816,-0.034444,-0.027953932,-0.026742987,0.0051625147,0.00044818092,-0.0256227,0.020611808,-0.0170385,-0.023874037,0.034693398,0.024846721,0.031031117,0.006417755,-0.0076514296,0.035621442,-0.010731723,0.022386104,0.01601642,0.0068914834,-0.022116078,-0.00019293836,0.018178934,-0.019634001,0.028836291,0.022094954,-0.0022000915,0.01652496,-0.035317615,0.022391424,-0.02767606,-0.029573038,-0.011001567,-0.031383794,-0.012161352,0.0008201055,-0.02408408,-0.0089067975,-0.0040046307,-0.026747098,0.009604605,0.017844496,-0.03341311,0.024336198,0.012060969,0.014278098,-0.0063624526,0.0334129,-0.014764572,-0.017661814,0.027593061,0.029492486,0.021206785,-0.011358183,-0.012077211,-0.028585935,-0.020683194,-0.015828745,0.0083051985,0.0005549213,-0.031993967,0.03592647,-0.028524289,-0.019467728,-0.0038585206,-0.016679019,0.0060793334,0.029395264,-0.008058151,0.02639133,-0.011276295,-0.011873277,0.034364637,0.017923683,0.011626893,0.024957536,-0.021899689,-0.028023453,0.0070277867,-0.0023005821,0.036205843,-0.014396143,-0.0019662094,0.0082701165,0.00717145,0.025766967,-0.0070075174,-0.016365562,0.013633387,-0.0020633761,0.033335514,-0.021870298,-0.020621331,-0.022043888,-0.026678182,-0.00092372467,-0.025399376,-0.026031638,-0.01650304,-0.006793503,-0.0279691,-0.0060783173,-0.027234737,-0.028128462,-0.027322868,-0.011062964,0.01643356,0.009017585,-0.018747218,-0.015261441,0.017660934,0.01189649,0.026889076,0.019984586,-0.03507954,-0.017618075,0.018460374,-0.013047162,-0.03533578,0.031300634,0.020547599,0.031710576,-0.012259154,0.008150554,-0.0066151684,0.017838117,-0.014481954,-0.0015294509,0.015347412,0.0042703566,0.015824666,-0.005765021,-0.0062142257,0.031269427,-0.0057787225,-0.012580628,-0.018446304,0.012574356,-0.022757225,-0.019279268,0.0034370304,-0.034501933,0.02023264,-0.03394356,0.028191462,0.0067471336,0.011989185,-0.029029459,0.020284902,0.03672614,-0.036405686,0.008639989,-0.026057728,-0.03107793,0.017649613,-0.009174023,-0.02365596,0.013308372,-0.028446233,-0.028482633,0.008378578,0.006329636,-0.023327935,-0.018200055,0.003477642,-0.0070075793,-0.006575929,-0.019234316,0.010935557,0.025169402,0.0019788127,-0.008266484,0.035441153,-0.015101561,0.0139188245,0.032001097,-0.015594941,-0.012367996,-0.0071990844,0.022997761,0.0304608,0.03497772,0.00879696,-0.018194474,0.0065652197,0.010164146,0.02995277,0.0060249222,0.023973435,-0.0008474547,-0.006927041,0.0060313535,0.0073512318,-0.028872447,-0.019736039,-0.00851347,0.022460721,-0.014159643,0.024502,0.0073637473,0.011426279,-0.02907505,-0.030383592,0.011156951,-0.017729027,0.024725689,0.026060352,0.010794226,-0.01034472,-0.010422589,0.014623648,-0.024744535,-0.023581145,-0.0225307,0.026046064,-0.0015433873,-0.0011917877,0.034135096,0.0036718156,-0.029912181,-0.025393277,-0.029278396,-0.03255204,0.0072792275,-0.029755743,0.012362481,0.0037535662,0.025667587,-0.018373987,-0.009749153,-0.020554872,0.0148111535,-0.023409212,-0.01141486,0.0010555658,-0.015834158,-0.010929204,-0.00023343979,-0.005971809,0.0018086807,-0.028664144,0.013903667,-0.029320829,0.028677704,-0.034922533,-0.019255515,0.02160401,-0.028980166,0.00067442295,-0.0034077528,0.014857741,-0.0316134,0.010664331,-0.028478466,0.004542105,-0.015922202,-0.012670477,0.018220365,-0.024731912,-0.031756606,-0.013610188,0.001340277,-0.011175086,-0.027627867,0.030355623,0.032793846,0.021307716,-0.0015221534,0.021326158,-0.014293769,0.01979616,-0.025340732,0.0117556,-0.0033844355,-0.031352744,-0.005968936,0.015773438,-0.024940824,0.017440854,-0.023378061,0.033126015,-0.03507697,0.03027291,-0.017610589,-0.020031799,-0.023594242,0.020224806,-0.012750219,0.01694401,0.019629408,-0.0056632822,0.0034488442,-0.025643887,0.033930246,0.030204592,-0.0176131,-0.014313372,-0.0064302264,0.03223211,0.010134196,-0.011978205,0.028459704,0.006240083,0.021581102,0.0015982504,0.006620253,0.0007470645,0.0044718906,7.756397e-05,0.0027276045,0.0051600775,-0.0050869547,-0.013617129,-0.026877845,-0.0063590524,-0.0011259242,0.007995413,0.018252391,-0.013515292,0.030104581,-0.026367147,-0.031990524,-0.028835146,-0.0252668,0.0022935164,0.024671258,0.009287899,0.0034708546,0.021933984,-0.0041485364,-0.008326723,-0.023707772,0.02983211,-0.009423517,-0.00737233,0.024773384,-0.0050810175,-0.021664543,-0.033136547,-0.0039193854,0.03396927,0.020880394,0.022968931,0.014772462,-0.032535,0.022874067,0.007396426,-0.018585665,-0.033233523,0.024799874,0.019711537,-0.005323608,0.021061257,-0.014977641,-0.01851318,-0.0018631272,-0.030494973,0.022387128,-0.018859824,-0.03126065,-0.03545557,0.035696354,-0.03427443,0.0036357224,-0.01242156,0.016645376,0.03172147,0.03075346,0.0085107,0.016143464,0.029520778,0.014442283,-0.025797142,-0.022182172,-0.025332404,0.012888916,0.0143264625,0.028305834,-0.00877606,0.014426015,-0.017218703,-0.024815612,0.025145499,0.00067425414,-0.018891701,-0.0010030231,0.010610328,0.015589544,0.0031937757,0.007965947,-0.02708872,-0.006570292,-0.020109069,0.013832351,0.017710216,0.026628142,-0.0026269485,-0.0012802732,0.00893979,0.03268484,-0.0164213,-0.008215959,-0.029061457,0.034399334,0.013367989,-0.032287247,0.010527254,-0.030115722,-0.015025953,0.008595656,-0.0048678904,-0.033111162,0.0020290231,0.014666365,0.02282088,0.01939152,0.0030967225,0.0026270198,0.0011004278,0.031034963,0.029288292,-0.012535971,-0.027247945,-0.012763868,-0.033921767,0.010465061,-0.02822261,0.024324905,-0.014098296,-0.029056393,-0.008238283,-0.03582893,0.034546368,-0.019308466,0.008950454,0.032344155,-0.024602618,-0.0008368201,0.022641558,0.021912247,-0.024580877,-0.022332788,0.017145943,-0.00358453,-0.0050835386,-0.02376733,-0.014316172,0.032286793,-0.020193212,-0.0143895,0.009132485,-0.0020765061,0.026220728,0.010085867,-0.0019147366,-0.011854541,0.011452815,0.034005094,0.037898056,0.034694545,-0.03549026,-0.010326565,0.030629853,0.01162989,0.029939786,0.026300915,0.019929716,0.026579674,0.014317526,0.029989347,0.009334195,0.02541862,0.025837425,0.0045204125,0.016408635,0.0055684363,-0.0061042807,-0.020401074,0.03000623,-0.031604193,-0.016254967,0.008736142,-0.0072051836,-0.03447557,0.0050891126,-0.019794665,0.0092899,0.017888913,0.004797958,-0.012980589,-0.0025105146,0.033539567,0.016211173,-0.0343006,-0.013862171,0.0042991033,-0.030975664,-0.0128572825,0.0239009,0.01338511
0.033444718,0.01791616,-0.019571448,0.034866706,-0.031184213,0.015021947,0.028028442,-0.013121542,0.09254648,-0.0297006,-0.02920681,0.029219462,-0.0063053137,0.013993493,0.039857976,-0.046873644,-0.03889393,0.09044177,-0.013407421,0.024457693,0.001713014,0.037889723,0.030725474,-0.00678599,-0.020375581,-0.020489786,-0.014761028,-0.036645472,-0.07197826,-0.030555468,0.04882452,-0.015287237,0.028868772,-0.017578555,0.01925414,0.0096185515,0.0015465446,0.00282823,-0.011925676,-0.015265932,0.018925512,0.0060553155,-0.019982474,0.02310587,-0.011447502,0.044517685,0.01684241,-0.016646704,0.00885711,-0.012861361,0.008747182,-0.014963139,0.031915557,-0.0072384197,-0.005227128,0.04273144,0.022676144,-0.017300244,0.030090574,0.0153990295,-0.034555733,0.030680194,0.034204684,-0.013299868,-0.0022992138,-0.008905768,0.015824368,0.004635336,-0.01855316,0.01169994,0.02216678,0.030293968,-0.00055978395,-0.035167783,-0.018987158,-0.0016633613,-0.012551868,-0.009230518,-0.0042630285,0.0094043175,0.009816333,-0.0037581553,0.0046275584,-0.020192629,0.0015372208,-0.062980816,-0.025458045,-0.017793078,-0.01565164,0.015718704,-0.013452361,-0.019614588,0.024867881,-0.028918775,-0.03138992,0.012467501,-0.003985981,0.0053466787,-0.014545236,0.03413911,-0.00896954,-0.035165474,0.00032316023,-0.034223847,0.002390382,0.044001333,-0.033193946,-0.017986897,0.014098679,-0.017392905,0.012570249,-0.0059424886,0.032754265,-0.03455003,0.024474882,-0.008130656,0.03387841,-0.03177126,-0.011335425,0.013293197,-0.0007830877,0.027754897,0.003652864,0.011598115,0.031628344,-0.018228296,0.006189386,-0.009484964,0.02477576,-0.018102149,-0.037166353,-0.03689418,0.02027798,-0.03751037,0.0069392966,-0.028164942,0.0056821993,0.005722173,0.019600354,-0.011311449,0.0076779407,0.01544457,-0.019654857,0.013860276,-0.019208962,-0.009890046,-0.009315164,-0.020258572,-0.047556147,0.018009663,-0.016209064,-0.015136771,-0.0032536488,0.035746742,0.019353805,-0.022819512,0.014159483,-0.029733764,-0.0044098883,-0.009629456,0.007322729,0.01988565,0.014478632,0.00071715156,-0.0015017389,-0.032271147,-0.01714909,0.02753649,0.032005005,0.02026328,-0.014330086,0.0034111599,-0.009690878,0.0050568185,0.008379215,-0.009480303,-0.017989585,0.000262289,-0.006588072,0.03675896,-0.014597712,0.0018648008,-0.024152901,0.01720121,-0.01817557,0.002881957,0.017117606,-0.008972455,0.0070004733,-0.01942331,-0.017898392,0.0120378835,0.010595528,-0.0029740657,0.005393055,-0.0156209655,-0.010802662,0.028255882,-0.007700874,0.027365131,-0.03419822,0.025119567,0.00169971,0.018854788,-0.016596949,-0.004462578,0.031229392,-0.00826039,-0.017274817,0.017286718,-0.017994838,-0.007024187,-0.0005307331,0.014990247,0.00456941,0.0042502503,-0.013673348,0.0389661,-0.029727982,0.0015690693,0.019608915,0.017103266,0.024740318,-0.022660227,-0.0032049776,0.017524181,0.022761246,0.009041368,-0.0007498888,0.046415642,0.0145821925,-0.02161252,-0.00568877,-0.004540307,0.040593185,0.020325812,0.027831767,-0.025400229,-0.029802937,0.028662242,0.03369077,0.0042728665,0.03692464,0.0118238395,0.005503718,0.0013647195,-0.03098169,0.028101273,-0.023379948,0.014826153,-0.012757533,-0.016573634,0.017546663,-0.026513068,-0.030732585,0.019624744,0.021689173,-0.02910605,0.0087357545,-0.023636753,-0.06245271,0.021500824,0.037535187,-0.022011617,0.0083935745,0.006531799,0.026271887,-0.034073766,0.05265582,0.032917324,-0.027976237,0.020518368,-0.022183519,0.0027122223,-0.02247783,-0.020643918,-0.015926043,0.025767708,0.0025565291,0.01194288,0.011139218,0.028071312,0.024050381,0.029408025,0.019419612,0.003441804,-0.007509711,-0.023977324,-0.002853158,-0.0074299467,-0.011497413,-0.028384427,0.020466141,0.012237058,0.0017419492,-0.030213477,0.006591542,-0.022629188,-0.013692184,0.0047568977,0.0033016058,0.015314241,-0.009311391,-0.019178959,0.009846811,-0.009117442,-0.00081543793,0.023505477,-0.022062467,-0.019257316,0.028130895,0.034074947,0.014932821,0.03185887,0.0090192435,0.025245212,-0.0019681952,0.008604615,-0.014975605,0.010131387,0.037047893,-0.020967558,-0.009934991,-0.055005945,-0.038335014,-0.040980373,0.019403856,0.041297227,-0.011812765,0.020258589,0.01989278,-0.0022978822,0.01164433,-0.019944092,0.010522241,0.02293573,0.015653526,-0.027971061,-0.024894973,0.035797726,0.025106814,0.03993171,0.026669117,0.020557366,-0.01972631,-0.012895062,-0.0020345612,-0.0021529049,0.025413696,-0.0065411,0.019831596,0.027514953,0.0012245333,-0.033315107,-0.014110108,0.030780874,-0.02020505,0.026861092,-0.020762112,-0.012000115,0.0242558,0.02469422,0.010024018,0.013960215,-0.028340003,-0.027648855,-0.01644364,-0.005507564,0.023207512,0.021510204,0.004130011,-0.015821842,0.008279386,-0.03161631,-0.030797575,0.003364035,-0.0011061162,-0.028137589,-0.009670854,0.011653798,0.0061872187,-0.02932779,-0.026345482,-0.013172719,-0.012506482,-0.026425969,-0.026662927,0.018627822,0.010236841,0.03441395,-0.023370873,0.008141732,0.0028067236,-0.0037911322,-0.00702648,0.020091835,-0.024990745,-0.00028864687,0.016027417,-0.0051694755,0.030453281,0.011396746,0.028762255,0.010294732,0.032313883,-0.021786299,-0.035758376,-0.020876948,-0.0007755383,0.00087136537,-0.023814214,-0.043450996,0.017327297,-0.014697056,-0.004944758,0.00041340402,-0.013253454,0.0036713735,-0.021720009,0.072019584,0.0314413,-3.7071204e-05,0.012923695,0.033491943,-0.00430811,-0.032414433,-0.016624192,0.00078551495,0.011659796,-0.067246616,-0.02620206,0.06614532,-0.056887712,0.022046402,0.079139225,-0.049321514,0.00045423972,-0.03562091,0.03763858,0.047816228,0.010064303,0.0068719178,0.011237835,0.010524802,-0.022324309,-0.03234152,0.0032009885,0.007431508,-0.017162707,0.016199205,-0.024360335,-0.007514041,0.013911823,0.020504229,-0.007323273,0.024606487,-0.020805568,0.01753446,0.033174425,-0.02630804,0.033059847,0.028584084,-0.02507912,0.020561045,0.0027558848,0.03634083,0.024507854,-0.011531927,0.0069883675,0.011145468,0.009524799,0.03264157,0.022335634,0.037186917,-0.011425408,0.031337216,-0.010393205,0.017423442,0.0045317053,-0.029534847,-0.020539219,0.021855658,-0.021586066,-0.01988356,0.016966209,0.0035634649,0.007285806,-0.02711304,-0.020781312,0.00032009822,-0.022991609,-0.008674205,0.014779447,0.012033338,-0.011308021,0.02653435,-0.00716674,-0.031551152,0.015214046,-0.029753186,-0.01370236,0.024034023,0.025042728,-0.012495435,0.021820977,0.0134938955,0.0031200347,-0.0016587462,0.040402863,-0.0007978228,-0.03374407,-0.016885666,0.0237463,-0.0031024166,-0.020229358,0.022550298,0.030014563,0.010695769,0.02142898,0.010985039,-0.026394151,0.03439553,0.015568143,-0.029953014,-0.012639289,0.0005879049,0.019245155,0.022852255,0.019988347,0.02192473,-0.0067092623,-0.017942503,-0.027864927,-0.0039649233,-0.035416257,0.0007592683,0.02759398,0.0054228124,-0.02392406,-0.0017226355,-0.009959167,-0.03249641,-0.0020690588,0.0215905,-0.023430102,-0.01957589,0.034201436,0.008592307,0.017017674,0.0072874185,0.01982882,0.006406251,-0.018186765,-0.029613491,-0.032818448,-0.005135689,0.030454498,-0.0199723,-0.018209917,-0.025692236,-0.0063459636,-0.035596784,-0.0061804214,0.007387937,0.011439742,0.024342151,0.02446703,-0.010288578,0.01038749,0.0022280945,0.0048068617,0.0145315975,-0.028751101,-0.025169518,-0.009224523,0.03238056,-0.026157668,0.013094394,-0.011431969,0.02936771,-0.026455255,-0.03904211,-0.0038363128,0.03230737,-0.005068056,-0.031625766,0.033898592,0.014662133,-0.002410268,0.020867327,-0.02649693,0.0046723313,-0.0006844107,0.030455468,-0.012298361,0.021885062,-0.022938086,0.008610912,-0.008061068,-0.018377747,0.026400328,-0.023920877,0.017525414,0.002032243,0.032162677,-0.021698277,-0.014788572,0.0048976843,-0.0021978822,-0.025052188,0.010878389,0.0013163987,0.011795717,0.02034043,-0.030036945,0.027685395,0.018419784,0.0072420905,0.036350135,0.02319452,0.012067869,0.005452233,-0.0040187007,-0.01740645,-0.0024470831,0.03486452,0.011507749,0.029687844,0.039662626,0.032684367,-0.029489784,-0.0061144684,0.0066236462,0.019950045,-0.06756978,0.012048724,0.021068376,-0.013761663,-0.00030380386,-0.05242522,-0.021602975,0.017747771,-0.03378082,0.0330969,0.0023384658,0.011849122,-0.0072636153,0.008207548,0.0066542034,-0.030886706,0.013490397,-0.0057017216,-0.0005869167,0.013712256,-0.010761626,0.029946849,-0.010173565,-0.0025883468,-0.0066640093,0.030845437,0.016690386,0.02703773,-0.015013777,0.031390287,0.011747701,0.03940378,-0.013915019,0.009076344,-0.023964398,0.016142538,-0.011767801,-0.028018119,-0.009716346,0.02277864,0.028486822,-0.030365879,0.025058337,0.020147745,0.0034796565,-0.027001359,-0.030200096,-0.023437783,-0.0025259904,0.017747505,-0.021557922,0.03209435,0.03402082,0.006480204,0.004227076,-0.031695947,-0.012097263,0.0046561914,0.0074173934,0.019701062,-0.025339855,-0.023276148,0.010414737,0.030756027,-0.0020923081,0.018438017,-0.022860166,-0.018320631,-0.026772005,-0.020618122,0.0308646,-0.010694567,0.012967815,-0.013992964,-0.02971582,0.029034834,-0.0067455773,0.00085622864,-0.024189454,-0.035851855,-0.011273378,0.030087328,0.028621625,0.0038348732,0.029579258,0.030217716,-0.024981583,-0.03389441,0.011116147,0.013330318,0.023703258,0.021748777,-0.008784911,-0.025974,-0.041515253,0.005027943,-0.02377287,-0.030296484,0.027276644,0.009273527,0.019922111,-0.029802006,-0.0020266748,-0.034522746,-0.013789339,-0.028866684,0.015630567,-0.028597921,0.024374105,-0.028410241,0.01749355,0.0038940345,0.0008055725,-0.029096816,0.015077798,-0.00235273,0.02113009,-0.020161558,0.0032043958,0.01565876,0.030045886,-0.022153907,0.015400503,-0.024660695,-0.032678764,-0.016921308,0.033009198,-0.0028425436,0.02779271,0.001135728,0.013059503,0.05613219,0.011040515,0.023069812
0.0010835545,-0.008070884,0.0020240638,-0.0055619706,-0.025820615,0.026065938,0.0020057175,0.025813216,0.00821848,-0.0060005644,0.012417455,0.034054264,-0.036932986,-0.025892343,0.030407501,0.011365803,-0.0105902385,-0.00870463,-0.02585951,-0.021136582,-0.015495352,0.01177028,-0.0054824073,0.034392457,-0.00046533256,-0.0004534534,-0.011004029,-0.009280695,-0.02515692,-0.030339561,0.030069264,0.02149271,-0.0009360516,-0.027307058,0.015699776,0.024134154,0.02437954,-0.012283266,0.027052855,0.030254183,-0.028954139,-0.00409957,-0.021390349,-0.009342872,-0.017891759,0.03923256,0.005650498,-0.012112543,-0.019719949,0.014469509,-0.027250085,-0.027224474,0.03245434,0.003173153,-0.019349944,-0.014991292,0.01912812,-0.020171598,-0.0038632147,-0.017089065,-0.024948904,-0.012670584,-0.034018915,0.012107626,0.026770603,0.017914029,-0.02711171,-0.013793479,-0.033812962,0.019244906,0.015410594,0.0012817212,-0.016705694,-0.031809106,0.022316175,0.0101722535,0.01798793,0.023094071,-0.033897277,0.0313124,0.03574526,0.015607474,0.028690385,-0.02422507,-0.033034716,0.0027843786,-0.019724503,0.033998854,-0.031238154,0.017616691,0.018872501,0.03891029,0.022620523,0.009612233,-0.009908341,-0.013893348,0.030152833,-0.013721271,0.0209,0.0031522664,0.007488804,-0.005485057,-0.017147366,-0.014767389,0.011747893,0.0088930195,0.03599573,0.023605442,-0.008200773,-0.0164868,-0.0117782075,-0.035167515,-0.011830229,-0.01793897,0.0018438019,0.034193017,0.0020993168,0.013330547,0.0036945676,-0.02763315,0.013162655,3.8558832e-05,0.029449834,-0.012230613,0.030709768,0.01979032,-0.013375342,0.012525083,0.02622393,-0.031153403,0.022648716,-0.027205994,0.0013288443,0.03146783,-0.033994526,-0.025947398,-0.025106002,0.018796584,-0.010688558,-0.033158354,-0.028301947,-0.023115423,0.01649445,-0.026672993,0.037083827,-0.018742977,0.0064853895,0.020409346,0.015804797,-0.020869853,0.028965121,0.006482474,0.010851561,-0.0093351,-0.0036141018,-0.01749832,-0.03450836,-0.00660089,-0.032434378,0.01809095,0.020783989,-0.01825833,-0.027242504,0.0067495573,0.004106087,-0.00871076,0.00013681896,-0.0075973985,-0.013066384,-0.015493152,0.003136324,-0.005189717,-0.022007754,-0.028148215,0.00895178,0.013519131,-0.022860788,-0.03155896,-0.0075258054,-0.024125418,-0.012128251,-0.018783554,-0.0025307336,0.021715865,-0.013096866,-0.012358605,-0.014872882,0.009679272,0.030571966,-0.01875674,-0.021010974,-0.03389837,0.021503596,0.038665432,0.015674787,-0.006185619,0.006508804,0.020101773,-0.00898165,-0.040716488,-0.03572184,-0.010044548,-0.0061153374,-8.837068e-05,-0.013211335,0.0043792157,-0.0081506595,0.018802095,-0.003455534,-0.024228502,0.032356832,0.0076465965,0.007351369,-0.025469372,-0.03671921,-0.0065375976,-0.026777523,-0.033359498,-0.003976804,0.0027494552,0.01698471,0.024879644,0.016817758,-0.036704656,-0.0045931847,-0.030630004,0.02967679,-0.030447768,0.007898754,-0.008757596,0.023200003,0.02595778,-0.0025465894,0.0354643,0.0073093213,0.03070656,0.0092660235,0.028464112,0.01158027,0.023235213,-0.025592465,-0.021834796,0.03578834,0.035953548,0.009991317,-0.0018502328,-0.00262556,0.029318895,0.024044152,0.0010804703,-0.021336036,-0.028922247,-0.03089308,0.0061677513,-0.009664689,-0.002078859,0.029087314,0.013552201,0.01735426,-0.03601714,0.021351248,-0.020066831,-0.028003873,0.021590251,0.015420631,-0.026203958,0.010738232,0.0115256,0.020893881,-0.018597389,0.012843142,0.003686582,-0.01776142,-0.023814669,0.019725263,0.028402716,0.0067234053,0.02015061,0.016063515,0.0076150564,-0.0068067815,0.037009005,0.0038907968,-0.008366888,-0.008110635,-0.031994715,-0.031976856,-0.031865478,0.022775475,0.029990626,0.0068526166,0.026402304,0.011938586,-0.031828668,0.027666623,0.020368952,-0.0006739437,0.030579312,0.03695256,0.030535249,-0.006512203,0.029168837,0.013179488,-0.0036917813,-0.022676717,-0.025640748,-0.029440463,-0.016067334,0.024293019,0.0031864233,0.019529251,0.020506196,-0.01716328,-0.002013595,0.0063828174,-0.008140637,-0.012304497,-0.012724826,0.015415242,0.0036503142,-0.0042001694,-0.01800853,-0.017566655,-0.007876164,0.0085707,0.03491215,0.009862833,0.0021692142,-0.023063742,0.016789552,0.02367073,0.028879499,0.008620133,-0.021426095,-0.0028299235,-0.016072895,-0.012375923,0.0077297916,0.02885651,0.021507874,-0.007192574,0.010439749,-0.026092272,-0.016253317,0.03341339,0.032488775,-0.032854035,0.0020756084,0.028713258,-0.0010027665,0.021851212,0.017436255,-0.009856177,-0.03420877,0.014140826,-0.007999905,0.004490145,-0.026100524,-0.018338146,0.0028201467,-0.022295933,-0.03338514,0.007840328,0.0075252983,-0.02108424,0.010649297,-0.009623133,-0.016721932,-0.030066805,-0.01361433,-0.0022892887,0.013877091,0.012111469,-0.021392273,0.029728564,-0.0029516043,-0.00068637106,0.02261549,-0.027470535,-0.015237874,-0.014358031,0.006779949,0.029132804,-0.033427913,-0.015677445,0.0055998717,-0.030388689,-0.026309598,0.012814064,-0.0068114977,0.020754077,-0.01629607,-0.021989623,0.019847114,0.019981476,-0.008838248,0.021871954,0.035099532,-0.026267346,-0.010012508,-0.008903368,-0.02617689,-0.03280039,0.035017468,-0.016542666,-0.006368829,-0.032907657,-0.029654635,0.018201191,-0.012376493,0.0157414,0.016719822,0.033971015,0.022378162,-0.04134158,0.0063550677,0.0030574976,0.008612315,-0.017047651,0.050034054,0.026266158,0.041202035,-0.009281843,0.0062763714,-0.01907161,0.015219467,0.037643977,0.0096474895,-0.0004025377,-0.0275456,0.02175933,0.009864648,0.021204755,-0.041386466,0.0005392382,-0.017998269,0.013599802,-0.023021715,-0.020580232,0.0031191714,0.0020362588,0.008732887,-0.004482666,0.01897207,-0.01356418,-0.0044988743,0.02378658,-0.019501826,-0.013644641,-0.0011984986,0.016248774,0.002178744,-0.025470437,0.012641908,0.011290757,-0.01577454,0.026778633,0.0031467213,0.0011005314,-0.010260311,-0.02832639,0.028911239,-0.0018467578,0.022013089,0.025993945,0.01491868,-0.012009101,0.015258936,0.008122703,0.036852576,-0.017932044,-0.0034135387,0.009205889,-0.015980458,0.016057521,0.013127256,0.012639523,-0.020078098,0.03693493,-0.02343157,-0.0049864766,0.026016172,0.019593576,-0.021595618,-0.016047519,-0.009249366,0.0033672422,0.0006345174,0.02321289,0.025351167,-0.0231579,0.01205648,-0.02494104,-0.01636047,0.003959991,0.022278965,-0.02318172,0.025842378,0.006767515,-0.0081256535,0.030415809,0.027217964,0.013773195,-0.025164051,0.0013408181,0.0030598307,0.019884083,0.013511789,0.0068042036,0.0074800258,0.0018957865,-0.010354666,0.020288505,-0.013736264,-0.01641618,0.03441648,0.02537432,0.0008427064,-0.023339316,-0.01294883,0.021992438,0.00251211,0.0134180635,0.00076089095,0.023796165,0.015258295,-0.028281434,0.03450881,0.0313056,-0.012319313,0.004343881,-0.022451984,-0.031139608,0.026353607,0.0078289,-0.0178533,-0.021237861,-0.033491414,0.021802502,-0.027100096,-0.0010332336,-0.008926303,0.018889166,-0.023503628,0.015968032,-0.015474792,0.0169767,-0.009917801,-0.02425813,-0.0056065884,-0.027564667,0.004602128,-0.018222574,0.019279037,-0.01246449,-0.029275557,-0.022569545,0.013638901,0.002303015,0.0025047208,0.027893536,-0.009992057,-0.032065373,0.009637276,-0.0020812147,0.016278198,0.029463947,0.030444052,-0.030169975,0.0043614632,0.021832848,-0.002994744,-0.032392588,-0.033754677,-0.005848459,-0.0016707553,-0.022331974,0.008748866,-0.03389142,0.034042045,-0.010275604,-0.0043881205,-0.0021411974,0.0017715625,-0.024425162,-0.0010432539,-0.024644414,-0.029509807,0.00640514,0.03609112,-0.000109533874,-0.01715372,-0.017346395,0.03134103,-0.02430224,0.020660121,0.02888604,-0.028834376,0.010563475,-0.02887812,0.004063966,-0.011220924,0.018910931,-0.034107752,0.008977204,0.010145976,0.0143672,-0.025157388,-0.010482446,-0.004064187,0.029955827,-0.018098228,0.029555429,-0.035134196,-0.005605972,-0.012943329,0.0011111146,0.008300891,0.026289333,0.015478392,-0.017175255,0.0088141905,0.028841011,-0.022168066,0.0032100824,0.0067443093,-0.00716392,0.030386973,-0.00061035197,-0.0055492595,0.023105368,0.028639318,-0.00056598976,0.006766439,0.022207601,-0.024731997,0.03071356,0.0067258948,-0.013463212,-0.0055802977,0.003984153,0.01213377,-0.02254567,0.0007532384,-0.013842425,-0.03499092,-0.003133022,-0.012060704,0.004303043,0.013362175,0.029775582,0.014638222,0.0046679312,-0.027960584,0.030229986,-0.029322468,-0.02978462,-0.006716916,0.021896936,-0.0040334286,0.01558384,0.01528438,-0.020738872,-0.009104884,0.009401958,0.014814902,-0.020226656,-0.022347316,-0.0032486594,0.003693023,0.0374482,-0.0004490067,-0.031681735,-0.014469105,0.02975772,-0.024454221,-0.029408848,-0.003097399,-0.014435248,0.0199469,0.006330211,0.026859505,0.022122791,0.022422161,-0.017928666,0.013108523,0.00910153,-0.016749367,-0.03565234,-0.0095720785,0.03293343,0.006921072,-0.013633018,-0.01292207,0.0017942813,0.030199923,0.0050449255,-0.029637853,0.023380363,-0.00698131,-0.024597185,0.0240245,0.010391661,0.017144386,0.0012575239,0.011969339,0.024288787,1.7403536e-06,-0.015652994,-0.02866968,0.03255709,0.029078336,0.03189703,-2.4086034e-05,0.02715322,-0.014727406,0.0064140526,-0.007698484,-0.012764521,0.029660895,-0.010267897,-0.0257912,0.030804804,0.035179254,0.024621403,0.02672528,0.027761215,-0.024432214,-0.014414632,0.019356772,0.031342793,-0.003917617,0.0048536337,0.014802042,-0.0045793583,-0.0034196663,-0.00956427,-0.012793306,0.02297874,-6.952303e-05,-0.032793514,0.03125202,-0.018224768,-0.0063666455,-0.026255624,0.034205996,-0.005073572,-0.0325341,0.014750308,-0.000987014,-0.030933773,-0.00817875,0.016333815,-0.009475183,0.030614339,-0.029289247,0.004601352,-0.005832544,-0.035814162,0.028072521,0.040375642,-0.008085157,0.03229678,0.008347826,0.020241948,-0.0057806536,-0.014421832,-0.0029156134
-0.019265294,-0.017916787,0.01310264,0.021933066,-0.025859866,-0.02405848,-0.0024560557,-0.026722727,0.037335988,0.067907095,0.08959469,-0.028986046,-0.038271163,0.039149825,0.06675636,0.015124292,-0.005843705,0.021989292,-0.0524742,0.008604929,-0.06530533,-0.010879049,-0.022332177,0.016954243,0.04036241,-0.004064036,0.014517839,0.020052804,0.039672706,0.03507579,0.006520176,0.035209082,0.03151438,0.025026543,0.011706815,0.0708244,0.04203344,0.013442453,0.0072460943,0.05738294,-0.004655352,0.041452285,0.022301225,-0.020917216,0.06935947,0.0094778845,0.0020787753,0.014043574,0.04036902,0.028812308,-0.011922061,-0.00036598006,0.01965043,-0.0018715176,-0.018835047,0.019940842,0.0065788287,-0.015749773,-0.00634936,-0.028641436,0.017846469,-0.006722846,-0.0020258531,0.02500212,0.021692213,-0.009814519,-0.011490274,-0.04433267,0.038435906,-0.00017282747,-0.029790645,-0.0096005965,-0.026291253,0.027647864,0.0022189822,0.007008474,-0.032356348,-0.009978357,0.0074651106,-0.023679152,0.04427449,0.0023312941,0.037794095,-0.0027411482,-0.019094098,0.0162915,0.017590022,0.027844131,-0.0055225645,-0.00918096,0.04092146,-0.008609046,0.023220979,0.0030432628,-0.009331455,0.028724255,0.019557394,0.038139988,0.024208153,0.015922355,0.010469765,0.007135764,0.026131364,-0.028496003,0.0069342484,0.0138152065,0.0192787,0.036151122,0.0323047,0.039316177,-0.013199024,-0.018437658,0.032557826,-0.00930185,0.0053126756,0.0133838365,-0.024041818,0.04406785,0.014877853,-0.016896803,0.038197532,0.0036619992,-0.031049067,-0.016939286,-0.0028215914,-0.024127971,-0.032453075,0.021122094,0.0045327577,-0.006468354,0.03976329,-0.033121593,-0.017152047,0.056746967,0.010009652,-0.01686846,0.019522913,0.02748897,0.028321339,0.010110062,0.027405081,-0.0049370155,0.01131126,-0.0022536272,0.018025346,0.043671433,-0.04250131,-0.011942398,0.027430132,-0.0053715096,-0.0052341865,0.021876309,0.00860474,-0.018415527,0.024768457,-0.024283223,0.0019740872,-0.03634682,0.021398349,0.033199433,0.042716227,-0.016120348,-0.025667211,0.0358551,0.0061421283,0.01588786,0.079038076,0.013508236,0.035906963,0.0037736804,0.018160518,-0.0006434537,0.03791023,0.052993186,-0.0023571337,0.031026127,0.0066572493,-0.02827232,0.0027276105,-0.013905959,-0.031632386,-0.016130045,0.029813625,-0.00038912764,-0.014247149,0.004434331,0.018374048,0.03344102,-0.002655995,0.011699037,0.0045848466,0.016448336,0.006605979,0.11042205,0.0063084215,0.054719437,0.024781132,-0.019455183,-0.04461209,0.048471443,-0.00981822,0.036118608,0.002498189,-0.032852974,-0.010141332,0.023148943,0.011223902,0.059001595,-0.022240372,0.03964169,0.029000895,-0.0055750012,-0.018533893,-0.062451098,-0.024022551,-0.010496694,0.046577476,0.011703773,0.014997745,-0.012861969,0.0012887102,0.003627023,0.009946681,-0.03780771,-0.019626107,-0.00078733684,-0.0049257055,-0.03665335,0.025532104,0.0035065436,0.03052759,-0.008684684,-0.009421085,-0.00060574553,0.028633654,0.050514527,0.059232026,-0.017509013,0.006248537,0.03176684,0.041686777,-0.007437273,-0.002299109,0.056952313,0.025033543,0.032698426,0.021923468,-0.0123519255,-0.025958007,0.029937878,-0.021224143,-0.015487619,-0.01773171,-0.021553842,-0.025485016,-0.029193765,-0.016027223,0.03321131,0.014817545,0.009229808,0.046916574,-0.04464083,0.026366575,-0.0067267804,0.024490455,0.024913283,-0.01406921,0.036215723,0.03725097,0.044473488,0.05326445,0.023124985,0.014380395,-0.009980712,-0.022567485,0.022252096,0.0055079972,0.029583545,0.036807872,0.0035912076,0.03095271,-0.0002956749,-0.009957564,-0.0060567353,-0.003170106,0.043816306,-0.0155895585,0.020969782,0.041734185,-0.012781355,-0.010913951,-0.0070271883,0.03158965,-0.0079164915,0.04172627,0.025965415,0.033006016,0.008154333,0.05673402,0.019793771,-0.016162725,-0.0071571292,0.039925877,-0.007149405,0.031786967,-0.0049730954,-0.014209549,0.010197466,0.023332657,-0.0028299885,0.04242048,0.0312491,-0.028386047,0.0038590124,-0.016876593,0.015263419,0.0073667592,0.038982447,-0.041333385,0.009713312,0.02664735,0.004366722,0.06042231,0.030071486,-0.018534508,-0.008133719,0.01260158,3.751148e-05,0.011111213,-0.041832253,-0.029533165,-0.023497276,-0.016394738,-0.06402721,0.019462707,0.015233862,-0.012490105,-0.0055293324,-0.024155663,-0.014930231,0.011053908,0.025189763,-0.009151215,-0.02635716,-0.042536378,0.035241093,-0.045939147,0.009601875,-0.01668977,-0.018676288,-0.024666585,0.0021929191,-0.034213584,-0.051654827,0.021640865,0.0085120415,0.018419717,0.00949064,0.025515305,0.0018919631,0.032991275,0.010823687,0.009484193,0.027596187,0.033530593,0.004928926,-0.0141699845,0.013727108,-0.009150059,-0.006310197,-0.0046731993,0.03040555,-0.0041758018,-0.054464478,-0.0019634715,-0.037997197,-0.028540349,-0.0016340967,-0.0025564646,-0.009112851,0.006426905,-0.0040610204,-0.035558004,0.02968734,0.023744876,-0.034900635,0.032353863,0.03390849,0.01780738,-0.00022785547,-0.030139437,-0.011835756,0.011121776,0.0009338418,0.04110509,-0.035686355,-0.032985315,0.03439183,0.011457214,0.021968264,0.0053038625,-0.013733031,0.031604912,0.0082551185,0.04394336,0.009391716,-0.0066980505,-0.023671007,0.023981228,-0.018513707,-0.026229491,0.032160234,0.05354431,0.038587935,0.03961764,-0.021007832,-0.016405638,-0.019115685,0.023175191,0.044716097,-0.023155998,0.036375437,-0.026806833,0.0068304404,0.0045816796,0.007830567,0.026606541,0.03237433,0.008597711,0.00090520154,-0.016002994,0.051052906,-0.023153631,-0.024320934,0.023309497,-0.0063763796,0.014709432,-0.009222594,0.013115772,0.024258029,-0.014056493,-0.0106778825,0.012653093,0.0027119275,-0.016887208,-0.017573107,0.024829768,-0.034208715,-0.015770163,0.0018008436,-0.0048045237,-0.011582695,-0.017166734,-0.028897315,-0.025586374,-0.022640236,-0.006980951,0.03667471,0.0025679797,0.04051405,0.033337902,0.005633002,0.017085098,0.034847777,0.043102022,0.042165395,0.039420463,0.059881043,-0.0086447075,0.039395683,-0.0020722367,-0.033943124,0.036337987,0.033085268,0.015589329,0.07167332,-0.015498584,0.018193152,0.04438579,0.03908897,-0.014031927,-0.015126942,-0.00087536266,0.03227633,0.008043088,0.0028894015,-0.028075522,0.05150247,-0.030980699,0.03992581,-0.029944602,0.035329055,-0.009599239,-0.012858096,0.0129149705,0.039202213,0.026843825,0.03890651,0.03427875,0.02335229,-0.048720513,0.019583046,0.013894374,0.03777834,-0.036159813,0.06338221,0.057235003,-0.017506432,-0.026905876,0.021130519,-0.007393673,0.029542228,0.031978983,-0.020418819,0.006426388,0.0027966541,-0.00038265617,0.03140146,-0.005649217,0.034631614,-0.019501882,0.043519907,0.015208914,0.042258367,0.029929498,-0.023521723,-0.011236517,-0.014602519,-0.013779611,-0.026778482,-0.008642434,-0.014809186,0.0002885753,-0.011742862,-0.025774335,0.023648493,-0.023271706,0.054973517,-0.012432659,0.014669904,0.0040510576,0.015833493,0.041821096,0.026086366,0.03266693,0.0061411327,0.028784476,0.01700314,-0.04055941,0.022389187,0.006874408,-0.009789478,-0.0020613174,-0.029984612,-0.028002637,-0.061218284,0.023135558,-0.0085529275,0.01486227,-0.034194726,0.0065958803,0.03624832,-0.041016065,0.010829966,-0.013154404,0.014208937,0.013930254,0.05834269,-0.010073724,0.023903513,0.06794818,-0.013733652,0.008528108,0.026808629,0.04253648,0.015268517,0.034678373,-0.018263044,0.04234574,0.021620996,-0.012107984,-0.030670157,0.028598292,-0.0007628852,-0.012964715,-0.010226385,0.026414687,0.009818539,0.05178876,0.04362504,0.017656578,0.041090686,0.00027821248,0.036497127,-0.011888003,0.003928059,0.013670682,0.029640686,-0.010429533,-0.007058494,0.009413555,0.023233715,0.065283746,-0.025798028,0.02781882,-0.06373614,0.01636584,0.002590366,-0.011901797,0.031400934,0.028530901,0.026441254,0.000251107,-0.05699655,-0.031926308,0.03175188,0.02069829,0.03697192,0.012471036,0.0014477598,-0.035866853,-0.042768974,0.016092876,0.041145947,0.020886099,-0.020714374,0.0005105429,-4.064053e-05,0.026230056,0.041962855,0.050240118,-0.021838874,0.028328493,0.029357204,0.047776755,0.009640935,0.011597123,-0.0037873164,-0.01728866,0.038021397,-0.0190417,0.0017557581,0.031940788,0.012175565,-0.040146347,-0.016954435,0.020356225,0.03212016,-0.0017254201,-0.0057677175,0.018370926,0.019548994,-0.011954449,0.005897413,-0.018063297,-0.0021311312,0.009038851,0.030322943,-0.0024122505,0.0397875,0.038520765,0.026115444,-0.010661497,-0.02055531,-0.007048364,0.032518853,0.042568877,0.019429408,0.01821183,-0.027563956,0.010247052,-0.028319824,-0.013548327,0.020665158,-0.0056521436,0.0059592277,-0.009923066,0.0007291445,0.007663965,0.036144525,0.011743695,0.03969533,-0.000812826,-0.014956968,-0.004203841,0.04868156,0.0017977753,-0.004340208,-0.010248384,-0.0051803337,0.04033846,-0.020037647,-0.008354712,-0.013706397,-0.0047799684,0.012866059,0.0076196943,0.037648745,-0.0005593608,0.0023967177,-0.01435664,0.044012398,0.0040242937,0.0068907393,-0.015271005,-0.036204595,0.032205075,0.03055534,0.0074178907,0.030441865,0.018059814,0.0074696303,-0.039959367,0.024715463,-0.008598387,-0.029870486,0.016442984,0.0296167,-0.019028189,-0.008381263,-0.0180705,-0.022604149,-0.0066269645,-0.014580636,0.029627504,0.014439673,0.0068588136,-0.038952254,-0.014655975,-0.048536565,-0.0131001165,-0.0090583,-0.019500699,0.014388908,0.03175804,0.01842944,-0.02972039,-0.03728873,0.019204756,-0.02315976,-0.025847444,0.023908416,0.019946743,-0.010050673,0.009598876,0.0044839396,0.005773149,-0.038358018,-0.050771706,-0.023060048,0.03906738,-0.004318683,0.048422877,-0.015375881,0.025595613,0.01438984,0.00028277157,-0.07713215,-0.004558263,0.015075072,0.059095297,0.08421791,0.030571986,0.021693124,-0.00017075121,-0.015202054,0.025796918,-0.0017792896
0.016914597,-0.015970629,-0.0067614787,-0.010057997,-0.01745061,-0.0010130557,-0.022720829,0.012993917,-0.0047079404,-0.009502768,0.032164905,-0.013967039,-0.010038139,-0.036321603,0.007043295,0.0278292,-0.035607748,-0.02244063,-0.017878687,0.03344997,-0.0010695299,0.043262575,-0.004138262,0.02170913,0.03175978,0.011425666,0.00081871095,0.010074995,-0.0033989667,0.025546702,-0.009164351,-0.025042005,0.0006505,-0.028884022,0.018416049,-0.011727763,-0.014319936,0.010409474,-0.019772904,-0.027179169,-0.037742876,0.011437323,0.011698569,0.03422307,0.00012348655,-0.025231434,0.008041174,0.01859368,0.011770951,-0.0054789656,-0.02499327,0.020963665,0.014486963,0.018697243,-0.029364573,-0.025069378,-0.0150153395,-0.013252796,-0.005606952,0.021032745,0.019670375,0.02628282,-0.026588285,0.029473102,0.035712663,0.034960482,0.013600797,0.018643642,0.013556956,0.012645734,-0.02553151,0.016443832,-0.009781596,0.022554103,0.01477479,-0.0053258636,0.018673765,-0.025117869,-0.0094285635,0.03228168,0.0033958151,-0.026266364,-0.0022585157,-0.017395843,-0.011850012,-0.011419676,-0.02587616,0.02056277,-0.012748787,0.016793499,0.0004121483,-0.028929159,-0.04295011,0.0065397886,-0.00252196,-0.0095592765,-0.032201216,-0.004829841,-0.037454903,0.02196233,-0.0037306529,-0.026644936,-0.025139956,0.03709342,0.005751365,-0.014826066,0.023305396,-0.034334857,-0.025623526,0.011580822,-0.020588582,-0.031022957,-0.014084905,-0.023559118,0.0030811955,0.0075225458,-0.010846837,-0.03569071,-0.028150849,-0.033162,-0.022141054,0.002576185,0.012327798,-0.008024554,0.02842894,-0.020407472,-0.035216026,-0.007973058,0.028797561,-0.02589406,-0.015733728,-0.012600701,0.008036764,-0.03744552,0.015518792,0.0026586608,0.034958877,0.020116404,0.03763757,-0.002387985,0.019488975,-0.0035913922,-0.03919833,0.011734478,-0.00250477,-0.019600015,-0.020671265,-0.03721456,0.02716231,-0.0034396602,0.004574996,-0.010511355,0.019739341,-0.023706887,-0.0034577746,0.024777634,-0.023017135,0.0029932472,0.011803494,0.017350042,0.0070878156,0.01021778,0.014806257,-0.022762781,-0.013513171,0.028557988,-0.018358445,0.03254082,-0.023160897,0.013166432,-0.031854726,-0.0011160711,0.027532341,0.029503977,0.013563205,0.012653904,0.02849276,0.016990516,0.022443037,0.027985016,0.034198895,0.020707227,0.0356057,-0.0142766675,-0.0032156794,0.0011089791,-0.012093558,-0.006027222,0.010160659,-0.0077515612,0.016619522,0.015141868,-0.0055058305,-0.033628926,-0.023291906,-0.04373925,-0.005026682,0.016412297,-0.0025799118,0.024474118,-0.03158676,0.0050348737,0.02662754,0.00848424,0.032055657,0.004928665,-0.020450378,0.0018448655,-0.022465415,-0.030208059,-0.018764906,-0.032793548,-0.012555777,-0.03299583,-0.0004711762,0.034134105,0.013602697,-0.034038838,0.007899952,0.019000812,0.006980674,0.01602683,-0.00016591075,0.035744525,0.022709738,0.026472148,-0.0022567352,0.030268252,-0.006831518,-0.012231258,-0.032228395,-0.025647756,-0.00019368829,-0.0015969549,-0.011939944,-0.009419017,0.023899108,0.0031193576,-0.0016802845,-0.03590426,-0.009708527,0.021381397,0.008626014,-0.037559226,-0.03801394,-0.006773482,-0.030933863,0.004051864,-0.034592785,0.021674098,-0.00032120015,0.027248679,0.009751731,-0.012454757,0.02271838,-0.0279936,0.003863424,-0.026834507,0.024215987,-0.0015230158,-0.026142802,0.035904698,-0.011185095,-0.02218837,0.034851234,-0.03130015,-0.015775468,-0.031646278,-0.00033590212,0.015869696,-0.0057498612,0.0149957035,0.012259004,-0.0043632137,0.0058274386,-0.011677245,-0.012392496,-0.033644255,-0.004610591,0.003260754,-0.009357746,-0.03335752,-0.023020668,-0.0011485361,-0.009698192,-0.013696501,0.008183636,0.005918058,-0.023599718,-0.032954447,-0.023737134,-0.034976617,0.014440237,0.022883506,0.007855438,0.03334095,0.03203275,-0.027950842,-0.0059827967,0.011843328,-0.0222883,0.009535262,0.009566418,-0.023264354,-0.024614094,0.01507505,-0.022088734,-0.0126845455,0.02444111,-0.0037617898,-0.037092403,-0.02547759,0.017139392,-0.0034563276,-0.03283297,-0.02399487,-0.027673485,0.0100147575,0.02215316,-0.020367084,-0.0052514705,0.0031454333,0.022906264,-0.014085579,-0.010388187,-0.02256601,-0.025281,-0.018416148,-0.00796081,0.009909042,0.028730456,0.021087881,0.014323564,-0.014224444,-0.005309892,0.026403164,0.010094907,0.004593304,0.03155778,0.02099855,-0.026604509,-0.017935554,-0.018008608,0.01553303,-0.019048488,0.023023486,0.013352459,-0.030291513,0.005336541,0.009177523,-0.020074332,-0.023304388,-0.033822566,0.036891527,0.0016470973,0.015237551,0.03174487,0.011803837,0.030122392,-0.015761249,-0.005233793,-0.0009857866,-0.03312827,-0.0035868448,-0.028510679,-0.016161239,-0.022169666,0.0058200047,-0.012361617,-0.0052729244,0.013807259,0.015378011,0.027982559,-0.014271707,0.03146966,0.027424479,-0.012496327,-0.016198209,-0.012481133,-0.020603942,-0.031755432,0.030706456,-0.03148702,-0.029545508,-0.009452208,-0.014849018,0.008120671,0.031829864,-0.012155042,-0.0006751439,-0.029125104,0.024701715,-0.031152805,-0.026800072,-0.029955411,0.017230581,-0.02880318,-0.032437764,-0.034468118,-0.009663942,-0.022104919,-0.002337721,0.0026923066,0.016577994,0.022065122,-0.021755537,0.015677191,0.022623891,0.009833194,-0.004602273,-0.011156367,0.025792193,-0.017603278,-0.032849062,0.02002161,0.0030311719,0.03213873,0.029103206,-0.018331705,-0.013687685,0.012647398,-0.031115117,-0.02522718,0.022561856,-0.01837321,0.010174455,0.008133387,-0.013174276,-0.048700567,0.015081664,0.0414227,-0.04367834,0.03032598,-0.029443212,0.01926523,-0.03556141,-0.02988419,0.023067987,-0.014289819,0.038478244,0.008648442,-0.033907425,0.034601524,0.021098414,0.01377032,0.013529638,0.013540099,-0.015151296,-0.025961302,-0.028876329,-0.021088062,0.0055842944,0.030961992,-0.019940928,-0.018363263,-0.011143913,0.008222588,0.009138659,0.0100436965,0.016523134,0.01914962,-0.022195019,-0.024227625,-0.0033891655,0.014499114,-0.0049071326,3.760996e-05,0.0054567144,0.0051726582,-0.027122298,-0.0075802268,0.036573764,-0.017055422,-0.0077767004,0.003923927,0.008750737,-0.03293952,0.013022636,-0.0071803364,-0.007048737,-0.014177266,0.0036419576,-0.0013694442,0.014594591,0.015335692,-0.02948959,0.024947956,-0.013486703,0.0076803616,-0.008795314,0.016811628,-0.015070774,-0.020729102,-0.025845565,0.002743913,0.016366847,-0.02560538,-0.012773481,0.031125087,-0.0185102,0.030732993,-0.021779004,-0.0027942194,-0.013537247,-0.009981328,-0.0035775367,0.0074864323,-0.018065307,0.036474906,0.02827953,0.0008634703,-0.013146362,-0.0019534305,0.03355318,-0.023674978,0.027442623,-0.03288989,0.023153067,-0.020603653,-0.006134095,-0.021648532,0.0082565565,0.010326921,0.006983796,0.027470676,0.02473383,-0.034109313,0.033032864,0.018932818,0.0033887983,0.015893474,-0.025817042,0.027577328,0.028458625,-0.021035945,0.02271494,-0.032976147,-0.014605241,0.023616785,0.0157147,-0.009934282,0.029357826,-0.023326516,0.012990124,-0.008852092,0.03277978,-0.015818922,-0.022729913,-0.020832298,-0.03240678,-0.007815906,0.01649981,0.0031068656,0.031724267,0.012299504,-6.411564e-05,-0.016405024,-0.0013915494,-0.039783157,-0.018234132,0.018380709,-0.026169572,0.031357735,-0.008755813,-0.004671545,-0.027818408,0.013652309,0.022869106,-0.011225997,0.008805464,-0.016197644,-0.012999,0.019391606,0.0372277,-0.0052225576,0.005309855,0.01549352,-0.03380934,-0.013059781,0.01224458,0.007662812,0.026821163,-0.0022184069,0.01761034,-0.023508456,-0.0072857453,0.025545493,0.0006666051,0.011895506,0.029626144,0.017018076,-0.01457874,-0.012020302,0.028546639,-0.013756981,0.008645147,-0.022574978,-0.026802612,-0.014359122,-0.010638804,0.023470927,-0.009521675,-0.0293111,0.011009135,-0.03713489,-0.017131994,-0.024966985,-0.033645585,0.014904622,0.01941694,-0.027137615,0.01588649,-0.02993211,0.016791075,0.033319023,-0.008334622,0.0021172822,-0.03563688,-0.012655825,-0.017930014,0.0356337,-0.008189778,0.026108945,0.012181042,0.0011331259,-0.018695204,-0.0060040797,0.019750971,-0.0040154005,0.017506398,-0.0013621002,0.015326632,0.040412176,-0.02206753,-0.02298422,-0.014572505,-0.0007157191,-0.053482015,-0.019345114,0.003036638,0.03484287,0.015308272,0.004333406,0.02946093,-0.017637672,0.015113894,-0.033279236,-0.01922323,-0.02606913,0.0077901087,-0.028708814,0.011800879,-0.015748894,-0.029043347,-0.014005312,-0.03511884,0.011561712,-0.027315205,-0.0049421196,-0.035580777,-0.03442439,-0.015965905,-0.026375232,-0.008250546,0.019612726,0.012430681,-0.0042877714,-0.013995128,-0.020540439,-0.012990223,-0.0007529136,-0.023992693,-0.0124295335,0.0052087368,-0.021672623,-0.0019682834,-0.0031358905,-0.02254976,-0.008763573,-0.025609767,0.0062272516,0.018866379,-0.015634615,-0.026635142,-0.014573706,-0.0085843215,-0.015259019,-0.020743446,0.022510003,-0.02591749,-0.0046965918,0.038344637,-0.040559348,-0.02138732,0.032782976,-0.0061292513,-0.036713544,-0.009768658,-0.01859779,0.0024874785,0.005194741,-0.0020879041,-0.02044876,-0.0060205185,0.0057095755,-0.009021691,0.019368304,-0.009604469,0.0039219544,-0.008421477,0.025518661,0.009335307,0.00898099,-0.024688259,0.008353242,-0.01679642,0.033463657,0.014979327,0.0091416985,-0.03043848,0.0047801808,0.0101071745,-0.0055305264,0.015334946,-0.0076427427,0.028208623,-0.002551132,0.0115109505,0.039249454,0.036774848,0.033963446,-0.010285758,-0.021974724,3.6140893e-05,-0.0008960275,-0.015846629,0.0035874762,0.003569012,0.03166621,0.033511586,-0.0107003115,-0.005516858,-0.021766936,0.013954917,0.0064231404,0.011372929,-0.009214849,0.024667008,0.013124433,0.015810426,0.02202047,0.020002788,-0.029479744,0.024542721,-0.034117907,-0.015798502,0.02275369,0.03187664,-0.0011109053,0.018321939,-0.028727945,-0.030034797,-0.012216812,-0.004933877,-0.031128392,0.009277878,-0.027530853,0.016384784
