0,1,2,3,4,5,6,7,8,9,10,11,12,13,14,15,16,17,18,19,20,21,22,23,24,25,26,27,28,29,30,31,32,33,34,35,36,37,38,39,40,41,42,43,44,45,46,47,48,49,50,51,52,53,54,55,56,57,58,59,60,61,62,63,64,65,66,67,68,69,70,71,72,73,74,75,76,77,78,79,80,81,82,83,84,85,86,87,88,89,90,91,92,93,94,95,96,97,98,99,100,101,102,103,104,105,106,107,108,109,110,111,112,113,114,115,116,117,118,119,120,121,122,123,124,125,126,127,128,129,130,131,132,133,134,135,136,137,138,139,140,141,142,143,144,145,146,147,148,149,150,151,152,153,154,155,156,157,158,159,160,161,162,163,164,165,166,167,168,169,170,171,172,173,174,175,176,177,178,179,180,181,182,183,184,185,186,187,188,189,190,191,192,193,194,195,196,197,198,199,200,201,202,203,204,205,206,207,208,209,210,211,212,213,214,215,216,217,218,219,220,221,222,223,224,225,226,227,228,229,230,231,232,233,234,235,236,237,238,239,240,241,242,243,244,245,246,247,248,249,250,251,252,253,254,255,256,257,258,259,260,261,262,263,264,265,266,267,268,269,270,271,272,273,274,275,276,277,278,279,280,281,282,283,284,285,286,287,288,289,290,291,292,293,294,295,296,297,298,299,300,301,302,303,304,305,306,307,308,309,310,311,312,313,314,315,316,317,318,319,320,321,322,323,324,325,326,327,328,329,330,331,332,333,334,335,336,337,338,339,340,341,342,343,344,345,346,347,348,349,350,351,352,353,354,355,356,357,358,359,360,361,362,363,364,365,366,367,368,369,370,371,372,373,374,375,376,377,378,379,380,381,382,383,384,385,386,387,388,389,390,391,392,393,394,395,396,397,398,399,400,401,402,403,404,405,406,407,408,409,410,411,412,413,414,415,416,417,418,419,420,421,422,423,424,425,426,427,428,429,430,431,432,433,434,435,436,437,438,439,440,441,442,443,444,445,446,447,448,449,450,451,452,453,454,455,456,457,458,459,460,461,462,463,464,465,466,467,468,469,470,471,472,473,474,475,476,477,478,479,480,481,482,483,484,485,486,487,488,489,490,491,492,493,494,495,496,497,498,499,500,501,502,503,504,505,506,507,508,509,510,511,512,513,514,515,516,517,518,519,520,521,522,523,524,525,526,527,528,529,530,531,532,533,534,535,536,537,538,539,540,541,542,543,544,545,546,547,548,549,550,551,552,553,554,555,556,557,558,559,560,561,562,563,564,565,566,567,568,569,570,571,572,573,574,575,576,577,578,579,580,581,582,583,584,585,586,587,588,589,590,591,592,593,594,595,596,597,598,599,600,601,602,603,604,605,606,607,608,609,610,611,612,613,614,615,616,617,618,619,620,621,622,623,624,625,626,627,628,629,630,631,632,633,634,635,636,637,638,639,640,641,642,643,644,645,646,647,648,649,650,651,652,653,654,655,656,657,658,659,660,661,662,663,664,665,666,667,668,669,670,671,672,673,674,675,676,677,678,679,680,681,682,683,684,685,686,687,688,689,690,691,692,693,694,695,696,697,698,699,700,701,702,703,704,705,706,707,708,709,710,711,712,713,714,715,716,717,718,719,720,721,722,723,724,725,726,727,728,729,730,731,732,733,734,735,736,737,738,739,740,741,742,743,744,745,746,747,748,749,750,751,752,753,754,755,756,757,758,759,760,761,762,763,764,765,766,767
0.008665239,0.0054946505,0.009938645,0.008050766,-0.0121800555,-0.0022704161,0.031440333,-0.030459678,-0.17700203,-0.014231798,0.09627087,0.22672094,0.20958874,0.031374518,0.037654858,-0.32309934,-0.25565684,-0.0017674456,0.02193207,0.21122786,0.22433019,0.12899627,-0.12509045,-0.34942684,-0.25256297,-0.272913,-0.023090174,-0.105744965,-0.04134352,-0.06664291,-0.25057408,-0.26001307,-0.33952293,-0.1079417,-0.19704397,-0.26139838,-0.2548738,-0.18824759,-0.46212783,-0.3369117,-0.4855188,-0.24117674,-0.21122652,-0.30133486,-0.54247755,-0.43426737,-0.5693541,-0.4468794,-0.07153298,-0.04779367,-0.18533202,-0.10985487,-0.38822657,-0.2795821,-0.393711,-0.3169404,0.012781509,0.021918256,-0.020507663,-0.0024935484,-0.0005601881,0.0016493389,-0.004651056,0.025238113,0.2107795,0.16171001,0.18320462,0.2931783,0.2794914,0.2605734,0.19000144,0.22631267,-0.017848719,0.025536451,-0.082418084,0.19997187,0.2241054,0.10998923,-0.10031682,-0.11437036,-0.26353988,0.13232882,0.22754647,0.45299268,0.1976845,0.12258879,0.27828613,0.22328465,-0.037485484,-0.1354517,-0.079204954,0.05274405,0.106876776,-0.043861378,-0.08558141,-0.022026641,-0.19415544,-0.41024974,-0.24726045,-0.1871702,-0.11582573,-0.043643817,-0.22240402,-0.23724139,-0.416858,-0.24692184,-0.16742426,-0.12975413,-0.3657058,-0.25976992,-0.53414774,-0.07765801,-0.34727266,-0.21489398,-0.50766015,-0.18891723,-0.2326959,-0.45628294,-0.26287076,-0.4052074,-0.61902314,-0.13672705,-0.12771994,-0.21722817,-0.09538836,-0.484969,-0.13745841,-0.36265808,0.22276214,0.13736181,0.122668006,0.06299387,0.046480943,0.03770158,-0.017650101,0.3791334,-0.16496353,0.13726725,0.17395522,0.20594156,0.09864611,0.014837119,0.06143666,-0.29980573,-0.0762945,-0.013639851,-0.024478922,0.08504962,0.11391805,0.08840107,0.041680433,-0.19155538,0.23177035,-0.12568957,0.045550097,-0.022839965,-0.009023439,-0.026570505,-0.29968157,-0.24302797,-0.19183388,-0.012223331,-0.17797606,-0.19957593,-0.2502868,-0.11023658,-0.03694364,-0.19204056,-0.47982055,-0.5013266,-0.14538044,-0.13307148,-0.14119552,-0.09644429,-0.29711276,-0.17450406,-0.46490023,-0.2250237,-0.49198592,-0.026871517,-0.33958578,-0.29784915,-0.41080794,-0.3223517,-0.2215292,-0.12561215,-0.18412359,-0.050964877,-0.26208496,-0.23094477,-0.33023793,-0.47293073,0.1210118,0.06916531,0.22420463,0.15971757,0.19272505,0.19765855,0.23390545,0.18898067,-0.06314072,-0.020001236,0.15057833,0.15035757,0.18850186,0.15219106,0.27393487,-0.10801634,-0.15545072,-0.23429514,-0.01506073,0.12340186,0.12291466,0.032981984,0.1114225,-0.026395544,-0.100914225,-0.032646775,-0.0093193455,0.08228314,0.2575223,0.23334496,0.12447017,-0.085007556,-0.07767714,-0.3252307,-0.075771704,-0.113067456,-0.06695482,0.04152385,-0.074454,-0.0926136,0.011702543,-0.08325766,-0.27267027,0.14194725,-0.03519977,0.016939117,0.03335212,0.055335607,0.0625211,-0.18197004,0.0266934,-0.16660911,-0.046433836,-0.01099868,-0.1610722,-0.09156636,0.05509583,-0.096696354,-0.12502348,-0.031400703,-0.09520665,-0.18028973,-0.045401663,-0.32287768,0.31464082,0.04413263,-0.16059585,0.1753508,0.2684961,0.12062709,0.2292848,0.12548867,-0.3905486,-0.10625819,0.06648434,0.1556935,0.107066035,0.23611282,0.11939115,0.055707112,-0.28841877,-0.06456683,0.026203323,0.20244187,0.2784055,0.16263008,0.13496889,0.04663355,-0.24437156,-0.2072552,0.044346433,-0.0017650294,0.20369764,0.10823516,-0.04418761,-0.089166746,-0.24727356,-0.0829357,0.019420212,-0.008823455,0.01600869,0.13719462,-0.19324033,0.046032105,-0.22366583,-0.13042137,0.129704,0.1156177,0.1734689,0.05496196,0.086207025,-0.008930834,-0.27043724,-0.4446717,0.09326297,0.38887805,0.18350199,0.0941298,-0.38175505,-0.0917716,-0.28654304,0.16477469,0.089097016,0.18722156,-0.026064975,0.2449787,0.062634744,-0.03839536,-0.22388943,-0.1887683,-0.23480122,-0.06362105,-0.026519576,-0.41604733,-0.031049889,-0.09830239,-0.22835416,-0.21224385,-0.17767924,-0.10762637,-0.26569343,0.15053113,-0.08720994,0.047078542,-0.25480556,-0.34122163,-0.19387111,0.61031115,-0.12318431,-0.2131503,-0.079973504,0.16229829,-0.2083154,-0.072030574,-0.022451127,0.189621,0.06350791,-0.1795579,0.0063948827,0.16004601,-0.02982347,0.042016618,0.23270142,0.11962142,0.21559761,0.05977416,0.0475354,0.19356592,-0.052686136,0.032851804,0.23863836,0.13233945,0.16663828,0.21730243,0.15643568,0.28119782,-0.072406456,0.071484305,0.16140354,0.17571536,0.14394078,0.21049058,0.11359742,0.080666706,0.18885921,-0.22080536,-0.06528053,-0.14416416,0.08233834,-0.13964301,-0.04457106,0.20890123,0.025388218,-0.03598757,0.002498594,-0.0022117596,-0.035891857,0.014132511,0.03316958,-0.017675992,-0.090936035,0.13216269,0.123806,-0.00042319504,0.005581217,-0.020472858,-0.048872847,-0.23429951,-0.27028337,-0.13154788,-0.21179613,-0.16146106,-0.25153974,-0.31213412,-0.2741167,-0.15504885,-0.26209068,-0.27119002,-0.048034307,-0.11301246,-0.1241406,-0.13969675,-0.18407695,-0.2853401,-0.27015573,-0.15386526,-0.022845848,0.06839873,0.1305118,0.002081126,-0.08711563,-0.08239838,-0.20762591,-0.108879544,-0.02326,0.17027615,0.14582467,0.046177085,0.0024622746,-0.10132049,-0.06613753,0.031526845,0.28429016,0.1888153,0.0380679,-0.12844983,0.076856375,-0.12476032,0.020125918,0.014333361,0.026810763,0.017457522,0.0023949645,-0.009844931,0.014852387,-0.0043607284,0.16992201,-0.09100641,-0.004146791,-0.112301484,-0.043818504,-0.07024995,-0.057383213,-0.44998872,-0.32523465,-0.13549773,-0.42328605,-0.16910394,-0.056980934,-0.50203866,-0.34543154,-0.23903884,-0.18705294,-0.31260917,-0.3367384,-0.3409992,-0.26817927,-0.20653254,-0.08476792,-0.23274128,-0.11678191,-0.48374394,-0.22686285,-0.21734607,-0.19847682,-0.28289852,-0.26061755,-0.23719743,-0.2206918,-0.14055878,-0.08348119,-0.24230662,0.0126577895,-0.04328469,-0.13224597,-0.11690559,-0.3689048,-0.11188871,0.14282568,0.022763792,-0.058797184,0.023777805,-0.08367574,-0.22580531,-0.20877503,-0.2610047,-0.09886556,-0.04134232,-0.07468975,-0.3368981,-0.21473362,-0.38035864,0.13573961,-0.13663465,-0.1690022,-0.32510188,-0.22176296,-0.40377122,-0.007298687,0.046192653,-0.2750363,-0.20462039,-0.31110948,-0.04124722,-0.47865364,-0.19901603,-0.04004592,-0.4034128,-0.40430358,-0.3358924,-0.5249944,-0.42008075,-0.22848335,-0.55741614,-0.25530934,-0.39697438,-0.5196982,-0.22678052,-0.2761074,-0.118296415,-0.27785623,-0.0136133665,-0.27338958,-0.36729422,-0.22833185,-0.25952315,-0.13153037,-0.32459626,-0.16463967,-0.45794627,-0.042240243,-0.23136444,-0.31818637,-0.033942,-0.020466166,-0.04154453,-0.1415386,-0.05571655,-0.33951718,-0.30785015,-0.19530569,-0.37723562,0.02255704,0.07228886,0.06936427,-0.10393431,-0.10101558,-0.048129745,-0.20524587,0.032987572,-0.25236064,0.07813567,-0.09133152,-0.2659911,-0.046791565,0.06340788,-0.14017579,0.2644445,-0.094265684,-0.112772554,0.14277717,-0.003499488,0.0029410608,-0.34046587,-0.57698977,-0.37729293,-0.35815024,-0.2462374,-0.41787362,-0.26441872,-0.19287261,-0.4550631,-0.5951413,-0.31514993,-0.15677391,-0.2723504,-0.09140987,-0.26212904,-0.14207184,-0.43145168,-0.5899135,-0.07296398,-0.3140987,-0.4284198,-0.46152,-0.38361648,-0.04045386,-0.29745036,-0.46793666,-0.44025075,-0.19436651,-0.19973223,-0.2585059,-0.296079,-0.4083064,-0.33248648,-0.65843326,-0.16676174,-0.39852154,-0.26850682,-0.207217,-0.12548268,0.11152279,0.07993021,-0.4572161,-0.36770812,-0.20042853,-0.37249458,-0.2409278,-0.20347482,0.078282885,-0.046211183,-0.10389426,0.0075423704,-0.10755482,-0.16564254,-0.19376759,-0.1859815,-0.1352872,-0.28896096,-0.20634075,-0.23496464,0.0099228425,-0.06604903,0.0049687135,-0.12909804,-0.12752756,-0.044350248,-0.4144869,-0.14240927,-0.06987742,-0.011691675,-0.03986755,-0.034714583,-0.20018451,-0.5484866,-0.557445,-0.6976178,-0.3003539,-0.042036973,-0.26629764,-0.41324303,-0.7766564,-0.6477129,-0.7921119,-0.5571057,-0.28424734,-0.33899853,-0.39739102,-0.57875484,-0.33633384,-0.53227645,-0.4745988,-0.559119,-0.44335622,-0.4059655,-0.39188927,-0.4566028,-0.7107136,-0.51261127,-0.50307214,-0.41183785,-0.4488555,-0.33796453,-0.16808696,-0.23736463,-0.40616265,-0.38985467,-0.4421206,-0.3745244,-0.16496582,-0.2763047,-0.20280352,-0.24504513,-0.22220293,-0.2621308,-0.16188908,-0.24811326,-0.45661542,-0.11318795,-0.20403707,-0.20960239,-0.30767494,-0.4825422,-0.0674102,-0.025712393,-0.36210683,-0.23744093,0.021675928,-0.24242102,-0.24616759,-0.37239486,0.3227115,0.3379137,0.29075083,0.15025301,0.37794095,0.38781542,0.65683883,0.68390834,0.2537997,0.102939025,0.19441558,0.1489597,0.30188158,0.39054838,0.45070124,0.52280295,0.14869514,0.073442966,0.09218095,0.10717384,0.26013678,0.103486076,0.34222648,0.30114633,-0.15966144,-0.26473367,-0.15931304,-0.11051974,-0.15530917,-0.069527656,0.19304205,0.29365942,-0.154628,-0.38461262,-0.1243102,-0.4202468,-0.18257238,-0.08082487,-0.054060765,0.29135844,-0.34862766,-0.3626019,-0.438591,-0.15532154,-0.44408098,-0.21616,-0.045561504,0.1595395,-0.2705964,-0.20409937,-0.3388843,-0.2833207,-0.38218072,-0.46007118,-0.03700806,0.08214957,-0.37014753,-0.21786018,-0.294043,-0.16098914,-0.29070935,-0.284648,-0.17800547,0.09803206
