-1.0265827,0.6897209,-0.896236,-0.6143757,0.5665764,-0.79749197,-0.7384833,-0.8032467,-1.0788873,0.8761262,-1.0661715,0.91906285,-0.25348538,-1.1078758,-0.8868169,-0.59076566,-0.86618316,-1.0069779,0.7609563,-1.0034946,-0.7471361,0.35608327,-0.7605109,-0.8357254,0.88629866,-0.85085857,-0.8773353,-0.72251195,-0.8193918,0.8405304,-0.9653449,-0.8447123,-0.28130573,0.70174485,0.7009803,0.7938653,-0.44075292,-1.0111126,0.5240721,-0.2810879,-1.0014309,-0.8447073,-0.6555999,-0.5583981,-0.8274467,-0.40152276,0.9508532,1.5265263,-0.77047384,-0.8674777,1.3514465,-0.49175718,0.762851,-0.8104338,0.71577185,-0.89081925,0.34981066,-0.5525053,0.78438044,0.4087623,-0.8346153,-1.0887396,-0.8879148,0.6764557,0.32134235,0.53333336,1.030447,-0.83916134,-0.8451133,0.51701707,-1.0856997,0.69288546,-0.8369082,-0.7477488,-0.9815122,-0.8863837,0.87554026,-0.6763739,-0.5026853,-0.8683058,-0.7596323,0.9549447,-0.9243525,0.3272963,0.97424495,0.25231454,-1.2718316,-0.8791313,-0.7189579,1.193155,-0.8139785,-0.9184186,-0.8790701,0.64747596,0.8989867,-0.9450875,0.8353713,0.83448803,-1.0288442,-0.8686356,-0.5090809,-0.9375732,-1.3796245,1.097267,1.0051736,1.1281284,-0.9175601,0.65745085,-0.94467896,-1.0527935,-0.94417685,-0.20882301,-0.8337767,-0.70072025,0.93556,-0.691495,-0.8003488,-0.6878286,0.2605414,-0.60640305,-0.6316134,0.7865604,-0.6032781,-1.0129552,0.7951026,1.1797519,0.9581885,-0.7962222,-1.0592562,-1.0545254,-0.7729758,-0.88079023,-0.8271779,-1.0720755,0.9948731,-1.0172523,-0.7211964,0.17161064,-0.61110246,-0.6504607,-0.9147847,-0.8457282,0.6281013,-0.8568482,1.2399728,-0.8342063,-0.89948595,-0.7350263,-0.65287864,-0.8214704,-0.78764474,-0.9966602,-0.57519406,-0.78876144,-0.6865,-1.0197004,-0.87379086,-0.9507647,-0.9789818,1.0098145,0.36227903,-0.91880697,0.5693228,-0.8946596,-0.5972978,-0.8329136,-0.16771035,-0.7731825,-0.91614485,-0.8959087,-0.78478456,-1.0589889,-0.67377555,0.95204747,-0.62171656,0.5101666,-0.76810485,-0.8370277,-0.37933955,-0.6325291,0.81065816,0.866697,-0.69067514,-0.6905172,-0.04498525,-1.0382166,0.8367804,-0.94012976,0.48196393,1.1625869,-0.8785056,-1.0046514,-0.9087355,0.8000425,0.8204579,-1.1577177,-0.9568267,-0.4792906,-0.6432805,-1.1936378,-1.0003135,-0.57108575,-0.7504265,0.3398973,0.915435,-1.0562701,0.6186052,-0.9140924,-0.8658193,-0.62097675,0.84205216,0.86229974,0.16168746,-0.8065378,-0.6284713,0.47718617,-0.18006916,-1.1123825,-0.7278235,-0.37011784,-0.54387003,-0.7563775,-0.6567566,-0.55821115,0.55949396,-0.9114059,0.39108738,0.22646144,-0.31255135,0.71584994,-0.24423344,-0.61072683,-0.9812194,-0.38578495,0.8051274,-0.6275333,0.18337432,-0.7045724,0.9082645,0.7200767,0.6477739,0.3734606,0.54970634,-0.7792421,-0.7736079,0.7052886,-0.9383578,-0.33734167,-1.0418549,-0.42752093,0.36456403,-0.59806925,0.38154337,-0.5362435,-1.0621531,-0.7771907,-0.9586926,1.2966485,-0.922605,-1.1331128,0.8800575,0.2767339,-0.6793737,-0.24344842,0.3402569,0.5216242,-0.17580642,-1.039198,-0.03003021,0.011550497,-0.3280388,-0.8196999,-0.6899976,-0.2795698,-0.94289213,0.6831036,0.5821633,-0.6514053,-0.25311306,-1.1231678,-0.85440564,0.9447363,-0.78073883,0.6565648,-0.93628705,-0.777491,-0.81182367,1.2396195,1.0130919,-0.93947875,0.9068585,0.85867643,0.33595216,-0.9768532,-1.1177005,0.6087322,-0.77215976,-0.53643644,-0.8337992,-0.9501246,-0.9307823,-0.14767915,0.8076308,0.8597302,-1.0155833,0.20483044,0.13859703,-1.0580873,-0.74477935,-0.9821166,-0.66252285,0.7892653,-0.88069355,-0.69082963,-0.937891,-0.99178195,0.1736869,-0.817732,0.52045476,0.8210676,-0.74415195,-0.98021865,-0.9327784,-0.6192635,-0.88835615,0.40372965,-1.0308288,0.6244368,-0.78178704,-0.7011475,-0.88626313,0.7198723,-0.2550112,-0.9267977,0.7435176,0.59219027,0.74672586,-0.81879276,-0.8899421,-0.9395545,-1.096052,-1.0691819,1.2048618,1.1234407,0.56000495,-0.5805461,-0.31095338,-0.9879542,-0.37074843,0.8702381,-0.8324102,-0.86792105,0.9287297,-0.9857808,-1.0477055,0.707323,-0.8963534,-1.055377,-0.96535325,-1.050655,-0.8707157,-0.3410147,0.7155029,-1.1097982,1.006959,0.5880934,-1.2451507,-1.0807756,-0.4228128,0.88686484,-0.7540915,0.7110198,0.3627443,0.46990597,1.2352911,-0.906322,-1.0602409,0.3998165,-0.74874413,-0.92041236,-1.0091263,0.477129,0.6548861,0.3722714,-1.0648049,0.49090677,-0.99566305,-0.6024416,-0.9606916,0.94965696,-0.49798384,-0.84864223,0.28557855,-0.78501755,0.7203027,0.5755412,0.5899925,1.2327592,0.38431397,-0.90120864,-0.7263521,-1.1754284,-0.6520176,0.6616649,-0.76319337,-0.8035647,-0.6745738,-0.717653,1.0560125,-0.9959217,-0.58493197,-1.0694515,-0.69745314,-0.8139286,-0.97775555,1.1282805,-0.8326104,0.88482535,-0.72507435,-0.2815294,-0.56852174,-0.43163636,-1.0037025,-1.0636467,-0.58825743,-0.8252326,0.75721025,1.0297568,1.156985,0.8767534,-0.7972922,0.6725717,-0.96547663,0.3105549,0.14753598,0.6255347,-0.6445064,-0.8428816,-0.6556236,-0.60692644,0.67617285,-0.9053373,-0.90741974,-0.74854267,-1.0722125,-0.80331624,-0.5493907,-0.38813782,0.32297853,0.66953367,-0.7667604,-0.79741734,0.6366605,-0.9393455,0.7444962,1.054233,0.25510594,-0.4902967,-0.7528681,-0.95835096,-0.7447816,-0.9885337,-1.0167454,-0.8872016,-0.5836661,-0.8149756,0.3551709,-0.4954123,1.2417054,0.44652584,0.8745147,-0.8018894,-0.5312872,-0.24537174,-1.0304986,-1.1046505,-1.1019002,-1.0171582,-0.28923059,0.8094304,0.25199118,-1.0956447,-0.87724173,-0.6702757,-0.8293367,-0.99426883,-0.867521,-1.1280322,0.2087675,0.8179563,0.39373812,0.85820633,-0.8767271,-0.68964225,0.6954144,0.6038225,0.4090043,0.682631,1.1522118,-0.018835893,0.949616,-0.026416238,-0.92977655,0.5498641,0.16260968,-0.8247444,-0.012203398,0.64144856,0.7218248,0.6946366,-0.45262742,-0.9431268,-0.5142871,-0.5607552,-0.4216877,-0.3655315,-1.0196741,-0.73517793,-0.7946764,-0.9215046,-1.0593027,-0.9433339,-0.18040216,-0.3239798,1.0079994,-1.1153011,0.78433764,-0.40812454,0.44318885,0.72387946,-0.45700842,-0.95495796,0.93098193,-1.0322046,-0.7477091,0.73707986,-0.852059,-0.77190304,-0.9876677,0.8528167,-0.5781063,-1.1345099,-0.667038,1.0058125,0.3991454,-0.86333114,0.82356155,-0.9988244,0.9175358,-0.60865563,1.4909357,1.0187851,-0.19644296,1.3131104,-0.85262513,0.36266506,-0.74979615,-0.81600523,-0.62529576,0.66384345,0.68398684,0.8158251,0.63513154,-0.7489852,0.83730906,-0.90249276,-0.0712495,0.989086,-0.9256637,-0.9196809,-0.19078456,0.9021372,-0.023333875,0.9634256,-1.0049491,0.15815614,-1.1670886,-0.7973951,-0.5523433,0.34912676,-0.94135,0.7476661,0.7197199,-0.91585684,-1.2546022,-0.8728008,0.29346952,0.8912558,-0.9368566,0.7453122,-1.2785674,-0.91114575,-0.6885725,0.67392707,0.58234316,-0.6047412,-0.8109414,-0.22283839,-1.0128292,-0.926083,-0.025244625,-0.71532065,1.2017252,0.78164303,-0.9242547,1.0483574,1.3229095,-0.41733706,-0.35906556,0.7832831,-1.0391597,1.1910695,0.27786347,-0.90402037,-0.81910145,0.8663107,-0.44322428,-0.5246037,-0.9268424,0.9729437,0.8848855,0.29973775,-1.2285544,-0.77145255,-0.83151835,-0.79100174,-0.79948086,-0.7614542,-0.5845467,0.29648048,-1.0373698,-1.1037031,0.7084098,0.6480103,0.7492641,1.0473679,-0.7606451,-0.6965548,-0.47984233,1.2348887,0.329188,1.043046,0.47824794,0.907163,0.761672,-0.9461073,-0.81703776,-0.7874806,-0.8766877,-1.0648857,-0.89331204,0.90303004,-1.0250893,-0.6543825,-0.84976655,-0.53513163,0.56846267,0.20759247,-1.0132303,-0.64123684,-0.8294447,-1.0719024,-0.51016665,-0.909468,0.6151371,-1.0244439,-0.43833166,-0.8483166,-0.8212266,0.19865146,-0.54929173,-0.9895732,-0.9857219,-0.5284174,-1.0592047,-0.19333768,-1.2076986,0.7687847,0.45542404,-0.777581,0.67630804,0.54162425,-0.81506336,-0.7945203,0.47374088,-0.7910245,-1.0465798,-1.1361039,-0.27818003,0.8079275,-0.8337601,1.2540286,-1.1168214,-0.6530624,-0.93464684,-0.71333086,0.34108767,-0.5841571,-1.0248871,-0.734156,0.45901528,-0.86144125,-0.45908436,-0.7552771,-0.49248767,-0.58783096,-1.0300752,-0.66347986,0.65951663,-0.8915326,-0.87496966,1.2999989,-0.90374976,-0.7617225,-0.98705244,-0.46430302,-0.6749207,-0.81724846,-0.9964276,0.5551493,-0.67731786,-0.46974936,-1.1765646,0.62123126,-0.86554277,0.96210545,0.61676854,0.10038065,1.1693403,0.8942506,-0.7416444,-0.85553694,-0.99345046,-0.62635905,1.0770184,-0.77960604,-0.6207856,-0.84957963,-0.6227422,0.69860923,-0.9195041,1.0438073,-1.0993754,-1.0659385,-0.882682,0.3710756,-0.8074964,-0.9303707,0.73412585,0.63019484,-0.72501785,-0.9157737,0.3280449,-1.19867,0.7724332,-0.42956877,0.78009206,-0.5832416,0.9231662,-0.7342868,-1.044309,-0.85086846,-0.99302596,0.6622252,0.0006734722,0.6478905,-0.8564437,-1.5534899
