-1.0165541,0.67767805,-0.8846746,-0.5979967,0.5570959,-0.78729856,-0.72569865,-0.79502237,-1.065862,0.86498666,-1.0589182,0.91316366,-0.24608296,-1.09842,-0.8748027,-0.5841104,-0.8569563,-0.9981142,0.751132,-0.9965335,-0.7422464,0.34092668,-0.74430877,-0.8241615,0.8675179,-0.8447129,-0.87183195,-0.71288323,-0.8012367,0.8243586,-0.9543803,-0.8311026,-0.2707848,0.689375,0.6827073,0.7774533,-0.42688483,-1.0064131,0.50774205,-0.27409127,-0.9906358,-0.83243454,-0.6454714,-0.5464513,-0.8226635,-0.39582917,0.93841213,1.5077164,-0.7568209,-0.8514508,1.3432368,-0.4820623,0.7583365,-0.7990795,0.7102111,-0.87291324,0.3379165,-0.54472584,0.7656688,0.404585,-0.8249648,-1.0769368,-0.88026625,0.66866153,0.30794573,0.52077186,1.0129722,-0.82640857,-0.83883876,0.50905716,-1.0746042,0.6876962,-0.8270842,-0.73938245,-0.9701442,-0.88197964,0.8591732,-0.66570914,-0.49161726,-0.85423887,-0.7460078,0.94468826,-0.9142114,0.31317237,0.9670924,0.24871393,-1.2594277,-0.8730032,-0.7095573,1.1845305,-0.8101641,-0.9080598,-0.8653163,0.6373137,0.89149994,-0.9348688,0.8302755,0.82827604,-1.0159198,-0.8594003,-0.499129,-0.93010324,-1.3682915,1.0830402,0.9994482,1.1180592,-0.9078928,0.64716923,-0.9339757,-1.0459054,-0.9347892,-0.2018191,-0.8202525,-0.69348264,0.9263457,-0.6767189,-0.78495115,-0.67818224,0.25724503,-0.59656453,-0.61954886,0.7808607,-0.59007835,-1.0078803,0.7967386,1.1641026,0.9433994,-0.77637184,-1.0505779,-1.040842,-0.76024216,-0.872342,-0.8200341,-1.0594262,0.9850588,-1.0032456,-0.71646875,0.17250326,-0.59741986,-0.64203495,-0.9090176,-0.829897,0.61964744,-0.8469563,1.2352818,-0.8227573,-0.89726657,-0.7193059,-0.64311063,-0.810765,-0.7715881,-0.99007726,-0.56521446,-0.7813075,-0.68816173,-1.006367,-0.86504173,-0.9432303,-0.9662404,1.0019413,0.3479919,-0.9065004,0.55062276,-0.8883121,-0.58783394,-0.8259348,-0.16153352,-0.7620326,-0.9070528,-0.8855588,-0.7755016,-1.0505797,-0.66420424,0.93941766,-0.61182606,0.5027788,-0.7603272,-0.81790286,-0.3686404,-0.6202213,0.8005572,0.86312324,-0.67642367,-0.68326104,-0.043128468,-1.0247186,0.8280186,-0.9309197,0.4656609,1.1528267,-0.86542946,-0.99284256,-0.8983605,0.79464865,0.8101097,-1.1465397,-0.94525594,-0.46292606,-0.6341256,-1.1836085,-0.9896313,-0.5636323,-0.7405389,0.3315264,0.90855366,-1.0492423,0.6091342,-0.90379626,-0.8512666,-0.6031949,0.83551234,0.8499246,0.15900263,-0.80197006,-0.62393224,0.47114646,-0.17229252,-1.0965358,-0.7193603,-0.36422166,-0.53451514,-0.7463799,-0.64482325,-0.54568887,0.54852825,-0.904055,0.3823954,0.22458366,-0.30695584,0.7123509,-0.23581319,-0.5973805,-0.97637105,-0.37637103,0.7951333,-0.62217563,0.18006548,-0.6994885,0.9001958,0.71761554,0.64417106,0.3656716,0.52992827,-0.7670068,-0.75821173,0.6998353,-0.931499,-0.3287978,-1.0335974,-0.41664943,0.35709128,-0.58597845,0.37678948,-0.5276138,-1.0540075,-0.76606125,-0.9430403,1.280954,-0.9059706,-1.1249568,0.87147355,0.26705176,-0.6733619,-0.23744929,0.33291468,0.5137985,-0.16937555,-1.0283303,-0.0290495,0.010948073,-0.3203288,-0.8112363,-0.6726158,-0.27101383,-0.92890286,0.67577744,0.56905913,-0.6407595,-0.2437914,-1.1141368,-0.84145993,0.9400796,-0.77813035,0.6480194,-0.93011284,-0.7700955,-0.7965799,1.2230998,1.0097498,-0.92436975,0.89318067,0.8520537,0.3311587,-0.970422,-1.1034759,0.6043822,-0.7614618,-0.5219746,-0.8267137,-0.9400964,-0.92892504,-0.14078605,0.7966754,0.8523677,-0.99652755,0.19909674,0.13146351,-1.0539026,-0.7338206,-0.96675885,-0.6527319,0.7732542,-0.8654196,-0.67994976,-0.93331885,-0.98031545,0.1685444,-0.80613476,0.5082379,0.8104097,-0.73324746,-0.96808505,-0.92334694,-0.6076918,-0.8801,0.39668524,-1.0276142,0.6156916,-0.7762396,-0.69376343,-0.8838897,0.70478195,-0.24602363,-0.92045045,0.732696,0.5844641,0.7427404,-0.8078601,-0.8786671,-0.9299326,-1.0918539,-1.0571735,1.1957768,1.113485,0.55251455,-0.56391764,-0.29960597,-0.97685224,-0.35769,0.85659325,-0.82329667,-0.85640264,0.91885436,-0.9746362,-1.0372438,0.6934531,-0.88752496,-1.046201,-0.9574355,-1.0396316,-0.8580027,-0.33834207,0.711969,-1.0990342,0.9959434,0.5874182,-1.2373481,-1.0742041,-0.4165655,0.8777862,-0.74390996,0.69198793,0.35579813,0.46316147,1.2251884,-0.8890342,-1.0479604,0.39023995,-0.73521304,-0.91074634,-1.0027673,0.46766403,0.6476949,0.36474103,-1.057312,0.47384807,-0.98616767,-0.5971886,-0.9461061,0.9280893,-0.48423114,-0.8381498,0.2810924,-0.7698691,0.7168388,0.5699809,0.5815432,1.2294137,0.37930208,-0.8950407,-0.71297365,-1.1643147,-0.64416987,0.65168834,-0.75330764,-0.7879357,-0.6624645,-0.7018521,1.0446117,-0.9907392,-0.57258385,-1.0591571,-0.6781922,-0.8103791,-0.96798486,1.1231587,-0.8214462,0.8614759,-0.71873003,-0.27219293,-0.5652066,-0.42572832,-0.99432665,-1.05499,-0.5778346,-0.81111306,0.74511296,1.0165495,1.1521568,0.86716837,-0.7970634,0.662613,-0.9586389,0.30452535,0.14176917,0.6157605,-0.6289773,-0.83554256,-0.647391,-0.5990163,0.6583869,-0.89273924,-0.90066993,-0.7358115,-1.0648553,-0.7899679,-0.53627896,-0.37751555,0.31503093,0.66123044,-0.7533594,-0.78239626,0.6243005,-0.9290394,0.73525065,1.0363873,0.24449198,-0.47981906,-0.74307764,-0.94908094,-0.731956,-0.9785797,-1.0056267,-0.87299526,-0.5743908,-0.8096389,0.3499219,-0.4821648,1.2243644,0.4363185,0.8730449,-0.79308224,-0.51810956,-0.23562793,-1.0222346,-1.0934389,-1.0986588,-1.0071574,-0.2848025,0.8022485,0.24198446,-1.0819533,-0.867408,-0.66350484,-0.82713914,-0.98104304,-0.855306,-1.1163938,0.19901991,0.81039935,0.38112885,0.8525343,-0.8597135,-0.6769549,0.68279564,0.593435,0.40075764,0.6611948,1.1347184,-0.01800859,0.94352317,-0.023872634,-0.92123145,0.5444323,0.15559158,-0.81149226,-0.011160533,0.63660425,0.7164394,0.688878,-0.44725966,-0.93607146,-0.5030275,-0.5542089,-0.40696087,-0.36026233,-1.0203731,-0.7188438,-0.7872837,-0.9071462,-1.0483431,-0.9300236,-0.1730223,-0.31534657,1.003599,-1.1064768,0.776537,-0.39665017,0.4273545,0.7216174,-0.4482731,-0.9508957,0.9197458,-1.0199307,-0.7391892,0.72250235,-0.841519,-0.76148605,-0.9796862,0.8426916,-0.5679048,-1.1221803,-0.65108275,1.001832,0.3902402,-0.85540724,0.8193418,-0.9901539,0.9086724,-0.5911574,1.4788092,1.0142021,-0.19385968,1.3038998,-0.841843,0.35833862,-0.7432146,-0.81472164,-0.6185117,0.65879166,0.6736721,0.81395805,0.6269118,-0.74498844,0.83566236,-0.8958061,-0.06901099,0.9715961,-0.91266775,-0.908564,-0.18583111,0.89234227,-0.022844022,0.9469942,-0.9960031,0.15058532,-1.1547469,-0.7770142,-0.5494566,0.34206128,-0.9272303,0.74105686,0.7123225,-0.9049028,-1.2437073,-0.8644079,0.2848908,0.87482196,-0.9308862,0.7445855,-1.2677737,-0.9036156,-0.6829601,0.66687816,0.56456614,-0.5977324,-0.7964149,-0.21305557,-0.9984551,-0.9122127,-0.024253061,-0.7043516,1.1971391,0.76816916,-0.920067,1.0446872,1.3193898,-0.40648443,-0.35314772,0.76626414,-1.0317111,1.180994,0.26751643,-0.8985313,-0.80878323,0.8619958,-0.42908412,-0.5143124,-0.91627115,0.95586383,0.86795026,0.29720265,-1.2203138,-0.75612336,-0.82603085,-0.7803629,-0.78907937,-0.7515968,-0.57083136,0.2896848,-1.0318575,-1.0950747,0.70558727,0.64089596,0.740568,1.039751,-0.75074226,-0.6881871,-0.47000444,1.2291492,0.31876704,1.0249292,0.47444543,0.89753616,0.74394387,-0.9351995,-0.806827,-0.78163266,-0.8672225,-1.0530527,-0.8833983,0.8930187,-1.0105712,-0.6434254,-0.84914565,-0.5259414,0.5610558,0.19932075,-1.0004305,-0.6237679,-0.81797487,-1.063982,-0.4992029,-0.89706147,0.6086627,-1.0158697,-0.43133545,-0.8329954,-0.8086645,0.18913555,-0.5387135,-0.98099095,-0.976117,-0.5197949,-1.0440894,-0.18531077,-1.1959814,0.7510516,0.4503333,-0.7584244,0.6654431,0.52390414,-0.8064342,-0.7835308,0.4582653,-0.7887229,-1.030432,-1.1297117,-0.2713893,0.7917001,-0.82089084,1.2397228,-1.1048253,-0.64014,-0.92603874,-0.6993863,0.33705637,-0.5710136,-1.0144873,-0.720885,0.4525091,-0.8476176,-0.45268762,-0.74315065,-0.47910124,-0.5856472,-1.0169884,-0.6492955,0.6553329,-0.88495827,-0.86010784,1.294456,-0.8911525,-0.7494729,-0.97830844,-0.4537337,-0.66248655,-0.80458754,-0.9847442,0.54979324,-0.67211914,-0.46219584,-1.1632745,0.60278153,-0.8562801,0.9571468,0.612472,0.095312275,1.1600076,0.8877158,-0.72794366,-0.8479179,-0.9858759,-0.61768275,1.0677143,-0.7681782,-0.6118772,-0.8367037,-0.6089702,0.6915243,-0.9098549,1.032912,-1.0914415,-1.0564413,-0.87824136,0.36025843,-0.79732084,-0.91619563,0.72540873,0.6213245,-0.70760894,-0.90159684,0.32531577,-1.188964,0.756808,-0.42336628,0.77514845,-0.5762326,0.9112902,-0.7205649,-1.0352788,-0.8343472,-0.9799626,0.65837646,0.00051089894,0.6447664,-0.85017306,-1.5366209
