0
-0.094354615
0.05664077
-0.0087976875
-0.052489102
0.02946399
0.014402364
-0.21637665
-0.0043810164
-0.19690461
0.044560015
0.03252955
-0.016835826
0.06660148
-0.01985904
-0.17907481
-0.23157279
0.07395879
0.0010492229
0.014273376
-0.0069306144
0.073870234
-0.024873558
-0.2445174
-0.000535232
-0.15304552
0.0820004
0.096567966
0.03838409
0.14242542
0.04418009
-0.03757852
-0.05528635
0.075007975
0.16662869
-0.13367596
-0.004713642
-0.072078966
-0.014850693
0.005498395
0.07829786
-0.032064904
0.019863704
0.061203595
0.026536953
-0.04820349
0.11220157
-0.008316725
-0.19098577
-0.038597763
-0.077681914
0.04504498
-0.13154022
-0.029873282
-0.19135089
-0.061598998
0.022732275
0.10863805
-0.013053197
-0.015092376
-0.11316154
0.019732682
0.10728577
-0.06599643
-0.043695666
-0.13264465
-0.07680408
0.050921183
-0.17241798
0.02526729
0.021379886
0.017694026
-0.000521238
0.004108583
0.124832876
-0.04095132
-0.014028382
-0.0091459425
-0.0680857
0.032164544
-0.0055330866
0.015488017
-0.17220294
0.009029354
-0.30034953
0.07717192
0.03305591
0.088794276
0.0004697165
-0.010956669
-0.008503756
-0.012152171
-0.06283619
0.0068275053
0.08658158
-0.029093549
0.019809674
0.007060764
0.048580095
-0.0065374062
0.0090347035
0.13434045
-0.0034382972
0.011946243
-0.019788083
0.053243335
-0.30938664
0.09417595
0.060518935
0.09132013
0.09959923
0.016641488
-0.027277332
0.037562396
0.031147772
-0.14275295
-0.021304354
-0.10227913
0.017933687
-0.048198875
0.123153485
-0.13468684
-0.04692185
-0.013120138
-0.13450085
-0.017040012
-0.058748964
0.020251159
0.051177293
0.08191553
-0.052040134
-0.010572164
0.11941718
-0.11869067
-0.17220397
0.036176853
-0.056236442
0.077728435
-0.039951507
0.044650722
0.024553988
0.14382458
0.044029184
-0.016608492
-0.043778315
0.029575579
-0.030808697
0.057428826
0.0106167
0.010849921
-0.20486647
-0.02168621
-0.03041283
-0.044583917
-0.02894087
-0.19524609
0.07588638
0.03153122
-0.028907526
-0.3745353
-0.030766143
0.041648883
0.05079375
0.11957847
-0.044704746
0.008517699
0.13412859
-0.017458534
0.10508233
-0.1973711
0.06260635
-0.10329642
0.0026676098
-0.10468322
-0.040550284
-0.042481992
-0.0628932
0.014976957
-0.02459735
-0.10330297
-0.00083893136
-0.072554395
0.07675877
0.07895707
0.0063744406
0.0014128007
-0.041271023
-0.066163614
0.043872997
0.09569874
-0.05152544
-0.1210925
-0.13437177
8.2466715e-05
-0.04780241
-0.052673128
-0.028421763
-0.0092431465
0.037735008
-0.041096058
-0.21645065
0.066998094
0.025872035
0.08683847
-0.20068975
0.003384186
-0.11809926
0.027843036
-0.041347053
-0.08498194
0.0328374
0.034398925
0.08601688
-0.07550988
-0.039506506
-0.0010609233
0.021009205
-0.1460655
0.004124394
-0.0378177
-0.0111328475
-0.06997214
0.04099288
-0.012266056
-0.05495924
0.025201019
-0.1154824
-0.018470403
-0.040794194
-0.027793793
0.024408605
-0.074106716
0.09084028
-0.067289524
0.0039609917
-0.10263139
0.011147097
-0.03616642
0.0480454
0.011065081
-0.0117856385
0.07316262
-0.02887729
-0.0009147571
-0.012814346
-0.014206138
0.102696896
-0.039812997
-0.09563732
-0.08320825
0.013679805
-0.04609589
-0.011494611
0.10538132
0.030620638
-0.06354998
0.1042234
-0.032438368
0.033025593
-0.026519867
-0.028773615
-0.11375376
-0.023037324
-0.01907117
-0.04245173
-0.063162774
0.03468026
0.00964938
0.033268638
-0.0063722082
0.026571723
-0.06975558
0.033590995
0.035871685
0.03172398
-0.021347644
0.0018246864
-0.154277
-0.06891545
0.0035287482
0.06789512
-0.05888876
0.0010594262
0.014829163
-0.022015797
-0.005053481
-0.0002755277
-0.43073454
-0.05553172
-0.13666864
0.06055451
0.03452158
-0.11113115
-0.17543845
0.07410152
-0.034590263
-0.04014678
-0.0025854271
-0.025224147
0.07043135
0.09767891
-0.1206903
-0.053123903
-0.10730107
-0.03995059
-0.018422533
0.027350215
-0.14028506
0.013775708
0.01319371
-0.047219455
-0.10904417
-0.14233656
0.111657016
-0.0124010695
-0.13058305
0.021799304
0.012268967
0.08150226
0.00883782
0.037503935
-0.037307642
-0.037820935
-0.040424205
0.023812855
-0.0994783
-0.13744164
0.0406166
0.1373152
-0.00843909
-0.008077504
-0.09209957
0.03069874
0.027346147
-0.038597584
0.09860624
-0.012355904
-0.021191414
-0.10896135
-0.023481522
-0.063711
0.04244817
0.0600139
0.04274229
-0.23052637
0.019128395
0.19077346
-0.055553492
0.006758442
0.0327915
0.029018326
0.035402104
0.013598344
0.013210841
0.002689983
-0.025541944
0.0014948009
-0.19131206
-0.021442398
0.017775977
-0.03745084
0.046300083
0.002753122
-0.138794
0.04285376
0.054141384
-0.20628606
0.104283765
-0.01613897
-0.0116185015
-0.05392737
-0.038634267
0.0029439956
-0.048240535
-0.031773075
0.008309926
-0.027122378
0.020206831
0.07322142
0.014897114
-0.026643246
-0.017195405
-0.1897799
-0.008520428
0.033987924
-0.041673116
0.0015144295
0.017356066
0.049025927
0.10675749
-0.011489126
-0.032036383
-0.06118946
0.11414442
-0.11796885
0.014241599
0.06574709
-0.08559169
0.049874716
-0.016433029
0.022858812
-0.13815504
-0.08812463
-0.20606625
-0.031392276
-0.15110098
-0.084747866
0.1117826
-0.004879911
0.05449285
-0.0032479905
0.1244199
-0.052731607
0.15886174
-0.009197435
-0.020550959
-0.12638633
-0.055954903
-0.010100698
-0.040526956
-0.11223778
-0.027820626
-0.020336919
-0.046918385
-0.044287104
-0.038413912
0.008366593
-0.029269831
-0.1763371
-0.067456424
-0.03374253
-0.10030799
0.024274018
-0.17685087
0.0037752965
-0.02170913
0.028850842
-0.051001303
0.014875689
-0.038843185
-0.30861413
-0.017527731
0.025330478
-0.028179387
0.027932145
0.024962919
-0.10900146
-0.39445388
-0.0047916747
0.054656055
-0.013453831
0.01440411
0.049938746
-0.029957714
0.043381765
-0.18499905
0.08414611
-0.06315884
-0.02286999
-0.041056737
-0.019440206
-0.026853168
0.017434303
0.05329865
0.074537106
0.0086542005
-0.044722334
-0.033763755
0.040743012
-0.04891
-0.026272891
-0.011135399
-0.032205805
-0.08936603
0.05241042
-0.00027481283
-0.009509293
-0.011180931
-0.06941513
0.03748196
0.047289938
-0.086836904
0.0011373565
0.0043210085
0.039568923
-0.07059743
-0.10091251
-0.06393459
0.105360486
0.0056973575
-0.083316624
-0.027623266
0.020291965
0.022773284
0.11462657
-0.03843454
-0.018093454
-0.021491105
-0.051538337
-0.012678886
-0.12469508
-0.082058966
-0.1557039
0.18870278
-0.042646248
-0.068329245
-0.07751381
0.044360604
0.07428725
-0.06424199
-0.055287488
0.03390769
-0.15213206
0.08135481
-0.018349301
-0.01749741
-0.024351282
-0.023398452
-0.023556419
-0.08411445
0.07102027
-0.031007236
-0.029526236
-0.038427785
0.043195426
0.16218625
-0.0066695246
0.032207377
-0.019893507
0.012175249
0.045203995
-0.11221562
0.04256174
-0.025801364
-0.05861524
-0.034236927
0.032705132
0.045362182
0.011034894
0.0024337112
0.02508736
0.07278495
-0.051394492
-0.14156353
-0.0664021
-0.039183732
-0.26615152
-0.007930211
-0.0030888626
0.07125309
0.040407583
0.019179752
-0.029353224
-0.18992427
-0.0062737092
0.041909706
-0.1276929
0.016797826
-0.09385406
-0.028448334
-0.23166291
-0.05014404
0.06628288
0.0023557288
-0.008495621
-0.10381603
-0.07911807
-0.037720177
-0.053114556
0.13554673
-0.03060166
-0.085011244
0.0463537
-0.0019789357
0.0777488
-0.051121548
-0.061304454
0.029719919
0.085140556
-0.10017615
-0.00940675
-0.10188087
-0.01813067
0.0605758
0.01173539
-0.13741682
-0.04369471
-0.03824418
-0.015379507
0.022779861
-0.039808832
0.029325008
-0.07717106
-0.030736597
0.10534504
-0.0029796674
-0.3266361
0.0543888
0.08655902
-0.02435733
-0.005169938
-0.16114435
0.074387625
-0.03715964
-0.15126269
-0.052308924
0.009909254
0.0090034725
0.016592814
0.08210977
-0.03785789
-0.16231543
-0.17171648
-0.025414301
0.0003461204
-0.10717509
-0.040981237
0.0009975263
-0.099418506
-0.05129361
0.037755013
0.28023678
-0.035959426
0.0044103903
0.02095062
-0.016166447
-0.030201998
0.11574094
-0.003892326
-0.23642717
0.05892895
0.07810743
-0.029419105
-0.20971437
0.09413308
-0.06821252
-0.06774733
0.019392028
-0.07242175
0.04024185
-0.05310367
0.05762493
0.016279384
-0.05298574
0.0023993535
-0.0054011233
-0.04010804
-0.012590411
0.05215178
0.022436906
0.068025656
-0.3267894
-0.026244882
-0.0061198603
0.006187041
-0.06102895
-0.038881417
0.25132507
-0.019876521
-0.19729754
-0.027955638
-0.030606838
-0.009665018
0.051887304
0.082237564
0.07166034
-0.0069033136
-0.32775602
-0.049784146
0.04743157
-0.22848079
0.10143612
-0.06509104
-0.041511826
0.10014154
-0.024709782
0.107759774
0.08743736
-0.38282105
-0.05360824
0.08565819
0.008795945
-0.039366663
0.07848908
0.06820345
-0.020342816
-0.01534143
-0.1190213
-0.09235886
-0.033273395
-0.10005563
-0.050495114
0.013992202
0.028111804
-0.11359114
-0.0038819332
0.023393217
-0.061626963
-0.036395926
-0.055369943
-0.47562164
-0.037918743
0.03928692
0.2180397
0.048072375
0.1034294
0.07129359
-0.10163511
0.07475645
-0.10382974
0.0074052415
0.045049954
-0.09632546
0.029665181
0.017401801
-0.34840015
0.01163701
-0.027792271
0.07856235
-0.07081467
0.024446864
-0.13233027
0.10133514
-0.024417069
0.0013148803
0.037038844
0.032044653
-0.026205216
-0.112854265
-0.035979338
-0.021878993
-0.057298034
-0.028941732
0.03193299
-0.027478565
-0.1797984
-0.103027485
0.05772333
0.2963912
-0.10859986
-0.0043647485
-0.026341612
0.0066335625
0.001610585
0.14180773
0.040812388
-0.13911222
0.06203856
-0.04219443
-0.05130947
-0.048379034
0.1034904
-0.07333341
-0.05433411
-0.11332939
0.018261895
0.044629786
-0.055768017
-0.20082666
-0.050843116
0.08989894
0.037694782
-0.03941647
0.019501463
0.015898319
-0.061294366
-0.08940241
0.041560553
0.08071504
