0.019065527
0.03631624
-0.122305065
-0.05460173
-0.033023592
-0.023966711
-0.038338766
-0.08959256
-0.035277814
0.06809336
-0.012666706
0.106615596
-0.04974658
0.07764411
-0.004268709
-0.019507518
0.0035884138
-0.1324316
-0.053846844
-0.30303136
0.036643237
-0.013056005
0.02423324
0.06318752
-0.005143921
0.044898737
-0.10982053
-0.06581971
-0.062653884
-0.0010695683
-0.05761616
-0.043406792
-0.007823355
-0.01697039
-0.0028799286
0.019407202
0.0012053659
-0.020660937
0.037759345
-0.101017416
0.019606397
-0.06988979
-0.12652394
-0.014335742
-0.035751786
-0.11610101
0.06576839
0.109596856
0.041256845
-0.024651542
0.059010614
-0.09834772
-0.048693776
-0.01941161
-0.047037598
0.0069157574
-3.3363915e-06
-0.08635474
0.012039813
-0.03829432
0.0014019716
0.0071229823
-0.023193281
0.01929599
0.005077217
0.055323694
-0.04407449
-0.07214949
-0.04875625
-0.008402395
-0.024635263
0.011205147
-0.12978013
-0.14046763
-0.024398277
-0.06924067
0.044226795
-0.0034242605
-0.07517603
-0.020541359
-0.011183144
-0.0038208254
-0.063710555
0.021677272
0.0014270009
0.044544157
0.21184883
0.008133363
0.020514738
0.07203683
-0.03226643
0.05520896
-0.022829765
0.09709671
-0.30357996
-0.004868058
0.044642802
0.04590522
0.012106878
-0.040363174
-0.15095001
-0.2737123
0.15974298
0.029465532
-0.14507544
0.034895077
0.00818721
0.008845908
-0.032085385
0.012344942
0.047129307
-0.048995323
-0.054106414
-0.034154262
-0.08064948
-3.450071e-05
0.009836823
-0.09337167
0.032679748
0.054475907
-0.07397416
0.088135585
-0.007101312
-0.32120022
-0.0016454391
0.028500108
0.08747431
-0.009367234
0.13951555
-0.06375312
-0.07380774
-0.18882571
0.1043473
0.017562032
0.09264762
0.0100413645
-0.04638744
-0.024301762
-0.13683477
-0.0069974298
0.0026902938
0.011254234
0.09135111
0.019050613
0.13479003
-0.091172904
-0.095402524
-0.017123207
0.014612099
-0.05372046
-0.00955319
-0.2445349
-0.18655047
-0.016311849
0.06750933
0.015784517
0.043188814
-0.005377368
0.013275197
0.10178253
0.0048046093
-0.036558732
0.029100498
-0.06266653
-0.05578967
-0.004038832
-0.013279702
-0.17721765
0.043004833
-0.018413287
0.07572792
-0.13144614
-0.073854364
0.057550047
-0.027578583
0.02885996
-0.08630236
-0.01408112
-0.059410233
-0.17313564
0.0662172
-0.032403268
-0.065407716
-0.019943165
-0.029734448
-0.008056617
-0.052951273
-0.047203016
-0.030003965
0.085147254
-0.03871096
-0.005135174
0.09970967
-0.08202686
0.019136963
-0.0072609927
-0.035356987
-0.0061241537
-0.028562378
-0.018002313
-0.06443079
0.015245434
-0.11932397
-0.0100498935
-0.07213956
0.06735778
-0.01749804
0.03357503
-0.024725674
-0.004812439
0.09453199
-0.021920534
0.09084677
0.026372448
-0.05255668
-0.051694408
0.03646592
-0.0751722
-0.011737615
-0.056643788
-0.0330474
-0.13531902
-0.07115437
0.042928386
-0.0027334434
-0.09688503
-0.0145388795
0.055994578
-0.09244309
-0.0828134
-0.020766813
-0.006416786
0.025523853
-0.041714527
0.057894114
-0.023559675
0.061334997
-0.14537619
-0.108376004
0.062419992
-0.012778078
0.021201795
0.016207192
-0.0034596997
-0.028116329
0.08525786
-0.12674507
-0.04899534
0.011706734
-0.021251537
0.038976107
-0.054191202
-0.000108769746
-0.105793945
-0.08549494
-0.061577473
-0.04153949
0.06057856
-0.06613765
-0.21410525
0.11964816
0.023263192
-0.03911861
-0.071225606
-0.005056779
0.027905107
-0.038058385
-0.0018521621
0.0045442004
-0.045895554
-0.05231443
-0.012685036
0.026719904
-0.0049376274
-0.05616743
-0.07568607
-0.002926953
-0.03875766
-0.024669603
0.047482185
-0.12509792
-0.015069527
-0.07821057
-0.0031170314
-0.06527914
0.03608335
0.021023886
0.018299727
-0.28599402
0.13519756
-0.011518735
-0.052372266
0.0950965
0.0036494357
-0.07032418
0.075544074
-0.038613353
-0.01526267
-0.00803032
0.04390342
-0.2287633
0.0168281
0.00061022176
-0.034986537
-0.031119905
0.06056461
0.029048271
-0.2095054
-0.12389846
0.0662552
-0.030322602
0.0005334111
-0.019434843
-0.025845759
0.009722563
-0.059574928
-0.027454212
-0.14684315
0.0684182
0.06770534
-3.339665e-05
-0.018725378
-0.031084802
-0.08603153
-0.09116703
0.062270284
-0.027580189
0.027963547
-0.040199522
-0.10022975
-0.18303059
0.046497136
0.0052155633
-0.013256694
0.07088554
0.0075363396
0.005012162
0.070947595
-0.0022592428
-0.13702916
0.04981375
-0.0044306065
0.074159145
-0.055554
0.031983655
-0.003330793
0.042745065
-0.14430943
-0.031320535
0.047409944
0.009298786
-0.1414562
-0.058115896
0.024862496
-0.042296875
-0.032143738
-0.03655821
-0.20142397
-0.11208901
0.082645416
0.019475996
-0.11153686
0.16948207
-0.13866706
0.10567594
-0.021923034
-0.049285974
0.012015631
-0.0166491
-0.19968794
0.032726843
-0.013476885
0.14780916
0.0618282
0.14525929
-0.04841834
-0.11709163
0.039651666
-0.025967307
0.010538801
-0.08661063
0.08916562
0.09994872
0.051985484
0.04242038
-0.024882631
-0.14577982
-0.010971641
-0.03882542
-0.014830247
-0.070562534
0.04187193
-0.0037406618
-0.061337303
-0.080882564
0.009550523
0.1172572
0.13874593
-0.05208785
0.003436769
-0.073737375
-0.010122197
-0.07968572
-0.055328958
-0.14646202
-0.04890367
-0.0021965648
0.06861335
0.04316411
-0.23719466
-0.026970705
-0.12449959
-0.042421244
-0.11370637
-0.090283155
0.057064757
0.008819748
-0.0098619135
0.0160976
-0.0007253011
-0.005609156
-0.050490502
-0.0008483368
0.06814035
-0.12361573
0.041833457
0.014691484
0.033429544
-0.43499336
0.07880704
-0.13777867
0.07615215
0.027624115
0.09025832
-0.031210717
0.017675603
0.013475759
-0.0059983297
-0.09187034
-0.08559977
-0.008977968
0.090818234
-0.031715505
-0.07413477
0.041212987
-0.06872966
-0.036152158
0.015398794
0.039298493
0.12948152
-0.04936705
-0.09765574
0.029428719
-0.25935975
0.022864778
0.037531693
0.017620089
-0.03253981
-0.08542526
-0.06713978
0.031473793
-0.1224665
-0.09265066
-0.03812113
-0.11873663
-0.12545806
0.024501676
-0.03224287
0.047298674
0.01704775
0.075882256
-0.16661133
-0.08474592
-0.05730265
-0.022145232
0.016632574
0.0008519442
-0.073157415
-0.03619995
-0.055926517
-0.016980479
-0.0045742895
0.006699167
-0.0016195349
-0.1316328
-0.12808733
-0.032523658
-0.050952896
-0.015043293
-0.24118966
-0.018066078
-0.09041694
0.0216004
-0.036290716
0.030622039
0.060609695
0.061089676
-0.025502138
0.053579338
-0.035226364
0.10248059
-0.032268595
-0.09011067
-0.0016772612
-0.012193128
0.014639382
0.0015960094
0.04456599
-0.03806608
-0.059649978
-0.021487726
0.064781055
-0.013240067
-0.06665931
0.0153159145
-0.0067164213
-0.03268222
-0.010555771
-0.027005507
-0.01720855
-0.08295554
-0.052824453
-0.011171908
-0.015942356
-0.059645474
0.067769036
-0.031979393
0.00805356
-0.011038146
-0.05982959
-0.047499467
0.15674704
0.010986389
-0.010256457
-0.006736368
-0.014281929
-0.003593694
-0.05973641
0.016985202
0.03190899
-0.020408625
-0.014782101
-0.004870673
-0.018178903
0.04770955
-0.029515112
-0.10647958
0.0011937865
0.090010494
-0.04743806
0.065419786
0.089826696
-0.022124125
0.43930927
-0.1494901
0.004758124
0.063206926
-0.02409254
-0.025907917
0.008906659
-0.010515169
-0.07065673
0.033475656
-0.10932674
-0.08356268
-0.058995046
-0.028799651
-0.06036304
0.012133701
-0.01772556
-0.006057767
0.039994042
-0.024758128
0.0021208727
-0.08036591
-0.016365387
0.20632175
-0.0037604028
-0.026254302
0.014864192
0.015650311
0.010095066
0.054775182
-0.016523132
-0.058349516
-0.08102522
0.0031766691
-0.06940176
-0.084737405
-0.009300674
0.012070961
0.0124535225
-0.30364442
0.17868675
0.09703289
-0.010025593
0.055558313
-0.01678101
0.047681145
0.02953332
-0.009072151
-0.13642009
0.10339849
-0.05289217
-0.09071286
0.1318783
0.11605287
-0.11156123
-0.089746915
0.07018747
-0.011852411
0.06385396
-0.026738929
-0.1358739
-0.10353788
0.15470968
-0.062686525
-0.022562316
-0.0006741301
0.065206535
0.016803931
0.018117895
-0.15683568
-0.025719658
-0.052167024
-0.042340044
-0.004122936
-0.07342018
-0.00364342
0.01909263
0.13582207
0.015066606
-0.0679573
0.1192294
0.07982641
-0.011760312
0.019861447
-0.04013707
-0.09653751
0.052994642
0.0075950404
0.011530783
-0.028716717
0.08470181
-0.017313523
0.011570103
-0.026192151
-0.042097807
-0.12656845
-0.024267511
-0.0976644
0.09315852
-0.12134185
-0.07808562
-0.07156143
-0.032400925
0.020663602
-0.010628876
-0.11111993
-0.01975402
-0.041821722
0.12801026
-0.015914248
-0.13061272
-0.04262508
-0.10079212
0.013661389
-0.057526946
0.08006872
-0.015692525
-0.054929752
0.062242374
0.024936317
-0.03084379
0.039064307
-0.052051287
0.06887322
-0.004469906
-0.017768543
0.036726903
0.045425463
0.0187904
-0.01947234
0.007319621
-0.02159827
0.01440597
-0.06755134
-0.05792243
-0.0031750163
-0.013540491
-0.009963601
0.059372947
0.07383255
-0.18212192
-0.06301394
-0.04610231
0.1076722
-0.077822454
-0.052038748
-0.042612415
-0.009309383
-0.007893065
-0.06589388
0.04324713
-0.15483962
-0.31914824
-0.04306988
-0.05530626
0.05719482
0.057883613
0.032989316
0.087276004
0.06273681
-0.043188386
0.06375894
-0.070923276
-0.02917007
-0.105533004
-0.21461268
-0.0014383517
-0.19849454
-0.15084332
0.019746287
-0.010253044
-0.121740244
-0.20054303
0.12602516
-0.031229068
-0.055696532
-0.05473688
-0.08046479
-0.048743233
0.10507845
-0.022346286
0.09480657
-0.13307875
-0.030308194
-0.032777503
0.016195826
-0.05595964
-0.009197324
0.03543346
0.09085356
0.052282713
-0.099883124
-0.0074039004
-0.2779239
-0.11476811
-0.018488638
0.016093954
-0.037110902
0.030120386
0.062336646
0.22650489
0.04303609
-0.069670774
-0.039588735
-0.04803617
0.025644472
-0.071084164
0.086708724
0.0030959505
-0.19807924
0.055438027
-0.0277023
0.047875177
-0.21731672
-0.19469653
