0,1,2,3,4,5,6,7,8,9,10,11,12,13,14,15,16,17,18,19,20,21,22,23,24,25,26,27,28,29,30,31,32,33,34,35,36,37,38,39,40,41,42,43,44,45,46,47,48,49,50,51,52,53,54,55,56,57,58,59,60,61,62,63,64,65,66,67,68,69,70,71,72,73,74,75,76,77,78,79,80,81,82,83,84,85,86,87,88,89,90,91,92,93,94,95,96,97,98,99,100,101,102,103,104,105,106,107,108,109,110,111,112,113,114,115,116,117,118,119,120,121,122,123,124,125,126,127,128,129,130,131,132,133,134,135,136,137,138,139,140,141,142,143,144,145,146,147,148,149,150,151,152,153,154,155,156,157,158,159,160,161,162,163,164,165,166,167,168,169,170,171,172,173,174,175,176,177,178,179,180,181,182,183,184,185,186,187,188,189,190,191,192,193,194,195,196,197,198,199,200,201,202,203,204,205,206,207,208,209,210,211,212,213,214,215,216,217,218,219,220,221,222,223,224,225,226,227,228,229,230,231,232,233,234,235,236,237,238,239,240,241,242,243,244,245,246,247,248,249,250,251,252,253,254,255,256,257,258,259,260,261,262,263,264,265,266,267,268,269,270,271,272,273,274,275,276,277,278,279,280,281,282,283,284,285,286,287,288,289,290,291,292,293,294,295,296,297,298,299,300,301,302,303,304,305,306,307,308,309,310,311,312,313,314,315,316,317,318,319,320,321,322,323,324,325,326,327,328,329,330,331,332,333,334,335,336,337,338,339,340,341,342,343,344,345,346,347,348,349,350,351,352,353,354,355,356,357,358,359,360,361,362,363,364,365,366,367,368,369,370,371,372,373,374,375,376,377,378,379,380,381,382,383,384,385,386,387,388,389,390,391,392,393,394,395,396,397,398,399,400,401,402,403,404,405,406,407,408,409,410,411,412,413,414,415,416,417,418,419,420,421,422,423,424,425,426,427,428,429,430,431,432,433,434,435,436,437,438,439,440,441,442,443,444,445,446,447,448,449,450,451,452,453,454,455,456,457,458,459,460,461,462,463,464,465,466,467,468,469,470,471,472,473,474,475,476,477,478,479,480,481,482,483,484,485,486,487,488,489,490,491,492,493,494,495,496,497,498,499,500,501,502,503,504,505,506,507,508,509,510,511,512,513,514,515,516,517,518,519,520,521,522,523,524,525,526,527,528,529,530,531,532,533,534,535,536,537,538,539,540,541,542,543,544,545,546,547,548,549,550,551,552,553,554,555,556,557,558,559,560,561,562,563,564,565,566,567,568,569,570,571,572,573,574,575,576,577,578,579,580,581,582,583,584,585,586,587,588,589,590,591,592,593,594,595,596,597,598,599,600,601,602,603,604,605,606,607,608,609,610,611,612,613,614,615,616,617,618,619,620,621,622,623,624,625,626,627,628,629,630,631,632,633,634,635,636,637,638,639,640,641,642,643,644,645,646,647,648,649,650,651,652,653,654,655,656,657,658,659,660,661,662,663,664,665,666,667,668,669,670,671,672,673,674,675,676,677,678,679,680,681,682,683,684,685,686,687,688,689,690,691,692,693,694,695,696,697,698,699,700,701,702,703,704,705,706,707,708,709,710,711,712,713,714,715,716,717,718,719,720,721,722,723,724,725,726,727,728,729,730,731,732,733,734,735,736,737,738,739,740,741,742,743,744,745,746,747,748,749,750,751,752,753,754,755,756,757,758,759,760,761,762,763,764,765,766,767
-0.85666823,1.0062954,0.5271486,-0.6570897,0.8648795,-0.9042582,-0.779568,-0.091421306,-0.8623688,-1.0170428,-1.0209303,-0.9674948,0.2550859,-0.8149591,-0.51015884,-1.095004,-1.0349619,-0.6900231,-1.1437987,-0.77665913,0.7046265,-0.45619604,0.94659644,-0.45372015,-0.8744041,1.0336785,0.81746435,-1.0019873,1.3402226,-0.8823999,-0.85893136,-0.94261175,-0.7552922,1.1040463,-0.79878926,-0.46936786,-0.880824,-0.3610182,0.5496873,0.6920803,-1.0845611,-0.6760329,0.6132702,0.56632096,-0.6394531,1.2880456,-0.6431041,-0.92484766,-0.59402657,-0.91838384,0.66623855,-0.57777435,-0.7754261,-0.9356298,-0.82543665,-1.002484,0.5462834,-1.0445514,-0.37814248,-0.65327215,-1.0743132,0.81088674,-0.85300165,-0.8192955,-0.82288086,-0.92611176,-0.9215541,-0.7162821,-0.7526773,0.7082391,0.45142233,1.3755473,-0.82999796,0.7907204,-0.9213912,0.4084215,-0.7493808,-0.38285697,0.594732,-0.58759403,-0.6631773,-0.672338,-0.910421,0.9804897,0.9957366,-0.7177515,1.4056774,0.40670428,0.11525265,-0.7387173,0.115111075,1.0145518,0.6665799,0.7194357,-0.98715895,0.46713787,-0.87791026,0.80635715,0.45807484,0.41979927,0.73928404,0.64330405,-0.53273624,-0.07798028,-1.0573106,-1.0139676,-1.1396077,1.2617527,0.27652788,-0.99263376,-0.8901785,0.56656253,0.68235403,-0.99799186,-0.9748778,-0.7165848,-0.9111902,0.98868984,-0.36293036,0.5605819,-0.98244095,-0.25385472,0.41666034,-0.96636987,0.67564994,0.8997911,-0.7486513,-1.0984925,0.8499528,0.5638037,-1.2432439,-0.9792255,-0.8797222,-0.97561765,-0.79869777,-0.60540783,0.5908674,-0.64953154,-0.89735657,-0.8882808,1.2024356,0.55439395,-0.9362975,-0.90738124,-0.9778965,-0.5748171,0.880322,-0.67455673,-0.420256,-0.74325544,0.6412982,-0.95080537,-0.47150722,-0.50323606,-0.6474494,-1.1638134,0.13373366,-0.5973165,1.0249907,-0.38172948,-1.0102378,-1.0118283,0.92785186,-0.47268128,-0.7699598,1.2071627,-0.5410206,1.1509714,-0.9462927,-1.0531664,-0.901074,-0.5812766,-0.89469147,-0.5476166,-0.5549037,-0.96620464,-0.97981495,1.045728,-0.63267154,-0.778605,-0.6420686,-0.8197259,1.0340583,-0.980019,0.3627469,-0.78534687,-0.97857904,0.7163108,-1.0664606,-1.1161776,-0.6121455,-0.9751909,0.39442974,-0.5145557,-0.48804796,-1.0278516,-0.77420545,-0.9717526,-0.45767242,-0.75947225,-1.0933509,1.1628125,-1.0226642,-0.961877,0.20046018,-0.8552725,-1.0413268,-0.116956346,-0.8250612,-0.8030838,0.5597743,0.9570174,-0.57904154,-0.035746835,-0.35735542,-0.74245095,-0.8295821,-0.13583973,-0.92344993,-0.9379289,1.0582838,0.3929924,-0.46742374,-0.80691165,-0.8878774,-0.7678636,-0.61754453,-0.18197125,-0.27481538,0.9246836,-0.9506378,-0.8937737,-0.880985,0.8652523,-1.0966305,0.6023495,-0.66822165,0.88887614,0.14209212,-0.79308105,0.58419514,0.5617331,-0.64011884,0.9201323,-0.87062114,0.22238141,-0.7610301,-0.9011543,1.1170863,0.87696326,-0.59852046,0.88641363,1.3252747,0.4923961,-0.88580763,0.5121416,-0.75878656,-0.7411987,-0.6760961,1.310946,-1.0443647,0.83540225,-0.86266375,0.98140746,-0.9353506,1.1788058,-0.8638832,0.36803666,0.7176581,0.54403406,-0.8858253,-0.95926493,-0.85832965,0.48192972,-0.64914286,-0.8176237,-0.79786426,-0.6273147,-0.84223366,1.0166676,-0.61204016,1.091948,-0.88824385,0.095405206,0.8981866,0.44950563,-0.70019436,-0.7288066,-0.48324153,0.53255904,0.5704307,-0.8598092,-0.69539315,-0.79950786,0.6187639,0.7688166,-0.9358136,-0.37544742,0.7436482,-0.85100895,-0.87245506,-0.63494986,-0.74730945,0.75497574,0.68491787,-0.8514603,-0.8076153,0.49137053,0.6725222,-1.0056771,-1.1243707,-0.5442825,-0.99427307,0.59477377,-1.0942024,-0.95578974,0.5663321,0.87458605,-0.79461306,0.7702745,-0.94521064,-0.87331027,-0.28182048,1.0008537,-0.597948,-0.97985154,0.118022494,-0.9579687,0.4305044,-0.9362135,-0.65148604,-1.0900004,0.87788385,0.658518,-0.97354025,0.79269135,0.5363905,-0.95772386,-0.51041377,-0.771859,0.88769704,0.16266042,0.9489376,1.044111,0.73317283,0.93888485,-0.3577291,-0.77014315,-0.66931105,1.149105,-1.0604954,-0.052012846,-1.090924,0.1684851,-1.387215,-0.89245695,-1.1005117,-0.9103039,0.85666144,-0.6917073,1.1034293,0.8472261,-0.8669054,-1.1086421,0.2551662,-0.7582003,-1.324868,-0.761219,0.28998202,-0.33584312,-0.8552772,-0.89534914,-0.87345743,-0.94082147,-0.46837306,0.85582036,0.5602511,-0.84492916,-0.4624635,0.6019229,0.5559146,-0.9966382,0.027260479,0.6700089,-0.5735591,-0.86866695,-1.0714991,-0.99378866,-0.77437156,-1.0082995,0.8197102,-0.89926904,-1.1266104,-0.7254784,0.33913228,0.35430378,-0.8998993,1.1307217,-0.97737515,0.6266259,-0.8814757,1.0008793,-0.9380132,0.50334525,-0.87084484,-1.1559105,-0.81074136,-0.6246044,-1.05105,0.54979795,0.94390976,0.46907166,0.5166957,-0.6891346,-0.9563269,-0.84589475,-0.5420956,0.8697351,-0.69925886,-1.0547324,-0.5282738,-0.25431344,-0.7634817,-0.2866164,-0.5371463,-1.0597316,-1.7317442,-0.6220521,1.0440012,-0.8160694,-1.1466093,0.32622814,-0.8937765,-0.34134188,-0.4978637,-0.89210093,0.7918762,-0.4651618,-0.80422115,-1.104118,-0.8858444,0.5499303,-0.83425814,-0.8521437,0.6073116,-0.8609431,1.0874256,-0.40213272,-0.85510784,0.4760429,-0.8066848,1.4551784,-0.25432748,-0.812692,-0.65219855,-1.164454,-1.0688529,0.33321506,-0.4582425,-0.7828828,-0.06336186,0.39233372,0.4371467,0.3839042,0.9214142,0.7089874,-1.0252644,0.24419047,-0.67071116,-0.96582514,0.6407694,-0.8928529,-0.9435044,-1.1258932,0.6156578,-0.85501105,-1.0803416,-0.54514605,-0.87103075,0.6722903,-0.1396064,0.32342115,0.073150665,0.8298895,-1.086558,-0.4235624,-0.9249473,0.96122986,0.26821634,-1.0341308,-1.0473745,0.5476373,-1.1371973,0.7907449,-0.56015724,-0.23554832,0.55242896,-0.9661839,0.72790056,-0.96725386,-0.890725,-0.8458111,0.8364528,-0.8002464,1.0393355,-1.1233004,-0.9202686,-1.0926518,-1.0784798,-1.0257771,0.12053,-0.82744604,0.8107097,-0.76262987,-0.7819019,0.18177287,1.1255587,-0.6329341,-0.84965676,0.7621473,-0.042157628,0.7142598,0.80686074,-0.82156616,1.1317284,-0.84333163,-1.1193848,0.69796884,1.1986558,0.6379014,-1.0379051,-1.2125176,-0.82672054,0.76553977,-0.59658164,0.4437052,-1.0083865,0.006031824,-0.6892798,-0.731669,-1.0337983,-0.5533742,-0.9323806,-0.55106145,-1.0624831,0.85554093,0.67747027,-0.7519891,0.65939415,1.269654,0.6476047,-0.8503877,-0.7921294,0.47223774,0.8370702,-1.0128076,0.14275318,-0.7589653,-0.7856835,0.9604466,-0.6367006,1.5048133,-0.8273321,-0.47937667,-1.1169195,-0.9497425,0.81099445,-1.0171866,0.77889407,-0.92383724,-0.90545326,0.40757072,-0.55789655,-0.9330488,-0.64720356,-0.95837593,0.8644024,-1.0867743,-0.96487254,0.56305355,-0.9640451,0.92883474,0.46901423,-1.1554626,-1.0371854,0.691673,-1.081151,-0.44829062,0.47347602,-0.6861979,-0.9212712,-0.7509696,-0.9608107,1.3747281,-0.7883779,1.0001602,-1.1711645,0.11334814,-0.7394787,0.16424586,-0.83110714,0.7231545,-0.5520035,-1.0081156,-0.2738819,-0.21281865,0.4393271,-0.75686234,0.28548416,-1.075237,-0.87203664,-0.8665031,-0.8324851,0.5930819,-0.96620154,-0.23744632,-0.92517453,-0.5951062,-0.3673953,-0.8194428,1.3359725,-0.9976549,-0.5216634,-0.66102993,0.575978,-0.9042066,-0.6585726,-0.98134464,-1.2076046,0.8735587,1.0931126,0.33722472,-0.8120841,0.69566256,0.8188896,-0.6764358,-0.07019193,-1.0654349,-1.2633779,-0.88763666,0.41845775,-1.0397209,1.0575252,-0.9319055,-0.33589047,0.69561195,-0.5516352,-1.002865,-1.0914391,0.8124011,-1.0371947,0.76901907,0.6445797,-0.90665483,-0.47023565,-0.28616145,1.1856815,-0.15316518,-0.928427,-0.7921288,-0.79471475,-1.1456504,-0.98909557,-1.1844826,-1.0462039,-1.0905464,-0.93661565,-0.89183974,1.1195099,1.115545,0.41061226,-0.855636,0.62833226,0.4877931,-0.7351201,-0.8623546,1.2016491,0.9715291,-1.0857921,-1.0355135,0.4862871,-0.45373026,0.9689817,1.0790155,-1.0856634,0.47053257,-0.8025542,-1.0429473,-1.0178074,-0.8044481,-0.5396943,0.38414103,-1.125561,-0.9651261,0.48616195,-1.0462186,0.8606635,-0.12834151,-1.0142746,1.048343,-0.9331993,-1.1239384,-0.7732504,0.67544985,0.5442174,-1.0237627,-0.8690191,-1.0807668,-0.8012967,0.7233284,0.61996675,-0.30979487,-1.266713,0.75780916,-0.8078569,0.5770086,-0.79967254,-0.93083435,-0.71898836,-1.0142051,-0.97940636,0.40172222,0.54180557,-0.9051239,-0.83413386,1.3493013,-0.9401138,0.86895233,0.16570553,-0.7974636,-0.6811353,0.5505943,0.34966847,-0.9903099,-1.077249,-0.80710286,0.17952172,0.8037521,-0.78683734,0.4821669,0.80052215,-1.0274668,-0.9192437,-0.97505414,-0.9088183,-1.0499208,-0.8601521,-0.12092493,-0.6029164,-1.0007637,1.0016803,1.0000902,-0.6571192,-0.84751236,-1.145989,0.2690552,-0.4105686,0.7560794,-0.60649467,0.6056858,1.0445802,-0.35551167,-0.1066653,-0.8279484,-0.89363605,-0.67545354,1.0429655,-0.85890615
