0.0052324077,-0.080049366,0.0773463,-0.023645228,0.009175941,0.155353,0.028503751,0.084511064,-0.13899848,-0.030587114,-0.088699676,0.01773187,0.021819433,0.13259259,-0.018804945,0.048015486,0.075818606,0.09387828,0.039987486,0.032747544,-0.03017226,-0.020345058,0.036260564,0.091898575,-0.06841947,0.0902335,-0.022388333,-0.00033252672,0.046605688,0.07368226,-0.03352256,-0.08582394,-0.0058899894,-0.009154875,-0.036462232,0.13527264,-0.06900315,0.08576326,0.0080840755,0.03599474,-0.06836465,0.07074279,0.03531321,-0.023537703,-0.09802306,-0.07987209,0.07405551,-0.08748583,-0.12932836,-0.042354878,-0.073458135,-0.08380274,-0.0022229753,0.06004128,-0.057197653,-0.0088832,0.031747427,-0.01525304,-0.0325604,0.05844112,-0.04136654,0.049664594,0.02053816,-0.029711735,0.070695266,0.11607263,0.008208452,0.0485896,-0.08284871,-0.051057678,0.031762842,-0.020660494,-0.08358899,0.1587618,-0.04887221,0.06837013,-0.05362024,-0.07987245,-0.040495474,-0.0020372802,-0.014778515,-0.023896214,-0.069773026,0.03828634,-0.03670528,-0.15012951,-0.0076942304,-0.11698453,0.006557264,0.08734246,0.05266072,0.047954135,-0.04774365,-0.14068149,0.05534057,-0.036022034,0.0432255,0.043110833,0.02042271,-0.20484884,-0.049309805,0.03127071,-0.0006407626,0.043469507,0.034060128,0.019788653,0.03842524,-0.039434895,0.030284187,0.056182146,0.083969645,-0.12718506,0.029881515,-0.09824515,0.0059812977,0.07206507,-0.00084802514,-0.016245142,0.056235794,-0.086585574,-0.011127657,-0.04225083,0.048385214,0.06823909,-0.0739804,-0.10774872,0.07785858,-0.030611137,-0.007895771,-0.07052982,-0.048471864,0.065042265,-0.04082205,0.069093846,0.054741565,-0.023254128,0.029941889,-0.020484827,-0.030623449,-0.06811088,-0.020856211,0.075933956,0.008799838,0.129697,0.023587001,0.014325868,-0.008829944,0.0054565473,0.011296394,0.05891789,0.022236014,-0.09419616,0.033293564,0.09498516,-0.076487355,-0.075491354,0.020384762,-0.06082276,0.01667298,-0.10343181,-0.02774879,0.03597824,0.006584984,-0.027559895,-0.23894416,0.04837097,-0.11206196,-0.023639541,0.01218107,0.08052449,0.04835431,0.059229396,-0.054728232,0.03027624,-0.0726298,0.0153832855,-0.011957403,0.06932394,0.08177758,0.068999864,-0.06394572,-0.046734992,-0.049128585,-0.020309899,0.13894387,-0.020880481,0.08379563,0.021472408,0.07322524,0.035017084,-0.028781725,-0.056875654,-0.07447167,0.07447909,0.06738845,0.0002669676,0.06502373,0.025690764,-0.046441004,-0.05285347,-0.026232183,-0.10613051,0.05849873,0.043518495,0.10110686,-0.054374073,0.057880066,0.011102498,0.07402417,-0.089605756,-0.052001864,0.0040611452,-0.014709821,-0.095736824,0.07037835,0.03021919,0.06084405,0.051187363,0.04854561,0.02191933,-0.08211878,0.12221107,-0.013240009,-0.009761972,-0.14639506,-0.063986585,-0.09418219,-0.010236789,0.023767902,0.0006182822,-0.025138352,-0.08491391,-0.050946012,-0.020235784,-0.11042333,-0.03809714,-0.078116916,0.03117899,-0.05039988,-0.05789554,-0.014944244,0.010573865,-0.06615627,0.011661285,0.00054077053,-0.025047498,0.008830038,0.07992397,-0.0076419795,0.062204696,0.078181356,0.06720678,-0.007546596,-0.014491058,0.079399504,0.005572413
-0.046813607,0.0047542574,-0.056722835,-0.061428424,0.016447032,-0.035837978,0.022437312,-0.06282863,-0.024347896,0.031002475,-0.043095607,0.037358787,-0.033536997,0.020877633,-0.056738455,0.047095977,0.010462446,-0.044488735,-0.047386345,-0.055281594,-0.0016155101,0.016686255,-0.051858712,0.05488256,0.04886998,-0.017733358,-0.010219571,-0.0224029,0.0068808077,-0.0089668315,0.022513133,-0.01662023,-0.012808754,0.053013723,-0.0184612,-0.02173495,0.012058559,0.030712739,-0.036327537,-0.038083266,-0.025950672,-0.050749443,-0.0007051363,-0.051180046,0.024182644,-0.031723123,0.049162973,-0.007346772,0.026983263,-0.058188487,0.04900957,0.011286062,-0.05384211,-0.014652311,-0.019640697,0.01791488,-0.012710842,0.0094412835,0.047741048,0.040187053,0.004169775,0.051790968,-0.012116131,0.0032947215,0.021437507,-0.06458023,0.040618915,-0.061975844,0.026635475,-0.0062752035,-0.064773016,0.011631135,-0.043699995,0.004912702,-0.04595146,-0.0301791,0.0016597187,0.043672852,-0.04598034,0.00090325536,0.004596319,-0.057766836,0.024992798,0.03568647,0.016361564,0.00510976,-0.040337328,0.039312337,-0.06273036,0.024811057,-0.051734816,0.037231892,0.0039414787,0.04440929,-0.030315354,0.031434815,-0.0039703487,-0.02421211,-0.032271188,-0.02004607,0.06801572,-0.015075698,0.05464325,0.0014655124,0.0667276,-0.011208546,0.025183693,0.04171946,-0.01348886,-0.010320609,-0.063415274,-0.005794046,-0.032280076,-0.038498003,0.0173994,-0.017155673,-0.012352114,0.051513437,0.059162654,-0.008758731,0.034266964,-0.015242321,0.01957315,0.018347938,-0.0006995035,0.0553001,-0.0040345467,0.04034363,0.054200254,-0.045132186,0.034660034,-0.012063002,-0.02045128,0.04885955,-0.05569671,-0.03681251,0.025678666,-0.0068124104,0.03728142,-0.017328491,0.0620102,-0.051851578,-0.036889978,0.032087393,0.014872049,0.043849282,-0.016058903,0.027524127,0.018004613,0.022829907,-0.057051662,-0.040566478,-0.04992854,-0.05865196,-0.05728609,0.017249377,0.044846892,0.052779887,-0.029249717,0.018488798,0.04074744,-0.009751856,-0.036947526,0.039029542,-0.0021071436,0.036914647,0.02614232,0.012453666,-0.027416006,-0.03807819,0.024514765,-0.043773785,-0.010776941,0.048326977,0.035983272,0.041442186,-0.04709581,0.055683825,0.0056099338,0.037779693,-0.006070919,0.05676116,-0.05011968,-0.0022729854,-0.0016829827,-0.062436894,-0.023115644,-0.056884523,-0.049355492,0.0058429595,0.036808394,-0.0185997,-0.052349295,0.049487535,-0.001803844,0.050380893,-0.024318503,0.0031604923,-0.050450265,0.030464642,-0.044766355,0.053661477,-0.033254184,-0.04258871,0.034683194,-0.025194854,0.0073526595,-0.008892176,0.041041575,0.016832104,0.028252682,-0.04717771,0.0048017283,-0.03904166,0.021643458,-0.0635777,0.042091962,-0.061672874,-0.01789265,0.055284612,-0.02934991,0.042049494,-0.030200997,0.040157493,-0.019161751,-0.038282383,-0.04551099,0.018965581,-0.015070911,-0.034088157,0.050081298,0.008027126,0.013133005,-0.029331729,0.03470113,-0.025109682,0.041261118,-0.017246787,-0.01709119,0.035349973,0.046232283,0.013572891,0.0122248065,-0.009041529,-0.04295642,-0.0385254,0.04863692,-0.011618857,-0.036152884,-0.00094261154,-0.05519898,-0.049790572,0.019191027,0.03400914,-0.034060787,-0.016701013
-0.008485414,0.019411528,0.07759631,0.027384674,-0.01423539,0.040501002,-0.065421484,-0.04593268,0.046272717,-0.03688281,0.0084129,-0.051887307,0.046098277,0.04430544,0.041412693,0.044462264,-0.02101684,0.04234162,0.023510402,0.032104593,0.051436182,0.033549502,0.041732408,-0.01299703,-0.025970165,-0.068357706,0.039554894,-0.111819126,0.036010146,0.007784771,0.0311642,-0.008086461,-0.01733684,-0.011131263,0.022059038,0.13737755,-0.09835954,-0.13734342,-0.06348029,0.036780003,0.024324134,-0.016889365,-0.1320492,-0.16662121,0.11806498,-0.07158914,0.10500869,-0.123756185,0.15795524,0.21042806,-0.066539556,-0.0066484986,-0.07144882,-0.014900638,0.009523982,-0.080161,-0.06303692,-0.044599783,0.022878872,-0.009662783,-0.09169236,0.050133128,-0.03242517,0.04481657,0.053099092,-0.016388286,-0.3850888,0.08473117,0.028235087,0.1590898,0.08372292,-0.15905851,-0.028734993,-0.10453574,-0.016065694,-0.0082440395,0.09120187,-0.0549378,-0.018859748,-0.069630295,-0.05220501,-0.062227678,0.03430597,0.025102748,0.17001896,0.23730701,-0.047590144,0.021901093,0.1212111,-0.077510096,-0.03628575,-0.03979545,-0.013459129,-0.037283547,0.01788543,-0.06647004,0.028079206,-0.09720196,0.0018364456,-0.029606385,0.02107949,-0.06596972,-0.059434507,-0.072683044,-0.033692136,-0.053881805,0.06409078,-0.013755688,-0.0043997113,0.07254756,-0.08922473,0.06079801,-0.0563805,-0.0017872952,-0.010924546,-0.09856769,0.07966923,0.0043966286,-0.09448802,-0.013711763,0.087460384,-0.07737603,0.034314293,-0.03741214,-0.06658515,0.13497238,-0.0046818634,-0.086801276,-0.03070301,-0.13944945,-0.037127573,0.004398708,-0.08243339,-7.942351e-05,-0.0557674,-0.12863185,-0.16519806,-0.23176932,0.13647379,-0.12446734,0.0074362666,0.014133946,-0.055712093,-0.10491009,-0.01611457,0.03474884,0.080112435,-0.07459072,-0.06294992,0.02116806,0.049938936,0.18075354,-0.095082015,-0.008308998,-0.070610724,-0.13944545,0.010856027,-0.008044824,0.0024974567,-0.024677064,0.016915198,0.09039204,0.11129413,0.3397221,0.042019926,0.1266143,0.27226636,0.1327809,-0.16111414,-0.3667873,-0.0331767,0.02536638,-0.070268676,0.009143545,0.07004296,0.0661734,-0.032063693,0.0004916525,-0.25928426,0.04135361,0.22441383,0.0656483,-0.03968314,0.116454735,5.3765463e-05,0.06502843,-0.041811507,0.098616876,-0.00736338,0.0715349,0.023440108,-0.03033854,-0.038111955,0.056812514,-0.049386237,0.04333788,-0.15765561,-0.12340515,-0.03949832,-0.04087528,-0.07923657,0.052213844,-0.10788249,0.008599552,-0.12501623,-0.11754149,0.030257374,-0.15834358,0.030866612,-0.007115375,-0.052353542,-0.008291221,-0.07748476,-0.038924668,-0.055427685,0.2242057,-0.12763414,-0.10514662,0.06015555,-0.047274377,0.108067594,-0.03281813,0.123434685,0.07577076,-0.05923056,0.23633553,-0.041618224,-0.06773309,0.058002014,0.07394549,0.023264527,-0.031052807,-0.107387945,0.00076060864,-0.0561555,0.01050322,0.09263971,-0.0046418053,0.03397564,0.028131837,-0.02636137,0.12522207,-0.054599684,0.025959365,0.064745165,0.0026924333,-0.12916239,0.010925891,-0.08200951,0.11130328,-0.10019758,0.03824057,0.05522186,-0.029890202,0.09045439,-0.021350982
-0.18886869,-0.073557295,-0.00941443,0.117193595,0.07316001,0.011704916,0.008426385,-0.101053,0.16799773,0.1463787,-0.031806026,0.0728426,0.122646734,-0.14812653,-0.14012241,0.04702235,-0.10254225,0.08991848,-0.13729034,-0.05868923,0.10215615,-0.041902218,-0.06316975,-0.11996911,0.13736516,0.10778459,0.048060652,0.112986356,-0.12874205,0.10689644,0.0322658,0.07430418,0.048282664,0.02575892,0.030036017,0.07229212,0.10777355,-0.043171063,-0.035688333,0.0472651,0.12417974,-0.10980789,0.073322654,-0.07201082,0.08575214,0.16997497,0.02345131,0.13361064,0.10994664,0.104799554,-0.0375511,0.118455514,0.14891218,-0.08291767,0.040402114,0.12521318,-0.07594493,0.06541684,0.10296697,0.025673982,0.10610779,0.018575335,0.05816986,0.111814685,-0.11620251,0.06609429,-0.0046613463,0.15631202,0.090606645,0.093360774,-0.0710012,0.04030789,0.07973079,-0.0019911837,0.036314968,-0.0724542,0.1042334,0.17560703,-0.036280707,0.11083107,0.11937085,-0.100466155,0.09311359,-0.06918653,0.114942305,0.19170168,0.110325664,0.06881598,-0.034018535,-0.037880465,0.08710324,0.08133367,0.036285058,0.19007249,-0.21553597,0.08075267,0.07531874,0.07946556,-0.104813464,0.08354551,0.009893978,0.13414337,-0.10733764,0.0017416211,0.08554735,-0.17438824,-0.111042134,0.062497433,0.20863867,-0.076628536,-0.07388986,-0.011243341,0.1290333,0.032047365,0.013651805,0.09620866,0.1394256,0.09085134,-0.14630803,0.19266234,0.084936984,0.12714317,-0.057018127,-0.14332815,0.10659753,0.09984191,0.08533911,0.07725208,-0.0034758977,0.046886988,0.021182967,-0.027328817,0.08965933,0.05740054,0.044967163,0.08471508,0.05739492,-0.00753675,0.07509047,0.12994602,0.02925196,-0.1108194,0.096142426,0.009496162,-0.124052554,0.085458666,-0.014944236,-0.13766778,0.1341363,-0.11514269,0.0012770789,0.05183061,0.08234459,-0.027834559,0.045024898,0.103421085,-0.090420544,0.01867439,0.0906151,0.08624139,0.054797094,0.0054725716,-0.13500799,0.16542141,0.09349265,-0.0653885,0.0910107,0.13849737,0.01680404,-0.07500997,0.15953709,-0.044060234,0.010485828,0.116937235,0.05621295,0.08548745,0.14782764,0.049187057,0.088392176,0.05747654,0.13617308,0.13199499,0.05402462,-0.08771118,-0.07224876,-0.012626864,-0.13545807,0.03678817,0.08918818,-0.015236629,0.059618052,0.035281982,0.06556734,0.008607739,-0.06568104,0.071125,-0.008446292,0.09576024,0.12491037,-0.045030918,0.018459508,0.042335313,0.06988405,0.046916936,-0.044003896,0.12666221,-0.049082138,0.08165745,-0.032907594,0.15094085,0.042885356,0.08145307,0.1512004,0.06404306,0.08123021,0.038558308,0.049754664,-0.0005818164,-0.13368724,-0.0047959136,0.0077086897,-0.13996479,-0.10138595,-0.09414523,0.087207,0.1302001,0.06903311,0.12623875,0.10382181,-0.021068176,-0.068832226,-0.026749935,0.11869349,0.12616931,0.024714416,0.13303626,0.15358427,0.11424113,0.16824748,0.21128862,0.12633845,0.082350224,0.053541355,-0.070970386,0.0044513927,-0.07087206,-4.5871053e-05,-0.13186432,-0.17676295,-0.05821849,-0.047215875,-0.09732045,-0.03439274,-0.110273,0.03975572,0.025532452
0.038805015,-0.06515877,-0.079144515,0.06735471,-0.04880446,-0.052401375,0.03290113,-0.022905322,0.09709997,-0.016744198,0.07763549,-0.0481028,-0.008673124,0.04193389,0.07832632,-0.081239015,0.017258737,-0.04295587,0.05143529,-0.028085995,-0.12758517,-0.050965283,0.017496146,0.05182861,-0.016594684,0.013306593,-0.03886773,-0.023479434,0.03926847,0.03718967,-0.08733657,-0.02368783,-0.028969903,0.030447815,-0.04465723,-0.022634743,-0.042210173,0.019352978,0.024651257,-0.099810116,-0.10121392,0.04864429,0.021444889,-0.06624596,-0.090804115,0.031074174,-0.021808546,0.040555757,0.023125065,-0.019569173,-0.086500876,-0.0060431683,-0.00797338,-0.035039984,0.0076836525,0.025002876,0.090088814,-0.015264439,-0.0133683495,-0.04860192,0.005927749,0.043843906,-0.0729354,-0.03331966,0.011502458,-0.16561727,0.05250305,-0.0429838,0.055665355,-0.02554721,-0.023981908,-0.049000286,-0.06323582,-0.045227278,0.06748024,0.04544795,0.027879335,-0.0081948275,0.014659627,0.07136459,-0.017126188,0.0012027554,0.048018068,-0.020955434,0.025381094,-0.093195535,-0.02793642,-0.022893153,-0.005505821,0.0032112754,0.037980247,-0.032530516,0.020918287,0.0022170013,0.037764292,0.04393809,-0.10961901,0.079715796,0.0054313345,0.04941445,0.08833304,-0.043430068,0.02553868,0.01966355,-0.043084893,0.028590325,-0.0070719416,0.009662111,0.09131577,0.069946796,0.030473279,0.008709647,-0.088551745,-0.029947143,0.03966591,-0.06881191,-0.05984454,0.0051811025,-0.009203192,0.013546885,-0.05552982,-0.0676085,0.03900891,0.035183713,-0.00043260207,-0.10336608,0.014046995,-0.07424133,0.06402077,-0.038391586,-0.04272926,-0.030222539,-0.09242596,-0.050799217,-0.05093735,-0.042108215,-0.007897057,0.042490453,0.019863233,-0.026649188,0.037517067,0.016743882,-0.10577219,0.0367106,-0.022407077,0.06879848,0.0286475,0.074454084,-0.0075555155,0.014200717,0.028616913,0.018767951,0.013979973,-0.03122704,0.04649181,0.067226246,0.05492874,0.038500737,0.06356768,-0.057437673,-0.104311086,0.018695505,-0.030839937,-0.017894171,0.096289895,-0.014870575,0.024782544,-0.041983683,0.0069045355,0.014945589,0.05174262,0.033826217,6.0931216e-05,-0.043343652,0.06596575,0.01996938,-0.027417852,0.005420381,0.039874777,-0.05311842,0.009141394,0.042083357,-0.05771229,-0.071713716,-0.07469107,0.008106938,0.0012575384,0.020759676,-0.049089,-0.07119709,0.038553875,0.08686819,0.0051440937,-0.073748134,0.0033599245,-0.046556275,-0.0014833179,-0.09005003,-0.054309867,0.056616038,-0.049813587,-0.04952215,-0.05197262,-0.012573005,0.06013317,-0.07483904,0.0064042327,0.08782158,-0.03460843,-0.018905193,0.10018388,0.00224905,0.052753404,-0.034574974,-0.016552977,-0.008045954,0.041360434,0.03282709,0.097146064,0.03223294,-0.05722015,0.031668402,0.014551775,0.03281165,0.029725688,0.018055765,0.022145158,-0.056949534,0.068492964,-0.033970587,-0.0026718532,0.06898574,-0.08006659,-0.02831845,-0.002779891,-0.10329972,-0.06756484,-0.046413895,-0.005778921,0.015041786,-0.02502816,-0.061880812,-0.038676605,0.02815443,0.043815155,0.030857665,0.072234854,-0.05240563,0.10585627,0.038640242,0.10378064,0.010288558,0.005992189,0.03887729,-0.0564173,0.022556862
0.01873939,-0.015625147,0.038649257,-0.03239596,0.011434939,-0.05191744,-0.06276634,0.0013083532,0.028156515,-0.020975271,0.018729132,0.00026414584,-0.016991464,0.056003768,-0.050512794,-0.031376313,-0.009731522,-0.030888205,0.056782562,0.041063063,0.038121548,-0.020769253,-0.0026705265,0.037982922,0.007504255,0.018694818,-0.0029172963,-0.0333227,-0.060021885,0.04316304,-0.002173171,-0.023042355,-0.008705671,0.054550294,0.0035934108,0.028057098,-0.028206376,-0.023691477,-0.045710508,-0.028252782,-0.0065508625,-0.009738955,0.019605286,0.034097973,0.039813176,-0.036483914,0.014064551,-0.010776179,0.017586965,-0.007829247,0.02470518,0.024183966,0.022707077,-0.023786016,0.032199305,-0.05216029,-0.05839365,-0.056163214,0.05122279,0.028555395,0.0056411643,0.035965152,-0.006666325,0.04892861,-0.029604554,-0.05440407,-0.010374023,-0.0008872061,0.048464034,0.038772732,0.016229626,-0.017717136,-0.024467792,0.064800836,0.0235217,-0.046355784,-0.059070088,0.061325286,-0.0150351245,0.027768278,0.061609395,0.0033108334,-0.054994486,-0.03170818,0.017658284,-0.012661717,-0.022322861,-0.0042865477,0.06005322,0.023907708,-0.028618695,-0.031923186,-0.005001967,-0.04403115,-0.030614873,0.028673822,0.03474523,0.007565964,-0.062060993,0.042839818,-0.04414666,-0.03225889,-0.05668731,0.030952983,-0.044431407,-0.025188427,0.053043157,-0.016806832,0.03176587,-0.052693557,0.0031059473,-0.035852104,-0.030208617,0.024637101,0.0015269229,-0.008872215,-0.034690995,-0.059585653,-0.033144314,-0.0420404,0.051711604,0.028384112,0.05058152,0.05550033,0.019289866,0.01627069,0.0539507,0.03989131,0.00514438,0.031512164,0.04021528,-0.01339163,-0.0031300443,-0.009778371,0.02463526,-0.015916225,0.005071078,0.035915293,0.052123457,-0.033017997,-0.049151186,-0.033134557,-0.009630977,-0.0063308924,-0.059972677,0.0008331932,0.01832493,-0.038247976,0.018163556,-0.043962155,-0.009412957,-0.0004078418,0.04607108,-0.032485094,-0.0104030585,0.053627647,-0.008906089,-0.042378563,0.032452002,0.043141447,0.03757669,0.050059285,-0.027884228,0.057421595,-0.04343894,0.039582554,-0.053527325,-0.01731949,-0.0434151,0.03181478,0.02787811,0.03611133,0.06011203,0.039339904,-0.03363055,-0.00080665166,-0.041668456,-0.030913832,0.042067908,-0.05570059,-0.019617999,0.02628124,0.00990394,-0.0009659141,-0.03933856,0.012985816,-0.062199067,-0.025685914,0.057082977,0.04030005,-0.006360835,-0.015712451,0.04395611,-0.0488121,-0.03819913,0.00010072676,-0.02876259,0.023403984,0.030258914,0.009200894,-0.06106834,-0.056471955,0.05392145,-0.012101809,0.054067574,-0.04684818,0.0039347494,0.04972576,-0.031152027,0.026388371,-0.027833052,-0.021393484,0.053028084,0.022360519,-0.011746015,-0.05987668,0.015741969,0.05120246,0.051654,-0.03662851,-0.055062175,-0.025624301,-0.0473597,-0.009989029,-0.03111892,0.013420743,0.04858403,-0.052994132,0.027579628,0.010199142,-0.0013209017,0.031916086,0.016162893,-0.017734326,0.040804002,-0.026565028,-0.03229058,0.041026928,-0.048895836,-0.04749978,-0.026214378,0.015743922,-0.059181623,-0.04409623,-0.025184913,0.04169891,0.008431433,-0.04172765,-0.019422635,-0.016436784,0.041329425,-0.05796987,-0.0102168,0.03186912,0.036296956,0.042380407
0.002446897,-0.0787965,0.029520476,-0.03230627,0.049081277,0.047741458,0.18817459,-0.04388998,-0.0342851,-0.005367635,-0.004271173,-0.0840021,0.019455528,0.0035825493,0.035001595,-0.030457124,-0.023944804,0.020616023,0.050923746,0.03978059,-0.03908549,0.008921838,-0.049614068,-0.02582984,0.018720143,-0.010393533,-0.03234371,0.056242563,-0.07166561,-0.036286566,-0.0096338885,0.096513614,0.08332042,0.00020487681,0.0584946,0.00022542883,0.03745945,-0.0797158,0.034055263,-0.07173484,0.045032237,-0.04568068,-0.060262695,-0.12623924,-0.020056881,-0.042069785,-0.045071185,0.03805094,-0.11906253,0.11478532,-0.0055607744,-0.08116913,0.09997765,-0.039594118,-0.09574904,-0.08166202,-0.034829725,-0.13036695,-0.06213433,0.0021623266,0.088691734,-0.023898,-0.014810605,0.030107317,0.032260127,-0.18052709,-0.1499701,-0.033159424,0.030711258,-0.06746976,-0.017442796,0.046432287,-0.07005551,-0.07550842,0.024273107,-0.020277785,0.06333104,-0.06923852,-0.024258308,-0.07877944,-0.11593079,0.005560683,-0.0077843354,0.014535944,-0.03164483,0.12775056,0.084316514,-0.09332954,0.011872072,0.058200315,-0.051130135,0.074162945,-0.057851505,-0.08829732,0.00017029779,-0.023250295,0.05099538,0.018839743,-0.04718208,-0.009486032,-0.026687032,0.02663801,0.00068918354,-0.05188575,-0.010092706,0.01608404,0.040522017,0.09665944,-0.07617789,0.08332347,-0.0996687,-0.058440875,-0.005518968,-0.06900165,-0.05422581,0.048779685,0.0576549,0.029593913,-0.07430496,0.011419689,-0.061909784,-0.019872518,0.054261018,-0.018852921,0.04260142,-0.048760653,0.018708332,0.040350042,-0.0019061139,0.010897546,-0.05355568,-0.034912694,0.051748563,-0.10782304,0.008278911,-0.11538873,0.006905612,-0.01600638,-0.005841575,-0.047169037,0.06580513,0.0311188,0.016262267,0.108061485,0.05872164,-0.074910425,-0.05368031,0.004770645,0.0022939034,0.018758994,0.101815745,0.09051722,-0.12364518,-0.021845551,-0.04926522,-0.010653353,0.0065057743,-0.100080416,-0.042350076,-0.049034614,-0.038316835,-0.06496216,-0.0438626,0.09068657,-0.0012456685,0.06826331,-0.021490073,0.1440492,-0.06995993,0.082275264,-0.02261587,-0.024582915,-0.11232288,0.13407806,-0.010647559,-0.04608387,0.070279576,0.039417043,-0.09219265,-0.05942887,0.11169417,-0.03253069,-0.016794384,-0.03594936,-0.023258027,-0.03828068,0.071126394,0.062108394,-0.059283115,-0.028170379,-0.04593942,-0.02632976,-0.100850016,0.020189438,-0.010082208,-0.10402424,-0.0023349165,-0.12773319,0.046844985,0.006593064,0.08968974,-0.04052329,0.035237852,-0.048274253,-0.056058347,0.028170807,0.1006181,0.0118917795,0.011308689,0.026366664,-0.11043391,-0.035423063,0.019596796,0.017016215,-0.003966812,0.08098438,-0.035023563,-0.011510103,0.005840233,0.057672955,0.048421953,-0.06361747,0.010537638,0.06603165,-0.060572807,0.05887269,-0.00842627,0.07069102,0.057318687,0.029242842,-0.0039485903,0.06238958,-0.0032579717,-0.072770834,-0.13836303,-0.0624803,0.0596843,0.07128405,-0.100108884,0.06779908,-0.06677453,0.04990705,0.10717749,0.025578404,-0.012469686,0.007098089,0.07206791,-0.038288176,0.025359688,0.07231871,0.04181663,-0.051492278,-0.035750102,-0.094999894,0.13024251,0.056786112
-0.05033208,0.07326517,0.0015905482,0.021703828,-0.0545009,0.0067369947,-0.00080480496,-0.05401103,0.068845004,0.036316775,-0.06690907,0.03354401,0.026225125,-0.008317057,-0.015653487,-0.05643648,0.05726587,0.031016441,0.072349876,0.015169209,-0.0272156,-0.008486077,-0.0074853455,0.014466628,-0.010601423,-0.016897058,-0.038418043,0.016906261,-0.0028599056,-0.0074272347,0.03350857,-0.0053307964,-0.03765792,0.052548677,0.038375463,-0.026939573,0.056202386,-0.026253069,-0.008657586,0.059960246,-0.0043005054,0.0071622897,0.053432595,0.03785351,0.021263678,-0.040489618,-0.028173458,0.0139636565,0.01896152,-0.020041034,0.020300513,0.034541436,0.041652594,-0.021547271,0.009969446,0.022932203,0.05189456,-0.049982708,0.043807726,-0.05293611,-0.049826358,0.066737294,0.012595409,-0.025502155,0.027336726,0.05684817,-0.05516726,0.044484597,-0.046922635,0.04171624,-0.050369527,0.03477871,-0.03481388,0.025195235,-0.045177687,0.046896312,-0.03553845,-0.040697765,-0.041629422,0.028148761,-0.028961156,-0.039906513,-0.06738022,0.058982532,0.035785858,-0.014626084,-0.052987125,0.015382953,0.0046412027,-0.067287415,0.049973678,-0.05527365,0.02218182,0.034005083,0.0048349723,-0.015595764,0.013548174,0.021811644,0.045616355,0.051342852,0.05405251,0.044506352,0.034006465,0.057542134,-0.03495404,0.042974815,0.036735434,-0.021611765,0.03841938,0.033297535,0.010530301,-0.029712502,0.05981635,-0.0041668797,-0.0321632,0.01682709,0.028409308,0.04389758,0.05929486,-0.04649144,0.037788387,-0.042734437,-0.036114626,-0.0076829465,-0.03246324,0.007926625,0.052557986,-0.007150263,0.06621187,0.0042300913,-0.019718615,-0.007382443,0.053790703,-0.013316088,-0.017890207,-0.06456061,0.027692633,0.049821746,-0.0099508865,-0.016615031,-0.060111668,0.037378527,0.06262796,0.011594006,-0.041369673,0.047099467,0.03166176,0.055761434,0.010521326,-0.022423489,-0.010882599,-0.04907868,0.048965223,0.025738943,0.015204497,0.019768614,-0.048414823,-0.039902158,-0.05958457,-0.023811882,-0.010359357,0.055375878,0.032251965,0.045229938,-0.03981972,0.026770988,-0.045076746,-0.04614646,0.030647693,-0.058365177,0.02432273,0.056453563,-0.034179337,0.030209476,0.025693612,0.047117658,0.054645218,-0.06375392,0.008406285,0.015326387,-0.032730207,0.026482714,0.019562982,0.031898733,0.033061635,-0.035226677,0.029396411,0.057792384,-0.03424377,-0.07096333,0.0023846456,0.011821505,0.030730683,-0.04014932,-0.031394474,0.021561103,-0.0023772113,0.06434095,0.027716232,-0.031065218,-0.005691146,0.059235536,-0.04080829,0.0030497252,-0.04850657,-0.045084216,0.01996908,0.048475288,0.04740906,-0.04519143,0.02483129,-0.030180791,0.047561727,0.011295389,-0.024945712,-0.030100105,-0.018250354,0.002036875,0.030004075,-0.058601353,-0.011352883,-0.047391914,-0.0062284637,0.023572193,0.031487808,0.07769099,-0.030982286,0.054625243,0.027237121,0.05862106,-0.036787167,0.038793344,0.018175246,0.03662568,0.008789841,0.04792656,0.049722705,0.008888106,-0.040423773,-0.03695073,0.05355748,0.029573172,-0.017740855,0.052210685,-0.000379983,0.037402906,-0.013568595,-0.014576375,-0.051693764,0.03065143,0.052661385,0.035053603,0.052765384,-0.0722353,-0.018653238,-0.054502413
0.024790332,-0.013057235,0.084899746,0.092802435,0.081696324,-0.061802752,-0.00835584,-0.12098495,0.096903294,0.08557082,0.111852385,0.031477947,0.07546493,-0.078784786,-0.08004736,-0.013563877,-0.039735153,0.054554883,-0.26504052,0.17437266,0.11120375,-0.1369493,-0.1964721,-0.049160246,0.046024173,0.11778352,0.069617994,0.03692623,0.02748769,0.054975078,0.033139292,0.028608909,-0.21899144,-0.04272822,0.011839798,0.10477217,0.090997286,0.054729152,-0.017768087,-0.024671013,0.14456469,-0.019005012,0.07679698,0.01310362,-0.034480475,0.04357891,0.05120864,0.033864338,0.09457946,0.06943325,-0.02008703,0.039913617,0.13343678,-0.12545156,0.060362298,0.044532232,-0.07109138,0.034282718,0.12628248,0.24146819,0.016293138,-0.09720236,0.025641704,0.0702584,-0.06922095,-0.009128012,0.014883732,-0.0102993185,0.09396135,0.052072976,0.043541152,-0.03913588,0.061273877,0.038188122,0.047152672,-0.08564464,0.059130024,0.06740934,-0.08433997,0.084729746,0.02707813,-0.10469498,-0.11067829,-0.11527669,0.04174451,-0.009221844,0.04503539,0.09209782,0.04995744,-0.16088909,-0.01813452,0.08515651,0.000436461,0.013984106,-0.09167162,0.02306171,0.049965024,0.0147956675,-0.09056273,0.028466197,-0.06544863,0.098736875,-0.11575625,-0.13743103,-0.14984557,-0.12959574,0.039484866,0.11344342,0.04070184,0.05660479,0.058718022,0.0494888,0.05198616,0.015469669,-0.1493992,0.0187284,0.02670723,0.016684713,0.008842975,0.06095566,0.121832386,0.065608814,-0.14327918,-0.07825784,0.054856963,0.06405913,0.045082547,0.042907264,-0.12230501,0.13552439,-0.016230876,0.07121024,0.034985103,0.04115283,0.016353235,0.022824395,0.0022673889,0.10510346,0.0137116145,0.060473233,-0.030827077,0.017701792,0.12112119,0.026070964,0.11840455,0.08030832,0.06730876,-0.06267372,0.06672606,-0.1169631,0.1741786,0.090808675,-0.009757743,-0.04222991,-0.0001443725,0.012958119,-0.0163088,0.018932069,0.10621424,-0.026937079,0.049448766,0.03177752,-0.13400379,-0.07114014,-0.043426752,-0.013827047,-0.09019692,-0.015760507,-0.054779407,-0.04394449,0.020958154,-0.08483236,0.024477523,0.014466429,0.10105897,-0.055675425,0.029004795,0.07573435,-0.07621614,0.080068044,0.038540132,0.048491314,0.03611006,0.16618244,-0.23983483,-0.12785101,0.06688294,-0.080072075,0.075293794,-0.006316524,-0.029500052,0.11711952,0.122075446,-0.031590104,-0.15259483,0.018852225,0.04751258,0.09609109,-0.27344987,-0.005544065,0.05703921,0.09087223,0.15678741,0.08039313,-0.07014443,0.061827615,-0.069942996,0.06352146,-0.13683641,0.05406754,0.119853154,-0.054280296,0.11414424,0.021855844,0.053533547,0.12419183,-0.25160655,-0.14521226,-0.051977903,-0.17306899,0.0300482,-0.027900424,-0.056287263,0.032377608,0.078214735,0.005683018,0.053045243,0.017964587,0.1294164,0.14251818,-0.079406805,-0.0047357013,0.07690316,0.039188743,0.03134083,0.119722515,0.004709187,0.059752487,0.12313824,0.05366902,0.046969656,-0.0592679,-0.020068899,-0.031512816,-0.11916266,-0.10974922,0.08493089,-0.04496196,-0.11757419,0.008158792,0.14377868,-0.03841921,-0.0930155,-0.0846036,0.02499292,-0.12009104
-0.047577787,-0.031449042,-0.06095583,-0.03826817,-0.03357919,0.033003632,-0.06280857,-0.005828728,0.026675435,-0.063263156,-0.002149823,0.03246975,0.025097406,0.0129093155,-0.021062978,0.045755483,0.016471814,-0.009100916,0.051005505,-0.0046360823,0.04514013,-0.02317874,-0.062310323,-0.011848139,-0.065474324,-0.074434444,0.07084406,0.04912571,-0.033061426,-0.036368683,-0.008589317,0.04481495,-0.015989797,0.029943347,-0.04306974,-0.034906644,-0.02199613,-0.008064727,-0.050208908,-0.083945796,0.035604168,0.017830746,-0.014258754,0.028913071,0.009017511,0.02826458,0.013017396,-0.007762468,0.008456267,-0.049324885,-0.031579398,-0.042708084,0.049698867,0.017920854,0.0074078958,-0.044070307,-0.0074210046,0.00827853,-0.027483955,0.057727918,0.020353597,0.020761939,-0.011847552,-0.0103099765,0.037629113,0.037880737,-0.011530545,-0.014353517,6.243014e-05,-0.009641511,-0.042042386,-0.06231844,-0.044752415,-0.07117081,-0.02193483,0.03472616,-0.019295357,0.033591464,-0.050494377,-0.04311908,0.006890724,-0.052612174,-0.0194186,-0.04219523,-0.0068482803,0.037031326,-0.033215288,0.05885796,0.012033837,-0.0031755834,-0.07290163,0.07286374,-0.046413723,-0.052385386,-0.05252213,-0.036770843,-0.024365507,-0.002313584,0.045120385,0.016097393,0.03994835,-0.03253432,-0.039201763,-0.042038437,-0.014135464,-0.025022155,-0.051955566,0.03488357,0.066481404,-0.054571923,0.0015614659,0.06062313,-0.027687158,0.063576244,0.035894677,0.054428708,0.036988847,-0.060452286,0.043807395,0.03996979,0.017846443,-0.049935225,0.0003332025,-0.009692018,-0.059202004,-0.029723497,0.043489587,-0.016493866,0.032743882,0.019054608,0.010694613,-0.0025249335,0.045389973,-0.04280323,-0.004251197,0.057807937,0.025811164,0.028775493,0.05574654,-0.04821836,0.0017533082,0.035204615,0.042870604,-0.031308357,-0.044480547,0.06080539,-0.055350646,-0.024160327,0.045711588,0.025026226,0.052399006,0.01823672,0.048337456,-0.003518407,0.043678284,0.03994869,-0.031338908,-0.03867936,0.09987006,-0.06397181,-0.061026104,0.045418385,-0.06603025,0.024985624,0.08473901,-0.045336273,-0.0020123266,0.057772007,-0.0723643,-0.060732264,-0.0111527415,-7.950371e-05,0.048951123,0.063465334,-0.03324318,-0.061336484,-0.04963413,0.021122701,-0.048618887,-0.056811325,0.021666396,0.04270593,-0.067786835,-0.020580806,0.030671446,0.011721476,-0.053490255,0.008725673,-0.028126432,-0.012844053,0.03338351,0.05350794,0.030616254,-0.0199041,0.024712138,-0.024895092,0.028121071,0.015046358,0.00032910076,-0.005739755,0.027074896,0.037081353,-0.018503053,0.05612392,0.039145228,0.028529903,0.02970025,0.0478769,-0.044083368,-0.032993585,-0.024876278,-0.014427719,-0.01622309,-0.029843621,0.016975177,-0.017667351,-0.0057316804,0.0010433574,0.009138256,-0.04063542,0.055621643,0.009835787,0.04591388,-0.041337535,-0.0056386166,-0.024220007,-0.011758204,0.04441171,-0.043502744,0.011964394,-0.06630116,0.03826391,-0.025774397,-0.059598736,0.030293083,0.020271862,0.0075399415,0.026393868,-0.010801093,-0.053810254,-0.0023987815,-0.01843751,0.010817733,0.0318499,-0.037642535,0.027621223,-0.047189053,-0.007958638,0.022344064,0.04913601,0.020452237,-0.020375721,-0.016396692,-0.048893742,-0.040469885,-0.045191627
0.042538196,-0.033142053,-0.048318353,0.053262595,0.049500313,-0.005825816,-0.032076385,0.009441106,0.01563196,0.024363836,-0.011717082,0.014860807,-0.025043529,0.022678431,-0.04147662,-0.0070494246,0.0562546,0.02568283,0.06085356,0.049444035,0.026148725,0.027536042,-0.000520316,0.04964812,0.009476232,0.033133924,-0.024126528,0.054145504,0.046721697,0.014428562,0.015832491,0.029467082,0.04508523,-0.0083326865,-0.054547083,-0.041573387,-0.05733061,0.028809795,0.049391758,0.031167964,0.017248632,-0.04113051,0.05306018,0.05837595,0.036163356,-0.0441639,-0.011698302,-0.011518037,-0.0436224,-0.044535156,0.0063316585,-0.055267673,-0.0021351601,-0.026277564,0.00053981453,0.04422934,-0.00095244456,-0.011420991,0.008760513,-0.034032695,-0.028733773,0.014092365,0.052570857,-0.0066725733,0.030903786,0.042253755,0.042404298,0.0696398,-0.062013846,0.01865027,0.016351003,0.0323236,0.06309828,-0.01832432,0.032075875,-0.054302707,-0.00923207,-0.05501498,-0.03366216,-0.042658757,-0.052004542,-0.0025098363,-0.045295823,-0.013416576,0.054374628,0.049372427,-0.009555679,-0.02980298,0.015671952,0.009837772,-0.03337459,-0.04229142,-0.06565502,-0.0038742665,0.026014417,0.016002484,-0.059053093,0.03704018,0.02446482,-0.028743235,0.039162967,-0.010634291,0.04203397,0.067555025,-0.03978173,-0.060010817,-0.014903767,-0.034347825,-0.052099746,0.0012391431,-0.016982488,0.058639094,-0.008650479,0.03732124,-0.019060958,-0.03057875,-0.065815866,0.048995525,-0.020329006,-0.038507093,-0.05869331,-0.025189115,0.0123376455,0.02285995,0.043011602,-0.0073606125,-0.06037778,0.034874987,-0.032387976,-0.032825347,-0.014946457,-0.030994982,-0.046211783,-0.048785895,-0.033964124,0.0124887265,0.03716657,0.04459874,0.058818035,0.05169215,0.008005155,-0.0064276373,0.06408864,-0.062460497,0.025226962,-0.051513087,-0.047646865,-0.021294683,0.040488306,-0.014736379,0.0133407,-0.052440193,0.023386635,0.04488641,0.040344078,0.04482049,-0.040453114,0.0018853267,-0.03904814,0.047192913,0.020768514,0.01932176,0.029539928,-0.061249882,-0.04207377,0.023707781,0.043325905,0.042256415,0.036384217,0.007897324,-0.037922915,-0.02617047,0.042324394,-0.015142481,0.012325614,0.06557786,0.05839267,0.020813128,0.030310096,0.055102635,-0.050668303,-0.030624721,-0.036555633,-0.01376812,-0.038849305,-0.0027615377,-0.03498574,-0.04952729,0.008156544,-0.053264495,-0.035605177,0.0023764353,0.05255214,-0.05139577,-0.023470432,-0.040368468,0.020790732,0.013837434,-0.011133375,-0.0524908,-0.0018867943,0.031051865,-0.058949843,-0.04619377,0.00662134,0.04179873,-0.05335959,0.009314752,0.029344346,0.035965998,0.049752656,-0.005703466,0.04559793,-0.02574557,0.017459132,-0.057055216,0.020903153,0.043847274,-0.010025774,0.009489154,0.0054218285,-0.020803861,0.052119598,0.05048281,0.038464244,0.02947746,-0.03324202,0.01872027,0.033350963,-0.04439632,-0.010676597,-0.008322011,0.038480643,0.0017089794,0.018416036,-0.060933612,-0.009741514,0.058955148,-0.06314976,-0.018985057,-0.06439152,0.038700495,-0.06065619,-0.022615844,0.023813251,0.055833388,-0.03434284,-0.0074005323,-0.056591343,-0.028849494,-0.044851128,0.032990787,0.026626375,-0.009052769,-0.060508084,0.03694604
0.011175608,0.011819882,0.02744824,0.07619207,-0.04404018,-0.051146057,-0.03652603,-0.017351469,0.10336101,0.01203305,0.03513934,0.07305559,0.098922215,0.019333435,-0.1411704,0.0066150352,-0.06607532,0.019590173,-0.11077184,-0.044950783,0.017123563,0.028823223,-0.12388302,-0.17636126,0.16285603,0.17640086,0.051057953,0.10177487,-0.06977322,0.07554496,0.08799427,0.099910945,-0.23595574,-0.15121897,-0.08000637,0.053216256,0.059260763,0.10116138,-0.11424969,-0.010148015,-0.1069118,0.083598025,-0.01484059,0.1440059,0.033597454,0.08307586,0.038025897,0.027951658,-0.08857235,0.15125574,0.029336583,0.04652798,0.058195807,-0.1342944,0.053807434,0.09600778,0.006717554,0.057795223,0.12878478,0.10511874,0.07056957,0.022657271,0.08099738,0.16495663,-0.031014457,0.07470476,-0.13148125,-0.0134413745,0.14054321,0.11828935,0.08642333,0.04926996,0.04921773,0.0020682006,0.06467132,-0.0673365,0.08356701,0.059747107,-0.039915122,0.10495513,0.12377732,-0.15559119,-0.045003608,-0.12969102,0.12854692,0.06770982,0.08319337,0.035431158,0.08998496,-0.11298729,0.051751733,0.060586076,-0.034286417,0.091136865,-0.09264377,0.03816573,0.14342241,0.1266164,-0.10944103,0.06862512,-0.07669756,0.09343852,-0.077915855,-0.28782472,-0.08985606,-0.046784833,0.079037815,0.12066806,0.18680987,0.042159773,-0.07705456,-0.024717413,0.08144137,0.16091527,0.071046785,0.09172729,0.038760185,0.09591542,-0.008387339,0.059052195,0.055707034,0.03412438,-0.067861184,-0.045190718,0.07811166,-0.015954455,0.059887048,0.0031633556,-0.14860323,0.038247462,0.09887585,-0.016363557,0.028486898,0.03622952,-0.002637997,-0.017837074,0.08809022,0.06776258,0.059979558,0.06685072,-0.19441661,-0.1093437,0.11052045,0.011169877,-0.23749322,0.021824386,0.12353316,0.011591342,0.13735509,0.09077239,0.13149594,0.1563247,0.08363989,-0.17666169,0.15980424,0.0702383,-0.13722053,0.11104533,-0.018740641,0.029228669,0.097639166,0.1375269,-0.18219048,-0.04861126,-0.0024136035,0.02932769,0.039514292,0.052576445,0.02471708,0.027344424,0.14558585,0.008070699,-0.035573807,0.12793288,-0.03150294,0.06032748,0.061714802,0.1309425,0.027258314,0.10025679,-0.017808683,0.12888058,0.058071394,-0.029499082,0.14204274,-0.21204686,-0.03306548,0.083013125,0.11713322,-0.20373857,0.08344687,0.019637577,-0.010617788,-0.13397837,-0.114052154,0.08968975,0.014534662,0.10747982,0.050384838,0.0819138,0.08673426,-0.01657469,0.07455444,0.049009543,-0.080437675,0.025270658,-0.055287234,0.045091618,-0.19617556,0.08262459,0.06852585,0.03396418,0.07299351,0.07020409,0.09225813,0.02814811,-0.11515844,0.029173592,-0.026355797,-0.29569557,-0.12570384,0.059235148,-0.1701322,0.03562443,0.18492374,0.10763227,0.0717845,0.0531188,0.10041554,-0.14967516,0.104284436,0.0024420612,0.067418255,0.00037457593,0.019828536,0.05155966,-0.026225343,0.08559103,0.12359363,0.06345475,0.07220533,0.13053092,0.039502777,-0.19290407,-0.15435146,-0.02724512,0.005919048,-0.033540167,-0.033622768,-0.15307976,0.10725963,0.07174138,-0.30878964,-0.044260483,0.0040075434,0.062932655
-0.02811763,-0.20002021,-0.04907029,0.11760493,0.058136027,-0.039420202,0.038941544,-0.035066243,0.053955927,0.027866933,0.032852877,0.0061178203,0.09439835,-0.04992959,-0.028059382,0.100718275,-0.16736801,0.04271674,0.19637088,-0.021329433,-0.023434507,-0.21794851,-0.10542831,-0.03182653,0.0019233598,0.061563056,0.117187396,0.04075292,-0.0049323314,0.10311536,0.13643365,0.18746391,0.003431085,-0.064110816,0.1451957,0.12433539,0.096327506,-0.014263727,-0.30673987,0.05103503,-0.037021693,-0.10527072,-0.03160851,0.053367946,-0.054617252,0.055495407,0.022803335,0.20562132,0.006699913,0.10759659,0.048454583,0.081084035,0.10224258,-0.121736124,0.056917794,0.16156177,-0.20999941,0.06905857,0.14923877,0.19588253,0.1809119,-0.1203264,0.18507347,0.11938601,0.011098009,0.044413637,-0.066978976,0.13981701,0.05308625,0.13602646,0.009939255,0.08008792,0.08203928,-0.005287538,0.007860785,-0.1392073,0.11101137,0.073409826,-0.16885415,0.12496298,0.09940381,-0.0803378,0.1485051,-0.15603477,0.18917905,0.103751004,0.11582344,0.07787617,0.12713078,-0.09090268,0.045991372,0.034040604,-0.013486282,0.069680415,-0.07827201,0.07302966,0.11045623,0.030871788,0.04956167,0.15895414,-0.07167849,0.09331666,0.14969136,-0.10218698,0.05052645,-0.12698004,-0.13538206,0.03731778,0.018246882,-0.1719155,-0.037617758,0.008605462,0.014300712,0.04828913,-0.015675891,0.108915925,0.13233809,0.10070401,-0.14633113,0.12585065,0.10745883,0.14131452,-0.18236923,-0.07777732,0.11443476,0.111619964,0.09939605,0.16752316,-0.22254582,-0.043327603,0.053300798,-0.16755022,0.14338657,0.014538705,0.06503809,0.14991601,0.052700937,0.14717352,0.028148253,0.061547376,0.07640104,-0.029161666,-0.020689916,0.020213278,-0.29825392,0.042738955,0.08059312,0.032011844,0.16082692,-0.044137757,0.025221007,0.20128003,0.12637955,-0.0063539576,0.13301289,0.10235372,-0.13785808,0.15294296,-0.032807555,0.013617631,0.045934398,0.20688182,-0.13806406,0.08030707,-0.042423755,-0.18012984,-0.003838885,-0.022481313,0.2559554,0.041321296,0.04147012,-0.11240712,0.00037641005,0.15460871,0.017379114,0.05992792,0.1755678,0.036643527,-0.07153659,0.05153484,-0.030558174,0.02549198,0.1006557,0.011737342,-0.088360064,-0.09395265,-0.15406595,-0.16401891,-0.06742213,-0.34880224,0.074835524,0.14267758,0.08433319,-0.07211707,0.031486988,0.10241424,0.13344857,0.040988997,0.066419065,-0.10736803,0.06831635,0.060008768,0.09888359,0.08825266,-0.05175175,0.038704444,-0.07176314,0.07373382,-0.1520058,0.13458675,0.11160204,0.13374776,0.07829287,0.043610293,0.07297595,0.003711899,-0.23502004,-0.20180358,-0.14344111,-0.1971142,-0.13726857,-0.034610286,-0.114026435,-0.054480657,0.12533695,0.13340472,0.10790368,0.09555744,-0.06223015,-0.11078607,-0.121638454,0.05687551,0.10031048,-0.04165147,0.07155278,0.14599459,0.0538061,0.098872766,0.0914815,0.16047432,0.15638828,-0.0031331726,0.052183792,-0.013845075,-0.095184825,-0.0859611,0.11838194,-0.09390882,-0.19897167,-0.15503292,0.03874471,-0.0034692045,-0.17695785,-0.081418805,0.05063852,-0.05391721
-0.025331441,-0.13670023,-0.04871009,0.12059883,0.07121422,0.13449524,0.03536047,-0.06070036,-0.003909076,-0.015535854,0.074019745,-0.06067454,0.13556641,-0.05322621,-0.10807298,-0.0041059097,-0.003014884,0.04224651,-0.07817975,-0.19444919,0.08928172,0.15857087,-0.20814368,-0.1337335,0.03979395,0.16272515,0.19572079,0.0784055,-0.09167927,0.05622108,0.18840203,0.15252899,-0.19515245,-0.025655938,-0.05842018,0.2136523,0.12323381,0.061459433,-0.14289245,-0.013186157,-0.07889054,0.024707159,0.044878222,0.066807315,0.031443704,0.08263089,0.00083148776,0.15476654,0.026582722,0.21342854,0.08932481,0.07824095,0.09609314,-0.010086854,0.05109592,0.15016887,-0.046371885,0.0045443224,0.11533651,0.16812252,0.09633257,-0.11042952,0.114085846,0.14141148,-0.0433224,0.055763014,-0.022349767,-0.025921803,0.04383729,0.07082345,0.12760551,0.02030127,0.060443953,0.04256679,0.16280122,-0.05342416,0.17265366,0.06198918,0.020037219,0.17758429,0.12591894,-0.06389427,-0.25896433,0.0004549852,0.1938844,-0.017105069,0.04631235,0.035528876,0.15331012,-0.11392042,0.23883876,0.06691186,0.0806454,0.014071045,-0.10966487,-0.04757953,0.10124176,0.09340309,-0.06434247,0.06586068,0.042344064,0.187246,-0.0747333,-0.28492486,-0.25889874,-0.12665431,0.0011283357,0.010485789,0.08537008,0.02526294,-0.0037815461,0.096275225,0.21125907,0.09492993,0.05455632,0.04285876,0.029192375,0.061897434,-0.19040436,0.095150486,0.24402893,0.04424373,-0.15272963,-0.064192474,0.13556731,0.09139863,0.05904394,0.10367948,-0.16568519,0.0038870813,0.16324592,-0.22330177,0.1023516,0.060440164,0.10715741,0.14734134,0.11908245,0.09300437,0.13758616,0.15212792,0.00119624,-0.028928142,0.14412533,0.13539271,0.06326736,0.1404063,0.017372116,-0.1561217,0.09817434,-0.15192392,0.03336783,0.29073027,0.07580809,-0.057547245,0.07312455,0.051840115,-0.100351594,0.14191176,0.033781998,0.09235822,0.07021416,0.053354073,-0.017368639,0.08233396,-0.013521753,-0.08118922,-0.101138555,0.062237684,0.020322375,-0.04172763,0.033566855,-0.078923516,0.05513169,0.058545403,0.058816295,-0.018556373,0.06665459,0.13382953,-0.03330914,0.09660387,0.075241424,0.111789934,0.05120892,0.098770306,-0.020296237,-0.029153006,-0.104207404,-0.14603122,0.03187377,-0.26186913,0.102477826,0.04469267,0.10633187,-0.19458911,-0.1458386,0.103390254,0.057466753,0.048048828,-0.21250328,-0.041811492,0.013090248,0.07064884,0.08885362,0.12617414,-0.019454256,0.10288875,0.0028337475,-0.0036059066,0.04249163,0.0036321317,0.042850554,-0.08686783,0.063508086,0.081693724,0.12710096,0.15760711,-0.06064495,-0.23275715,-0.06868963,-0.08386714,-0.15611948,-0.03627312,-0.15038428,0.039983716,0.14173013,0.081966616,0.16099761,0.17315967,0.08926278,-0.1791521,-0.2850373,0.21253392,0.1306004,0.07245511,0.15206285,0.19447811,0.06521149,0.052890114,0.11875387,0.11006993,0.0046056295,0.0710632,0.09431658,-0.21633664,-0.15641312,-0.10264656,0.08798782,-0.16605629,-0.13562304,-0.042066626,0.117534064,-0.040570024,-0.057237286,0.01138476,0.020176705,-0.12933332
-0.019493787,0.068472736,-0.16001761,-0.01629992,0.046667367,-0.04165893,0.050721686,-0.14717174,0.025001591,-0.017533917,-0.0114311995,0.103154235,-0.03275392,-0.026803719,-0.076850146,0.07395826,0.04432401,0.10912378,-0.049470168,0.017637685,-0.054919563,-0.09604057,-0.063964784,-0.015772577,0.06575793,0.103568494,0.08748931,0.099695526,-0.043799497,0.018856972,0.12715279,-0.033807516,-0.004482747,-0.038937584,-0.08772108,0.056061737,-0.017936263,-0.032830887,-0.004764811,-0.028267466,0.19494562,-0.08458425,-0.054265525,0.056501262,0.06618073,0.08144927,0.043520447,0.03985943,0.11828012,0.042497803,0.08931497,0.06679968,0.07965468,0.15327068,0.03263546,0.034178957,-0.12179057,0.06634985,0.058445543,0.020680046,0.041036285,-0.13301472,0.13596576,-0.0058740308,-0.12861465,0.14954695,0.046750274,0.020450253,0.03067305,0.008042255,0.05052173,0.015537333,0.00037013763,0.032692455,-0.009478159,0.08680198,0.050835293,0.0018309139,-0.06705413,0.08030782,0.020495655,-0.050878804,0.023058092,0.015639048,-0.027941488,-0.061731145,-0.004154028,0.066393025,0.052345365,-0.022845507,0.033056263,-0.00011127031,0.05329744,0.076304995,-0.052788444,0.11105276,0.060765654,-0.053775687,-0.17207277,0.03431097,0.07614514,0.049302705,-0.08969776,-0.12229059,-0.25943422,-0.08829515,0.104327075,0.036238175,0.0502085,0.037445698,-0.035875116,0.054624524,0.072613485,0.0140104545,-0.119667985,0.060857724,-0.024402602,0.085053645,-0.017116224,0.025362393,0.086495414,0.035965614,-0.030277172,-0.078638025,0.08074753,-0.05491058,0.069819145,0.13960782,-0.11906247,0.07989044,0.032937236,0.046463378,0.063673384,-0.10797385,0.06473963,0.04669809,-0.024696138,0.072063565,0.038706634,0.07684708,-0.13843027,-0.0038484782,0.0125903515,-0.02796673,-0.17750655,0.0524233,-0.06204163,-0.09117265,0.028981445,-0.03272468,-0.08887033,0.09591907,-0.0029630633,-0.07749827,-0.05664078,0.07026351,-0.07432208,-0.03253862,0.04258776,0.062524214,0.03358017,0.035940506,-0.0793889,0.06495169,0.07151153,0.16770908,0.0047547445,-0.0047378833,0.04155503,0.061056957,0.08795281,0.068632856,0.085093826,0.033079065,-0.028129559,0.054342248,0.007821211,-0.034455586,0.025434613,0.01741595,-0.088658094,0.056818303,0.040464226,-0.06755019,-0.07123567,0.022605117,-0.030997202,0.11663549,0.069492176,0.0638743,0.06917108,0.045410804,0.060458764,-0.075632066,-0.10635148,0.09744155,0.019141106,-0.059844054,-0.22026946,-0.24264854,0.0027071878,0.0065637156,0.08902162,0.051783912,0.0029253014,0.07092477,-0.13957614,0.01678759,0.123353645,0.10868086,0.03317299,-0.0037100287,0.050165895,-0.0012146768,0.01824532,0.08467595,0.029614631,-0.029243747,0.030433211,-0.062324934,-0.15290329,0.014383641,0.060801435,0.0041278866,0.09058309,0.011148449,0.025771791,0.07175338,0.012915323,-0.007308536,-0.054865126,0.00055057707,0.058969602,0.015727157,0.046488065,0.03420956,-0.022055304,-0.01613419,0.032655228,0.13563895,-0.008035039,0.027599791,-0.0077691264,-0.07448619,-0.02302283,-0.080868155,0.0696958,0.048947237,-0.09712629,0.023322925,0.0738013,-0.06779089,-0.024560371,0.07432728,0.031637035,0.0005654904
0.049174,-0.050051846,-0.051661618,0.003527201,-0.098945715,-0.1820899,-0.069894075,-0.029927218,0.15856874,-0.060218647,-0.11714579,0.06043713,-0.049262222,0.07250985,0.08326037,0.053588826,0.016160892,-0.09179019,0.044386297,0.019968595,0.040794775,0.06707617,-0.01900536,0.12172661,-0.021912951,-0.048071753,-0.014351418,-0.104577586,0.04386363,0.00989229,-0.1585215,0.026187804,0.0041955803,0.028045401,-0.007953576,0.04297227,-0.12643407,-0.06843134,-0.032267794,-0.16308177,-0.025517132,0.057127748,-0.12552276,0.060504805,-0.075029425,-0.0729244,-0.011277608,-0.15775345,-0.04182698,0.099101186,-0.024874993,-0.08154941,-0.029955504,-0.041315142,0.059638433,-0.07501999,0.12543361,0.055924047,0.19580221,0.08469889,-0.0762608,-0.022041814,-0.13701893,0.013442659,0.14513834,-0.058008622,-0.016051853,-0.014366315,0.08479095,-0.016366133,0.009027241,0.007081809,-0.065508686,-0.15973908,0.07502845,0.092236854,0.04255811,0.0015855512,0.070865534,-0.02238468,-0.12253498,-0.016269624,0.04848061,0.08158574,0.045389965,0.04938059,-0.0013591184,-0.098561406,0.12043561,0.0466622,-0.06449635,0.09885474,-0.10126915,0.042189732,0.074354194,0.040308006,-0.16529243,-0.07636499,0.07551942,-0.07133826,0.017374998,-0.16484283,-0.010840654,0.0011389442,0.05259159,0.064508505,0.009969348,0.04598822,0.1316135,-0.052440736,0.011728426,0.040657803,0.057196997,-0.023806108,0.09153017,-0.096241675,0.08255236,0.018809155,-0.03652279,-0.03559557,0.0786601,-0.008331254,-0.009643774,0.08972836,-0.029915884,0.0733506,0.023332393,-0.03874193,-0.025155855,-0.1537839,-0.07402132,0.013861215,-0.015221337,-0.11704802,-0.0571707,0.015946735,-0.092509575,0.028709881,-0.21915369,-0.03451215,0.058546342,0.04493822,-0.0020337282,-0.16903108,0.049837448,-0.019440444,0.0484363,0.14976133,-0.09383704,0.010463716,0.10032281,0.116346665,-0.107192196,0.010226062,-0.19169158,0.033524387,0.1449999,-0.03669163,0.010162188,-0.12680744,-0.08810151,-0.06454174,0.039242446,-0.17083351,0.09376927,-0.05500573,-0.104557425,0.06534634,-0.04548899,-0.06253381,0.05393552,0.0871544,0.08986507,-0.036656447,0.10613627,-0.083991386,-0.08788795,-0.17567539,0.0065772827,-0.045189444,-0.13238521,-0.07923225,-0.009469008,-0.02014614,-0.054177415,-0.0008901178,0.16438942,0.1281629,-0.0834826,0.04027616,-0.12825863,-0.08318306,-0.064896524,0.15760934,0.03404954,-0.099266134,-0.047270916,0.08255379,0.05631303,0.042223584,0.12093104,-0.13318665,-0.12726429,0.005054345,-0.009104284,-0.10475746,-0.025212815,-0.045594774,0.10909311,0.0062352563,0.115106106,-0.008172481,-0.03145495,-0.08993023,-0.030945696,-0.00330651,0.08820925,0.07864041,0.058636133,0.03168914,-0.17539366,0.118728735,0.084372364,0.050474253,-0.033895046,0.015065203,-0.012371169,-0.08615939,-0.15173942,-0.018270995,-0.0009781893,0.054883055,-0.041374978,-0.1232028,-0.14326565,-0.13632205,-0.11354874,-0.073587395,-0.011876841,-0.02438136,0.09336955,-0.079282805,-0.06313149,0.08971918,0.084787205,0.08835009,-0.20057178,-0.019272976,0.05515526,0.16229682,-0.039386157,0.10069654,0.12619969,-0.019681353,-0.01188125,0.05409821
0.0586483,-0.047133602,0.0042666118,0.046793025,-0.066888936,-0.29864085,0.016011268,0.015645681,0.10204786,0.13503411,-0.080508366,-0.011660748,-0.15060502,-0.033714112,0.049540073,0.035847973,-0.032264397,-0.06308657,-0.027402384,0.10358536,-0.04831375,-0.014218305,0.019401418,0.033674236,-0.07866902,-0.046781555,-0.0039978097,0.11102619,0.023460992,0.06579096,0.043244004,0.027032139,-0.047995027,-0.0042411666,-0.06914112,-0.02021125,-0.011112611,-0.03914051,0.0023841725,-0.14511955,0.06346056,-0.04306514,-0.036174394,-0.13386305,0.012397214,0.04623904,-0.18305978,0.04010256,0.019437606,0.24679142,0.0109545365,-0.0010541995,0.022976805,0.010874764,-0.04484561,-0.051424157,0.009471704,0.15650092,-0.019753188,0.106075525,-0.0543405,0.07326418,0.010515466,-0.116331644,-0.10694498,0.0027251204,-0.27367336,0.032388415,-0.11602226,-0.14678569,0.022872398,-0.09484845,-0.15181667,-0.005249324,-0.12753235,-0.0064678784,-0.045083296,-0.054977078,0.036502838,-0.057010226,-0.065309994,0.02003855,-0.016826753,0.080766775,0.08013692,0.0587483,0.057117805,-0.044234887,0.018464293,-0.12076269,0.0383221,-0.06463972,-0.10222806,-0.065925896,0.01123838,-0.07369858,-0.029323578,-0.08583875,-0.068663396,0.11895715,0.06883695,0.07253565,0.026030248,-0.021513555,0.053237952,-0.030098954,0.12026191,-0.030917892,0.14520581,-0.04681295,0.033613864,-0.19790015,-0.109525345,-0.09655921,0.067912765,-0.08633301,0.032052044,0.012004554,0.004831007,-0.08866716,0.025588492,-0.00023539465,0.031402122,0.04571774,-0.03222586,0.13693756,-0.006875816,-0.067906655,0.09625008,-0.069351554,0.01023487,-0.048324578,-0.19891828,-0.15624548,-0.17187077,0.07508782,-0.008515122,0.012555962,0.10153564,-0.054690655,0.0032100547,0.02930011,-0.061881337,0.00057137007,0.050547667,0.006126126,-0.1499198,0.01431255,-0.092474855,0.04202939,0.14942539,0.13537067,0.03386337,-0.022359012,0.014406459,0.03485138,0.0012828457,-0.10150871,-0.029475896,0.016927915,-0.0059517403,-0.08690131,-0.10514442,0.32338652,0.06006694,0.055961177,0.14795406,0.13512768,-0.116346925,-0.18462828,-0.021602772,0.023711791,-0.005744899,0.010574842,0.03993203,-0.08551497,0.07777117,-0.09226403,-0.28117585,0.0414659,0.1206223,0.07364657,0.030811641,-0.061369617,-0.06381502,0.026843641,-0.052741077,0.05579476,-0.01763479,-0.075862624,0.015355591,0.107180774,0.00408145,0.0019521533,-0.06815481,-0.014516215,0.1378188,-0.057940543,0.0248957,0.065739594,-0.08090687,-0.0942915,-0.057254467,-0.073054455,-0.104597345,-0.05525721,-0.00062063534,-0.11990769,-0.021660846,-0.107133694,0.025408166,-0.0048633083,0.026705576,-0.04717797,-0.03680635,0.13463737,-0.00079663296,-0.009299553,-0.07754585,-0.07782216,-0.036840186,0.0018049614,-0.004589773,0.14712909,-0.044315726,0.17158407,-0.059206262,0.03565022,0.014024391,0.046093814,-0.113096856,0.04241422,-0.048956886,-0.050509967,-0.06163432,-0.07595458,-0.062006537,0.039574675,0.003287112,-0.059402626,-0.043831438,0.060478345,-0.098337226,-0.033021774,0.013761398,-0.043692864,-0.12768218,0.017269777,0.029326934,0.046046752,-0.09610217,0.041588873,-0.037679825,0.014596358,-0.09428455,0.03638351
0.004712738,-0.050080307,0.05635564,-0.04876795,-0.004363248,-0.03830365,-0.020422729,-0.053222336,-0.059270743,0.05917898,-0.010118189,-0.02368382,-0.0029632985,0.04951196,0.05880041,0.022763109,-0.008681177,-0.027301446,-0.022290545,0.0075286585,0.03832803,0.021010352,0.01766692,0.04196909,0.038489375,0.043063313,0.05568944,-0.037315767,-0.03734275,0.03768759,0.04002693,-0.050601028,0.057724155,-0.051614527,0.036747742,0.011482738,-0.024261657,-0.06291411,-0.011637869,-0.015615969,0.05642756,-0.05103743,-0.048657503,0.04790792,0.022979114,0.06177961,0.010685762,0.006872014,-0.051190916,0.050202183,-0.06251762,0.044630714,-0.016157422,-0.039816916,0.048896287,-0.003695448,0.0182524,-0.0217023,0.041397274,-0.04430061,0.028014947,-0.04749533,-0.0042930543,-0.0061472943,0.023043405,0.04506115,0.027103266,-0.03845653,0.043752756,-0.040388666,0.020034298,-0.021378579,-0.04869725,0.01694179,0.0517964,0.045697022,0.02382682,-0.0142456405,0.048928235,-0.061353456,-0.037681982,-0.016098356,0.015564278,-0.04156094,-0.021262828,-0.027150175,-0.061251156,0.05163185,0.055932947,-0.0153654395,-0.05572697,-0.018069575,0.050338596,0.04172305,0.053134456,-0.031663544,-0.0031535241,-0.049060255,0.047235794,-0.020959865,-0.042926785,-0.050724298,-0.015519564,-0.054415077,0.05663869,-0.0024216499,-0.045988172,-0.0387515,0.040384244,-0.033630703,-0.039823733,-0.04771332,-0.043756336,0.042699866,-0.023333581,-0.038146403,-0.031788766,-0.025731264,-0.0081723,-0.024377868,-0.031705726,0.018555377,-0.058432285,0.019112283,-0.035578273,0.027050229,0.059674688,0.044602267,-0.053339552,0.00443123,0.013166808,0.0020291987,-0.040835097,-0.049885754,0.030290846,-0.046152215,-0.052528523,-0.0029981057,-0.017410414,-0.04570317,0.031201176,0.06047811,-0.045139458,-0.034522403,0.01862781,-0.0065177972,-0.013573334,-0.0202748,0.03677042,-0.030846044,0.029923743,-0.03554433,-0.008635368,-0.045041326,0.004427003,-0.05141946,0.016205166,0.06023976,0.015494933,0.008874833,-0.0008729469,0.058355857,0.04949374,-0.0048051775,0.052520078,0.04763652,-0.04298885,0.0402285,-0.011460618,0.027206052,-0.055394657,0.003108895,0.030340776,0.045748726,-0.033878177,0.014777523,-0.018149626,0.05646343,0.060466293,0.04482771,-0.016787421,-0.05994177,-0.014329087,-0.0082496265,-0.025069796,0.025250658,0.017165719,0.056565303,0.040310305,-0.044953797,0.018849654,-0.06004161,0.035585392,0.013086471,-0.053745095,0.058221065,0.016417766,0.04753448,0.054331724,-0.002086229,-0.025664262,0.04523234,-0.03228998,0.026437417,-0.00050065375,-0.025296485,0.020741047,0.02025972,0.03805574,0.06085973,-0.03237395,-0.059144706,0.041568015,-0.04237089,0.055899914,0.05976388,-0.0059825927,0.012134934,-0.038256243,-0.0074744034,-0.020303415,0.01161464,-0.052575648,0.0075999144,0.027741008,-0.05160347,-0.042802908,0.007474306,0.018653389,0.018973576,0.020036174,0.058097083,-0.014317971,-0.052439176,-0.0063481163,0.04595263,-0.053798158,-0.012580723,0.018394155,0.05705176,-0.060426217,0.05104795,-0.05212793,-0.053341385,-0.033464994,0.011088667,0.058040284,-0.04953752,0.0022740173,0.016674636,0.0034358723,-0.023772096,-0.061457407,-0.0020638215,0.014674424,-0.0625843
-0.041003622,0.028664641,0.043527853,0.06842112,-0.035251975,0.07355926,0.081395455,0.10241682,0.08956959,0.046423677,0.019465722,-0.04909777,0.030811554,-0.019556763,-0.086752534,-0.04332982,-0.06745497,-0.009966244,-0.053947814,-0.012903273,0.026589837,0.013541166,0.006777614,-0.06404009,0.095264755,0.057668038,0.12303615,0.051121183,0.01821166,0.005585106,0.09260118,0.08669738,0.06266565,-0.010039036,-0.118046895,-0.019130252,0.0059614945,0.020906592,-0.10487302,0.042480234,0.1034769,0.06506157,-0.10360571,0.018467385,-0.014398619,0.09991928,-0.058488835,0.026947236,-0.07894083,0.06839008,0.059192378,0.041160323,0.10348477,-0.14526093,0.12433332,0.08941756,-0.00055160833,-0.06496039,0.09368796,0.035778955,0.0567958,-0.06520018,0.067402765,-0.038965367,0.040215865,0.00533908,0.07396059,0.022526164,0.034910593,0.032660928,-0.12614638,0.0031364863,0.05628462,-0.08162316,0.08234533,0.0007401489,0.047405753,-0.009959358,-0.015793327,0.1251646,0.01758853,-0.021513518,-0.10720631,0.11828217,0.10327551,0.009809048,0.055297103,0.022382563,0.082282245,0.14673316,0.041640915,0.011462128,0.03525899,0.06473373,-0.008721406,0.009022749,0.04968658,0.052447576,0.073418856,0.051466003,0.051029794,0.010719826,-0.05767578,-0.06627443,0.09014654,-0.03732707,-0.015754325,0.06573951,0.007969528,-0.09382407,0.024218976,0.03421298,0.062128756,-0.017692268,0.026413793,0.12900624,0.11836215,0.04888408,-0.03518011,-0.0080669895,0.14651094,0.0755427,0.016125627,-0.041726194,0.01963256,0.01774736,0.038716897,0.12690112,-0.14967115,0.022058377,0.1474442,-0.1308219,-0.050424177,0.030362697,0.056830153,0.05696298,0.09686763,0.043399986,0.078645386,0.13743529,-0.020195791,-0.05028487,0.051449776,-0.03709308,0.12937473,0.035035733,0.013552817,-0.09367915,0.084656894,-0.03049528,-0.09589416,-0.040696133,0.06943789,-0.044586632,0.010060799,0.0048806393,-0.043308344,-0.018019497,0.009180214,-0.08111362,0.025810653,-0.025471214,0.015412837,-0.07882396,-0.009749173,-0.07358004,-0.007730674,0.026368476,-0.022962997,0.037856966,0.002601559,0.016685648,0.09371078,0.10591647,0.06605743,0.035810605,0.092641234,0.053141065,-0.077713415,-0.084103405,-0.012200756,0.041976914,0.11423144,0.04014011,-0.08493053,0.033924535,-0.07359226,0.011060617,0.12228278,-0.14075279,0.08362212,0.09026146,-0.020491272,-0.08686399,-0.15625665,0.1033779,0.023974692,0.05797578,-0.20065892,-0.11768442,0.11408474,-0.00054397044,0.08032296,0.062226508,-0.044092428,0.00045867797,-0.053036,-0.011444568,-0.019499758,0.05868319,0.13841811,0.03959347,0.008065459,0.11419599,0.026901772,0.030453714,0.16232261,0.08214718,-0.088212565,-0.13649051,-0.02114987,-0.17542431,-0.15069474,-0.03441541,-0.029963972,0.07851115,0.08641992,-0.009883353,0.0352336,0.006381877,0.05455999,0.08146625,0.13255571,0.04072781,0.101839155,0.043207355,0.009292302,0.0677141,0.11565257,0.03167742,-0.021626214,0.09796233,0.04233973,0.0005305956,-0.01334744,-0.07373211,-0.0011184054,0.022647938,-0.022492418,-0.097655006,0.032404304,0.056363944,-0.15967803,-0.10747854,0.059742883,-0.039414406
0.04357965,0.043986853,-0.0061385822,0.0027569933,-0.023420969,0.011993051,-0.073442474,0.05826341,-0.008391427,-0.06523254,-0.016224368,-0.060582366,0.015504908,0.0264031,0.03535302,-0.04127887,0.038840882,0.05854155,-0.049946852,0.105657965,-0.11910362,-0.019898469,0.057291713,0.07313556,-0.06175822,0.090894334,-0.045107562,-0.055602845,0.06642209,-0.08557379,-0.028639572,-0.019966658,-0.12750112,0.039027657,0.03482549,0.018702451,-0.13278903,-0.020964244,0.063079424,-0.025016472,0.006009081,0.09371445,-0.018183105,0.06099267,-0.15157057,-0.10916715,-0.011875888,-0.06539206,0.026084412,0.030844595,0.00068332616,-0.022560785,-0.07634178,0.031843025,-0.0726107,-0.10847139,0.044278804,-0.03494122,0.03335236,-0.067627214,0.008108074,-0.034566186,0.08057679,0.015810383,9.766778e-05,-0.037233192,0.12397558,0.0545821,-0.010933912,0.011607476,-0.048064075,-0.010723697,-0.010516865,0.05314591,-0.016467743,0.0032562702,-0.08683216,-0.09936207,-0.008326818,-0.0593334,-0.066640384,0.04568346,0.027210493,0.024374556,-0.024361104,-0.19234514,0.046746317,-0.039359476,0.025411487,0.07702316,-0.048818275,0.051433444,-0.046294767,-0.07434613,0.063578725,-0.05857368,-0.033301942,0.018040366,-0.0057273814,-0.09422967,0.006878343,-0.13783047,0.0001317179,-0.015469287,-0.005949551,0.04072205,0.07650484,0.030207785,-0.17203598,0.07080843,0.07874902,-0.111653544,-0.044317186,0.02004656,0.10329551,-0.09863025,0.014569335,-0.051909164,0.054039046,-0.028565176,0.014529389,0.005650884,0.03128929,0.0060624676,-0.10131835,-0.030844789,0.0029640542,-0.103526555,0.018236522,-0.01623306,-0.015532097,0.009896572,-0.06207318,0.013977068,-0.14643869,-0.104014486,-0.01760796,0.009532434,0.036087316,-0.06781836,0.027354058,-0.011557239,-0.023426617,0.041074317,0.01384333,-0.11388329,0.05045617,0.07866479,-0.023238255,0.058419548,0.020010564,-0.067760125,-0.06249238,0.013372623,-0.07296471,-0.054022413,0.10092246,0.021949612,0.0065088384,-0.09539565,-0.11288401,-0.030811647,-0.014355332,-0.2316086,0.022989964,0.06918768,-0.073495634,0.0007086173,0.03644794,0.10098292,0.03622192,0.02741673,-0.0009727508,-0.03161036,0.14492515,-0.15916376,0.0029733335,-0.026855167,-0.051368624,-0.0761397,-0.038763724,-0.090713754,-0.063514635,0.027151816,-0.027599316,0.024075678,0.07768569,-0.061169058,-0.054345816,0.016245311,0.0028262367,-0.11169375,0.036437064,0.057976894,0.12502582,-0.067822196,0.023284327,-0.03708944,0.018365664,0.05916499,-0.10114874,0.0069978293,-0.04346389,-0.0062217806,0.13926236,-0.06849191,-0.032035485,-0.029956589,0.08011117,-0.08260049,-0.05513046,-0.02810947,-0.00947527,-0.1018534,-0.044656858,-0.03279022,0.008929429,0.13428275,0.1131033,0.07547554,-0.047698773,0.044493172,0.025299285,0.03575634,-0.07524413,-0.03581177,0.0045683556,-0.05176114,-0.037627913,0.018074792,-0.05880629,-0.003921347,-0.11380953,0.023992665,-0.1039859,-0.060226243,-0.095407076,-0.11680553,0.0043489253,0.003567349,0.106863216,-0.015473233,-0.08404337,0.0061593372,0.009834337,0.051287808,0.010638829,0.020064179,0.06254155,-0.050645895,-0.028003518,-0.0063513336,-0.04370835,0.0784873,0.02152545,0.034045592
-0.068229415,0.055626336,0.0477014,-0.025734525,0.032223016,0.0409362,0.021982843,0.059261814,0.008322186,0.052395903,-0.008296692,-0.053675707,0.0011528597,0.011194692,0.034889862,0.04082585,-0.040361255,0.013502749,0.030497957,-0.06327273,-0.0419545,0.011940295,-0.050454285,-0.04672699,0.053206004,-0.018909302,0.0031775204,0.012891847,0.05703177,0.0038850592,0.015303871,0.012253523,0.11930929,0.0048865937,0.046561196,0.058638204,-0.019223113,-0.02869522,-0.030200822,0.034722466,0.0880694,0.025646368,-0.06362132,-0.022351902,-0.043775957,-0.015375344,0.017106146,-0.03478943,-0.051389042,-0.015916437,0.043762796,0.04865882,-0.0042083077,0.06503844,-0.0031652653,0.05145061,-0.03351784,0.02435735,0.04056775,0.012995038,-0.00054331956,0.0012486263,0.062963225,-0.0021405804,-0.001171928,0.0250018,0.014814988,0.005875454,-0.0016027933,0.052930597,0.04946882,0.05699024,-0.016444623,-0.06448872,0.009963976,-0.034498338,-0.03641743,0.07711691,-0.055582054,0.048043843,0.017361552,0.017034728,0.051854845,-0.08098763,-0.03558913,-0.04817096,0.06822979,0.004008917,0.04629576,0.016146148,-0.0061828224,0.030620186,0.06631728,-0.027054237,0.028669825,-0.010239441,0.0038851304,-0.018300254,0.052662287,-0.00966224,0.05143533,-0.053143606,-0.03218244,-0.07145264,-0.06616899,0.007428878,0.028317004,0.06615684,0.003358291,-0.035931118,0.005152748,0.019408438,-0.0070999926,0.040959433,-0.013515165,-0.04233176,0.008987475,0.027821602,0.019872552,0.047493376,0.00773426,0.08161419,0.028635649,0.011987375,-0.022805873,0.06626218,0.05159443,-0.043788377,0.02912371,0.023699326,-0.056228325,-0.028719155,0.0050533595,0.056958433,-0.0060435487,-0.053320225,-0.0032394147,0.0089491485,0.030124517,-0.01593366,-0.034949183,-0.024696674,-0.04454733,0.00048094953,-0.0527688,0.035126705,0.043481123,-0.040611103,-0.019628549,0.05846397,-0.044216715,-0.04326186,0.020662783,0.027878318,0.012064345,-0.026544066,-0.03472922,0.018798165,-0.0028035142,-0.043240756,0.016098721,-0.05082078,-0.07983033,-0.012897842,0.06846068,0.024901016,0.035186682,-0.048884213,-0.015712054,0.030136697,0.07059121,-0.047101885,-0.04100717,0.003471199,0.02305268,0.056019,0.032673996,-0.0139529435,0.04936884,0.03318896,-0.06296238,-0.03674442,0.058754254,-0.03657559,0.056326773,-0.010644525,-0.0012856675,0.057035163,-0.049209327,0.03803569,-0.009585862,0.04888468,0.016903836,-0.047568038,-0.01508595,-0.026316456,-0.040374883,0.033045895,-0.025841456,-0.04540488,-0.020494908,0.013007933,0.051495545,0.03017528,-0.07926206,0.008256846,0.036485624,-0.04009116,0.05330727,0.01060156,0.03563046,2.6002539e-05,0.04247639,-0.039993793,-0.02829184,0.043616276,-0.046037998,-0.027967459,0.045815155,0.03767073,0.025359409,-0.022002233,-0.058437802,-0.0067094723,0.029911267,-0.028274918,0.059386604,0.060851622,-0.043801673,0.017204624,-0.04010313,-0.037284058,0.06495235,-0.006073528,-0.075348504,0.0490971,0.032024335,-0.027780158,0.0345176,-0.023929285,0.035510376,0.080568366,0.04794721,-0.02816604,-0.010069493,-0.027946223,0.011005374,0.017107839,-0.04569746,-0.062546566,0.007802769,-0.020969853,0.0122535955,0.013673333,0.027624708,0.050156914
0.022919182,-2.0862852e-05,-0.033945434,-0.13657704,0.031022936,-0.033573575,-0.2098785,-0.024365442,-0.16905515,-0.17762606,-0.11203491,-0.04386939,-0.048605528,0.0077211508,0.02179923,-0.08364204,-0.011377452,-0.103367165,0.040492795,0.08622234,0.13751839,0.057591032,-0.13119417,0.022696406,0.043329976,-0.17870946,0.041439142,-0.11538869,0.043040156,-0.043411497,0.017931294,0.0059193824,-0.056978405,0.07223954,0.022338249,0.023265632,-0.109476544,-0.026601901,0.059643257,-0.09020464,0.09579105,0.023962695,-0.19232735,-0.105424225,0.039233837,-0.012860217,0.019054113,-0.027853547,0.019537091,-0.081778005,-0.10115782,-0.02325354,-0.02750816,0.019294167,0.03028898,-0.065658644,0.040680666,-0.045012496,0.026674796,-0.14823398,-0.09026421,0.014722689,0.06519969,-0.011708067,0.066062935,-0.018324738,-0.24235798,-0.15005223,-0.102457196,0.07660857,0.06954963,-0.07335741,-0.06511082,-0.058696184,-0.059002984,0.076740876,-0.0008317322,-0.08354534,-0.04977909,-0.00065998296,-0.0702283,0.039145347,0.04218155,0.0071464656,0.15266025,-0.07919915,-0.08345419,-0.095856436,0.061511233,-0.048586745,-0.044511136,-0.14542925,-0.0533372,-0.013175654,0.065533645,-0.11048757,-0.05584843,-0.12044231,0.021774948,0.007027907,0.009254574,-0.092641324,0.056378517,-0.007531115,0.07901131,0.06382037,0.03743111,-0.120229825,0.025405416,0.07921791,0.081638195,0.0074081128,-0.095477924,-0.03492632,0.02525002,-0.057049308,-0.20125166,0.03000402,-0.039785895,-0.06298441,-0.034300815,-0.067986324,-0.038504776,-0.0071158195,0.048113868,0.18628402,-0.07305773,-0.10803344,-0.17273374,-0.055647273,-0.07388441,0.07116189,-0.021377014,-0.117922455,0.070281975,-0.024271771,-0.070744805,-0.20288739,-0.070192896,0.004256019,-0.0399219,0.07421971,-0.03368981,0.014201211,-0.069155425,-0.014624961,0.015054486,0.06973471,0.065270156,0.030989178,0.053260617,0.12774749,-0.13967003,0.07154857,-0.0058413274,-0.06437663,-0.035037335,-0.06869897,-0.0058632074,-0.024218448,-0.05057455,-0.00012347677,0.084340654,0.011592891,0.09836241,0.059226636,0.07988308,-0.10500883,-0.075497866,-0.02076616,-0.10654527,0.11285175,-0.013245065,-0.08881228,-0.10463209,-0.047918998,-0.024666253,-0.06057057,-0.20090547,-0.017079085,0.07295272,-0.010117725,-0.05130005,0.08761174,0.008971986,-0.034501515,0.033760432,0.07051696,-0.04371115,0.006469106,-0.020372858,-0.10340237,0.007865835,0.078093894,0.067727014,0.01570623,-0.20191218,-0.08597739,-0.042296395,0.035345476,0.0058380496,-0.04242193,-0.0066700587,-0.08761532,-0.07240012,0.0209717,0.050301537,-0.1447571,-0.058417123,-0.032319944,-0.04758485,0.12541603,-0.050858267,-0.009973647,0.026031978,0.11621099,0.0052865907,0.002079663,0.07372013,0.0074835494,0.09813468,0.061142497,0.035200138,0.06618906,-0.03126129,0.14343798,-0.024380105,0.017535632,0.0865336,0.029509353,-0.03316623,0.033209644,0.0013948748,-0.101798005,-0.05587355,0.06924923,0.11246038,-0.0504476,0.063566186,0.0016131139,0.08029866,-0.0021329874,-0.0650808,0.08086021,-0.00436225,0.022065965,-0.051043,0.08949395,0.0039312337,0.1065265,-0.037386335,0.05397425,-0.016436748,0.051103283,0.097214244,-0.05636532
-0.03766341,-0.08162347,0.07423964,0.08629511,0.045989294,0.003832922,-0.02137345,-0.0077427244,-0.004355118,0.11741182,0.010612694,0.060564235,0.07349378,-0.034838863,-0.047538277,0.027243856,-0.09450962,0.059016354,-0.22530296,-0.004609368,0.06819122,0.004529826,-0.097046226,0.027892703,0.0625056,0.0048749708,0.010350837,0.044381693,0.02005045,0.041416854,-0.014469302,-0.033790153,0.056677546,-0.099631906,-0.14846432,-0.0160645,-0.023396011,0.04303238,-0.05164478,-0.049100123,0.12946263,0.016418464,0.08835622,0.03515922,-0.009671137,0.01433644,0.07884792,0.018373035,0.013133637,0.03583041,0.013386333,0.030639367,0.062143438,-0.15675625,0.058741894,-0.008108568,-0.037808016,0.0046888622,0.07271035,0.012614848,0.0708743,-0.049597863,0.059591815,0.02343071,-0.02710501,0.009038787,-0.028599,0.032158326,0.038168125,0.069170766,0.08135745,0.058713056,0.040353365,0.039460577,0.073727615,-0.15097633,0.0872446,0.08648711,0.025592225,0.059493717,0.03689183,-0.09049848,-0.13811187,0.00032460043,-0.0034664983,0.038427155,0.07047485,0.10117663,0.015030083,0.019345395,0.0724563,-0.037508637,0.00656166,0.08431674,-0.04682586,-0.008804987,0.02374835,0.08264762,-0.019754427,0.014838352,-0.022122577,0.077195235,-0.040631626,-0.028760653,-0.17819364,-0.1104313,-9.195163e-05,0.04893008,-0.01881762,0.06261845,0.059333466,0.0066040456,0.047546096,-0.01768264,-0.10505686,0.064863175,0.08824789,-0.003375202,-0.075126715,0.04480444,0.085418575,0.026536273,-0.022293216,0.012587224,0.038680132,0.029853828,0.025273887,0.011436186,0.009354569,0.03226667,0.041034818,0.03800569,0.049379386,0.073755205,0.03839457,-0.010046995,0.013776799,0.005944636,0.0316708,0.100818984,-0.088713825,-0.058430225,-0.022553205,0.025395619,-0.034523886,0.06083181,-0.00418968,-0.110938184,0.054375555,0.009182799,0.059482682,0.11302488,0.018810589,0.07258755,0.026920466,0.019729638,-0.017616792,0.06121155,0.040424973,0.019194843,-0.047810618,0.03136177,-0.09955047,0.039834533,-0.030695882,0.031227276,0.0072649755,0.11308477,0.03831009,-0.044466373,-0.01178294,-0.023596095,0.087889634,0.03159666,0.0038493117,-0.011753102,0.036170308,0.054288592,0.040312912,-0.08207245,0.039678052,0.096792065,0.07410158,-0.00818946,0.06452126,-0.05461204,-0.09810723,-0.095130526,0.041706644,0.01834909,0.053507537,0.04821127,0.016797045,-0.089061975,-0.09562711,0.07579268,-0.020972438,0.03732645,0.02438994,0.012198212,0.06729885,0.066068396,0.07827523,-0.0016766908,0.03748861,0.11984667,-0.027521752,0.066240266,-0.07188041,0.037179027,0.097140975,0.022770988,0.06883084,0.06779036,0.011740999,0.04515557,0.04266277,-0.034691583,-0.08191207,-0.04517611,0.061369557,-0.09638028,-0.06877787,-0.04195854,0.06585616,0.112724476,0.018047864,-0.004573841,0.029014423,-0.009495276,-0.096155904,0.084817864,0.082354255,0.06886755,-0.041080043,-0.009982554,0.03392264,-0.036790434,0.090449065,0.10216025,0.043823704,0.10877236,0.07358789,0.019290075,-0.06816675,-0.04616552,-0.05473317,-0.05996168,-0.034905534,0.017442482,0.053964026,-0.05818022,0.096567445,0.015174177,0.001719745,-0.17734942
0.03985019,0.043396145,0.1274939,-0.15589799,-0.15868326,-0.025355782,-0.28951108,0.0469709,-0.11507017,0.070981495,-0.175037,-0.14163393,-0.0109978495,0.15464826,0.17639229,-0.24187072,0.1998271,-0.2769713,-0.013118298,0.07284799,-0.24863547,0.1933134,0.15872481,0.05642251,-0.06869922,0.13888407,-0.29908073,-0.17246358,0.11628129,-0.0892043,0.015098855,-0.058724143,0.006859297,0.226035,0.18226393,-0.07663211,-0.11290129,0.013085626,0.06701186,-0.022765921,0.101097085,0.18824603,-0.28071833,-0.29564816,0.10571249,-0.21859795,-0.12725332,-0.047879696,-0.029654473,-0.027600024,-0.4246932,-0.052228775,-0.059264317,-0.07127923,-0.3196478,-0.1371546,0.20267677,-0.3523103,-0.04930092,-0.07616984,-0.10000208,-0.0027012697,-0.1779191,-0.14267753,-0.08342397,-0.43179423,0.067081235,-0.055240266,-0.058120057,-0.28976727,0.115639344,-0.16613257,-0.0874478,-0.43517515,-0.17139295,0.22106524,0.054271434,-0.1097514,0.1457588,-0.16006754,-0.08838273,0.12406821,0.042917266,0.06777507,0.3439205,0.015589274,-0.23740551,0.016688503,0.27269018,-0.2739503,0.015440558,-0.21287127,0.0076745143,-0.0985206,0.17372833,-0.13033302,-0.03496975,-0.019661624,0.11600443,-0.07860904,0.057752676,-0.11700709,0.1817637,0.03229357,0.12320851,0.30199924,0.033245698,-0.23645094,-0.10629683,0.015835937,0.25069535,-0.09711252,-0.05143555,-0.082372166,0.13762847,-0.06236691,0.03638727,-0.052492686,0.0459077,-0.08609824,-0.18169886,-0.1823468,0.065092854,0.14177929,-0.12356028,-0.109536275,-0.08188474,-0.04370754,-0.19505799,0.0056501813,-0.13060854,0.026546823,-0.11871311,-0.19066235,-0.14155385,-0.18402556,-0.026565649,-0.19602025,-0.032652415,-0.1403276,0.021719584,0.20930302,-0.15989013,0.12779444,0.1436957,-0.16005924,-0.22963637,0.11144245,-0.04698649,0.08312327,-0.0019373854,0.13351142,-0.1789005,0.1298772,-0.05440787,-0.21599436,0.29643452,-0.1584105,-0.030780327,-0.11449558,0.08393128,-0.062640026,0.13431266,-0.08714948,-0.11182322,0.10839721,-0.25167167,0.14885466,-0.15903974,-0.06078494,-0.21416473,0.12561285,-0.09456946,0.1610735,0.02805102,-0.1406169,-0.075044915,-0.3173045,-0.14632972,-0.16806324,-0.036847405,-0.07067498,-0.19347031,0.1578609,0.052645005,0.13160707,0.073579885,0.060294114,-0.047185183,0.07076927,-0.03332945,-0.008028162,-0.09826814,0.04301912,0.06935625,-0.17242795,-0.15125729,-0.17957154,0.19843657,0.049333137,-0.07601946,-0.13733417,-0.17461807,-0.27536598,-0.1967275,-0.120840974,-0.00037508894,-0.27289,0.20351163,-0.18296744,0.07526704,-0.33591458,-0.15861335,-0.14961596,-0.29929444,0.14000253,0.03355872,0.16217268,0.10805633,0.01311116,-0.16228347,0.08263382,0.064880244,0.20908812,-0.16549198,0.19767691,-0.13404696,-0.0059078955,-0.25874853,0.035487875,0.15094668,-0.46240523,-0.12581904,-0.0644501,-0.06179047,-0.20044258,-0.026385143,-0.097533,-0.16779739,0.010419067,-0.16627759,0.17660864,0.011662275,0.09209217,-0.016511591,0.07759486,-0.21205056,0.26074713,0.24596007,0.018585237,-0.29227832,0.22478907,0.19381705,0.14178075,-0.07331667,0.043558966
-0.07758522,-0.007924901,-0.022356385,0.091785006,0.044841055,0.014750012,-0.026447088,-0.023865491,0.045440678,0.03208579,0.00049315125,0.0027677934,0.04627972,-0.033410717,-0.107790686,-0.03848923,-0.058525205,0.0703372,-0.091946036,0.017154984,0.04031027,0.04425019,-0.037787184,0.019163668,0.10527631,0.009553558,0.037847996,0.07167899,-0.06010563,0.062363837,0.025473138,0.08969673,-0.023906427,0.006891575,-0.0170183,0.049134362,-0.011050266,0.016217813,-0.033323288,0.0077494164,0.12231856,-0.033961978,-0.02021771,0.02191603,0.072812356,0.054135136,-0.01359685,0.10276954,0.037907273,0.04763353,0.013613712,0.05774464,0.10629771,-0.033988483,0.04931182,0.08443531,-0.04796415,0.038716234,0.09737836,-0.03206598,0.07293789,-0.0031466216,0.07631175,0.06711523,-0.0829567,0.05240932,0.066153064,0.07101453,0.05458598,0.07969541,0.021409849,0.009476365,-0.044440657,0.029668523,0.019457929,-0.0340575,0.098800145,0.07291706,0.028809873,0.0057861623,0.045933135,-0.10721814,0.05482782,-0.044958647,0.058064353,0.11339887,0.018207239,0.058970913,0.056370266,-0.0663208,-0.047022026,-0.05953692,0.04593315,0.087405376,-0.14355797,0.10741937,0.019587023,0.047441497,-0.040339872,0.0020134223,0.07508932,0.016225187,-0.04231867,0.019786447,-0.0069752447,-0.041042116,-0.06011094,0.050384548,0.114456445,-0.03163205,-0.035555497,0.03867203,0.1096287,0.07305356,-0.029428821,0.020994913,0.085251406,0.054726623,0.0028086565,0.088975735,0.024594422,0.020639738,-0.10033876,-0.07286811,0.03666937,0.04048916,0.03326643,0.0017904529,-0.037206862,0.030723032,0.012371935,0.028469218,0.048988253,0.0095089795,0.006754653,0.03624305,-0.0043102046,-0.037615106,0.054297306,0.07376684,0.074217334,-0.118912086,0.03503323,0.010740328,-0.028822048,0.0178165,-0.041393638,-0.060053516,0.025825476,-0.0732738,-0.03100322,-0.0021868702,0.09012066,0.03508742,0.081401095,0.06473242,-0.05340963,0.051114544,0.049675766,-0.029708888,0.05138286,-0.029549953,-0.080511056,0.06744403,0.052531246,0.004055029,-0.004409005,0.13932988,-0.013255632,0.036476675,0.004291442,0.0043602698,0.077829026,-0.0054751006,0.10331738,0.06352777,0.03550036,-0.0059551303,0.010433334,0.071435414,0.12666821,0.038286023,0.08021783,-0.05425629,-0.036080543,0.06861402,-0.12336864,-0.049745906,0.07557663,-0.056459785,0.08556796,0.09439554,-0.017170845,0.031382125,0.0018461216,0.010832409,-0.052231874,-0.025227046,-0.0020046814,-0.06531573,0.024904702,0.03903071,0.03343061,0.020363662,-0.07440895,0.023636421,0.0146271745,0.05466448,-0.014208803,0.095560476,0.055963904,0.053156886,0.04581124,0.064873084,0.058297615,-0.02527016,0.057494067,-0.04141061,-0.123050705,-0.01580811,0.019483201,-0.041190058,-0.109706655,-0.07537559,0.08322404,0.0359115,0.030999627,0.091314174,-0.02498415,-0.040965393,-0.07054861,-0.0115447715,0.09173126,-0.0071427906,0.06731182,-0.0071353666,0.04696626,0.059352618,0.057665393,0.044717714,0.0037624352,0.05960392,0.058924068,-0.025218325,-0.0064001153,-0.021725692,0.04050442,-0.04786035,-0.028540196,-0.006929719,0.006101096,-0.04887508,0.006194801,0.005457198,0.075439215,-0.014651555
-0.0038837641,0.0007073641,-0.073148735,0.035722136,0.037988048,-0.052088436,-0.012008542,0.0035736186,0.015548551,-0.022510733,-0.055282865,-0.045198414,-0.05430253,0.017314987,-0.02650848,0.03298029,0.054137055,-0.05727253,0.062601276,0.071223095,-0.05490458,0.056025665,0.07169995,-0.0040340303,0.0040904405,-0.04188542,-0.0030725494,-0.022775166,-0.06296962,-0.0012196562,-0.018954948,-0.030575758,-0.027589815,0.026746122,-0.055723563,-0.0036392482,-0.0031645072,0.010525162,-0.016871817,0.035422213,0.010453092,-0.027563905,0.021491667,-0.06026422,0.027712604,0.020910045,0.046621844,0.041559085,-0.019581532,-0.042922612,-0.040668804,0.0062345937,0.031387147,-0.07983276,0.07106764,0.015527133,-0.045387562,0.036938492,-0.012957446,0.02735361,-0.011386847,0.0137482425,0.008968228,0.043809112,0.015835758,0.030065438,1.0313752e-05,-0.0011942963,-0.0010117685,0.026691535,-0.012485711,0.046181772,-0.05397541,0.016761612,0.023286752,0.03411541,-0.018563092,0.011031416,0.024460813,0.03255844,0.08004535,0.018602042,0.03180846,0.03596691,0.053635966,0.0069003357,0.042497065,-0.04220912,-0.039575852,-0.0022531745,-0.012804386,-0.051727466,0.014802168,-0.022122275,0.028516999,0.050418906,-0.04266644,-0.0098091075,-0.064167954,0.016881643,-0.007916207,0.040862262,0.06398398,0.009866748,-0.040818065,0.03331491,0.018082675,-0.029705241,0.0085321525,-0.007000715,-0.039297916,0.046852704,0.030112343,0.017793424,0.0046907095,0.0012643898,0.028188327,-0.014078207,-0.04184627,-0.044497393,0.07332743,0.0047807083,0.0067031337,-0.03198698,-0.02287936,-0.018437572,-0.032460764,0.0013532419,-0.023087876,-0.054084994,0.05301705,0.072707616,0.055826828,-0.06319765,0.014273231,-0.04098094,-0.04724571,-0.0042143166,0.047519322,0.0048886472,0.07588632,0.06723096,0.05519247,0.0033783966,-0.059418198,-0.026371188,-0.05011629,-0.028200528,-0.022470377,0.037388638,0.066035405,-0.0023913058,-0.02218384,0.024928108,0.01337801,-0.004683409,-0.05422542,-0.011565923,-0.008609678,0.019296994,-0.021025326,0.06641955,-0.025659543,-0.031389527,-0.060918022,0.014389097,-0.030811766,0.00075022166,0.067809135,-0.06525766,-0.0237161,0.04141438,0.03278596,0.029553598,0.037007846,0.04543961,0.010554592,0.02479171,-0.0048842933,-0.013284415,-0.017112965,0.019050587,0.027578112,-0.004614888,-0.047902137,-0.029357096,-0.060521197,-0.0022095882,0.008109221,-0.029925743,0.003647312,0.043497734,-0.051498976,-0.017810076,-0.045326255,0.044663657,-0.046953246,-0.0065630553,0.016406184,-0.0029663376,0.0055207377,-0.05623606,-0.004170706,-0.007016463,0.060265727,-0.013073656,-0.026604295,-0.010686967,-0.011250838,-0.011361955,0.0061998502,-0.022091813,0.008508943,-0.018407987,-0.060303945,-0.003645661,-0.049798533,-0.080480985,0.011549743,-0.03861885,0.04991636,-0.012661444,0.00867403,-0.04728206,0.015505281,-0.016210021,0.0019414481,-0.00091093074,0.031888273,-0.033812504,-0.05846187,0.0030466425,0.055488203,-0.032585118,0.03941296,-0.017016534,0.00041796788,0.00088695146,0.050894912,0.065117285,0.005260612,-0.034980956,-0.037902575,0.054338455,0.07407547,-0.06815645,0.048263285,-0.033860747,0.00016359615,0.022877438,-0.025820535,0.04553224,-0.0057437527,0.041342992,0.04633072,0.006790342
-0.07245067,-0.012834782,0.018008688,0.039758317,0.10008186,-0.0737949,0.063269936,-0.010498384,0.07299384,0.07749297,0.07233724,0.074390754,0.101271,-0.15618734,-0.05833851,0.087080374,-0.099145345,0.08722553,-0.051151875,-0.07546444,-0.010707131,-0.0013591573,-0.072810926,-0.06734214,0.068364225,0.061783224,0.08142266,0.13818088,-0.06872645,0.10733059,0.11187986,0.112556994,0.06968843,0.022473631,-0.045743838,0.06666546,0.10552949,0.0587765,-0.09920841,0.052725118,0.08573824,-0.13168855,-0.041717168,0.03632028,0.04919522,0.06574659,-0.0033788153,0.1483525,0.07437505,0.118407704,0.0148483,0.0506184,0.06746825,-0.06665568,0.009669397,0.103925854,-0.09129081,-0.023277298,0.09436514,0.065193154,0.067570776,0.016267851,0.035512783,0.07471415,-0.16211255,0.11277203,0.02291165,0.055762593,0.09280025,0.03911512,-0.07515033,0.10246181,-0.01053863,-0.01831754,0.064054124,-0.035346992,0.15705842,0.14586596,0.0059137153,0.10396905,0.066674,-0.14908071,0.034336507,-0.028583158,0.07417021,0.14713699,0.054021608,0.123886466,-0.024600359,-0.08485863,-0.013953644,-0.014835783,-0.0047503184,0.122687094,-0.15836887,0.08825017,0.1144659,0.046280414,-0.055975817,0.09582195,0.05543184,0.06988495,-0.08132181,-0.008235391,0.03435979,-0.18391055,-0.08434731,0.039057083,0.07656035,-0.05876733,-0.03331585,0.04387551,0.12711915,0.10160999,-0.03321793,0.015555022,0.035000555,0.038992856,-0.14781764,0.06760859,0.057464812,0.17490454,-0.100934476,-0.099988624,0.061100706,0.06721457,-0.026320618,0.09716415,-0.00025631062,0.050611153,0.06639687,-0.012680504,0.09266506,0.010355193,0.086042404,-0.004890072,-0.022475166,-0.02444974,-0.00705003,0.12330967,0.044459317,-0.15323186,0.10430653,0.011420216,-0.12628967,0.003478077,-0.07551302,-0.093226634,0.12130004,-0.04436201,0.020218719,0.10185626,-0.002749681,0.008711656,0.008261561,0.046045028,-0.10244649,0.087538645,0.033428643,0.023292616,0.11035737,-0.031440597,-0.033110894,0.07034828,-0.02576218,-0.074628316,0.066332154,0.15640217,-0.12014728,0.02023888,0.040105097,-0.08439127,0.00091754127,0.11702118,0.09005968,0.015431379,0.07808435,0.04314937,0.09890176,0.062879965,0.12431429,0.11378033,0.11985578,-0.051076576,-0.07607363,0.045760203,-0.15387541,0.03915098,0.07956307,-0.038300198,0.06937278,0.06342998,0.0031698802,-0.04952567,-0.1047365,0.10526147,0.060503665,0.03005466,0.12753686,-8.837794e-05,0.06639488,0.097909965,0.086379096,0.09879656,-0.07419915,0.11129687,-0.08673132,0.107989706,-0.048587464,0.12985134,0.050026186,0.027109234,0.13181014,0.12194998,0.022012575,0.0697499,-0.025343519,0.037818532,-0.14986078,-0.0837814,0.013928776,-0.04363734,-0.12838453,-0.09303471,0.026880981,0.1338273,0.06798233,0.06076206,0.039296728,-0.010089957,-0.072317384,-0.021823432,0.05737956,0.02325963,0.027771264,0.090559065,0.09717365,0.06631328,0.097166166,0.07332978,0.00612543,0.045226436,0.048505228,-0.029206986,0.067552775,-0.09665292,-0.019845651,-0.0188539,-0.074657075,0.0009847765,0.010724072,-0.0635295,0.024765646,0.0012952165,0.010773981,-0.04632901
-0.16677682,0.019190222,-0.0477492,0.12505686,0.072725594,-0.03849132,-0.01504558,-0.04253223,0.14663543,0.16063729,0.047460537,0.044792235,0.12721443,-0.12050297,-0.044237517,0.098653875,-0.16042884,0.028440839,-0.057678718,-0.06748754,0.118140414,0.05903957,-0.14682359,-0.08429819,0.19185062,0.112883665,0.012313518,0.17374924,-0.13801102,0.108656764,0.07079136,0.1187839,0.054692794,-0.04409383,-0.059892315,-0.015469915,0.124346174,0.031930383,-0.028744217,0.053793054,0.09703426,-0.07513125,0.066397294,-0.0025335182,0.14334297,0.16717419,0.04836967,0.09349011,0.018652096,0.053886626,-0.019784378,0.11944812,0.067160316,-0.06780295,0.06660411,0.13101219,-0.0068362504,0.063642785,0.11260665,0.0009687146,0.016485823,0.01893936,0.057144776,0.068670586,-0.1859522,0.104704686,-0.015348157,0.058881775,0.07098702,0.056851506,-0.057750463,0.07181931,0.069655575,-0.025346577,0.0022806474,-0.10058811,0.13087364,0.18835948,-0.013119869,0.08369336,0.13943519,-0.13047102,0.09681936,-0.07344085,0.09105912,0.12161456,0.1561545,0.063385755,0.0016946071,-0.06072691,0.0071826247,0.015063561,0.06683308,0.1501872,-0.21960782,0.11011959,0.12614098,0.101470195,-0.08566608,0.17584583,0.0003941436,0.078398064,-0.08237629,-0.012156977,0.09513443,-0.15116835,-0.124524415,0.051548593,0.21782693,0.0070377085,-0.1376538,0.044480093,0.06541083,0.0556169,0.0009027693,0.014893394,0.075437866,0.06766868,-0.113269344,0.101697765,0.04293904,0.10220988,-0.05371345,-0.12899494,0.12248749,0.14019999,0.11015282,0.15195274,-0.02474794,0.013540866,0.036712363,-0.0047378456,0.13601813,0.012405332,-0.0029533063,0.008642354,0.005132918,-0.062231883,0.094430774,0.21823801,0.06667884,-0.16614091,0.112357594,-0.015246621,-0.098714545,0.106620654,0.021804651,-0.07071112,0.16751152,-0.088711455,0.05717814,0.12889084,0.116864964,-0.017115436,0.09998011,-0.0014412039,-0.14969449,0.08249516,0.116875134,0.08494073,0.08110975,0.07821467,-0.050797753,0.16619642,0.08413645,-0.112642385,0.08463552,0.1830435,-0.010017025,0.021563081,0.10817848,-0.10666062,0.023726447,0.14153361,0.1521128,0.081709445,0.09021452,0.029327244,0.045484915,0.03975156,0.1556986,0.110079706,0.14973837,-0.10511663,-0.0063099735,-0.017782127,-0.18850695,-0.018253133,0.04399316,-0.08640429,0.0857318,0.11839675,0.11054477,-0.029729865,-0.12458048,0.13951464,0.034680966,0.077085406,0.10140585,-0.08574859,0.03534858,0.09927091,0.032978524,0.12916943,-0.106536925,0.1516052,-0.06694019,0.14767401,-0.03359944,0.055036493,0.12021239,0.13695022,0.15438528,0.1447355,-0.0064764493,0.07770391,-0.041731764,-0.08606502,-0.17859493,0.004760979,-0.012081284,-0.05993173,-0.13240811,-0.16382864,0.06687412,0.09763308,0.033542894,0.12230028,0.13012925,-0.026376294,0.0037640072,0.07333692,0.15614228,0.11349534,0.009530447,0.107166804,0.1275363,0.049538564,0.17147656,0.120696686,0.05934543,0.14523257,0.08347864,-0.08858118,-0.029452173,-0.085303396,-0.033239793,-0.040592942,-0.1180458,0.0132646,0.026352461,-0.06475127,0.01105253,-0.06534034,0.0642327,-0.094864935
-0.031274527,-0.10998173,-0.072848216,0.042210493,0.029877447,-0.058499906,-0.016988501,0.018887565,-0.008732587,0.061296135,-0.04320299,0.040832277,-0.01621147,-0.016611317,-0.051802184,-0.0011082552,-0.08380247,0.064607635,-0.032953206,0.028986441,0.06590134,-0.066070355,-0.05765371,-0.07119085,0.08431065,0.059534766,0.06268638,0.01546233,-0.023170965,0.043315694,0.010436291,-0.011087024,0.019606235,-0.080169745,-0.041565277,-0.004141771,0.017187387,-0.009348895,0.051741444,-0.037634876,0.022922946,-0.050580494,-0.047996037,0.03223117,0.018186623,0.08368341,-0.0095684305,0.09370635,0.009010398,0.055175584,0.0737238,-0.0034376136,0.084788024,-0.012797754,0.0106045855,0.0026885595,0.008557234,-0.012874747,0.024878439,0.083924085,-0.005682916,-0.053718623,0.09057389,-0.024273865,-0.05652421,0.04936331,0.07295252,0.09589768,0.048954476,-0.024260338,-0.03593798,0.08713708,-0.004687777,0.036775816,0.037184805,-0.02267362,0.006287524,0.050615545,-0.0025659571,0.044280667,0.03857324,-0.04074602,-0.089395225,0.01499749,0.052373547,0.08798272,0.06353364,0.014414713,0.08622779,-0.083934255,-0.024625078,-0.0337174,0.03698183,0.006524448,-0.08531045,0.03335174,0.008521933,-0.02814699,0.018363208,0.022623168,-0.02112059,-0.0056388513,0.04748029,-0.19691099,-0.013599607,-0.08621082,0.01507997,0.08245936,0.07832953,0.01549084,0.038278684,-0.036303252,0.047097545,0.09495916,0.07031466,0.081633866,0.0033961195,0.048899062,-0.07934001,-0.023222089,0.036662925,-0.0074631837,-0.01051927,0.056999948,-0.00023670746,0.06937947,0.027985472,0.10114934,0.029149167,-0.042942896,0.048278127,-0.037073556,-0.009534104,0.0017340314,-0.0019214901,-0.01405824,0.020971976,-0.009857457,0.068015054,0.04070857,0.011483794,-0.060679357,0.06250012,0.04275098,-0.17082024,0.056611262,0.024407959,-0.052540462,0.03040945,-0.12615116,0.07159538,0.11432761,-0.00053756486,-0.04542173,-0.004120251,0.020562576,-0.0484942,-0.010794287,0.09716455,0.09321754,-0.010909284,-0.012114952,-0.013010673,-0.00765888,0.03099762,-0.012769046,-0.021626767,0.12980512,0.060169067,0.009731811,0.029760357,-0.05422573,0.04610193,-0.005187002,0.031555742,0.03969159,0.070315264,-0.020995855,-0.0066890265,0.022897163,0.024414701,0.071196824,0.015180187,0.032365747,-0.06417132,-0.117669605,-0.09839143,-0.0397204,-0.0097167455,-0.020683752,0.11358086,-0.025038373,-0.0059408993,-0.15025413,-0.09615986,-0.014673767,0.016777521,-0.04760612,0.08929211,-0.12936307,-0.062110435,0.022448696,0.024063967,0.05976883,-0.04601344,0.039260816,-0.03339153,-0.013564259,0.0009214517,-0.0112345265,0.015892606,0.014112098,0.085649885,0.020889614,-0.0011223552,0.06153926,0.025042532,-0.079243295,0.042727266,-0.027489161,-0.073524915,0.011256722,-0.0565195,0.0270679,0.025041604,0.1106047,0.102016665,0.045592025,0.017077884,-0.17545357,0.05853038,0.0660333,0.035771836,0.06032839,-0.04956529,-0.033851378,0.0072457604,0.0075050103,0.08014099,0.0008061395,0.031541053,-0.004966789,0.008386344,-0.032208055,-0.15363184,0.013580572,-0.029558493,-0.091895245,-0.16099434,-0.009547626,0.06229442,-0.04454202,0.093227476,-0.005268791,0.046547018,0.033642948
0.056306176,0.046723057,-0.029989593,-0.09921784,0.057788916,-0.092803,-0.12343286,0.078558296,0.087240756,0.037001196,0.002122662,-0.075790696,0.038452588,0.08500555,0.02554272,0.08711804,0.10719781,-0.15923205,0.02119495,-0.03568735,-0.07541064,-0.04131169,0.11274818,0.14652376,-0.13842942,0.086587995,0.12240329,0.04065826,0.09314408,0.023002509,-0.027052158,-0.018214041,-0.03338454,0.062256724,-0.042751867,0.08073687,-0.042334817,-0.21484417,-0.005028553,-0.026187155,0.034885436,0.06669879,-0.0324116,0.14848775,-0.16684738,-0.052687027,-0.08003234,-0.016745636,-0.015963798,-0.18344235,-0.21501799,-0.17162448,-0.06198312,-0.092887074,0.030600496,0.061887816,0.17678712,0.05849823,-0.16405544,0.10919305,-0.11249239,0.09647461,0.042388193,-0.04687452,-0.06973911,-0.051093828,0.22881508,-0.14072199,-0.0373855,-0.110768095,0.1221449,-0.043989092,0.09287022,-0.14638835,0.032663938,0.11036414,0.029436594,-0.12541935,0.085889466,-0.1597802,-0.1655317,0.075491935,0.07041093,0.04612974,0.014323455,-0.22786659,-0.09078657,0.06644836,0.09166508,0.021883588,-0.09132353,-0.06749708,-0.1125241,-0.013551751,0.15219408,-0.062181246,-0.0484716,-0.034171555,0.047157925,0.07350552,0.029149981,-0.20464669,0.14582865,-0.016694305,0.14891185,0.1772071,0.0437984,-0.18965568,0.08272142,0.070106246,0.09222605,-0.058870044,-0.18545416,-0.058833107,0.09434583,-0.15181182,-0.013824433,-0.12825763,0.057171684,0.0057980586,-0.06992302,0.0068432544,0.08204507,0.15064451,0.06494579,-0.08777969,-0.12543878,-0.13421367,-0.08109533,0.1259302,0.05137503,0.024384072,-0.005039356,0.09160339,-0.021470612,-0.11393522,-0.12820049,-0.006750259,-0.1881937,-0.12467509,0.042907953,0.089462854,-0.050381776,-0.07966471,0.09571864,-0.1503798,-0.13363548,0.095514655,-0.05876036,-0.030248452,0.009124338,-0.054035213,-0.13535747,0.023428354,-0.04568402,0.036546595,0.07144857,-0.04568262,-0.0992489,-0.11456413,-0.08773049,-0.12311361,-0.010112225,-0.14810178,0.0156200025,-0.056372754,-0.0011157074,-0.2277164,-0.11880917,0.029023314,0.039944958,0.10283828,0.02149959,-0.17712507,-0.035942577,-0.10015537,-0.11668869,-0.1266207,0.0062516015,-0.05736898,-0.1932698,-0.057707887,-0.030497711,0.054183755,-0.020661794,0.052382603,0.04627174,-0.018052028,-0.07073172,0.12653814,0.063539095,0.026569778,0.0016828909,0.10807708,0.011044791,-0.094462425,-0.0016942363,-0.121588856,-0.032589123,0.09865916,-0.15156932,0.1358921,-0.06089835,-0.09383359,0.090813145,-0.07683842,0.015896954,-0.011732547,0.07966311,-0.10936903,-0.042715326,-0.054754846,-0.12881774,-0.06265163,0.067727655,-0.03597943,-0.02874463,0.1326563,0.088500924,0.0033145784,-0.24499664,0.1686144,0.0114859305,0.12449706,-0.14747272,-0.009013986,0.03990821,-0.07096466,-0.19411297,0.06669957,0.020953635,0.11102213,-0.0075495355,-0.047368467,0.048180226,-0.09845933,0.091942556,-0.093215644,-0.187214,0.0037987402,-0.09775214,-0.15742175,-0.12261945,0.050944585,-0.040326092,0.093158245,-0.11834752,0.07085226,0.05905713,0.05006262,-0.034307525,0.11844348,-0.026748452,0.08554473,-0.07017722,0.19979711
0.0013858466,-0.0050341496,0.056627974,-0.06819988,-0.0135296825,-0.025852218,0.07032737,-0.07104466,0.077331156,-0.028821398,0.028756898,0.023652464,0.0564917,0.01874918,0.011456372,-0.027036136,-0.009209141,-0.054125007,0.017360812,-0.02517832,-0.028849905,0.020842092,0.026146326,0.024306243,-0.07225165,0.02397956,0.0028159735,-0.04392022,-0.029783044,-0.022602146,-0.017971603,-0.05797149,-0.012087626,-0.027123975,0.047459677,0.009334792,0.0012689921,0.015577518,0.044454426,-0.060824305,0.018785993,-0.047078103,-0.06020976,-0.05541239,0.043360412,0.00052392617,0.052415602,0.030795503,-0.054007478,-0.00058286963,-0.058225393,-0.019199697,-0.0077678654,-0.026845822,-0.040345922,-0.021069787,-0.006534946,-0.019720934,0.039106857,-0.0015829529,-0.05291761,0.03433456,-0.03621456,-0.042736217,-0.021409819,-0.11625816,0.0027092115,-0.04154719,-0.035724193,0.017780153,-0.019884013,0.019296806,-0.014437677,0.073320754,0.007232472,0.0092174355,0.009857264,0.02396122,0.010625373,0.032748505,-0.05882612,0.005642994,0.014370403,0.057229467,-0.010334637,0.012060322,-0.052230105,0.061808173,-0.04689098,0.029815082,0.014668581,0.050878834,0.03695508,0.022696184,0.05141513,0.031627934,-0.045943823,0.035759848,-0.024794186,-0.008308187,0.052099317,-0.011315876,-0.054658253,-0.021338683,0.01684906,0.06162511,-0.037817653,-0.010965366,-0.020305919,-0.036606386,-0.018006193,0.022422953,0.05497178,-0.014689762,-0.035149116,-0.044555545,0.044160508,-0.009527838,-0.028334664,-0.06982743,0.053588655,-0.040409848,-0.026295858,0.044520102,-0.044820502,-0.00598311,0.041786592,-0.02208026,0.064032435,-0.0581159,0.062045194,-0.0113290725,0.06421424,-0.053202823,-0.033362746,-0.019583153,-0.009873718,0.059855293,0.008434215,0.008399647,0.003285098,-0.033111796,0.018758083,0.07875679,-0.007402722,0.020772763,0.06521747,0.008108108,-0.019315276,0.018538248,-0.021677451,-0.00031677273,-0.00028990544,0.02803476,0.028785821,-0.017117862,0.0745712,0.052366644,-0.013928126,0.034538474,-0.022746325,-0.037115186,0.042606138,-0.05046532,-0.10097225,0.07396186,0.07115833,-0.055749126,0.021463921,-0.038795605,-0.028815283,0.0028694854,-0.0011450364,0.0013119316,-0.09079118,-0.051134974,-0.0126967775,0.005086417,0.063232414,-0.014328784,0.016665766,0.034138,-0.021978805,0.032398965,-0.019300118,0.07149639,0.029724905,0.024773689,0.028001925,0.02075448,-0.06814328,0.05908838,-0.06287809,0.016362524,0.056893148,-0.019664587,-0.052779388,0.023290629,0.03140153,-0.072221346,-0.018211247,-0.030976556,0.0473146,-0.020764561,0.029350307,0.011160866,-0.028002303,0.005184042,0.012991644,0.06123386,-0.057245508,-0.016934795,-0.002820719,0.057498056,0.010652483,0.065765485,0.024104439,0.03517104,-0.026994813,0.04698633,0.0003604154,0.0047132713,0.020358304,-0.007177925,0.028394954,0.046396386,-0.063788064,-0.0062933634,0.027071841,-0.06483609,0.021046298,-0.01924494,-0.063361086,0.016310008,-0.050513268,0.03034122,0.04341935,-0.04227973,0.038336437,0.02631608,0.0031314653,-0.037925012,-0.047726672,-0.032644033,0.03197694,-0.01659856,-0.04633198,0.055008534,0.07414081,-0.019905608,0.043294437,0.04522631,0.0019652643,0.041518915,0.07442644,0.016554797
0.0069872835,0.042884406,-0.028946986,0.052888397,-0.036048863,0.019481085,0.10722026,0.14141913,0.09124038,0.08152237,0.0047914963,0.12777467,0.0868978,-0.12560871,-0.12119682,-0.005450164,-0.11302701,0.09606139,-0.17538393,0.007180952,0.059382185,-0.16536734,-0.06292977,-0.015462557,0.16774622,0.12739143,0.034176193,0.13085024,-0.114286125,-0.058261268,0.15744303,-0.12881996,-0.018583674,-0.04234025,-0.09720432,0.06525614,0.09856948,0.13611013,-0.20026098,-0.011867132,0.09642274,-0.056893107,0.06970277,0.022247545,-0.040154707,0.09437358,0.028848171,0.11584351,-0.06487435,0.07047362,-0.03317096,-0.00902038,0.07802544,0.04695427,0.08973627,0.07702829,-0.16157137,0.14448176,0.014438412,0.07656004,0.050243985,-0.16376168,0.08690767,0.09924339,-0.061789922,-0.041688,-0.10625597,0.079442084,0.09258181,-0.007742324,-0.04427509,0.08962577,0.018246647,-0.0332154,0.11480938,0.030305997,0.12677112,0.14979436,-0.10489605,0.13414413,0.13394514,0.0025151656,0.08621014,-0.03593331,0.12279801,0.07064435,0.023413584,0.10602085,0.15445055,0.029672131,0.03595114,-0.032789268,0.05498104,0.09294467,-0.102658756,0.13560802,-0.054701354,0.05905847,0.08412974,0.0728119,-0.16942678,0.12344994,-0.07243666,-0.111789644,-0.17231613,-0.11010292,-0.0024695192,-0.024091285,0.1226725,-0.05473101,-0.06717005,0.04534714,0.051104207,0.011433281,-0.21585572,0.0036109055,0.060714643,0.079352796,-0.073632404,0.1240526,0.096362896,0.17937021,-0.0071507865,0.013108584,0.088959076,0.03304704,0.095341235,0.1562831,-0.18351763,0.036628045,0.1732754,0.13763876,0.0018281678,0.061254807,-0.052904684,0.042318847,0.10645565,0.07864784,0.12749203,0.14796703,-0.21047466,-0.02363745,0.14827904,-0.051946416,0.07577929,-0.0064601335,0.047741234,0.057061303,0.13777713,-0.114972256,-0.09005339,0.20222116,0.11010276,-0.067748435,0.09181939,0.046301983,-0.051040996,0.09259112,0.005690512,0.05306908,0.0545869,-0.012258725,-0.19458567,0.030271135,-0.00015330309,0.035436604,-0.026336322,0.029783577,0.1284328,-0.02181818,0.061890215,-0.09747642,0.019748487,0.2055039,0.05118613,0.07494799,0.048115917,0.20304842,-0.048577376,0.10607853,0.08881511,0.029728571,0.11667498,0.043197934,-0.1838541,-0.061003353,-0.10043153,0.11465407,0.20128186,-0.28175402,0.029513456,0.14209722,0.1075824,-0.12934877,-0.19091237,0.008254198,-0.055889245,0.11823029,0.04165455,0.104908705,0.116780266,0.028748468,0.025086412,0.10756994,0.009162943,0.02674319,-0.18399611,0.054388914,-0.2411691,0.15611763,0.11313817,0.1188391,0.0053767227,0.013646208,0.09171375,0.049261324,0.07881228,-0.092699386,-0.09203029,-0.10515588,-0.1375695,-0.03159339,0.0028618777,-0.13334037,0.09500512,0.13102432,0.017064918,0.09619577,0.02310286,-0.1134303,-0.084309585,0.054475635,0.14115761,0.0008889147,-0.031457238,0.15786964,-0.054247975,0.014790235,0.10111186,0.11637885,0.1535094,0.243747,0.13693579,-0.18619007,0.10341214,-0.08621528,0.015454775,-0.072987184,-0.045774784,0.00033018016,0.1287536,0.080479644,-0.2067418,-0.1991461,0.09017356,-0.13263203
