0.12643872
-0.023748886
-0.24039459
-0.08844223
0.12265477
-0.055260636
-0.054033738
-0.062675126
0.027384108
-0.036501776
-0.03177547
-0.15865637
-0.06328405
-0.20339894
-0.017112084
0.13967416
-0.09139586
0.022873247
-0.12461674
0.22744997
0.034097333
0.11384681
-0.094567984
0.5839081
-0.041283052
0.026293973
-0.017346866
-0.10755397
-0.0020520075
0.31405246
0.030802248
-0.1567382
-0.02066067
-0.0054040677
0.08156834
-0.07949497
0.4408796
0.020403927
0.01299194
-0.0008067183
-0.031550024
-0.053141564
0.28984943
-0.10263476
0.19229788
0.036777973
-0.17701818
0.23221107
0.42512313
-0.07073914
-0.048689935
-0.06009697
0.03261866
-0.073718145
-0.13722165
0.43354732
-0.0034204575
-0.070875816
0.05375698
0.16794059
-0.028970152
0.027142199
0.018408306
0.1311179
-0.065272495
0.051973365
0.285731
-0.03598898
0.23764707
0.16438764
0.11544323
-0.038787473
-0.054353993
0.09290201
-0.043244213
-0.049543455
0.026098505
-0.029355563
0.038205512
0.059545703
-0.21872666
0.1617501
-0.0748359
-0.037745517
-0.063069955
-0.09322034
0.07747936
-0.057107016
-0.18315665
0.009347998
0.022462487
0.45326862
0.036286984
0.0057720146
-0.059427578
-0.06696274
-0.2565066
-0.06327104
-0.20759457
0.020558383
-0.07574895
-0.03401574
0.32541218
0.010632376
-0.04436283
-0.32869038
-0.048315577
0.19413492
0.37139744
-0.0062481784
0.054013576
-0.05639124
0.05442663
-0.03911431
-0.15709817
-0.019415343
-0.04572631
0.22468768
-0.19688432
-0.09901962
0.01793872
-0.15003635
0.06714983
0.5880245
-0.02349931
-0.23272268
-0.22498058
-0.010273959
