0.7486097,-0.07228158,0.9643672,-0.76718825,0.5314435,-0.039821103,0.7008306,-0.15258837,-1.1290025,0.22337437,0.06943574,-1.303076,-1.4156603,-1.5086337,-0.8657629,1.0529897,0.9517608,-0.010105961,-0.85625076,0.7747401,-0.18111981,0.841465,-0.639881,1.9833636,-0.3955368,-0.169158,-0.6114257,-0.7946194,-0.56109226,1.3556466,0.23593946,-1.2841833,0.2693798,-0.09678918,0.29329345,-0.8377991,1.5107013,0.26110256,-0.2849862,0.28769138,-0.33524993,-0.027729169,1.5127152,-1.332628,0.87744534,0.41912106,1.1462029,1.0687875,1.6833389,-0.6046072,-0.45231918,0.051173523,-0.26664037,-0.16936974,0.7587241,2.1192045,-0.31405815,-0.27596945,0.3430454,0.9302216,-0.051551465,-0.51341605,0.31480038,0.6100275,-0.17946999,0.54120624,1.4020138,-1.0083007,0.79054713,0.676971,0.59041643,0.30759144,-0.25978702,0.70423615,-0.8107701,-0.18431443,-0.45724136,-0.37228146,-0.77580744,0.51790464,-1.7473077,0.63849556,-0.81870556,0.46817017,-0.087791465,-0.2546286,0.3522107,-0.6521428,-1.5167894,0.22422557,-0.47874862,1.7872099,0.15152584,0.13928263,-0.04475666,-0.71408904,1.1876899,-1.3634894,0.6162312,0.07482671,-1.080395,-0.11465627,1.2026759,-0.5024045,-0.3049554,1.2526377,-0.04410964,0.8469155,1.780308,0.13668641,-0.43435076,-0.11219734,-0.46149945,-0.25999796,-1.1303879,0.06686071,-0.91114366,1.0071129,1.0477268,-0.97971475,0.054611746,-0.968846,0.4872632,2.0997796,-0.9955996,-1.3380948,1.1339344,0.14360817
