-0.0012904655,0.021786958,0.005517961,0.030356478,-0.0096018175,-0.002753068,0.0054103867,-0.009108003,0.13721886,0.15378417,0.009837938,0.035008993,-0.06181325,-0.05416068,-0.013033552,-0.08797194,0.0637726,0.16593066,0.19223292,-0.108637914,-0.010839781,0.051386226,0.12225469,-0.07829093,-0.063958764,0.08255107,0.099559255,-0.17673571,0.0968219,-0.1666264,0.01548445,-0.052436195,-0.042606253,0.047331147,0.112134255,-0.15282977,-0.083616786,0.011094827,-0.17039281,-0.03209525,0.047356952,0.13953403,0.0012663796,0.014935089,0.010589497,-0.01410064,-0.14388688,-0.11156249,-0.0053993063,0.053671215,-0.18888557,-0.11026145,-0.04042491,0.12661418,-0.13078514,-0.024121165,0.008122736,0.00039893418,-0.011795816,-0.0024963445,0.026741581,-0.018536802,-0.009101865,-0.02114525,0.051388394,0.0032901524,0.04857535,-0.050020374,0.03884853,0.015791913,-0.015440961,0.03698047,-0.027829302,0.07801409,0.08921273,-0.014704263,-0.052850768,0.13182011,-0.12662223,-0.03526781,-0.066035114,0.012759476,-0.023992125,0.04710799,-0.037699454,0.07454153,0.054019038,0.058978725,0.07063663,-0.15637223,-0.18740211,0.10931913,-0.08719796,0.08213687,0.028902004,-0.014378976,0.065972544,0.007380996,0.045566496,-0.120699085,0.0030113135,-0.02370038,0.074333265,0.02028505,-0.013427291,0.16153736,0.06959849,-0.030328395,-0.03658063,-0.12928912,-0.009943451,0.085972324,-0.06024834,-0.0059046852,0.14968501,0.12428719,0.03703304,0.10485721,-0.023338558,0.0136792585,-0.04158898,-0.0018851596,0.031671662,-0.089858904,-0.042044953,-0.043702714,0.017344728,-0.010909953,-0.044968456,0.046999123,0.06047332,-0.002053216,0.02007792,0.03265865,0.08864258,0.025303481,0.05356195,0.032218937,0.04414076,0.11849292,0.00424288,-0.13245599,-0.075371616,0.14706428,0.01863609,-0.025186528,0.1556249,0.059072435,-0.2098036,-0.054475803,0.098215215,-0.041965585,0.08638731,-0.019732252,0.065787815,-0.059188858,0.039744362,-0.090060875,-0.08290306,0.020066908,0.058436375,0.07927484,-0.096854,0.14062728,0.038417686,0.13911472,0.18898553,0.12694982,0.19118856,0.10773774,-0.062346198,-0.13304836,-0.026967285,-0.034592703,0.12645784,-0.11192396,0.0180065,-0.050145626,0.07070486,0.0003830327,-0.17392115,-0.16114555,-0.110104606,0.12302742,0.00895104,0.0034191122,0.019694814,0.119595416,-0.031163445,-0.16553244,0.032641847,-0.09849903,-0.009901647,0.010803616,-0.03211185,0.014268561,0.0919104,-0.069851816,0.058837134,0.017504921,0.1974654,-0.06486337,-0.07006627,0.04986185,0.0111150835,0.03387972,-0.09658246,0.15228292,0.046750005,-0.15412936,-0.1765602,0.015086554,0.020195492,-0.012802201,0.0070301723,-0.038876947,-0.10371639,-0.0071008545,-0.10001984,0.002129082,-0.061177693,0.061790757,0.10783098,0.010585795,0.023763828,0.099050626,0.01686261,0.015760252,0.05832737,0.017335739,-0.10352085,0.012417481,0.098534904,0.13092871,0.15079105,-0.015065857,-0.083117634,0.027451519,0.055208415,-0.1270108,0.07457545,0.005218729,0.037177328,0.07271727,-0.058324553,0.10942142,-0.059259783,-0.09225216,0.01958217,0.035550494,0.040584657,-0.082247555,0.041900795,0.006330085,0.06887946,0.090290606,0.04454591,-0.07670772,-0.06342816,0.04592015,0.024679229,0.0038266815,-0.05037891,0.11421611,0.095560506,-0.068858534,-0.0017236053,0.028659632,0.1154711,-0.01842024,0.107622854,0.014724408,0.082276076,-0.034646798,0.069390126,-0.09942769,-0.04099348,0.009548934,-0.015154749,-0.06500635,0.07365728,-0.026380155,-0.05749516,-0.031386204,-0.08434901,-0.009013068,0.15093957,0.119651556,0.16866766,-0.07112744,0.09825696,0.13466835,-0.14600316,0.09356436,0.13637647,-0.06004377,0.16750175,0.044615597,-0.09036697,-0.013502554,0.13545601,-0.0044270256,-0.02348155,-0.1543231,-0.054813225,0.00618069,0.10396016,-0.07299516,-0.07226777,0.14194703,-0.024677351,0.06629419,0.014730698,-0.05199477,-0.07915359,-0.028139466,-0.09110777,0.08612609,0.026093787,0.06313896,-0.028789299,0.0068308557,0.03587831,-0.06870493,-0.04105699,-0.0008890962,-0.03426817,-0.12426612,0.0036106557,-0.0029211543,-0.031165615,0.07096134,0.028378893,-0.06604368,0.058863714,0.011402519,0.08109514,0.016656244,-0.06975075,-0.02880392,0.079748765,-0.06892956,-0.038435575,-0.03299479,0.10758208,0.018191738,-0.04110387,0.013762873,-0.1137889,0.19453263,0.008335808,0.08274251,0.0965967,0.04553923,-0.0016255684,-0.008614045,0.12555669,-0.011313453,-0.06757004,0.07639295,-0.09270385,-0.041578807,0.13153195,-0.046527892,0.13882545,0.12008339,-0.13592945,-0.1703372,-0.028812913,-0.0077214753,-0.013120731,0.017454306,0.10867226,-0.009694017,0.029105585,-0.10019691,0.077959985,0.029013956,0.053797286,-0.09542209,-0.007312604,-0.040888216,-0.05425707,-0.10523715,0.010112834,0.0037830588,0.028916743,0.009524866,0.0050465446,0.022356652,0.006756592,-0.019000294,0.13364615,-0.0150331035,-0.112312995,-0.11268194,0.16983253,-0.037190262,0.16909519,0.05553426,0.090645015,-0.0045708045,-0.08320539,-0.27835453,0.12237043,-0.07304622,0.04960832,-0.15392537,0.11948593,0.009140374,-0.08540577,0.009084139,0.0017606845,0.052206185,0.08182997,0.042601142,-0.072695315,0.039867155,-0.050039165,-0.087913446,0.12016002,0.018645238,-0.036866184,0.095158614,-0.024036868,-0.17938218,0.094376035,-0.09459475,0.22172862,-0.03969299,-0.005968286,-0.1207034,-0.05109308,-0.01423215,-0.055642057,-0.011621176,0.011143675,-0.15006751,0.107007615,0.03847954,0.01885142,0.019112485,0.03281942,0.033045284,-0.0013944522,0.028082058,-0.00037767141,0.03241759,-0.030060178,-0.0388261,-0.016773582,-0.058368485,-0.033155233,-0.042241666,0.063649744,-0.06024542,-0.11982747,0.012224377,-0.13440487,-0.11408168,-0.004855854,0.0032291936,0.0803438,0.032644562,-0.1192648,-0.05705892,0.03863185,-0.18828265,0.10915632,-0.109323554,0.065495744,-0.16730753,0.084884666,0.13460122,-0.016046345,-0.021298941,-0.038540374,-0.061429936,0.038682416,-0.02291714,0.012038915,-0.13083588,0.12813781,0.06945403,0.037606943,-0.0016116019,-0.10922392,-0.011428187,-0.041830827,-0.049711395,0.048171572,0.05411255,0.0082099065,-0.118012756,0.00095907575,0.047881424,0.12202944,0.1194424,-0.006201211,0.0017864548,-0.080366574,0.07005991,0.06971308,-0.00047986716,0.0261715,0.0137843555,0.020941384,0.00031367884,-0.06260034,-0.016200483,-0.019828022,-0.036399335,0.06910656,-0.023459682,-0.11949109,-0.07294489,-0.108646415,-0.19472793,-0.024379078,-0.0402302,-0.038598116,-0.24162818,-0.049571253,0.0015360239,-0.09205151,0.024597,-0.14033164,0.060952622,-0.10669169,0.15568268,0.13297316,-0.10825307,0.010499442,0.058775734,-0.074339874,-0.06982814,0.1154126,-0.019420015,0.18916912,-0.05260918,0.04691846,0.0048951874,-0.10839542,0.17244042,-0.009583462,-0.014900908,0.021853752,0.03517525,0.051154558,-0.0026643209,0.11831943,0.08806967,-0.042490683,0.03394627,-0.104160294,0.03550982,-0.05506698,0.0014299877,-0.0031046832,0.0040199836,0.005732011,0.0026170348,-0.009852876,0.032312594,-0.06720349,-0.13850053,0.083345436,0.09495114,0.007057151,0.039926276,-0.13396218,-0.010505667,-0.054480735,-0.008151042,0.015976157,0.0068948027,-0.16058224,-0.06366292,0.04205154,-0.04269409,-0.030787356,0.10080357,-0.03526062,-0.009544966,-0.099642485,0.08484157,0.14680247,0.028233884,-0.021806257,-0.1482077,0.035801563,0.043596312,-0.08565395,-0.08579179,0.13574134,0.09770803,0.06254001,0.010931685,0.003592875,-0.035930574,0.054316822,-0.080260985,0.11010145,0.028295824,0.24027093,0.04686852,-0.00999358,-0.11220939,0.03428169,0.042197578,-0.14231804,0.015625037,-0.18627484,-0.10913431,0.01875148,0.14066058,-0.01134895,0.010779092,0.042890754,0.10714177,0.08324996,0.20538737,0.11398223,-0.069691636,-0.04683331,0.017119069,-0.10743033,-0.027990598,0.09921456,-0.06299921,-0.016844476,0.050866716,0.0068701287,0.0024852417,0.0021646565,-0.025003953,-0.033144753,-0.06964197,0.038336,-0.07710221,-0.009391415,0.0006403202,0.03974156,-0.014755885,0.02639818,0.019276112,-0.010995736,-0.086295776,0.07816267,0.021301214,0.14434259,0.07183791,-0.04546296,-0.07784155,-0.0593249,0.05583369,0.08677493,0.028599273,0.0773556,0.090838045,0.094744846,0.096096076,0.07439725,0.08202895,-0.061390903,0.11697706,-0.012193093,0.1387387,-0.0024511837,-0.13154404,-0.048660465,0.041403264,0.005640808,0.052729424,0.00025848462,-0.027186844,-0.0025836881,0.021602854,-0.17159173,-0.010849984,0.028073454,-0.06814446,0.089464255,-0.020483328,-0.009125777,0.018103579,0.07593147,0.22552727,0.066208854,-0.121215805,-0.05808785,0.10676791,-0.09044985,-0.008130488,0.06764139,-0.023202373,0.10298657,-0.04126112,-0.05866916,-0.11144221,0.0029356182,-0.059697587,0.015617873,0.032528903,-0.08080327,0.02203501,-0.062285572,0.011010471,0.005445066,0.14105733,-0.04552077,0.039592136,-0.059749026,-0.026472805,0.033153404,-0.048597217,-0.10029417,-0.16764829,0.163786,-0.16305666,0.09116536,0.018714156,-0.052144114,0.018957656,0.010508845,0.033049624,0.09449622,-0.01724933,-0.058810234,-0.096627235,0.011681167,0.053262662,-0.009232136,0.08190528,0.024148317,0.0657504,0.03212813,-0.07666836,0.088183016,-0.018007975,0.029647691,-0.07664828,0.11739545,-0.05420565,0.1048633,-0.062051762,-0.045412883,0.015977636,-0.045211464,-0.09963618,-0.075841725,-0.015490923,-0.054441694,0.13060015,0.10180257,0.11606014,-0.109760195,-0.13792802,0.08996911,-0.036400385,-0.056362845,-0.0038624774,0.029404443,-0.025507906,0.057460286,0.021259759,-0.091810696,-0.0067200875
0.010373292,0.018046811,0.02647047,-0.031036017,-0.017909814,0.0048825983,0.035194986,-0.0073839454,-0.093105994,0.010186235,-0.053241845,-0.009156665,-0.0602115,0.01866106,0.025049075,-0.018883372,-0.052008465,0.049673766,0.002355025,0.010986651,-0.007557067,0.0039537074,-0.060500763,-0.04000575,0.036784865,0.08287677,0.033024993,0.004443971,-0.062054183,0.009999267,0.09763352,0.006005282,-0.01121683,-0.028214494,-0.034905713,0.0343103,-0.02020201,-0.048052475,0.13014297,0.034838457,-0.009382377,0.023498071,0.043139398,0.01964402,-0.0017276809,0.07206638,-0.020499652,-0.0933395,-0.063736826,0.07682542,0.029337542,0.048784334,-0.020350348,0.12814184,-0.07808693,-0.12871923,-0.003715352,-0.021017587,0.027888658,-0.0134246405,0.025208356,0.012634993,0.015545808,0.035631843,-0.015849948,-0.028248932,-0.0024156123,0.03233015,-0.030101314,0.008794352,-0.03428022,-0.054906756,0.00072050374,0.016793933,-0.002766853,-0.06983241,0.0033885266,0.021349898,0.030530278,-0.00874537,-0.0066936356,0.007925851,0.04660408,-0.15388685,-0.055878036,-0.10064203,-0.06741259,0.01587721,-0.047255233,0.015107101,-0.061500315,-0.03725826,0.07227227,-0.0016804492,0.0033945853,-0.07400981,-0.124070846,0.033787604,0.023625819,0.071932666,-0.061444547,-0.051530916,-0.023567138,0.056909833,0.022670425,-0.11750714,0.049193714,0.015231276,0.059186865,0.1121102,0.07658006,-0.020599201,-0.07828924,-0.043610726,-0.033903103,-0.035978768,0.092883036,-0.092043474,-0.044171896,-9.821356e-05,-0.0052686813,0.09526922,0.047058698,0.047697842,-0.050622374,-0.06441698,0.11929141,-0.0191044,-0.026071735,-0.023261653,-0.035871867,-0.024598856,-0.009991658,-0.021800755,-0.049773596,-0.05783175,-0.019878473,0.010946915,-0.052074432,-0.039661724,-0.034667727,-0.06757302,0.03908483,-0.005853261,-0.020646604,-0.082139134,0.024952907,0.011792765,-0.0042470004,-0.10374221,-0.038836394,0.016759872,-0.011120231,-0.016842691,-0.036428593,0.012958558,0.06602571,-0.0087965485,-0.05944771,0.049126424,-0.061965905,-0.055755753,0.038262516,-0.01016961,0.05067097,-0.16628498,0.079812534,0.02036103,0.028355515,0.07126221,-0.04576774,-0.060776316,0.034897156,0.0017324161,0.066807784,-0.07651516,0.03282568,0.03109624,0.09579348,-0.025360378,0.0030051405,-0.0121363485,0.0034595185,-0.025890145,0.0014981678,0.01212191,0.0070427414,0.002712498,-0.00556667,0.009239198,-0.009838644,0.014725903,0.002232314,-0.051876016,0.05109955,0.059746865,0.055884853,0.01593411,-0.037989248,-0.057145674,-0.010726782,-0.017522736,-0.06389133,0.026928665,0.07832392,0.015439285,-0.030783476,0.03031696,-0.017159682,-0.009342364,-0.027480988,0.04097022,-0.07493186,-0.057672746,-0.015768351,-0.055349693,-0.04055795,-0.009875981,0.038853277,-0.029353794,-0.085444175,0.06409268,-0.0012146377,-0.071612924,-0.01557981,-0.071822315,0.03258035,-0.017424393,0.05523884,0.024890378,0.059197508,0.00499863,0.0555328,0.01037167,-0.09898667,-0.0038454898,0.06925077,0.08083478,-0.01772043,-0.032082804,0.023307985,0.053788554,-0.026038025,-0.06081081,0.04871481,0.018219473,0.06359596,-0.0814356,0.34225363,-0.1333662,-0.095650874,-0.064458095,-0.08954452,0.07411041,0.116247736,0.100842394,-0.017276762,0.027900755,-0.043688744,0.004073434,-0.049089093,0.018667348,0.006013063,0.034828685,-0.00474499,0.001891496,-0.047550503,0.05872087,-0.03967939,0.0028937953,0.037448075,-0.049498808,0.008419356,-0.07654795,-0.051736575,0.02801287,0.0022539638,0.013165167,-0.005034065,0.056495935,0.005394912,-0.034439817,0.039501563,-0.0038853064,-0.09534856,-0.021033337,-0.10426751,-0.069324,-0.03821837,-0.017163193,-0.012967888,-0.080797054,0.03787892,-0.029112859,0.012290096,0.045393474,-0.107254535,0.037313364,0.0898311,0.2256016,0.10745009,0.058534097,-0.15972263,0.012323346,0.02394418,0.025294548,-0.06693833,0.016666697,0.03471913,0.13208105,-0.020608123,0.0220518,-0.026635874,-0.024131654,0.035542157,0.046146203,0.03706567,-0.012334259,0.0390406,0.021735007,0.00047027867,-0.050858814,-0.07637135,-0.031059546,-0.011591213,-0.039484225,0.016357312,0.014912222,0.032205746,-0.007487139,0.045810144,0.033620942,0.016526636,0.02862203,0.037832964,0.032980964,0.016746668,-0.021935223,0.04837672,-0.04636166,-0.027173633,0.000733155,0.012472397,0.009642293,-0.049397137,0.04674838,0.040496692,0.037268437,-0.0071431017,-0.017400902,-0.012202186,-0.034642406,-0.03781853,0.015471233,0.085530356,0.0010889098,0.06194555,0.03642413,-0.044260018,0.018455315,-0.016265081,-0.014441667,0.07234411,0.016437668,0.034832224,0.06906348,-0.006973693,0.01160974,-0.1528701,0.05749152,-0.0017084174,0.086070724,0.004943478,0.039204054,-0.0718403,-0.03100992,0.048632696,-0.07752967,-0.012176526,-0.030772388,0.0004402369,0.012811909,0.058378886,-0.024653247,0.008305537,-0.012618487,-0.0026060264,0.02233815,-0.03514402,0.0074833552,0.033218313,0.0050639706,0.02421844,-0.06961441,-0.05785196,0.018252883,-0.0638808,0.022855503,-0.21164398,-0.04253221,-0.07367783,0.058622047,0.016855111,0.050310504,0.09536116,0.067744195,-0.070774436,-0.0056450358,0.034886613,0.05679393,0.14639316,0.06433568,-0.018133905,-0.007494985,0.069876924,0.020457866,0.051690333,0.12352827,0.016412474,0.032481503,0.031243114,-0.11498337,-0.038377766,0.061423093,0.025215454,-0.026025087,-0.13289125,0.0029004924,-0.091947794,0.008229648,0.0070667453,-0.01950372,0.01673872,-0.025589345,-0.013725277,0.024841158,0.022392668,-0.019542482,-0.003731128,-0.0068063904,-0.013757411,0.005828441,-0.023348896,0.03023355,-0.022474047,-0.029068382,0.016293129,-0.017386083,-0.022464277,-0.024310457,-0.012813426,-0.037563343,-0.07623304,-0.06080024,-0.108844645,0.045468777,-0.04748759,-0.007149302,-0.05345703,-0.042822428,0.08440878,0.08540519,-0.016814781,-0.033935536,-0.038463656,0.02690877,0.016297737,-0.027658628,-0.034443714,-0.06741311,-0.042847883,0.039159436,0.073685214,-0.000489267,-0.0732234,-0.10298666,0.017125081,-0.061856717,0.027039956,-0.08087337,0.021881437,0.120842345,-0.11004234,0.03487295,-0.009808518,0.0781578,-0.1178781,0.01248427,-0.01052304,-0.008433738,-0.014002182,0.00020341664,0.0468502,-0.06507829,0.004163554,-0.036815956,-0.02014103,-0.027716137,0.039188564,-0.0037258316,0.038393904,0.01774321,-0.058373325,0.0044923634,0.042096198,-0.008221055,-0.011281844,-0.054296464,-0.048922945,0.005929349,-0.036067672,-0.031076988,-0.050575886,-0.002335272,0.013419608,0.017297043,0.055617016,-0.020573989,0.024352703,0.0006611261,-0.022834467,0.18863826,-0.017167462,0.11751686,0.0456751,0.03763102,-0.027390208,0.0033415458,0.019761173,-0.026614437,0.092625424,0.04047552,0.119170986,0.022748169,0.013988002,0.028451484,0.02618236,0.026447415,-0.06579297,0.08702481,-0.033432756,0.054355275,-0.05644765,0.0039874744,0.025029333,0.007026639,0.04868276,-0.0012243417,0.06813789,-0.086011074,-0.0047136974,-0.0476713,0.0071815983,-0.042389818,-0.02260675,-0.09432097,0.039275587,-0.027619088,0.07390613,0.045523766,0.0018203217,0.0011917505,-0.02427382,-0.02810265,-0.037465442,-0.0146086905,0.025127588,-0.029869346,-0.016278364,-0.0022045425,0.0075240796,0.019171467,-0.0422599,-0.0018118131,-0.0627561,-0.02450806,-0.15550882,0.1583443,0.07618222,0.016736977,-0.011795953,0.04618219,-0.038120925,0.016570108,0.015890984,0.0164498,0.023946412,-0.080845214,-0.026431628,0.015228268,0.013899997,0.001162263,-0.018220594,-0.01501535,-0.0223224,0.07024808,0.013455661,0.05011731,-0.085138686,-0.06651637,-0.032334533,0.040082533,-0.011016525,0.04513073,-0.037435204,0.089928,-0.03442367,0.016396334,0.0076585496,-0.038268156,0.009614585,0.005279121,-0.010805911,-0.06359526,-0.008337721,0.028010849,-0.020178504,-0.017338304,-0.051289886,-0.017423743,-0.010976522,0.024650272,0.0009254721,-0.043183304,-0.012922776,-0.007720095,0.012834062,0.093564205,0.018953199,0.037088737,-0.023608914,-0.029916689,0.03552332,-0.033812348,-0.014633839,0.009147646,-0.02021817,-0.041029986,-0.025314352,-0.03710219,-0.035671227,0.019788114,-0.02426129,0.018969279,-0.11385295,-0.07227647,0.031801496,0.011604712,0.04123599,-0.06506242,0.06671439,0.1432916,-0.04492782,-0.055183057,0.019931784,-0.108484246,-0.06892358,0.038074285,-0.105527654,-0.077978656,-0.042092934,-0.030348506,0.132276,-0.059328433,0.08423434,0.030467095,0.06460936,-0.023390455,-0.039484642,-0.033930186,0.022026334,-0.0030738611,0.059990834,-0.054749377,0.047057424,0.0071097733,-0.08103454,-0.07358322,-0.02912717,-0.0045273933,0.055488616,0.0248473,-0.0044836523,0.028682223,0.0179339,0.0758289,0.021177117,0.012548921,-0.04718357,-0.076174736,0.008281764,-0.03474895,-0.031157542,0.021897292,-0.02739423,-0.0380499,0.03996091,-0.026312284,-0.057831977,-0.06392695,-0.039580528,-0.052565295,0.03156775,-0.014330523,0.122793235,0.10340586,0.028714841,-0.1445642,0.07425903,-0.017364638,0.044097073,-0.020181822,-0.06303567,-0.0073928083,0.032379393,0.0151280165,0.0017131818,-0.05221834,-0.07636158,-0.02431168,-0.0152937155,-0.031639025,-0.11076875,0.0139881745,-0.02345062,0.018109556,-0.082071744,-0.016659511,-0.0055285436,-0.052174754,0.021591863,-0.024184413,0.004344537,-0.046806738,0.01175694,-0.0055494513,0.003504554,0.010297697,0.017000616,-0.0026917309,0.043641742,0.007431699,0.014498731,0.014895224,-0.014721421,0.045591455,0.012248585,0.020654798,0.012635494,0.06633603,0.05297274,0.017491465,-0.009588724,-0.033980034,-0.011627733,0.028999766,-0.03056913,-0.026762169,0.018902814,0.020006387,0.024869269,0.0040211463,0.018837385,0.030655993,0.008284475,0.0010728793,-0.000407108,-0.005277548
0.0072826943,0.031085065,-0.0063032773,-0.03074119,0.0274037,-0.019607963,0.0006978907,0.006198357,0.025333328,-0.06555154,-0.017359773,-0.15032613,-0.044289626,-0.0003007316,0.0241744,-0.08554758,0.025735198,-0.07353685,0.043546658,-0.062322747,-0.077131376,0.049500868,0.058152236,-0.09916117,-0.101784855,0.027036145,-0.062572226,-0.107313626,0.13261285,-0.07227373,-0.07627063,0.15082282,0.1253069,0.036718428,0.10673588,0.053175192,0.03211354,-0.2242942,0.017356338,0.106821455,-0.025376253,0.04176429,0.059576396,0.06307563,-0.08164809,0.017000703,0.09792681,-0.13786605,-0.055434845,0.16437455,0.09531535,0.05075278,-0.29785076,-0.21284793,0.07878398,0.008803577,0.0040689474,-0.03327924,0.023564557,-0.004572591,0.028405305,-0.018947458,-0.031019522,0.032012943,0.0055205747,-0.039070737,0.011186155,0.10326955,0.04697285,-0.04866974,0.0017413094,-0.0870938,-0.010837484,-0.034268796,-0.060400568,-0.048505593,-0.0045812842,-0.016708495,0.097055785,-0.030634798,-0.029883817,-0.070381515,-0.06756885,-0.0722487,-0.11410429,-0.030048877,0.047789954,0.012140637,0.059015367,-0.055652168,0.012400296,-0.012833424,-0.031540606,0.15280344,0.10503065,-0.01305919,-0.16735995,-0.03446216,-0.010843421,-0.021914812,-0.13672177,-0.063991666,0.10596151,0.14537498,-0.1110747,0.03171908,0.07420358,-0.001152608,-0.004296603,0.21340333,0.0757622,0.11139217,0.09731177,0.012892364,-0.043528326,-0.13798928,0.028094664,-0.013744307,0.042267613,0.0022863476,0.014213338,-0.03805205,-0.02852248,-0.07754218,-0.07798306,0.0267075,-0.05036056,0.029217858,-0.023799727,-0.01795107,0.047686648,-0.018046562,-0.005560619,-0.02059889,0.041039884,0.013657099,-0.04195197,0.009844417,-0.081809916,0.024113568,0.021142246,-0.073420286,0.045857567,0.07403548,-0.07629806,0.011830536,-0.01493015,-0.02247734,-0.012397985,0.051121343,-0.0097809825,-0.023155963,0.012855483,-0.20318024,-0.022953667,-0.0048838602,-0.035705674,-0.04314637,-0.064625904,-0.026006343,-0.030913347,-0.056677647,0.011938401,-0.06415509,-0.08715678,0.056315027,-0.145372,-0.0037832141,0.027274951,-0.037424874,0.10826612,-0.11708239,-0.03536496,0.009173999,0.06990516,-0.027005935,-0.018613787,0.097111344,0.12546955,-0.03308651,-0.09037176,-0.006261785,0.12676212,-0.023229517,0.0029470674,0.015092065,-0.050884083,-0.07381266,-0.003532023,-0.11375575,0.12161144,0.014286618,-0.047497433,0.023486134,-0.013131727,-0.09787304,0.050956465,0.07511022,-0.017883128,-0.015599253,-0.014921038,-0.012369837,-0.033470407,-0.05378981,-0.031083716,0.020528229,0.0033130965,-0.088234805,-0.023464248,0.041177955,0.008473734,0.02110694,-0.019276142,0.114657305,-0.016589481,-0.05065107,0.10886235,0.0377586,0.019531691,-0.030017793,0.09859684,0.05339494,0.04867109,-0.025155189,-0.016717661,-0.011070026,-0.024894439,0.07676642,0.121963054,0.1392298,0.0015995867,-0.018948864,-0.0061493153,0.12777907,-0.0893754,0.09445667,-0.03171627,0.060042605,-0.048474696,-0.03619799,-0.027984504,0.0058308286,-0.09326066,0.050935715,0.012554983,-0.00766646,0.0341366,-0.014202802,-0.15188453,-0.08910848,0.07917596,-0.16645025,-0.018963596,0.047989603,-0.05539593,0.033091463,0.03159896,-0.017673692,-0.05172543,-0.007534171,-0.03238326,0.039236933,0.06191904,-0.07448099,-0.043651503,0.023662744,0.03397018,-0.055182673,0.046735533,-0.04952077,0.05431085,-0.02306579,-0.11860039,0.022493808,-0.062362995,-0.09526593,-0.1000685,-0.03236507,-0.06189951,0.0015351993,-0.021174524,-0.039757904,0.022348573,0.0015476957,0.050661273,-0.023575729,0.12612297,0.025367953,0.013958383,0.10272983,0.06523708,0.03498318,-0.018942088,0.050408423,0.071806975,-0.016089521,0.08897925,0.12321194,-0.021994576,-0.01922067,0.048628442,-0.16665444,-0.020746382,0.101022474,0.0327405,-0.08991617,-0.04926344,0.089799665,0.10685227,-0.19006424,0.050105825,-0.031068515,-0.0339694,-0.037922017,0.020564236,-0.056193847,-0.07486682,0.03191042,0.05135822,-0.0017006828,0.009252746,-0.00565381,-0.020727688,-0.027512692,-0.015548223,0.051329475,-0.040442295,0.01019506,0.046741724,0.059067648,0.015280005,-0.010866786,-0.019792803,0.01761775,-0.062441103,-0.027012309,0.01883674,-0.051311523,-0.0074184705,0.005073833,-0.020426419,-0.06681528,0.03917916,0.041148823,-0.06572306,-0.05396628,-0.09766624,-0.03717764,-0.031533625,-0.016376507,0.04044149,0.040478032,-0.033040266,0.027055986,-0.10577377,0.0706037,0.0055220295,0.07452343,-0.034908693,0.10780205,0.032715328,-0.08268391,0.129952,-0.017921057,-0.0037021113,0.0089536365,-0.010026856,0.0009450315,-0.032443877,0.18945009,0.016393937,0.074592344,-0.06725238,0.033904888,-0.05607186,-0.0095761735,0.004712103,-0.051064488,0.030563114,0.11939453,0.07633835,-0.08733187,-0.15132327,-0.06622509,0.006013186,0.0110024465,-0.014444613,-0.005797259,-0.029942527,-0.035262913,0.014635238,0.009607616,-0.022960301,0.19350848,-0.11699608,-0.21472648,0.098053165,-0.051967774,-0.27546322,0.044173073,0.065508604,0.0701144,-0.1244062,0.06935323,-0.15497094,0.03229841,-0.1354514,0.17226024,0.060728516,-0.073287465,-0.05998929,0.19679786,-0.051905606,-0.32821357,-0.010250144,-0.032991976,-0.13280892,-0.06817102,0.046742942,0.13139749,-0.07058663,0.019215204,-0.05050441,0.12513572,0.19879067,-0.016409814,0.11071981,0.11265188,0.059180718,0.07225023,0.03111091,-0.08807354,0.00569142,-0.019179244,-0.008018532,0.0060570748,-0.017395394,-0.04934314,-0.040210854,0.063937634,-0.018296296,0.009835213,0.017616428,0.005123724,-0.01283499,-0.014056072,0.024697179,-0.020793539,0.005488543,0.02923872,-0.0074922564,-0.0036136296,-0.036491513,-0.091590576,-0.05624342,-0.0034312645,-0.10337266,-0.005975725,-0.029095577,-0.0738874,0.08774629,-0.00032520687,0.04296083,-0.02726037,-0.015406666,0.107833825,0.049354985,0.10669754,0.00815771,-0.014675326,0.005359932,-0.041414417,-0.11676333,-0.07347895,-0.24795638,0.044928666,0.04356431,0.036403142,0.00076259405,-0.13507104,-0.014218691,-0.036892775,-0.06064006,-0.0033943832,-0.1385647,0.093554206,-0.0636416,0.040168792,-0.02594335,-0.0013106151,-0.0282655,-0.18433197,0.018742522,-0.008393255,0.013751886,0.03688289,-0.030519519,0.05772866,-0.036510706,0.05627417,-0.040351797,0.02808389,-0.045656137,-0.019130912,-0.0063474705,-0.050443534,-0.03526542,-0.09411099,0.022088446,-0.0012585414,0.025997434,-0.036432877,0.0018763327,-0.045228507,0.09458558,-0.014457298,-0.11484827,-0.021594578,0.0022416213,0.004665085,0.119688846,-0.081615,-0.014160361,-0.10498831,-0.08426675,-0.070227094,-0.10810538,0.10042732,0.011158097,-0.27220792,0.17889237,0.009706809,0.022227319,0.100118816,-0.030376457,0.11667754,0.011133136,-0.111289635,-0.019145137,0.047796436,0.0022360692,0.14448982,-0.040693004,-0.06419078,-0.0073724845,-0.04567173,-0.043170188,0.09237002,0.033827092,0.0015223168,0.11045398,-0.03825581,0.00026828964,0.050413165,-0.00084830297,-0.03639936,0.12765002,0.011538736,0.019624857,-0.0081228465,-0.027780024,-0.008707765,0.0033128127,-0.00453021,-0.0034167797,-0.045795828,0.06643245,0.056401733,0.015083635,0.008484519,0.03711054,-0.00032620472,-0.02667058,-0.0048368215,-0.018957743,-0.041315004,0.15161261,-0.017483028,0.09637305,0.12744845,0.06997632,-0.040991575,-0.14810139,-0.12016539,-0.037815537,0.07160422,-0.1183363,-0.044469554,0.004006079,-0.08191512,0.030184316,-0.0432632,-0.07405384,-0.047563348,0.0101096975,0.0475337,-0.052960295,-0.03659383,-0.0167414,-0.00896893,0.09593499,0.019558346,0.09861018,0.07749922,0.089637734,1.6456386e-05,-0.013356266,0.048976477,0.06831732,-0.0038949728,0.092344746,0.1398326,-0.006930545,-0.051484454,0.012438509,-0.06741326,0.0036092838,0.043618903,0.003808505,0.005565449,0.014665669,-0.05556927,0.073021874,0.01471976,0.017957406,0.053726375,0.09814636,-0.033484526,0.13257271,0.040778674,0.01908617,-0.024052143,-0.04941628,0.067589745,0.023425566,0.053534813,-0.020942567,0.058018737,0.08433535,0.08860872,0.01830486,0.075438745,-0.039654315,-0.14901675,0.15435247,0.10693177,0.1240998,-0.039170247,-0.006561282,-0.046166923,0.0013837732,-0.00081044406,0.027961828,0.098469116,0.110992484,0.042147342,0.019787846,-0.0072094994,0.065260224,-0.11231786,0.019472783,-0.0909497,-0.007557423,0.10559038,-0.09720102,0.11877336,-0.009655158,-0.007444931,0.09747984,0.07596163,0.04938602,0.12958686,0.08637204,-0.03007989,-0.03317155,-0.03752917,0.043324545,0.04743252,0.049276568,-0.0360856,0.011767007,-0.08840129,-0.016851896,-0.112616315,-0.012368056,-0.04466108,-0.11812698,-0.006351545,-0.100237474,-0.03470505,-0.005210832,-0.0021658128,0.015299372,-0.06825171,-0.09987558,-0.05371256,-0.00614949,-0.0012709248,-0.00053283,0.030995145,0.03201502,-0.06417367,-0.07042621,-0.017434297,0.12746313,0.07021023,0.017412376,-0.009495169,0.047720123,-0.098493636,-0.036806103,-0.05721071,-0.046422143,0.13290328,-0.048018802,0.026674667,-0.1507633,0.038960073,-0.1040488,0.013081382,0.08347623,-0.017004296,-0.034842715,0.02618264,-0.094358616,-0.0043633794,0.055054817,-0.0649842,-0.032731883,0.018631242,-0.08585172,0.014157491,-0.084816344,0.08366966,-0.01855127,0.02337706,-0.010455819,0.012671825,0.08869299,0.040893592,0.03313631,-0.01953611,0.0023720842,-0.021332989,0.008906544,0.04515536,-0.023329929,-0.03802287,-0.015932936,0.04797624,0.013823305,0.033345688,0.04905061,-0.03653244,0.0020965054,0.010121308,0.013938131,-0.0336727,-0.012252793,-0.014299687,0.004141305,0.0006828314,0.0031016166,-0.03068081,-0.0021354854,0.019824728,-0.04306276,0.048910417
0.010104842,-0.026044492,-0.0028306858,0.01359667,0.018804446,0.017836636,-0.008251598,-0.01438319,-0.1088859,0.0037107058,-0.057596598,-0.029011268,-0.036517896,0.025535857,-0.008078638,0.10768762,-0.0650779,0.06484603,-0.1269288,-0.07015978,0.042805757,0.013985186,0.0028483206,-0.06146717,-0.06178677,0.016935255,-0.04867811,-0.030448984,-0.04137665,0.044092696,-0.002906718,0.03546788,-0.12110841,-0.03283284,0.080393165,-0.03648895,-0.02558361,-0.07886896,0.080101386,-0.038684435,-0.09208633,-0.23020211,-0.03884534,-0.0023475776,0.17907849,-0.0788677,0.0063328655,-0.034437068,-0.028233845,0.11970492,-0.067069374,0.2009547,-0.062171686,0.06900385,0.0046144403,-0.0014625894,-0.011260577,0.03174494,0.006606931,-0.0079742875,-0.020771012,-0.0014554402,0.020879734,-0.012664231,0.10975254,-0.011991956,0.053636197,0.08380079,-0.056175273,0.06832057,0.027888067,0.005625425,0.04537113,-0.0320798,-0.0015962146,-0.05243635,-0.046371996,0.11998131,0.010684342,-0.07448233,-0.040810652,0.17261866,0.03989387,0.0746515,-0.041322485,-0.010511546,-0.021594996,0.011722275,0.08189804,-0.031223042,0.09418867,0.06765945,-0.021992508,0.1638186,0.013543618,-0.096545115,0.20801388,0.08219725,-0.07764106,0.1560077,-0.04027752,-0.121860184,0.036320973,0.02672891,-0.10300117,-0.07500129,0.14301182,0.107073374,0.18929449,0.1409739,0.10155118,-0.08713806,0.03794537,-0.10771715,0.082835875,-0.21732263,0.077135704,0.071516626,0.039143723,0.008238639,-0.07398317,0.03102566,-0.049339175,0.1143375,0.04488004,-0.047766585,-0.025188372,0.014517852,-0.025460845,0.026288074,-0.09691293,-0.0032803328,-0.0011566745,0.034956932,0.036770362,-0.08278302,0.14945503,0.032048546,0.09428758,0.006077317,-0.002072907,0.014400307,-0.1298304,0.0012716297,-0.038439795,-0.006381868,0.09101891,-0.023738505,0.046861704,0.09014742,0.11828667,-0.05329197,0.1416143,-0.023605673,0.011851631,-0.017713485,0.03253971,-0.0740075,0.11280082,0.03564397,0.024882842,-0.07854429,0.019125823,0.07363447,-0.012475435,0.11866822,0.089803964,0.032340743,-0.05511642,0.04792345,0.04127521,-0.013714008,0.0034864976,-0.10818394,0.11574737,0.0076803486,0.031236306,-0.050231505,0.054601423,0.004429884,-0.0040065697,0.055189915,0.16864532,0.033684097,-0.0013682087,0.00639172,0.015199694,0.18452518,0.069482066,0.082608506,-0.032962553,-0.028708484,0.035683878,0.055018887,0.03656872,0.070252344,-0.069637366,-0.081359796,-0.03429428,0.0017483451,0.0123998765,-0.07968305,0.0033993563,-0.033786397,-0.09622693,-0.036445927,-0.019163914,0.019992448,0.023785038,0.0042598615,0.041280016,0.04312355,-0.044072054,0.0016958669,-0.01657672,-0.11651748,-0.15291499,0.0019864098,0.09902024,0.07084622,-0.027539764,0.077631734,0.056337662,0.044721216,0.038264934,-0.055232357,0.0082750395,-0.05602214,-0.029991971,0.10218611,0.041356735,-0.0833161,-0.05775861,0.02731021,-0.029461099,0.11462314,-0.085900515,-0.031643808,0.12669991,0.015640754,-0.03962033,-0.005292935,0.11573565,-0.018583123,0.10268357,-0.18895511,0.14386252,-0.05188708,-0.12882264,-0.09689781,0.0448257,-0.051372267,0.025401294,0.038770817,-0.04678171,0.031592425,-0.10449446,0.04224008,-0.0017042436,-0.012083434,-0.012768104,0.032526504,-0.046656158,-0.026299588,-0.036714125,-0.04718123,0.04273538,0.038419064,0.004979895,-0.025349747,0.07598521,-0.17462125,-0.014419323,-0.025330972,0.0074740592,-0.0077532576,-0.017344963,0.03723223,-0.10286936,0.17661595,-0.28193057,-0.0076566725,-0.011699728,0.12450047,0.031581387,-0.006370562,0.1295776,0.16149686,-0.092045836,-0.16870677,-0.020140262,-0.08515467,-0.07137348,0.05100045,-0.010265349,-0.08526535,-0.21019763,0.067495115,-0.040469263,-0.070663184,0.15858254,0.058749653,-0.030856494,-0.023130247,0.05273275,-0.09347792,-0.17213938,0.041266717,-0.18975161,0.06766533,0.13282155,-0.0062812204,-0.05917008,0.012149366,0.052984927,-0.12433161,-0.03747014,-0.034032952,-0.0010065603,-0.111125536,-0.043783545,0.031808797,0.041370906,0.049949646,0.016229939,-0.024333814,-0.01881774,-0.0023565788,0.027424563,0.048662294,-0.037060678,-0.08766452,-0.042827576,-0.003268774,0.018673822,0.004146827,0.0022836193,0.013951579,-0.14579637,-0.0033431372,-0.077704534,0.014654163,0.08858131,0.056835525,-0.074737445,0.0007329365,0.091449864,0.027833123,-0.032816377,-0.05637556,-0.05297584,0.03211285,0.07198476,0.03147545,0.044591334,-0.122128814,-0.016899876,-0.021069476,0.017910512,-0.0138769895,-0.095410176,0.02855293,-0.06498607,0.10217788,0.0046550874,0.013240983,-0.03178908,-0.102067985,-0.018071989,0.15417936,-0.029816346,-0.0734746,0.013219278,0.05798421,-0.010542677,-0.03351422,-0.012937851,0.033918086,-0.0050356984,-0.048707403,0.114803806,0.08112101,0.009863038,0.016262224,-0.016304648,-0.02267592,0.016932566,-0.01994961,0.004178685,-0.012318679,0.028848348,0.0058746147,-0.077507064,0.057556484,-0.090075724,-0.087623686,-0.024362652,0.034676276,-0.0927921,0.027163748,-0.15321754,-0.08866563,0.036553178,0.091220334,-0.29371938,0.05215091,-0.06214032,0.033004757,-0.052050985,-0.00989975,-0.012771283,-0.030353934,0.04920425,0.07658023,0.03261198,0.10408832,0.07125639,0.08126461,-0.12861772,0.041738074,0.089054815,-0.004243023,-0.039096355,-0.10779854,0.12907903,0.02077727,0.008913489,-0.039193306,0.08292376,-0.094982535,0.056459047,-0.10254703,0.0092153875,-0.059104454,-0.042036332,-0.07237671,-0.024006063,-0.0857714,-0.014499428,-0.038695022,-0.028971786,-0.02122326,0.023434753,0.015042844,0.03200681,-0.014348885,0.017320577,-0.0038495744,0.01883245,0.12283874,-0.0052607707,-0.14237265,-0.12250386,0.014949771,-0.08710676,-0.058374852,0.046900976,-0.028586915,-0.0012540234,0.124665745,-0.14162752,0.020795912,-0.032237697,-0.103178985,-0.062330443,-0.029017527,0.031909253,0.026253123,-0.09645466,-0.08548308,-0.05410386,-0.025585845,-0.018817538,-0.1328868,-0.13319065,-0.08170717,-0.08704987,-0.09308078,0.09097925,-0.016783012,-0.003996376,-0.20351705,-0.060763266,0.005699276,-0.036145873,0.07114402,-0.02759632,0.07981821,-0.019577669,0.1601983,-0.062110566,0.012626794,-0.0007170752,0.08564249,0.0071455836,-0.013469493,-0.07135875,0.039302763,-0.025616627,0.032216087,-0.030396303,0.020567972,0.058065698,0.02163988,0.03480226,-0.047926586,0.010995407,0.026608469,0.047391508,-0.07428875,0.09189335,-0.06662096,-0.06095505,0.036262617,-0.31840032,0.025037212,0.010230742,-0.03151567,0.07315754,0.05770126,-0.16563201,-0.03510077,-0.090590276,0.049506165,0.092433326,-0.12660661,-0.22666866,0.08084874,-0.026998974,-0.1822151,0.056702785,-0.14394686,-0.07807172,0.026766574,0.00090652745,0.02665613,-0.07894012,-0.150254,-0.0025843335,-0.043704122,0.080924414,0.11279891,-0.087593704,-0.051082507,-0.11246345,0.17019923,0.045741074,-0.0126888435,-0.13378328,-0.03696878,-0.042808972,-0.011659528,0.0071892063,-0.07814649,-0.008129005,0.0033095581,0.017778527,-0.031241786,0.0625526,-0.017241206,0.08023787,0.049237538,0.0437325,-0.06480352,-0.07742051,0.037069514,0.012768145,-0.044378772,0.049058456,0.043286193,0.053562727,-0.025245607,0.023510013,-0.01605076,-0.015333498,0.09408572,-0.03303615,0.06902864,0.07482065,-0.019058803,-0.079732895,-0.0076046716,-0.15396787,-0.06563936,0.011425731,0.05383433,0.028962288,-0.007966098,0.12783363,-0.12145905,-0.03079608,0.115309626,-0.17563498,0.045527395,0.023412673,0.04763895,-0.04619087,0.03989329,-0.20634148,0.03774411,-0.039554376,-0.117638886,0.11928624,0.07120807,0.12828866,0.0036219824,-0.0020152852,0.085597076,-0.08181557,0.17232934,-0.105146304,-0.087474294,-0.013360219,0.097483605,-0.022966817,-0.0905676,0.04222837,-0.07487953,-0.16214244,-0.13661474,-0.058225174,0.0730922,-0.011053296,0.061000414,0.049576793,0.0005676294,-0.032324865,0.12320246,-0.17691652,-0.03687219,0.034072164,-0.0238927,-0.019152144,0.0619361,-0.010877462,0.152874,0.0020652972,-0.056600176,0.0639482,-0.07168644,-0.007455388,-0.07791358,-0.067486465,-0.025121234,-0.062888615,0.032383583,-0.0038520878,0.09454714,-0.0024824354,-0.014270822,-0.06941581,-0.003664397,-0.16734934,0.16255741,0.07410018,-0.002848793,-0.060259797,0.010819682,-0.02073929,0.15775052,-0.053777475,-0.094807446,0.070593275,0.026835,-0.045868505,-0.031429388,-0.00048719769,0.045317866,0.0058469004,0.09999628,-0.023650099,0.061982427,0.06859994,0.030645622,0.012878902,0.0037980028,-0.047053665,-0.025301553,-0.0064613014,-0.0016727659,-0.053846177,0.07328141,0.04484805,-0.020000666,0.01799566,-0.03261598,-0.045168772,0.17503369,0.0060860906,-0.07436552,-0.010346659,-0.0792597,-0.025220716,0.040512618,0.05256546,-0.07096341,-0.07185634,0.018182026,-0.038701277,-0.017230146,0.04033895,-0.058402665,-0.016038058,-0.002862122,-0.051958546,-0.094217665,0.06598016,-0.015636439,-0.046819966,-0.09699842,-0.015926743,-0.06420155,-0.11815838,-0.051319584,-0.06394437,-0.068640776,-0.09670877,-0.011580013,-0.043776322,-0.05595531,0.100959554,-0.037736386,-0.060080424,-0.053332143,0.066004045,0.15038691,-0.031029016,0.019098446,-0.009019882,0.043641694,0.047477648,0.055728015,-0.02544256,-0.015162773,-0.07730009,-0.050216656,0.020955816,0.018694665,0.017875038,0.069028266,0.0008223401,-0.067649364,0.008279836,-0.097705774,0.025270095,-0.017557174,0.021233635,0.03119136,0.08993013,0.10298701,-0.010139256,-0.00090283534,0.065565325,0.047920965,0.08042624,-0.03216032,0.086841315,0.060523897,-0.07844538,-0.050055567,0.014652938,0.02099732,-0.01577223,0.016605757,0.021231541,0.016958922,0.032489378,-0.052200604
-0.029315058,0.015902871,0.008974641,0.026817346,0.035120174,-0.010258942,0.03328968,-0.03134008,0.016051847,-0.05210392,0.07262711,-0.011527298,-0.0774155,0.009616585,0.0682302,0.11549459,0.09071548,0.06137293,0.10335554,0.010638236,-0.025591256,0.09104957,-0.012736987,0.06562249,-0.11065598,-0.013007475,-0.054388262,-0.16275401,-0.10730405,-0.13610753,0.11653957,0.05718998,-0.01806516,0.10973885,-0.005481822,-0.033082463,0.025219912,-0.13948919,0.026375605,0.04602003,0.0021490282,-0.10358539,0.0912347,0.03873137,-0.10401795,0.08690654,0.025877427,0.07534833,-0.10153706,0.0027937435,-0.10018643,0.024895601,0.022687152,0.14891602,-0.02697933,-0.031388253,-0.021145921,0.016785055,-0.027590131,-0.012575136,-0.029418008,-0.0041349423,0.0024514443,0.0017473851,-0.04723455,-0.023820218,0.012152602,-0.0077675204,0.009171247,0.07681562,0.08729568,-0.038664818,-0.026256885,0.08757888,0.052737214,0.046915874,0.033024386,-0.049036603,0.022024168,-0.020546403,0.004118111,0.0010037688,-0.03597054,-0.084424004,0.06009701,-0.007590926,-0.12263918,-0.017191242,0.11499589,-0.007349817,0.01872067,-0.034036268,-0.10057312,0.02704514,-0.13528985,0.048867863,0.12425349,-0.10814774,0.049580216,0.01019983,-0.15803982,0.03608621,-0.0069718603,-0.048002195,-0.14755093,0.11681566,0.034903027,-0.01294269,-0.014721843,0.024880484,0.06517546,-0.11238,-0.06541902,0.052760646,-0.018457785,-0.06411965,-0.05248244,-0.009466382,-0.07616621,0.047073595,0.039397843,-0.15878102,-0.053657364,0.07625016,-0.0071063293,0.0131844655,-0.035866782,-0.025925856,-0.0332569,0.024522986,-0.04239646,0.00806318,0.003900375,0.03598031,0.030082501,-0.07307974,0.1304104,0.02108946,-0.051233023,-0.08639011,-0.052032627,-0.09778558,0.09329255,-0.12216813,0.09460407,-0.0982089,0.029126836,0.04652273,0.056267373,-0.0070888065,-0.09893642,-0.083177514,-0.0309744,0.08323884,-0.13833036,0.022593742,0.0015817971,-0.063803606,-0.16437003,0.0060523236,-0.050673615,-0.037281092,-0.030060155,0.01997647,0.16349459,0.008541927,0.21173012,-0.08925445,-0.11743905,0.019179815,0.13275006,0.13968338,-0.18259205,0.042499926,0.08507708,-0.10879525,0.08982493,0.022152355,-0.0013655536,-0.064370595,0.05139756,-0.04620445,0.0023488451,0.056646872,0.012707854,-0.05407393,-0.19715759,0.038840238,0.00551784,0.049535587,0.040260922,-0.05537444,-0.03972744,0.0392201,-0.0020690842,0.012612513,0.0075937025,0.0036314304,0.06856827,0.053079773,0.035862435,0.0029003606,0.088977255,-0.010352835,0.016949253,-0.04693652,-0.15830763,-0.066919886,0.022281306,0.034233008,0.069230035,-0.019278761,-0.02785206,-0.026827192,-0.033800535,-0.111543,-0.010862757,-0.124246165,-0.06782413,-0.06888111,0.001110075,0.20224743,0.007595933,-0.03490258,-0.01462484,-0.0035464074,0.11284246,-0.044205286,0.023565998,0.013064152,0.009868865,-0.010200823,-0.016475054,-0.17622536,0.043656174,0.052303586,-0.027635425,-0.031961147,-0.08426607,-0.08064848,0.04022942,-0.023980552,-0.07603181,-0.013728596,-0.030793222,-0.10178998,0.050045155,0.03286955,0.14190519,-0.070425965,-0.07540823,-0.121568695,-0.06917402,-0.024142014,-0.08447543,-0.100362085,0.045556128,0.016220614,0.091568545,0.048403654,-0.045372244,-0.044346184,0.006368373,0.022025384,0.058128495,0.023675302,0.07619865,-0.003459192,-0.116237104,-0.002031169,-0.128669,-0.017931866,-0.036735512,-0.043458425,-0.03634594,-0.008539981,-0.090104826,0.06116833,-0.034861077,0.08657147,0.00031022608,-0.0029864067,-0.028629133,0.06825454,-0.019101987,0.061398078,0.029279318,-0.02347875,0.034794208,-0.07063925,0.090598516,0.14500958,0.006830807,-0.024235507,-0.079322696,-0.023651967,0.019745838,-0.032884672,0.019236162,0.05301002,0.0032625939,0.018432917,0.10625456,0.061349194,0.032364227,-0.034788482,-0.055504423,0.029802172,-0.01509509,0.020972958,0.114507556,-0.10130061,-0.016915448,-0.05668661,-0.052883852,0.029269205,0.10824254,-0.018728185,0.04862608,0.013195534,0.043524805,-0.017566599,0.061090577,0.06079259,-0.025619967,0.061886095,-0.021049278,0.009626669,0.021908298,0.06378336,-0.0392852,-0.11278528,0.008852695,-0.043749843,0.0019543013,-0.018361388,-0.01416655,-0.035787735,0.020306498,-0.030682294,0.022595918,0.05169835,0.012744518,0.03043516,-0.058292847,-0.05651818,-0.010204912,-0.03497499,0.07243262,-0.09862557,-0.025305737,-0.014809425,-0.026730746,-0.05623399,-0.030265335,0.01384441,0.015692508,0.062171157,0.03744144,0.018507335,-0.028527673,-0.10689534,-0.00516237,0.17744632,0.121771455,0.08071232,-0.01400174,-0.0667478,0.041102298,0.107840024,0.06551387,-0.016171547,0.007992093,0.0838483,-0.070652924,-0.09082849,0.084156156,-0.013685829,-0.046492323,-0.1307306,0.17551382,-0.06915866,-0.25162882,-0.02418889,0.016899465,0.0045579397,-0.013312605,0.01621983,0.005893305,0.029992482,0.004773712,0.0069756163,-0.11705434,0.041278202,0.07968855,0.114778884,0.0008333746,-0.016241683,0.03383109,-0.12817349,0.004673986,-0.13158336,-0.09939592,0.011454411,0.10425342,0.031307753,0.039850812,-0.03319532,-0.17283034,-0.03002836,0.25865573,-0.008256977,0.10722635,0.01095761,0.069507256,-0.07964456,-0.022312839,-0.088207245,-0.026218524,-0.10886681,-0.15888038,-0.18416594,-0.19228275,-0.034904163,0.14449303,0.041853774,0.07066562,0.03913152,-0.019262072,0.017623845,0.045229748,-0.030497953,0.06321935,0.09203332,0.042029623,-0.013434384,-0.07935771,0.04703766,-0.058354754,-0.04037906,-0.00015247002,0.035611972,0.009843701,0.016841006,0.03377628,-0.015919087,-0.010621222,-0.01806505,-0.02962633,-0.005794196,0.015639758,-0.04874857,-0.087415054,0.05931641,0.087957755,0.04655181,-0.0023314815,-0.07111738,-0.062342457,-0.014760497,-0.050183002,0.05976238,0.013329783,-0.0021582542,-0.12817897,-0.091228984,-0.08142098,-0.09604284,0.09790432,-0.13454127,2.8513727e-05,0.034044493,-0.118855596,-0.047098022,-0.013018521,0.05408338,-0.042598583,0.038576253,0.007001037,0.042695552,-0.012916667,0.14806512,-0.027106006,0.028787855,0.06276187,-6.884973e-05,-0.10661093,-0.04571094,-0.0038687475,-0.09779003,0.058259834,0.019715289,-0.12236154,-0.028811155,0.026805114,-0.012951624,-0.033457313,-0.030253131,-0.06736439,0.0020096141,0.05489143,-0.011511586,-0.0075449636,-0.018149126,-0.05062999,-0.033782504,-0.001778482,0.05901873,0.007902671,0.027022006,-0.0016266146,0.004247263,0.017867526,-0.04085302,0.022316715,0.015802445,0.015720628,0.020481255,-0.014855949,0.10454245,-0.012930719,-0.06304969,-0.075908676,-0.0650893,-0.0638204,-0.028637799,-0.025402317,-0.08458735,0.18831246,-0.1349409,0.0007826074,-0.10066316,0.08793613,-0.12522498,0.067728676,0.11427283,0.13169898,-0.15584043,-0.076542504,0.054433603,-0.0076302225,0.08599869,0.023540404,-0.06418717,-0.08625738,-0.042597286,-0.013330838,-0.019986331,0.11871285,-0.015893651,0.095375635,-0.07128872,-0.020735312,-0.062404618,-0.08189275,0.042089872,-0.13486081,-0.062403753,-0.040298652,-0.052687492,0.040876314,-0.0033231082,0.010471471,-0.0760583,0.03842684,0.01632307,0.12068978,-0.030610438,0.049822625,0.020050406,-0.020835632,0.075000405,0.0021324873,0.05796694,0.0030151263,-0.027650466,0.061340053,-0.059230518,0.011105708,0.050139178,0.07010895,0.034027047,0.027072905,0.023265291,0.04997696,0.028098764,0.005482276,-0.06091362,0.058379807,-0.055639084,0.01377605,-0.05615146,-0.05475977,-0.02186735,-0.043838646,-0.06575467,0.031937446,0.014408574,-0.018898403,-0.01868507,-0.06906796,-0.050745796,0.111903764,0.109371565,0.068039425,-0.022931084,0.014574877,0.09574589,-0.03626114,0.070207104,0.081142,-0.032548882,0.16868897,0.08186999,0.015157036,0.059714142,-0.0074382196,0.027486965,0.08502455,-0.13004184,-0.060414173,-0.13146882,0.046492282,0.051928185,-0.031806234,-0.01185348,0.034108877,-0.04169509,0.08536282,0.090504974,0.050914466,0.041848086,0.108704604,0.025984893,0.07334199,0.07155955,0.012640499,0.07602865,-0.015592655,0.024325985,0.03231187,-0.060399864,0.11977556,0.08219249,-0.10727795,0.047707364,0.0941962,-0.08735203,-0.04810744,0.1136725,-0.13095589,-0.014056119,-0.08019346,-0.007243819,0.053691506,0.009974303,-0.03990528,0.15436152,0.02823752,-0.06581101,-0.02931465,-0.023018505,-0.056905594,-0.10402156,0.10540972,0.011413106,0.009816623,0.013426642,0.057538442,-0.01224417,-0.12291997,0.027234681,0.021602288,0.022857875,0.013249613,0.022976061,0.02691411,0.062112454,-0.019064428,-0.03551621,0.024818998,-0.046002366,0.024303209,0.070581295,-0.037089307,-0.04681446,0.039192013,0.015252364,0.024104064,0.020689188,0.07623819,0.002505377,-0.06677196,-0.032501537,-0.050813485,-0.002348779,0.0034688683,0.031202558,0.0072082,-0.12596573,0.029601224,-0.070483,-0.037435547,-0.008641371,-0.06965435,0.12547325,0.0668674,-0.18251431,-0.06792158,0.0395485,-0.0040473174,-0.007642923,0.112076096,-0.013161126,0.116638064,1.5158473e-05,-0.106039554,0.046027966,-0.02059759,0.018803744,0.1403658,0.014401122,0.0034766854,0.05192151,0.0027048572,-0.02584311,0.02080036,0.08767721,0.010205643,0.031067349,-0.03706842,-0.020587394,0.029578699,-0.017404117,0.028478907,0.054264486,0.014496014,-0.07713001,-0.020797517,0.054860886,-0.07854864,-0.04925021,-0.11358639,0.013084128,0.09219538,-0.1432851,0.010542941,0.060170986,-0.059380382,-0.060475953,0.012181899,-0.04772505,0.06122307,-0.05978711,-0.0066751256,0.042507842,-0.06952673,-0.006925157,0.006430081,-0.099258475,0.06856269,0.07465889,0.01630662,0.009875431,-0.0113302665,-0.07498498,0.015989317,-0.01843168
0.027576318,-0.0063224966,0.015339452,-0.010273382,-0.018983506,0.0056995056,0.0069746743,-0.030229349,0.008046583,-0.021523973,-0.0053158244,-0.11087589,-0.011431175,0.0036604984,0.0055512176,-0.01665338,-0.08580354,-0.036967862,-0.030095045,0.031150755,0.16556168,0.06938618,-0.039401226,-0.072619945,0.04664663,-0.015017102,0.07486589,-0.16365644,0.0717642,0.023919553,0.048025075,0.013198717,0.11684941,0.006090886,0.043349713,0.13261317,0.13797085,-0.0032035229,0.025878493,0.09720254,-0.08132196,-0.14101784,0.12546466,-0.024444867,-0.07302871,-0.02440268,0.048573326,-0.24295363,-0.246868,-0.292962,-0.19857495,0.021038862,0.05832946,-0.123659804,0.06273577,-0.07102062,-0.017176647,-0.013649545,0.032424472,-0.023985447,0.026670098,0.009545234,-0.0067708218,-0.032166004,0.03270664,0.03892678,0.0028937054,-0.018444795,0.08508374,-0.016203834,-0.006293396,-0.01731197,-0.060002975,0.0810524,0.034567367,0.09073751,-0.027979309,0.00572804,-0.020597734,-0.039640803,-0.028821902,0.012278265,0.025839929,0.06511691,0.06227417,-0.042706616,-0.067169875,0.044954494,-0.03554182,0.03968954,-0.10759479,0.03624222,0.04553239,0.016386464,-0.037872773,0.028952235,0.05939979,0.011814312,-0.06654292,0.059162516,0.04604585,0.11800304,-0.017358864,0.085654296,0.05419924,0.06923347,0.110165834,-0.052465342,-0.0075090784,0.18170539,0.036745075,0.2256609,0.06417127,-0.019591743,0.011345441,-0.1370488,0.11919827,-0.07869313,-0.06396533,0.015571229,-0.019063072,0.11952625,0.04074031,-0.15307699,-0.02598775,-0.028576866,0.17687546,-0.036205664,-0.021818765,0.031821124,-0.04300142,0.06389201,-0.07814944,-0.01757738,0.0013675139,-0.004178334,0.01858897,0.06924542,0.087794945,-0.054867312,0.023943739,-0.028809728,0.047136575,-0.002229417,0.04691392,0.06426002,-0.19754097,-0.016953284,0.057930734,-0.07608256,-0.03970598,0.03164172,0.02104602,-0.01700863,-0.024501465,0.024890367,0.024812374,0.056762952,0.1192253,0.009145979,0.0095786005,0.06735009,0.037500054,0.11140599,-0.15033302,0.23357041,-0.023372086,0.052355137,-0.05424602,0.06032509,0.025098495,0.005825627,0.103169955,0.00076344784,-0.07054227,0.07494924,0.014526534,-0.00012482174,0.031390626,0.19684647,0.03451434,0.10762627,0.2158887,-0.08584128,-0.041672908,0.07529307,0.013358373,-0.058186322,-0.047468282,0.082588315,-0.029968154,-0.07798571,-0.017422728,-0.044872034,-0.00831034,0.052228015,-0.012800788,0.03373961,-0.0039348314,0.03676321,-0.027569646,-0.077886604,-0.017568463,0.07803181,0.029889733,-0.030622236,-0.024626272,0.07350149,-0.01791945,0.0018566499,-0.05849674,-0.0015784067,-0.023572741,0.030118661,0.0652284,0.04658385,-0.009835179,-0.07132713,0.0020941691,0.107190795,-0.06152216,-0.046708636,-0.021082656,0.028576449,-0.023635104,0.0310527,0.0014793046,-0.078346536,-0.043307323,0.05271801,0.019438962,0.03377387,-0.04680931,0.04369752,0.0009250291,0.0036817992,0.00084284076,0.018155148,0.14169554,-0.008405242,0.046097316,-0.06389651,-0.023867957,-0.020415753,-0.023563556,-0.10807187,-0.024183944,-0.093622915,-0.06684615,-0.017609768,-0.033244148,0.0037602652,0.08597934,-0.07474225,-0.037574153,-0.004121195,0.02463306,-0.0566919,0.025548957,0.0063472516,-0.025786879,-0.011296081,-0.03786004,-0.02590765,-0.030991944,0.040847227,-0.040254626,-0.005605738,-0.06689952,0.041646924,-0.07377691,0.009431202,0.14894323,0.012959428,-0.034342587,-0.0077194744,-0.035200175,-0.07017118,0.034879643,0.0019634902,0.098186225,0.045596156,0.058367446,-0.03339389,-0.048007645,0.038191877,0.013970542,-0.052327152,0.23303233,-0.06795121,-0.002695899,0.09833167,-0.12660654,0.0051209596,0.026003905,0.046722613,-0.04982771,0.017411638,0.008506381,0.039591353,0.16093141,-0.0032091758,-0.05371729,-0.11341638,-0.020759989,0.0335815,-0.022388998,0.08541881,-0.06659023,0.048480257,-0.1264658,-0.011187884,-0.0058955383,-0.082250506,0.050725684,0.018329343,0.06804469,-0.10943249,0.003833216,-0.087444894,-0.011899179,0.0068220124,-0.018899513,0.016815193,0.02803501,-0.03540475,0.010850446,0.010854904,-0.017455278,-0.057920706,-0.003728476,-0.054270145,0.045403514,-0.006944368,0.03651066,0.04071394,-0.018386172,-0.00097393495,0.047683634,0.044459928,-0.049815726,-0.060842697,-0.023482602,0.045970127,-0.068096995,-0.005109866,0.06435803,-0.00967526,0.014515092,0.023166442,0.056460682,0.04665703,0.008882578,-0.094612904,-0.0005773051,-0.04576944,-0.0019438636,0.030205926,0.06307034,-0.0027941577,0.06853227,0.03478203,-0.035359967,0.055943962,0.090196386,0.08911093,0.03938192,0.10320254,-0.08194992,0.031998705,0.05023962,-0.1761539,0.12321119,0.05332977,0.102507025,0.05840614,0.043408107,-0.1612162,-0.09014441,-0.118171304,0.09396437,-0.010631873,-0.10574705,-0.13123706,0.035706714,0.019963326,-0.012342957,-0.026122741,0.031596918,0.024765497,0.034427498,-0.019868137,-0.09444109,0.09147325,-0.03593407,0.059135497,0.13604902,0.12337145,0.17854537,0.17438701,-0.101497,-0.019681206,-0.03454573,-0.046644717,0.103136145,-0.03044465,0.14891417,-0.041711513,0.19706438,0.055871356,-0.16973421,0.058024958,-0.022653788,0.090567164,0.25524816,0.065565675,-0.04729233,-0.04893904,0.0159084,0.059773676,0.05317589,-0.25103468,-0.01666196,-0.008648134,-0.043559138,-0.021848556,0.051324725,0.03097114,-0.028874896,-0.15636106,-0.024599856,-0.053893875,-0.005339511,0.046353154,0.0102373045,0.00075669144,0.021180732,-0.0453004,0.016708484,-0.0407205,0.013161726,0.0040519345,-0.021567972,0.031684667,0.021212427,0.018793387,0.018656846,0.001432973,-0.020919481,-0.020024842,0.044664714,-0.018089136,-0.0032172415,0.026585301,-0.04943532,0.009300202,-0.09929552,0.016358,0.046716668,-0.04895262,0.053199314,-0.064298436,0.01744913,0.0859791,-0.1643673,0.052856565,-0.14899462,0.0718357,-0.025869349,-0.20689987,-0.14978234,0.16787124,-0.086268865,-0.045598596,0.0050344155,-0.18291923,-0.15066358,0.17963858,-0.04885381,-0.06371432,-0.020205373,0.007826518,-0.012524292,-0.095218346,0.02844216,-0.019005094,0.0069567575,0.018370204,0.11103851,0.03882722,-0.08306681,0.20718828,0.01283619,0.026449807,-0.0029422608,0.02174426,0.022792071,0.020309607,0.067261934,-0.07979802,-0.019159384,0.10906958,0.04361479,-0.010694561,0.069586545,-0.025640117,-0.008141412,0.033541784,0.0513845,0.045043927,-0.06674141,-0.05294409,0.04507773,-0.00021100599,0.10130042,-0.14035459,-0.0343796,0.05384232,-0.07503127,0.016018718,-0.12156067,0.051196333,0.053862758,-0.014522223,-0.058762487,0.05897613,-0.08040972,-0.038176175,-0.10066514,0.02934221,0.022000024,0.08841334,-0.006951948,0.19705746,0.00031776563,-0.05209927,-0.06944378,0.010235259,-0.044821993,0.048444983,0.14315543,-0.02287481,-0.06731695,0.020301618,0.09136391,-0.05853298,0.0037436124,0.14092351,0.0734245,-0.115032576,0.007335159,-0.057226352,0.025766952,-0.021502113,-0.06070554,-0.024994684,0.005087544,-0.024403278,0.08398872,0.032761075,-0.014917981,0.018335799,-0.06179141,-0.0113096535,-0.021539077,-0.10593326,-0.03506062,0.07425021,-0.039860584,0.0077226916,-0.021069339,-0.008017619,0.008448918,0.05069795,0.03894704,0.04175443,0.11135562,0.032261603,0.036744572,0.17012922,0.10728743,0.158644,0.065009095,-0.010283785,-0.10774789,-0.035197325,-0.11276353,0.11824157,-0.0871511,0.002428184,-0.05713158,0.09703279,-0.008425149,-0.061005715,0.08284341,-0.107880704,0.035939157,-0.14219618,0.025414178,0.08334256,0.021549085,-0.0024395261,0.06977638,0.04739825,0.12390024,0.07770867,-0.03161431,0.006618488,-0.0093782395,-0.014061777,0.023933984,0.10976935,-0.04107924,-0.047191612,-0.09676203,-0.03327658,-0.007360524,-0.032429624,0.04666083,0.10615861,-0.05772791,-0.04233349,-0.029998606,-0.017078249,0.0032897464,-0.07223104,0.066282965,0.017290635,0.05284846,0.054559585,-0.06850739,-0.02484343,-0.028326299,0.013973344,-0.03621944,-0.03487656,0.034786187,0.053135987,-0.025072116,-0.032049846,-0.0931231,-0.023655461,0.105930105,0.11087158,0.050298776,-0.034541972,0.09849743,0.1422258,-0.014082441,0.107504144,-0.0040959087,0.107793026,-0.053305022,-0.03019569,0.09585915,-0.087853394,0.024906365,0.053985577,-0.08496884,-0.09817508,0.10847481,0.07263952,0.037486896,-0.046738904,-0.040016714,0.04593802,-0.12626971,0.037348747,-0.026163938,0.032481447,0.045688674,0.10344737,-0.03861918,0.011498288,0.020089347,-0.023948194,0.038089484,-0.038572107,-0.07568033,0.0041282205,0.12157876,0.06035097,0.051166706,0.050007686,-0.0044189994,0.0042388784,0.00022072207,-0.067081876,-0.07778396,0.07337971,0.0841015,-0.04797011,-0.012030371,0.016695002,0.02164237,0.07555381,0.015255218,-0.025971692,-0.039741285,-0.04731756,0.059892394,-0.02718616,-0.028689677,0.048454277,-0.032201864,0.0913385,-0.054123584,0.024914749,-0.28604606,0.14901906,0.050850157,-0.008555767,0.009042403,0.09872532,-0.1601517,0.003996689,-0.020931548,-0.066593625,0.03352981,0.041113712,-0.062223993,-0.012569637,0.031609043,-0.07976771,-0.08391209,0.03591056,-0.021847261,-0.042866588,-0.011868885,0.03169996,-0.0239316,-0.040342502,0.11687141,0.01317481,-0.035127822,-0.06384831,-0.0195013,0.050311293,0.018488685,-0.03117909,0.06248629,-0.022602456,-0.030176852,-0.008006651,-0.039993435,0.024088722,0.0024786964,0.022971079,0.042836193,0.0017559476,0.018674873,0.0143785905,0.031271983,-0.043618914,0.03682018,0.019212864,0.033877406,-0.04631811,-0.017801544,0.032863174,-0.023903439,0.010191536,0.000966521,-0.01009639,-0.014573224,0.0075816275,-0.042732824,-0.041570667
0.026064368,0.01794692,0.015867835,-0.0023955193,-0.0012964146,0.032840215,0.01916686,0.023696426,-0.06810157,-0.09812008,-0.04924124,-0.069474444,-0.08257469,0.134088,0.09784698,0.024544831,0.0034346913,-0.08137123,0.05981625,-0.10222209,-0.120748915,-0.17820764,0.025940305,0.00678739,-0.06474205,0.0018207702,-0.17091718,0.03696025,-0.14033122,-0.13669854,-0.025972748,-0.021687964,-0.11405699,-0.14211601,-0.06534841,-0.2742606,-0.09370706,-0.2782085,0.052110903,0.023040764,0.02791454,-0.012818467,-0.18358797,-0.18448424,0.024188654,-0.04543651,-0.08842087,-0.000561632,0.15108834,-0.07258001,-0.10213467,0.059087172,-0.09576198,0.19393304,-0.337605,0.056699574,-0.025764083,0.025120284,-0.009182029,0.027299128,-0.030470487,0.01662947,0.018709717,-0.028856155,-0.040610466,0.0154113425,-0.037268203,0.004772079,0.029553298,-0.024448328,0.04861912,4.454546e-05,0.089953914,0.03230077,-0.08925843,0.062276885,-0.0824305,-0.03520936,0.007739525,0.010674984,0.15821314,-0.020383053,0.07238219,0.020791713,-0.0757501,-0.050889187,-0.014334907,-0.073371015,-0.004248461,-0.13446745,0.061964326,-0.23109907,0.09709945,0.052794166,0.006750791,0.109449826,-0.13058296,-0.16242051,0.16261525,0.09756649,0.05004653,0.08210921,0.14373492,-0.07866941,0.026923427,0.023445435,-0.18435945,0.046610393,0.09907276,0.113131285,-0.14923358,0.0375354,0.0646945,0.07072564,0.17391114,-0.00455521,0.050205182,0.095223896,-0.035445087,-0.010738737,-0.0060105366,-0.11549508,-0.025224254,0.054592174,-0.076077156,0.12633693,0.0041922843,0.034256037,-0.025686624,-0.07124514,-0.0038325924,-0.08154394,-0.0114268735,-0.021975711,-0.0240552,-0.0524118,-0.04491883,0.010885559,-0.002432196,0.07316477,-0.0029442997,-0.1065753,-0.12137837,-0.09286295,-0.065124445,-0.033433467,0.101906024,-0.020432636,0.018004848,-0.14455253,-0.012509253,-0.065642506,0.011972,0.14535752,0.0009099189,0.0712573,0.065101564,0.044531308,-0.04164046,-0.022049291,-0.09029104,0.05671469,-0.07866752,0.050388638,-0.0858821,-0.02990872,0.017419003,-0.047507245,-0.107454516,0.17463532,-0.06625285,-0.025035854,-0.041809473,0.20928875,0.018854879,-0.10804293,-0.08122425,-0.05730108,0.101293914,0.0387304,0.01722639,0.06113887,0.0017731442,0.026789296,0.02060803,-0.03773969,-0.14309284,0.032609444,0.050509036,-0.15838325,-0.07777204,-0.0052193874,0.018827694,0.0061609847,0.0066995965,0.058442604,0.026017308,-0.0713042,-0.029044554,-0.08249012,-0.069592156,0.04133734,-0.011889116,-0.0138744535,-0.10773329,-0.07414927,-0.08035263,-0.14696123,-0.008727073,-0.091294944,0.0050661624,-0.11777667,-0.0715768,-0.014228867,0.03351172,-0.118440114,0.055143107,0.023882814,-0.12622736,-0.08835962,-0.06062764,0.04126597,-0.02760121,0.04343992,-0.10450114,0.026107384,0.023867523,0.044439983,0.06810304,0.07937476,0.040781405,0.06701849,-0.017086755,0.077776216,0.09427594,0.03694091,-0.14544947,-0.010202145,-0.15447605,0.13720228,-0.033657707,-0.04983417,0.10580963,-0.1360445,-0.057523113,0.09036555,-0.10106936,-0.052685697,-0.066546656,-0.16867527,-0.07246562,0.02675872,-0.07872939,-0.1376227,-0.07024991,-0.028349422,0.13147487,0.04785122,-0.06867594,0.0034538866,-0.14729759,-0.06555138,0.08034452,0.001777679,0.04178632,0.007397445,-0.044742037,-0.005831638,0.012250814,-0.009709473,-0.06273405,0.012268514,-0.047333274,0.077227145,0.036566664,0.102603324,-0.037011154,-0.022018306,0.012162146,-0.037611987,0.0007684915,-0.02576876,0.034170207,-0.083700374,-0.0133976955,0.014811058,-0.012909063,0.07412184,-0.06894113,-0.02951176,-0.07181425,-0.024651743,0.14578123,0.12666304,0.055482406,-0.0028747784,-0.08373821,0.19468771,0.022395685,-0.057637997,-0.030112943,-0.013160742,0.118402295,0.062406607,0.018229794,0.05021021,-0.04542106,0.08919602,0.032255456,0.025702795,0.1291141,-0.026389848,-0.036337905,0.05620891,0.015514037,0.0836221,0.0047318665,0.20349675,0.015734652,0.032568093,0.01617483,-0.042725686,-0.044363234,-0.03874729,-0.041927826,0.0034226384,0.02798653,0.07660278,0.012354635,-0.026758766,-0.027269436,-0.03154695,-0.028463945,-0.07487766,-0.07779438,0.069933236,0.06788738,0.06833054,-0.026411785,-0.011793105,-0.0056922208,0.010049761,-0.047234252,-0.0632671,0.025904635,-0.14680889,-0.05933621,0.07164307,0.05847415,0.09509166,-0.14015275,0.051828444,-0.13876925,-0.08000882,0.059835576,0.0765437,0.04741437,0.05089618,-0.0246835,0.08136079,-0.003579421,0.013202462,-0.04385291,-0.021171354,0.014902853,-0.048262283,0.020770632,-0.024080694,-0.07022997,0.10935204,0.108402774,0.008505098,-0.04213237,0.024093194,-0.03699451,0.033375744,0.01704215,0.03604246,0.02315202,0.045404263,0.04791389,-0.017884836,0.04797382,0.025361419,-0.0051881317,0.020892255,-0.018202111,-0.015803784,-0.00083321455,0.010959457,0.0010477696,-0.007440382,0.08478874,0.11485533,0.11731216,-0.1316076,0.051702984,-0.09245795,0.08418898,0.18260065,0.23772502,0.1473159,0.103273995,-0.13231745,0.024064835,-0.19623066,0.07666383,0.17189571,0.10796368,0.029358495,0.0569104,-0.13915583,-0.015083166,0.13632023,0.08175184,-0.028408855,0.034862507,0.021094711,-0.17806448,-0.12889932,0.05739796,-0.11222366,-0.051302016,0.15087754,0.054348003,0.016994236,-0.15067075,-0.04374866,-0.02756404,-0.14172965,0.07708712,-0.014122964,-0.028922297,0.050868034,-0.065252855,-0.07621524,-0.06451362,0.062387053,0.041803252,-0.017409453,0.0292266,-0.006664168,-0.0070948396,0.032474868,-0.030245721,-0.00074408983,-0.03349985,-0.0333475,-0.018601665,0.025570221,0.08889392,-0.12446272,-0.0071251583,-0.07136087,-0.118295215,0.06371112,-0.029579585,-0.021165973,-0.12173583,0.0013529,-0.06709341,-0.0147609105,-0.07505909,0.014667397,-0.098674834,0.007867769,-0.020758808,-0.1557311,0.053940848,-0.11022529,-0.060369976,0.09542341,-0.06876531,0.043828066,-0.09324702,0.10000867,0.04840546,-0.026798513,0.005660463,0.0018326736,-0.02697981,-0.005558415,-0.081223674,-0.015549753,-0.1967512,0.08931277,-0.10252299,-0.07067477,0.05907283,0.09826285,0.08148427,-0.02118993,-0.02953173,0.10920539,-0.0878953,0.009426392,0.11790971,0.037836134,0.08676047,-0.06856789,0.09075766,-0.052655343,0.009479229,0.06384023,-0.06646157,0.04854854,-0.0056386706,-0.020087138,0.01942716,0.0047968295,-0.005155565,-0.07939125,-0.05267371,-0.022687837,-0.019639995,-0.07147455,0.013846315,-0.064048365,0.009714787,-0.021014864,-0.08141498,-0.006973695,-0.017938953,0.065710865,-0.15474135,0.14569566,-0.030083194,0.056011647,-0.11809233,0.15322137,0.059669584,-0.08321222,-0.080524266,-0.12046822,0.038807318,0.065361954,0.102514684,-0.0009147844,0.010776089,-0.022146994,0.055542156,-0.119040795,-0.04209659,-0.078904405,-0.1350265,0.008432416,-0.042219024,0.009645268,-0.21291466,-0.023994373,-0.07434244,0.23225752,-0.11625037,-0.028798299,0.06553336,-0.052107554,-0.051577594,0.020140054,0.01916041,0.025048332,0.031311207,4.631275e-05,-0.03426982,0.10135443,-0.039721947,0.05508974,0.08721322,0.031571113,0.054565415,-0.043605547,0.0476112,0.017484793,-0.0097388765,0.04372265,-0.04172873,-0.03527196,-0.07835685,-0.11523295,0.050281722,-0.0002807615,0.18842018,0.10063101,-0.06429843,0.22651258,0.013185141,-0.05217548,0.063142896,0.006557701,-0.06129633,0.088687226,-0.047228895,0.022184854,-0.015504183,0.013836674,0.14001206,-0.0648081,0.022058059,0.06856018,0.003783991,0.07777611,-0.11479271,0.050001774,0.14822377,-0.019539984,0.15046354,0.030879097,0.13717622,0.024544755,0.029458314,0.060609452,-0.08552134,0.1571955,0.06405232,0.085346766,0.15286805,-0.09409677,0.032736797,0.052248023,-0.012832621,-0.033796925,0.018617572,-0.122424774,-0.070267275,-0.14553462,-0.025164783,0.07768334,-0.01845421,0.02252766,0.062152084,-0.11123269,-0.0604998,0.00436799,0.10760592,0.006191886,0.07000434,0.03754463,0.1080368,-0.121268995,-0.090781435,-0.094591275,0.0043801568,-0.047950845,0.017465431,0.03058004,-0.1088783,-0.17481807,-0.06191982,0.05610454,0.017608667,0.008482904,-0.025744898,0.07036641,-0.12745018,-0.0650468,0.103087656,-0.010072436,-0.027117344,-0.00083504856,0.016413324,-0.007784315,-0.0025867266,-0.014711234,-0.07699811,-0.014067959,-0.059949756,0.0702109,-0.035857413,0.063585654,0.058145273,-0.19734004,0.05672993,-0.05567069,0.1654628,0.0030724215,-0.1472447,0.10940429,-0.17165072,0.020873299,0.048823573,-0.058691617,-0.10980775,-0.07622526,-0.061205067,0.14092885,-0.033021864,0.013673937,-0.052079335,-0.095757596,0.046331927,0.15420736,0.039384637,0.026252273,0.01598339,0.07976055,-0.025064144,-0.012687273,0.0914785,-0.014823934,0.024735454,0.03766814,-0.069606595,0.08578126,0.057235282,0.13416709,-0.29180533,-0.09028572,0.00863759,0.15339606,0.05776634,-0.035152636,-0.18417114,0.07281704,-0.042881217,0.010527356,0.09491044,0.037264656,-0.056412477,-0.09619103,-0.02236726,-0.1519538,0.0006722348,0.030971425,0.06469279,0.11273049,-0.06815765,-0.19046028,0.044175934,-0.090304345,0.041719142,-0.08522953,0.009297783,0.061260257,0.07189493,0.033084758,0.0693954,-0.007017214,0.116522,0.066520214,0.07313405,0.13082297,0.0529093,-0.018770816,-0.07396739,0.08019334,0.010363406,0.05844369,-0.014177009,0.0053741233,-0.040148593,-0.0005302573,-0.05467804,0.028298398,0.040862266,0.06204672,0.02021399,0.041129272,-0.031459585,0.007427661,-0.02618181,-0.00082942855,0.0038554524,-0.000504636,-0.04132972,-0.04142518,0.012321168,-0.00936974,-0.0032408154,0.001601278
-0.0064678993,0.035664294,0.032280076,-0.025580404,0.025097912,0.021778978,0.013260513,-0.0077573536,-0.040267568,-0.09410986,0.06838278,-0.064526275,-0.057953592,-0.012331629,-0.047625653,0.019390676,0.04308883,0.012708622,0.08414262,0.06878949,-0.14070943,0.024626333,0.0027873567,-0.007312857,-0.110145524,0.032255013,-0.0034767613,-0.05264415,0.12053626,0.076352544,-0.16387197,-0.10941395,-0.04540254,-0.08991088,-0.0949544,0.17367223,0.08315962,0.081075795,0.026512245,0.06975817,0.06310709,0.1794665,0.028897796,0.14111063,0.106144175,-0.06644846,0.09167872,-0.021123013,-0.017163157,-0.06353302,0.049263146,0.22795568,0.011020106,-0.262048,0.08083868,0.04195398,0.028210232,-0.025338396,-0.017052265,-0.0035607954,-0.018578272,0.017519953,-0.022559447,-0.013722805,-0.058663435,-0.009334765,0.022165682,-0.02730804,-0.00041911958,0.009795795,0.054534722,-0.014361297,-0.030186728,0.010091713,-0.039489478,0.025262373,0.031001825,0.064942226,-0.033966746,-0.06845032,0.084798925,0.17095433,-0.0018523217,-0.08700087,0.02171735,0.013139361,-0.036132604,-0.0041076103,-0.0132185435,-0.045517854,-0.09396927,0.05800176,-0.009930226,-0.006192266,-0.14285083,-0.031086085,0.033337757,-0.020270871,-0.123456806,-0.013988855,0.09797325,0.05095326,-0.09044948,0.004938535,-0.0029520327,-0.10443392,-0.031697694,-0.19721062,-0.14417046,-0.021368567,0.077996865,-0.013411179,0.08671019,-0.009132167,0.008462118,-0.079612054,-0.118209265,-0.12548874,-0.03458381,0.11033059,0.032932535,-0.2699206,0.015769042,-0.050355572,-0.053858034,0.089208595,-0.18116748,0.048144806,-0.011834489,0.008789855,-0.018219003,-0.043200906,-0.06281022,-0.014676842,-0.05072373,-0.08409606,0.047007155,0.06355207,-0.023113044,-0.005458804,-0.06286777,0.04821468,-0.0050837463,0.016914599,0.13874444,0.097560376,-0.0659664,0.00020808942,-0.05126179,-0.14897098,-0.031931713,0.04546583,0.050419167,0.08257689,-0.008644239,-0.0143838925,0.015315258,0.022031771,-0.024285138,-0.0253029,-0.0070714173,0.06051738,-0.06708643,-0.002095562,0.10130002,-0.07082144,-0.03748088,0.01660833,-0.05187619,0.15704916,0.1183799,0.09348175,0.1645017,0.076046355,-0.0025755065,-0.056935426,0.078622416,0.024594896,0.12947027,0.09983936,0.053446185,-0.0030888496,-0.07390185,-0.13198777,-0.020774195,-0.04562735,0.026415985,0.033212073,-0.008918347,-0.08314594,-0.040630393,0.06086039,0.08578286,0.11158089,0.08807061,-0.039578453,-0.092578836,-0.0323899,-0.0015136634,0.060467314,0.07269666,0.021483513,-0.024532635,0.040058147,-0.061696764,0.04479477,-0.07090071,0.15717492,-0.05913178,-0.03742706,-0.069857836,0.054018535,-0.14275245,0.0016232445,0.09703383,-0.014961164,0.030824473,0.07275119,-0.07169779,0.1276921,-0.014796428,-0.007252135,0.05963786,-0.10320142,0.025382046,0.07220245,0.029574836,0.07268427,-0.13653526,0.119171396,-0.12892802,-0.1383613,-0.048540175,-0.040929474,0.13638453,0.103775024,0.0841155,-0.0739654,0.014585985,-0.06277377,-0.0060519795,0.016689183,-0.068949305,0.022673296,-0.1237044,-0.017112946,0.013419945,0.040736962,0.073077075,-0.2511741,0.09874723,0.033354625,0.004879765,-0.07807988,0.09622521,-0.12004019,-0.08137453,-0.032261755,0.011639725,-0.049531788,-0.056021344,-0.0015129135,-0.021396605,0.067469224,0.03991199,-0.030216027,-0.0025837123,-0.06833339,-0.072352186,-0.06480866,-0.08867954,-0.090765506,0.06709232,-0.056561228,-0.080270395,-0.039615646,-0.10894175,0.0758938,0.08069131,-0.057846833,0.06884062,-0.08906663,0.03685475,0.050705284,0.079768844,-0.05462166,0.010586384,-0.085391395,-0.021773139,-0.07855624,0.0011177558,-0.07308322,-0.03821596,0.03229969,-0.043045994,-0.029224355,-0.17976649,-0.06893632,-0.026655206,-0.024553284,-0.20252047,0.05142247,0.053894393,-0.007821285,-0.10759226,0.100294545,-0.012231695,0.081413455,-0.004228724,0.06561466,0.024618885,-0.033341575,0.025333824,0.016118474,0.09177613,0.08902453,0.09834803,-0.045727745,-0.053572074,0.07092543,-0.003571594,-0.037613135,-0.019417929,-0.037077125,-0.028130325,-0.03984378,-0.04476978,-0.0022124192,-0.051558416,-0.026143637,-0.043263543,0.0061788238,0.0020742249,-0.011914241,-0.113880605,-0.011306234,-0.07884978,-0.0148691395,0.027153779,-0.090405844,-0.009803256,0.04521155,-0.03596798,-0.03644605,-0.00510481,-0.0288279,0.07300977,0.06898905,0.072872244,0.07414071,0.06353494,-0.0439963,0.0049059894,-0.0872944,-0.0053520827,0.15899184,0.076980926,0.0574859,-0.07619764,-0.06475711,0.055625245,0.011662628,0.008334821,0.012049662,0.06653739,0.16437748,0.06261595,0.07795215,-0.23093075,-0.08908085,-0.105177134,0.054678608,0.07817817,0.03316794,0.040082846,0.05901721,-0.032515768,0.015218163,-0.09388151,0.09260234,-0.28035393,0.015737386,0.016592033,0.031470705,-0.0080938805,-0.005882719,0.03264033,-0.033920508,0.028634025,-0.0011139839,0.011768221,-0.0341611,0.032668237,0.046052735,0.12570938,-0.04711552,-0.018295592,0.0029491896,-0.045045134,-0.21927911,-0.12258096,0.0059127114,0.019315226,-0.08965411,-0.08271458,-0.07148027,-0.09184915,-0.14536147,-0.12165033,-0.11477394,0.038584556,0.13294622,-0.22448044,0.13211012,-0.016136054,-0.05870657,-0.04290434,-0.032036033,-0.012082415,0.095156334,-0.09159985,0.09231574,-0.10104476,-0.24305137,0.07790048,-0.0793843,-0.07485898,0.07881932,0.005431306,-0.07149062,-0.021688974,-0.0044033974,-0.15361378,-0.0032951653,0.020611702,-0.056289267,0.025596395,-0.06287669,0.08736406,-0.102900505,-0.0063823448,-0.007963714,0.02767553,0.035807215,0.020922504,0.0021780608,-0.014134528,0.027954485,0.055500984,0.16196294,-0.05427911,0.056861132,-0.14648886,-0.04662513,0.04843415,0.044126764,0.044623744,-0.06057391,-0.061601274,-0.051563464,0.12283243,0.06490455,-0.07419422,-0.022278415,0.0039272397,-0.05132606,0.22545402,0.1205384,0.020350344,-0.16194431,0.042263817,-0.07321985,-0.008618775,-0.066865765,0.031216975,0.01148178,0.15926826,0.060296707,-0.03512766,0.099931195,0.031225799,-0.11722931,-0.09235094,0.06919474,0.06879657,0.0064994735,0.028031519,-0.054022335,-0.001866476,-0.06766855,0.049128145,-0.15164359,0.03613618,-0.035339598,-0.04397624,-0.039609462,0.030942636,-0.069131315,-0.043922186,-0.05364758,-0.003585164,-0.009691926,-0.007959514,-0.030708797,-0.10677123,-0.041095186,-0.015194187,-0.011490287,-0.038221925,0.00012327201,0.028108902,-0.051540762,-0.06727421,-0.018663645,-0.2691234,0.011055091,-0.057679486,0.16715288,-0.094945185,-0.0028404084,-0.06923434,0.23644987,0.0052123363,-0.05647083,-0.03779358,0.10307924,0.031292778,0.16823252,-0.1681984,-0.020289846,0.102214605,0.0032882597,-0.04719614,0.09297213,-0.005637416,-0.05302861,-0.025006147,0.063540936,-0.08191666,0.04432993,-0.06568217,-0.11363371,-0.015634928,-0.17605208,-0.045257166,0.03816961,0.0688398,0.06377599,0.112820104,-0.12979954,0.024536613,0.08516422,0.040015016,0.078190856,0.047704015,-0.029114112,-0.05693416,0.026885685,-0.07546316,0.030809775,0.047520142,0.027286105,-0.06568103,0.035192367,-0.0030638282,0.010298093,-0.02493167,-0.117359556,0.02773555,0.015536427,0.06330101,0.029898185,0.025226776,0.03391183,0.010797235,-0.06903392,0.09457389,0.060119987,0.08241023,0.039487094,0.06860408,-0.11481842,-0.08093263,-0.16462266,-0.0022669306,0.10298257,0.05513408,-0.03833267,-0.03698885,-0.013536493,0.00521611,0.021842338,-0.05929641,-0.024987362,-0.11997039,-0.023110429,-0.021393694,-0.031252705,0.02775437,0.029927023,-0.07718736,0.0879389,-0.033205256,-0.0918969,0.019699447,0.043511838,-0.01543756,0.13165429,-0.005208508,0.058241088,-0.044400442,-0.06544053,-0.043671444,0.19551924,0.20787917,0.08398665,0.123324074,0.051776778,-0.006909998,-0.12335284,-0.047947552,-0.07804489,0.15016212,0.096642196,0.0804703,-0.08030833,0.060864296,0.015036118,-0.08875843,0.093240924,0.08510684,0.055272166,0.02499517,0.16250363,0.064940296,0.080534466,0.0765557,0.045660064,0.0046870317,0.056274343,0.07434312,-0.023476036,0.028033312,-0.18878895,0.18383984,-0.22510469,0.016167605,-0.06249176,-0.071486816,0.0014099753,-0.079155974,0.20157185,0.0073492643,0.08032845,-0.17098115,-0.026599249,-0.05255138,0.0893495,-0.07809859,0.07531669,0.060565285,-0.050238032,-0.13393107,0.03549366,0.02293881,-0.025894267,-0.111260585,0.06061225,0.09577359,0.0736302,0.09005918,-0.055587165,0.040396024,-0.0048963665,-0.16496827,0.032777864,-0.027921578,0.051414885,0.078926094,0.013906712,-0.03292554,0.03490272,-0.05306493,0.058500946,-0.15467693,-0.08063318,0.0059788353,-0.025349842,0.050316457,-0.0627751,-0.048467625,-0.03725338,-0.02001045,0.030411238,0.0036901496,0.012386633,0.03582697,0.02056013,0.056494888,-0.070873745,0.0041397205,-0.009088796,-0.050923213,-0.040800095,-0.17738327,-0.10675446,-0.04229256,0.010936626,-0.06106652,-0.012398898,-0.020767195,-0.009284764,-0.020620838,0.0023890296,-0.023979362,0.048106037,0.032652225,-0.03336206,0.0061398116,0.09667355,0.008731325,0.053198837,0.033382133,0.056988828,0.01945935,-0.014439668,0.07254187,0.06633455,0.067887895,-0.015975917,0.10944445,-0.013822598,-0.0010425306,0.05181581,0.12779774,-0.029671082,-0.045143064,-0.024312895,0.028421579,0.088449694,0.056990936,0.0066334074,-0.13306046,-0.06728742,-0.026114875,0.0395355,0.025548538,0.02665374,-0.010801648,-0.073367484,0.026437031,-0.049509063,0.067332946,0.044959214,-0.0030846463,0.052742824,-0.040499154,-0.05372129,-0.011482368,-0.0016249924,0.027885942,-0.015759341,-0.039034948,-0.032203186,0.009720814,0.03347748,-0.019182097,0.014836638
-0.023156546,-0.034362834,-0.0070152557,-0.020615973,-0.011066592,0.030272618,-0.016094923,0.010904293,0.0784376,-0.11093347,0.019574182,-0.06878383,0.09317672,0.20276466,-0.004948378,0.07801144,-0.09746858,-0.015037001,-0.052953765,0.08371745,-0.015969174,0.09516143,-0.04021233,-0.0911912,0.040385112,0.044976108,-0.09241208,0.21242192,0.19985715,0.022400953,-0.05330498,-0.052554887,0.2529563,-0.08894408,0.08440119,0.032257892,0.015440032,0.015045146,0.12468952,0.08531656,-0.10223154,0.13193175,0.053952694,-0.15241054,0.3357188,0.0029873003,0.02155285,0.0014036407,0.036345825,-0.18631077,0.1178432,0.09013432,0.0031870583,-0.013080401,-0.04697771,-0.01227083,0.026088655,0.0034141843,-0.025159286,0.0055039464,-0.030274713,-0.012565594,0.032774027,0.027048957,-0.030953698,-0.012471341,0.037075464,0.06003853,0.0058711455,0.083252065,0.02287628,-0.035181664,-0.1025855,0.06294123,0.07633483,-0.009352707,0.04648529,0.048094288,-0.016488995,-0.093111284,0.04273151,-0.15007807,0.0065234704,0.049199253,0.0031776882,-0.05516626,-0.019245613,0.07385241,-0.01513147,-0.2131138,0.044538382,0.17164615,0.07175562,-0.082187325,-0.26230955,-0.030585704,0.061078142,-0.03446357,0.07304562,0.0054828953,0.04134491,0.10352231,0.027793331,0.05698462,-0.004135693,0.03001865,-0.013688472,0.080425195,0.10431121,5.039773e-05,-0.23272747,0.07945782,0.04448725,0.01768727,0.038938712,0.11386946,0.20473252,-0.020754417,-0.02628124,-0.005920653,-0.009577564,-0.14303462,0.10966295,-0.019580407,-0.07300172,-0.073424734,0.12948722,-0.022834904,-0.022819798,0.029330801,-0.012619034,0.042780615,0.07630269,0.005876728,0.027038345,0.05378674,0.050684936,0.05997607,0.030818041,-0.018751021,0.040372074,-0.018410377,0.046909913,-0.02368017,0.0109451385,-0.028390566,0.013869916,-0.011073276,0.053029116,-0.0077600037,0.036794916,0.14998187,-0.018598253,0.08952032,0.076643184,-0.018218882,-0.06949224,-0.14301828,0.025433622,-0.026667738,-0.048193775,0.047450196,-0.036404703,-0.06889472,-0.015153671,0.23549768,0.012940582,-0.067436285,0.00078405556,-0.01139006,0.09755482,0.02252572,-0.03024561,-0.0010593475,-0.22324108,-0.07294615,0.18667841,-0.07187339,-0.1698892,0.011121653,-0.064850494,0.10547747,0.041412294,0.018148985,-0.0500549,0.016593123,-0.26751176,0.119048245,-0.075651236,-0.09134236,0.117325984,-0.0384046,-0.021346012,-0.029796155,-0.101938084,0.042098723,0.051888388,0.023045117,0.15780304,0.005838056,-0.06619147,0.012617303,0.041208155,-0.0009978196,0.12941617,-0.16275774,-0.007221568,-0.002048711,-0.04410604,0.019562358,-0.016561057,0.055980124,-0.037241124,0.08109486,-0.07284391,-0.1691483,0.15151043,-0.08131552,0.08913241,0.17509684,0.024494193,-0.10665043,-0.0152378725,0.024416946,-0.087309524,0.12417345,0.2240357,0.026975473,-0.04008509,0.0393245,0.009114103,0.10811333,0.02565731,0.0070423502,0.0080043515,-0.0842111,-0.12403099,-0.10441497,-0.040767178,0.07350546,-0.028850364,0.061559346,-0.012875406,-0.041601222,-0.061101723,-0.014320485,-0.007927145,-0.0056812135,0.05885239,0.04267562,-0.10692862,-0.044158097,-0.081353255,-0.1749484,-0.041559312,-0.035261832,-0.0068771793,0.030372145,-0.0647612,0.009797407,0.027390674,-0.021259513,-0.0666942,-0.08815098,0.06699856,0.004645623,-0.08295007,-0.09097546,-0.036942273,0.031727374,-0.04253531,-0.093594305,0.015311396,0.025243029,0.07258811,0.069592424,-0.10887276,-0.12581286,0.024016326,0.1293857,-0.07702266,-0.014525898,0.014132145,-0.0062505445,-0.102177925,-0.11293176,-0.063406534,0.040159818,0.057683606,0.027575858,-0.0465401,0.042019762,-0.011521599,0.19268587,0.07638695,-0.06517445,0.029808845,0.032969527,0.07473858,0.08078544,-0.025315624,0.007275692,-0.105874196,-0.098664686,0.021483527,-0.031724468,-0.013038836,0.00039989487,-0.023569003,-0.011212046,-0.019556979,-0.09032517,0.0015089252,0.059153568,-0.034700483,-0.147197,-0.0439069,-0.14721751,0.0916925,0.08488563,0.04878992,0.03484716,0.014248851,0.09247461,-0.029806053,0.06977117,0.015613727,0.027367013,-0.035741564,0.02781964,0.041662667,0.073059656,-0.085122965,-0.027768428,0.0020993073,-0.0060129864,0.032180715,-0.005449321,0.09230584,0.03109512,-0.015183277,0.012076397,-0.00070483517,0.0028635277,-0.013518891,-0.025595462,0.027548183,0.0148915835,0.053983614,0.08690327,0.070800096,-0.063271,0.086442955,0.028648386,0.078306265,0.040157087,0.08936023,0.002172043,-0.00085105444,-0.1011986,0.03990765,-0.05665959,0.041267812,0.0869488,0.08751634,0.123648845,-0.07689447,-0.06725337,0.009170381,0.098849244,0.052052055,-0.0269383,0.030094013,0.01982024,-0.109763324,-0.12603498,-0.07943667,-0.003949136,0.057986967,-0.089183085,-0.037887048,0.091082305,-0.11271856,-0.13866337,-0.015612926,0.021979252,-0.014440797,0.030599728,-0.0073635043,-0.0066771633,-0.020439422,-0.018045017,-0.14564095,-0.13338119,-0.0037951309,-0.01983385,0.03796999,-0.20057072,0.18598977,-0.20658788,-0.013960658,-0.27324986,-0.061764073,0.03258697,0.027297392,-0.07334375,-0.24706852,0.03719152,-0.038891993,-0.06248622,0.01491481,-0.23182294,-0.043258525,0.100915894,0.12361012,-0.16754021,0.036485475,0.07091961,-0.02888131,-0.0868737,-0.03720325,-0.021157466,0.03262575,-0.1591146,-0.069603145,-0.16932729,-0.15542522,-0.017536616,-0.07450859,-0.040345654,-0.10015125,0.09631929,-0.0061303456,0.007053733,-0.048710305,0.09157174,0.021741573,-0.03569271,0.080157556,0.065081954,-0.02499356,0.014405089,0.011787651,-0.029729886,-0.0027970946,-0.019620163,-0.027704202,0.009879154,0.023741974,-0.07862229,0.047908187,-0.005846556,0.1530369,0.066769,-0.030035999,0.00075627724,0.019826397,0.17865905,0.03020104,-0.13568033,0.09654336,-0.055590626,0.18102916,-0.061749764,-0.095438905,-0.10409805,0.024296835,0.07033993,0.043187372,-0.06937737,0.049749125,0.06962089,-0.011234309,-0.048589475,-0.044044267,0.048059884,-0.028576005,0.0013724945,-0.10515568,0.18623699,-0.051975947,-0.19217423,-0.018628038,-0.12888098,-0.009605115,-0.05827954,-0.023673348,-0.0055543496,-0.108433425,-0.052356895,0.13676538,-0.022147423,0.004516059,0.012959741,-0.07875818,-0.024200954,0.03823307,-0.042667836,-0.075394034,0.066526115,-0.04947694,-0.022991389,-0.10907584,0.03513584,0.030487534,-0.023728652,0.05721386,-0.032754812,0.004305932,-0.043145,-0.045167897,-0.06451898,0.07786218,-0.019071285,-0.031407457,-0.043714236,0.046887714,0.0628646,-0.021932498,0.09653106,-0.044132497,0.15808159,-0.103745535,0.07864318,0.023331821,0.015133386,-0.018298373,0.045696307,-0.078714445,0.011953724,-0.08420519,-0.15244488,-0.17170973,-0.06704624,-0.14788143,-0.046445914,0.14727706,-0.16881469,-0.06665217,-0.022960925,-0.13909782,0.03851416,0.04617082,0.06934862,0.025094768,-0.1036458,-0.029747821,0.022862608,0.00587175,-0.058273762,0.075478286,0.06074692,-0.06268355,-0.12800837,0.02492245,-0.060829945,0.04949845,-0.081197865,0.017271603,0.11883104,-0.08455765,-0.041188877,0.05050331,-0.049747463,0.070271865,0.058907192,-0.010653489,-0.02101815,0.033368208,0.01448376,0.054775316,-0.00889763,-0.008021165,0.032327604,-0.022142267,-0.015447124,-0.19504084,-0.0003124715,0.0018784761,-0.016358865,0.015766764,0.09941078,0.155618,0.14948906,-0.13415754,-0.085073106,0.053823616,0.050162096,0.0461646,-0.009385066,0.11120794,-0.12171286,-0.008693691,0.16165473,0.023011735,0.06034284,0.100066684,-0.023962654,0.021858523,0.1256661,0.027107038,0.018753773,0.18749763,-0.007360587,-0.03244327,0.01460016,-0.042646453,-0.07745191,0.0060032853,-0.05801295,0.06987875,-0.09267605,-0.10312687,0.03344844,0.018684512,0.15171345,0.0024777907,-0.17927277,0.07032976,0.04956256,0.037530985,0.0499536,-0.012732376,0.071405336,0.006752502,-0.019161833,0.16888264,-0.06647697,0.083396636,-0.024550347,0.1080482,0.13317218,0.0056185476,-0.030992493,-0.028707493,0.02204913,-0.038123127,0.008698361,0.072127864,-0.027279988,-0.05509457,0.08386446,-0.053592246,-0.0015480157,0.17813025,-0.011759608,-0.023739902,0.040385265,0.055137847,-0.008590696,0.019989174,0.029438196,-0.15542461,-0.02225633,-0.10798367,-0.07422627,-0.01854794,0.041455448,-0.052865885,0.12891994,0.17886569,-0.030501803,0.04830802,-0.030276475,0.070580825,0.0077877003,-0.01848834,0.10602616,0.024358643,-0.07514082,-0.027891446,-0.0047652344,-0.109421454,-0.022242207,-0.027435955,0.053983103,-0.0016552266,-5.0947805e-05,-0.0033421235,-0.014852994,0.014716346,-0.07729422,-0.02232547,-0.11173298,-0.12424359,-0.06874287,-0.10589398,-0.014096072,-0.061886158,-0.00065632927,-0.029444557,-0.058077846,0.016320096,-0.02829532,0.03936986,0.04209729,0.051302563,0.03792357,-0.037322707,-0.04447571,0.030449107,-0.06479791,0.026159363,-0.0061336393,0.15900795,0.15624851,-0.12535965,-0.10271127,-0.05496877,-0.032455806,0.07330118,-0.07665485,0.13481854,0.047135253,0.12839384,0.06831491,-0.011349656,-0.05762179,-0.080706775,0.0071862647,0.004537489,-0.030746376,0.024589045,0.074366204,-0.0120504135,-0.04248791,-0.02019421,0.052533027,-0.035495013,-0.0065942686,-0.050751828,-0.042407915,-0.10896361,0.044344895,0.011229917,0.046783816,0.00721131,0.08401752,0.014097128,0.031393874,-0.08491084,-0.030989131,0.041140296,-0.052952975,-0.10309667,0.0126988655,0.037160527,0.017565629,0.0071852063,-0.019427402,0.07865416,0.0082754055,-0.024096789,-0.044483647,-0.10846201,0.010253516,0.033057556,0.017124306,-0.009519679,0.014509642,0.0203361,0.012631724,-0.030414728,0.025590725,-0.06554057,-0.046136487,-0.011409906,0.065911025
0.03142996,-0.030215403,-0.0063509,0.015033071,0.007524199,-0.013461591,0.0225472,-0.01821515,0.09859244,0.025800873,0.06366095,-0.08838552,-0.034987,0.09393619,0.051399153,-0.13056262,-0.16016862,-0.14828853,0.10666849,-0.057519507,-0.091911115,-0.037069775,-0.07629702,0.030644009,0.009967667,-0.07336306,-0.15851161,-0.020638987,0.010035102,0.04695116,-0.056767885,0.030827712,-0.0060914624,0.021916917,0.0106247645,0.020813046,0.028198002,0.36242205,0.07393664,-0.02344031,-0.124652974,0.0052231513,-0.05618809,-0.13334018,0.20404097,-0.07138486,-0.0033461107,0.09584925,-0.027659927,0.043267056,-0.08015769,0.04361215,0.04996309,-0.04607051,0.06373226,0.13018572,0.034991663,-0.006816324,-0.031595096,0.016077906,0.004404932,0.035262644,0.0006229053,0.0075141634,-0.0044200053,-0.03953856,-0.045805443,0.07948199,-0.034556083,0.017198216,0.05926575,0.006378947,0.045367897,0.03909027,0.09875318,-0.015849816,0.16877241,-0.008661701,0.06906054,-0.0022482332,-0.055479843,-0.014767815,-0.13941988,0.08567553,0.06897296,-0.16957887,0.078812405,-0.12632462,0.09371902,-0.0845688,0.0714475,-0.053238902,-0.056396805,0.04433158,0.017778147,-0.09883393,-0.057805557,0.12100557,0.016456276,0.0250495,-0.006647207,0.024984147,0.008868909,-0.07998061,-0.047333762,0.023449942,0.021083798,-0.032619357,0.09758192,-0.056798715,0.058766026,0.111482635,0.12344592,-0.11484632,0.043478087,-0.13718866,-0.027737869,0.08589536,0.1426291,0.22932446,-0.00063093984,0.039229035,0.11934629,-0.037877813,0.016523257,-0.0768157,0.07962498,-0.009280581,-0.012936284,0.0050323736,-0.031153968,-0.011004413,0.059473634,-0.05139623,-0.037704393,0.049284667,0.0432552,-0.12866664,0.04769671,0.033172056,-0.03488306,0.01675618,0.04352835,0.0017291291,-0.02709882,0.16088305,0.09858188,-0.03126064,0.0017985459,0.0235247,-0.0070278295,-0.019820452,-0.12396331,0.1391223,-0.06459334,0.11101379,-0.20020187,0.0049216747,-0.10457026,-0.08739184,0.15199873,-0.016070118,0.03936757,-0.0022335632,-0.04114891,-0.043172095,-0.09462161,0.071934834,-0.078743644,-0.120096885,-0.008426152,-0.07997651,0.11965157,-0.02753775,-0.19850338,0.07231458,0.0027426807,-0.19643971,0.031068746,0.00078353897,-0.058060545,-0.047169153,-0.07415226,0.14828497,0.007975016,-0.039591964,-0.056906864,0.023015194,0.07593472,0.0050369403,0.065238506,-0.026794689,0.04853889,-0.036254156,-0.03830317,0.011413571,0.07103978,-0.028340004,0.13326125,-0.14700976,0.08035448,0.05170187,0.1873489,0.09836021,0.08160442,-0.055971168,0.012537522,-0.09949285,-0.06515172,-0.06758846,-0.118847944,-0.16161747,-0.144766,0.1244429,-0.09589212,-0.18770552,0.08918905,-0.08776218,-0.0816932,-0.00017167557,0.099692345,-0.07772472,0.089185916,0.12124404,0.21812531,-0.09557523,-0.04607968,0.029237323,-0.20585361,-0.124545775,-0.02619582,0.018128896,0.10768508,-0.036310453,0.04835922,-0.013595676,0.09426349,-0.008864783,-0.039179984,-0.066450626,-0.013685076,-0.0038147056,-0.10830723,-0.092027225,-0.15104458,-0.059108693,0.09855569,-0.13536192,0.20507285,-0.009510136,0.10289177,0.041485615,0.13871586,-0.037884936,0.1199824,0.03254759,0.020583717,-0.054092444,-0.071703434,-0.062700175,-0.025373632,-0.026913797,0.056670398,-0.022088025,-0.08656641,-0.017255172,0.041628316,-0.061524596,0.08953036,-0.07497336,0.12476581,0.077742465,-0.07029758,-0.00888684,-0.011012026,0.015839718,-0.026629068,0.050581466,-0.14296104,-0.037190966,0.07680498,-0.059660733,0.054401584,0.0326124,-0.13024472,-0.006847355,0.032247607,-0.027982164,0.049649686,0.07278126,-0.04425786,-0.0072289095,-0.12598479,-0.09681465,0.014251494,0.013571172,0.18047632,-0.013293439,-0.0012692603,0.022908274,-0.088527,-0.039837576,-0.024733925,-0.053209014,0.034820117,-0.072068736,0.033198044,0.056945045,0.023808138,0.12175317,0.106708,0.021417296,-0.051114064,-0.02173003,-0.009000854,-0.055686463,-0.07368962,-0.14057583,-0.037437625,-0.13788106,0.022435134,0.01036034,-0.03756561,0.005425516,-0.011344559,-0.035602767,-0.027867872,-0.04501502,0.050850295,-0.07016868,-0.0056006843,-0.115895174,-0.07430089,-0.024333268,-0.021662433,-0.05774155,0.008322166,-0.059983857,0.0072158407,0.040984634,0.010804977,0.08576519,0.032233868,-0.04708562,0.052208338,0.008799707,-0.10608234,-0.04805333,-0.040979844,0.09114631,0.12789887,0.08753659,0.08568068,-0.0373797,-0.07059535,0.053174127,0.027590668,0.091691755,0.08918682,0.09660166,-0.10936497,-0.0892572,-0.11204606,0.045639936,0.01591878,0.09598968,0.09715796,-0.15202181,0.021551967,-0.13542566,-0.026373094,0.039846398,0.057248875,0.057100486,0.016136494,-0.023529952,-0.120394565,0.11308525,-0.09572546,0.05470219,0.23118864,0.029632477,-0.03201312,-0.017990448,-0.027683828,-0.024976939,-0.014672679,-0.011087356,-0.0074753156,-0.03186342,-0.014856219,-0.0034732537,-0.06872755,-0.1960598,0.036863614,-0.022022093,0.00058281125,-0.025397403,0.049825612,-0.18620762,-0.0019483974,-0.10472572,-0.04130954,0.05012688,-0.38559413,0.13561441,0.05235449,-0.020913873,-0.12481064,-0.015689751,0.16464028,-0.08837727,-0.09403705,0.10070426,0.09441334,0.007953011,0.15852383,-0.014766094,-0.016589958,0.1100486,-0.047194324,0.00037578458,0.01098453,-0.0065510697,0.0090024555,-0.03502173,-0.030590361,-0.09590402,-0.13147858,-0.13737777,-0.11278312,0.04073069,-0.041387968,-0.022708086,0.025634333,0.028429484,-0.008641178,-0.06320655,-0.017915865,-0.100349806,-0.03348039,-0.022430997,0.02008692,0.026892245,-0.030284254,0.01185673,-0.019509504,0.0036870344,0.0061926916,-0.11396301,-0.02764736,-0.074254215,0.108222716,0.06888259,0.005329284,-0.015454413,-0.049357202,-0.04569254,-0.04470976,-0.20104963,-0.0019578403,0.052885372,-0.03514224,0.011190072,0.036480226,0.053970233,-0.065949835,0.10644498,0.11629443,-0.0849284,0.038690448,0.0037160395,0.0625256,0.024040464,-0.03608554,0.044885695,0.09968481,0.022980679,-0.07315754,0.13379847,-0.15257534,-0.10880681,0.107931994,0.10323596,0.0709415,-0.01098755,-0.039807074,-0.022989541,-0.024272207,0.03611283,0.026519831,0.043566186,-0.005125362,-0.021834994,-0.06593146,0.01969781,-0.005797626,0.011121417,-0.03937153,0.06419173,-0.025152167,-0.15968074,0.029732844,0.038582712,0.13463534,4.9346687e-05,0.001134014,-0.025890103,0.02650989,-0.018113608,-0.048044633,-0.02585024,0.02771026,0.029051334,-0.020063931,0.14848146,-8.19995e-05,-0.12338844,-0.040725216,0.037653178,0.06276059,0.08465699,-0.0020334546,0.031174364,0.0069819493,0.048892338,0.30129093,0.036748827,-0.15364319,-0.02036187,0.00049695995,-0.048237972,0.0039031468,0.13777238,0.04750915,-0.017978225,0.1708404,-0.20355771,0.09729861,-0.0829062,-0.08875202,0.075025514,0.0006438036,0.073384,0.09881725,-0.049028497,-0.030798268,-0.050150815,0.033229206,-0.20373437,0.018452311,0.091879755,0.08509038,-0.04853261,0.0056278105,-0.08904165,-0.033038978,-0.042349648,0.04741934,0.004393244,-0.08164434,0.050741777,0.010930183,0.025040964,-0.07525381,0.061321665,-0.05654988,-0.070317365,0.09920824,-0.047847666,0.048524603,-0.00031312634,0.10282657,-0.007063504,-0.01399344,-0.0043014036,-0.13141967,0.06945931,0.01847304,-0.17700282,-0.072413206,0.0026530419,-0.01577945,-0.031633504,0.03682365,-0.111895315,0.08343263,0.016053302,0.030059556,0.054497078,-0.023981258,0.034619052,0.041630004,0.11272028,-0.0060543804,0.036914207,0.064845756,0.06891676,-0.101477765,0.046592638,0.0020634423,0.08122542,-0.030406993,0.03217422,0.041157354,-0.00084127474,-0.070276186,-0.04535184,0.035641484,0.00491187,0.11428095,0.06625725,-0.057215404,-0.019941803,-0.05183662,0.11406853,0.0034026126,0.034156214,-0.050445314,0.11740051,-0.080753,0.01886774,0.09935423,-0.04805913,-0.050387748,0.024674172,-0.1568843,0.015691714,-0.111173704,-0.036079694,-0.0047579985,-0.21342075,-0.029557822,0.021412315,0.028147887,0.10575741,0.03278055,-0.011979092,0.017612834,-0.035553847,0.09018045,0.063954875,0.08538315,0.0020658623,0.073361434,0.102549106,0.040445875,-0.03512651,0.03374584,-0.029701293,0.033459205,-0.0057988632,0.0925993,-0.011470711,-0.036028508,0.053282876,0.030666178,-0.17202665,-0.15016186,-0.04241677,0.12619726,0.014719433,0.1448111,-0.003097048,0.005875509,-0.058783725,0.10819405,-0.07006947,0.20926659,0.12709516,-0.08732758,0.01315314,-0.017769298,-0.017541466,-0.14791137,-0.10825685,-0.054742143,-0.057016023,0.09208787,0.04682118,-0.023757393,-0.028729849,-0.06971448,-0.095645025,0.051225916,-0.010909217,-0.05322578,0.0019693219,-0.011632693,-0.08486758,0.0077957786,-0.042825516,-0.047496498,-0.089377604,-0.114090234,-0.02541218,0.039489537,0.027966639,-0.014757614,0.008064639,0.0941348,0.0037693067,-0.08738516,0.06230878,-0.11574269,-0.128309,-0.054119967,-0.04347168,-0.010933148,0.024278043,0.04600032,0.046741676,-0.14257243,0.16351691,-0.20150842,0.13542514,-0.04880091,-0.068046495,0.034661338,0.06449312,-0.05948445,-0.028713875,-0.0012717647,-0.027506402,0.061776157,-0.09953837,-0.020266544,0.122743785,0.1283789,0.0024491188,-0.10902545,-0.014912001,-0.04355752,0.07084143,0.013126887,-0.09556798,0.08090523,-0.028068066,0.105747305,0.051790256,0.029642858,0.011372968,-0.043370232,0.062616736,0.011703464,0.044124987,0.04685254,0.04912562,0.047106836,0.04249344,-0.056406878,0.039501347,-0.059098635,-0.0018019453,0.028912432,0.07343049,-0.061871454,-0.030152753,0.091067456,0.0020828065,0.04146652,-0.046497382,0.044507995,0.04101108,-0.031146009,0.030238295,-0.10922226,0.002000846
