-0.05689444
0.041916806
-0.12155256
-0.04838611
-0.010750674
-0.05977094
-0.04145934
-0.05980932
0.0026458767
0.03027312
-0.14670356
-0.015296581
0.08155932
-0.10126729
-0.09406393
-0.07631007
-0.079191364
-0.22889231
-0.2392955
0.034206837
0.12156142
-0.2424019
-0.00028883098
-0.039362907
0.033622175
-0.07506277
0.060319852
-0.09740941
0.07836083
-0.023738554
-0.035237834
-0.22281566
-0.11751408
-0.01814375
-0.24344744
-0.08606551
-0.01924592
0.012600244
-0.113394536
-0.10481319
-0.25982723
0.06992447
-0.21703845
0.061013248
-0.18410495
0.028411904
-0.017852541
-0.20077722
-0.07339105
-0.021872267
-0.093156405
-0.17858206
0.095028184
0.013482282
0.082233064
-0.32162967
-0.051510323
0.037571233
0.10743672
0.0073219957
-0.48142138
0.10336415
0.007993693
-0.049733236
0.028506104
-0.097238064
-0.09670492
-0.012212071
-0.038971946
-0.04899864
-0.06585445
-0.1026587
0.06367656
-0.027675841
-0.029174197
0.028296325
0.06780614
-0.07055673
-0.051611755
0.042816736
-0.13294077
0.05262179
-0.09396177
-0.028746106
0.28862572
-0.15049556
0.10553656
-0.17134942
0.34952712
0.041255333
-0.22002882
-0.079390764
-0.03695945
-0.056574456
-0.08225268
-0.056646388
-0.0044738576
-0.027528474
-0.028074643
-0.21920569
-0.03373723
-0.001148648
0.05698273
0.02172883
-0.17736459
0.07932262
0.105659835
-0.045440674
-0.17693603
-0.15993235
-0.07218471
-0.11233426
-0.036523595
-0.18537046
0.15506352
-0.054238066
0.067252375
-0.03885477
-0.025943289
-0.12165831
0.10007095
-0.045106493
-0.21270601
0.019551208
-0.15210237
-0.0046144268
-0.11783255
-0.3449256
-0.08108276
-0.02942474
-0.031949524
-0.011617163
-0.0029035115
-0.108078234
-0.025031399
-0.16173923
0.16639203
-0.117363945
8.881094e-05
-0.01676687
-0.20183474
-0.06810534
-0.058838733
-0.23652856
-0.055503614
-0.172383
-0.1185881
0.068707556
0.15452504
0.021269625
-0.029398669
0.13528158
-0.09066533
0.047187988
0.018853785
-0.023904486
0.012898597
0.08382218
-0.33725217
0.045877267
-0.04583
-0.20730396
-0.085963115
-0.15169321
-0.045140404
-0.35297027
-0.14534779
-0.13032615
-0.0093500335
-0.054620866
-0.022589417
-0.011816358
-0.046250045
0.03927679
-0.16215709
-0.0609704
-0.03542045
-0.10581134
-0.24122618
-0.02773872
-0.3652757
-0.0031078134
-0.09280348
0.09515427
-0.08278874
-0.023790862
0.021443743
0.00012616323
-0.03128731
-0.06969133
-0.3112393
-0.060811125
-0.08437849
-0.5157398
0.039080616
0.026828311
-0.054470465
-0.21559064
-0.1607974
-0.23636709
0.0059455405
-0.1935034
-0.06702698
-0.03753876
0.008060813
0.10965177
-0.13857622
0.11100105
0.13593666
-0.051978327
-0.04130444
0.032095086
-0.087057196
-0.013848402
-0.057444304
-0.031132046
-0.07195736
0.10687379
-0.044444773
-0.108875796
-0.19850568
0.08160266
-0.07446523
0.016802566
-0.11976955
0.2510714
0.07050764
-0.04543811
-0.062394124
-0.14432204
-0.1496606
-0.031120742
0.0690388
-0.05515091
-0.15938471
-0.1502937
-0.19226015
-0.12440079
0.06731478
0.06465971
-0.029058937
-0.048723225
-0.028877713
-0.09945249
-0.2652615
-0.04707283
-0.033604976
-0.07903267
0.095585234
-0.1401094
0.1541202
0.0603827
-0.048155308
0.096556306
0.049429115
-0.28550506
