-0.089496344,-0.14329983,-0.031357788,0.1903247,-0.75594765,-0.08309703,-0.3346746,-0.28073534,0.03223004,0.3228109,-0.34609583,0.01487163,-0.14928482,-0.368722,-0.84879297,-0.61999774,-0.04552881,-0.79205704,-0.3407386,-0.3531871,-0.0753241,0.11301545,-0.0637111,-0.6988418,0.3065926,-0.7256037,-0.42593822,-0.059606347,-0.16810249,-0.6198611,-0.07749008,0.26807275,-0.31923842,0.19005549,0.27181712,-0.46525922,-0.6617599,-0.40901312,0.64079446,-0.28027955,0.112470314,-0.16893728,0.27646926,-0.21398443,-0.23061278,0.3026111,-0.50430775,0.094288744,-0.09044925,-0.28163055,0.21202567,-0.48443162,0.0968221,0.12519138,0.08606607,0.0526419,0.42058313,0.3458913,0.21381812,0.5369744,-0.30372834,-0.4811357,-0.55469996,-0.06996696,0.31527132,0.39970002,0.36150634,0.29367357,0.07802483,-0.32292452,0.3816511,-0.41690436,-0.3905411,0.11279727,0.4054494,-0.030878723,-0.49329892,-0.7311542,0.1568304,0.04472776,-0.7739483,-0.4129277,-0.67180294,0.05951183,0.054857776,-0.32365522,-0.49309856,-0.32975256,-0.4266047,0.20428857,-0.22348635,-0.030231062,0.26653242,0.24483053,0.09876342,0.6698641,0.10068881,0.069775864,0.084742546,0.29411548,-0.49736792,0.06372655,-0.20930623,0.27412197,-0.1799096,-0.21704158,-0.0876255,-0.21688741,-0.41703013,0.2546879,-0.2259339,-0.7379469,0.29695907,-0.5599512,0.38630173,-0.13847376,0.64285046,-0.6108362,0.3466322,-0.4123767,0.85880184,0.16364495,0.28949016,-0.21764928,-0.42393127,0.6232139,-0.22975405,-0.3066901,-0.661941,-0.5830221,0.33969054,-0.0907932,-0.22807717,0.29521847,-0.44050014,-0.1117847,0.047583017,-0.3807297,-0.23819207,-0.6638466,-0.34576103,0.10551172,-0.40868974,-0.39578366,-0.004357862,-0.4093734,-0.2135977,-0.027234096,-0.23477365,-0.28267232,-0.5112215,-0.28608966,-0.18525599,-0.36397904,0.03183361,0.5916285,-0.60908955,-0.66428256,-0.029343164,0.6291637,-0.26819557,-0.5327449,0.0773328,-0.6366748,0.18048061,-0.44182804,-0.40595037,-0.44664744,-0.07850458,0.22690158,-0.15907368,-0.015001144,0.07263049,0.22805922,0.46122643,-0.46968502,-1.4076796,-0.2593823,0.0469071,-0.5539073,-0.41385207,-0.01848183,0.1775901,-0.37847647,-0.16352682,-0.06880092,0.23713313,-0.6000606,0.4363214,-0.117583826,0.54011524,-0.20089227,-0.556534,-0.1381696,0.054803196,-0.3124977,-0.28472576,0.021047434,-0.3577768,-0.48290396,0.03933656,0.653764,-0.24465822,-0.61387193,-0.5089666,-0.40656978,-0.4645594,0.070739485,0.31143576,-0.38155565,-0.088756025,-0.4459358,0.062622696,-0.4069807,-0.055025242,0.034040328,-0.45750308,-0.23704252,-0.3197721,-0.1898403,0.40230942,0.0019895174,-0.36436117,0.76915723,-0.28097603,0.07141764,-0.08213874,-0.20252334,0.7530556,0.24116011,0.12937775,0.06771221,0.14885807,0.51358247,-0.34473225,-0.013539469,-0.21755618,0.10190153,0.7479429,0.05197388,-0.6073809,-0.47200334,0.14502996,0.0015975798,-0.5047741,-0.36461058,-0.30270433,0.4166344,-0.20003247,-1.1190454,-0.07136907,0.025911726,-1.33842,-0.2818176,-0.062423885,-0.48681337,-0.61153024,-0.19941689,-0.29562408,-0.7116302,-0.04920879,0.11145724,0.5996639,-0.38918093,0.17126484,-0.36878073,-0.31489086,0.025886294,-0.8856998,-0.21787825,-0.5214209,0.040647175,-0.48040727,0.4652381,0.0716493,0.11338363,-0.23466383,-0.3298759,-0.10740732,-0.4699104,0.061869003,0.06720044,-0.47877657,0.755721,0.27043074,0.3099116,0.101309456,0.39387333,-0.107635036,-0.86953145,-0.5863427,-0.3840813,-0.298415,-0.67100644,-0.47357783,-0.30154932,-0.45946303,-0.4996202,-0.29287308,-0.65580404,-0.4393716,0.058175605,-0.4798304,0.022341289,-0.34775794,-0.38821486,0.038497057,-0.855655,-0.34103543,-0.045823235,0.46810684,-0.5071201,-0.40503812,-0.108967304,0.4338918,0.088627994,-0.72113156,-0.3800991,-0.57479614,0.0435164,-0.58507085,0.3072552,0.22135079,-0.09036152,0.35091847,-0.37248138,-0.4587397,-0.3764185,0.042853598,-0.40405625,-0.43887183,0.45899338,0.36072817,0.03971146,-0.391481,-0.91158074,0.89584947,-0.5541273,-0.32675582,-0.1278351,-0.3341308,0.1281355,-0.5816505,0.08644919,-0.4340375,-0.2554468,0.4574853,-0.36758262,0.09782301,0.0644538,-0.40337434,0.04046316,0.6090034,-0.60160875,-0.5425699,-0.34364024,-0.48249203,-0.19259684,-0.46773836,-0.69379646,0.5517491,-0.3737983,-0.30154082,-0.3884638,-0.40553018,0.19341259,-0.29712158,-0.35420355,-0.8653771,-0.57893366,-0.38655245,0.48035342,-0.53473014,0.54580575,0.034839306,0.20270969,0.49376944,-0.18178691,0.090560846,0.66246176,-0.03762551,-0.5042418,0.6440642,-0.29435378,-0.1485391,0.62914205,0.22352935,-0.17797114,0.5305947,-0.39175254,0.09206501,0.6280894,-0.29213563,-0.041632254,-0.14058413,-0.13267162,-0.022038495,0.20787208,-0.6233794,-0.61974835,-0.41516528,-0.47092402,0.2001779,0.49279413,0.14639658,0.28423518,0.28934303,0.16849513,-0.5266879,0.2790966,0.0988793,-0.6764558,0.030648198,-0.19236882,-0.015813682,0.2187086,-0.15243244,-0.65342546,0.029730218,0.06692276,-0.45090327,-0.079249576,0.15710256,-0.35975274,0.056600627,-0.2768063,-0.80245435,-0.16979378,-0.56052727,0.2233525,-0.38935444,0.06958341,0.035203863,-0.23626363,0.0618458,0.06050771,0.07625984,-0.6085292,-0.36882377,0.4521198,-0.32106754,-0.27516192,-0.5061192,0.12748699,-0.57690334,0.44626227,0.0065144673,-0.18263468,-0.3482258,-0.33699667,0.16570953,0.44662488,-0.56155217,0.5270709,-0.41650957,-0.42691767,-0.1268601,-0.12802184,-0.5723905,-0.26233426,-0.5018379,0.88456506,-0.2252179,-0.40590295,0.806217,-0.16674508,-0.013072732,-0.36929426,-0.44084355,0.04790788,-0.29311097,-0.69697624,0.5583563,0.4017751,0.22229613,-0.2763849,-0.063129395,-0.4479813,0.42544374,-0.45294476,-0.04728199,0.78976166,-0.57906294,-0.28201467,-0.43397918,0.08202713,-0.19341265,-0.15256487,0.31469232,-0.64930207,-0.41065314,-0.106772356,-0.0291787,-0.652368,-0.011561826,-0.6243819,-0.30515698,-0.21358162,-0.27279428,0.06964208,-0.51898766,-0.11269442,-0.6457703,-0.63292783,0.332071,0.115210354,-0.20234281,-0.23879468,-0.4583847,-0.083751574,0.055318218,-0.20376283,0.4785184,-0.13503602,-0.07305469,0.078171894,-0.303546,0.026544247,-0.66723883,0.22724506,-0.35103658,-0.4353576,-0.38102084,0.24671713,0.55773777,-0.2458961,-0.40186983,-0.67353815,-0.21431062,0.07917,-0.8813534,0.582774,-0.15092365,0.08234843,-0.1962064,0.104180954,-0.15882622,-0.5290183,-0.4247618,0.3435298,-0.3514702,-0.16130702,-0.17850637,0.63493866,0.3514859,0.44201878,0.4213702,0.36989155,0.3132884,-0.24296795,-0.6615073,0.93613523,0.19128208,0.55943984,-0.4633279,0.1830479,-0.53009135,0.08525549,-0.34182796,-0.35573006,-0.43100652,0.41386282,0.122655794,-0.37489912,0.1323159,0.17335731,0.38242266,0.5176832,0.7445247,0.09523325,-0.01737904,0.21764642,-0.5592295,-0.32917464,-0.20396782,0.2783924,-0.48761654,0.11739355,-0.3933966,0.13992321,-0.5249342,0.69134206,-0.4019557,-0.21569473,0.11658603,-0.1810209,-0.4859734,-0.44294152,0.0049448614,-1.127621,-0.6981775,-0.11544204,-0.2590245,-0.41698074,-0.38771218,0.036888346,0.7785363,-0.36969396,0.45788082,-0.38629976,-0.33084986,-0.6045596,-0.19452322,0.084796734,-0.44313106,-0.21560213,0.05187441,-0.48323315,-0.21528797,-0.05559324,0.17519334,0.8012946,-0.39575723,0.67401975,-0.4889886,-0.35394037,-0.24264425,-0.41124848,-0.5810422,0.0586513,-0.39028627,-0.21531971,-0.82866174,0.38288954,-0.14433984,-0.3678845,0.17876013,-0.25827748,-0.51714194,0.09422559,0.115317136,0.012921598,-0.1585993,-0.30588707,0.069348246,-0.83368754,0.62798405,-1.4013034,0.5280124,0.08912255,0.12011895,0.3490228,-0.27374515,-0.50446,0.04097034,-0.29962817,0.19968759,-0.36476496,-0.28767562,0.28574467,0.26666144,0.36891583,-0.55551916,-0.025134962,-0.6784398,0.06479316,-0.20999123,-0.1577645,-0.054815024,0.5530007,0.53360844,-0.10168069,-0.5279594,0.13637806,0.12295159,-0.44185135,-0.42482963,0.7161112,-0.7658063,-1.2501822,0.05316321,0.596335,0.055870797,0.07686084,0.19518226,-0.025901373,-0.44223258,0.083261885,0.20806076,0.070321165,0.37232724,0.21666546,0.24001357,-0.28673345,-0.43620983,0.2624123,-0.07426083,-0.58335876,-0.15046075,-0.0027415692,0.062270377,-0.029586373,0.71107537,0.064550996,-0.17569636,0.12560458,0.20488101,-0.42747992,-0.089723825,-0.23547812,0.081790075,-0.32421204,0.07575771,-0.5418358,0.016375454,-0.4670706,-0.07207701,-0.2585275,-0.25782007,-0.43063238,0.031857558,0.1609668,-0.3290132,0.060659096,-0.4410174,-0.3765318,0.102082096,0.22139482,-0.28968155,0.080478296,-0.11121629,-0.24612775,-0.6796256,-0.38313654,0.49425176,0.56970936,0.83267695,0.1477146,0.0913981,-0.30265826,-0.68258584,-0.17282057,-0.4959102,-0.48881736,-1.1034272,-0.26167136,0.6059574,-0.22841896,-0.023317467,-0.6516582,0.18864729,0.07162635,0.5424846,0.6108229,-0.018261341,-0.2287964,-0.39461318,0.08207112,0.389003,0.094792075,-0.005752295,-0.009340008,-0.17691708,0.524331,0.44687355,-0.09924573,-0.25796857,-0.37849927,0.015024308,-0.6418836,-0.5957993,-0.030709106,0.055147268,0.043802492,0.6955363,-0.48366663,-0.31351498,0.5871855
