-0.026198544
-0.0027682923
-0.01621852
-0.028486066
0.009303257
0.017898874
-0.007101276
0.025208605
0.035754774
0.07551905
-0.020871213
-0.022828672
0.0026318165
-0.0028804415
0.0074979407
-0.016213197
0.008881607
0.032761067
-0.09976185
0.013253114
-0.010574285
-0.066316195
-0.002026332
0.0053694346
0.05040676
0.06583054
0.01908311
-0.0053305523
0.005067653
-0.11416943
0.0071015945
-0.025047036
0.011515734
0.037345946
-0.06404043
-0.039206024
0.042584065
-0.01367364
-0.04240742
-0.08508784
-0.03321287
0.016377252
0.07184153
-0.0046160733
-0.051320605
-0.06958209
-0.0407694
0.012852872
-0.011517996
0.006964072
-0.024011081
-0.055950046
-0.029707901
-0.07545702
-0.023540804
0.024128372
0.06154556
0.0877468
0.012171129
0.09603093
0.03396804
0.016582537
0.004823797
0.0010410624
-0.036892585
-0.03744187
-0.029408673
0.042850748
0.026037076
-0.041057616
0.09300284
0.001865865
0.006977728
-0.05887386
0.043575827
-0.027661955
0.012720247
0.040515985
0.01834991
0.01981392
0.055303637
-0.1398938
0.032340404
-0.019174231
-0.023143942
-0.03924266
0.03784327
0.00904269
0.021680206
-0.07134898
0.0029055066
-0.00044329258
0.010347299
-0.016645743
-0.03577763
0.046503264
0.08173352
0.0073533594
-0.021130625
-0.05849186
-0.0020352232
-0.04702411
0.0009591928
0.0041064047
0.01910895
-0.010549921
0.0006442164
0.021795636
0.04104956
-0.0063455747
-0.0049704397
0.042839043
-0.030874934
-0.0008040204
-0.043834675
-0.011300685
-0.05752047
-0.07382983
0.05938589
0.033508252
-0.042026978
-0.0074261236
-0.02613359
-0.011056321
-0.055708215
-0.01088742
-0.009546886
-0.042612355
0.020145904
0.01839183
0.04688189
-0.025012186
-0.027084332
0.06452205
0.027094174
-0.020356128
0.01001972
-0.043137915
-0.05160775
0.019558666
-0.08065976
-0.0071037337
-0.041668583
-0.035613492
-0.03293493
-0.10074756
-0.029024836
-0.027675241
0.0280168
-0.0007273619
-0.007327742
0.009939787
-0.022951838
-0.020951482
0.04684047
0.059880015
-0.155928
0.01976203
0.0020424172
0.08436508
-0.00120238
0.007968764
-0.0012620693
0.04782511
-0.123908944
-0.008077711
-0.03342489
0.02400796
5.085354e-05
-0.079412766
-0.008851601
-0.03392373
0.010126976
-0.053779315
0.02937776
-0.029284734
-0.42818552
-0.023732178
0.020226683
0.008951441
0.0051298197
-0.020697199
-0.027032008
-0.010587633
-0.018084763
-0.0022206705
0.032134533
0.007874163
0.04232664
-0.005770541
-0.10709365
-0.024294639
-0.10350464
-0.017669842
0.014413821
0.057066992
-0.02658003
0.022064043
-0.042403772
0.037378427
-0.03420621
0.006890178
-0.08987874
0.035338342
0.016532294
0.022440735
-0.01680723
-0.027886955
0.03548064
0.032873794
-0.0012832261
-0.13100752
-0.04987042
-0.028155087
0.01884386
0.022129422
-0.04489991
-0.0054841884
0.016903361
0.027202837
-0.041934367
0.009990282
0.029584657
0.083786584
-0.047371276
0.03578445
0.02749061
0.00080906827
-0.059548855
-0.019011524
-0.008769687
-0.030704046
0.052255392
-0.081747755
-0.011605346
0.008144533
-0.030155312
-0.021312803
0.1153762
-0.0030569064
-0.06773177
-0.020125479
-0.037833273
-0.0087581705
-0.03184461
-0.039055053
0.01802301
0.105129
0.0066682473
-0.05422042
-0.02651123
-0.03690756
0.028224593
0.0391217
0.011737267
0.015832238
0.017323941
-0.0022313527
0.02501051
0.019765642
0.014134614
0.07066986
0.03423535
-0.09063386
-0.04487035
-0.020211076
0.0046655564
0.011814638
-0.07811785
0.0015332643
0.02780754
0.012202194
-0.018941583
0.032719698
-0.042887986
-0.09157895
0.01781932
-0.037864756
-0.018992607
-0.035203204
0.039706517
0.025821282
-0.10197234
-0.07944231
0.03604077
0.02659964
-0.016427334
-0.08226871
-0.016943047
0.04933551
-0.019918334
-0.05343231
-0.018366758
-0.009108904
-0.044957172
-0.00550419
0.0056823967
0.037721973
-0.01733842
-0.030940166
0.033427045
0.0009388899
-0.09452326
-0.010850712
-0.0006029528
0.011740496
-0.032183267
0.06949227
-0.012398557
-0.027680483
0.14549272
-0.0030512924
-0.046611484
-0.014443042
-0.019026378
-0.0061225416
-0.07263346
-0.061230432
0.026228823
-0.031501934
-0.10509552
-0.040703926
0.03826688
-0.010928864
-0.03796289
-0.026827287
-0.063628
0.04833867
-0.02573777
-0.041079417
0.035600413
0.002893736
0.13871448
0.016449008
-0.054022286
-0.09618602
0.017945811
-0.026462046
-0.07080419
-0.012740572
-0.012885579
0.0020939782
-0.094086275
-0.0850878
0.021895222
0.048087496
-0.082481876
0.008719675
-0.059415437
-0.023231803
-0.029437795
-0.013073585
0.06293418
-0.02991224
0.050316826
-0.026468543
0.007773104
-0.019008517
0.02139257
0.036679443
-0.006590873
0.011316847
-0.14788465
-0.021395184
0.0162154
-0.0015898895
0.0033834258
-0.018543284
0.017760953
-0.008235687
-0.021030296
0.0624538
-0.010348485
0.09810089
-0.010761819
-0.12022837
0.06769573
0.01461235
-0.05970254
0.056351148
-0.00940718
-0.01962874
-0.088648
-0.012104429
-0.024434742
-0.04706718
-0.008005849
-0.009825691
-0.02041554
0.00023042
0.024037065
-0.037282787
-0.0026371628
0.019029839
0.014022078
-0.014388789
-0.036477398
0.0020242764
-0.019035662
-0.16998596
-0.05000713
-0.037834194
0.0402627
-0.08721136
-0.02386192
-0.04970849
-0.029801527
-0.048003014
-0.012179091
0.05675193
-0.02433039
0.015479205
-0.030858194
-0.014961968
-0.015704084
-0.0090867225
-0.031206032
0.04062923
-0.014153727
-0.014526204
0.010671156
-0.002189308
0.05045485
-0.0041003483
0.050350938
0.024568848
-0.046681363
0.021427872
0.008738643
0.038305286
-0.0014460929
0.011206243
-0.0057430365
-0.015516782
-0.040397003
-0.022250576
-0.063561924
0.0051146667
-0.010124931
0.06261397
-0.034288768
-0.034177314
-0.023743015
-0.015578643
0.026763678
0.08009408
-0.036908265
0.013776444
-0.0027838477
-0.013763019
-0.00080306217
-0.06555488
0.041701492
0.110995665
0.0156127615
-0.09124771
0.0009302711
-0.02103603
-0.01124841
0.019795127
-0.09698674
-0.2445721
-0.009735747
-0.01037998
0.085844815
-0.027570657
-0.005148097
-0.09103802
0.02962164
-0.01448608
-0.03059255
-0.065947406
0.0030850477
0.021291548
0.0064576548
-0.015222496
-0.01754793
-0.02004728
-0.10527089
-0.032544337
-0.008914855
0.11851517
-0.013214558
0.006902234
0.023235604
0.010367933
-0.0060651964
-0.04397896
-0.044419743
-0.027752012
-0.060958564
-0.023767836
0.001446562
0.03826859
-0.031083668
0.02959436
0.0096638575
-0.04372277
0.03076543
0.008380054
0.022440013
0.005060547
-0.08942314
-0.069859914
0.0434648
-0.03971623
-0.0074578333
-0.023637975
0.0058841147
0.015928024
0.037243437
-0.013209951
-0.107068345
-0.033324864
-0.02348782
0.072380066
0.007983111
0.018981444
-0.02040448
0.04269377
-0.006646327
-0.027713846
-0.05077489
-0.01277461
0.03639206
-0.043446608
0.01621042
0.044285074
0.030640371
0.054577764
-0.03395518
0.057744216
-0.036892995
0.07823626
-0.029822785
-0.055994343
-0.010582446
-0.08866978
-0.02565648
-0.014293635
0.014641824
-0.04094838
0.008409725
0.07246956
0.039142
0.114482254
0.073672585
0.077186264
0.027850652
-0.009546691
0.016870253
0.08994127
0.011777446
-0.048059206
0.021553313
0.03613343
0.018285146
-0.06413767
0.008181967
0.042272013
-0.0010889497
-0.029380482
0.04901414
0.02250665
0.041546997
0.037136924
-0.11638081
-0.13501687
0.120691374
0.017485425
0.02854299
0.04580396
-0.034034457
0.014727655
-0.049854476
0.020576099
-0.0400454
-0.054044873
-0.04774208
0.06423025
-0.016703222
-0.017437749
-0.0965123
-0.010139509
0.033491034
-0.02872067
-0.012137086
-0.09642705
-0.01919582
0.01226017
-0.16261128
-0.008168879
-0.04291861
-0.02407602
-0.020530237
-0.03120042
-0.075860165
-0.075439304
0.15885445
0.05279007
-0.008170893
-0.06543991
0.030197145
0.037160374
0.04501871
0.009481045
0.055506323
-0.05839084
-0.038254645
-0.010674627
-0.0073555782
0.0704273
0.044889707
0.07377658
0.017691663
-0.04527541
-0.005655571
-0.007948958
0.007109811
0.041904196
-0.0006775971
-0.03470462
0.04320038
0.031549796
-0.015633889
0.016226333
0.06673717
0.0010804546
-0.1489325
0.019016784
0.033780847
-0.00090834085
-0.0062943962
0.016124424
-0.060649686
-0.077298574
0.009684923
-0.45556095
-0.09794483
-0.05185354
0.038449578
0.062006887
-0.07207951
-0.0021224965
0.023719162
-0.05175321
0.023480305
-0.060672533
-0.022106415
-0.015375666
-0.06793214
-0.051786486
-0.030641759
-0.035322197
0.03217007
0.021422377
-0.064280204
-0.029272899
-0.0052560205
0.05607507
-0.05439041
-0.029560056
-0.0022916193
-0.048808508
-0.0017767729
-0.01759349
0.049515743
0.093908265
-0.018720705
-0.023355953
0.011504322
0.14665137
-0.0359893
0.028698293
-0.0067528174
-0.0061910665
-0.019407203
-0.0253329
-0.03515595
0.042951375
-0.026870165
-0.03846132
0.032710303
-0.029083189
0.070691526
-0.02454304
0.005322161
-0.0029386498
-0.034439325
-0.03477719
0.03980216
0.001174392
0.029231835
-0.013549896
0.003996001
0.041709356
0.04494382
0.05148741
0.010712117
0.004296358
0.009809273
-0.006417248
-0.0011890975
0.026190782
0.0122426385
-0.021876866
0.0047308058
-0.0017345281
0.018813461
-0.012331882
-0.007764982
0.0365389
-0.059953474
0.037728243
-0.008377941
0.037801806
0.093712896
0.008525763
-0.014337453
-0.009484875
-0.0033456562
-0.028972214
0.03914238
0.010445979
0.07146455
0.04927197
0.2090357
0.011387445
-0.035191555
0.018696843
-0.19250767
-0.055317838
0.0402619
-0.0008368269
0.0015077912
-0.025724035
0.08009937
-0.0147954635
0.010596929
0.008553913
-0.018215906
-0.035149068
-0.026062578
0.080750085
-0.030005082
0.017269442
0.0018609044
-0.009523673
-0.03449032
-0.009050621
-0.024608718
-0.024205158
-0.0046998593
0.019845005
0.041612767
-0.00670421
-0.0074674976
-0.014771488
0.031270646
-0.025700474
0.0122780455
-0.009147047
-0.004137742
0.04995946
-0.070361935
0.012863024
0.015487687
0.119769186
