0.01196045
0.038416944
-0.11813369
-0.057718072
-0.032919127
-0.024794396
-0.040925507
-0.08782419
-0.039606035
0.06303979
-0.014230766
0.103841916
-0.049130823
0.07747851
0.0050364323
-0.019118728
0.0032780431
-0.12747096
-0.055080198
-0.2909966
0.03715256
-0.012682577
0.020593878
0.06405033
0.00033952648
0.041717287
-0.102696925
-0.061661195
-0.057725977
0.0056353705
-0.050233547
-0.045902338
-0.004168716
-0.015849587
-0.0024550324
0.016308518
0.0024429199
-0.024307499
0.037240896
-0.0988238
0.014668351
-0.065312065
-0.12656227
-0.010525256
-0.034008693
-0.111412525
0.06908861
0.1069075
0.042600296
-0.024699448
0.068203755
-0.09980863
-0.042851727
-0.019820806
-0.049597602
0.009275819
0.0016548884
-0.08151518
0.008210747
-0.039027307
0.00655516
0.009930636
-0.022731416
0.02220177
0.004708106
0.056760825
-0.039848603
-0.07714569
-0.045065537
-0.00833854
-0.01759227
0.012787309
-0.12942436
-0.13862109
-0.02584617
-0.06491895
0.035905723
-0.0020779613
-0.07561042
-0.020859636
-0.014033073
0.0049361405
-0.0496173
0.021816364
-0.005116648
0.045109026
0.20862073
0.01294221
0.015059282
0.07321243
-0.031667434
0.056366317
-0.022636915
0.097045094
-0.3053794
-0.008071243
0.03790977
0.04448856
0.013930816
-0.036506947
-0.14919226
-0.2702575
0.15724766
0.031521056
-0.14375584
0.030067531
0.004127526
0.010016272
-0.03245469
0.02587026
0.04663538
-0.046469484
-0.049725194
-0.028358072
-0.08498893
-0.008328964
0.008197822
-0.09257044
0.031181965
0.053628873
-0.07051146
0.09286362
-0.0058963425
-0.317561
-0.0069667455
0.030699322
0.08456016
-0.0030143273
0.13741079
-0.06409154
-0.07691611
-0.18149613
0.103243604
0.023996284
0.090106666
-0.00051893154
-0.048362385
-0.024585834
-0.1333572
-0.0019500839
-0.0018541664
0.0077488637
0.08832395
0.019772146
0.13637692
-0.09434533
-0.0956858
-0.017705323
0.0131270625
-0.05557262
-0.008562392
-0.24141757
-0.18177539
-0.011500941
0.06739332
0.012253055
0.037432075
-0.010684446
0.009342143
0.09139967
0.0057850494
-0.034969233
0.02387454
-0.057556655
-0.04934281
-0.0047362894
-0.012941859
-0.16980408
0.04877982
-0.0127851255
0.06572882
-0.12969457
-0.069878034
0.05777087
-0.029485077
0.022821285
-0.086338714
-0.016403591
-0.05832873
-0.1667713
0.05901223
-0.029065376
-0.06418594
-0.019619731
-0.029682565
-0.0043291776
-0.050265826
-0.051432736
-0.029736372
0.08383365
-0.038823552
-0.008836671
0.100819886
-0.0795249
0.015006097
0.0021013725
-0.03286499
-0.005348795
-0.031028267
-0.014476101
-0.05371823
0.0149145555
-0.121922195
-0.009583038
-0.075515024
0.066274375
-0.018540492
0.03281483
-0.020746706
-0.0020449788
0.09233151
-0.026699612
0.089674294
0.031128304
-0.050308388
-0.05359272
0.03564325
-0.076802626
-0.008462714
-0.05546889
-0.034758247
-0.13240501
-0.07143643
0.04540689
0.0018531363
-0.099441126
-0.013629144
0.054423697
-0.09083183
-0.079057775
-0.018573688
-0.00863368
0.023964072
-0.039067645
0.049994588
-0.021061938
0.06114413
-0.14256223
-0.104937285
0.0655832
-0.010627452
0.022588424
0.015987745
-0.0015305488
-0.024355039
0.08177319
-0.122573905
-0.047008894
0.005919682
-0.02353512
0.038266268
-0.056754
0.0025556984
-0.10306859
-0.07891232
-0.06314051
-0.036258433
0.06596633
-0.05822139
-0.21496995
0.11426598
0.022679234
-0.034677636
-0.06842682
-0.002199294
0.029145274
-0.036277622
0.0020505262
0.0048695905
-0.045971267
-0.051902004
-0.011237897
0.02595568
-0.0065736566
-0.054955848
-0.068916105
0.0009536374
-0.04809094
-0.02325578
0.05127112
-0.120262295
-0.011892978
-0.07875956
-0.001733117
-0.054160055
0.035431363
0.01537056
0.020119796
-0.28313205
0.13983496
-0.0045728106
-0.04738565
0.09485938
0.007942391
-0.069771655
0.07441708
-0.039094713
-0.011832189
-0.008745424
0.044319045
-0.21943535
0.015725056
0.008537117
-0.03332694
-0.03189705
0.058587335
0.027416758
-0.20009218
-0.11830551
0.0574548
-0.02383455
-0.0031424258
-0.01828421
-0.025250908
0.006562108
-0.054390356
-0.028172124
-0.1454641
0.06459589
0.06264243
-0.0044985255
-0.019681662
-0.019709691
-0.08107715
-0.10127353
0.064700134
-0.026627088
0.027362073
-0.036558807
-0.100224204
-0.1777408
0.053468365
0.0029453565
-0.009256502
0.07485048
0.010896135
0.004131947
0.0679578
0.008606473
-0.134136
0.04332843
-0.006655654
0.0695012
-0.056599643
0.027405325
-0.0029211259
0.04201473
-0.13972734
-0.027560424
0.040585533
0.007488915
-0.1429165
-0.06206464
0.01903528
-0.041617945
-0.03348675
-0.034796957
-0.19815831
-0.11631576
0.08230778
0.01619911
-0.10956197
0.16965371
-0.1371936
0.10437131
-0.01763886
-0.048938572
0.016595552
-0.013140602
-0.19214526
0.0322547
-0.017071476
0.14571652
0.067088604
0.14651628
-0.04559516
-0.12048053
0.039520986
-0.025170296
0.010199947
-0.07832039
0.085571304
0.097293824
0.048981223
0.040091466
-0.027324008
-0.14508757
-0.014633122
-0.038861543
-0.014642366
-0.072396114
0.049205735
-0.0042676665
-0.05757228
-0.081265256
0.013257381
0.113321334
0.14239152
-0.053697266
0.0054428787
-0.07320964
-0.0037351204
-0.08222328
-0.055120803
-0.14400035
-0.048480283
-0.002038949
0.06968642
0.037140217
-0.23594078
-0.023353951
-0.112142466
-0.043808255
-0.10628511
-0.092141815
0.057903808
0.008658841
-0.009452511
0.015352918
-0.0010886897
-0.009190434
-0.051281434
-0.0028896888
0.07559768
-0.11980586
0.037529707
0.016430974
0.032228716
-0.4326887
0.08191705
-0.13655394
0.070863195
0.03358087
0.090779625
-0.031341672
0.020225706
0.006230207
-0.008459597
-0.09829123
-0.08232424
-0.010859784
0.08840534
-0.02406496
-0.06934451
0.042842954
-0.07032325
-0.03465373
0.017630953
0.03772554
0.13305126
-0.0481797
-0.094321966
0.02855861
-0.26056343
0.023643717
0.0352364
0.015800454
-0.037264194
-0.08524979
-0.06500761
0.031788144
-0.119800895
-0.085994735
-0.038525913
-0.11347503
-0.12380023
0.02276505
-0.032230925
0.051465504
0.0162932
0.07043508
-0.16123699
-0.077565126
-0.055387087
-0.019919304
0.015682967
0.0030960152
-0.07479181
-0.034786664
-0.056432046
-0.016517052
-0.008893955
0.008284119
-0.0038164407
-0.12935248
-0.12621884
-0.029757999
-0.047040943
-0.013973068
-0.2389144
-0.015914666
-0.08612246
0.026264403
-0.036327247
0.03281521
0.05608429
0.061950516
-0.017582767
0.05393946
-0.035457987
0.100431584
-0.03220348
-0.08189071
-0.0034785906
-0.012776454
0.017482452
0.0017785524
0.041936737
-0.039817277
-0.062626064
-0.0204287
0.070661455
-0.014796976
-0.0719249
0.014768625
-0.0050217267
-0.038376596
-0.0066977325
-0.03114357
-0.022831906
-0.08253347
-0.055902217
-0.010773152
-0.015618597
-0.066144705
0.06855719
-0.029603306
0.0070613353
-0.013591051
-0.058571775
-0.04865789
0.15060036
0.008701013
0.0006233713
-0.0022020938
-0.002173535
-0.0049937726
-0.052081414
0.02350734
0.030061368
-0.025749633
-0.013282027
-0.0036974577
-0.026980022
0.046727628
-0.027111068
-0.11017842
0.0009600266
0.08290621
-0.0452347
0.07316894
0.08914007
-0.021073671
0.42089036
-0.15304491
0.0091479
0.06515078
-0.026904052
-0.020342972
0.0010946556
-0.015417235
-0.07268132
0.030511612
-0.10763198
-0.08115548
-0.054229833
-0.02875806
-0.058074217
0.013963183
-0.012180026
-0.005305895
0.034222223
-0.024766183
0.004700921
-0.08095622
-0.016932275
0.20708835
-0.0050424277
-0.027021455
0.013580736
0.017875014
0.014538937
0.059043653
-0.015184163
-0.055295527
-0.07808785
0.0039533805
-0.0718577
-0.08775998
-0.016510699
0.012207352
0.022141416
-0.29647925
0.17250845
0.09883958
-0.015413478
0.05668345
-0.01641099
0.049832977
0.024210557
-0.008956431
-0.13699853
0.09521462
-0.054925423
-0.091080874
0.12544614
0.11740096
-0.10725482
-0.08346013
0.057060298
-0.012480643
0.059373196
-0.027545903
-0.13383406
-0.1011936
0.14570102
-0.06029639
-0.026631441
-0.0027710935
0.06360545
0.019803734
0.01884732
-0.1548713
-0.027100248
-0.051948823
-0.04687505
0.0005438618
-0.0729582
-0.0065515256
0.019200414
0.12967661
0.013001978
-0.061531868
0.12012374
0.073531754
-0.019188637
0.025707565
-0.039410844
-0.095939495
0.046232983
0.0073000584
0.009778233
-0.030395478
0.080693714
-0.016378151
0.007514243
-0.013213488
-0.04864297
-0.1195691
-0.018340852
-0.094881445
0.10231192
-0.11668552
-0.07789669
-0.07195613
-0.032208934
0.018631727
-0.010489694
-0.11385034
-0.024382321
-0.036748063
0.12817818
-0.01578739
-0.12986001
-0.045515243
-0.10155286
0.016363597
-0.0584815
0.08239208
-0.013586613
-0.052179243
0.06379824
0.017633144
-0.027008055
0.044660587
-0.052840076
0.06498612
-0.0025865214
-0.019887704
0.03385514
0.039624114
0.020943532
-0.020200513
0.0042471527
-0.017788304
0.0095256725
-0.06395102
-0.060041886
-0.00081835204
-0.014510901
-0.0090531865
0.045954987
0.07925447
-0.17983301
-0.06853385
-0.042434935
0.106763944
-0.08063735
-0.050908126
-0.03906895
-0.0075931125
-0.017934497
-0.06665792
0.043055907
-0.15377805
-0.3091293
-0.04413509
-0.060777556
0.056862272
0.059713427
0.03033968
0.0999145
0.054184224
-0.03872542
0.06619028
-0.067680314
-0.033208795
-0.10945528
-0.21195596
-0.0045974525
-0.19328561
-0.14770171
0.013281348
-0.01206884
-0.11744595
-0.20656359
0.12777385
-0.03185689
-0.058009047
-0.0496334
-0.077594295
-0.051362894
0.10279076
-0.022015529
0.086407095
-0.13152236
-0.028362831
-0.030644078
0.017679054
-0.055426966
-0.008411554
0.040813826
0.096431345
0.053660415
-0.101697266
-0.0067023137
-0.27263466
-0.11128
-0.023580948
0.017756836
-0.03499607
0.028848518
0.06371042
0.22370835
0.042373754
-0.06568508
-0.04073512
-0.04891111
0.025578061
-0.07148091
0.07962776
0.010650087
-0.18822625
0.057802476
-0.027688324
0.04545823
-0.21791998
-0.18397926
