0.024045292
-0.1333302
-0.24777822
0.029013854
-0.07926468
-0.027231524
0.019621339
-0.17834455
0.021615734
0.044949405
-0.06819439
0.17277332
-0.12359233
-0.30251932
-0.008329541
-0.16113059
-0.06287169
-0.053190246
-0.026860643
-0.111232065
-0.036088515
0.067774095
-0.17691587
0.057329837
-0.08768693
0.17920703
-0.087751776
0.16772541
-0.2131629
0.27661428
0.0137739265
-0.047206648
-0.12831475
-0.05219961
0.06472924
-0.012053912
-0.07983345
0.039919
-0.020827712
-0.111941375
0.030117106
-0.024673717
-0.017471218
-0.082168855
-0.016188126
-0.07418246
-0.09064894
0.015840212
-0.040784817
-0.019288499
-0.0115249725
-0.31250432
0.11131784
-0.003842342
-0.17615016
0.015070515
-0.15888341
-0.11376657
-0.22681068
0.24704488
0.0058268732
-0.1050703
0.011560889
-0.023803119
-0.08429874
-0.023521343
-0.13592394
0.004109417
-0.058215406
-0.14846164
-0.15077612
0.020761523
0.05668856
-0.031853646
-0.05222772
-0.045707088
-0.011756707
0.039173875
0.4317711
0.035571773
-0.1110653
-0.049402475
0.010625112
0.06362135
-0.10715837
-0.07908514
0.006689925
-0.09145993
-0.033845153
-0.5010936
0.27365318
0.003067887
-0.04827331
-0.041232042
-0.08558794
0.19807518
-0.159075
-0.016185291
-0.054725192
-0.046724558
-0.18526243
-0.102409616
-0.04921971
0.0024981622
0.036307443
-0.05890652
0.0024573202
0.018553149
0.015727747
-0.21334915
-0.07545214
-0.09349835
-0.11957151
-0.092287384
0.018420931
0.04450577
-0.04470335
0.18242283
-0.18589415
-0.0013306119
-0.025054708
-0.024883673
-0.2082153
-0.036914486
-0.096048824
-0.017570846
-0.024509765
0.032724205
-0.025082968
-0.05121995
-0.010658513
0.0893705
-0.05189419
-0.16133457
-0.05032533
-0.0058517633
-0.07229392
-0.039241575
-0.20453107
-0.14269193
0.030537145
-0.13459355
-0.00012767049
0.16133343
-0.07546944
0.011904546
-0.03324773
-0.03749085
-0.099838786
-0.1316763
0.013000748
-0.29498464
0.036829166
-0.33659708
-0.099047974
-0.012169375
0.016319102
-0.05313678
-0.05212544
-0.05512696
-0.09737489
0.024498908
-0.1718258
0.007802848
-0.050321415
-0.054665133
-0.011524712
-0.13732015
-0.11097195
-0.1515838
-0.015635565
-0.03292871
-0.013480087
0.21693732
0.10497948
-0.03603575
-0.116626784
-0.037100755
-0.12155011
-0.10217355
-0.09667971
0.026181178
0.022105755
-0.109476395
0.01934901
-0.11991139
-0.26564744
-0.019911086
-0.19174239
-0.13464749
-0.06903588
-0.00071695965
-0.11764737
0.066636756
-0.02903516
0.011554309
-0.009066572
-0.035369743
-0.04901573
0.01818098
-0.07515666
-0.012376797
-0.08167385
-0.0074075107
-0.23978403
-0.09978404
-0.041961916
-0.016610172
-0.115757644
-0.01793815
0.065247096
-0.117827296
0.41870925
0.116710275
-0.08332881
-0.07376169
0.06177494
-0.04815627
0.035303764
-0.11580516
-0.00532175
-0.039075077
-0.036996286
-0.059779614
0.08255665
-0.025399888
0.14904654
-0.064354524
-0.17732789
-0.047837015
-0.23087376
-0.13626522
-0.49913236
-0.07736336
-0.05858635
0.046306334
0.042673882
-0.028725727
-0.15948626
-0.103409626
-0.030101469
0.07577573
-0.07507734
-0.04048102
0.0052351253
-0.2045943
-0.020292975
-0.12201996
-0.019623905
-0.13467728
0.12892963
-0.06454569
0.13259844
-0.06824229
0.008886048
-0.15835439
