0.010963328,0.057716727,0.08680704,-0.009550031,0.058361553,-0.028500732,-0.023079904,0.07325432,0.016520014,-0.087457135,0.04030302,-0.081463076,0.088329606,-0.004614125,-0.056115538,0.07358911,-0.043868594,-0.0035498599,-0.0140818,0.015178523,-0.012721622,0.0021532625,0.04495341,-0.07315687,0.08062992,-0.12458815,0.021648291,-0.08807108,-0.027280532,-0.14458448,-0.0105677135,-0.015195556,0.09225773,-0.0045177084,-0.067896225,0.034616325,-0.10654445,-0.019013135,-0.023194224,-0.03470707,-0.0744871,0.062680125,-0.06965017,-0.02418309,-0.038697165,0.032599736,0.06709097,0.060029276,-0.019844662,-0.045018777,-0.112710185,0.036132507,-0.09476594,-0.043149926,0.05961626,-0.07297148,0.09522588,-0.068184696,0.06571922,-0.042697687,-0.08434496,0.09499653,-0.060302317,0.040350985,-0.07092806,0.056202568,0.08701773,-0.07898031,-0.09505995,0.025466802,-0.017286805,0.07378077,-0.045994345,-0.0084328465,-0.0061139194,-0.016415145,0.06955061,0.0044398615,-0.10043777,-0.03523084,-0.060780227,0.094611734,-0.08951616,-0.060844105,-0.041093186,0.0797253,0.086807765,0.00019797415,0.025700908,0.11416281,-0.07434249,0.05304011,0.10400287,-0.020144233,-0.09980025,-0.11748362,-0.05299688,-0.018469427,-0.08213813,0.06891178,-0.009317617,0.09087427,0.018082859,0.06114342,-0.038122915,-0.021162251,0.09070096,-0.07449256,-0.07478241,0.06437094,-0.001464357,0.0020514808,-0.101494215,0.0014434627,-0.090494476,-0.060823172,0.029008193,-0.12154806,-0.025222298,-0.014391478,-0.0641311,-0.032642514,0.029942699,0.016818225,0.05406592,-0.064139344,-0.027116839,-0.018580617,0.02508891,0.08414951,-0.038111143,-0.12197852,-0.0087353075,0.053301018,0.052507974,-0.066790946,-0.042148247,0.015662456,0.089124314,-0.048090097,0.013611999,-0.009999334,-0.014403586,-0.0144573,-0.08981391,0.011677295,0.0024953403,0.025049493,0.09166251,0.020474458,-0.021610731,0.0115398755,-0.02136567,0.081175566,0.03635341,-0.085996434,-0.05917018,0.08357698,0.038899545,0.10021896,0.09029527,-0.034777794,0.114781596,-0.03802709,0.025440233,0.04359202,0.027877726,-0.060804695,0.025238935,0.083951384,-0.033504754,0.06867644,-0.108262,-0.08054792,-0.1098057,-0.018541269,0.08080964,-0.05698292,0.051613647,-0.004380945,-0.057325326,0.019862005,-0.033960756,-0.009994099,0.028905753,-0.040718183,0.05149498,0.09026684,0.019406794,0.021719012,-0.09689904,0.034540676,0.012284936,-0.08888134,-0.006945465,0.07231624,-0.093026996,-0.10902349,-0.0043987622,0.020236198,-0.04816178,0.07235043,-0.09740623,0.0021928921,0.01696992,0.034873124,0.0120685985,0.0668124,-0.07747214,0.049263027,-0.046940483,0.06054899,-0.10701123,-0.007160861,0.030872481,0.021011198,0.07346196,-0.019204494,-0.02567948,-0.044052973,-0.053427257,-0.035189454,-0.0007872561,0.01801811,-0.12857549,-0.0003159278,-0.08351408,-0.061126683,0.036473986,-0.04704034,0.054733366,-0.042953245,0.058404874,0.015906282,0.03448528,0.04387618,0.028966436,-0.09524786,-0.018065287,-0.1116792,-0.08634466,0.0028406281,-0.019124797,0.0050303545,0.026850717,0.123943165,0.00929203,0.024004698,-0.113380305,-0.0002175824,-0.006515985,-0.045588944,-0.10059382,-0.024807107,-0.01760975,0.07090406
0.014113444,-0.03169181,-0.036153417,-0.059599545,-0.040537972,0.007390741,-0.020712815,0.062494766,-0.01978561,0.0027772414,0.034524176,-0.037429765,-0.042149622,-0.025465427,0.012387309,0.05479793,0.03613823,-0.025135614,0.030170858,-0.0325917,-0.026661811,0.028448751,0.056373484,0.0258376,-0.03179038,0.008167294,-0.013397563,-0.007931632,0.026730577,0.015766937,-0.047550313,-0.0037365293,0.037792943,0.05385702,0.017359402,-0.028831981,-0.024865765,0.03431517,-0.013506489,-0.04683529,-0.0005226435,-0.008379122,0.034474216,0.0256323,-0.019513015,-0.034078944,-0.027180666,-0.053868,-0.0539446,0.049174484,0.042900767,-0.044745415,-0.047291473,0.018885082,-0.0015690646,0.02354559,0.029896403,0.007426075,0.031794563,0.023091841,-0.044131353,-0.06057695,0.06037197,0.010260699,0.020486202,0.04757405,-0.013744256,0.024992764,0.04153314,-0.0036710724,-0.01224056,-0.05758173,-0.049389143,-0.05294261,0.025515253,-0.055651594,0.01458646,0.014982787,-0.016787667,0.0071167056,0.036175355,0.047108058,-0.05471489,0.028754774,-0.0029200746,0.033236105,0.0064048776,0.05455746,-0.029338084,0.0033666948,-0.025060358,-0.012277567,0.04315437,0.020910677,-0.03929785,0.0029645618,0.00053443044,-0.04100096,-0.051659603,-0.012578464,-0.052592684,0.04403483,0.048666414,0.05670718,0.0012094169,-0.03587224,-0.031882096,0.062349077,-0.0026105563,0.027692227,-0.045474283,-0.009509181,-0.03972361,0.010005957,-0.035285797,-0.04660966,0.049020246,-0.03520901,-0.021479467,0.052462433,0.025187764,0.03139014,0.037387416,-0.0075847507,-0.02308321,0.035122156,-0.010641019,0.008548955,0.06078016,0.013204462,0.025440961,-0.030718267,0.0031511406,-0.038616978,0.02776439,-0.051161293,0.0027270082,-0.035927534,-0.048813995,-0.02244368,-0.04352875,-0.043211073,0.058559675,-0.05405582,0.03111464,0.005519448,0.04991855,0.041723635,0.060868226,0.06114152,0.05000235,0.05980836,-0.009464288,0.01615701,-0.01683356,-0.04750186,-0.034302656,-0.049110662,-0.043550383,-0.028719291,-0.056082267,-0.018793916,-0.026620846,-0.042037,0.02729348,-0.017322002,0.059521787,-0.023965538,-0.01726176,0.016961236,0.003015302,-0.025949594,0.0431199,0.010541436,0.022447824,0.043609362,0.04283483,-0.017132292,0.010658881,-0.059289224,0.029908497,0.026491327,0.009301304,0.030222524,-0.04846603,0.03233428,-0.034621306,0.009647591,-0.03204809,-0.026208619,-0.0074097672,0.009009134,0.034283467,-0.040683012,-0.04600132,0.031660594,-0.046891253,0.05658871,0.040288866,-0.013985784,-0.029202169,0.010863848,-0.0592311,0.018840283,0.0262793,-0.009742322,0.06297572,0.0627517,-0.032866206,-0.038019788,0.014434174,0.047391437,0.013077439,-0.024915628,-0.05049614,0.024629112,-0.050777946,-0.017726138,-0.029806513,-0.04615044,0.03379603,0.059338592,-0.042710286,-0.045690794,-0.0008497943,0.025080893,0.034310862,-0.016015839,0.025648156,0.0058106207,-0.0280273,-0.018927122,-0.017622566,-0.020575866,-0.00065171777,0.05729414,0.009459594,0.023644548,0.01709022,0.006902728,-0.0292038,-0.0052227937,-0.03495091,-0.041344125,0.031988773,0.0060314895,-0.024606135,-0.056041293,-0.061251104,-0.034557212,-0.056687165,-0.026263662,0.02133682,-0.035353497,0.05077409,-0.01401491
0.018075017,0.15448855,0.08333135,0.048220493,0.046917956,-0.03342381,0.021633515,0.15156712,0.050798196,-0.110329755,0.015366009,-0.099400684,0.02163547,0.11363714,-0.004461261,0.042083267,0.049752083,0.06972976,0.028074428,0.06120229,0.10248262,-0.06116388,-0.043096293,-0.1562884,0.100907795,-0.07502351,-0.0618777,-0.19449005,-0.1587673,-0.25044805,0.066813,-0.068726234,0.14891315,-0.14761919,-0.10761527,0.00963678,-0.05928224,-0.069968164,-0.056354128,-0.15741742,-0.122410715,0.07789231,-0.09160321,-0.095872805,-0.13202693,-0.0027642853,0.12069035,0.085931525,0.05880685,-0.07443235,-0.0692736,0.07290616,-0.13000983,-0.13433853,0.15070026,-0.08575547,0.16670455,-0.11232838,0.1155994,-0.13642438,-0.13891988,0.047442023,-0.15055528,-0.0019228059,-0.1163948,0.10505235,0.058230836,-0.054547656,-0.1385545,0.1306273,0.015968148,0.06550106,-0.097289205,-0.10722211,0.11556769,-0.14345041,0.13199517,0.08544935,-0.1254068,0.0060677533,-0.07767799,0.05683162,-0.07125577,-0.14274627,-0.07406408,0.056675315,0.04819255,0.086875066,-0.011054485,0.12321775,-0.09012976,0.036694102,0.071093366,-0.1504047,-0.02067935,-0.07763305,-0.06498741,-0.07017743,-0.06745604,-0.02666657,0.068066314,0.02945856,0.05007002,0.09226176,0.06471326,-0.028403148,0.008319743,-0.038087703,-0.037156653,0.15628792,0.042385552,-0.051979765,-0.0964494,-0.099869706,-0.07375899,-0.08720251,-0.037469447,-0.15006801,-0.013302114,0.025836939,-0.025891462,0.07099513,0.07459836,0.012693038,0.015654076,-0.07471541,0.08465915,-0.14162381,0.012340016,0.117791355,-0.01050917,-0.17146593,-0.078060545,0.030809518,-0.018557968,-0.06021646,-0.065710016,0.08544991,0.093018815,-0.060704395,0.0130641535,-0.0038423536,0.06618319,-0.12350863,-0.119982325,0.020831035,-0.065785415,0.14291292,0.077835046,0.13574955,-0.09503683,0.1055231,-0.000634463,0.060307708,0.11952732,-0.023030844,-0.092888445,0.058797106,0.04622196,0.02221566,0.015621988,-0.052006345,0.067896545,0.048989255,0.06740083,0.084967606,0.05607529,-0.011946837,0.137682,0.080269136,-0.1024495,0.08551193,-0.15197964,-0.14050661,-0.12943107,-0.15233046,0.11073485,-0.05868305,0.04528571,-0.057011567,-0.021333769,0.08077561,-0.089334756,-0.14775619,0.014431167,-0.1024628,0.14859429,0.10788927,0.07137871,0.115856424,-0.05224036,0.11674236,0.13174225,-0.13566422,-0.116843656,0.04510305,-0.09967812,-0.06563308,-0.060102414,-0.05888345,-0.09049378,0.062800154,-0.11976888,-0.07418591,0.115405835,0.11267429,-0.11169158,0.11377883,-0.040525135,0.12012674,-0.068845086,0.0927129,-0.28117615,-0.13431157,0.04833846,0.076860584,-0.025346465,0.04669291,-0.07157393,0.057947736,0.073269464,-0.1569045,-0.019993205,0.07371056,-0.12905051,0.060897954,-0.15470727,0.055371612,0.044845726,-0.016068121,0.07242398,-0.112719215,0.1742688,0.0456145,-0.0053434502,0.037524536,0.0736679,-0.050287187,0.021770103,-0.020833189,-0.019394385,0.025756674,-0.07924985,0.098926485,0.012148197,0.06168174,-0.0367849,0.094003245,-0.09977317,0.0009327791,-0.039449822,-0.0680279,-0.10473267,-0.10861418,-0.08803602,0.080923386
0.13337532,0.12084066,0.09258687,0.13369748,0.10238447,-0.08017953,0.090732425,0.16721848,0.09006274,-0.07957792,0.012678305,-0.075455055,0.032484617,0.112528116,-0.040287036,0.03223351,0.06376628,0.016021444,0.061559808,0.04237544,0.06967423,-0.052335385,-0.0008315437,-0.15034701,0.0212203,-0.1907329,-0.06932942,-0.14945294,-0.15144242,-0.1914222,0.036085904,-0.00025377344,0.13140589,-0.09585405,-0.156984,0.08547539,-0.057272755,-0.026350766,-0.041392513,-0.11779945,-0.07115385,0.0708054,-0.05899162,-0.1068694,-0.09414634,-0.04949442,0.041015122,0.030001896,-0.0014764933,-0.105168745,-0.17379797,0.111886166,-0.07001683,-0.032781083,0.10646351,-0.115840495,0.15484628,-0.10250218,0.11242338,-0.09844017,-0.16665499,0.1468697,-0.06638119,-0.011010409,-0.08688787,0.09407349,0.089755304,-0.071027644,-0.071198955,0.10495087,0.034855578,0.031188047,-0.17002629,-0.06811905,0.14363775,-0.14341024,0.05611027,0.08797562,-0.20828396,0.015144086,-0.100127265,0.11579064,-0.06316202,-0.16621888,-0.109048955,0.15265256,0.06365886,0.13819806,0.045444615,0.17502989,-0.15636319,0.027106116,0.050549943,-0.057320166,-0.11116846,-0.16086222,-0.15810165,-0.07241146,-0.054439146,0.030569755,0.06439929,0.052084018,0.15011303,0.05645949,-0.0048087877,-0.08655699,0.025186565,-0.09137906,-0.060926903,0.05519707,0.12523736,-0.003629731,-0.055575594,-0.092647284,-0.089852974,-0.11733338,0.009120325,-0.20821658,0.017612102,0.077442676,-0.08614713,0.079054646,0.1432699,0.07130584,0.03547051,-0.060234755,0.071986675,-0.08853612,0.105744764,0.1280827,0.0050030816,-0.15654297,-0.04029106,0.1347138,0.012526837,-0.033767786,-0.149186,0.14184621,0.09880621,-0.05050047,0.08615284,0.05518731,0.056570165,-0.112687655,-0.15018578,0.06861471,-0.030785136,0.12380203,0.08833567,0.110732295,-0.08486195,0.04457037,-0.053329676,0.05111435,0.12375988,-0.052813448,-0.095906205,0.107386746,0.022258572,0.036775395,0.019813852,-0.02513383,0.12628537,0.057526503,0.009198705,0.0151046915,0.032456003,-0.113606825,0.124656536,0.12980165,-0.1384164,0.08677351,-0.11662792,-0.10401052,-0.12235523,-0.11126768,0.046486598,-0.021073783,0.07797753,-0.14370693,-0.063945964,0.1283465,-0.11754246,-0.14992699,0.04334371,-0.05140505,0.066506244,0.020163588,0.07124088,0.073635645,-0.16970868,0.087817304,0.111515,-0.15447037,-0.0023709254,0.05594783,-0.063087635,-0.060109526,-0.07888356,-0.109813794,-0.07996443,0.0028607852,-0.06420998,-0.072207205,0.058297683,0.0693157,-0.09803085,0.08063418,-0.056349557,0.040038478,-0.06257721,0.05105451,-0.26341736,-0.15204713,0.06026765,0.1314862,0.07822974,0.109179795,-0.0844857,0.06780894,0.016078757,-0.064638816,0.065303184,0.049859595,-0.101973355,-0.010576217,-0.12152622,0.03621443,-0.00054632453,0.025022952,0.0787375,-0.12101409,0.173549,0.059263617,0.0052466565,0.042125124,0.058215957,-0.09107994,0.010154002,-0.021331714,-0.09229429,0.032189157,-0.103808455,0.091237284,0.07492177,0.15739708,-0.10276392,0.09218907,-0.12756078,0.09758606,-0.08966226,-0.029514143,-0.058061562,-0.14837329,-0.13692558,0.11207321
0.12811619,0.14396471,0.08405033,0.0862777,0.020095687,-0.10320114,0.101487905,0.05778511,0.09809597,-0.026602313,0.13228981,-0.06085531,0.064282656,0.098908156,-0.100271635,0.03451024,-0.0308925,-0.0036220886,0.07678591,0.09933614,0.01387579,-0.043370828,-0.009703336,-0.05797468,0.13822451,-0.079521805,-0.02509618,-0.15119693,-0.13201933,-0.14993817,0.03968985,0.031375892,0.051050656,-0.05502901,-0.037517954,0.08039148,-0.08449585,-0.047986567,-0.0722439,-0.14454623,-0.07969821,0.049842335,-0.14225468,-0.032404546,-0.16493374,0.0424284,0.07757147,0.11060313,0.016036805,-0.14024362,-0.067998655,0.043885563,-0.11076302,-0.084865645,0.11931098,-0.12749039,0.0711055,-0.04230076,0.11134117,-0.17049214,-0.047163423,0.14034164,-0.09820552,0.06849276,-0.1561995,0.06402136,0.06908783,-0.12097331,-0.13944392,0.07160799,-0.025355412,0.08873247,-0.10457074,-0.005788757,0.040583152,-0.05103874,0.09924478,0.04955586,-0.235062,-0.0055072266,-0.08846098,0.11992213,-0.042683117,-0.17632449,-0.07565178,0.097608216,0.10669047,0.0850816,-0.012591176,0.17031279,-0.052399863,-0.008738337,0.09158935,-0.15874918,-0.022686055,-0.17707635,-0.053190075,-0.07033832,-0.10431128,0.083408564,0.071533665,0.13944082,0.10528508,0.019940132,0.023527915,0.004466605,0.024715504,-0.048070736,-0.0885981,0.14327434,0.07172714,-0.0029628866,-0.06559391,-0.10624546,-0.05522925,-0.043825656,-0.06536032,-0.1646116,0.032004435,-0.038620826,-0.015966982,0.00093384925,0.14437892,0.046620674,0.050963268,-0.10149538,0.054051135,-0.15737712,0.071276166,0.054012313,-0.003966489,-0.13183,-0.09359139,0.12306449,-0.035928775,-0.015080574,-0.05992083,0.053913526,0.15501566,-0.081595086,0.007376153,-0.0089017665,0.074772224,-0.04741381,-0.124242015,-0.015225846,-0.13362266,0.1348671,0.076104574,0.04322756,-0.11798335,0.027838709,-0.0066066054,0.04865863,0.10545916,-3.603848e-05,-0.07290316,0.077637404,-0.022941047,0.10939681,0.020749537,-0.11177356,0.10836844,0.055497378,0.040454894,0.022538073,0.12707698,-0.007189163,0.09034571,0.10155496,-0.15063725,0.06555971,-0.065562494,-0.1740434,-0.06185397,-0.13501923,0.1469153,0.00648146,0.14159364,-0.06941373,-0.121710904,0.08167417,-0.060235813,-0.12625138,-0.055115987,-0.0029437626,0.15339193,0.1099249,0.09361531,0.049598645,-0.101933844,0.07127558,0.10530419,-0.04176188,-0.053418193,0.0665037,-0.034093633,-0.057338003,-0.08209769,-0.035980783,-0.05227577,0.07827504,-0.11907951,-0.01476792,0.15617202,0.115992755,-0.036941607,0.06968707,-0.036269248,0.104227304,-0.12913989,0.04253811,-0.2400972,-0.10886016,0.103459686,0.044599377,0.005284398,0.118406385,-0.091687255,0.028683102,0.037167665,-0.07832377,0.06769539,0.11305251,-0.112825565,0.04017409,-0.16993617,0.0038027037,0.02892641,-0.0016625492,0.03132323,-0.10201085,0.15744472,0.07014315,0.011946138,0.07059792,0.09156362,-0.0878918,-0.015392711,-0.06856053,-0.14041029,0.010606798,-0.10190724,0.08179906,-0.025655502,0.14851767,-0.107618585,0.06793984,-0.15466417,0.094652675,-0.12655884,-0.11502588,-0.1495249,-0.09124328,-0.13435186,0.08071691
0.060282305,0.042358182,-0.05846924,0.04789774,-0.024272164,-0.008161834,0.00047222423,0.043041985,0.055335257,-0.029417086,0.021214085,-0.06256516,0.034429766,-0.043931484,0.038413182,0.020400306,-0.0033942794,0.0624205,0.057314847,0.03890896,-0.05370959,0.031240128,0.047497507,0.02358999,0.00815934,-0.037030347,0.026266063,-0.04062828,-0.04329915,-0.028968442,-0.041871607,-0.036328103,-0.050618663,-0.05590616,0.060754776,0.009885365,-0.051764626,0.05208158,0.006597336,-0.03214044,0.04475476,0.032889068,0.06517668,0.041224997,0.02718267,0.0043334262,-0.0008171274,-0.010489023,0.01493772,0.038656704,0.041454215,-0.020122416,-0.023344796,0.027405847,-0.03709119,0.046075705,-0.0024854075,-0.023401191,-0.053778507,-0.059361745,0.003984356,-0.046876095,-0.05585343,0.020898227,-0.017373163,-0.02393244,-0.06386958,-0.057236403,-0.036050294,0.051184505,0.051223617,0.0010058245,-0.0031545092,0.0032929208,0.020194056,-0.022465263,0.04077825,0.050003406,-0.021857038,0.048103094,0.023887038,0.059571076,-0.04115097,0.024037983,0.046539858,0.045918982,0.039792623,-0.0061274106,-0.047474395,-0.039088063,-0.050679,-0.023624668,0.024978146,0.042337954,-0.00065901893,-0.012054834,0.016143905,0.004662781,-0.050061323,-0.04259315,-0.0534391,0.0010816449,0.02507838,-0.008764069,0.06008846,-0.010080462,0.046344936,-0.013756291,-0.023351386,-0.030452471,0.028918253,-0.012823393,0.023772998,0.0288128,-0.011689354,0.06717422,-0.014737924,-0.0061143558,-0.027526477,-0.0073416457,-0.023590975,-0.049982976,-0.026783526,0.01819854,0.043230258,0.016715782,0.017223727,-0.012129302,0.0037947444,-0.021881146,0.025154188,-0.061006702,0.057468895,-0.031918734,-0.026440246,-0.02265116,0.051285498,0.009341846,0.04724302,0.049993627,0.011374447,0.033572912,-0.024802305,-0.056065824,0.03714228,-0.0031654187,-0.031825963,0.041273423,-0.013336901,0.05839869,-0.0003466562,-0.012884016,-0.005463789,-0.03987921,0.011848679,-0.00095148303,-0.034006022,0.06662801,0.021809304,-0.02089241,0.022479864,0.059227426,0.02369793,0.003159732,-0.036680765,-0.0035830974,-0.0411689,0.058385096,0.04513382,0.033910766,-0.030270973,-0.017830849,-0.064148165,-0.01795303,-0.045401663,0.037387043,0.04627137,-0.05662139,0.0072373846,0.015082213,-0.049712975,0.01617857,0.03737617,0.028536344,-0.0011002739,0.06683685,0.06559157,0.012162699,-0.045498583,-0.020314941,-0.061061226,0.03922393,0.007683984,-0.009590374,-0.025418743,-0.035579994,-0.020049315,-0.0018337851,-0.047802728,-0.04223543,-0.035273246,-0.03679855,-0.00025769707,-0.01632248,0.007034049,0.058410287,-0.025022117,0.042672984,-0.054238066,-0.023846075,-0.027080046,-0.017512945,-0.062820286,-0.026575813,0.022006044,0.058929514,-0.026473794,-0.046657644,-0.031219222,-0.019712007,0.031064043,0.056354742,0.061022777,0.04176314,0.056729477,-0.052471563,0.01890063,-0.02327119,-0.06765646,0.04580829,0.019796409,-0.035096288,0.046616256,0.0021078857,0.025807943,0.067172155,0.058022954,0.0048833885,0.01501298,-0.029669022,0.0478237,-0.04569181,-0.056332015,0.03731712,-0.019952338,0.03626959,-0.026579965,0.03939865,0.011888287,0.018069506,-0.0058917627,-0.024421314,0.019039819,-0.048199516,0.008808942,0.026585132
0.049567927,0.032509454,0.002052464,0.016859641,-0.03630056,0.048976514,-0.0015414198,0.049294937,0.0001393219,-0.036506847,0.0133871315,-0.05924763,0.051326316,-0.005954958,-0.031411238,-0.03145669,0.023433886,0.009044955,-0.037541576,0.016292216,0.05540948,0.021098617,-0.0174581,0.011727023,0.036091536,0.012071627,0.047740366,-0.025409177,0.040453404,0.04078463,0.02577046,-0.009743602,0.00703341,-0.014614587,0.03242063,0.015020249,-0.033330753,0.043288074,0.027143458,0.057580378,0.022675281,-0.06086877,-0.0038582678,0.038012475,-0.058086034,-0.023028618,0.021752505,-0.060425445,-0.019452516,0.0204245,-0.044362023,0.037021533,-0.015228546,-0.049299985,-0.05509565,-0.06022052,-0.01738542,0.038816813,-0.021383362,0.046987727,0.018679773,-0.04190954,0.003625856,-0.039131857,0.032002088,0.036336534,-0.005084029,0.04129931,0.05113205,-0.058348276,0.058505706,-0.028073626,0.015618629,-0.0060862075,0.023825038,-0.007253825,0.04294133,0.009207302,-0.026832983,0.04359823,0.024574067,0.059625894,-0.054148957,0.013073481,0.00197598,0.043533478,-0.011199262,0.0129184285,-0.019362917,0.024709944,0.021632636,-0.06310403,-0.0005861174,-0.057014015,0.045979023,0.0077720885,-0.0017656679,0.03506555,-0.045244433,-0.03785774,0.048214454,-0.037676327,0.0036828043,-0.033006653,-0.0006437952,0.015587897,-0.008881168,-0.03957202,-0.0077256677,-0.029884467,-0.05911597,-0.027697545,0.03454992,-0.0056766337,-0.05712717,-0.040878955,-0.00476808,0.014212723,-0.022997089,-0.043456484,0.039991174,-0.026499381,-0.022722837,-0.0029326524,0.019788666,-0.041531418,0.054345362,-0.010425489,0.03568189,-0.029582422,-0.023142487,-0.025046118,-0.036061775,0.0014690841,-0.03272309,-0.039207768,-0.027069911,-0.040183723,0.009310194,0.051528767,0.006882297,0.039732646,-0.0056131114,0.0063185496,-0.021385742,0.008872237,0.05859234,0.055914473,0.006068779,0.048560258,0.046514656,-0.010156616,-0.013474996,-0.01935049,0.053008437,-0.049911007,-0.018450964,0.050959814,0.033073716,0.049204115,-0.061526284,0.033809144,0.022579873,-0.009396779,0.007427936,0.011013591,-0.0014261913,0.05034448,-0.013676056,0.055509537,-0.045149356,0.03433012,-0.02481393,-0.06004781,0.051658265,-0.002505675,0.036874928,0.014503095,-0.01505555,0.045632463,-0.048692137,-0.041037902,0.049291153,0.03617958,-0.01231899,-0.034181397,-0.046365157,-0.017508164,0.0031156172,-0.058743946,0.035964135,-5.1403335e-05,0.03393516,-0.023439867,-0.009168244,0.0071498095,-0.030920573,0.059515886,0.0008583997,-0.04631357,0.008200907,-0.028879004,0.00021569183,0.043622103,0.012838834,-0.030897738,-0.04092402,0.0068782223,-0.03127788,-0.0105146,-0.05813705,0.027605962,0.003974732,-0.048781626,0.03915918,8.8264314e-05,0.024412716,-0.058336563,0.023817573,0.058745597,0.0013729987,0.028464634,0.0279408,-0.0598568,0.04906861,-0.0378632,-0.011808717,-0.04229465,-0.05203212,0.038680196,0.034915633,0.008534828,-0.052546374,0.04846921,-0.0058157975,0.03851814,0.05226352,-0.058519483,0.0006270607,0.036494512,-0.019893238,-0.020943545,0.039241254,-0.00058197207,0.03285113,0.013427685,-0.045205895,0.026986597,-0.0051193256,-0.025226459,0.0007302154,0.04626774,-0.049727373,-0.018200941,-0.058417037,-0.01921113
-0.04801977,-0.03701024,0.06038026,-0.0034148444,0.055401783,0.009435435,0.049813706,0.012306076,-0.039782185,0.006729388,-0.027562186,0.009245492,0.0379338,0.007686533,-0.05314621,0.04614238,-0.02453033,-0.020346034,-0.018693214,-0.02617494,0.008243897,0.013617216,-0.020830067,-0.017048793,-0.057431966,-0.04241925,-0.0020728288,0.000902988,0.05588803,-0.029428095,-0.008224105,0.011884343,0.0539175,-0.06092829,0.04373727,-0.029179085,-0.07016496,-0.022175485,-0.004468497,-0.042699184,0.01668307,-0.023993997,-0.036147714,0.045163117,-0.056829818,-0.030560799,-0.026308551,-0.009974432,0.020398725,0.035870157,-0.052446343,0.06598783,-0.03987687,-0.011242305,0.054980733,-0.059728473,-0.0104375025,-0.011055498,0.0041726516,-0.053575102,-0.03797155,0.015897246,-0.036332514,0.051635962,-0.046277158,0.05277174,0.038650017,0.044266324,-0.018603543,0.062077675,0.022753615,-0.009212321,-0.02423006,-0.038882684,0.029775476,0.035526264,-0.036461905,-0.007819133,-0.05591521,0.04488784,-0.061055098,-0.023365475,0.017003672,-0.022307415,-0.040192205,-0.018437486,0.02702914,0.047048658,0.057933617,-0.031168232,0.029155264,-0.016002182,0.012379448,-0.032482006,-0.03852363,0.0011435975,-0.037409604,0.01251231,0.025193872,0.0565206,0.008780708,-0.0057464,0.060070228,0.062245075,0.012344169,-0.015165569,-0.028440572,-0.021725614,-0.039405905,0.032697834,-0.004639141,-0.05286256,0.021559574,0.0038037377,0.03674367,-0.0025070054,-0.038713522,-0.024362735,0.035755914,0.018060999,-0.054284204,-0.060413253,-0.008517701,0.0030056494,-0.038534526,-0.03576494,0.047206577,-0.057023354,0.0037874058,-0.018612297,0.041806556,0.050039835,0.055509634,-0.014367265,-0.062660806,0.005711625,0.04542734,-0.046797782,0.061597455,-0.035219785,0.05483732,-0.050470788,-0.016476978,-0.012239018,-0.019635882,-0.05151486,-0.048567753,0.04989622,0.04289559,-0.015705159,0.035565045,0.058318637,-0.014322209,0.03929309,0.031218112,-0.060813397,-0.025019407,-0.0047240104,0.04575082,-0.052919976,0.015939394,-0.065926395,-0.050882805,-0.0018221524,0.046540145,0.02059181,0.05057072,0.00310424,0.059871815,0.059080858,-0.04401907,-0.016235664,0.028526213,-0.039073333,0.015777836,-0.015858138,-0.03014751,-0.017180864,0.054277312,-0.007024612,-0.035654817,0.051294927,-0.0023609463,-0.05426421,0.054757148,0.008863047,-0.027256817,-0.0008192443,-0.027675709,-0.0010045918,-0.024910156,0.046686612,0.028818075,0.01667393,0.00832956,0.03958166,-0.010487574,0.029339103,-0.014572097,-0.06541175,0.027678413,0.0011139623,-0.06476391,0.038280055,-0.049917042,-0.042373396,0.022198543,-0.052918214,-0.0010374174,0.047615103,0.00629198,0.0067739724,-0.018205015,0.030028097,-0.0021612695,0.023117991,0.05505878,0.017029915,-0.061390143,0.0009972316,0.034413822,0.024844944,0.02677229,0.022630174,0.007846194,0.026382342,-0.012605285,-0.037548296,-0.042073514,0.0031340404,-0.008566259,-0.008697116,0.060126204,-0.058125827,0.0013972877,-0.0016499955,0.052715085,-0.012694843,-0.018988796,0.057661474,-0.05257906,0.022199217,0.03279237,0.030395076,-0.020298703,0.029478125,-0.046811372,0.038381524,-0.006816249,0.008674905,0.051955048,0.05545154,0.03708947,0.013129537,0.028067214,0.05196108
0.060916644,-0.022555657,-0.00054472376,-0.0015888023,0.020961862,-0.05598979,0.056906834,0.024010152,-0.01434351,-0.038209684,-0.01754359,0.050116017,0.038328283,0.03819798,-0.043435995,0.01855052,-0.011960509,-0.013031783,-0.028748306,-0.061018463,0.023077816,0.03045882,-0.05133666,0.054416917,0.02757106,0.011201577,0.019813767,-0.028442428,0.00628617,0.0031466049,0.012055113,-0.034328934,-0.04239222,0.061374415,0.021519275,0.0527503,-0.050750718,0.061967306,0.049453583,0.01183482,-0.042642824,0.05376218,0.0012259658,0.029580452,-0.027639631,0.018036466,0.016293697,0.02535272,0.009455477,0.027375724,0.031988103,0.016685182,0.036328815,-0.0046989303,0.020280719,-0.05485384,-0.005879652,-0.046255965,-0.057291076,0.03631893,0.009589178,0.05004158,0.0246914,-0.03186585,0.0022988254,-0.04943696,-0.05893103,0.059866197,0.031898886,-0.025827343,0.029047323,-0.007091437,0.0014836071,0.047770545,0.0064608767,0.044813268,0.015850034,0.0052770763,0.04285012,-0.04638455,-0.016907759,-0.05915939,0.054888997,0.029359285,-0.03577488,-0.04590398,0.022782683,-0.053882316,0.062302932,-0.021952972,0.058581345,-0.033669297,0.030180432,-0.056089036,0.020416971,-0.022647498,-0.05753735,0.060948543,0.057712827,-0.019465655,-0.010373724,-0.050199345,-0.03182096,0.05437269,0.008646967,0.032261636,-0.025486235,0.006097109,-0.032223128,0.037312817,0.037944436,-0.012229996,-0.061917562,0.04781689,-0.0035018823,-0.04596102,-0.06207304,-0.027446218,-0.038964614,0.036955018,0.0045477245,-0.04294659,0.06039785,-0.014985589,-0.046734337,-0.031523373,0.04626439,-0.010297007,-0.018191505,-0.055806953,-0.010864199,0.036547463,0.016857347,0.05342425,-0.02366571,0.00013244379,-0.010350542,-0.055431537,-0.022010772,-0.029628323,-0.05104628,-0.059314482,-0.0488393,0.0051892526,0.021320714,-0.017419161,0.047546092,0.043645803,0.032791644,0.04768843,0.03743655,-0.039899398,0.038271405,-0.0013365425,-0.0070060943,0.029283538,-0.0021082188,-0.05888487,-0.029059013,-0.059449304,0.010565915,0.061478306,0.007203113,0.039474342,0.032492593,0.049803365,0.060348652,0.01365194,-0.040712,0.038299225,0.028061533,0.018415205,-0.02712191,-0.008577692,0.023832895,0.040963884,0.01660852,0.022769844,-0.04600756,-0.033435773,0.022020891,-0.032319345,-0.04388261,-0.045473274,0.0033473768,-0.053336922,-0.034609996,0.010619471,0.018621387,-0.03249877,-0.042902905,0.056903306,-0.047089998,-0.010231765,0.03761338,0.0048634745,-0.05736748,-0.004145979,-0.035015848,0.040983405,-0.009500584,-0.013908579,-0.025082164,0.025352554,-0.062062345,-0.045781966,0.060903452,-0.013605,-0.054390196,0.03454436,0.0070938985,0.060786482,-0.044415772,0.047662325,0.02839332,0.042140193,-0.033967324,-0.056158505,-0.05045815,-0.017519595,0.0490538,0.057493422,-0.025956552,-0.050189797,0.01084558,-0.020110132,0.055825274,-0.039323986,0.017352365,-0.058389366,0.03183006,0.0022194164,-0.048867,-0.016747292,0.0362301,-0.053342093,0.05713344,0.018731816,-0.06133388,0.007930348,-0.018300302,-0.029896537,-0.012321471,0.05247989,0.048781432,0.00551669,-0.012136266,0.059388287,0.05637546,-0.01972721,0.03927602,0.027053341,-0.017659947,0.057173528,-0.04052059,-0.046631094
0.005981658,0.08046326,0.0655646,0.066930376,0.04352256,0.025244793,0.07712244,-0.006393554,0.042540208,0.042196263,0.05790439,-0.1129312,0.039148808,0.023675432,-0.056304835,0.032984536,0.06761615,0.04345234,-0.04192464,0.0052420287,0.0040887785,-0.15501915,0.011638567,-0.014329367,-0.015054839,0.030836046,-0.07327995,-0.09994894,-0.047907695,-0.02104092,0.02241869,0.05656972,0.067151986,0.021772236,0.041157156,-0.06166777,-0.084935784,-0.057293788,-0.03669798,-0.043168254,-0.057095364,-0.048506577,-0.06435254,-0.09247312,-0.032709196,0.00029710698,0.04073152,0.04318558,-0.012344899,-0.025640203,0.03439419,0.019315658,-0.0046011563,-0.0011329252,0.018210774,-0.0018205653,0.054886322,-0.055313405,0.08538658,0.04720724,-0.007571356,0.087736905,0.01362935,0.018738976,-0.0012706235,0.04204279,0.016689751,0.0174885,-0.067864515,0.07174496,0.062241632,-0.03659592,-0.053234044,-0.08007219,-0.019306509,-0.026209952,0.006747484,-0.007696843,-0.020786164,-0.036725063,-0.09253851,0.062437795,-0.13169731,0.024944711,-0.12260592,0.018875819,0.059798967,-0.026833316,0.055648267,0.10142974,-0.04616946,0.047788057,0.030913427,-0.005897158,-0.02737267,-0.027069705,0.0004839036,-0.047178395,-0.087342724,-0.016974198,0.021518089,0.021825058,0.045528065,0.02224108,-0.004892143,-0.06242131,-0.03436002,0.008399448,0.009106629,0.07461673,0.07689518,-0.14550088,-0.12148335,0.01655591,-0.053302843,-0.068461165,-0.041670654,-0.06578446,0.044909734,0.04157623,-0.007819966,0.032216523,0.06441417,0.0006623949,-0.004677938,-0.027139649,-0.02867548,-0.004087944,-0.038916145,0.066556446,0.027000198,-0.047993194,-0.06517538,0.011828002,0.018444603,0.076132,-0.09371244,0.00038383342,0.04308457,-0.062271256,-0.023380348,0.031524345,0.050815266,-0.061041884,-0.050188214,0.0737869,-0.05103722,0.03511449,0.010314886,0.0016190636,-0.07777304,0.024437666,0.09006837,0.032742705,0.034962796,-0.026085958,0.021330962,0.05525351,-0.0126108965,-0.023500744,0.048796866,-0.03614948,0.08476362,-0.000911546,-0.025965458,0.046669044,0.032491107,-0.052337535,0.059427448,0.04110173,-0.011792141,0.07229984,-0.014964672,-0.059826445,-0.040656313,0.030208396,0.09481202,0.043672506,0.07094927,-0.03317207,-0.084021896,0.0745345,-0.008402362,-0.11010701,-0.05070563,-0.10749327,0.09503262,0.030465348,0.090725504,0.023261614,0.012687288,0.031291664,0.08099318,-0.04426343,-0.03877983,0.013320306,0.009899551,0.02010173,-0.06545618,0.01828926,-0.07792876,0.060554497,-0.059078626,-0.03901723,0.040366758,-0.005161408,-0.10417156,0.09164743,-0.13942651,-0.027269565,0.03431709,0.075668745,-0.057240818,-0.012465516,0.05007146,0.009659062,0.030540647,-0.051904954,-0.07955296,-0.0042169215,-0.029050583,-0.07118222,0.069452666,0.056691624,-0.10827179,-0.0037822602,-0.08387961,0.010395241,0.0016327006,0.0071748095,0.038357455,-0.07692424,0.092719406,-0.02413344,-0.008454716,-0.036833458,0.022037862,-0.06473096,0.014609395,-0.043475688,-0.06750349,-0.054179817,-0.026057594,-0.019827215,-0.038946416,0.12181391,-0.02127713,0.04503863,-0.012345281,0.08466333,-0.005656936,-0.0432155,-0.049583554,-0.031188088,-0.079434976,0.01434786
-0.085897714,-0.043323833,-0.06022844,-0.07076641,0.005149763,0.041916434,-0.0744354,-0.0106604835,-0.08721091,0.062200032,-0.05897358,0.060762245,-0.10532987,-0.11589226,0.0294233,-0.09684199,-0.008920171,-0.03971812,0.015095659,-0.051015083,-0.10265712,0.011492797,-0.011023981,0.08255095,-0.057052054,0.1556324,0.07168305,0.047067165,0.10509209,0.19038406,-0.046247788,0.007700314,-0.05918312,0.03330617,0.08513914,0.004637126,0.028356042,0.06756091,-0.0063478258,0.10588933,0.027604798,-0.040337138,0.05896682,0.082578,0.061803527,-0.06725284,-0.018803272,0.027037168,-0.0545276,0.0923171,0.09821105,-0.120141625,0.07256557,0.0375586,-0.10811212,0.012622095,-0.013393415,0.034186576,-0.05489027,0.05902387,0.030365355,-0.08415104,0.01901876,0.0026652082,0.10549715,-0.0770601,-0.021174222,0.12643078,0.050011236,-0.101510145,0.020621601,-0.10667711,0.083205506,0.07229772,-0.0022291588,0.08249795,-0.036494642,0.0019863655,0.19221519,0.041341793,0.08034434,-0.08939341,0.043280404,0.1275387,0.02384087,-0.015335938,-0.021262482,-0.012940323,0.027166404,-0.03671115,0.10973263,0.011782724,-0.105306916,0.040861282,0.08783529,0.20798174,0.054799017,0.10614874,0.011949428,0.035353992,-0.024914172,-0.118756786,-0.022487707,-0.06682137,-0.008541284,0.06902971,-0.10904736,0.0131098805,0.12322761,-0.123007715,-0.014736533,0.056129467,0.03760637,0.088550165,0.041462984,0.08789655,0.0010892199,0.04934665,0.008396814,0.00477933,0.012412417,-0.017786114,-0.09148733,-0.03983379,-0.016271422,0.092092685,-0.09535815,0.14542748,-0.09282595,-0.035818823,-0.017505163,0.02804715,0.049676776,-0.10133357,0.06217855,0.0060865795,0.002556221,-0.019258445,-0.043948047,0.03829592,0.025463069,-0.028984629,0.0077331346,0.041530322,0.107792795,0.069578946,0.02704775,-0.07981883,-0.11496375,-0.10782601,0.0815154,-0.11147204,0.089152664,-0.112996876,-0.042059407,0.013354562,0.07473876,-0.06346104,-0.05935294,-0.034489706,-0.057791207,0.077606276,-0.064521454,0.04313818,0.00829183,-0.02426865,-0.07365173,0.0701447,-0.07086689,-0.082521155,0.054282226,-0.09397824,0.0638484,0.04868516,0.11741141,0.0028779206,-0.0796241,0.05975569,-0.11375364,0.05038034,0.10342669,-0.057498787,0.071098864,0.044776235,-0.00869269,0.09253403,-0.055070233,-0.018203262,-0.11277013,-0.09021405,0.056275826,-0.04441509,0.0002678669,0.039167672,0.032404218,-0.05554946,0.11298459,0.04223059,0.052361544,0.08076503,0.081418246,0.057621166,0.13039978,0.09229832,-0.06848241,-0.012426265,0.04129198,-0.06414048,0.05056801,-0.05766845,0.059658848,-0.11219565,0.115228176,0.0796812,-0.053161606,-0.071775295,0.0456927,-0.11312323,0.07915019,0.07177478,-0.0095262695,0.12820192,0.060856998,-0.04721351,0.11358068,-0.0032451137,0.075760715,0.01861731,-0.0026308894,0.0499172,-0.04235638,0.058017004,-0.15833649,-0.04337239,0.044955775,0.032766778,-0.09804291,0.07308459,0.02730527,0.08150973,0.11363049,-0.06251372,-0.0038535367,-0.08208361,0.024329493,-0.12329877,0.07382259,-0.07693182,0.058721438,0.0026648187,0.10397725,0.0240228,0.113003485,0.024659874,0.12452913,0.0032882635
0.044475753,0.053904876,-0.0019171189,-0.033472896,-0.043699097,0.038296815,0.012716581,0.031095102,-0.033304367,0.01179618,0.05881997,0.053905908,0.011536678,-0.04562948,0.037470523,0.061102115,-0.059400182,0.006424699,-0.05783382,-0.034684483,0.015042026,0.00524318,-0.061502714,-0.055227235,-0.035677075,-0.026532125,0.00078396685,-0.010655246,0.04017111,0.01815868,-0.032282468,-0.03327194,0.057841577,0.050826043,-0.011214167,0.021465559,0.042809684,-0.06229581,0.042536195,0.0130100325,0.0010022343,-0.033377465,-0.0127306,0.050330006,-0.0011133123,0.0366605,0.0030699992,0.049872674,-0.006527943,-0.03312664,-0.022037344,-0.057639886,0.00021361504,-0.0034967237,0.04250463,0.00082520366,-0.0309463,-0.018882316,-0.014030124,-0.042494792,0.019743819,-0.0067546256,0.04732652,0.05480626,-0.0409524,0.01180207,-0.018322224,0.052713152,0.0245511,0.03263614,-0.01365072,-0.042043254,-0.044234313,-0.010898099,0.04736052,-0.022611348,-0.061492573,-0.05203592,0.026841601,-0.051733654,0.02853884,0.044205602,-0.012589338,-0.03198016,0.020014085,0.059498217,-0.013640898,-0.049000986,-0.035477538,-0.0022008433,-0.029800097,-0.036025528,-0.01287442,-0.01310708,-0.021067567,-0.05070747,-0.009432163,-0.026123391,0.05596383,0.0026830258,-0.04263832,-0.041933708,-0.012428959,0.040957354,0.055833112,-0.023249518,-0.023608718,0.012557157,-0.034645196,-0.009416621,0.035929233,-0.022911303,0.024901161,-0.0017017355,-0.012119178,0.012171159,-0.023882594,0.019527577,-0.022983866,-0.0050265514,-0.055831663,0.04821971,0.03199098,0.046077177,0.030783085,-0.030283192,-0.024142267,0.0040553296,-0.0011186812,-0.0054232827,-0.06138015,0.055694822,0.04731387,0.0016251937,-0.05983198,0.020850122,-0.019270359,2.9167064e-05,0.026578955,0.037861235,0.02361918,-0.024986347,0.057858657,-0.0012370873,0.039299276,-0.05372915,0.04324356,-0.029355641,0.0011116979,-0.056872863,0.0011932881,0.057241477,-0.060019366,-0.041571114,-0.058166023,-0.032748856,0.049467474,0.03160787,0.020183003,-0.029335879,0.05287062,-0.026925188,0.0037591055,-0.008835971,0.043187916,-0.016123215,0.0135827875,0.021971345,0.02728119,0.002977932,0.035979386,0.032700077,-0.059802145,-0.005914995,-0.026073279,0.010470459,-0.008150988,0.055894036,-0.015687438,-0.03688189,0.060090963,-0.05005878,0.020358946,0.0037132406,-0.004291091,-0.009710162,0.06059367,-0.0033091372,0.05642325,-0.034055635,-0.046764832,0.023425827,-0.027171623,-0.06203715,0.05311383,0.042540535,0.025798358,-0.013219882,-0.060644306,0.010364526,-0.034547564,0.0072900727,-0.042483743,-0.0621047,0.06040811,-0.04129514,0.021331472,0.03844325,0.007592862,0.0068564666,-0.037882995,0.005720868,0.013747459,-0.046443023,-0.038497336,0.03173262,-0.059096474,0.023038078,-0.010493339,0.020802641,-0.052897207,0.055513408,0.008766775,-0.025681375,0.0003344508,0.013266675,-0.05210928,0.06047545,-0.002691926,0.046573076,-0.02295556,0.0030288342,0.009961045,0.04972769,0.0098897815,-0.029113939,-0.016866105,0.018005304,-9.666524e-05,-0.039561916,-0.047727447,-0.046133,-0.027381355,0.039025504,0.012695077,-0.0149001675,0.015794884,-0.013500783,0.053465832,-0.046194017,-0.060312446,0.035397355,-0.018698718,0.022732275,-0.041282244,-0.043773606
0.008666022,0.035576906,0.09243403,0.026913,-0.032383557,-0.023105029,0.06416028,0.09189931,0.010660913,-0.0550489,0.023677217,-0.05263465,0.016880266,-0.002430492,0.03769071,0.093512386,0.028611703,-0.036340423,0.06578427,0.062871106,-0.00059077924,-0.079472974,0.03418068,0.028143913,0.060807325,0.004352241,-0.09083746,0.0013339748,-0.05180523,-0.10066487,-0.034265988,-0.019737482,0.08495636,0.012002397,0.036828056,0.05485337,-0.06534698,0.01281176,-0.07169052,-0.017282344,-0.16139692,-0.046957016,0.003161357,-0.07150215,0.008950043,0.025434105,-0.003455181,-0.034063183,0.0010441662,-0.073852085,-0.040048275,0.051005688,-0.055259135,-0.009553923,-0.022134542,-0.049597587,0.06963214,-0.07805479,0.02389807,-0.034579467,0.0068132323,0.024804384,-0.04157643,-0.034506425,0.009944072,0.041768335,0.047356978,0.027983287,-0.056735653,0.039466977,0.010581336,-0.0010280509,0.022353806,-0.034662325,0.04968467,0.0001709399,-0.005240319,0.035468467,-0.004891449,0.030175868,-0.13208145,0.034153186,-0.021767868,-0.071625836,-0.14807397,0.04410625,0.03467728,-0.030953588,-0.03248924,0.048304036,-0.08929306,0.023252238,0.040188406,-0.07832612,0.04132236,-0.0168148,-0.09462418,-0.091575116,-0.012277869,0.07509716,0.016390963,0.028066335,-0.040877003,0.01011767,-0.037600845,-0.055106714,0.025441244,-0.008208634,-0.056378186,0.018001504,0.084377974,-0.12928535,-0.109404065,-0.084936425,-0.029235948,-0.014188861,-0.028637804,-0.05122756,0.063866846,0.053779516,-0.07083938,0.03570407,-0.012714718,-0.03409065,-0.01352191,-0.04794949,0.034756325,0.0040153167,-0.038426515,0.045175087,-0.021518301,-0.056600474,-0.014505747,0.042959932,0.03601211,0.03910408,0.016639983,0.060296547,0.048843544,-0.08259256,0.007900308,0.06144613,0.07702731,-0.07574218,-0.08381675,0.061258145,-0.06735733,0.052398082,-0.032047253,0.013182977,-0.031048546,0.08738939,0.017646985,0.03647421,0.056492027,-0.014141527,-0.04689049,0.013873014,-0.0033330887,0.032691997,0.06529136,-0.085167125,0.075960115,-0.048158962,0.036722917,0.05886635,0.041671995,-0.094310544,-0.01703278,0.09029669,-0.024159051,0.081741005,-0.04083734,-0.08125849,0.014053801,-0.06473386,0.0032467504,-0.0122636305,0.086787455,0.007284704,-0.04835341,0.083718024,-0.027020922,-0.03616218,-0.070146084,-0.16438223,0.08008014,0.06943995,0.060957123,0.05169688,-0.092696324,0.012675456,-0.014126697,-0.13780458,-0.04829338,0.024355257,-0.04504724,-0.00054300256,-0.05441424,0.0060741804,-0.0074526663,0.08864807,0.0024345685,-0.012133309,0.08206821,0.07130933,-0.03219899,0.048613917,-0.07082175,0.084842704,0.00544195,-0.019759119,-0.049599484,0.012579602,0.045051202,0.08004245,0.07442414,0.008553871,-0.0057175793,0.012259111,0.05260636,-0.0020214454,0.057310585,-0.005849474,-0.040977377,0.009690475,-0.011664523,-0.038526744,-0.043628693,-0.011279983,0.083654545,-0.081554815,0.042769272,-0.04179993,0.050368674,-0.072759,-0.0013155276,-0.058364082,-0.005394303,-0.11863162,-0.045242447,-0.0711872,-0.012536874,0.008910467,0.027029302,0.05640689,-0.025812345,-0.030371739,0.01802885,0.08575501,-0.014269611,0.021114163,-0.10893181,-0.07823445,-0.106395625,0.010097114
0.017142799,0.07106401,0.046914704,0.06034319,0.010565496,-0.005799447,0.0074430923,0.0637688,0.06827107,-0.04765749,0.05913497,0.020315636,0.044837523,0.05900096,-0.066992424,0.072305165,0.057587873,-0.01722464,0.007169148,0.05328635,-0.025071142,-0.10157446,-0.0037642373,-0.008549159,0.04427655,-0.028673682,0.020236671,0.0176234,0.0056761918,-0.08139054,0.054807078,0.0367807,0.031400893,-0.030714525,-0.09376621,0.038445912,-0.0868897,-0.023924477,-0.051609825,-0.022961603,-0.03876218,-0.022945233,-0.03820023,-0.027071761,-0.023918541,-0.06827261,-0.014191655,0.0763536,-0.027592469,-0.038756974,0.0023103205,0.054736316,0.029810522,-0.0649073,0.02164929,-0.09382298,0.044419013,-0.055603873,0.041844334,-0.011276752,-0.08181022,0.04086835,-0.051123504,0.028666817,-0.08724023,-0.032597907,0.046166103,-0.03666609,-0.014370158,0.08337545,0.017599072,0.076564364,-0.01893508,-0.017462708,0.08214223,-0.022890728,-0.014880747,-0.03659211,-0.06804321,0.066290215,-0.044129223,0.07797279,-0.04221448,-0.09217311,-0.0081100175,0.01639966,-0.034941655,0.017965373,0.050636202,0.06098352,-0.044001088,0.02510141,0.07793386,-0.0072844955,-0.06507744,-0.08478451,-0.009938864,-0.07210728,-0.009621976,0.019366028,-0.020577291,0.037314586,0.032093488,0.0788622,0.019439852,-0.06526612,0.047202136,-0.0074748783,0.026758075,0.0058350735,0.0466351,-0.028697545,-0.06608807,-0.009703024,0.026239768,-0.026258435,-0.02981709,-0.07272312,-0.06001725,0.04705432,-0.0006121198,0.049037322,-0.010217513,0.00035457851,-0.018330496,-0.011950468,0.069541916,-0.074998826,0.041729823,0.073182136,0.017408457,-0.098378636,-0.034391318,-0.013880189,-0.046108335,0.0134948855,-0.050735574,-0.025131281,0.03732362,-0.07057888,-0.027762223,0.015760783,0.026944686,-0.08440142,-0.037558127,0.048637725,-0.08234931,0.074528,-0.0011249206,0.060308006,-0.08992547,-0.017660404,0.042057965,0.030901767,-0.016305894,-0.042724982,-0.058924146,-0.011773817,-0.014766661,0.0095816925,0.054671958,0.021407185,-0.0036463344,-0.0055803927,0.0362827,0.054747008,0.038816545,-0.05147208,0.04105795,0.04835006,-0.09836866,-0.011530874,-0.05227887,-0.10831492,-0.08409583,-0.060314007,0.05948448,0.00017609523,0.016731605,-0.0652803,-0.046052977,-0.0051358943,-0.067818835,0.0020839358,-0.020209076,-0.07351258,0.043584105,0.019963095,0.079293996,-0.0032041408,-0.07978043,0.06659562,0.007237834,-0.080696166,-0.06446102,-0.04136382,-0.08070677,0.0243593,-0.051360033,-0.049901016,-0.0401149,-0.03381313,-0.09344206,0.023176368,-0.0005621739,0.054881632,-0.079734035,0.026471829,-0.046279483,0.06499967,-0.04255895,0.011677687,-0.037333995,-0.043753274,-0.016664665,0.06617541,0.008737426,-0.034956045,-0.058500834,-0.04152057,-0.02069393,-0.003096146,0.032246333,0.016898355,0.02659958,-0.019871509,-0.058108997,0.041736852,-0.044749647,0.0014406858,0.04834385,-0.062951,0.0045835893,0.028897831,0.031612664,0.049697902,0.013061147,-0.015406922,0.051373288,-0.01464013,0.0076547177,0.0065815877,-0.044317104,0.0708021,0.030275375,0.08163955,0.01623916,0.08071517,-0.06314558,0.06799044,-0.0727818,-0.04783165,-0.05642452,0.013903442,-0.0481575,0.06901349
0.008506329,0.021858856,-0.006101096,0.039908074,0.013762533,0.005661786,-0.0038105638,-0.05550025,-0.029426446,0.044002056,-0.039662827,0.03724466,-0.035288572,0.00014957761,-0.052744262,0.010885364,0.019104755,0.059963215,-0.0069137537,-0.0052743745,-0.026889008,-0.03295724,0.02191999,0.030169223,-0.03211041,-0.014946527,-0.0061618267,-0.029345345,-0.0054581016,0.015591198,0.05465997,-0.011902519,-0.0058360253,-0.056745842,-0.028787252,-0.05781773,0.01405294,0.018713605,0.028528694,0.0144939395,0.06589848,0.007846349,-0.04442572,-0.040148392,-0.044734485,-0.033145197,0.042794894,-0.0526686,0.03734503,-0.014135921,-0.011263425,0.035390995,-0.013725909,0.06011117,-0.0020266674,-0.043115225,0.046373263,-0.0471404,-0.059924457,0.014213422,0.043048225,0.038634166,0.035406906,-0.032636464,0.05587466,0.016425101,0.04151671,-0.02133838,0.0044155824,0.031360593,-0.049458645,-0.0037120772,0.02643116,-0.04944163,-0.0083539495,-0.022919977,0.03414268,-0.0027977747,0.056967683,-0.024569051,-0.01577826,-0.043480985,-0.0002783021,-0.047267515,0.040672224,-0.059841055,0.04532285,-0.05494859,0.04219314,-0.049949847,-0.011314662,0.05575873,0.017781688,-0.00080192985,0.012182643,0.046970896,-0.036364164,-0.00069377787,0.0051892037,-0.008715371,-0.035459787,-0.016240986,-0.014449293,0.043131787,0.055927116,0.048087135,0.049315177,-0.0027774544,0.061142545,0.003918791,0.031575024,0.043250006,-0.0024094481,-0.05123311,-0.043499637,-0.038865525,-0.058927875,0.05675711,-0.03933405,0.056536112,0.06019533,0.013990543,-0.061508916,-0.052571587,0.04762325,-0.02738995,0.009504694,-0.039777406,0.048417002,-0.0117890695,-0.02718776,-0.047755457,-0.028505223,0.018896049,0.025948508,-0.011186919,0.05740357,0.0056325877,-0.06438986,0.026858525,-0.04940359,0.013137872,0.004821868,-0.038353447,-0.03000168,0.04078517,-0.05521245,0.05792142,-0.027539603,-0.027851122,0.046656158,0.054553907,-0.012233633,0.024648964,0.05858384,-0.019918008,-0.012148976,-0.021379063,0.033176687,-0.032352004,-0.06169339,-0.042623457,0.05156006,-0.02990622,0.060153134,-0.006960257,0.0013949272,0.060736436,-0.022181131,-0.020151846,-0.020566905,0.009139605,0.03713425,-0.022322565,-0.057017088,-0.024478208,0.05382709,0.044765856,-0.045436796,0.042662874,0.06803422,-0.022822205,0.044334948,-0.00601736,0.051692523,0.048240554,0.057684783,-0.031612776,-0.06137499,-0.034144886,-0.021361407,-0.038163677,-0.04030492,-0.019950274,0.018781155,-0.027426468,0.03623973,0.04818491,0.05463954,-0.011487632,0.020087263,0.04858374,0.023076965,0.031005496,-0.034737334,-0.00428128,-0.05072019,0.05583326,0.06494676,-0.048469014,0.0315914,0.015849445,0.012957876,0.04829368,0.0494094,-0.003979013,-0.0005088275,-0.062680915,-0.04448273,0.056380082,0.059762146,-0.036428675,-0.034280736,-0.0028597612,0.06151259,-0.056067605,0.035106342,0.021720452,-0.0030543108,0.0423664,0.03383524,-0.054028768,0.04980646,0.025230398,0.0030212812,0.051161844,0.056869693,-0.03982031,-0.054114323,-0.021667594,0.046058692,-0.011104005,0.026354691,0.007495388,0.050148744,0.029798456,-0.028716626,0.0009217066,-0.00455385,0.037711997,-0.009070334,-0.039995074,-0.013138459,-0.010290227,0.054893866,0.032150984
0.03543194,0.103061765,0.040124707,0.018079134,0.046716243,-0.015979182,0.047981665,0.09533429,-0.011568381,0.02939094,0.10039614,-0.054903544,0.069646224,0.10415013,-0.0543502,0.09693836,0.07578075,-0.022367865,0.02661903,0.05148931,0.090284154,-0.07625928,-0.01516875,-0.0064740297,0.055724137,-0.05543567,-0.022744356,-0.117905445,-0.08727361,-0.102784775,0.039238073,0.015710881,0.032725584,-0.008099525,0.0022773969,0.018975208,-0.017315555,-0.08173599,0.026596086,-0.04918242,-0.11859969,0.027456513,-0.027353663,-0.13552836,0.00731223,-0.09594491,0.046021257,-0.001220442,-0.046095975,-0.10134628,-0.00047289877,0.10730664,-0.061945412,0.0074965386,-0.0062932856,0.0069479607,0.068625875,-0.100147575,0.015305755,0.026915919,-0.04359723,0.018815944,-0.049808394,0.06482066,-0.08687589,-0.020367188,0.056834467,-0.10489571,-0.07873545,0.06255037,-0.050311647,-0.017392553,-0.026044061,-0.012100585,0.020458644,-0.051347703,0.03823471,-0.0034610135,-0.11686612,-0.005416022,-0.05482279,0.050461028,-0.0696439,0.0075998474,-0.16287027,-0.023631563,0.024604047,0.08502332,0.04072848,0.095218964,-0.13996954,0.064969584,0.03707141,-0.058301523,0.020217838,-0.023836883,-0.08917699,0.0018400445,-0.10386702,0.0348487,0.03573521,0.055638064,-0.026346331,0.037164647,0.032563567,-0.0773384,0.042071816,-0.00021270745,0.0021567326,0.041662082,0.04907661,-0.06988233,-0.027634019,-0.042950124,-0.054131623,-0.084922455,0.021431645,-0.051543914,0.05412634,0.054535087,0.0025324253,-0.00297987,0.04037023,-0.040844943,0.044119336,0.023249194,-0.017284358,-0.104528695,-0.03290582,0.03537234,0.06485267,-0.006286014,-0.045667354,0.031388156,0.058897547,0.06683604,-0.06763796,-0.005452394,0.070703596,-0.101683706,0.07469785,-0.016023,0.06452806,-0.07947554,-0.06362977,0.01936421,-0.059326857,-0.021127455,0.019790739,0.081675455,-0.009999311,-0.011819469,0.06356231,0.020684194,0.051128823,-0.022340449,-0.049479146,0.008271342,0.04401037,0.03390416,-0.010593141,-0.11226899,0.1397393,0.011840957,0.044577856,0.0022533825,0.034323562,-0.122244954,-0.00043376719,0.035853375,-0.061338503,0.009803625,-0.0052194735,-0.049253244,-0.08788826,-0.040620655,0.05892135,-0.024076266,0.075604476,-0.11046135,-0.13150969,0.024551194,-0.032016117,-0.13934647,-0.0030984776,-0.14142677,0.07698806,-0.02652571,0.09138551,0.04065648,-0.0426738,-0.0062854695,0.10428236,-0.1102309,0.0017308894,0.0027346623,-0.09222868,-0.06747476,-0.026911039,-0.0031366167,-0.030765213,0.012343994,-0.02630665,-0.039035868,0.095644765,0.06729076,-0.15356177,0.027775653,-0.15751784,0.0028293268,-0.0083847875,0.021395786,-0.0791999,-0.06608092,-0.0014326121,0.039788246,0.070284046,0.049523037,-0.109889835,-0.025443038,0.036446184,-0.034731146,0.019515896,0.08159979,-0.117108054,0.05258898,-0.06888227,-0.09804317,0.019631619,-0.0037548915,0.11725698,-0.043888092,0.06629286,0.039261702,0.04825324,0.022962706,0.014127324,-0.0110789975,-0.0026116373,-0.046195976,-0.014345302,-0.07554395,-0.047126375,0.013878857,0.0618448,0.03904963,-0.066933475,0.07696005,0.021489268,0.061307505,-0.01972071,-0.08823022,-0.07413085,-0.08411049,-0.13440876,0.06867996
0.030082762,0.06513915,0.10172936,0.019174278,0.019661214,-0.035708804,0.03442748,0.012594908,0.067868315,-0.04144593,0.0962606,-0.13777395,0.058679346,0.108881414,-0.04918383,0.08790745,0.05534802,-0.0053691952,0.042585675,-0.010839196,0.012063838,-0.13914208,-0.010709462,-0.00031099078,0.055088855,0.015623273,-0.13323037,-0.09940669,-0.13451064,-0.073388554,0.0051137023,0.012714031,0.0869538,-0.01851336,0.032999538,-0.03799657,-0.054204337,-0.042577777,0.018083481,-0.0054530227,-0.09947022,-0.019051168,-0.03700365,-0.20921145,0.006629098,-0.09428242,0.014367664,0.06346208,-0.037793823,-0.021411045,-0.05523589,0.084927924,0.0029548262,-0.04056554,0.053020112,0.015677314,0.06678864,-0.0045837834,0.030391451,0.03083263,-0.01922824,0.030099379,-0.019997835,-0.00822327,-0.089661025,0.0021630658,0.04411314,0.007001557,-0.1084693,0.093743816,0.002831618,0.035894264,-0.041992705,-0.07672924,0.0802155,-0.07257967,0.046836987,0.0631024,-0.017801834,0.004559371,-0.11302618,0.065010615,-0.11911831,-0.07609084,-0.11754657,0.08606399,-0.018344458,0.002907357,-0.0629433,0.120837726,-0.032300796,0.05900635,0.07400982,-0.047216073,0.030292165,-0.06959593,-0.1309875,-0.100206494,0.008677977,0.074331775,0.03453409,0.03293495,0.05571799,0.0030502772,0.02324426,0.029985987,0.07946993,-0.041111276,-0.055445462,0.035651065,0.054438222,-0.1236215,-0.08515936,-0.047537025,0.014845031,-0.1020081,-0.024252027,-0.08715685,0.04601471,0.084657945,-0.06702615,0.038906746,0.062192447,0.033517756,0.037201103,0.015534489,0.008677861,-0.08660743,-0.009811508,0.07723794,-0.011311032,-0.09594269,-0.085549824,0.041285217,0.05276697,0.076228395,-0.05355093,0.062755525,0.07733123,-0.11191082,0.0876648,0.053284768,0.049442254,-0.042157702,-0.08657875,0.031455353,-0.02354494,0.026969207,0.0004946834,-0.015683798,-0.041959815,0.05977414,0.054200705,0.10589315,-0.012553339,-0.045604035,0.037396748,0.042396337,0.037480853,0.048429016,0.051678896,-0.123042606,0.13019782,-0.03287264,-0.0091358675,0.111678965,0.0034464325,-0.14191863,0.04252608,0.05587569,0.026497955,0.073384024,-0.087261505,-0.027159058,-0.05588447,-0.08027096,0.052049883,0.039473593,-0.0037525636,-0.039610445,-0.10550832,0.062569626,-0.083893575,-0.02297101,-0.07076774,-0.12713888,0.10704074,0.019810975,0.030689007,0.08403839,-0.09678046,0.0099546295,0.096232556,-0.14227206,-0.042632148,0.026646383,-0.020222582,-0.057441544,-0.06555948,-0.07719785,-0.01396158,0.08124965,-0.034510434,-0.09252215,0.07527297,-0.024680112,-0.115657955,0.06711003,-0.11525198,0.041196175,-0.015024212,0.030661836,-0.02436498,-0.010916913,0.0056151436,0.08356275,0.0078086113,0.05671118,-0.009421654,-0.015316061,-0.05594292,0.0214838,-0.014876636,0.035754405,-0.036335498,0.07712903,0.0069686007,-0.049197342,-0.016332079,0.0018737157,0.021983769,-0.08995903,0.10901294,0.019869782,0.026066288,-0.029919036,0.018718736,-0.08088546,-0.020778058,-0.14257212,-0.07160223,-0.079594895,-0.06969141,-0.028446514,0.013900041,0.03810247,-0.04471888,0.04900895,-0.09237619,-0.013387392,-0.02756034,-0.055187948,-0.10186323,0.02224499,-0.120502114,0.06829235
0.000972113,0.027880132,-0.025396025,0.037222598,-0.035382606,-0.06736532,-0.022538135,0.015420126,0.02603426,0.0029860735,0.021839753,-0.09808158,-0.022221318,0.013686313,0.03631017,0.015236319,0.039176602,0.050559085,0.043034647,-0.0011577746,0.06059727,0.01317603,0.009624002,0.035615664,0.070534155,-0.062875815,-0.0736363,-0.0074968664,-0.020246457,-0.023432937,-0.011228891,0.058080822,0.06537234,-0.024433816,0.02933037,0.07125968,0.0143596735,0.025815347,-0.015737979,0.013117018,0.017432954,-0.0020767567,-0.0074118013,-0.0054911184,-0.03834496,0.03638215,0.043473545,0.06333295,-0.020863865,-0.0440754,-0.011668628,0.08274738,-0.023171548,-0.037976716,-0.03206259,-0.04325939,0.011207307,-0.06468466,0.046825014,0.036247045,-0.028216861,0.048157185,-0.03526258,-0.046547923,-0.004336175,0.065595746,-0.028950471,-0.047740187,-0.08728307,0.03287538,-0.019140223,0.011534055,-0.0429732,-0.027246196,-0.0075626634,-0.007710018,-0.022259941,-0.039627347,-0.055092268,0.015767137,-0.06597291,0.019355267,-0.09088664,-0.06628283,-0.06327426,0.054195367,-0.018730395,0.052503336,0.06026017,0.05423472,-0.009879358,0.006539538,0.072982974,0.04171648,-0.05575309,0.015559287,0.02109363,0.035341047,-0.047089502,-0.013178938,0.005660405,0.023573952,-0.0022054715,0.0123655815,-0.03854321,-0.037574414,0.049252797,-0.03575768,-0.028762052,-0.011686584,0.033721235,-0.10293068,-0.0011904212,0.01616472,0.044359665,-0.07427863,-0.06268121,-0.064643145,0.07964999,0.0024898415,-0.0018808821,-0.02253165,0.026867347,0.042262904,-0.007998904,0.031939697,0.039155938,-0.015658991,-0.014892281,0.007932386,-0.046835616,-0.0064806202,-0.014091371,-0.03047067,-0.032300048,-0.015384537,0.0030724485,-0.035675388,0.061234094,-0.018835498,0.034824066,0.007996416,0.01525349,-0.074901216,-0.05362495,0.009067049,0.003566983,0.013804521,0.03323871,0.061263178,0.006251079,0.039721876,0.06689088,0.016301291,0.061211295,0.003634201,-0.04018964,0.050671652,-0.004542942,-0.04355273,0.02957221,-0.025204469,0.015382695,-0.052207172,0.049994618,-0.00013089739,0.029415617,0.007677276,0.001955978,-0.030204067,-0.023626179,0.0029039984,-0.020967657,-0.07377508,-0.062164485,0.03787113,0.026115127,0.022079691,0.06590134,-0.06472035,-0.04672774,-0.025791842,-0.061602492,-0.06052246,-0.007420458,0.029886661,0.056901313,-0.00384339,-0.01113348,0.017275885,-0.026815169,-0.0028566276,0.04039667,-0.029652132,-0.055499516,0.06013989,-0.018791366,-0.07490867,-0.019010007,0.044771023,-0.008462622,0.025728105,0.006476922,-0.0017320539,0.02015318,-0.033801395,-0.0042412565,0.026148314,-0.06773364,0.058893338,0.014475778,0.051564194,0.012242994,-0.00036001034,0.066972636,0.069620766,0.059114795,-0.028935246,-0.013062396,0.031749558,-0.03863477,-0.065738425,0.041545257,0.014634564,-0.044197742,0.07631329,-0.062111445,-0.035580337,-0.006324188,-0.04968205,0.038491275,0.041757993,-0.030708838,0.047565643,-0.04590338,-0.032548312,0.0103809815,-0.005380533,-0.060480446,-0.008939948,0.017810522,-0.06163278,0.03251503,-0.027308358,0.020108433,0.019894348,0.02217118,0.008568718,0.02913396,0.0040437747,0.010963169,-0.01660376,-0.07087481,0.0031418353,0.031954486,0.02617374
0.040950082,-0.007472318,-0.016763085,-0.029973174,-0.029789913,0.027011553,-0.021341281,-0.041507658,0.004535023,-0.027165823,0.02900101,0.0397908,-0.037804805,0.011306954,-0.026257483,-0.015418776,0.018176652,0.03291752,-0.059393954,0.06201543,0.04196535,-0.052823313,0.05896542,0.0068591866,-0.008176407,0.000820666,-0.025800465,-0.058898527,0.03767045,-0.004122642,-0.036188282,-0.008610627,0.04828319,0.02344085,-0.00128831,-0.0021059911,0.0137132695,0.034125146,-0.018498449,-0.0023019938,-0.0062797447,-0.03688032,0.05150614,0.011662473,-0.022662265,-0.05349941,0.007943197,0.041327167,0.019392414,0.0034414178,0.03731614,0.013240577,0.00011162774,-0.03535274,0.009386445,0.038141385,-0.045682084,-0.044598974,-0.010436691,0.025186792,-0.059953496,-0.0586612,0.0065956293,0.035699226,-0.06092137,-0.0074319537,0.022094915,-0.029695423,-0.027509702,0.022409078,-0.053358298,0.019911269,-0.014287278,0.003066505,-0.0010251529,0.054554712,0.05412089,-0.040651437,-0.0027269425,-0.048509907,0.014783379,-0.048402477,-0.045605812,-0.057290465,-0.023720384,-0.010421693,-0.037300766,0.036209565,0.054760244,0.030157957,-0.060444653,0.027075114,-0.035955444,0.058700897,-0.050841708,-0.003920528,-0.039466262,-0.03027399,0.04532902,-0.0641708,-0.011822083,-0.055728428,-0.04916045,0.009063509,-0.040638372,0.023433147,0.028265605,-0.039512027,0.030143172,-0.0007368867,0.009928444,-0.036074914,0.048049107,0.058724813,-0.041017246,-0.031173263,-0.044937607,0.010635731,0.036432758,-0.03255903,-0.03851501,0.017874576,-0.009606493,-0.030227497,-0.04381395,0.0036130673,0.032785553,-0.0262559,-0.0075057982,0.055830803,-0.02347576,-0.020974953,0.009565025,-0.012248031,0.045819387,-0.059206,0.040101554,0.009382496,-0.06076268,-0.062195573,-0.0019163471,-0.0593364,0.04783669,-0.039300643,0.04758508,0.03403957,0.044791106,0.05738326,0.004513196,0.042443424,-0.0028902686,-0.048337106,-0.022468306,-0.021183925,-0.0600675,0.0453087,-0.0495246,-0.024311796,-0.024186965,0.038183466,-0.051834036,-0.012540587,0.04803699,0.027318545,-0.051210336,0.012351184,-0.060067218,0.048405763,-0.052213527,-0.023115113,0.03862338,0.046301294,0.023320133,0.058534384,0.038345322,0.054342706,-0.031050531,-0.01398183,-0.033066105,0.039069403,0.05090411,0.05534331,-0.045479994,-0.036913197,-0.052380838,0.03318143,0.018879736,0.002978827,-0.0059467265,0.013374789,0.04902068,-0.034714248,-0.044027682,0.0052668652,0.041631527,-0.009772701,-0.035253607,0.04834538,-0.050384667,0.015355383,0.030961143,-0.014879146,0.049349368,0.02827005,0.033795398,0.057847433,0.02614434,-0.0031553465,-0.03438267,0.026548287,0.0385857,-0.04282632,0.023481537,-0.010160535,-0.059366595,-0.041734286,0.011668835,0.056062404,0.04098817,-0.03753655,0.002682405,-0.025707703,0.05926925,0.0003614441,0.047249794,0.03514338,-0.0017075418,-0.021846054,-0.030466506,-0.0065867044,0.009965927,0.017542657,0.025315976,0.011698106,-0.023491222,-0.00011626268,-0.0429199,-0.011866369,0.05506881,0.028412364,-0.056978934,0.061652668,0.0071750395,0.058307566,0.029194739,0.053213626,-0.026673788,0.033967864,-0.026813414,0.05119348,0.005780159,0.05519476,0.051564448,0.033166118,0.01173592,-0.060975462
-0.079849124,-0.049691763,0.0011788219,-0.029684259,-0.057952516,0.06627781,0.028277548,-0.08731396,0.0030580503,0.06325541,0.035460893,0.07321627,-0.03705776,0.0087929,0.05996149,0.010659979,0.034621563,0.05873591,-0.007001166,0.0394889,-0.076491676,0.00056474237,-0.014760597,-0.014537018,-0.06522221,0.05873467,0.06423175,0.00453835,0.03136,0.01633471,-0.010052185,-0.022745354,-0.0011543295,0.074423924,0.02463033,0.044453986,0.022440914,-0.01700834,-0.039686777,0.01828878,-0.014731447,0.038552735,-0.011108566,-0.042075057,0.092263296,-0.02349669,-0.08748168,0.026171798,-0.04558756,0.028646166,0.018522546,-0.079525955,-0.0021302614,-0.027149156,-0.029693501,0.017355733,-0.008123365,0.044219974,-0.0063161766,0.046678577,0.054454822,-0.04122813,0.006924165,0.013403776,0.058658727,0.024904944,-0.04589329,-0.028793383,-0.019070743,-0.0672231,-0.047557604,-0.027422933,0.091806754,0.06605563,-0.03636443,0.095538296,-0.038342178,-0.054736465,0.10371061,-0.04808926,0.04420796,-0.038317334,0.026730446,0.02897657,0.07872609,-0.03865603,0.009413159,0.02090394,0.018810702,0.008387493,0.0427741,-0.0049059773,-0.004564891,0.005340132,0.044732235,0.077151634,0.06310083,0.043757435,0.021009749,0.012925699,0.04371483,-0.047233112,-0.034710385,-0.05222743,0.0016033117,0.009521301,0.033998266,0.018924406,0.06571334,-0.026658447,-0.056368012,0.054002885,0.017228153,0.033679772,0.0007184906,0.0069786008,0.036170054,0.0698998,0.0052921535,0.038451098,0.0036632235,-0.03533009,-0.043925993,-0.029951952,0.02885673,-0.02617042,-0.021991443,0.0777625,-0.06671543,-0.084801346,0.054512955,0.063256145,0.04363688,-0.038690325,-0.041450053,0.034211714,0.04320581,-0.06568332,-0.021626476,-0.029365584,0.04122508,0.029234394,-0.048128173,0.053894598,0.064365916,-0.066093765,0.056085546,-0.03490964,-0.025927885,0.03587619,0.042756032,-0.054021917,0.06825518,0.010090461,0.04086302,0.038534597,0.03156864,-0.016833238,0.0040201643,-0.053205647,-0.022300238,-0.005408871,0.0016086595,-0.05079015,-0.0061992374,-0.031475052,-0.048717007,-0.025356933,0.013913662,-0.035870336,0.01975234,-0.059561893,0.012667063,0.06850325,0.0008370501,0.08949779,-0.057587374,0.037455548,-0.03594537,0.074901246,0.074992865,-0.051658466,0.051839147,0.076414466,0.035997294,0.042039905,-0.021333361,-0.044233277,0.0031124542,0.001929926,0.008470196,-0.05974939,-0.057474907,-0.030103816,0.06857703,0.0142810065,0.050245125,-0.025371842,-0.019347936,0.055825993,0.08505082,-0.055380885,-0.023650022,0.0025001047,-0.011115501,-0.057278648,-0.01671492,0.0008153298,-0.0011131071,0.017791508,-0.0005540995,0.011370335,0.04714978,0.046369944,-0.035467844,-0.05551987,-0.015020171,0.022195466,0.013842643,-0.013234827,0.024875568,0.034122325,0.020595836,-0.045983627,0.07554921,0.05268126,0.09706532,-0.024228627,-0.018845275,0.05978303,-0.07448552,0.060476623,-0.0057908013,-0.06538979,0.036140237,-0.00054286874,0.0030917716,0.029113388,0.038439926,0.07890198,0.049806662,-0.021297812,-0.04368581,-0.058875564,-0.0061597917,-0.088970535,-0.033240963,-0.059186935,0.073397756,-0.020968648,0.0072907107,0.0073887412,0.08750777,0.03305262,-0.020040741,0.038518827
-0.03720154,-0.048518416,-0.05800114,-0.020879537,0.015546414,-0.009444365,0.025882265,0.02984428,0.042880546,-0.011103824,-0.003661506,0.058474366,-0.014996094,0.0010145893,-0.002923084,0.0017858944,0.048454616,-0.004526741,-0.03756628,-0.022100588,0.026498249,-0.009658399,0.019733278,0.006881765,-0.031866815,0.07304491,-0.039493077,0.04796628,-0.03083106,-0.0047931657,-0.019809695,0.060382955,-0.03556338,0.009270139,0.046508748,-0.040204175,0.02056418,-0.03777511,0.053192202,-0.04509759,-0.013909864,0.04757491,0.037233777,0.017486753,0.049648456,0.028326286,0.047904525,0.053284008,-0.007224282,-0.03321679,0.067872584,-0.019018902,-0.006606606,0.058461957,0.038474772,-0.027694752,0.050531097,0.0018907739,-0.0002675448,0.040034655,-0.04868087,-0.05762321,0.011389346,-0.019543264,0.062621295,-0.053364612,-0.05197424,0.0482799,-0.039794356,-0.05817843,-0.0012835788,-0.0016607066,0.057012524,-0.02853991,0.0516904,0.010791958,0.036582794,-0.034980327,0.070377626,0.04503739,0.009333954,0.043549977,0.05674552,0.016882125,0.021298466,-0.010423953,0.039605245,-0.049830437,0.059241228,-0.0016870805,0.006780467,-0.024675354,-0.021146504,0.062096033,-0.0066544325,0.071171306,0.0064807376,0.042932007,0.039622672,0.03561884,0.04276155,-0.047408637,-0.053719807,-0.055774037,-0.04677147,-0.014580271,-0.036755636,-0.05131876,-0.027114255,0.00793361,0.005028609,0.01799883,0.019322636,0.014198227,0.027163524,-0.053363606,0.020003287,0.009210163,0.053558495,-0.028711569,0.011448229,0.050962947,-0.050844967,0.0021111176,0.025620721,-0.040005624,0.0267043,-0.04238643,-0.0006222625,-0.0029861024,0.035863236,0.02551948,0.006749222,-0.03026075,0.015729431,-0.03546737,0.062314756,-0.028711958,-0.00076568365,0.0023515013,-0.045683164,0.03614905,-0.006369895,0.041715782,-0.042710576,0.04064016,0.028642602,0.045025177,0.003071644,-0.019859428,-0.042066753,0.060255896,-0.0048895287,0.055180866,-0.041419003,-0.055556193,-0.039557923,-0.010237062,0.05454978,0.007980472,0.051475987,0.06599338,-0.02942637,-0.053316027,-0.0052120695,0.057382338,-0.036865752,0.03344221,0.033079274,0.018287085,-0.033159923,-0.030105114,0.070274055,0.057169247,0.06494221,-0.011867194,0.031384688,-0.0445535,0.045560952,-0.01245193,-0.03157645,0.05799241,0.036660463,-0.028837552,-0.00030105584,-0.0057932227,-0.050473798,-0.011194291,0.031279024,-0.032955803,-0.015425929,-0.044920426,-0.045251407,0.066678494,0.019997241,-0.04787021,0.053106546,-0.023103327,0.01685626,-0.038995355,-0.034339257,0.060484596,0.014905841,0.04276521,-0.020259278,0.020631555,0.015463958,-0.026948292,-0.03286643,-0.030095614,0.04833813,-0.0030663866,0.021570798,0.02839801,0.010220672,-0.049862124,-0.047209468,0.02973567,0.057775848,-0.036442135,-0.024123529,-0.02771367,0.018065633,-0.01749921,0.019934699,0.0026351246,-0.048191838,-0.030668419,0.0021231056,-0.020442016,-0.01236919,0.055731658,-0.0044012214,-0.04432767,0.046658784,0.025064625,-0.055094503,0.024820566,0.072609484,-0.044947192,-0.017056644,-0.055075698,0.010726213,0.016792795,0.0412162,-0.011689888,0.037663817,0.020826349,0.024835173,-0.031156953,-0.011812434,0.023177836,-0.018639706,-0.01582784,-0.03036441,0.0040259347
-0.021348953,-0.026462367,-0.059834972,-0.04839159,0.009688573,-0.026115473,-0.0036701588,-0.0679442,-0.063863546,0.04216692,-0.026611662,-0.055259984,-0.052269146,-0.06224098,0.05038381,0.0028653617,-0.03410949,-0.023424916,0.045424726,0.016344156,-0.02638436,-0.03351032,0.039260335,-0.044484593,-0.023753732,0.06478749,0.034411073,0.050437927,-0.0051337294,0.038782652,0.024379812,-0.040153068,-0.046740074,0.02576251,-0.010009995,-0.023680529,0.04533447,0.0077523957,0.04586136,0.06846468,0.031816687,-0.053263012,-0.0230961,0.027324464,-0.010154971,0.050283216,-0.053834397,-0.044073813,-0.018766066,0.04254105,0.07446437,0.012985013,0.02287133,0.013267696,-0.022401892,-0.01018594,-0.03673756,0.057289388,0.025173023,0.04312408,-0.026587168,0.008998971,0.011064101,-0.01658572,0.037957955,-0.040011622,0.012304846,0.07318742,0.010313987,-0.060150113,-0.04088029,-0.009147564,0.04394642,0.04975783,0.043910775,-0.034340564,0.045162346,0.05056922,0.030565873,0.0014347321,0.003199127,-0.070635915,0.023620294,0.06515002,0.0064795003,0.009508173,-0.011916903,-0.034956913,-0.03912868,-0.014978779,0.058409516,-0.034808703,0.007080577,0.058848422,-0.048625443,0.028269155,-0.025528321,0.025175586,0.014915452,0.057385113,-0.04655871,-0.021972861,0.03494425,-0.034240857,-0.05895559,0.050189156,-0.042008672,0.06818147,0.009189763,0.039067324,-0.07202248,0.027041215,-0.008450718,-0.045046046,-0.042533465,-0.03898209,0.039620865,0.04250646,-0.039642464,-0.0008863511,-0.023119858,-0.047468867,0.037508294,0.0076893554,-0.006699509,0.069899835,-0.005249578,-0.022133375,0.04789179,-0.0014332455,0.055528577,0.0805083,-0.04982195,0.024225138,-0.053068507,-0.05474146,0.0718793,-0.01215327,-0.06519618,-0.022208566,0.006887093,0.034419622,0.057685904,-0.04150384,0.070214204,-0.009684054,0.0021982787,-0.055491652,0.02405334,-0.016709372,0.044296924,-0.04074172,-0.055732686,0.020097384,0.043729696,0.03228268,-0.008335523,0.021164322,-0.037277497,0.022630205,0.02436255,-0.00016338068,0.040466037,0.05253376,-0.041775912,-0.014029576,-0.021015001,-0.055765156,-0.053274095,0.04279362,0.008424785,-0.009281768,0.066237554,-0.030710537,0.05211003,-0.034039438,-0.008230083,-0.031693313,-0.046783738,0.05831278,-0.043054633,-0.027745217,0.05057203,0.036541525,-0.04599422,-0.0467846,-0.011184611,0.011301952,0.02829265,0.001630984,-0.041550938,-0.053723104,-0.017681044,-0.039187793,-0.021062829,-0.064451925,-0.041445684,-0.041472636,0.009137486,-0.042731877,0.040650226,0.050148226,0.06874761,-0.011958208,0.010299823,0.025530474,0.01377259,0.03295801,0.0011242032,-0.014102663,-0.0349276,0.009582286,0.054587208,0.0010877573,-0.06534281,0.0017801994,-0.018396439,-0.022512691,0.069891915,0.05606096,0.019742679,0.029279133,-0.038960405,-0.003854652,-0.0036098838,-0.05114537,0.04051216,0.014507165,-0.019677473,-0.040497966,0.03574109,0.029078392,0.030998958,-0.0018230799,-0.060579255,0.03833649,-0.03028149,0.05336997,0.0571887,-0.04293297,-0.029238407,0.014868157,0.023935547,-0.00063476356,0.0008160628,0.038377713,-0.0011544111,-0.045056414,0.04392864,-0.0056190407,0.015502078,0.043420456,-0.012448917,-0.03516334,0.020046694,0.031524137
0.042179137,0.005999269,-0.052671507,0.022136364,0.019500256,-0.04185928,-0.058358297,0.00037413285,0.008576132,-0.050702758,0.02441312,-0.02576934,-0.0072765257,-0.05164116,-0.03737739,0.033595715,-0.05210428,-0.06132686,0.018938685,-0.036444116,-0.039256845,0.017723044,0.051721755,-0.020307697,-0.028593775,-0.02700492,0.036036644,0.0416793,0.028771792,-0.018360984,0.05828549,-0.035965953,-0.010550453,0.020531692,0.015269501,-0.04198118,0.06001541,-0.005098909,0.05193916,0.008886948,-0.0054217596,-0.058241606,0.035744876,0.03824709,0.059481107,0.061147865,0.032107938,0.011493268,-0.034109596,0.060794886,-0.0008114045,-0.020019012,0.02427748,0.0014496526,-0.017543443,-0.028776994,-0.05898329,0.03149993,0.06106745,0.03130236,-0.040549777,-0.050778616,-0.009396837,-0.021172468,-0.028900428,0.032185473,-0.058534205,-0.009569471,-0.062307265,-0.0023438127,-0.0549054,-0.043499008,-0.009434855,0.026840478,0.009478379,0.045310304,0.035687268,-0.05346226,0.048591863,0.037853695,-0.015918953,-0.061514877,0.03216054,0.03751656,0.011950581,-0.031693265,-0.060611513,-0.012936478,-0.009702464,-0.052501574,0.031978406,0.059624564,0.014570146,-0.004507285,-0.034658514,0.056204934,0.041232936,0.037730616,0.05983997,-0.0041953777,0.01919771,0.05961657,-0.017039007,0.03175856,-0.05252,-0.036689118,-0.057500217,-0.062064715,0.03727286,0.00660408,0.03997293,-0.030570561,-0.027805388,-0.06056163,0.030851465,0.034942884,-0.0061664996,0.010139421,-0.037559513,0.036541313,0.013950045,-0.046580434,-0.03524656,-0.008127722,0.05405157,0.006630374,-0.02509616,-0.06084129,-0.053479362,0.04060975,0.017815404,-0.035471126,-0.024143495,0.004239704,0.013295498,-0.052667383,0.021874862,0.05695695,0.037636507,-0.0027789178,-0.010786479,-0.007563565,3.734303e-05,-0.015624613,0.03734546,-0.0094996365,-0.022077702,0.0416398,-0.027542006,0.05006644,-0.038752675,-0.06090114,-0.05067545,-0.048368372,0.054480113,0.014784865,-0.05033339,0.04259094,0.0039697518,-0.00019766363,-0.048100084,-0.02207887,0.042676,-0.025043653,0.016034849,0.05514979,0.04850413,0.058910556,0.04224877,-0.004547819,-0.052026995,-0.04985251,-0.050254673,-0.060465373,0.014291208,-0.0026413156,0.050444428,0.059534788,-0.061256684,0.046365388,0.048341107,0.014506587,-0.025323331,0.033516303,0.05491934,-0.0072864266,-0.00031180825,0.037208278,-0.031635337,0.007977535,0.058253054,0.009815152,-0.04416472,0.03463546,-0.010495532,0.033690095,0.024532551,0.052583598,0.049210057,0.031220188,-0.06271724,-0.03836663,-0.0343831,0.025362302,0.0389252,-0.0040808152,-0.015040273,0.0109955445,-0.008721323,-0.009865384,0.0087238625,-0.03442531,-0.041414727,-0.035423413,-0.0039964197,0.059247438,-0.012920634,-0.033837534,0.05351196,-0.04770322,-0.055662524,0.061442513,-0.024522165,-0.02196546,-0.0045143436,-0.052152008,0.0018439433,0.00640579,-0.0396126,0.017439768,0.025917377,-0.060221605,-0.039519053,-0.050180133,-0.01221452,0.045487747,0.02203209,-0.02565149,-0.05028422,-0.038191885,-0.019219602,-0.059387572,0.025149036,-0.05470069,-0.040426053,-0.0048403,-0.039630022,0.060365427,0.027494526,-0.024137272,-0.041052382,0.025048068,0.044450033,0.021168577,-0.020890957,0.05922795
-0.02508429,-0.0073031406,0.007120328,-0.00549106,-0.05095742,-0.034480702,0.04730614,0.023187729,0.055376306,0.029457947,-0.017396335,-0.015832929,0.010255537,0.011809901,-0.047920905,-0.029395837,0.028908787,-0.05340181,-0.061618477,-0.04809212,0.008685016,0.044023808,-0.05354628,-0.033798683,-0.020991953,-0.034050457,0.008916896,-0.029558921,-0.0071205054,0.006708808,-0.05747998,0.015233464,-0.022019355,-0.011073584,-0.0028542923,0.0043883137,0.03943486,0.060990505,-0.014632369,-0.01723684,-0.034042966,-0.014333637,0.043762404,0.025936887,-0.0051052114,-0.052853465,0.0499737,0.04766979,-0.018467406,-0.0025959327,0.034896404,-0.008793125,-0.034800205,0.03192481,0.004667165,-0.0029640463,0.010234729,0.0020564948,-0.03998396,0.014638058,-0.03802803,-0.0457836,-0.0038165085,-0.024161806,0.01357667,0.03690695,-0.03322665,0.040100336,0.014648386,0.009912111,0.041110452,0.010480163,0.012191955,-0.06084578,0.03771099,0.06081034,0.043860927,0.050106615,-0.044615693,0.03320343,-0.015585203,-0.020874046,-0.025059355,0.03323402,0.04568173,0.022375636,0.058826458,0.0110430885,0.005605645,0.04887484,-0.03274895,-0.052732505,-0.04809195,0.013006633,0.056168627,0.018847419,0.04262491,0.031195099,0.045006167,-0.04089684,-0.044595357,-0.055866025,0.015092344,0.04660667,-0.062361296,0.03025913,-0.050752908,-0.02752244,0.045677673,-0.061478313,0.016904622,-0.039879575,0.060614437,0.0065571717,-0.04559684,0.04340743,0.031839274,0.013788605,0.004866637,-0.05840858,-0.028218554,-0.015564987,0.051086616,0.017865142,0.05247925,-0.01257811,0.01630921,-0.03677952,-0.016170263,-0.031780653,0.009787392,-0.003909529,0.024049675,0.061454218,-0.038722303,-0.052625682,-0.007818577,0.05140889,-0.002606316,0.014742856,-0.047625393,0.05015164,-0.006070081,0.016260358,-0.02703054,0.061585307,-0.018315526,0.016075963,-0.042021606,0.008558012,0.051523533,-0.061285287,0.017443137,-0.03183481,0.007912013,-0.054439154,0.030258741,-0.044234205,-0.032463927,-0.05189542,0.03636928,0.019764466,-0.05327756,-0.04573831,0.009417517,0.06160044,0.016421713,-0.061000213,-0.01599299,-0.022102207,0.027106227,-0.029558158,0.022918722,-0.056825273,-0.009301718,-0.031003907,-0.053815696,0.014649445,0.061681326,0.029185236,-0.016165212,-0.00036644968,-0.034879364,0.046547,-0.007860407,-0.0204432,-0.04380854,0.012645325,0.011495944,-0.051524132,-0.0005124263,0.048907973,-0.0018787871,0.0093260165,-0.010181856,-0.0068828776,0.049528226,-0.05944351,0.01976906,0.060999654,0.023930417,-0.004076394,-0.051558275,-0.030199632,-0.0177936,-0.0340818,-0.012973371,-0.04318185,0.023862131,-0.048047617,-0.0390641,-0.00026978488,-0.005765541,0.053243715,0.03158392,-0.03485991,-0.003899098,-0.014662084,0.02757489,0.024846686,-0.05996028,0.053869605,-0.04205107,0.042728852,-0.031512883,-0.0011060563,-0.026494842,-0.02277883,-0.0056425864,-0.0062873457,0.04507785,-0.026874755,0.023352453,-0.047416218,-0.03097801,-0.004229441,0.06191875,0.039781947,0.059662003,-0.048437808,-0.028961701,0.026995447,0.0003773452,0.032947853,-0.021694466,-0.001199876,-0.048032388,0.050479364,-0.05036758,-0.02791824,0.056794763,0.037985705,-0.008919817,-0.060404215,-0.031749986,-0.03776806
0.06285231,0.07021849,0.039154857,0.10448519,-0.013189656,-0.04267678,-0.0067254067,0.031170253,-0.0051518115,-0.0548953,0.100660585,-0.031870805,0.09796013,0.0313851,0.009751695,0.07454414,-0.006850181,-0.05195317,0.00051573484,0.020705387,0.027814316,-0.100135095,0.0131729795,-0.07652939,0.09448088,-0.055597935,0.025871933,-0.06533994,-0.0664104,-0.18825044,-0.00014635795,-0.027931051,0.08545841,-0.005859928,-0.07245787,0.058230333,-0.067439094,0.0036331108,-0.022816492,-0.08068513,-0.012702596,0.07845487,-0.09052261,-0.049616985,-0.10711528,-0.020284843,-0.0026891679,0.09324964,-0.039001796,-0.06288533,-0.099696614,0.09997295,-0.07900952,-0.10644876,0.12031959,-0.094450854,0.06328101,-0.011964867,0.039487734,-0.06526964,-0.11128718,0.069344744,-0.10578607,0.070569895,-0.12305847,0.11265249,0.041817192,-0.10400108,-0.031367507,-0.016476918,0.02121921,0.05202554,-0.055893485,-0.08585263,0.0640687,-0.07197337,0.113775395,0.033148795,-0.16253006,0.02790882,-0.04105489,0.06725701,-0.056221664,-0.12725663,-0.0052607954,0.12054483,0.06581156,0.029060364,0.045621492,0.025395857,-0.117830575,0.08602974,0.06503812,-0.11546064,-0.045493726,-0.109878875,-0.043864883,-0.022409258,-0.1007706,0.05034601,0.05424415,0.10306085,0.09456876,0.09120103,0.038915344,-0.03127398,0.048533197,0.0131879095,-0.007737646,0.053080842,0.10219938,0.022925766,-0.022959242,-0.10359056,-0.027117634,-0.055910032,0.01836061,-0.09729959,-0.052672524,0.0020263558,-0.062360495,0.039097153,0.02758921,0.055875137,-0.036888715,-0.06746997,0.022691626,-0.11062084,-0.020503355,0.0006837619,0.021338101,-0.063949436,0.007854419,0.02686241,-0.018530693,-0.06458625,-0.07097446,0.051566094,0.062898494,-0.088306166,0.080966525,-0.01024391,0.044042896,-0.041049805,-0.060780313,0.00028975445,-0.02028695,0.028019773,0.07715472,0.074374996,-0.05221609,0.06071063,0.017124303,0.024646007,-0.002444657,-0.0021771658,0.0013954565,0.075368494,0.018713139,0.03575708,0.049385086,-0.04392896,0.081110366,0.037590567,0.0025045744,0.07217776,0.054878496,-0.0395538,0.039670102,0.07582944,-0.08918045,0.03192708,-0.05075034,-0.13630354,-0.024416443,-0.038110923,0.04292644,-0.018353298,0.08511666,-0.11056863,-0.024446068,-0.010525239,-0.022922857,-0.07847766,0.051107135,-0.031790808,0.018807007,0.086650215,0.031202884,0.016506175,-0.068101846,0.060277935,0.09678257,-0.058596347,-0.061025098,-0.03126802,-0.005337552,-0.10297009,-0.027880037,-0.023599237,-0.111595854,0.026449535,-0.09603461,-0.0576251,0.10812845,0.061561413,-0.006856187,0.074431576,-0.1032252,0.094036184,-0.1059019,0.09921882,-0.13925067,-0.09377717,0.0551743,0.08834893,-0.04146238,0.0278953,-0.09256018,0.013024531,0.04936848,-0.114703216,0.058111783,0.059445016,-0.047530234,0.050068077,-0.10281003,-0.026017549,0.0034126514,0.02039063,0.05096549,-0.11748321,0.06480809,0.016509619,0.030981783,0.06283212,-0.008688297,-0.028091483,0.04554277,-0.09057385,-0.10755309,-0.0158759,-0.04414071,0.099728286,0.04561334,0.11103446,-0.0550631,0.08698282,-0.06857323,0.04157679,-0.10251894,-0.08801217,-0.077916406,-0.06732484,-0.11347217,0.0997436
-0.120625116,-0.12063995,-0.1398963,-0.017502664,-0.009761779,0.053096633,-0.008089019,-0.114701815,-0.11540219,0.050055593,-0.118526034,0.098320544,-0.046115894,-0.09979497,0.037330907,-0.12184979,0.0082004275,-0.0032029334,-0.081400454,-0.038411997,-0.065057755,0.084198035,1.5497662e-05,0.1099589,-0.051201437,0.14741911,0.052160177,0.13332689,0.0852215,0.14440773,-0.101636045,0.05476738,-0.12774116,0.079396166,0.09898295,0.071683876,0.094405584,0.105111994,0.08857955,0.043394655,0.05299479,-0.007232026,0.15359473,0.052035645,0.05933151,-0.065632924,-0.104418926,0.12587373,-0.074663945,0.14707424,0.075611174,-0.06571154,0.18625565,0.13401759,-0.13429445,0.03852094,-0.023274679,0.12269848,-0.12804489,0.14307478,0.034661822,-0.0963197,0.1022624,-0.07964804,0.0950345,-0.086728685,-0.08586691,0.074550785,0.13444693,-0.09423431,-0.04627388,-0.104280196,0.13305138,0.03809044,-0.073368214,0.116187245,-0.010244481,-0.09372703,0.20058246,0.007564254,0.04751308,-0.1119028,0.07698094,0.04600871,0.083698764,-0.13557446,-0.019797325,-0.10103522,-0.038369853,-0.12001596,0.09479505,-0.062803224,-0.12038756,0.066024125,0.09327697,0.23281784,0.05757111,0.03832676,0.13846841,0.051065996,0.039786004,-0.053766727,-0.12595928,-0.045993026,0.056015678,0.009138662,-0.09913845,0.11295546,0.14270611,-0.057298988,-0.02264993,0.08867753,0.17025556,0.020567667,0.13211872,0.062447395,0.08269584,0.151304,-0.04354491,0.03797087,0.107327424,-0.05038506,-0.07326411,0.04344185,-0.042350188,0.064281896,-0.114366956,0.06538188,-0.06596106,-0.035442065,0.01839753,0.11449698,0.08829496,-0.06262783,-0.04249543,0.010423451,0.03296196,-0.09709943,-0.0643668,0.15443724,-0.0077143535,0.014320552,-0.054177202,0.040113304,0.06168916,0.07139141,0.03235245,-0.04140664,-0.05694821,-0.046331428,0.12545341,-0.06336614,0.036829803,-0.083214045,-0.09633545,0.08583458,0.04623267,-0.0894845,-0.011809703,-0.1292344,-0.023727864,0.07109516,-0.07646141,0.029184705,-0.080214925,0.037926614,-0.11436407,0.056837503,-0.058198985,-0.06804846,0.1571153,-0.12816507,0.11673471,0.1134093,0.070177495,0.050065007,-0.11917197,-0.0034796244,-0.056038328,0.074517004,0.10782081,-0.010361709,0.13522261,0.0962597,-0.023447916,0.09661877,-0.15305014,-0.070383206,-0.07104558,-0.06734931,0.103758715,-0.07269754,-0.115061685,0.11966325,0.043013908,-0.063966066,0.10507804,0.13551429,0.06392816,0.10781724,0.053274047,0.06194272,0.07678577,0.03904805,-0.11955607,-0.0970871,0.079279356,-0.05341013,0.08059871,-0.07017698,0.065690726,-0.05801221,0.18600638,0.14606231,-0.14970294,-0.14666538,0.10350021,-0.11711835,0.1092563,0.06824257,-0.030677248,0.050657567,-0.010263811,-0.10148125,0.035566635,0.015804121,0.13753156,0.0139299445,0.054593787,0.025391236,-0.09853091,0.11314302,-0.08440529,0.02648859,-0.014000844,-0.055938397,-0.1161832,0.10098301,0.059644204,0.08057376,0.12531684,0.026044268,0.106175914,-0.07715664,0.02085256,-0.14618644,0.056901436,-0.051949788,0.07129365,-0.04400119,0.07315113,0.09741933,0.10807425,0.14091428,0.093683876,-0.08245312
-0.03887197,0.057805847,0.010583214,0.032560762,0.047753036,-0.007367171,-0.024922784,-0.03738597,0.054093704,-0.045060962,0.04955921,0.054840207,0.034413308,0.0082216505,0.008439974,-0.044280067,-0.0077473586,-0.016341802,0.04872714,-0.045896698,-0.014507974,-0.044434786,-0.020184068,0.051996168,0.045575425,-0.050498962,-0.019158045,0.050557148,-0.0033576873,-0.04454954,0.05085225,0.025097398,0.053789545,-0.018109005,-0.013847592,-0.013947397,-0.02713277,-0.02126471,0.061377164,0.049962286,-0.049804263,0.019013692,-0.059397943,0.044906612,-0.040382054,-0.060762484,-0.056686066,-0.054907907,0.025517425,0.031775713,0.00439177,0.015948312,-0.03712639,-0.039234884,0.014604901,0.025552103,0.0019996155,0.041946914,-0.013272251,-0.014542985,0.03549496,0.044471458,-0.0042696083,-0.060323082,0.043478996,-0.052752085,-0.032742538,0.030660924,0.0019776935,-0.0094457995,0.018057544,-0.037913464,0.031297144,0.0036671576,-0.025660628,-0.033277925,-0.053805888,-0.03319544,0.004180723,-0.0448165,0.05195204,-0.046874754,-0.016135894,-0.049897186,0.0090135615,-0.0036763458,0.0037116418,-0.039666105,-0.006745528,-0.030141745,-0.035643626,0.04946022,0.017200554,0.05882063,-0.016552333,-0.0060854964,-0.017688405,-0.02086486,0.030139415,0.02821753,0.044392645,0.048343346,0.032568414,-0.02585256,0.033985894,-0.042187776,-0.03506651,-0.040537424,-0.043412127,-0.010458106,0.031635083,0.03839794,-0.017318424,-0.02413102,-0.0017465821,0.027866255,0.031302348,0.013358162,-0.0337321,-0.018886905,0.0150427185,-0.0130125955,-0.016385999,-0.059999745,0.059928812,0.046034835,-0.011979001,0.024228292,0.061763078,0.05602254,0.015112604,0.061525494,0.031848148,-0.003766441,0.049888622,0.033792716,-0.04952815,0.02749168,0.008510804,-0.058547493,-0.031469952,-0.048118137,-0.022565844,0.022698637,0.01657668,0.049861375,-0.042706523,0.037218727,-0.048460115,0.009232,0.033297848,-0.043261938,-0.025325054,-0.033948023,-0.03470801,0.0029907245,0.011502583,-0.017191015,-0.023009267,0.059094958,-0.053892814,-0.01927041,-0.01749405,0.022932693,-0.0009917971,-0.054887075,-0.022992935,-0.021382386,-0.06330431,0.0579924,0.030782508,0.019082073,0.047436945,-0.012611311,-0.035346683,-0.026914857,0.039816525,0.014894304,-0.015192736,0.013982324,-0.044648256,0.0019338663,0.014487464,-0.0032848732,-0.0076934085,-0.036921795,-0.014208377,-0.027101735,-0.01864688,-0.002336207,0.055335153,-0.020161228,-0.05844953,0.03182833,0.021489993,-0.056202885,-0.002113169,-0.014166597,-0.025809867,-0.028567547,-0.017689977,0.049898263,-0.00062951224,0.03673048,-0.050918054,0.055874944,-0.037250347,-0.0030449883,0.029246394,-0.043704055,0.008483285,0.0033191459,-0.045674782,0.027675573,0.017690182,0.018520001,0.007326477,0.04906164,0.024400057,-0.014942475,0.003164345,0.062330127,0.038287517,0.033223517,-0.0036828069,-0.05136476,-0.017627198,-0.0015515212,-0.0019242222,0.057648253,-0.050732907,-0.018253097,-0.03692914,-0.059717514,0.050735496,0.05226136,0.041209728,0.002531241,-0.0040506707,-0.027401678,0.019345645,-0.003979734,0.053146195,-0.04650354,-0.03825946,-0.042420726,0.019914825,0.03467109,0.011209804,0.019777544,0.040825486,0.035515167,0.026497485,0.009413095,-0.016286168,0.05507752
0.0024580008,0.0073574916,0.06022599,-0.0040867315,-0.023577474,0.012520132,-0.035931136,-0.0038281626,0.016580882,-0.055815157,0.024520144,-0.07137749,0.06347553,-0.007684972,-0.0347647,0.032118283,-0.007306624,0.031266578,-0.039679863,0.05483786,-0.027150463,-0.05478077,-0.040253486,0.022134371,0.02325497,-0.053983144,-0.005583953,-0.041537605,-0.020161716,-0.05495493,-0.024058608,-0.036353447,0.056906365,-0.04227137,0.018415812,0.002922349,-0.047645975,-0.0063040974,0.0030114,-0.054383203,-0.04213211,-0.0486613,0.031790305,-0.04781013,0.012447798,0.020537538,0.015066516,-0.00034715212,0.044581007,0.0066987188,0.00079279183,0.067648806,-0.014383412,0.034670137,-0.010541966,0.04478318,0.06056359,0.035855833,0.016723711,0.03948158,-0.06737065,-0.038721632,0.005485078,-0.05106494,0.023214508,0.061904974,0.015846042,-0.014104854,-0.07512917,0.04562944,-0.026647871,-0.014254555,0.029093277,-0.04139821,0.035422456,-0.0006654719,0.01701216,0.052288555,-0.033951953,0.0026022866,0.037766423,-0.017570244,-0.07207971,0.04539158,-0.014694363,0.0025851813,0.044585116,-0.04035879,0.013443007,0.041205093,-0.06375633,0.007712861,-0.01508316,0.048931222,-0.054274708,0.028377213,-0.05944665,-0.030161843,-0.0473849,0.044456482,-0.028691115,-0.0046104,0.041794557,-0.048423782,-0.05020723,-0.018187325,-0.02112972,0.013400073,-0.009721705,0.030881517,0.051541377,-0.06316489,0.013666638,0.018001767,-0.00022788612,-0.061046742,-0.020569012,0.016788006,0.037371688,0.0015070906,-0.004247945,0.026289128,0.03577009,0.019845357,-0.019693507,0.031285144,-0.0046043484,-0.0613403,0.051242456,0.0640826,-0.045296755,-0.038355343,0.016289992,0.06117017,-0.0055872626,-0.004024106,0.04486776,-0.010506205,-0.046201855,-0.01319678,0.05377038,-0.035466217,0.0220203,-0.0076740463,0.010542281,-0.049251255,0.007750895,0.06544004,-0.005546093,-0.03531357,0.002062141,-0.00011394975,0.03094757,-0.039011985,-0.039447982,-0.059411608,-0.017238945,0.07096075,-0.043751422,0.0011946536,0.060392346,-0.03571421,-0.028730221,0.031958457,-0.014844904,0.06853403,-0.008747878,0.025185682,-0.032726076,-0.004734734,0.047401264,0.03611705,0.054110326,-0.061316416,-0.048499845,0.047322184,0.057457756,0.0031224256,0.0077634756,0.018488282,0.03964956,0.06367465,0.03409304,0.014734483,0.0069640833,-0.055472728,0.06909213,-0.024569772,0.040777616,-0.00718375,0.034676515,-0.03109464,0.023751125,0.0071224207,-0.03368442,0.021112448,-0.022724712,-0.033312224,0.03783303,-0.04232496,-0.068687186,0.0360571,0.00033857298,-0.03637412,-0.044605866,-0.03075455,0.03770773,-0.04801613,-0.009337659,0.027370147,-0.032524664,0.005053791,0.047011178,-0.011167143,0.065125175,-0.0063015763,-0.026247002,-0.0034637277,-0.03891681,0.05360648,0.06360918,-0.031917326,0.001133335,0.05818476,0.041197114,0.033810034,-0.04235104,-0.06486344,0.024121916,-0.011704653,0.06773428,-0.0018935547,0.024695,0.051964253,-0.025440428,0.03224013,0.062713705,0.029415553,0.0071042683,-0.035607126,0.041204546,-0.049084906,-0.042419136,0.0062537715,-0.036105238,0.032826122,0.05547816,0.005360327,-0.012017029,-0.0050275945,-0.019928947,-0.023183377,0.0075432346,0.049195785,0.019436775,-0.006202529
0.017921083,0.08038154,0.039893124,0.06896461,-0.004108173,-0.054642856,0.077282414,0.07094513,-0.019501608,-0.03958256,0.056871478,-0.03690212,-0.035022523,0.009412283,-0.051137593,0.011328445,0.0236874,0.021178989,0.074211106,-0.0056938673,0.024311632,-0.062279683,-0.04575224,-0.041423142,0.017700942,-0.04049413,-0.07485328,0.014689855,0.0051509687,-0.035257082,0.056972973,-0.05330323,0.06538296,-0.012478765,-0.0392998,-0.041566137,0.018067924,-0.081123725,-0.07395705,-0.08062253,-0.015633602,0.053618785,0.011196004,-0.00015554315,-0.07706004,0.0392966,0.04296026,-0.019744223,-0.006097884,0.009596988,-0.03543812,0.01914027,0.00956273,-0.0004042058,0.026020411,-0.057639576,0.040457137,-0.056099616,0.005834335,-0.03188563,-0.015680162,-0.018778924,0.015775433,0.06278113,0.01747981,-0.021587042,0.013917695,-0.06798508,-0.08980908,-0.026497807,-0.031201081,0.07183506,-0.0808367,-0.06471037,0.034231264,-0.0430189,0.034316596,0.058158282,-0.09136366,0.04541798,-0.05168751,-0.010587981,0.009990776,0.020315593,0.017809898,0.010962056,-0.03568487,0.040539555,-0.047374666,0.06165934,-0.00464507,-0.02957956,0.0764203,-0.010753752,-0.052993745,-0.077477574,-0.04720151,-0.04063848,-0.09159882,0.04255651,0.03035122,0.042961296,0.012216772,0.06119702,-0.04091391,-0.003300442,0.050769452,-0.046560023,-0.0606755,0.03984654,-0.0073291003,-0.025448726,0.0038451632,-0.0005089701,-0.0058190175,-0.043841295,-0.0051312526,-0.06744626,0.025898617,1.8076178e-05,-0.060688533,0.036799412,0.029006356,0.04853508,-0.019978648,-0.07358034,-0.009756988,-0.07569279,0.04224615,0.004249595,0.00901245,0.003450124,0.02481437,0.043770716,-0.06072383,0.040833786,0.009017747,0.04808908,-0.00137417,-0.074919924,0.057218354,0.067922726,-0.017733738,-0.03007841,0.028272351,0.0633035,-0.07234566,0.056361854,-0.008306805,-0.008924304,-0.09598885,0.037191838,-0.029578103,-0.01597861,-0.018826246,-0.049687162,0.027058816,-0.016254114,-0.017384563,0.00095398637,-0.022197293,0.025744354,0.010268418,0.07293096,0.012078996,0.007017249,0.0030496707,-0.06673678,-0.025219113,0.03927008,-0.03952823,0.04690192,-0.032416366,-0.014315549,-0.03405508,0.0028066759,0.08231636,0.04211382,-0.027561134,-0.041466475,-0.026855087,0.07160181,-0.06650779,0.022978626,-0.03238255,-0.08044989,-0.015779996,0.08142089,0.024449827,0.020377642,-0.0831982,-0.0017716051,0.038408715,0.0066291406,-0.01309105,0.027323198,0.040010046,-0.05351925,-0.011415152,0.028226035,-0.013460889,-0.0019476131,-0.060809348,-0.053146455,0.045508336,0.089127645,0.042508014,0.0021929687,0.006103893,0.077208154,0.019607749,0.069157675,-0.08607603,0.005219057,-0.02410347,0.044944853,0.0039292877,-0.019289996,-0.074591175,0.07132623,0.0294184,-0.06185034,-0.04617933,0.0766425,-0.023305383,-0.008956788,-0.08576049,0.0323041,-0.03956689,-0.008687699,-0.0012279962,-0.07638484,-0.0019091858,0.066536695,-0.036121942,0.021108493,-0.031278238,0.030485542,0.018871116,-0.008295393,-0.08355787,-0.03076036,-0.033744764,0.06355131,-0.009849734,0.0019149845,-0.002276464,0.011990805,-0.0093955295,0.016622702,0.032213446,-0.08339104,-0.069989234,-0.056579124,-0.064140566,0.050512627
-0.13128835,-0.02126921,-0.12574373,-0.08677667,-0.02972295,0.03684103,-0.058817487,-0.15364687,-0.1558401,0.14514677,-0.0011609147,0.1126056,-0.14442849,-0.09768435,0.09846836,-0.098813936,0.06707288,0.003812255,0.010379558,-0.016592361,-0.07171254,0.08802989,-0.07603242,0.05136752,-0.026092123,0.17185085,0.0653148,0.184598,0.0859825,0.1944204,-0.07459009,0.06024094,-0.06006096,0.076018915,0.12635615,0.014335818,0.06860979,0.0994083,0.12666963,0.13894805,0.12284807,0.011615893,0.09591839,0.11090642,0.094007224,-0.067820646,-0.09928378,0.088256255,-0.07939335,0.067987025,0.10168418,-0.11533052,0.16094896,0.15090002,-0.08426014,0.10888214,-0.12851803,0.16617961,-0.08872392,0.10616172,0.083162606,-0.039846096,0.156368,-0.04807509,0.091356404,-0.038828213,-0.11395267,0.1531162,0.08676413,-0.02844207,-0.033748902,-0.12000766,0.10053413,0.045562323,-0.058550786,0.104034394,-0.018855145,-0.050348885,0.17021789,0.033147044,0.030593714,-0.037007764,0.083306946,0.15961908,0.032591708,-0.034800947,-0.10425711,-0.0147881955,0.057870943,-0.10540207,0.12869057,-0.004154168,-0.1104108,0.057391006,0.09698714,0.1998948,0.11283975,0.019104717,0.10544195,0.06646181,0.048689064,-0.11046677,-0.086572245,-0.11253536,0.02992163,-0.014564942,-0.14626838,0.07350582,0.16321726,-0.1539943,-0.1283378,0.030708883,0.12668827,0.088776685,0.10763777,0.12699594,0.066720836,0.16981496,0.009364326,0.054135725,0.066358216,-0.06495656,-0.05858636,-0.035999563,0.069554605,0.0984489,-0.01928573,0.17134216,-0.018210316,-0.10184591,0.066195905,0.15431488,0.04936387,-0.0946611,0.046475682,0.042037405,0.12027318,-0.08984522,-0.060882315,0.11214612,0.078820616,0.03167875,-0.024889734,0.0920932,0.053160492,0.027304735,0.0469401,-0.08996167,-0.10912216,-0.13591246,0.08096062,-0.11836749,0.111436196,-0.020603314,-0.021341193,0.03756166,0.06339989,-0.06573562,0.02889249,-0.14885148,0.03388757,0.1248503,-0.14916246,-0.039362367,-0.018594494,0.07922616,-0.12290399,0.06488511,-0.11325735,-0.03664627,0.16117357,-0.087290846,0.09837955,0.13741694,0.11617142,0.054170847,-0.068997964,0.009769614,-0.10286406,0.06116566,0.04097505,-0.01534484,0.032306846,0.17180523,-0.068595394,0.09433427,-0.17265676,-0.012625066,-0.035584066,-0.10766581,0.073828466,-0.062091168,-0.08041857,0.048740435,0.06830214,-0.027099341,0.034060284,0.074444994,0.072814055,0.017087445,0.12756673,0.0861113,0.13235928,0.024897054,-0.093646094,-0.112418436,0.122588575,-0.0856112,0.11370091,-0.023073405,0.09774105,-0.119460635,0.22162113,0.14179596,-0.09355578,-0.11681157,0.053247366,-0.12591404,0.10977465,0.05600803,0.053859588,0.15784284,-0.026429513,-0.11683627,0.0712604,0.033433888,0.18401214,-0.075821295,-0.032527734,-0.005547497,-0.07111487,0.07382356,-0.09084345,0.087927215,0.050261736,0.045729514,-0.15357992,0.046555854,0.05169906,0.033792116,0.121695004,0.0010405071,0.022675388,-0.063109286,-0.05045768,-0.112122886,0.033953104,-0.0013260384,0.065158024,-0.010370001,0.049428992,0.104200706,0.053128988,0.08444156,0.04609021,-0.09991282
-0.11795118,-0.12570933,-0.113067925,-0.08288968,0.011809484,0.12540632,-0.08591593,-0.08442231,-0.037607584,0.10472372,-0.085259646,0.030375516,-0.11405871,-0.01252772,0.041304216,-0.05622633,-0.06739467,0.049826305,-0.087875046,-0.02975633,0.005854724,0.08507884,0.06349467,0.10257138,-0.085981116,0.09163558,0.027916867,0.13296433,0.03839371,0.14324293,-0.013826503,0.025427846,-0.053815547,0.12810515,0.104782164,-0.0053153317,0.080221795,0.013654772,0.07252921,0.108435035,0.09349648,-0.01288398,0.094737776,-0.018346451,0.11397396,0.06411164,-0.055052284,-0.085688345,-0.07362191,0.059376102,0.12134758,-0.09298634,0.13342151,0.12768583,-0.12762477,0.078859486,-0.080735154,0.071967416,-0.10276943,0.083941825,0.057692237,-0.13907495,0.084394015,-0.058295846,0.03526801,-0.08370285,0.0013359094,0.03307203,0.07370217,-0.010410843,0.07341424,0.024095776,0.06250601,0.097619146,-0.041061796,0.13583697,-0.103921615,-0.034474477,0.16797253,0.008098633,0.08714107,-0.039316285,0.03313279,0.15944399,0.120757826,-0.1402762,-0.06540418,-0.10365375,0.0111864405,-0.14434384,0.16233517,0.019471789,-0.064055175,0.12252606,0.11303277,0.18461083,0.08029727,0.10025722,0.14263643,0.026920646,0.036030453,-0.0819138,-0.12524615,-0.101252146,-0.0038352483,-0.003585876,0.0069181793,0.025803601,0.09835162,-0.13767809,-0.027900998,0.04556702,0.06718274,0.11808121,0.033729944,0.016219897,0.007170306,0.14398205,-0.025794322,0.040903963,0.06779356,-0.036896028,-0.041992523,0.037147846,0.008937931,0.091037296,-0.10793511,0.116780445,-0.03906995,-0.05450068,0.016571386,0.06478385,0.0032901221,-0.029704012,0.015595209,-0.027422454,0.054329276,-0.052283164,-0.108587414,0.12864184,0.005144621,0.0015705172,0.012981669,0.0977019,0.029157847,0.012541606,0.11073569,-0.056963183,-0.035226014,-0.119281024,0.16595803,-0.0014605642,-0.015409465,-0.04710683,-0.041794807,0.059527524,0.0677823,-0.06317905,-0.06785551,-0.0314789,-0.024778683,0.112251885,-0.047187943,0.01697939,-0.00954327,0.008804663,-0.02253079,0.09745513,-0.100316904,-0.11610093,0.07804101,-0.014359276,0.034105718,0.14607723,0.106453955,0.099599384,-0.0784541,0.06006616,-0.025615668,0.037142,0.04507958,0.0030701736,0.11418428,0.07377023,-0.042389203,0.08413927,-0.028650772,-0.0745669,-0.098526314,-0.09163859,0.10255148,-0.01984918,-0.034796704,0.14033006,0.07933291,0.027935848,0.117636465,0.12007087,0.074261814,0.051120114,0.043152623,0.04286849,0.1293662,0.011339491,-0.08610214,-0.08522856,0.035109676,-0.06881465,0.04916568,-0.067437425,0.0081966,-0.047297847,0.16345108,0.048603877,-0.14289159,-0.13361779,-0.054899216,-0.07109517,0.09231857,-0.069595456,0.059470773,0.035269845,-0.028208923,-0.061033238,0.06286523,0.034006525,0.13885754,0.016371427,0.07276004,-0.019005591,-0.058076836,0.107937604,-0.07763507,-0.07340581,0.030335901,0.008471793,-0.092236556,0.1003578,-0.045264382,0.02345104,0.01868787,0.018111948,0.08111885,-0.11458241,-0.027059808,-0.073698096,0.07199621,-0.08838966,0.093853876,-0.06783809,0.08646118,0.11251964,0.11089099,0.1311377,0.079416685,-0.098252855
0.108558685,0.115364075,0.034285244,0.010977646,0.03702712,-0.013593373,0.04774396,0.049532007,-0.007763656,-0.09219841,0.062267937,-0.07814138,0.016410623,0.029668177,-0.07821889,0.063513935,0.052331038,-0.05118289,-0.011878709,0.074430846,0.073628455,-0.052954633,0.0083550075,-0.122321695,0.022875343,-0.08795258,-0.08596828,-0.109850794,-0.075200304,-0.14523938,0.042895686,-0.037757672,0.047868215,-0.10328501,-0.113935,0.020255996,-0.050571136,-0.042004284,-0.009078931,-0.1312523,-0.030729385,0.08365371,-0.027876848,0.009155278,-0.054252468,0.010458695,0.061930846,0.016553417,0.031846732,-0.10396175,-0.067019545,0.062041767,-0.052656345,-0.08224248,0.09540429,-0.028628292,0.05349801,-0.11563853,0.12625055,-0.14758672,-0.08748586,0.10607773,-0.03933078,-0.015397795,-0.026714036,0.08772561,0.05774588,-0.12403781,-0.11577509,0.059964214,-0.0039045075,0.0045236386,-0.05404988,-0.024425711,0.0044421772,-0.10182445,0.1110159,0.044404656,-0.12858598,-0.016557632,-0.045916047,0.025563184,-0.07472475,-0.08116412,-0.08507589,0.13648303,0.08967706,-0.00036989158,-0.023890832,0.13133074,-0.10481227,0.08069109,0.029170297,-0.11732395,0.001112067,-0.056463525,-0.10463797,-0.0056150267,-0.12456219,0.033695575,0.02014555,0.11508744,0.035834927,0.05496945,0.07235907,-0.028049555,0.052701302,-0.031653598,-0.064597376,0.095636524,0.069280714,0.027046222,-0.097684875,-0.062600374,-0.1183294,-0.098870784,-0.062407445,-0.11216075,-0.021259347,0.030028237,-0.09319821,-0.004624854,0.023262456,0.07336232,0.021874936,-0.025298242,0.066010326,-0.10295069,0.042929158,0.103692845,0.03269116,-0.07726889,-0.07132221,0.071986236,-0.0043640453,0.019109823,-0.12437878,0.07819458,0.04498848,-0.0037145356,0.08322365,0.0533725,-0.02251686,-0.11291217,-0.13605279,0.044389326,-0.11211959,0.12290174,0.025476417,0.09646865,-0.11715334,0.09482659,0.015380944,0.11673328,0.002437855,-0.086952634,-0.07287756,0.022288224,-0.03641603,0.024528645,0.085016735,-0.061400324,0.026156342,0.07806241,0.08830307,-0.031126836,0.121150486,-0.005749381,0.008781118,0.023682728,-0.02704312,0.061092626,-0.006559501,-0.09426083,-0.12698963,-0.10837923,0.038544215,0.027067302,0.06925502,-0.07536344,-0.09041496,0.019340262,-0.009081871,-0.117183365,-0.0113253975,-0.08788812,0.082729146,0.05790091,0.030333903,0.059050187,-0.025371693,0.061608016,0.028596334,-0.039787885,-0.105282016,0.0414471,-0.063760124,-0.07073239,-0.084670626,-0.08922911,-0.08980541,0.039590675,-0.028493049,-0.06580914,0.06553966,0.055023566,-0.101163335,0.06306283,-0.014171799,0.007890243,-0.03480718,0.0062738485,-0.17506228,-0.08925898,0.13426353,0.119435735,0.069375664,-0.009739224,-0.12743054,-0.027420476,0.031032886,-0.07413928,0.026761888,0.08792727,-0.011548793,-0.0036684282,-0.049777072,0.020575065,0.05058573,0.060736492,0.071081236,-0.101863004,0.12847687,0.04463208,-0.0004605063,0.05954857,0.061582252,-0.06981516,0.03211631,-0.05520636,-0.07859626,0.0073770536,-0.066056915,0.086493865,0.009952716,0.10954978,-0.08742368,0.010558317,-0.10195664,0.0010551942,-0.05298119,-0.024593659,-0.09501796,-0.058662824,-0.10859093,0.06310025
