0.005674465
-0.07408405
-0.07849148
-0.018193886
0.014894111
-0.029989535
-0.027053839
0.036279418
-0.08332892
-0.0497764
-0.010235001
-0.038084283
-0.20556231
-0.23037961
0.0118687255
-0.06565595
-0.041308384
0.15764268
-0.0006554762
0.12214385
-0.018189883
-0.09196565
-0.17249797
0.045386683
-0.05203946
-0.0895405
-0.14842041
-0.08588157
0.0014593822
0.0292647
-0.044301383
0.01889934
-0.06489052
-0.18942341
-0.412349
-0.6364841
-0.12814926
0.009488191
0.020003745
-0.024227925
0.06253772
0.0602437
-0.08142113
-0.25250152
-0.08661811
-0.05092792
-0.10074781
-0.14301877
-0.08808145
0.03180973
-0.04684887
-0.097701855
-0.0033300968
-0.079215586
-0.0058370177
-0.09431341
-0.07325515
-0.049530398
-0.12443923
0.014912729
-0.051143322
0.027782386
-0.041814633
0.13657695
0.06506788
-0.19483571
-0.037526224
-0.05474579
0.019736452
-0.13818043
-0.080208324
-0.076791264
-0.15447842
-0.115747094
-0.06394205
-0.0685684
-0.06024878
-0.20762879
-0.08766106
-0.0764783
0.00028862612
-0.05502622
-0.0060190726
-0.0060409126
0.057225004
-0.13936134
-0.20254312
-0.24558966
-0.10211903
-0.09453399
-0.16840446
-0.050242055
-0.030691616
-0.12171326
-0.08010845
-0.010553065
-0.11240089
-0.10310006
0.0031931514
0.058831703
-0.11910245
-0.06166868
-0.13367085
-0.04166896
-0.12930176
-0.054748107
-0.18827142
-0.12493336
-0.19021432
-0.04266803
0.076741375
-0.12968108
-0.072256856
0.018170392
-0.2070853
-0.1897863
0.079039685
-0.11153161
0.026390757
-0.054692227
-0.05837579
0.017
-0.09009707
-0.059140746
-0.032809693
-0.17641063
-0.05229052
-0.00091073365
-0.1222383
-0.040580694
-0.21663941
0.036711246
-0.17570816
-0.1803887
-0.031585526
-0.036213778
-0.054905128
0.00930299
-0.16884732
-0.061634522
-0.042171393
-0.013165
-0.08792111
-0.12266053
-0.11520087
-0.090388454
-0.11284893
-0.020725738
-0.13628347
-0.1196491
-0.20873705
-0.05836865
-0.21157861
-0.04492117
-0.030197876
-0.26491565
0.0062973006
-0.1519658
-0.006411044
-0.10906763
-0.1237234
-0.099561915
-0.08839756
0.018431323
-0.113772646
-0.17725456
0.06873089
-0.08212607
-0.20415047
-0.08418688
-0.064704284
0.075406514
-0.19275731
-0.09636827
-0.007990671
-0.15196683
-0.13510865
-0.11429323
-0.016679646
-0.004571933
-0.1696534
-0.06723154
-0.18318497
-0.17583953
-0.031077422
-0.18140589
-0.14325297
0.03442781
-0.16849472
0.09585166
-0.0757847
-0.09785342
-0.15703149
-0.14699095
-0.0044628186
-0.11854771
-0.13669592
-0.07022794
0.024235737
-0.05806326
-0.22458754
0.06202849
-0.09828223
-0.013940738
-0.046564545
-0.1065281
0.026432253
-0.02565495
-0.07745701
-0.051013377
0.041876648
-0.061623994
-0.16215022
-0.2273662
-0.084086254
-0.11980135
-0.06059525
-0.032079123
0.013902065
-0.12463548
-0.0887457
-0.055563718
-0.03689355
-0.02183035
0.0010239528
0.11138823
0.0090387985
-0.11395549
-0.11223359
-0.03287689
-0.11057088
0.02878017
-0.20470914
0.019012816
-0.054525442
0.13810556
-0.029348383
-0.13831647
0.02021302
0.007502519
-0.03394448
-0.09857866
-0.085174136
-0.19561101
-0.16644077
-0.04736504
-0.0720743
-0.0056496635
-0.054326214
0.008052893
-0.1579589
-0.1153229
-0.12325024
-0.041413248
-0.020797791
-0.06856539
-0.0061616898
-0.0812577
0.048837416
-0.19271812
0.014122464
-0.17704189
-0.121137604
-0.022217374
0.022870962
-0.22139534
-0.018480714
-0.0017841641
-0.050783247
-0.07408823
-0.07040783
-0.26048532
-0.11259336
-0.033269476
-0.16699928
-0.023613855
0.032279238
0.2076456
0.04276984
0.0158965
0.10584729
-0.14977719
-0.032091565
0.0059232716
-0.05439891
-0.09930345
-0.045918982
-0.21089773
-0.0637939
0.091410875
-0.073297866
0.05948305
-0.024515789
-0.0074630184
-0.15015067
0.05293797
-0.07922102
0.057655558
-0.1307918
-0.05831297
-0.129858
0.020200012
-0.07120973
-0.078005694
-0.06861364
-0.15542068
-0.21949886
-0.16409278
-0.0112640355
0.08350882
-0.057347886
0.018183973
0.070143685
-0.11257932
-0.11969553
8.664331e-05
-0.34096217
-0.045812447
-0.62731254
-0.0071621016
-0.11012333
-0.112660594
-0.080523886
-0.387522
0.0041078315
0.089750364
-0.06836729
-0.15778221
-0.16047195
-0.0023265197
-0.012423746
-0.044788327
-0.16464001
0.07226775
-0.061689474
-0.100721024
-0.07315726
-0.14603807
-0.037077323
-0.06598408
-0.03731552
-0.06394592
-0.11767994
-0.046745848
-0.08617245
0.005654168
-0.0022974862
0.019742314
0.03943195
-0.19112974
-0.0958214
-0.12376147
0.033141267
-0.040813226
-0.03264642
-0.12919568
-0.057842016
0.0076047205
-0.10030028
-0.07237574
0.06379366
-0.14492925
-0.14199722
-0.020333782
-0.035740457
-0.1105174
-0.10890212
-0.06173226
-0.036219765
-0.041881297
0.019354025
-0.076929346
0.02265735
0.0014844673
-0.29789984
-0.059901327
-0.052474685
0.056123607
0.0010362266
-0.1031391
-0.30114245
-0.053912107
-0.016646009
-0.0991755
-0.011079767
0.04601799
0.022619955
0.07576201
-0.13182059
0.054726023
-0.019121904
-0.092425376
0.008857447
-0.062210068
-0.32363153
-0.14670976
-0.30639777
-0.06818746
-0.049821362
-0.054557264
-0.20535882
-0.023097761
-0.10611663
-0.13617702
-0.024984844
-0.07253271
-0.084820874
-0.13643676
-0.038503252
-0.12705341
0.035408713
-0.112831384
-0.11324138
-0.07321313
0.16589957
-0.101961
-0.1761175
-0.2595749
-0.04655403
-0.11274808
-0.09749387
-0.05456506
-0.11861608
-0.22818245
-0.21776986
-0.123461
-0.11109438
-0.008487812
-0.048222773
-0.030774878
0.04699048
-0.08874993
0.030372927
-0.13965924
-0.23221484
-0.076588616
0.012216551
-0.11499863
-0.10657972
0.05581025
0.009948917
-0.073679104
-0.041414242
-0.2902257
0.0076377126
-0.038018204
-0.21604805
0.15131421
2.0427095e-05
-0.074493885
-0.003323815
-0.09017768
-0.0045798784
-0.06635006
-0.12565728
-0.019652871
-0.012691033
-0.16837853
-0.047671285
-0.089810126
-0.04043972
0.015594606
-0.029172918
-0.056108285
-0.03276894
-0.14930709
-0.075735606
-0.038295627
-0.049193993
-0.13442643
-0.12848306
0.0055530705
-0.13289998
-0.2975691
-0.35894656
-0.094861194
-0.16745195
-0.101747856
-0.008288181
0.07491125
-0.20248608
-0.10976368
-0.3086405
-0.06456773
-0.04243454
0.15140827
-0.13211222
0.04583309
0.06274839
-0.12403207
-0.096431285
-0.065184705
0.073593386
-0.30286664
0.04722543
-0.08646021
0.010605253
-0.14439885
-0.0909111
-0.18765314
-0.1542099
-0.013622931
-0.13148019
-0.022263594
-0.2761771
0.0006868019
-0.07977229
-0.073889814
-0.061291512
-0.17234644
-0.07397374
-0.08000791
0.096168205
-0.004585547
-0.0899865
-0.08017648
0.0040364647
-0.28147572
0.10550277
0.034812078
0.07637111
0.024443606
-0.21357118
-0.034411423
0.013248602
-0.07323042
-0.14893255
0.007862484
0.15958504
-0.052728724
-0.08221416
-0.07931323
-0.17281714
0.0021050875
-0.05170015
0.011410702
0.12030019
0.100950345
-0.10771772
-0.013778729
-0.078424335
0.0047457623
0.021900939
-0.035358362
0.027315348
-0.019538999
-0.14488372
0.10932287
-0.01498517
-0.20636745
-0.016797557
-0.0511468
-0.2551645
-0.060060505
-0.088785134
-0.080518536
-0.033753302
0.037936367
-0.12949277
0.04231641
-0.03967851
0.041749597
0.048527416
-0.32334447
-0.08595335
-0.012203753
0.12533955
-0.020446762
0.11590632
-0.08895819
-0.086862594
-0.19497292
-0.10042223
-0.115005195
-0.17652696
-0.0355439
-0.07517926
-0.16579258
0.0021213703
0.1163307
0.021837566
-0.055087503
-0.19718546
-0.0006944987
-0.22576351
0.03200813
-0.086652555
-0.22469734
-0.011813183
-0.16351937
-0.1338705
-0.051153876
-0.06342873
-0.1904082
-0.12198734
-0.15553942
-0.101189055
-0.02462322
-0.121237665
-0.03421694
-0.12546219
-0.050566614
-0.0086914925
-0.07216382
0.021148216
-0.10963401
0.008522295
0.19990563
-0.012096232
-0.055824492
-0.16776654
-0.06444324
-0.0058000823
-0.14711253
-0.095988095
-0.04802675
-0.08176781
-0.07772512
-0.24791534
0.024920605
-0.1620025
-0.2389336
-0.12149428
0.014574041
-0.125733
0.17856634
-0.05545323
-0.0575439
0.06020467
-0.0612707
0.10972382
0.07825919
-0.09908882
-0.025295753
0.011595241
-0.14614119
-0.07888308
0.02697124
-0.10335893
0.008814286
-0.083982505
-0.28355822
-0.029368114
0.12915553
0.016034521
-0.06700359
0.058633465
-0.102468684
-0.07999129
-0.087128825
0.06980809
-0.068322845
-0.43991697
-0.0497603
-0.16692865
-0.02264576
-0.07468097
-0.08722929
-0.15839447
-0.0420878
-0.008454112
-0.0779764
-0.049108136
-0.12048897
-0.22179799
-0.0655357
-0.054188978
-0.20865247
-0.07401784
-0.022252044
-0.07555952
0.02386218
-0.036321975
-0.2928122
-0.09869208
-0.16459052
-0.13143452
-0.14395125
-0.055059373
-0.053280994
0.025232868
-0.041127726
-0.06801232
-0.27220157
-0.34808284
-0.07552104
-0.026054565
-0.19399388
-0.029910106
-0.085678995
-0.06668905
-0.16508338
-0.12946036
-0.056315098
-0.12764986
0.0060725957
-0.08411337
-0.06748568
-0.115476094
-0.24319637
-0.35440668
0.088374645
-0.027214922
-0.017106162
-0.018304834
-0.039000675
-0.036133673
0.0031266126
0.043428887
0.106063046
-0.07997429
0.2736267
-0.048287984
-0.08771323
0.0202491
-0.07620429
-0.17667346
0.053212963
-0.06312992
-0.10461519
-0.025233869
0.005947751
-0.05415535
0.1160721
0.041085884
-0.016463837
-0.03388349
0.064704746
-0.31212598
-0.13639638
-0.053249408
-0.02392923
-0.13088575
-0.0070933946
-0.2299607
-0.021580948
0.040914524
-0.08733304
0.11833239
-0.13787495
-0.016443716
-0.08302748
-0.052971974
-0.1367554
-0.049591143
0.03241612
-0.13150495
-0.20150784
-0.17264724
-0.25331748
0.04034811
-0.06575721
-0.029961355
0.03999471
-0.019723644
-0.08942834
-0.06289908
-0.14150165
-0.069681816
-0.03639261
-0.022272883
-0.021165011
-0.084241144
-0.13968585
0.045567513
0.044632986
-0.1700877
-0.03367226
